[[0.40558502078056335,2.573664903640747,-1.120745062828064,1.7234060764312744,-0.5308768153190613,0.20707324147224426,0.02885448932647705,-0.008456896990537643,-3.126481056213379,-1.6767644882202148,-0.0028333738446235657,-0.7375840544700623,-0.8259432911872864,2.058260917663574,0.014118017628788948,0.8550490736961365,-0.5344337821006775,-0.24083590507507324,0.8564322590827942,0.10145136713981628,-0.03967364504933357,-0.9226676225662231,-0.9340196847915649,-0.018939252942800522,-0.05382424592971802,-0.5016708374023438,0.791254460811615,3.4510657787323,1.2381542921066284,0.9840869903564453,-1.5203206539154053,1.9589041471481323,1.9630868434906006,1.4364315271377563,-0.8715819120407104,-0.26741987466812134,3.348142147064209,-1.106953501701355,1.950197696685791,1.573197841644287,-1.9920943975448608,-0.7319456934928894,0.031110381707549095,0.7772164344787598,-0.28916236758232117,0.32189875841140747,0.8799062371253967,3.065687417984009,-0.5828192830085754,0.354209840297699,-0.37507474422454834,-1.5624585151672363,2.6212122440338135,2.2104527950286865,0.9701420664787292,-1.720331072807312,-0.4438856542110443,2.9696919918060303,-0.6610593199729919,-0.5716567635536194,2.1750786304473877,-0.3922443389892578,2.0752956867218018,0.7922548651695251]]