[[-1.9344640970230103,-1.237379550933838,0.5006524324417114,2.9871973991394043,0.294529527425766,0.6656203866004944,-0.31733524799346924,-1.3052059412002563,0.17703032493591309,-1.0959669351577759,0.1709228903055191,1.9939682483673096,-0.5912102460861206,-1.545870304107666,2.3188891410827637,-0.7132160663604736,0.7118589878082275,0.840455949306488,3.749300956726074,-0.6226570010185242,0.6126304864883423,1.172257900238037,1.0980048179626465,-1.8380529880523682,-0.3232250511646271,0.06835393607616425,0.06536905467510223,-0.7919314503669739,-2.662252426147461,-1.1352282762527466,-0.5768324732780457,0.6597080230712891,0.798333466053009,-0.10434059053659439,-1.3083865642547607,2.3844776153564453,0.2988439202308655,-2.0524942874908447,0.623732328414917,1.1922703981399536,-0.6422793865203857,-0.12531395256519318,-0.17448194324970245,-0.2246946096420288,-2.6053876876831055,-0.7490347623825073,-0.9441508650779724,-1.4202253818511963,-1.974399447441101,1.766983985900879,-0.5582559704780579,-1.1824787855148315,-1.8382039070129395,3.6939408779144287,2.5180563926696777,2.143665313720703,0.3306693434715271,4.377101898193359,-1.9099024534225464,1.5093287229537964,0.019394801929593086,-0.5776046514511108,-0.2703944444656372,1.7378649711608887]]