[[0.002054391661658883,-0.11847001314163208,-0.10179659724235535,-0.0076754470355808735,0.004436730872839689,-0.09427833557128906,0.053437717258930206,0.07057130336761475,0.2822837829589844,-0.06715166568756104,-0.27735552191734314,0.1161479726433754,-0.016150163486599922,-0.21292366087436676,-0.05609419569373131,-0.34038978815078735,0.01538696326315403,-0.276163250207901,-0.19807572662830353,-0.08526511490345001,-0.06811301410198212,0.043461866676807404,-0.1760397106409073,0.08931703865528107,-0.022573474794626236,-0.04909183084964752,-0.02416081540286541,0.09319623559713364,0.1492566466331482,-0.06504448503255844,-0.39077994227409363,0.015963271260261536,0.06622757762670517,-0.2035788595676422,-0.28510919213294983,0.15796732902526855,-0.10329574346542358,-0.2100367695093155,-0.09191139787435532,0.27194923162460327,0.1545771062374115,0.039569344371557236,-0.2548549771308899,0.05135325342416763,0.2511056661605835,-0.2421288937330246,0.047504723072052,-0.4241028130054474,-0.11829748004674911,-0.05123370513319969,-0.22603729367256165,0.28374817967414856,0.06373879313468933,0.10916143655776978,-0.13387805223464966,0.23268386721611023,0.039568327367305756,0.17643392086029053,-0.31658974289894104,0.08140456676483154,0.189765065908432,0.04282105714082718,0.35775434970855713,-0.22759173810482025,-0.3119862973690033,-0.09765210002660751,0.1390237808227539,0.043268606066703796,-0.1648935079574585,0.17919211089611053,0.24076607823371887,-0.0013282925356179476,-0.0597892627120018,-0.19819365441799164,0.3787411153316498,-0.06263216584920883,-0.04892218858003616,0.09440962970256805,-0.02876860275864601,-0.09051697701215744,0.16326305270195007,-0.43649154901504517,0.18533658981323242,0.1224520355463028,-0.27648746967315674,0.1895764172077179,-0.004010836128145456,0.13550816476345062,-0.152187779545784,-0.33757880330085754,0.19430410861968994,-0.21500732004642487,-0.11093005537986755,0.11752209067344666,-0.08334683626890182,-0.03155875951051712,-0.12164492905139923,-0.12554576992988586,0.0016841721953824162,0.09432584792375565,-0.30056506395339966,-0.05394238978624344,-0.012040391564369202,-0.4848449230194092,-0.3595528304576874,-0.16845093667507172,-0.23875176906585693,-0.2888239920139313,-0.025265101343393326,0.24817389249801636,0.0001289739739149809,0.07489538937807083,0.16370059549808502,-0.021841667592525482,0.26920121908187866,-0.03346643224358559,-0.034456342458724976,-0.13048700988292694,-0.018691984936594963,-0.1641768515110016,0.09645050764083862,0.16506753861904144,-0.29029300808906555,0.01675674505531788,0.03534342348575592,0.0029574804939329624,0.12445765733718872,-0.13826866447925568,-0.03824928402900696,0.06906181573867798,0.20319460332393646,0.01114444900304079,-0.0064524998888373375,0.03656965121626854,-0.2000412940979004,-0.2897084951400757,-0.04218205437064171,-0.13818296790122986,0.1643119603395462,0.008296775631606579,0.1649513840675354,-0.010356125421822071,-0.20692305266857147,0.020205408334732056,-0.12440995126962662,0.13248372077941895,-0.017355725169181824,-0.32937827706336975,-0.2293732762336731,-0.09352875500917435,0.18757416307926178,-0.2678697109222412,0.1396702378988266,0.09837067127227783,0.17682631313800812,-0.0560104101896286,0.14595723152160645,-0.25215280055999756,0.15028764307498932,0.022054241970181465,-0.06852667778730392,0.13972364366054535,0.25566908717155457,-0.13684161007404327,0.06714408099651337,-0.020774036645889282,-0.4156375527381897,-0.5440743565559387,0.024023912847042084,-0.06862731277942657,-0.054014869034290314,-0.04839091747999191,-0.010827499441802502,0.09063146263360977,0.04544910043478012,0.04846391826868057,-0.0716225653886795,-0.0597233809530735,-0.1020110547542572,-0.2882790267467499,-0.31914377212524414,-0.10641709715127945,-0.09811793267726898,0.08225499093532562,-0.026012178510427475,0.279201477766037,-0.27204373478889465,-0.1595725417137146,-0.24542151391506195,0.25050196051597595,0.0766022652387619,-0.3977929353713989,-0.07973311096429825,-0.1371297687292099,0.06173231452703476,-0.3303506374359131,-0.09632380306720734,-0.46404674649238586,0.053347326815128326,0.035585302859544754,-0.1461630016565323,0.08603091537952423,-0.07555557042360306,-0.4657132029533386,0.15328451991081238,0.12845173478126526,-0.10261508077383041,0.24044382572174072,-0.2502064108848572,0.00027777341892942786,-0.31399470567703247,0.15135039389133453,-0.2104106992483139,0.02993224933743477,-0.32171663641929626,-0.09387961030006409,0.23402518033981323,0.32394614815711975,-0.25543859601020813,0.014924965798854828,-0.020153220742940903,-0.5082001090049744,-0.08211638033390045,-0.5413429737091064,-0.06348719447851181,-0.17210058867931366,-0.1557353287935257,-0.03615734353661537,-0.08725737035274506,0.376613587141037,-0.2816179394721985,0.22667965292930603,-0.20238886773586273,-0.1264752745628357,0.4643455147743225,-0.06062418222427368,0.08662499487400055,0.32699939608573914,-0.5576651096343994,-0.03403915837407112,0.2890331745147705,0.12348036468029022,-0.17176219820976257,-0.17686492204666138,0.30334705114364624,0.092551089823246,-0.14966605603694916,0.06956985592842102,-0.3438156843185425,-0.11931432038545609,0.05838999152183533,-0.18142163753509521,0.09652963280677795,-0.5461073517799377,-0.05948345735669136,-0.06236252933740616],[-0.48634588718414307,-0.11662670969963074,-0.11707067489624023,0.03670269250869751,-0.008998481556773186,-0.026779893785715103,-0.21341180801391602,0.29674232006073,-0.1740855723619461,-0.10901589691638947,0.06932845711708069,-0.06432740390300751,0.21482741832733154,-0.17893993854522705,-0.11817015707492828,0.09815476834774017,-0.2015201896429062,-0.0394306518137455,0.023258954286575317,0.23674659430980682,0.14827319979667664,-0.005417613312602043,0.09771230816841125,-0.27491798996925354,0.07982189208269119,0.23550353944301605,-0.06351594626903534,0.11262354254722595,-0.14857091009616852,-0.04514160752296448,0.21886524558067322,-0.14271090924739838,-0.34700867533683777,0.1036728098988533,-0.013641481287777424,0.058914776891469955,-0.08671838790178299,-0.22949425876140594,0.02091420814394951,0.13383787870407104,-0.15215300023555756,0.0471700020134449,0.13038115203380585,-0.2699024975299835,0.08060804754495621,0.14516152441501617,0.0590486116707325,-0.23413364589214325,-0.011079077608883381,-0.18951034545898438,-0.0865040272474289,-0.0246917512267828,-0.24772518873214722,0.0733065977692604,0.05319022759795189,0.06150994077324867,-0.11096030473709106,0.16449320316314697,0.13436771929264069,-0.04197914898395538,0.07863957434892654,0.03619133308529854,-0.06351266801357269,-0.18237578868865967,-0.0839439108967781,0.08417124301195145,-0.06721050292253494,-0.05883336812257767,0.29822245240211487,-0.29727092385292053,-0.02591722644865513,-0.019444307312369347,-0.15315450727939606,-0.05800328403711319,-0.07002633810043335,0.05800461024045944,0.01985800266265869,-0.026303144171833992,0.17150567471981049,0.012612399645149708,-0.17559900879859924,-0.07578707486391068,-0.2582796514034271,-0.13803048431873322,0.10770233720541,0.05737250670790672,-0.2995825409889221,-0.03275954723358154,-0.17123360931873322,-0.11569619178771973,-0.028761159628629684,-0.04810069501399994,0.02392629347741604,-0.12756548821926117,-0.04618864506483078,-0.007853960618376732,0.1878160685300827,0.2100098729133606,-0.01423870399594307,-0.28881365060806274,-0.1540011614561081,0.041049789637327194,-0.43409061431884766,-0.08191198855638504,-0.20111776888370514,0.07705043256282806,-0.17769314348697662,-0.22936061024665833,-0.08717183768749237,0.24069145321846008,0.2920166552066803,-0.3858991861343384,-0.36644187569618225,0.14161595702171326,-0.20989958941936493,0.06809721887111664,0.0008499911054968834,0.34228384494781494,-0.18779344856739044,-0.008684120140969753,-0.13019683957099915,-0.3530115783214569,-0.06785848736763,-0.08202159404754639,-0.1646963208913803,-0.035472843796014786,-0.07122085988521576,0.020101170986890793,0.0391823947429657,-0.31044602394104004,-0.010212268680334091,-0.22444558143615723,0.028429413214325905,-0.031052304431796074,0.23105187714099884,-0.11759550124406815,0.13703179359436035,-0.014652444049715996,-0.03673546761274338,0.340700626373291,-0.03375996649265289,-0.31761619448661804,0.09905776381492615,-0.12397629022598267,0.11125783622264862,-0.05356549099087715,0.013328715227544308,0.04285798221826553,-0.06984839588403702,-0.2518967092037201,-0.1771029680967331,-0.04703283682465553,0.11802387982606888,0.0867152214050293,0.1824187934398651,-0.1257237195968628,-0.17180222272872925,0.09801088273525238,0.1640625149011612,0.2504611909389496,0.04659802094101906,0.21007658541202545,-0.28988054394721985,0.16677281260490417,0.047744184732437134,-0.09515760093927383,0.18559642136096954,0.07833930850028992,0.029395805671811104,0.2209121435880661,-0.09144371002912521,-0.2573053538799286,-0.06801708042621613,-0.16061939299106598,0.19993942975997925,0.04499063268303871,-0.0872180238366127,0.2863892614841461,0.3636726438999176,0.1926456093788147,-0.03846616670489311,-0.08476006984710693,0.06003919988870621,-0.1416306346654892,-0.029994705691933632,-0.022200889885425568,0.10234399139881134,0.2736465632915497,-0.4174477159976959,-0.04369098320603371,-0.21921367943286896,0.06753601878881454,0.12158334255218506,0.09079181402921677,0.07821080833673477,-0.1971907764673233,-0.15113849937915802,0.1789678931236267,-0.2307041734457016,0.03173086419701576,-0.1389440894126892,0.058582853525877,-0.13210800290107727,-0.2022799402475357,-0.09294501692056656,0.1215486153960228,0.2877237796783447,0.030293576419353485,-0.040665965527296066,0.24310651421546936,0.31293392181396484,-0.16533012688159943,0.04095016419887543,-0.18982230126857758,-0.2623698115348816,0.10594126582145691,-0.02784637361764908,0.1974078267812729,0.024809222668409348,-0.07618166506290436,0.05316955968737602,-0.10961136221885681,-0.19995512068271637,-0.008534866385161877,-0.07683581858873367,-0.087122343480587,-0.2651284635066986,-0.15867917239665985,-0.16123701632022858,0.10106489062309265,0.04311254248023033,-0.17096567153930664,-0.09403862059116364,-0.1295015662908554,-0.1660590022802353,0.1373603790998459,-0.014850016683340073,0.3591978847980499,-0.004576675593852997,0.2383863925933838,-0.43186402320861816,0.08093197643756866,-0.014720002189278603,-0.12577418982982635,0.06388815492391586,-0.03512093052268028,-0.12520718574523926,-0.26154598593711853,0.23699788749217987,0.316022127866745,-0.23922842741012573,0.04441572725772858,0.39735499024391174,-0.11700798571109772,-0.10653761774301529,-0.12155934423208237],[0.11680325120687485,-0.21321140229701996,-0.39523905515670776,-0.3039163649082184,-0.18584305047988892,0.14924289286136627,0.236672505736351,0.10266117006540298,-0.37217164039611816,-0.07889191061258316,0.17772722244262695,-0.22566425800323486,0.18355248868465424,-0.015451070852577686,0.19054271280765533,-0.10154876112937927,0.09533023834228516,0.008069432340562344,0.1317787617444992,-0.2025051712989807,0.016604702919721603,-0.14016307890415192,-0.06911203265190125,-0.15466932952404022,-0.056501127779483795,0.2309473156929016,-0.1827707588672638,-0.059197474271059036,0.026559969410300255,-0.005864968989044428,0.21196791529655457,-0.013463473878800869,-0.013673059642314911,0.07204408198595047,0.21255776286125183,0.25973963737487793,0.04995962604880333,-0.16555041074752808,0.22114546597003937,-0.1422155499458313,-0.0075517757795751095,-0.33248764276504517,0.04277746006846428,-0.06218883395195007,-0.021512210369110107,0.22680653631687164,0.1561724692583084,-0.17064453661441803,-0.08815284073352814,-0.3864019215106964,-0.034528519958257675,-0.1535632461309433,-0.2512102723121643,-0.3177906274795532,-0.09962880611419678,0.27162107825279236,-0.18145643174648285,0.18796445429325104,-0.26665008068084717,-0.09257414937019348,0.23980650305747986,0.03643687441945076,0.24723875522613525,-0.019020630046725273,0.017507409676909447,-0.0663527101278305,0.15263192355632782,-0.09162896871566772,-0.24678337574005127,-0.20572897791862488,-0.3342568874359131,-0.08346578478813171,0.08575103431940079,-0.14983536303043365,-0.08594093471765518,0.10466409474611282,-0.07927919179201126,0.0342160202562809,-0.2194005250930786,-0.00464220717549324,0.1669573038816452,-0.17624840140342712,-0.08053918182849884,0.04867132008075714,0.014217485673725605,-0.09755584597587585,0.12088898569345474,-0.13802570104599,0.04040950909256935,0.4231818914413452,-0.054354507476091385,-0.13729733228683472,0.11025752872228622,-0.3015376031398773,-0.25789713859558105,-0.0863552987575531,-0.1460217535495758,-0.16606301069259644,-0.002098166849464178,-0.3566054403781891,0.03428078815340996,-0.17849747836589813,-0.13424496352672577,-0.44198375940322876,-0.009448764845728874,-0.2656649649143219,0.11026453971862793,-0.39749962091445923,-0.017611825838685036,-0.21962682902812958,0.17556868493556976,-0.1567869782447815,0.08499418944120407,0.05905095487833023,-0.05313431844115257,-0.05185038223862648,-0.24760355055332184,-0.15299347043037415,0.29018843173980713,-0.04891587793827057,-0.11182911694049835,-0.46121537685394287,0.009908750653266907,0.0467323437333107,-0.4030400216579437,0.12803293764591217,-0.08753007650375366,0.1908109337091446,0.11546705663204193,-0.04982355609536171,0.21800309419631958,-0.2271154671907425,-0.24926762282848358,0.15645720064640045,0.12660011649131775,-0.2093733549118042,-0.36828169226646423,0.09217251092195511,-0.08174167573451996,0.03427493944764137,-0.32405945658683777,0.05587081238627434,0.1821729689836502,-0.0915442705154419,0.21583043038845062,0.08897503465414047,-0.1420697271823883,-0.15021200478076935,0.1572612226009369,0.062080055475234985,0.0016943472437560558,-0.014202237129211426,-0.13042496144771576,-0.12112265825271606,0.01945873722434044,-0.17783211171627045,0.11839129775762558,0.05148690193891525,-0.11582450568675995,-0.0028750598430633545,0.01810944825410843,-0.15187563002109528,-0.09920705854892731,-0.27008917927742004,0.05432315915822983,0.14834685623645782,-0.01015916746109724,-0.02550424635410309,-0.06575164943933487,-0.007104484364390373,-0.1616581380367279,0.26686716079711914,0.08987299352884293,0.16114716231822968,-0.18632762134075165,-0.2008981853723526,0.10234355181455612,-0.06369611620903015,-0.2654702365398407,0.06741935759782791,-0.2303377389907837,0.12002173066139221,0.15810221433639526,-0.14499540627002716,0.01054740697145462,0.07125144451856613,0.45265090465545654,-0.08484380692243576,-0.22652705013751984,-0.21599294245243073,-0.1334531456232071,-0.0029357902240008116,-0.08718313276767731,0.030194398015737534,-0.1765349805355072,-0.32148829102516174,0.03660789877176285,0.10571946203708649,-0.11968384683132172,-0.19707773625850677,-0.06921648979187012,0.2142641693353653,-0.23706558346748352,-0.23403410613536835,-0.23492135107517242,-0.19788148999214172,-0.17052188515663147,-0.17831642925739288,-0.2831694781780243,-0.07066851109266281,0.2354263812303543,-0.15918955206871033,-0.24592548608779907,0.07051476091146469,-0.042218148708343506,0.07596870511770248,-0.4868561625480652,0.08763910084962845,0.14596520364284515,0.027675066143274307,-0.07478709518909454,0.4395695626735687,0.009383540600538254,-0.2377481609582901,0.10142239928245544,-0.1994447261095047,0.33831262588500977,-0.2331417351961136,-0.3478934168815613,-0.043192021548748016,-0.16792002320289612,-0.201761394739151,0.13566981256008148,0.35892242193222046,-0.003624156815931201,0.14290358126163483,-0.3207637667655945,-0.20908193290233612,-0.11304328590631485,0.11941774189472198,0.04125194624066353,-0.39579758048057556,0.11392095685005188,-0.002298855222761631,0.2955467402935028,-0.18790894746780396,-0.060155052691698074,-0.374004989862442,-0.233246311545372,0.17123648524284363,-0.3979744613170624,0.2598927319049835,-0.2843572795391083,0.030574779957532883,-0.16481582820415497,0.0546199232339859],[-0.0009249381255358458,-0.15078625082969666,0.22247475385665894,-0.020752396434545517,-0.27211281657218933,-0.04554956406354904,0.0744527131319046,-0.521945595741272,0.17506472766399384,-0.14620733261108398,0.026517249643802643,0.16016173362731934,0.286487877368927,0.07599280029535294,-0.06961888074874878,-0.07294727861881256,0.07955392450094223,-0.002961869817227125,0.4358004331588745,0.09296508133411407,0.12844721972942352,-0.2524380683898926,0.10037048906087875,-0.2878234088420868,0.04540371894836426,-0.050888676196336746,0.021696055307984352,-0.08035604655742645,0.018993649631738663,-0.19986125826835632,-0.23699913918972015,-0.11138160526752472,-0.08404704928398132,-0.2609071433544159,-0.13831785321235657,0.1386694312095642,-0.01307684276252985,0.02968825213611126,-0.23095248639583588,-0.09161166101694107,-0.1673339456319809,0.06917724758386612,0.19941149652004242,0.10905644297599792,0.10667090117931366,0.056648947298526764,0.11854168027639389,-0.0671040490269661,-0.22967472672462463,-0.08733794838190079,-0.003975040279328823,0.04507467895746231,-0.0315738320350647,-0.27782490849494934,-0.16347037255764008,-0.045341815799474716,0.12651482224464417,0.19255277514457703,-0.038239847868680954,-0.14865335822105408,0.27894869446754456,-0.2099587768316269,-0.05975157767534256,0.26989713311195374,-0.3665699362754822,0.08029960095882416,-0.2974145710468292,-0.2576177418231964,0.11834516376256943,0.18987061083316803,-0.1682293713092804,0.16238735616207123,0.00808241032063961,0.14798158407211304,0.009362755343317986,0.15597501397132874,0.10352661460638046,0.04680528864264488,-0.005641825497150421,-0.03383699432015419,0.10539579391479492,-0.17315037548542023,-0.3436328172683716,0.22925099730491638,-0.013650824315845966,-0.16204500198364258,-0.07294114679098129,-0.09669137746095657,0.15341471135616302,0.06071887165307999,-0.006807791069149971,-0.4590567946434021,-0.1621178537607193,0.1868489682674408,-0.3216129541397095,-0.025563744828104973,0.1589394062757492,-0.01931033283472061,-0.08777958899736404,-0.03293226659297943,0.12671738862991333,-0.1709880828857422,-0.038995493203401566,-0.19364696741104126,-0.26409414410591125,-0.0375395268201828,-0.27457964420318604,0.3838769495487213,0.16507188975811005,-0.1767563819885254,-0.20061469078063965,-0.04920871928334236,0.06926443427801132,0.002508803503587842,-0.06109399348497391,-0.04885656014084816,-0.026267841458320618,-0.047983426600694656,0.12973754107952118,0.06764236092567444,-0.09003480523824692,-0.026790393516421318,-0.08628548681735992,-0.0990021601319313,0.11098572611808777,0.2081424444913864,0.17275550961494446,-0.14525382220745087,0.009018396958708763,0.002306785201653838,-0.1592024862766266,-0.11966229975223541,0.17941735684871674,0.23726528882980347,-0.07490549236536026,0.07674863934516907,-0.22261527180671692,-0.13671047985553741,-0.06402556598186493,-0.11470860242843628,-0.26201578974723816,-0.04219397157430649,-0.0681023821234703,0.015023449435830116,-0.00213763234205544,0.33618199825286865,-0.08735230565071106,-0.4585401117801666,0.20760001242160797,0.0779246911406517,0.0642726942896843,0.11367964744567871,-0.16474363207817078,0.2174542248249054,0.06654176861047745,0.11995146423578262,0.12407788634300232,0.0012304361443966627,-0.4363754391670227,0.08295681327581406,-0.09354656934738159,-0.012987542897462845,0.24692006409168243,-0.1300659477710724,-0.1825701892375946,-0.22117310762405396,0.27331092953681946,0.5148012042045593,0.24143275618553162,-0.24858441948890686,-0.3982836902141571,0.17924541234970093,0.12064789980649948,-0.08381533622741699,-0.1681070178747177,0.36069822311401367,-0.02865917794406414,0.10970284789800644,-0.18179281055927277,0.08048999309539795,-0.0452243909239769,0.1002902090549469,0.04116938263177872,-0.5010935664176941,-0.09705400466918945,0.11227741092443466,0.11969926953315735,0.1302051991224289,0.13910822570323944,0.049845464527606964,0.0032746149227023125,-0.21745188534259796,-0.31351932883262634,0.30882564187049866,-0.3985011875629425,-0.0988972932100296,0.10329999029636383,-0.09188151359558105,-0.06543904542922974,0.15617921948432922,-0.010694955475628376,-0.2570776641368866,-0.2571394145488739,0.2152058184146881,0.1744639277458191,-0.0009756973013281822,0.22132223844528198,-0.11619041115045547,-0.07977553457021713,-0.19891953468322754,-0.4006864130496979,-0.09456087648868561,-0.37826570868492126,0.04090047627687454,-0.28243136405944824,-0.2557864785194397,0.05848584324121475,-0.09215130656957626,-0.3792506754398346,0.04885273799300194,-0.02447759546339512,-0.4296504557132721,-0.006411323323845863,-0.03383973240852356,0.08994992077350616,-0.2671283781528473,0.15948615968227386,0.1965952217578888,0.1664070188999176,-0.052955932915210724,-0.05841003730893135,-0.12059010565280914,0.04734140634536743,-0.2510637044906616,-0.0075892237946391106,-0.32454222440719604,-0.1039520800113678,0.13262039422988892,-0.200680211186409,-0.04491998255252838,-0.2608323395252228,0.04226384311914444,0.13745972514152527,0.049461089074611664,-0.24837256968021393,-0.31458714604377747,-0.10181433707475662,-0.051422763615846634,0.009176907129585743,-0.10003814101219177,0.00345323677174747,0.1604558378458023,-0.2324049472808838,-0.15872006118297577,-0.14152111113071442,-0.20860815048217773],[0.2600709795951843,-0.20046602189540863,-0.12127668410539627,-0.09289608150720596,0.1999407559633255,-0.08368407934904099,-0.1941445767879486,0.20723189413547516,-0.14064356684684753,-0.2250477820634842,0.18186603486537933,-0.34779417514801025,-0.059320610016584396,0.051741451025009155,0.31032440066337585,-0.1268598884344101,-0.003102068090811372,-0.27069801092147827,-0.04369955509901047,0.11410295218229294,-0.2257799357175827,-0.2512083351612091,0.18277670443058014,0.20142841339111328,-0.09426914155483246,-0.19259773194789886,-0.07442717254161835,-0.06245523318648338,-0.00650298735126853,0.008983969688415527,-0.06259701400995255,0.16856366395950317,0.14660313725471497,-0.011704007163643837,0.17950457334518433,0.09056265652179718,-0.0036216401495039463,0.12283966690301895,-0.0711827501654625,-0.05839172378182411,-0.3546854555606842,0.11996271461248398,0.32118913531303406,0.12993355095386505,0.0743459165096283,0.11262734979391098,-0.04418377950787544,-0.06387980282306671,0.19203057885169983,0.23328642547130585,0.17866142094135284,-0.08536240458488464,0.13497968018054962,0.10374541580677032,0.26800981163978577,0.16983875632286072,-0.27149680256843567,0.02769121341407299,-0.12034337222576141,-0.05363984778523445,-0.13588513433933258,0.03946508839726448,-0.06318218261003494,-0.015319441445171833,-0.26285430788993835,-0.13499930500984192,-0.15529067814350128,-0.1568910926580429,0.014240916818380356,0.09383761882781982,-0.010725477710366249,-0.3017861247062683,-0.09426718205213547,0.29682767391204834,0.06198546662926674,0.10840849578380585,0.11252203583717346,0.08736678957939148,0.015094757080078125,0.023919427767395973,-0.18035897612571716,0.47018685936927795,-0.11543590575456619,-0.3080623745918274,-0.1554604321718216,0.04009582847356796,-0.04744958505034447,-0.10528367757797241,-0.07640651613473892,-0.06530147045850754,0.22991006076335907,-0.12542663514614105,-0.005199913866817951,-0.30155447125434875,-0.14911818504333496,-0.17922620475292206,-0.09657038748264313,0.1728675663471222,0.04603802040219307,0.1294713318347931,0.21815432608127594,0.0878264307975769,0.16541367769241333,-0.252475768327713,0.0937831699848175,0.08863775432109833,-0.1381451040506363,-0.1475919932126999,0.004916279576718807,-0.1878575086593628,0.2561708986759186,-0.045054592192173004,-0.24911348521709442,0.050264906138181686,-0.14644280076026917,0.34529390931129456,0.07251691818237305,-0.10381535440683365,0.007055927533656359,-0.06653443723917007,0.09595702588558197,0.20945440232753754,0.07501433044672012,0.005869241431355476,0.011710498481988907,0.2979130446910858,-0.18435584008693695,0.14560182392597198,-0.2938082218170166,-0.33088889718055725,-0.09672295302152634,-0.17066508531570435,-0.13492251932621002,0.14901235699653625,0.33515167236328125,-0.08773253858089447,-0.15041916072368622,-0.3166409730911255,-0.12814806401729584,0.09350369870662689,-0.28124579787254333,0.10551731288433075,0.23939833045005798,0.24274015426635742,-0.27809223532676697,-0.13441690802574158,0.07797706127166748,0.131943017244339,-0.29319190979003906,-0.08150513470172882,-0.058655645698308945,-0.01887766644358635,0.05577892065048218,-0.03375943377614021,-0.03337377309799194,-0.0625324547290802,0.13223786652088165,-0.012630375102162361,-0.19486279785633087,0.053856104612350464,0.17590880393981934,0.09772665053606033,0.06461094319820404,0.0014474457129836082,0.12118062376976013,-0.15351754426956177,0.04202048480510712,-0.08209705352783203,-0.04210621491074562,0.06746446341276169,0.09176257252693176,-0.1754721999168396,0.06449682265520096,0.2755216658115387,-0.11989157646894455,0.02146146446466446,-0.028222860768437386,0.08227100968360901,0.14865636825561523,-0.15904474258422852,-0.22084181010723114,-0.010713726282119751,0.33900734782218933,0.2610418200492859,-0.2707614302635193,0.046819765120744705,0.09226300567388535,0.0570279061794281,-0.25468847155570984,0.010009128600358963,0.13319651782512665,0.11604415625333786,0.10008121281862259,-0.012310370802879333,-0.36495134234428406,0.2111678272485733,-0.0020851942244917154,0.03324573114514351,0.012476424686610699,0.11874493211507797,-0.008872441947460175,-0.00789473857730627,0.14575795829296112,-0.11947391927242279,-0.05652137100696564,-0.312850683927536,0.11124184727668762,-0.07598985731601715,-0.12043888121843338,0.04524889588356018,-0.07911145687103271,0.04572354257106781,-0.0996692031621933,0.22431102395057678,0.06398274004459381,-0.03847765922546387,-0.05729779601097107,-0.14505021274089813,-0.13264992833137512,0.1479446291923523,-0.3370225727558136,0.19424332678318024,-0.26839542388916016,-0.06604952365159988,-0.37861406803131104,0.17016662657260895,-0.4333628714084625,0.04760636389255524,0.16861513257026672,-0.21493443846702576,0.04293897747993469,-0.014643220230937004,-0.25357210636138916,-0.2179684042930603,0.1830732524394989,0.30911943316459656,0.1176176518201828,0.009056204929947853,-0.07093605399131775,0.11858999729156494,0.013858679682016373,0.5506694912910461,-0.05329394340515137,-0.2451118379831314,-0.032237522304058075,-0.38135161995887756,0.2712365388870239,0.060759373009204865,0.17715249955654144,-0.10131921619176865,-0.10379733145236969,-0.08466976881027222,0.029196182265877724,-0.06104017049074173,0.10107738524675369,-0.03695743530988693],[0.1155674159526825,-0.09888607263565063,0.07453624159097672,0.312372088432312,-0.11379788815975189,-0.0376058891415596,0.1192268580198288,-0.038627371191978455,-0.12352282553911209,0.10256127268075943,-0.26027822494506836,-0.04357273131608963,-0.26840275526046753,-0.002490652957931161,0.14298218488693237,-0.10881103575229645,0.20258042216300964,0.010947957634925842,0.30624672770500183,0.13046330213546753,0.3463861346244812,0.1439235508441925,0.01404527947306633,0.012669750489294529,0.05525580793619156,0.1907631754875183,0.030812645331025124,-0.03889104723930359,-0.248320072889328,-0.27140024304389954,-0.011253603734076023,0.14517058432102203,-0.13448575139045715,0.012893715873360634,-0.0028078972827643156,-0.1006782203912735,-0.1951681673526764,-0.054429586976766586,-0.007049056701362133,0.23126032948493958,-0.18063850700855255,0.057021547108888626,-0.017500193789601326,0.0904545858502388,-0.06747706979513168,0.02417011372745037,0.2585437297821045,-0.17844288051128387,-0.35069790482521057,0.20996810495853424,0.06967546790838242,0.2777189612388611,-0.07129762321710587,-0.28168171644210815,-0.281208336353302,0.24197182059288025,-0.11078435182571411,-0.058916639536619186,-0.2789296805858612,-0.014605287462472916,0.24852129817008972,-0.20836764574050903,-0.0727003887295723,0.009018897078931332,-0.19421997666358948,-0.31234967708587646,0.07789511233568192,-0.2538219094276428,-0.04100172594189644,0.0032749425154179335,0.06706845760345459,-0.027156535536050797,0.12323091179132462,0.3027391731739044,0.054325371980667114,-0.12573882937431335,-0.18896912038326263,-0.09604036808013916,-0.12989011406898499,0.008995319716632366,0.3290664255619049,-0.2316746860742569,0.34209051728248596,-0.24221430718898773,-0.1948513239622116,0.0637599527835846,-0.14090076088905334,-0.19266413152217865,0.10273925215005875,0.20647555589675903,0.263904869556427,-0.1613178849220276,-0.12296129018068314,-0.136419415473938,0.19128824770450592,0.25562813878059387,-0.11440660059452057,0.21524231135845184,0.2264927178621292,-0.13498501479625702,-0.08317627757787704,-0.5263987183570862,-0.01647976040840149,-0.17298537492752075,-0.245394766330719,-0.11746583878993988,-0.03045971319079399,-0.20135962963104248,0.14045171439647675,-0.024372823536396027,0.2376985251903534,0.11582087725400925,0.009479121305048466,0.06191445142030716,-0.08876626938581467,-0.28933629393577576,-0.1650467962026596,-0.2850261628627777,0.11491812765598297,0.16496539115905762,-0.14838190376758575,0.22195351123809814,0.1507101058959961,-0.04809664562344551,-0.2061493992805481,0.0653013065457344,0.04420854523777962,0.006285389885306358,-0.151812344789505,0.03470851108431816,-0.1384592205286026,0.01992352306842804,-0.02017458714544773,-0.16603605449199677,-0.2551743984222412,-0.1109834536910057,0.06824339926242828,0.06379985064268112,0.13342466950416565,0.014425848610699177,0.13233643770217896,0.1387256532907486,0.08958703279495239,-0.12299200892448425,-0.2289522886276245,-0.3832918703556061,0.17674395442008972,0.20679405331611633,0.3549124300479889,0.20412547886371613,-0.09996186196804047,0.2146984338760376,0.3585679829120636,0.21236254274845123,-0.016360456123948097,0.10549315810203552,0.19074855744838715,0.1320348083972931,-0.22167666256427765,-0.12889468669891357,0.24287168681621552,-0.010080107487738132,-0.3037695288658142,0.21593645215034485,-0.21114787459373474,-0.2847561240196228,-0.05905574932694435,0.3524395227432251,-0.10933509469032288,-0.26882368326187134,-0.16704264283180237,-0.18723267316818237,-0.09649575501680374,0.23130850493907928,-0.0868147611618042,-0.05482102185487747,0.3229551315307617,0.277902752161026,-0.09767021238803864,-0.12816767394542694,-0.028182685375213623,0.23261956870555878,-0.0715949684381485,-0.11683730036020279,0.28420788049697876,-0.12964557111263275,0.17953024804592133,0.21050593256950378,0.44518545269966125,0.1379070281982422,-0.05710715427994728,-0.054171621799468994,-0.15778760612010956,0.12663915753364563,-0.05521012470126152,-0.036526747047901154,0.041785310953855515,0.1820393055677414,-0.03710618615150452,-0.08676806092262268,-0.3248404264450073,0.06681042164564133,0.37796491384506226,0.15934038162231445,0.13318727910518646,-0.13225048780441284,0.13674987852573395,0.10242049396038055,-0.005992131307721138,-0.1493135243654251,0.3040831387042999,-0.02817564830183983,0.01893029548227787,0.16758623719215393,-0.017369281500577927,0.06731442362070084,0.1597762405872345,-0.0795116052031517,0.21541909873485565,-0.016349494457244873,-0.21620866656303406,0.262691468000412,0.20857827365398407,0.1367219239473343,-0.05682765692472458,-0.38258594274520874,-0.05097658932209015,-0.0843578577041626,0.10535255819559097,0.18354158103466034,-0.12302838265895844,-0.1522912234067917,0.002852940931916237,-0.15784801542758942,0.17052972316741943,-0.4285477101802826,0.015644825994968414,0.11803237348794937,-0.5682535171508789,0.22931928932666779,-0.111325703561306,0.43935489654541016,-0.18737637996673584,-0.36489763855934143,-0.002026353729888797,-0.1247624084353447,0.20831580460071564,-0.288309782743454,-0.269301176071167,-0.12253910303115845,-0.20391671359539032,-0.1024925485253334,-0.26254576444625854,0.1774010807275772,-0.20313549041748047,-0.037504807114601135],[0.0616447813808918,0.013955989852547646,-0.1894666850566864,0.08849459141492844,0.0671062245965004,0.3086094856262207,-0.024896157905459404,-0.12021041661500931,-0.07295875251293182,-0.09035500884056091,-0.031140215694904327,0.3806391656398773,0.16297955811023712,0.11771207302808762,-0.0260343998670578,0.05729946866631508,-0.19964386522769928,-0.12272986024618149,0.10449355095624924,-0.1266970932483673,-0.011821690015494823,-0.17186814546585083,0.06069064140319824,-0.12626515328884125,0.026593808084726334,-0.012134576216340065,-0.04598810523748398,-0.09769099205732346,-0.07272998988628387,0.23010818660259247,0.08227954804897308,-0.12458718568086624,0.08153489977121353,-0.20525339245796204,0.08637154847383499,-0.1595533788204193,-0.2142595499753952,0.06133507564663887,-0.07776171714067459,0.18162855505943298,0.09301016479730606,-0.22163893282413483,0.36076703667640686,0.2807670831680298,0.03341144695878029,0.06503325700759888,-0.12440536916255951,0.09745815396308899,0.1432204693555832,-0.08553548157215118,-0.23719888925552368,-0.4641026258468628,0.2695399224758148,-0.14217013120651245,-0.31539827585220337,-0.04321633279323578,-0.24767416715621948,0.3372631072998047,-0.07679922133684158,0.12859520316123962,-0.1565210521221161,0.06985346227884293,-0.07920646667480469,-0.18459534645080566,-0.2891004681587219,0.06913420557975769,-0.30257534980773926,0.10679223388433456,0.14488476514816284,-0.17650194466114044,-0.3417578339576721,0.09637974202632904,0.04735773429274559,-0.17156770825386047,-0.10799214243888855,0.30622509121894836,-0.2307095229625702,-0.08502277731895447,-0.1616808921098709,0.12154038995504379,-0.12731099128723145,-0.061163801699876785,-0.22172090411186218,0.06925990432500839,-0.2262604534626007,0.07053058594465256,0.015743767842650414,0.23185166716575623,-0.02009623683989048,-0.39411675930023193,-0.006011743098497391,0.029549239203333855,0.1973867118358612,0.012099157087504864,0.20055122673511505,-0.07171241194009781,0.12927475571632385,-0.23620924353599548,-0.12017928808927536,-0.09403375536203384,0.09803589433431625,0.07690168917179108,0.2618946135044098,0.05490322783589363,0.08295974135398865,0.005638553760945797,-0.08599577099084854,-0.08007588237524033,-0.02153126522898674,0.09633931517601013,0.03523344174027443,0.0688277930021286,-0.13357901573181152,-0.11938069015741348,-0.178912952542305,0.14032037556171417,-0.19983813166618347,0.04454946517944336,-0.06057693436741829,-0.003995240665972233,0.14614877104759216,-0.2958132028579712,-0.2806764543056488,-0.04988778010010719,0.12488706409931183,-0.15833204984664917,-0.1828514039516449,0.04233318939805031,-0.06890101730823517,-0.13523685932159424,-0.09840425848960876,0.18078473210334778,0.36296409368515015,-0.03427878022193909,-0.00045963702723383904,0.2286820411682129,0.07823607325553894,-0.1684354841709137,-0.20361466705799103,-0.03559399023652077,-0.05848309397697449,0.11152027547359467,0.11343331634998322,-0.04849835857748985,-0.25653356313705444,0.05624143034219742,-0.1228797435760498,0.0421467125415802,0.0317976139485836,-0.044701363891363144,0.08320481330156326,-0.1311858743429184,-0.08418521285057068,0.17143191397190094,0.027221525087952614,-0.04349575564265251,0.035844188183546066,-0.06128142029047012,-0.06459879130125046,0.15678437054157257,0.1290314495563507,-0.025070101022720337,0.0321890264749527,-0.0018819340039044619,-0.12247230112552643,0.09484145045280457,0.2513079345226288,-0.30498793721199036,-0.46603676676750183,0.12454359233379364,0.18356990814208984,-0.0058335186913609505,0.06835413724184036,0.09078941494226456,0.021436670795083046,-0.09595873206853867,0.03270721063017845,0.008688561618328094,0.02004740945994854,0.34836333990097046,0.11222222447395325,-0.1745731085538864,0.12787188589572906,0.07701819390058517,-0.3545684516429901,0.2960129380226135,-0.07935857772827148,-0.15690156817436218,0.17926129698753357,-0.06280749291181564,-0.20744551718235016,0.05402093380689621,-0.16295120120048523,-0.006555300205945969,0.11474975943565369,0.444078266620636,-0.04593236371874809,-0.12379155308008194,0.07641933858394623,-0.16948352754116058,-0.0023881038650870323,0.3269858956336975,-0.20397844910621643,0.08598781377077103,0.28995978832244873,-0.23217546939849854,0.12764188647270203,0.2362305223941803,0.119214728474617,0.09291698038578033,0.41943612694740295,-0.39310407638549805,-0.038099586963653564,-0.06077812239527702,0.10071099549531937,-0.10922862589359283,0.2375650554895401,0.052978746592998505,0.1182824969291687,-0.018115075305104256,0.126289501786232,-0.07819894701242447,0.2118072658777237,-0.2585214376449585,-0.4459567070007324,0.026791511103510857,-0.3092637360095978,-0.07720553129911423,0.10512955486774445,0.02085181139409542,0.19489890336990356,-0.16341082751750946,0.1604309231042862,0.028654174879193306,0.1026894599199295,0.3410162329673767,-0.09025578945875168,-0.06056801229715347,-0.12186948955059052,-0.15106666088104248,-0.031714942306280136,0.14282360672950745,0.07026046514511108,0.10822735726833344,-0.11185756325721741,0.19656871259212494,0.11127983033657074,-0.07390191406011581,-0.2848135828971863,-0.20980827510356903,0.23617517948150635,0.07338900119066238,0.39357203245162964,0.009691893123090267,-0.16810742020606995,-0.05964342877268791],[0.053255338221788406,0.10202298313379288,0.10538571327924728,-0.13908810913562775,-0.09049980342388153,0.24883508682250977,-0.04360637813806534,-0.460745632648468,-0.10076046735048294,-0.25260382890701294,-0.0366787351667881,0.25004807114601135,0.09324699640274048,-0.03402072563767433,-0.14354965090751648,-0.3546283543109894,0.14155596494674683,-0.07361394166946411,-0.13959217071533203,-0.3350631594657898,-0.10171276330947876,0.054323960095644,-0.0026433023158460855,0.39590761065483093,-0.23204542696475983,0.03985339775681496,0.1476885825395584,-0.08806896209716797,0.05234971269965172,-0.16602838039398193,-0.16985972225666046,-0.038756582885980606,-0.06994309276342392,0.02497558295726776,-0.11609070003032684,0.040117956697940826,-0.12911845743656158,0.14076636731624603,-0.19411148130893707,-0.16479060053825378,0.08529119938611984,0.1991790384054184,-0.047563586384058,0.20247101783752441,0.08067479729652405,-0.09618724137544632,0.3963254988193512,-0.08702797442674637,0.01820121333003044,-0.2832357883453369,-0.37795257568359375,0.08322025835514069,0.05426127463579178,-0.14566363394260406,-0.06071403995156288,-0.00724922027438879,0.019240159541368484,-0.14499980211257935,-0.06100225821137428,-0.08190647512674332,0.019891545176506042,-0.23112304508686066,-0.048566605895757675,-0.13476060330867767,-0.20635469257831573,0.06852827966213226,-0.4199907183647156,-0.020334504544734955,-0.26816341280937195,-0.2343841791152954,0.13482694327831268,-0.429373562335968,-0.37895265221595764,-0.04824811592698097,0.19175800681114197,-0.1818605363368988,-0.3625190854072571,-0.2550901770591736,-0.044087328016757965,-0.02016693912446499,-0.04499400407075882,-0.11078149080276489,-0.1202877014875412,-0.0862278938293457,-0.11596314609050751,-0.02733164094388485,-0.20294439792633057,-0.17707794904708862,-0.2128220498561859,0.031856708228588104,0.04224974662065506,0.2892490029335022,-0.21028916537761688,-0.050599705427885056,0.015374306589365005,-0.048946939408779144,0.05676047503948212,-0.24042965471744537,0.19794094562530518,0.005774353630840778,-0.15015436708927155,-0.030545823276042938,0.0059705148451030254,-0.02381025440990925,0.14538134634494781,-0.20074671506881714,0.08112170547246933,-0.39125189185142517,-0.3176758885383606,-0.010020477697253227,0.30518701672554016,-0.039573587477207184,-0.1413154900074005,-0.023668386042118073,-0.14724966883659363,-0.03704993426799774,0.24555689096450806,-0.2395920306444168,-0.21057114005088806,-0.21829573810100555,-0.16782107949256897,-0.060694921761751175,-0.08479729294776917,-0.02199660800397396,-0.17065994441509247,0.1446390599012375,-0.17879141867160797,-0.28190377354621887,-0.12361694872379303,-0.1323390007019043,-0.04195481166243553,-0.3078072667121887,-0.0013103210367262363,-0.1219886913895607,0.025548435747623444,0.09555046260356903,0.03519049286842346,-0.2109709531068802,-0.10906267911195755,-0.18376798927783966,-0.09125692397356033,-0.08919671922922134,-0.06675741821527481,0.297329306602478,0.09488794952630997,0.01051537599414587,-0.11236146092414856,0.14736860990524292,-0.2719999849796295,-0.004608685150742531,0.02807380072772503,-0.12012676149606705,-0.007784008979797363,0.03714334964752197,0.2219407707452774,-0.08243007212877274,-0.028258176520466805,0.08975104987621307,0.03299028053879738,0.15965241193771362,-0.22627606987953186,-0.1660568118095398,-0.17708314955234528,-0.11511524021625519,-0.2367798089981079,0.41963905096054077,-0.3018094301223755,-0.1871010959148407,-0.30459579825401306,0.13794828951358795,-0.20533525943756104,-0.18948134779930115,0.008435138501226902,-0.20760799944400787,-0.14304599165916443,-0.05552589148283005,0.04814836382865906,0.017754165455698967,-0.06907334178686142,0.1472087800502777,-0.28281477093696594,-0.06572233140468597,0.016863126307725906,0.07134933769702911,-0.003055147361010313,0.11695434153079987,-0.22726935148239136,-0.1124974712729454,-0.045254770666360855,-0.3176169991493225,0.0203691516071558,-0.1666954755783081,-0.07437004148960114,-0.18595266342163086,-0.13829246163368225,-0.1921192705631256,-0.0350758358836174,-0.17569001019001007,-0.1119174063205719,-0.35483992099761963,-0.40787273645401,-0.10423517972230911,-0.28012463450431824,-0.07498808950185776,-0.058037836104631424,0.02754073217511177,0.021902266889810562,-0.2807535231113434,-0.24653099477291107,0.10616935789585114,0.10344517230987549,-0.0458180233836174,0.27884188294410706,-0.19293756783008575,-0.16170451045036316,-0.06139142066240311,-0.03529541939496994,-0.14204572141170502,-0.30483752489089966,-0.05052810534834862,0.029640385881066322,-0.4110960066318512,-0.012274621054530144,0.06838351488113403,-0.1349702775478363,0.03025662899017334,0.008082465268671513,-0.013119076378643513,0.22984358668327332,-0.016729174181818962,-0.023956146091222763,0.022681470960378647,-0.35015368461608887,0.3202439844608307,0.19848811626434326,-0.04760423302650452,-0.3575156331062317,-0.07875154912471771,0.15392987430095673,0.11868797987699509,0.010190318338572979,0.24423977732658386,-0.2149571180343628,-0.2809395492076874,-0.2757696509361267,-0.171077162027359,0.11777510493993759,0.0792626366019249,-0.28661611676216125,0.018749259412288666,-0.009718410670757294,-0.10092489421367645,-0.16614679992198944,-0.07813328504562378,-0.07101445645093918,-0.2963028848171234],[-0.1522182822227478,-0.12918592989444733,-0.26838386058807373,0.20114868879318237,-0.008071895688772202,0.16130858659744263,-0.04028844088315964,-0.0693168193101883,0.1465863138437271,0.33473026752471924,-0.0017555572558194399,-0.16911306977272034,-0.12191259860992432,-0.08326707035303116,-0.1160847619175911,-0.24327196180820465,-0.009213235229253769,-0.144795760512352,0.006364742759615183,0.20944219827651978,-0.10378512740135193,-0.13223108649253845,-0.28008297085762024,-0.17438861727714539,-0.007296499330550432,-0.14828582108020782,-0.02697422169148922,-0.03805705904960632,0.3237205743789673,-0.1879589557647705,0.10457485169172287,-0.17133386433124542,0.15537352859973907,-0.2792350947856903,-0.22575418651103973,0.030912892892956734,0.029068639501929283,-0.17289434373378754,-0.14770115911960602,-0.25919872522354126,-0.1494748294353485,-0.1161826103925705,0.01923271454870701,-0.060144972056150436,0.03391852602362633,0.35235652327537537,-0.08121152967214584,0.23594650626182556,-0.13310182094573975,-0.18262802064418793,-0.20909777283668518,0.1441449075937271,-0.09387309104204178,0.12751136720180511,-0.2836897373199463,0.2737283408641815,-0.10343954712152481,0.33472609519958496,-0.11947601288557053,-0.31416985392570496,-0.22045300900936127,0.4370778501033783,-0.054086945950984955,0.2548943758010864,-0.0010411548428237438,0.3422084450721741,0.37287160754203796,0.043145034462213516,0.3411792814731598,-0.006225528195500374,0.36871424317359924,-0.11358204483985901,0.005906381644308567,0.3323003351688385,0.12271425127983093,-0.015516640618443489,-0.010438879951834679,-0.18004445731639862,-0.045941948890686035,0.31751060485839844,0.27323979139328003,0.16824547946453094,0.05970821902155876,0.10637597739696503,-0.10636092722415924,-0.02733040414750576,-0.15822717547416687,0.4056660830974579,0.2448577582836151,0.1650829166173935,0.18275192379951477,-0.15377560257911682,0.20262411236763,-0.20642127096652985,-0.2051965296268463,-0.01895250380039215,-0.03934277966618538,0.4667825996875763,0.16994093358516693,-0.033736392855644226,-0.19963230192661285,-0.1330050379037857,0.4450601041316986,-0.17807777225971222,0.03381442651152611,0.384152889251709,-0.0073709022253751755,0.20970766246318817,-0.20999208092689514,-0.07377132028341293,0.167178675532341,0.20630697906017303,-0.10867656022310257,0.18653427064418793,0.10455622524023056,-0.0723661482334137,-0.2014528065919876,0.19568797945976257,-0.17368978261947632,0.2420625537633896,-0.11638563126325607,0.1482681930065155,-0.09724681079387665,-0.294319212436676,-0.19727668166160583,-0.082005575299263,-0.10599580407142639,-0.18723738193511963,-0.017021087929606438,0.08846334367990494,-0.34812402725219727,-0.06957069039344788,0.3110854923725128,0.41951391100883484,0.28322699666023254,-0.16409561038017273,-0.10568356513977051,-0.24995703995227814,-0.35018375515937805,-0.10505715757608414,-0.048164136707782745,0.028627997264266014,0.07072165608406067,-0.004937967285513878,0.12243007868528366,-0.09863957017660141,0.2603161633014679,-0.13103851675987244,0.19543130695819855,0.3994660973548889,-0.03459686040878296,-0.22541606426239014,-0.11645899713039398,-0.043051134794950485,0.27049028873443604,-0.04584360122680664,-0.12887008488178253,-0.10447637736797333,-0.0880684182047844,-0.01918848045170307,0.03937555104494095,-0.39559119939804077,0.00526852160692215,0.31339704990386963,-0.10568574070930481,0.19849719107151031,0.18921691179275513,0.06537700444459915,-0.3071325421333313,0.06036654859781265,-0.17539648711681366,-0.18838641047477722,-0.14224322140216827,-0.06911271810531616,-0.00398856308311224,0.04844995215535164,0.302964448928833,0.06574111431837082,0.11559605598449707,-0.03628640994429588,-0.052532657980918884,0.26244333386421204,0.14025521278381348,0.07351319491863251,-0.17166097462177277,0.2691906690597534,-0.09586755186319351,0.3084375858306885,0.08054723590612411,-0.30398890376091003,-0.0727771446108818,-0.5591380596160889,-0.0004277155385352671,-0.18433043360710144,0.1427309215068817,0.2720659077167511,-0.2878917157649994,0.24739517271518707,0.0066717565059661865,0.2066476047039032,0.010578186251223087,0.04934149980545044,-0.09969721734523773,-0.258993923664093,0.11232662200927734,0.45206522941589355,0.4342747628688812,0.08819622546434402,-0.10538434982299805,-0.0412626750767231,-0.38567277789115906,-0.0003433089004829526,0.07601106911897659,0.1385890543460846,-0.2598516047000885,0.005261709447950125,0.03213738277554512,0.04218968749046326,-0.19332115352153778,-0.16721928119659424,0.11887428909540176,-0.07338003069162369,-0.5123925805091858,0.265542209148407,0.06541599333286285,0.040704064071178436,0.3325377106666565,-0.2937782108783722,0.41109830141067505,-0.22143526375293732,-0.25105077028274536,-0.2410714030265808,0.3930750787258148,0.24962759017944336,0.014854621142148972,-0.4149651527404785,-0.1978052258491516,-0.25295907258987427,0.04147966578602791,0.11171989887952805,-0.13160082697868347,0.16089460253715515,-0.008182235062122345,-0.3467637300491333,0.16108039021492004,0.05389244854450226,-0.1772216558456421,-0.27528756856918335,0.01152436900883913,0.21186475455760956,0.3337882459163666,0.2648942172527313,0.5463494062423706,0.41299232840538025,0.10269063711166382,0.04662333428859711],[0.2707155644893646,-0.06192311644554138,0.024266667664051056,0.11418715119361877,-0.15082712471485138,-0.3163142502307892,0.08823709934949875,-0.0025889805983752012,-0.18808504939079285,-0.23281526565551758,-0.26645728945732117,-0.04062957316637039,0.21262429654598236,-0.12991811335086823,0.007361581549048424,-0.45099174976348877,0.03330930694937706,-0.4532686769962311,0.1720711886882782,-0.19408977031707764,0.2652251720428467,-0.33589622378349304,0.15057970583438873,-0.2026786506175995,-0.014277772977948189,-0.03441474586725235,-0.3761458694934845,-0.13982029259204865,-0.24659207463264465,-0.06474632024765015,0.28085392713546753,-0.02525538206100464,-0.49583345651626587,-0.25480198860168457,0.26881545782089233,0.4207308292388916,0.17537805438041687,-0.17737682163715363,-0.16479000449180603,0.1441361904144287,-0.11489766091108322,0.058653783053159714,0.024010678753256798,-0.5308287739753723,-0.3819005489349365,-0.012890874408185482,0.03569667413830757,0.005039893090724945,-0.018762944266200066,0.1998598277568817,-0.19054214656352997,-0.1679154932498932,0.05751258507370949,0.11054033786058426,-0.293366014957428,-0.1782163679599762,0.09541915357112885,-0.2098921686410904,-0.3004823327064514,-0.04264498129487038,0.11204075813293457,-0.2608506679534912,-0.4334366023540497,-0.3800274133682251,-0.1672842800617218,0.16502973437309265,-0.067139632999897,-0.14614273607730865,0.028298798948526382,0.07894400507211685,-0.3305400013923645,0.25155192613601685,-0.18831418454647064,-0.2821924686431885,-0.526080310344696,0.1892518848180771,-0.13564108312129974,-0.2232477217912674,0.05566127598285675,-0.1252366006374359,-0.23739412426948547,-0.28653383255004883,0.0009728734148666263,0.18514202535152435,-0.030102327466011047,0.1765241026878357,-0.22823110222816467,0.2291179597377777,0.10444098711013794,0.05509544536471367,-0.37137916684150696,-0.006022524554282427,-0.01883682608604431,-0.09768684953451157,-0.33566582202911377,0.08847083896398544,-0.27694711089134216,0.1844196319580078,-0.015269103460013866,0.06932894140481949,0.12506192922592163,0.21510478854179382,-0.06015796586871147,0.0483933761715889,0.12472505867481232,0.26762664318084717,-0.2866889536380768,-0.13995607197284698,-0.07269900292158127,0.1703789383172989,0.09305500239133835,-0.2753208875656128,0.013811757788062096,-0.042744338512420654,-0.14877301454544067,0.29717135429382324,0.022929886355996132,-0.016367610543966293,0.04175414890050888,-0.1008344441652298,0.31498247385025024,-0.49437105655670166,-0.07751331478357315,-0.2757895588874817,-0.19598820805549622,0.1177356094121933,0.1657417267560959,-0.33486512303352356,-0.17619438469409943,-0.3002891540527344,0.30811989307403564,-0.05990558862686157,0.25670820474624634,-0.26850786805152893,-0.11462835222482681,-0.07079887390136719,-0.07934632152318954,-0.03935101628303528,-0.222606360912323,0.003503833431750536,-0.13050290942192078,0.002981676487252116,-0.018163034692406654,0.09119872003793716,-0.02921338751912117,0.27366918325424194,-0.042715854942798615,0.08033265918493271,-0.18857742846012115,-0.06761158257722855,0.03279460594058037,0.0037357851397246122,0.018445290625095367,-0.09474901854991913,0.025169674307107925,-0.3079071044921875,-0.1084139421582222,-0.3139384984970093,-0.3748190999031067,0.1825932413339615,0.023668034002184868,0.08766083419322968,-0.02692706324160099,-0.141387477517128,0.3881971538066864,0.2157825082540512,-0.11840291321277618,0.1277346909046173,0.20943115651607513,0.02038075588643551,-0.11469846963882446,0.0000812611760920845,0.06735436618328094,0.031421903520822525,-0.19158942997455597,0.12105605751276016,-0.17894664406776428,0.10531213879585266,0.10311159491539001,0.18242688477039337,0.06881919503211975,-0.35561662912368774,-0.18949775397777557,0.0073721869848668575,-0.09875664860010147,-0.22304300963878632,-0.25267547369003296,0.02232305333018303,0.10666924715042114,-0.26905837655067444,-0.04245254397392273,0.11516089737415314,0.22652092576026917,-0.03600718453526497,-0.23925505578517914,-0.03336517512798309,-0.5947625637054443,0.06769835948944092,-0.1952141523361206,0.1844434291124344,-0.2308858335018158,0.12906517088413239,-0.061440397053956985,0.17606140673160553,-0.0544920489192009,-0.17867234349250793,0.23487718403339386,-0.2116546779870987,0.018665513023734093,0.2425849288702011,-0.07297393679618835,0.01828765496611595,-0.0707688182592392,-0.17947733402252197,0.00826602429151535,-0.04544764757156372,0.08863738924264908,-0.07569991797208786,0.11320810765028,0.17467516660690308,-0.19740332663059235,0.026727277785539627,-0.16678674519062042,0.03807898610830307,0.03505698963999748,-0.09397535026073456,0.09300369769334793,0.08325254917144775,0.12515544891357422,-0.18758660554885864,-0.12125968188047409,-0.34502875804901123,-0.0017754909349605441,-0.4196000099182129,-0.03155321627855301,-0.22410602867603302,0.11008509248495102,-0.2194129377603531,-0.13125602900981903,-0.27821066975593567,-0.08667135238647461,-0.04296198487281799,0.06451024860143661,-0.042809564620256424,0.3038184642791748,-0.0472981296479702,-0.04861535131931305,-0.061114296317100525,-0.08159026503562927,-0.1685752123594284,-0.1071934849023819,-0.06129516288638115,-0.2565459609031677,0.3462976813316345,-0.14751844108104706,-0.12461566179990768],[0.5268848538398743,0.13854697346687317,0.5170261859893799,0.05446264147758484,-0.04655761271715164,0.00905822403728962,0.15688368678092957,-0.08747778087854385,0.29812541604042053,-0.05394565686583519,-0.10974377393722534,0.05854631960391998,0.11046063154935837,-0.17276863753795624,-0.0015244577080011368,-0.04967106878757477,0.19634048640727997,0.1543315052986145,-0.05151553452014923,-0.13613352179527283,0.13452556729316711,0.06523291021585464,0.06815953552722931,0.0812145546078682,0.03923899307847023,0.1523255556821823,-0.03435279428958893,-0.13111789524555206,-0.11384472995996475,0.10691062361001968,-0.09325701743364334,0.012184038758277893,-0.15793675184249878,0.08007793128490448,-0.0743606686592102,0.014245729893445969,0.04114937782287598,0.47466573119163513,-0.11801786720752716,-0.03515911102294922,0.34253615140914917,0.5508188009262085,-0.05684823542833328,0.08246362954378128,0.0441238209605217,-0.06428810209035873,0.05499808117747307,0.1371554285287857,-0.19229768216609955,0.3014269471168518,-0.22418898344039917,0.2441973090171814,0.0017327489331364632,0.03604899346828461,-0.015058633871376514,-0.07105997204780579,0.22202478349208832,-0.031679846346378326,0.24575838446617126,-0.22705639898777008,-0.23502875864505768,0.19698740541934967,0.13155722618103027,0.049924299120903015,0.03921366482973099,0.3906479477882385,0.2213101089000702,0.21869149804115295,0.20742419362068176,0.18392956256866455,0.30790975689888,0.01838337816298008,0.2654304504394531,0.21447336673736572,-0.17833325266838074,-0.06266526877880096,0.2598448693752289,0.11648201197385788,0.1253010481595993,-0.07322607189416885,0.18065966665744781,0.0378800593316555,-0.036860980093479156,0.10871782153844833,0.11395056545734406,0.4996162950992584,0.12846390902996063,0.017047885805368423,0.012004898861050606,0.176362082362175,-0.2078048437833786,0.09977829456329346,0.03381017968058586,-0.06725563108921051,-0.1852962076663971,0.2998051345348358,-0.08707895129919052,-0.28063252568244934,0.09253960102796555,0.4402807056903839,0.2763715386390686,0.0006964548956602812,-0.07782094925642014,-0.018723802641034126,0.09422410279512405,0.18968674540519714,0.029566360637545586,0.2168751358985901,-0.019156085327267647,-0.01256718672811985,-0.15209905803203583,0.625913143157959,0.19389022886753082,-0.162702739238739,0.026806415989995003,-0.08869710564613342,-0.11250100284814835,0.17711657285690308,0.2828632593154907,0.23953759670257568,0.13101772964000702,0.30610209703445435,0.044749580323696136,0.030827859416604042,0.24010203778743744,0.26551923155784607,-0.02367815561592579,0.3175799548625946,-0.27926182746887207,0.2317841500043869,-0.0886392593383789,-0.03236454352736473,0.10501527786254883,-0.03740321844816208,0.16421906650066376,-0.0492032915353775,0.36467427015304565,0.06525764614343643,-0.020352289080619812,0.33112433552742004,-0.06077873706817627,0.20275132358074188,0.28117620944976807,0.18588444590568542,0.1948087513446808,0.05498134717345238,0.581543505191803,-0.23554609715938568,-0.12048952281475067,0.4811458885669708,0.11622808128595352,0.05323532596230507,-0.1067328229546547,0.10579199343919754,0.16044892370700836,0.34119129180908203,0.09986473619937897,0.22034823894500732,-0.026850374415516853,0.37529441714286804,0.036548811942338943,0.2248450219631195,-0.0983787402510643,0.6867121458053589,0.10471969097852707,0.23313449323177338,-0.1781189739704132,0.21469707787036896,0.06188267841935158,-0.10148565471172333,0.043527502566576004,0.00824999250471592,0.5161854028701782,0.14044232666492462,0.04905324429273605,0.06376504898071289,0.13282349705696106,0.28341010212898254,0.28268203139305115,0.01729915291070938,-0.023020371794700623,0.1689651608467102,-0.21825145184993744,0.3021251857280731,0.04519355297088623,-0.21444642543792725,-0.2161783128976822,0.40271759033203125,-0.01796536147594452,0.20086614787578583,-0.044078629463911057,0.3377109467983246,0.303250789642334,-0.1253044307231903,0.3991187512874603,0.020866937935352325,-0.07067784667015076,0.033015429973602295,-0.09514971822500229,0.061867404729127884,0.1107129231095314,0.14183297753334045,-0.07603529840707779,-0.12386598438024521,0.2573568522930145,-0.03877733647823334,0.19264386594295502,-0.1072980985045433,-0.03932741656899452,0.02823008969426155,0.1538056582212448,0.0071015506982803345,-0.1852152794599533,0.1913747787475586,0.043678153306245804,0.159841850399971,0.15749022364616394,-0.014815947972238064,0.10775548964738846,0.13949303328990936,0.2837163805961609,0.04797500744462013,-0.2553776502609253,0.04518677294254303,0.11816687881946564,0.2957132160663605,0.37114372849464417,0.5546809434890747,0.20270949602127075,-0.09217926114797592,-0.31478753685951233,0.08954007923603058,0.06431789696216583,0.2140304148197174,0.19699381291866302,0.21470089256763458,-0.08802834898233414,0.07147911190986633,0.25721532106399536,0.2043815702199936,-0.2787865102291107,0.02906511351466179,-0.09444574266672134,0.26906293630599976,-0.15128964185714722,0.13535837829113007,-0.19904138147830963,0.20220649242401123,-0.036143235862255096,0.33544644713401794,0.06505400687456131,0.35161978006362915,0.24823179841041565,-0.07253611832857132,0.229963019490242,0.00731885340064764],[-0.04335615038871765,-0.12367640435695648,-0.26815420389175415,0.32862353324890137,-0.03239401429891586,0.16741999983787537,0.22264112532138824,0.09913692623376846,-0.3812006711959839,0.14037612080574036,-0.21339379251003265,-0.1570342630147934,-0.2695094347000122,-0.3402828574180603,-0.11550775170326233,0.27507075667381287,-0.1619928628206253,-0.4400691092014313,-0.03582765907049179,-0.13679064810276031,0.2525024116039276,-0.32700732350349426,0.016773654147982597,0.17455051839351654,0.15451470017433167,0.05667397752404213,-0.055869679898023605,0.09794226288795471,-0.051140982657670975,-0.1964084655046463,0.13495901226997375,0.3613464832305908,0.1239326223731041,-0.035734232515096664,0.33289283514022827,-0.17471608519554138,-0.12269482016563416,-0.3374926745891571,0.26384446024894714,-0.036117635667324066,-0.0821857899427414,-0.27940940856933594,-0.17958593368530273,0.018781011924147606,0.14317664504051208,-0.1122697964310646,-0.03798798471689224,0.547367513179779,-0.07342763990163803,0.18908970057964325,-0.11259786039590836,0.32307374477386475,0.2571159601211548,-0.321643590927124,0.4663953185081482,-0.11552168428897858,-0.00839455146342516,0.24101091921329498,-0.12534858286380768,-0.2673245370388031,0.05276786535978317,-0.027180226519703865,-0.12164828926324844,-0.10557766258716583,-0.2010863870382309,0.11096900701522827,0.15207906067371368,-0.13532018661499023,-0.24692825973033905,0.232028529047966,-0.10624701529741287,0.07811228185892105,0.25677162408828735,-0.073283851146698,-0.005160041619092226,0.054283369332551956,-0.1463301032781601,0.2474096417427063,0.11134838312864304,0.07381878793239594,-0.19743689894676208,0.26134946942329407,0.25423893332481384,0.38455888628959656,-0.28706640005111694,0.05938783288002014,-0.12704451382160187,0.06558620929718018,-0.0979829877614975,-0.20888984203338623,-0.11917988955974579,0.13421042263507843,-0.2539997696876526,0.15579284727573395,-0.10583946853876114,0.12372558563947678,0.2655864655971527,-0.02072956971824169,-0.08081009238958359,-0.09242279082536697,-0.11596991121768951,-0.12356548756361008,0.2016971856355667,0.025327211245894432,-0.004463121760636568,-0.28265243768692017,0.13254287838935852,-0.1363474726676941,0.0004356200806796551,-0.0861000046133995,0.021394839510321617,0.10588093101978302,-0.024470826610922813,0.5320338606834412,-0.2419479489326477,0.3518364131450653,-0.3424806594848633,-0.10017663240432739,0.1387312114238739,-0.04957718402147293,-0.03378140926361084,0.1278313547372818,0.010746455751359463,0.011124730110168457,0.02460596151649952,-0.3013797700405121,0.25266629457473755,-0.25069552659988403,-0.32944825291633606,-0.3353329002857208,0.15198172628879547,0.10976006835699081,-0.3855116665363312,0.25775936245918274,-0.12289857864379883,-0.3041432201862335,-0.27802008390426636,-0.336132675409317,-0.1285935789346695,-0.27884411811828613,-0.023017490282654762,0.1061939001083374,0.03258692845702171,0.15451356768608093,-0.13225987553596497,0.1689852774143219,0.003475550329312682,-0.00624786177650094,-0.07078734040260315,0.06573379784822464,0.1308514028787613,0.011744914576411247,0.12039884179830551,-0.2414705902338028,-0.023713594302535057,-0.12560702860355377,-0.46405744552612305,-0.11302867531776428,-0.0942680761218071,0.023112516850233078,-0.41542840003967285,0.33514660596847534,-0.13898290693759918,0.1331414431333542,-0.08348209410905838,0.039604026824235916,-0.40783363580703735,-0.2207721471786499,0.11582303047180176,-0.21449053287506104,-0.23371455073356628,0.16644731163978577,0.052854664623737335,-0.03846926614642143,-0.04457952082157135,-0.011515173129737377,-0.005057149101048708,-0.3759879469871521,0.0489998497068882,-0.6424643397331238,0.051363296806812286,-0.30655544996261597,-0.1393333226442337,0.1197599321603775,-0.09690096229314804,-0.1979728490114212,-0.5252865552902222,-0.05920945852994919,0.1426827758550644,-0.20279377698898315,-0.12248744815587997,0.26742228865623474,-0.057828906923532486,-0.30612754821777344,0.09097421914339066,-0.18848566710948944,0.07941471040248871,0.056592907756567,0.19438356161117554,-0.35616955161094666,0.05915648862719536,0.18395602703094482,0.014863370917737484,-0.0921219065785408,0.04425409063696861,-0.22390274703502655,-0.02179212123155594,0.13570988178253174,0.1687505692243576,-0.1854279786348343,-0.006233396008610725,-0.08409415185451508,-0.05017845705151558,-0.24340903759002686,0.20206932723522186,-0.19046439230442047,-0.17212477326393127,-0.18736767768859863,-0.2212645709514618,0.049755919724702835,0.22322477400302887,0.2538464069366455,0.23838289082050323,0.040726326406002045,0.06580199301242828,0.18125787377357483,0.06646989285945892,0.07986335456371307,-0.24810360372066498,-0.04767705127596855,0.2236759066581726,-0.031181994825601578,0.06674572080373764,-0.05891400948166847,0.13325919210910797,-0.05226752161979675,-0.48123690485954285,0.10770149528980255,-0.12889529764652252,0.061293065547943115,0.06322311609983444,-0.22817926108837128,-0.36415666341781616,0.3738052248954773,0.10788868367671967,0.5840845704078674,0.15132328867912292,-0.37645989656448364,-0.13002443313598633,-0.14628469944000244,0.004700028337538242,0.011000962927937508,-0.13867156207561493,-0.24402914941310883,-0.06198373809456825,0.021057868376374245],[0.025874394923448563,-0.010646806098520756,-0.02885865606367588,0.011295744217932224,0.011051928624510765,-0.10690141469240189,0.04436156898736954,0.1055600494146347,-0.4317075312137604,-0.1529388725757599,-0.018923591822385788,-0.12463662773370743,-0.2141086310148239,-0.06544230133295059,-0.19513945281505585,0.15477900207042694,-0.2610221803188324,-0.15898989140987396,-0.2257453203201294,-0.2336767464876175,-0.14419516921043396,-0.007488809525966644,0.060684967786073685,-0.12306738644838333,0.05886123701930046,-0.33614009618759155,0.020997151732444763,0.37292465567588806,-0.10841603577136993,-0.18404442071914673,0.07599246501922607,-0.08612169325351715,0.20709790289402008,0.3341276943683624,0.4360866844654083,0.28518104553222656,-0.05711750686168671,0.37879785895347595,0.10418626666069031,-0.26095497608184814,0.1557588279247284,-0.03685959428548813,-0.24993151426315308,0.21135596930980682,-0.2702989876270294,-0.1519349068403244,0.09888891875743866,-0.06831102818250656,0.2804780900478363,-0.2519552409648895,-0.1714250147342682,0.05918094515800476,0.05004972591996193,0.13063667714595795,0.10412748157978058,0.013389868661761284,0.22103078663349152,0.08663548529148102,0.10000832378864288,-0.02800784260034561,-0.24962717294692993,0.011220617219805717,-0.1453780084848404,-0.06506643444299698,-0.02469242736697197,0.02672201581299305,-0.009441045112907887,0.163729727268219,-0.3251095414161682,0.1666664034128189,-0.023081062361598015,-0.3256494998931885,0.16871178150177002,-0.22907713055610657,-0.09276547282934189,-0.13013407588005066,-0.1535971760749817,-0.273431658744812,-0.12851929664611816,-0.0341387577354908,-0.3933941721916199,-0.020702283829450607,-0.34928056597709656,-0.14400634169578552,-0.15240636467933655,-0.18252350389957428,-0.33050471544265747,-0.16238731145858765,0.08956962823867798,0.39778104424476624,-0.28551244735717773,-0.18241417407989502,0.007835628464818,0.2098717838525772,0.22567762434482574,-0.06669981777667999,-0.1641743779182434,0.007348075043410063,-0.0024025302845984697,-0.4434264898300171,-0.05227135121822357,-0.23445472121238708,0.254277765750885,-0.3113464117050171,0.002176164649426937,-0.20273306965827942,-0.18773752450942993,-0.13910961151123047,0.0519128143787384,-0.3367084860801697,-0.07750711590051651,-0.22668583691120148,0.42462989687919617,-0.02983778342604637,-0.1345883309841156,0.01554855052381754,-0.027817780151963234,0.09049076586961746,-0.11227643489837646,-0.04529562592506409,-0.2708214223384857,-0.46301740407943726,-0.051726602017879486,-0.1751648485660553,0.5918607115745544,0.07255081087350845,0.14696532487869263,-0.23645390570163727,-0.2413169890642166,-0.16372159123420715,-0.09819193929433823,-0.30109933018684387,0.05264898017048836,-0.0776473879814148,0.2918364703655243,-0.13926880061626434,0.03724099323153496,-0.022656843066215515,0.002763216383755207,-0.1743650734424591,0.29188331961631775,-0.1794859617948532,-0.13874533772468567,0.3755982220172882,0.00628789234906435,-0.15282204747200012,0.06551799923181534,-0.08652471750974655,0.12659713625907898,-0.10635994374752045,0.0768885686993599,0.043015044182538986,-0.30094146728515625,-0.17288166284561157,0.15017521381378174,-0.10579350590705872,0.16765069961547852,-0.541035532951355,-0.09250663965940475,-0.3338995575904846,0.03337889537215233,-0.09863747656345367,0.17787128686904907,0.10078798979520798,0.0916513204574585,-0.27858608961105347,-0.2462497353553772,0.33893290162086487,-0.21493194997310638,0.03453152999281883,-0.14301878213882446,-0.052241381257772446,0.15945735573768616,-0.15966428816318512,-0.05060410127043724,-0.1601897031068802,-0.34385231137275696,-0.05877462029457092,0.23777535557746887,0.09411782026290894,-0.1055058166384697,-0.38223838806152344,0.14104312658309937,-0.37401098012924194,0.2698798179626465,0.3691041171550751,-0.2047746181488037,0.024158963933587074,0.021678604185581207,0.02838384173810482,0.19916097819805145,-0.15174761414527893,0.2200547158718109,-0.19029314815998077,0.1804744303226471,0.057278040796518326,-0.08274202793836594,-0.5707290768623352,0.0634070485830307,0.16070282459259033,0.13629014790058136,0.15394067764282227,0.12568652629852295,-0.07370920479297638,0.019701365381479263,-0.17816872894763947,0.0768599733710289,-0.011296309530735016,0.046707041561603546,0.029063142836093903,0.06001109629869461,-0.2001057118177414,0.05737994983792305,-0.07252417504787445,-0.22171802818775177,0.07408646494150162,0.067405104637146,-0.14200681447982788,0.10758707672357559,0.11258570849895477,0.031952716410160065,-0.24891482293605804,0.10568325221538544,-0.5219736099243164,0.2965589165687561,-0.3010372221469879,0.05111256241798401,0.056401681154966354,-0.21857818961143494,-0.13511358201503754,0.23458248376846313,0.1690601259469986,-0.15166780352592468,-0.10660797357559204,-0.28296878933906555,0.2538850009441376,-0.27172645926475525,0.13115523755550385,-0.003768605412915349,-0.3119436502456665,0.15622787177562714,-0.1230270117521286,0.22107209265232086,0.08285662531852722,-0.1916477382183075,-0.3325967490673065,-0.17415174841880798,-0.3013966381549835,-0.16222549974918365,0.0711086094379425,-0.06362660974264145,0.3043110966682434,0.20831391215324402,-0.07347976416349411,-0.17018161714076996,-0.295063853263855],[-0.05138735473155975,-0.008196469396352768,0.29772600531578064,-0.09497468918561935,-0.20413124561309814,0.15098774433135986,0.03590571507811546,0.12483827769756317,-0.09992409497499466,-0.14705011248588562,-0.1301119327545166,0.2355649620294571,-0.09179377555847168,0.28372615575790405,0.19007043540477753,0.09659146517515182,0.1166614517569542,-0.0564621165394783,-0.15246327221393585,-0.016930118203163147,-0.029835103079676628,0.012144497595727444,-0.18334443867206573,0.23631668090820312,0.05694938823580742,-0.02218921296298504,-0.2778289020061493,-0.17325031757354736,-0.1897134780883789,-0.07825184613466263,-0.05929582566022873,-0.07969902455806732,-0.07300574332475662,-0.1942855268716812,0.0031782418955117464,-0.2632799744606018,0.15649771690368652,0.1668313592672348,0.17529310286045074,-0.13913041353225708,0.08489838987588882,-0.3224371373653412,0.03129412233829498,0.03528834134340286,-0.014354828745126724,-0.03343665972352028,0.024332299828529358,-0.060664840042591095,-0.09488977491855621,0.11676886677742004,-0.15263055264949799,0.18310220539569855,0.2584488093852997,-0.21497012674808502,-0.0015608083922415972,-0.04146893322467804,-0.03428150340914726,-0.11323948949575424,-0.026579948142170906,-0.35610872507095337,-0.11368577927350998,0.11566285789012909,-0.05342891812324524,0.10621161013841629,-0.12350273877382278,0.012303866446018219,-0.10569317638874054,-0.27713730931282043,0.2707117795944214,0.14567376673221588,-0.12286213040351868,-0.003000905504450202,0.0029854197055101395,-0.3472645878791809,-0.09025971591472626,-0.046701397746801376,0.22238874435424805,0.11036474257707596,0.1869329810142517,-0.368495911359787,0.013851406052708626,-0.01724873296916485,-0.29635947942733765,0.11302737146615982,0.11559542268514633,-0.3083557188510895,0.1499752700328827,0.28487029671669006,0.019086536020040512,-0.17158974707126617,0.10642316192388535,-0.3913068175315857,0.2798501253128052,0.19058391451835632,-0.5808092355728149,-0.07409977167844772,-0.1998128592967987,-0.14811275899410248,0.05871538445353508,-0.23002217710018158,-0.06054281070828438,0.2091614305973053,0.3603951632976532,0.06416929513216019,-0.013869579881429672,-0.2278910130262375,0.16707925498485565,-0.2973369359970093,-0.04110625386238098,0.013413731008768082,0.03788217902183533,0.1877519190311432,-0.5680773258209229,-0.09325429052114487,-0.11229760944843292,-0.3580591380596161,-0.04098108038306236,-0.6216375827789307,0.07489065825939178,-0.11389008164405823,0.07924370467662811,-0.07180961221456528,-0.31885626912117004,-0.13352110981941223,-0.11004257202148438,-0.22417691349983215,0.1202181950211525,-0.24017374217510223,-0.18530996143817902,-0.08612500131130219,0.16523174941539764,0.0474974662065506,0.1731104552745819,0.2870640158653259,-0.1271122545003891,-0.19196176528930664,0.07202544063329697,-0.14876241981983185,-0.015696194022893906,0.19957594573497772,-0.14275860786437988,-0.25499847531318665,-0.22421695291996002,-0.21206557750701904,0.1856490969657898,-0.22896331548690796,0.055855970829725266,-0.11741936206817627,0.10590344667434692,-0.20092988014221191,0.06759748607873917,0.02604580670595169,0.08061620593070984,0.015882333740592003,-0.22583597898483276,0.050542835146188736,-0.18831190466880798,-0.27912354469299316,-0.1554323434829712,-0.168795645236969,-0.2617539167404175,-0.21527104079723358,-0.052726179361343384,-0.09277511388063431,-0.032031238079071045,-0.18006399273872375,0.17116685211658478,-0.1590767800807953,-0.21739070117473602,-0.11066034436225891,-0.04698906093835831,-0.2388596087694168,0.15693804621696472,0.02371506206691265,-0.05090740695595741,-0.031345970928668976,0.16027657687664032,-0.4540354311466217,-0.20988599956035614,0.029581407085061073,0.01709229126572609,-0.1368187516927719,0.06902322173118591,-0.2683638334274292,0.16209949553012848,0.182967871427536,0.16188779473304749,-0.01955532096326351,-0.11582563817501068,-0.06038450822234154,-0.37087178230285645,0.05315917357802391,-0.2646866738796234,0.17561019957065582,0.11650002002716064,-0.08212370425462723,-0.46274590492248535,0.08502232283353806,-0.056666526943445206,0.024881841614842415,0.14774197340011597,-0.03942013159394264,-0.20518571138381958,0.0610598661005497,0.18760234117507935,0.3083932101726532,0.3146255910396576,0.10715590417385101,-0.06402429938316345,-0.2732924818992615,-0.049560073763132095,-0.10799450427293777,0.014244243502616882,-0.041807565838098526,0.12059573829174042,0.36828291416168213,0.1045379638671875,-0.17206257581710815,0.04761360585689545,-0.010406949557363987,0.1581929624080658,0.07577250897884369,0.28538015484809875,-0.21837441623210907,-0.28468558192253113,-0.04621158912777901,-0.19695383310317993,-0.1052510142326355,0.19466641545295715,-0.2053765207529068,-0.21540242433547974,-0.09260901063680649,0.0893583595752716,0.050769004970788956,-0.1937684714794159,0.11743161082267761,-0.2209639698266983,-0.07317639142274857,-0.11625462025403976,0.16391567885875702,-0.11140048503875732,-0.1212010458111763,-0.02898535132408142,0.12338265776634216,-0.12104463577270508,-0.25454050302505493,0.12429971247911453,-0.1886061131954193,-0.04785018786787987,0.13396985828876495,-0.07411415874958038,0.031360555440187454,-0.07849089801311493,-0.10535120218992233,-0.1811944842338562,0.11494479328393936],[0.08274637162685394,-0.08627983182668686,-0.023833036422729492,-0.11154462397098541,0.06102154776453972,-0.0890812873840332,0.15390393137931824,-0.26086097955703735,0.06493416428565979,-0.0016279242699965835,-0.012054064311087132,-0.05075053125619888,-0.08325862139463425,-0.34022197127342224,-0.10821936279535294,-0.08420722931623459,0.035456787794828415,-0.07047317922115326,0.21070735156536102,0.006053513381630182,-0.028518248349428177,-0.15260329842567444,-0.11220129579305649,0.22743135690689087,-0.1379302591085434,0.4638051390647888,-0.037061452865600586,-0.26966747641563416,-0.13006964325904846,-0.014616196975111961,-0.23359860479831696,-0.043853502720594406,-0.1493731290102005,0.3778754472732544,-0.03343072533607483,-0.07226362079381943,0.11431843787431717,0.13665422797203064,-0.04367548227310181,0.153227761387825,-0.08185744285583496,-0.1961018443107605,0.023930104449391365,0.16074135899543762,0.23131656646728516,0.12945877015590668,-0.12588471174240112,-0.11005378514528275,-0.01274737250059843,0.08771742880344391,-0.12501031160354614,0.14366942644119263,0.07443736493587494,-0.06632038205862045,0.36538049578666687,0.32134079933166504,-0.1462688446044922,0.1052301824092865,-0.04798148572444916,0.015549710020422935,0.11667045950889587,0.048960957676172256,-0.015098725445568562,-0.03860156238079071,-0.0721639096736908,-0.34771206974983215,-0.019276143983006477,-0.26639097929000854,-0.164875328540802,-0.01655500940978527,-0.11927096545696259,-0.32757681608200073,-0.07867325842380524,0.21006272733211517,-0.09557840973138809,-0.07693525403738022,-0.10420481115579605,-0.06865771859884262,0.14673928916454315,-0.04582468047738075,-0.08653243631124496,-0.1802719384431839,0.08529417961835861,-0.17150597274303436,-0.001693022670224309,-0.2997210919857025,-0.2059016078710556,-0.003981158137321472,0.2691951096057892,0.18723957240581512,0.025961983948946,0.007901954464614391,-0.0003785576263908297,0.20940850675106049,-0.2022293657064438,0.11532442271709442,-0.34619811177253723,0.03455010801553726,0.015431550331413746,0.07504518330097198,-0.013367263600230217,0.1427311897277832,-0.07516375184059143,-0.14419765770435333,0.007097417023032904,-0.04583103954792023,0.03132661059498787,-0.035286277532577515,-0.3738349378108978,-0.15905113518238068,-0.1023276299238205,0.05198545753955841,-0.1954570710659027,-0.15004275739192963,0.024412965402007103,0.10602910816669464,-0.02155432477593422,0.19838480651378632,0.06791158765554428,-0.3869868516921997,-0.007923048920929432,0.031248293817043304,-0.25586047768592834,0.3451310992240906,-0.30233973264694214,-0.24163928627967834,0.039942845702171326,-0.04267403110861778,-0.10053487122058868,-0.21197400987148285,-0.27679553627967834,0.1760268360376358,0.21606984734535217,0.1347416639328003,0.0784730538725853,-0.4209745228290558,0.052252598106861115,0.1448606252670288,0.08391284942626953,-0.14632612466812134,0.0012202149955555797,0.27584561705589294,-0.15220992267131805,-0.2154923677444458,-0.10050623118877411,0.0073025827296078205,-0.472116082906723,-0.23810115456581116,-0.03227849304676056,-0.13423745334148407,-0.021000714972615242,-0.08888978511095047,-0.24694107472896576,-0.17104318737983704,0.07951784133911133,0.043991569429636,-0.26360219717025757,-0.28848797082901,-0.09849558025598526,-0.023706907406449318,-0.40387994050979614,0.08989269286394119,-0.20968784391880035,-0.23646289110183716,-0.3643292784690857,0.011010237038135529,-0.1457337737083435,-0.2241356074810028,-0.3083033263683319,-0.23157170414924622,-0.3270714282989502,-0.039094503968954086,-0.04546526446938515,0.4722459018230438,-0.20262520015239716,0.12503819167613983,0.28265684843063354,-0.04713423550128937,0.055004604160785675,0.09001336246728897,-0.09326954931020737,-0.18870699405670166,-0.05119040235877037,-0.04797796905040741,-0.26600486040115356,-0.08876499533653259,-0.14691023528575897,-0.2105216085910797,0.06783099472522736,-0.3682953119277954,-0.2506992518901825,0.007405866868793964,0.16098155081272125,-0.2087225615978241,0.0757155641913414,-0.1752021461725235,-0.19791652262210846,-0.14096054434776306,0.05444743484258652,-0.2205972522497177,0.36303892731666565,0.057992711663246155,0.23274622857570648,0.03217471018433571,-0.09177034348249435,0.2517096996307373,0.01519702933728695,-0.060734402388334274,0.44694897532463074,-0.001110736047849059,0.10327571630477905,-0.16559089720249176,-0.11666642874479294,-0.3470630347728729,0.06400274485349655,0.19697916507720947,-0.20902448892593384,0.0014657543506473303,-0.1208253726363182,-0.03594649210572243,0.11362604796886444,0.3198550343513489,-0.3346731960773468,0.19582189619541168,-0.4324691593647003,0.07922326773405075,0.11036311089992523,-0.10681138932704926,-0.19870221614837646,0.29924601316452026,-0.294336199760437,-0.3218388855457306,0.05938081815838814,0.03853266313672066,-0.1149880513548851,-0.2540941536426544,-0.031088050454854965,-0.11892697215080261,-0.1895449012517929,-0.34963563084602356,-0.15864500403404236,-0.11003123223781586,-0.3760155737400055,-0.09827777743339539,0.27114227414131165,-0.08393428474664688,-0.03329405561089516,0.12285435944795609,-0.14031994342803955,0.00956681277602911,0.13690565526485443,-0.204950213432312,-0.1389969438314438,0.029894499108195305,0.12536154687404633,-0.2127910554409027],[-0.1547698974609375,0.6020930409431458,0.032560210675001144,-0.2215520590543747,0.10874561965465546,-0.35936757922172546,0.08997952193021774,-0.00720780435949564,0.0315852016210556,-0.3554684817790985,0.20434331893920898,-0.033290814608335495,-0.12305790930986404,-0.1345820277929306,-0.371518611907959,0.02889055386185646,-0.051241833716630936,0.04206458851695061,-0.015192462131381035,0.035393163561820984,-0.12091857194900513,-0.09164953976869583,-0.03346031904220581,-0.20444583892822266,0.15775363147258759,0.10772570222616196,0.041421592235565186,0.12060566246509552,0.04345947131514549,0.05400329455733299,0.033848073333501816,-0.06344080716371536,0.15863089263439178,-0.11752063035964966,0.21195094287395477,0.018756601959466934,-0.14767543971538544,-0.18490681052207947,-0.06771937757730484,0.3987399935722351,-0.2975239157676697,-0.014721191488206387,-0.13984140753746033,0.01596400886774063,0.13740728795528412,0.2986656427383423,-0.2904163897037506,-0.05919590964913368,-0.30665862560272217,-0.0770086795091629,0.1526700258255005,-0.27909284830093384,-0.05870603024959564,0.02840247005224228,-0.1842806339263916,-0.07554199546575546,-0.524077832698822,0.036620091646909714,-0.1829313337802887,0.17184408009052277,-0.015313051640987396,-0.05274896323680878,-0.1293814778327942,-0.33254921436309814,0.04074566066265106,-0.25856703519821167,0.015265997499227524,-0.06764756888151169,-0.19110535085201263,0.007960164919495583,0.1425906866788864,0.11337260901927948,-0.6268541812896729,0.270680695772171,0.17979073524475098,-0.16094925999641418,-0.010316048748791218,-0.10977397859096527,-0.008875537663698196,0.17693324387073517,0.0643671452999115,-0.1807359904050827,0.07145076245069504,-0.23640310764312744,-0.20573017001152039,-0.17461249232292175,0.051186658442020416,0.05381261557340622,-0.2768324315547943,0.24422039091587067,0.2615317404270172,-0.27304360270500183,-0.06469181925058365,0.11282328516244888,-0.009995236061513424,-0.17980927228927612,-0.021923907101154327,0.07705806940793991,0.5371025800704956,-0.2487880438566208,0.1260015368461609,-0.03868729621171951,0.09302455931901932,0.03446284681558609,0.1242697462439537,0.24352426826953888,-0.160734623670578,0.09634225070476532,0.12375406175851822,-0.380374014377594,-0.19196221232414246,0.2241963893175125,-0.13755680620670319,0.06354513764381409,0.04000890627503395,-0.28559771180152893,-0.15452629327774048,0.23269344866275787,0.001767793670296669,0.12997132539749146,-0.08936616033315659,-0.1670553833246231,0.5178186893463135,-0.08786273002624512,-0.2357540875673294,0.25946372747421265,-0.03634989634156227,0.004492630250751972,-0.03640948235988617,0.06199134886264801,-0.00045276014134287834,-0.13536694645881653,0.09872511774301529,-0.08160489052534103,0.0750238224864006,-0.026421859860420227,-0.12994760274887085,0.3914751708507538,0.11628701537847519,-0.12062773108482361,0.14404970407485962,-0.059878233820199966,-0.2222871631383896,0.17918536067008972,-0.17455635964870453,-0.17756016552448273,0.35426759719848633,-0.09623194485902786,-0.055521052330732346,-0.06809958815574646,0.20043623447418213,0.1115693524479866,-0.21339036524295807,0.10718727856874466,0.15018609166145325,0.0011258202139288187,0.020093293860554695,-0.05395573750138283,-0.0800519660115242,0.005880449432879686,0.09966851770877838,0.3368150591850281,0.010674916207790375,-0.043941840529441833,0.3131228983402252,0.0723070427775383,-0.28129157423973083,-0.3527350127696991,0.09810598939657211,-0.21469952166080475,-0.009568136185407639,0.2653920352458954,0.11130765825510025,-0.07774561643600464,0.17567160725593567,-0.07250041514635086,0.1203719973564148,-0.25615113973617554,-0.30560851097106934,-0.012680213898420334,-0.06562121957540512,-0.4023350775241852,0.026666169986128807,-0.37200865149497986,-0.3151741325855255,-0.03299485146999359,0.12149451673030853,-0.35614269971847534,-0.0435371994972229,-0.2407359480857849,-0.009058651514351368,0.056084439158439636,-0.19423259794712067,0.29638904333114624,0.028285501524806023,0.08237917721271515,0.1654312014579773,-0.17872312664985657,-0.11983593553304672,0.22539016604423523,-0.43166473507881165,0.002144579077139497,0.08401128649711609,-0.27199262380599976,-0.28592512011528015,0.2687579393386841,0.14926069974899292,-0.37498435378074646,-0.312135249376297,0.0034867471549659967,0.2957700192928314,-0.12363600730895996,0.008456360548734665,0.02158031426370144,-0.4369913637638092,-0.1037239208817482,-0.13399453461170197,0.15361517667770386,0.20326247811317444,0.09105999767780304,-0.17198903858661652,-0.3470342457294464,-0.057040657848119736,0.10720038414001465,-0.00024458044208586216,0.30559250712394714,-0.1913907527923584,0.24819381535053253,-0.26847922801971436,-0.25065332651138306,-0.4495338797569275,-0.11923561990261078,-0.008851798251271248,0.13471485674381256,-0.2018587440252304,0.15669533610343933,0.38213837146759033,-0.15313571691513062,-0.21433942019939423,-0.26795604825019836,0.33643051981925964,-0.09967797994613647,0.07803849875926971,0.39077144861221313,-0.08237982541322708,0.415663480758667,-0.3647773265838623,0.25935977697372437,-0.007575910538434982,-0.06238851323723793,-0.0938776507973671,-0.06491647660732269,0.13857129216194153,-0.0917714312672615,0.024920618161559105,-0.043894220143556595],[0.32120245695114136,-0.16895654797554016,0.03681275621056557,-0.16903972625732422,0.0023741666227579117,-0.3854633569717407,0.16790488362312317,0.09971312433481216,0.13452601432800293,-0.006788763217628002,-0.48900043964385986,0.20298515260219574,-0.03621619567275047,-0.07051414251327515,-0.09934192895889282,-0.4051206409931183,-0.10222393274307251,-0.03613460808992386,0.09976597130298615,-0.2841852605342865,0.08884955197572708,-0.07159394770860672,0.03307849168777466,-0.05947329103946686,-0.0541779026389122,-0.30026721954345703,0.31643497943878174,0.20212851464748383,0.04368261247873306,-0.007040909491479397,0.19344431161880493,-0.05383138731122017,-0.1276242882013321,0.014546830207109451,0.04226461052894592,0.18126125633716583,0.12248609960079193,0.05102613940834999,0.07385652512311935,-0.2269459366798401,-0.05217516049742699,-0.22114300727844238,0.032895058393478394,0.35417431592941284,-0.01614430919289589,-0.09671862423419952,-0.05252551659941673,0.1489333212375641,0.3318764865398407,0.06415285170078278,0.10257357358932495,0.1440270096063614,0.16214297711849213,-0.05419746786355972,-0.008164167404174805,-0.009660523384809494,-0.0796322301030159,0.1852794736623764,-0.22527915239334106,0.22640635073184967,-0.08471331000328064,0.3264774680137634,0.03183732554316521,-0.34145089983940125,-0.049657758325338364,0.09143135696649551,-0.19339115917682648,-0.46852633357048035,0.3267301917076111,0.21476881206035614,-0.16345146298408508,-0.14395394921302795,0.0015911555383354425,-0.03606622666120529,0.05272326245903969,0.13158410787582397,0.1459166556596756,-0.1042678952217102,0.3183192312717438,0.22741283476352692,0.2733089029788971,-0.1383877396583557,-0.02994968555867672,-0.1736619472503662,0.04027935490012169,0.016120534390211105,-0.025955364108085632,0.11913160979747772,0.04248081147670746,-0.024004511535167694,0.048009272664785385,0.3608788549900055,0.03580722212791443,0.13062739372253418,-0.14512068033218384,-0.31614795327186584,0.18796412646770477,0.07030361145734787,-0.10196534544229507,-0.22174550592899323,-0.21545371413230896,-0.2129174768924713,-0.017228201031684875,-0.2331317812204361,-0.40603935718536377,-0.10256530344486237,-0.20725682377815247,-0.026640770956873894,-0.05502175912261009,-0.04133036732673645,-0.08765707910060883,0.06518930196762085,-0.1580846905708313,-0.19082337617874146,0.017513670027256012,-0.25996387004852295,0.11552148312330246,-0.020650353282690048,0.10901999473571777,0.0454472154378891,-0.3331167995929718,-0.1929745376110077,-0.03482005372643471,-0.2645868957042694,0.06230377033352852,-0.11339692026376724,-0.19707702100276947,0.3449645936489105,-0.11703117936849594,-0.009328293614089489,0.18870529532432556,-0.15365424752235413,-0.06783808767795563,0.13295650482177734,-0.196827694773674,0.14363646507263184,0.09092210233211517,-0.130217045545578,-0.13001905381679535,0.04865865409374237,-0.11956866085529327,0.0783887654542923,-0.07243752479553223,0.05374252423644066,-0.021067002788186073,0.24700339138507843,-0.022293180227279663,-0.20473085343837738,0.22783198952674866,-0.1762544959783554,-0.31734731793403625,-0.23998591303825378,-0.27892130613327026,-0.5222163200378418,-0.09451638907194138,0.1274959295988083,0.048100732266902924,-0.21332885324954987,0.007947889156639576,0.006094748619943857,-0.10904417186975479,0.13261447846889496,-0.28551337122917175,-0.1253618746995926,-0.04393097385764122,-0.13172021508216858,-0.29764607548713684,0.08180001378059387,-0.09667598456144333,0.28742796182632446,-0.010358457453548908,0.05373474955558777,0.078190378844738,0.19967231154441833,-0.33860528469085693,0.1709594577550888,0.3500624895095825,-0.3948747515678406,-0.23697791993618011,0.023495767265558243,-0.017392907291650772,-0.0689404308795929,0.14875943958759308,0.11050576716661453,-0.08355753868818283,0.017039917409420013,-0.43983393907546997,0.051753539592027664,0.33629274368286133,-0.026045147329568863,0.1275310069322586,-0.004345954395830631,0.1533345729112625,0.09610234200954437,-0.037188123911619186,-0.11830754578113556,-0.16683408617973328,0.05042906850576401,0.1809506118297577,0.13711017370224,0.13031545281410217,-0.08022976666688919,-0.11893810331821442,-0.6208735108375549,0.04114198684692383,0.30540820956230164,0.1504950225353241,0.003546973690390587,0.0516403429210186,0.06482162326574326,0.06483997404575348,0.36352622509002686,0.025586852803826332,-0.10519936680793762,0.02824629470705986,0.11614277958869934,0.1821504533290863,-0.4034672677516937,-0.13886524736881256,0.12720060348510742,-0.22649922966957092,0.13330936431884766,-0.06471004337072372,-0.010643957182765007,-0.14460954070091248,-0.25114884972572327,-0.007686672732234001,-0.13699154555797577,-0.1990610957145691,0.06708558648824692,0.13901905715465546,-0.04764164611697197,-0.23774316906929016,0.26432475447654724,-0.16780918836593628,-0.0830710306763649,-0.15390917658805847,-0.0801689624786377,0.031545836478471756,-0.05592407286167145,0.08150052279233932,0.19913771748542786,-0.2778085172176361,0.019980140030384064,0.28811681270599365,-0.2325742244720459,-0.2125442624092102,0.037628255784511566,-0.13701239228248596,-0.3464692234992981,-0.025256136432290077,0.05249686539173126,0.15913179516792297,-0.014005925506353378,0.018518803641200066,-0.0011672829277813435],[-0.4415656328201294,-0.17494970560073853,-0.49888941645622253,-0.27253997325897217,-0.14345212280750275,0.09693580865859985,-0.30402156710624695,0.050598740577697754,0.06359373778104782,-0.017339572310447693,-0.19806347787380219,-0.3159010708332062,-0.19412259757518768,0.052952103316783905,0.12355721741914749,0.07765328139066696,-0.30258145928382874,-0.0746014192700386,-0.12233447283506393,0.13725608587265015,0.09170238673686981,-0.35110023617744446,0.18792155385017395,0.3119039535522461,0.39110487699508667,-0.2102833241224289,0.29841482639312744,0.10058508068323135,0.07361666113138199,-0.042708251625299454,0.03552698716521263,-0.06934576481580734,-0.23388808965682983,0.1926935911178589,0.2479659765958786,-0.19040687382221222,0.01932317391037941,-0.12419984489679337,0.26481664180755615,0.17413760721683502,-0.3520328104496002,0.4329574704170227,-0.014968167059123516,-0.04541323706507683,-0.03074115701019764,-0.05522850155830383,0.08721660077571869,-0.09368425607681274,0.030741918832063675,0.2220168560743332,-0.02445247955620289,-0.021683450788259506,-0.24561220407485962,0.0521475151181221,-0.17227040231227875,-0.15539386868476868,0.09154071658849716,0.013989875093102455,-0.07432366907596588,0.04405677318572998,-0.06841420382261276,-0.13863639533519745,0.041846998035907745,0.43669548630714417,-0.1658228486776352,0.30758699774742126,-0.04312263801693916,0.07603371888399124,-0.16381725668907166,-0.05762157961726189,0.16020451486110687,-0.24181561172008514,0.12400379776954651,-0.3257533013820648,0.09066418558359146,0.1453704833984375,-0.19385261833667755,-0.030117494985461235,-0.24698485434055328,0.07112203538417816,-0.0478079579770565,0.11198137700557709,-0.1494583636522293,0.1163674145936966,-0.20086921751499176,-0.013469384051859379,-0.150516539812088,-0.172547847032547,-0.06734996289014816,-0.07701650261878967,0.07048698514699936,-0.12720973789691925,0.015161538496613503,0.007995535619556904,-0.07367977499961853,-0.019437354058027267,-0.06543990969657898,0.016018446534872055,0.037480007857084274,-0.06664368510246277,0.0847584530711174,0.056884765625,-0.4821471571922302,-0.15042220056056976,-0.06678508222103119,0.1486310213804245,-0.0019078084733337164,0.0017810189165174961,-0.18599508702754974,-0.13820981979370117,-0.1820477843284607,0.030772805213928223,-0.24286259710788727,-0.03609640896320343,0.18826082348823547,-0.045316070318222046,0.008325298316776752,0.05446033179759979,-0.2571731209754944,-0.2691666781902313,0.18640542030334473,-0.015049032866954803,-0.33105409145355225,-0.10802408307790756,-0.08844026923179626,-0.01129324734210968,-0.3039889335632324,0.02684551291167736,-0.2334246188402176,-0.17835520207881927,-0.18036334216594696,-0.036299336701631546,0.16093996167182922,0.1471354216337204,0.08317521959543228,-0.41182366013526917,-0.03663145378232002,-0.003818043041974306,-0.04089720547199249,0.22836491465568542,-0.18289349973201752,0.2479773610830307,0.2512032687664032,-0.31381070613861084,-0.03283630311489105,-0.11071200668811798,-0.17985452711582184,0.006020111497491598,0.0014075564686208963,-0.0687335729598999,0.44778093695640564,0.1408151239156723,-0.13698673248291016,-0.30207228660583496,0.023540612310171127,-0.20167288184165955,-0.26483452320098877,0.0006249251891858876,-0.12765654921531677,0.04799218848347664,0.3152495324611664,-0.3004308342933655,-0.3491400480270386,-0.017213022336363792,-0.25848570466041565,0.16670529544353485,0.20844677090644836,0.15717487037181854,0.3910791277885437,0.1687217354774475,-0.058700334280729294,-0.23181477189064026,-0.11757886409759521,-0.18743251264095306,0.0526142381131649,-0.13630855083465576,0.568821132183075,-0.11953587085008621,-0.22335994243621826,0.03172101825475693,-0.025114674121141434,0.33038783073425293,-0.053287312388420105,-0.24057303369045258,-0.22313590347766876,0.0776258185505867,0.05065611004829407,0.10490085184574127,0.10228301584720612,-0.1553078293800354,-0.386090487241745,-0.25954654812812805,0.05287765711545944,-0.12884685397148132,-0.016151830554008484,0.021688535809516907,-0.24749377369880676,-0.4456123113632202,0.2093862146139145,0.07889911532402039,0.1748647391796112,-0.01934375986456871,-0.0021392505150288343,0.22111858427524567,-0.03124079667031765,-0.025659220293164253,-0.09203687310218811,-0.2085510492324829,0.2363637536764145,0.1458362638950348,-0.18732546269893646,-0.17308057844638824,-0.37195566296577454,0.2059607356786728,0.19254083931446075,0.03803382068872452,-0.12395591288805008,-0.20703831315040588,-0.30544671416282654,-0.053409986197948456,0.13936489820480347,0.19488656520843506,0.09836797416210175,-0.3446936309337616,0.22263780236244202,-0.013263365253806114,0.09251241385936737,-0.22684654593467712,0.12556803226470947,-0.18529503047466278,-0.03695505112409592,-0.23133376240730286,-0.04234647378325462,-0.006764094810932875,0.2608906328678131,0.14835236966609955,-0.09457512199878693,-0.18687382340431213,-0.035399384796619415,0.21040448546409607,0.17101936042308807,-0.2998044192790985,0.06503591686487198,-0.0012919011060148478,-0.3285162150859833,0.2716612219810486,-0.22200298309326172,-0.21686558425426483,0.2781662344932556,-0.0630718320608139,-0.27576130628585815,-0.1738869547843933,0.008535767905414104,-0.06400604546070099,-0.021979501470923424,-0.23654530942440033],[0.12553709745407104,0.058541957288980484,0.18221630156040192,-0.26436692476272583,-0.17476175725460052,-0.09017319977283478,0.09348754584789276,-0.013472314924001694,0.6257610321044922,-0.04579741507768631,-0.4197160601615906,0.08222343027591705,0.07957880944013596,0.08580614626407623,-0.18863597512245178,-0.03044191375374794,-0.07119851559400558,0.0847773477435112,-0.04243478551506996,0.0760435163974762,0.1325526088476181,-0.22557510435581207,0.05771716311573982,-0.08481967449188232,-0.023034144192934036,0.11208275705575943,0.0481158122420311,-0.024914013221859932,0.06266412138938904,-0.12095163762569427,0.2756247818470001,0.13080598413944244,0.07103081792593002,-0.4211575984954834,0.11128833889961243,-0.03649064898490906,-0.020664330571889877,-0.1288343369960785,0.007542451843619347,-0.150839164853096,-0.1900966316461563,-0.0031331030186265707,0.21078045666217804,0.08220826834440231,0.21453535556793213,-0.13507401943206787,-0.313513845205307,0.2141493707895279,0.044117268174886703,-0.34310582280158997,0.1815468817949295,0.3155501186847687,0.045205023139715195,-0.04111828655004501,-0.12364976108074188,-0.1667909473180771,-0.025146912783384323,0.008421413600444794,0.0037554579321295023,-0.09646043181419373,0.08078470826148987,0.054709542542696,-0.17705470323562622,0.1908336728811264,-0.2849723696708679,0.04904795438051224,-0.3045504093170166,-0.17620277404785156,-0.3859109580516815,-0.19337311387062073,0.06098031997680664,0.20466959476470947,0.20551462471485138,-0.09343894571065903,-0.12074391543865204,-0.048250358551740646,0.2131977528333664,0.05913065746426582,0.15724064409732819,-0.07163946330547333,-0.0573568269610405,0.04028557613492012,0.22053340077400208,-0.07770580053329468,0.23645515739917755,0.20246393978595734,0.04571835324168205,0.06856393069028854,0.21355915069580078,-0.29913872480392456,-0.10023131966590881,0.08129977434873581,0.4737299978733063,-0.14231657981872559,0.0801786482334137,-0.013942194171249866,0.1319538801908493,0.3739634156227112,0.19856606423854828,-0.09857302904129028,0.013555540703237057,-0.09323576837778091,0.3737912178039551,-0.022062040865421295,-0.12418827414512634,0.14036934077739716,0.4386933147907257,0.03853259235620499,-0.1421479731798172,-0.3811321556568146,-0.17135834693908691,-0.1263633668422699,-0.17332009971141815,-0.09251312166452408,-0.12870347499847412,0.25787049531936646,0.15641503036022186,0.06353249400854111,-0.23685231804847717,0.1274852603673935,-0.1955343633890152,-0.1376485526561737,-0.07182539999485016,-0.03338542580604553,-0.0373820923268795,-0.24803069233894348,-0.16544725000858307,-0.17025800049304962,0.07208113372325897,-0.2792474031448364,0.17097675800323486,0.13816286623477936,-0.23482654988765717,0.27065005898475647,0.01257721520960331,-0.03286278247833252,-0.2678254544734955,-0.05178312212228775,0.000971130677498877,-0.07755108177661896,-0.1487639844417572,-0.03974694386124611,-0.1286800503730774,0.044601667672395706,0.07764077186584473,-0.20037327706813812,-0.055263835936784744,-0.32165250182151794,0.2428600937128067,-0.29512178897857666,-0.1395287960767746,-0.10493076592683792,-0.08422476053237915,-0.1780606061220169,-0.19232907891273499,0.23757591843605042,0.17123784124851227,-0.06311015039682388,0.0017981529235839844,-0.0058187395334243774,-0.0853002518415451,0.025513576343655586,0.4298030734062195,-0.30925244092941284,0.024087868630886078,0.0436936691403389,0.23547904193401337,-0.15743038058280945,0.02077876403927803,0.05581223592162132,0.19479133188724518,-0.3197275698184967,-0.12619958817958832,0.14586621522903442,-0.012903380207717419,0.04033417999744415,0.11160588264465332,-0.1439172476530075,-0.06232773885130882,-0.017002495005726814,0.09307298809289932,0.09484037756919861,-0.050057921558618546,0.00047513307072222233,0.11733772605657578,0.154321551322937,0.014266863465309143,0.1449352353811264,0.05363548919558525,-0.2891678214073181,0.1769942194223404,-0.17960594594478607,-0.19012263417243958,-0.1423051804304123,0.25021499395370483,-0.019441667944192886,-0.3652554452419281,0.09159843623638153,-0.13006016612052917,0.1666419953107834,-0.15246030688285828,-0.3038889765739441,-0.1385045051574707,-0.290706068277359,0.38460448384284973,-0.1787494271993637,0.03437314182519913,0.016831524670124054,-0.3926129937171936,-0.23495881259441376,-0.10340623557567596,0.11110178381204605,-0.1612776517868042,-0.1857118457555771,0.0420881062746048,0.25969198346138,-0.24429967999458313,-0.027928778901696205,0.006919620558619499,0.22779037058353424,0.1252804398536682,-0.40177080035209656,0.28183457255363464,-0.21327973902225494,-0.20412041246891022,-0.2937271296977997,-0.10819949954748154,-0.07172416150569916,0.13992810249328613,0.026957280933856964,0.20453882217407227,-0.188930481672287,-0.3479467034339905,-0.04411286115646362,-0.184775710105896,0.08128739893436432,-0.09308051317930222,-0.06570567190647125,0.10318919271230698,0.2579975426197052,-0.09728269279003143,-0.049875810742378235,-0.4694146513938904,0.09883204847574234,-0.13040587306022644,-0.023293720558285713,-0.47853633761405945,0.17330043017864227,0.05838225036859512,0.09242181479930878,0.06340275704860687,0.11110880225896835,-0.04038361459970474,-0.09933574497699738,-0.3582198917865753,0.010773720219731331],[-0.4855741560459137,0.012968570925295353,-0.20814131200313568,-0.1636427938938141,0.10445700585842133,0.10519090294837952,-0.386918306350708,-0.5060455203056335,-0.11190684139728546,-0.1842619776725769,0.04773447662591934,0.037820927798748016,0.28980615735054016,-0.059789471328258514,-0.027753068134188652,0.11792547255754471,-0.049238987267017365,-0.28825974464416504,0.03625156730413437,-0.20174044370651245,0.3048326075077057,0.04524888098239899,0.15086597204208374,-0.13289546966552734,0.05029163509607315,