[[0.03261639550328255,0.3307054936885834,0.05691301077604294,0.21898780763149261,0.11055197566747665,0.1405566930770874,0.03681414946913719,0.26675012707710266,-0.12986545264720917,0.10990181565284729,-0.055549077689647675,0.22034938633441925,-0.29106247425079346,0.32442107796669006,-0.2719080150127411,0.040375005453825,-0.14595547318458557,0.2668752074241638,-0.3545549213886261,0.023983292281627655,-0.11981391906738281,-0.19688120484352112,0.0938120037317276,0.3691153824329376,-0.012385002337396145,-0.12504900991916656,0.12859036028385162,0.32267141342163086,-0.05119827389717102,0.14808234572410583,-0.06240471825003624,0.3419431746006012,0.01717527024447918,0.18449057638645172,0.28260859847068787,-0.03036312945187092,-0.30446264147758484,-0.204021617770195,-0.2458290159702301,-0.20145906507968903,-0.23727630078792572,-0.1570442020893097,0.056813497096300125,0.23133361339569092,-0.043319493532180786,-0.30527547001838684,-0.09856010973453522,-0.09332174807786942,0.16799990832805634,-0.15179283916950226,-0.010022230446338654,-0.002939193742349744,0.03134975954890251,-0.11720844358205795,0.037742938846349716,-0.1533292979001999,-0.21067142486572266,-0.44510990381240845,-0.11679897457361221,-0.16160555183887482,0.05185715854167938,-0.05254974961280823,-0.372021347284317,0.33108195662498474,-0.2067958116531372,0.10422767698764801,-0.015411409549415112,-0.11298158764839172,-0.0316120944917202,0.08412452787160873,-0.12616057693958282,0.08896750956773758,-0.03736284002661705,-0.14463992416858673,0.2051808387041092,-0.10227055102586746,-0.0961810052394867,-0.0724758729338646,-0.1082608699798584,0.16555939614772797,0.3702428936958313,-0.047005824744701385,-0.15870404243469238,-0.05464379861950874,0.011899557895958424,-0.3410378694534302,-0.15526634454727173,0.02117660827934742,0.039621222764253616,-0.203316330909729,-0.19285953044891357,-0.0708828866481781,0.04871640354394913,0.14052127301692963,-0.30004411935806274,0.07112830877304077,0.17278514802455902,0.02261117473244667,-0.04390459507703781,0.00417364714667201,-0.3031013011932373,-0.2800908088684082,0.06753066927194595,0.1755683273077011,-0.05563344433903694,0.4196780025959015,0.35440492630004883,0.24455803632736206,0.2082398384809494,-0.07329070568084717,0.13066603243350983,-0.015319475904107094,0.14218147099018097,-0.13924193382263184,-0.20856578648090363,0.06156494468450546,-0.05931836739182472,0.21157406270503998,-0.2963825762271881,0.025936443358659744,-0.3982059359550476,-0.22442448139190674,0.01988423801958561,0.17851726710796356,-0.2092953473329544,-0.0452113151550293,0.15484172105789185,0.036559272557497025,-0.14825454354286194,-0.06575021147727966,0.1310500055551529,0.0005175514961592853,-0.09654545783996582,0.2790955901145935,-0.024301467463374138,0.29508793354034424,-0.1455722153186798,0.04082738980650902,-0.031368788331747055,-0.24226099252700806,-0.06353279948234558,0.3120940029621124,0.20523346960544586,-0.18859325349330902,-0.40718528628349304,0.0014085854636505246,-0.15830078721046448,-0.18023638427257538,0.1408407986164093,-0.13638810813426971,-0.008628513664007187,-0.26316988468170166,0.06201541796326637,0.4538334310054779,0.10923320055007935,0.1842930167913437,-0.06606004387140274,0.0266124177724123,0.07510320097208023,0.013556231744587421,0.3328053653240204,-0.050095491111278534,-0.14574851095676422,0.07582128047943115,0.3208768367767334,-0.12770195305347443,0.12353721261024475,0.007481630425900221,-0.12803420424461365,0.08403611928224564,-0.1984679251909256,0.02441992610692978,0.17233730852603912,-0.013413282111287117,-0.029886111617088318,-0.1334259957075119,0.5728731155395508,0.05830073729157448,0.03755832463502884,0.07882856577634811,0.016056139022111893,-0.17349450290203094,0.06820324063301086,-0.08405407518148422,0.1973978579044342,0.07333888858556747,0.30890047550201416,0.1605042815208435,0.17430666089057922,-0.3893752098083496,0.01031718123704195,0.3370893597602844,0.22242021560668945,-0.11228107661008835,-0.18484608829021454,-0.21620482206344604,-0.1479545682668686,0.10552763938903809,-0.02976914308965206,-0.04785763844847679,0.020767122507095337,-0.0032732407562434673,0.11700212210416794,-0.05787790194153786,-0.04812643676996231,0.07939966022968292,0.21669051051139832,0.09295075386762619,0.026465730741620064,0.09009542316198349,-0.3476523458957672,0.06931018829345703,-0.2374843806028366,0.0316227450966835,0.09629245847463608,-0.16218706965446472,-0.08990076184272766,-0.2861942946910858,-0.02892359532415867,-0.1685420572757721,-0.23305286467075348,-0.15000680088996887,-0.30139684677124023,-0.03396126255393028,0.14276880025863647,0.03376135230064392,0.18658100068569183,0.1730983853340149,-0.29967421293258667,0.20673899352550507,0.16328562796115875,0.15291184186935425,-0.0019665758591145277,0.01966829225420952,0.23477113246917725,0.045699361711740494,0.12697792053222656,-0.42032140493392944,0.0421404205262661,0.03305365890264511,0.1446356177330017,-0.2135029137134552,0.011851481162011623,0.10163936018943787,-0.15530243515968323,0.1425458788871765,-0.017657365649938583,0.0230569988489151,0.028631992638111115,0.1139122024178505,0.15019755065441132,-0.06635049730539322,0.19758522510528564,0.07519137859344482,-0.21286310255527496,0.02619265578687191],[-0.2973232865333557,0.08071859180927277,-0.013047326356172562,-0.012578236870467663,-0.1210278794169426,-0.0893934816122055,0.09282644838094711,0.093063123524189,-0.11537440121173859,0.022357000038027763,0.20883914828300476,0.05852761119604111,-0.11763767153024673,0.16661670804023743,0.006167542655020952,0.09251424670219421,0.022181056439876556,0.13316744565963745,0.34516042470932007,0.1060781478881836,0.005540270823985338,0.11502927541732788,-0.09603819996118546,-0.35784006118774414,0.23596011102199554,-0.07255750894546509,-0.025070155039429665,-0.10649078339338303,0.059674978256225586,-0.040321506559848785,-0.009966232813894749,-0.14109769463539124,0.17374950647354126,-0.09952982515096664,-0.1566358059644699,0.1734348088502884,-0.08363266289234161,-0.36946040391921997,-0.016797004267573357,0.30263060331344604,-0.0026978044770658016,0.028925513848662376,-0.12970171868801117,0.22982123494148254,0.11228106915950775,-0.040928181260824203,0.10687659680843353,0.2093552201986313,0.23661120235919952,-0.1262468695640564,-0.008573045022785664,-0.1310562640428543,-0.14780879020690918,-0.03953852877020836,0.07599396258592606,0.03746170550584793,-0.06747682392597198,-0.15281830728054047,0.20169147849082947,0.050636522471904755,-0.19435404241085052,-0.078292116522789,0.1945827454328537,0.16828219592571259,-0.07064599543809891,-0.17531408369541168,0.1749219447374344,0.044516123831272125,-0.0410924032330513,0.1722436547279358,0.032006412744522095,-0.03771401569247246,-0.23288500308990479,0.18756096065044403,-0.18462686240673065,0.2196343094110489,0.06553388386964798,-0.20031610131263733,-0.2701084315776825,0.2071601301431656,-0.3891386091709137,0.21531623601913452,-0.36272138357162476,0.05839871987700462,0.3042833209037781,-0.07076071947813034,-0.13019855320453644,-0.29300931096076965,0.04238668456673622,-0.09965489059686661,0.11697462201118469,0.19053222239017487,0.09945239126682281,0.3964482843875885,-0.10161324590444565,0.32473352551460266,-0.09618552029132843,0.01724698208272457,-0.007274152245372534,-0.1246446743607521,0.003681631525978446,-0.13878756761550903,0.08530526608228683,-0.07865693420171738,-0.18309897184371948,0.015349363908171654,-0.04837418720126152,0.13108743727207184,-0.006401037331670523,0.10179496556520462,0.47634607553482056,-0.06586876511573792,0.2018626183271408,0.14514240622520447,-0.06785561889410019,-0.0009583957144059241,0.07801630347967148,-0.18980790674686432,-0.673785388469696,0.0037829044740647078,-0.32673656940460205,-0.3263276219367981,0.08608391135931015,-0.05847616493701935,-0.10334490239620209,-0.30657777190208435,0.020828014239668846,-0.5403972864151001,0.2802745997905731,0.04716474562883377,-0.17042498290538788,-0.06660044193267822,-0.1284850537776947,-0.41672781109809875,-0.0015903996536508203,-0.13431736826896667,0.3065454959869385,0.2638923227787018,-0.14468291401863098,0.02232411876320839,0.13326328992843628,0.11009437590837479,-0.02667946368455887,0.17619135975837708,0.3498850166797638,-0.09078998863697052,-0.0842975601553917,0.2112106829881668,-0.2982349395751953,-0.1230437308549881,-0.20903055369853973,-0.020039012655615807,0.17353205382823944,-0.1363428235054016,0.2093062847852707,0.23018203675746918,0.01787777803838253,-0.009557939134538174,-0.13609178364276886,-0.04739879444241524,0.05278729274868965,-0.04515166953206062,-0.130959153175354,-0.16696254909038544,-0.26133379340171814,0.04086838662624359,0.099545419216156,0.17779074609279633,0.018802518025040627,0.04519515484571457,-0.05836876854300499,0.23995622992515564,0.041802044957876205,-0.08602377772331238,-0.11410009115934372,0.005322103854268789,-0.17489026486873627,0.11365710198879242,0.14491435885429382,0.14408473670482635,0.14872513711452484,0.02448921836912632,0.34754708409309387,0.18521322309970856,-0.04331905022263527,0.05519535019993782,-0.21846118569374084,-0.2846427857875824,-0.13159197568893433,0.2236739993095398,-0.333850234746933,-0.20902149379253387,0.18018901348114014,0.15562845766544342,-0.025409219786524773,-0.1563214212656021,-0.41610071063041687,0.17093425989151,-0.11330532282590866,-0.15804164111614227,-0.0500224232673645,-0.03552217036485672,-0.22872033715248108,-0.32805708050727844,0.12763822078704834,0.14617919921875,0.07124313712120056,-0.3017701208591461,0.06943999230861664,0.25002172589302063,0.20762164890766144,-0.10535524785518646,-0.44493937492370605,0.09302361309528351,0.1077147126197815,0.23448902368545532,0.03131928667426109,0.30555808544158936,0.010342782363295555,-0.17714034020900726,0.21883109211921692,0.08646893501281738,-0.17984138429164886,-0.1616121232509613,-0.024810265749692917,0.048439931124448776,-0.3508546054363251,0.054527509957551956,0.003227825276553631,-0.010360964573919773,0.21999706327915192,-0.3284185826778412,0.04050536826252937,0.09475504606962204,0.329985111951828,-0.1497718095779419,0.12325306236743927,0.10390862077474594,-0.00018819303659256548,0.2176423966884613,0.06609330326318741,-0.01018607709556818,-0.2647630274295807,-0.3054112493991852,0.2171829342842102,-0.10576024651527405,-0.009414906613528728,-0.042065951973199844,-0.054838940501213074,-0.028434639796614647,0.10691764205694199,0.252948135137558,-0.026627272367477417,-0.08692783862352371,-0.04115943983197212,-0.22723662853240967],[-0.09848141670227051,-0.0888989046216011,-0.05976947396993637,0.04820423573255539,-0.276006817817688,0.029659437015652657,-0.012865926139056683,-0.21268025040626526,-0.017160242423415184,-0.06067291647195816,-0.13237792253494263,0.051234520971775055,0.053566452115774155,0.03318497911095619,0.14781618118286133,0.1427794247865677,0.2899591028690338,-0.11630117148160934,-0.2987472414970398,-0.06940237432718277,-0.051781073212623596,0.02424437180161476,-0.0909331738948822,-0.19098296761512756,0.08281175792217255,0.28808024525642395,-0.281291127204895,0.03525051847100258,-0.12442554533481598,-0.17581529915332794,-0.006539875641465187,-0.06828487664461136,0.24597102403640747,0.21889178454875946,-0.02760845609009266,0.2700744569301605,-0.2665816843509674,0.10862943530082703,0.35421836376190186,-0.12371288239955902,0.04403526708483696,0.21776580810546875,0.03239346295595169,-0.01857762597501278,0.16615930199623108,-0.04899891838431358,0.17849965393543243,-0.0902961939573288,-0.26758697628974915,0.05496181175112724,0.020693577826023102,-0.13973423838615417,0.004140288569033146,-0.006206858903169632,-0.2600902020931244,0.05151539295911789,0.046246178448200226,-0.1750805526971817,0.1548711061477661,-0.2945595681667328,0.13188590109348297,-0.4005871117115021,-0.1232597827911377,0.06204137206077576,0.2072441279888153,-0.05908868461847305,0.19956833124160767,-0.07955577224493027,0.048349857330322266,-0.006544809322804213,-0.0015783652197569609,-0.13353130221366882,-0.009710618294775486,-0.085537850856781,0.10523005574941635,-0.19685551524162292,0.10387584567070007,-0.05753924697637558,-0.0940154418349266,-0.12911684811115265,-0.40082675218582153,0.034275833517313004,0.25429171323776245,-0.07776353508234024,0.190353125333786,-0.0830172449350357,0.08669111132621765,0.0909525603055954,-0.12229787558317184,-0.032955415546894073,-0.2372652143239975,-0.2584463357925415,-0.4571411609649658,-0.12326184660196304,-0.061862263828516006,0.10368436574935913,0.15066294372081757,-0.13046075403690338,-0.33778220415115356,0.22738003730773926,0.19543367624282837,-0.06482885032892227,-0.3201780319213867,0.00006057054997654632,0.3725639283657074,0.14931239187717438,0.23476293683052063,0.10690341144800186,-0.16246868669986725,-0.20378953218460083,0.0021474454551935196,0.1066775843501091,-0.2614632546901703,0.006914871279150248,0.12732051312923431,-0.2796781361103058,-0.04124096408486366,-0.2320381999015808,-0.34049367904663086,-0.11186899989843369,0.030901115387678146,-0.22345782816410065,-0.3390345871448517,-0.05278647318482399,-0.11959204822778702,0.009695087559521198,0.29610517621040344,0.2442106306552887,0.07735259085893631,0.07681553065776825,0.060333654284477234,0.030772989615797997,-0.11349169164896011,-0.024467578157782555,-0.10089092701673508,-0.032057810574769974,-0.07333795726299286,-0.040728215128183365,0.5749351978302002,-0.16163690388202667,0.07015111297369003,0.19039194285869598,-0.06841688603162766,0.16997841000556946,-0.14304453134536743,-0.2861423194408417,0.07494821399450302,0.06501984596252441,0.03876651078462601,0.32887205481529236,0.001856927527114749,-0.14398109912872314,-0.02689235657453537,0.1120004877448082,-0.3107217848300934,-0.15449200570583344,0.3099055290222168,0.4715231657028198,-0.2278643250465393,-0.24057349562644958,-0.12583857774734497,0.12298476696014404,0.03284645453095436,-0.013379517942667007,-0.06942201405763626,0.005325102247297764,-0.3150242865085602,-0.10638030618429184,0.12840865552425385,0.12851053476333618,0.21412014961242676,-0.2155729979276657,0.1701527088880539,-0.13834765553474426,-0.38413888216018677,-0.09638338536024094,0.03847338631749153,0.11104866117238998,-0.12485121935606003,-0.20769013464450836,-0.08904381096363068,0.14327983558177948,0.1369669884443283,0.20962239801883698,-0.111666239798069,-0.1435430943965912,0.049370985478162766,-0.04558510333299637,-0.33718153834342957,0.02764756791293621,-0.08479524403810501,0.028411468490958214,0.10058438032865524,-0.05124463513493538,0.4386201500892639,-0.07267291098833084,-0.005621226504445076,0.015592698007822037,-0.0024428842589259148,-0.008377116173505783,0.2048466056585312,0.003975423518568277,0.45958495140075684,0.027190351858735085,-0.19882908463478088,-0.2387944459915161,-0.11355568468570709,-0.07112282514572144,0.081079863011837,-0.1258842647075653,0.11304651945829391,-0.034311022609472275,-0.08676929771900177,0.016226058825850487,-0.060447778552770615,0.001505076652392745,0.07213062047958374,-0.008782466873526573,-0.18821945786476135,-0.23698578774929047,0.0678032636642456,-0.02353203482925892,-0.1501276195049286,0.04520823806524277,0.06827607750892639,-0.1560787707567215,0.2053862065076828,0.1335732489824295,0.1577826738357544,-0.06635507196187973,0.4058293104171753,0.12001074850559235,0.2653766870498657,-0.05233698710799217,0.09567275643348694,0.1570127010345459,0.05798153579235077,-0.10352437198162079,-0.0036292197182774544,-0.10889928042888641,-0.017461979761719704,0.382554292678833,-0.1984594315290451,-0.021546639502048492,0.09374787658452988,-0.12332303822040558,-0.057714298367500305,0.03502451628446579,-0.24501033127307892,0.09511421620845795,0.10487119853496552,-0.11852451413869858,0.11339978873729706,-0.004813625011593103,0.15745362639427185,-0.22120654582977295],[-0.01234973594546318,-0.06874808669090271,0.05064765736460686,0.11434973776340485,-0.2969270646572113,0.04463621601462364,0.033897388726472855,0.11662275344133377,-0.1478338986635208,0.2720843255519867,0.3006094694137573,0.0614408478140831,-0.018707074224948883,0.023530656471848488,-0.1977497786283493,-0.34060096740722656,0.11227944493293762,0.008946401067078114,-0.06391885876655579,-0.010767859406769276,0.18860328197479248,-0.11245588958263397,0.06967565417289734,0.0971832200884819,0.05655384063720703,0.37332409620285034,0.12067131698131561,0.02981739677488804,-0.008947309106588364,-0.07428525388240814,0.10792046040296555,0.1094461977481842,-0.21684348583221436,-0.07864487171173096,-0.08577045798301697,-0.07617279142141342,0.16909651458263397,-0.11100000143051147,0.06054038926959038,-0.26865074038505554,0.10986518114805222,-0.2746373116970062,-0.1906178891658783,0.13492174446582794,0.2805525064468384,0.3521336019039154,0.1422482579946518,-0.2879354655742645,-0.06289579719305038,0.2566213309764862,-0.01825624704360962,-0.05209863558411598,-0.04713798686861992,-0.20615406334400177,0.03639650717377663,-0.045280467718839645,0.5276630520820618,-0.22086311876773834,0.22750896215438843,0.10741506516933441,-0.11791017651557922,-0.021967735141515732,0.16037683188915253,-0.039839599281549454,-0.0761471837759018,-0.08617974817752838,-0.10868305712938309,0.1811320036649704,-0.03379346430301666,0.34771186113357544,0.007262923289090395,-0.039381254464387894,-0.02592976577579975,-0.158188596367836,0.01672789640724659,-0.11343567073345184,0.08633360266685486,0.06171498820185661,0.1876974254846573,0.029325131326913834,0.05369531735777855,-0.14424100518226624,0.08516981452703476,0.025919292122125626,-0.22340229153633118,-0.3274760842323303,-0.093540258705616,-0.029488444328308105,0.128684401512146,-0.32915350794792175,0.11550763994455338,0.0496114082634449,-0.0767626091837883,0.17828047275543213,-0.21914447844028473,-0.0014531728811562061,0.03698808327317238,-0.00629389239475131,0.21697458624839783,0.1843070536851883,-0.0476577952504158,-0.057932861149311066,-0.36642056703567505,0.49605482816696167,0.19919538497924805,0.007424771785736084,-0.1458539217710495,-0.03594687953591347,0.05335499718785286,0.14441901445388794,0.04648278281092644,0.1598295420408249,0.032557081431150436,0.08523008972406387,-0.06754615902900696,-0.2697143256664276,-0.15288598835468292,-0.06599085032939911,0.2102624922990799,-0.5587753057479858,0.22227025032043457,-0.16851282119750977,0.12096121907234192,-0.20725737512111664,-0.1273624151945114,0.1153012365102768,0.06670831888914108,-0.10007858276367188,-0.1335664540529251,0.15889136493206024,0.1448669135570526,0.08408049494028091,0.29260513186454773,0.10974918305873871,0.05464104935526848,0.1907849758863449,0.034024178981781006,-0.08178006857633591,0.08094768971204758,0.243443101644516,0.05722247436642647,-0.06379770487546921,-0.18423084914684296,0.10425503551959991,-0.2237289696931839,0.07988569885492325,-0.013878628611564636,0.301639199256897,0.05722684785723686,0.10781972855329514,-0.009867235086858273,-0.08602244406938553,0.07129170745611191,0.1362932175397873,-0.14749987423419952,0.1325705647468567,-0.062000103294849396,-0.09651515632867813,0.05786269158124924,0.18020150065422058,0.06629358977079391,-0.037818796932697296,-0.1563093662261963,-0.3074193596839905,0.1727973073720932,-0.30267491936683655,0.1618797332048416,0.27527084946632385,-0.23014472424983978,0.26761195063591003,0.03531644120812416,-0.06669183075428009,-0.014406709000468254,-0.08069423586130142,0.0888414978981018,-0.015108996070921421,-0.0833594799041748,-0.27548909187316895,-0.0546228252351284,0.08099474012851715,-0.2557385265827179,0.23164324462413788,-0.15561845898628235,-0.0007287980406545103,0.27835655212402344,-0.12756262719631195,-0.05055074021220207,0.15191350877285004,0.1316755712032318,-0.17734812200069427,0.23875166475772858,-0.22559283673763275,-0.1596878618001938,0.2235296070575714,-0.05249680578708649,0.11348062753677368,-0.036978695541620255,0.17336876690387726,-0.19959254562854767,-0.12278138846158981,-0.10543325543403625,-0.11305299401283264,-0.3116377890110016,-0.05091303214430809,-0.2542904019355774,0.06074440851807594,0.2941211760044098,0.22655963897705078,0.05348886549472809,0.06981325149536133,0.04304226115345955,-0.03498945012688637,0.09721473604440689,-0.01379783358424902,0.05374674126505852,0.4540950357913971,0.010728168301284313,0.2727435231208801,0.025684494525194168,0.10700821131467819,0.21389411389827728,-0.3817969560623169,-0.1791364997625351,-0.37985286116600037,-0.09252946078777313,-0.12132462114095688,-0.2843146324157715,-0.3789215683937073,0.13128338754177094,-0.016797726973891258,-0.07633572816848755,0.06693223863840103,-0.04322424158453941,-0.07627833634614944,-0.18160255253314972,0.20435504615306854,-0.3080693781375885,0.13555274903774261,0.03711865842342377,0.09533160924911499,0.14122331142425537,0.36971354484558105,0.043821029365062714,-0.07463723421096802,0.06319619715213776,-0.3846953213214874,0.009941384196281433,-0.0451962873339653,-0.03478970751166344,0.015942353755235672,0.17902147769927979,-0.13469313085079193,-0.4433583617210388,0.010313554666936398,0.2328573316335678,0.010111285373568535],[-0.04175172746181488,-0.1458643674850464,-0.14275769889354706,0.22875837981700897,0.028337804600596428,0.0232535507529974,0.022693712264299393,0.10220237821340561,-0.04377586767077446,-0.18936198949813843,0.11261110752820969,-0.02059895358979702,-0.15105962753295898,-0.08342903107404709,0.07979416847229004,-0.006149057764559984,0.1362103670835495,0.001095438259653747,0.07606540620326996,0.04200005158782005,0.17383557558059692,-0.11437783390283585,-0.15475593507289886,-0.13676494359970093,-0.2282378226518631,-0.2938157320022583,0.2496074140071869,-0.029007401317358017,0.2231183797121048,-0.12056981772184372,-0.013687221333384514,-0.19262076914310455,-0.1693660467863083,0.1762779951095581,-0.14480319619178772,0.08618063479661942,-0.022928915917873383,0.0449494831264019,0.18553219735622406,0.007621924392879009,0.006084688939154148,-0.010336380451917648,0.12995435297489166,0.1401866376399994,0.24338173866271973,-0.4692516326904297,-0.0036212585400789976,-0.21969404816627502,-0.17296558618545532,0.039815545082092285,-0.21269215643405914,-0.21751180291175842,0.1461382955312729,-0.14115087687969208,-0.23144124448299408,-0.13265955448150635,0.03285340964794159,0.31817737221717834,-0.04876338317990303,-0.10543500632047653,0.04708461835980415,-0.06728560477495193,0.32976189255714417,0.07565554231405258,0.38908663392066956,0.023927392438054085,-0.11063437908887863,0.04236636310815811,-0.1115276962518692,-0.004640738945454359,-0.08671171963214874,-0.18081334233283997,-0.06947975605726242,-0.20508719980716705,0.01841646246612072,-0.1598280519247055,-0.17553088068962097,-0.06119808182120323,0.2696104049682617,0.14441536366939545,-0.006022844463586807,0.12329884618520737,0.2776558995246887,-0.07988771796226501,-0.10930344462394714,-0.035474710166454315,-0.14409399032592773,0.1444520503282547,-0.0909762978553772,0.042772360146045685,0.2601965665817261,-0.12206140160560608,-0.0911647155880928,0.0903024971485138,-0.13153640925884247,0.27299392223358154,-0.0625617504119873,-0.14303450286388397,0.27837935090065,0.22452425956726074,-0.2131519913673401,0.3832927346229553,-0.03769397363066673,-0.004167894367128611,0.18842865526676178,0.024539273232221603,0.09073097258806229,-0.2535759210586548,0.5454886555671692,-0.016914479434490204,0.1730566918849945,-0.08219757676124573,0.11020505428314209,-0.05833040922880173,-0.2809748351573944,-0.0012909499928355217,0.10475893318653107,-0.017367443069815636,-0.0810580849647522,0.3316594362258911,-0.034464430063962936,-0.248760387301445,0.19063778221607208,0.2115837037563324,-0.23796731233596802,0.004419654607772827,-0.07717189192771912,-0.19077424705028534,-0.3020726442337036,0.21994546055793762,0.13434429466724396,0.11573004722595215,-0.0034247112926095724,-0.08592551201581955,0.00575231621041894,-0.18562036752700806,0.008456439711153507,0.1744188666343689,0.1351359337568283,0.08242103457450867,0.04699893668293953,0.12754762172698975,0.18089468777179718,0.22133713960647583,-0.03959307447075844,-0.08951372653245926,0.0374339297413826,0.24216139316558838,-0.08868599683046341,0.1458849459886551,0.050255026668310165,0.005190820433199406,-0.018764039501547813,-0.21745893359184265,-0.2329663783311844,-0.0622933954000473,-0.12132585793733597,0.024430247023701668,-0.10177610069513321,0.3085843324661255,0.14999669790267944,-0.18657413125038147,-0.08745726197957993,-0.2946668267250061,-0.008154456503689289,0.03994683921337128,-0.18775467574596405,-0.10826800018548965,-0.29235443472862244,-0.236773282289505,0.12203212827444077,0.11507656425237656,0.1374923288822174,-0.11486080288887024,0.12074843049049377,-0.119172602891922,0.35564354062080383,0.1889297217130661,0.12352049350738525,0.21691536903381348,0.23126201331615448,-0.25032442808151245,-0.027121668681502342,-0.5284671783447266,0.20623034238815308,0.14898569881916046,-0.1465287059545517,-0.09628462046384811,0.386661559343338,0.1588299423456192,-0.17722868919372559,-0.033606912940740585,0.08908546715974808,0.2824905514717102,-0.010948583483695984,0.0761481299996376,-0.00939884502440691,0.1794470250606537,-0.20048744976520538,0.2206408828496933,-0.1699463278055191,-0.11319316923618317,0.06796484440565109,-0.15891414880752563,0.4109826683998108,-0.19583545625209808,-0.14305327832698822,0.16120241582393646,-0.11755422502756119,0.06740207970142365,-0.06742594391107559,-0.15609300136566162,0.09757892042398453,0.03210959583520889,0.11159045994281769,-0.10325907915830612,0.24304266273975372,-0.06131037697196007,0.041242003440856934,0.07509945333003998,-0.4488193094730377,-0.15045565366744995,-0.04050168767571449,0.31639525294303894,-0.02644786611199379,-0.25656092166900635,-0.3636418282985687,0.046507883816957474,0.16892948746681213,0.2019081860780716,-0.015453353524208069,-0.09538021683692932,-0.17876984179019928,-0.09815076738595963,0.053566377609968185,-0.2970956265926361,-0.28197047114372253,-0.11947378516197205,-0.13237544894218445,0.17903806269168854,-0.2506721615791321,0.021268561482429504,0.03516964614391327,-0.28975802659988403,-0.10472488403320312,-0.08477859199047089,-0.12198341637849808,0.27130386233329773,0.06042705848813057,-0.06943799555301666,-0.01545675192028284,0.08969229459762573,0.007429760415107012,0.017055464908480644,-0.01980816014111042,-0.18093818426132202],[-0.20380020141601562,-0.15153172612190247,-0.029166756197810173,-0.028280898928642273,-0.017891203984618187,-0.10769049823284149,-0.09969446808099747,-0.6020554304122925,-0.13266552984714508,-0.1527232825756073,-0.12853948771953583,-0.0735042467713356,0.19525562226772308,-0.07517573237419128,-0.2016955465078354,0.11007550358772278,0.3156801164150238,-0.032292768359184265,-0.005894012749195099,-0.4116535186767578,-0.033379796892404556,-0.07975607365369797,-0.18818727135658264,-0.07255985587835312,0.2731126546859741,0.18241432309150696,-0.11013760417699814,0.33195123076438904,-0.3932437598705292,0.13736525177955627,-0.270060658454895,-0.2411804050207138,-0.00988512858748436,0.2504241466522217,-0.006490530911833048,-0.08391216397285461,0.3262133300304413,-0.07289407402276993,0.3496991693973541,0.2874719202518463,0.026786424219608307,-0.18399988114833832,-0.072455994784832,0.01770015060901642,-0.3434107005596161,-0.39616885781288147,0.4456958472728729,-0.20020218193531036,0.062145132571458817,0.22500638663768768,-0.06071317195892334,0.01817251369357109,0.01563018001616001,-0.20063471794128418,0.22439897060394287,0.1708727478981018,0.3288591802120209,0.13918815553188324,0.5310810208320618,0.02156558632850647,-0.17800065875053406,-0.12856397032737732,0.25588828325271606,-0.03060736507177353,-0.10692539066076279,-0.10222211480140686,-0.08938866853713989,0.12437665462493896,-0.22986911237239838,-0.23244479298591614,0.34217211604118347,0.022633492946624756,-0.14298444986343384,-0.04836442321538925,-0.24356000125408173,0.033126335591077805,-0.15313193202018738,-0.035532161593437195,-0.44481268525123596,-0.03092830441892147,-0.014471190050244331,-0.28048861026763916,-0.06335292011499405,-0.02302934043109417,0.4815424978733063,-0.0152871860191226,-0.19989676773548126,0.004472232423722744,0.2391076385974884,-0.0919262245297432,-0.02791399508714676,0.18566708266735077,-0.08754129707813263,-0.10115557163953781,0.0578434132039547,-0.11403236538171768,0.1628216654062271,-0.13241788744926453,-0.07469175010919571,0.06210796535015106,0.06331673264503479,0.05463381111621857,0.12467247247695923,-0.16835547983646393,-0.21417076885700226,-0.08584313839673996,-0.12013043463230133,0.0620250329375267,-0.2615138292312622,-0.3691355884075165,0.05259939655661583,-0.054344940930604935,-0.14928989112377167,-0.23182812333106995,-0.21385261416435242,0.07575739175081253,-0.12660491466522217,-0.0728875920176506,0.058247920125722885,-0.11034395545721054,-0.15906688570976257,-0.19093181192874908,0.14154192805290222,0.059839893132448196,0.3581554889678955,0.00474800867959857,-0.16552326083183289,-0.2532607913017273,0.06777162849903107,-0.17537806928157806,0.024031123146414757,0.023176778107881546,-0.08053215593099594,0.3084615170955658,-0.3379077911376953,-0.03182882443070412,0.10527678579092026,-0.1849679797887802,-0.3657742440700531,-0.0979359894990921,0.2918492257595062,0.09265580028295517,-0.06801240146160126,-0.008886723779141903,-0.19633090496063232,0.026815583929419518,-0.09676862508058548,0.04660399258136749,0.17066775262355804,-0.08730478584766388,-0.2649330794811249,-0.01364388782531023,0.05292195454239845,-0.14329960942268372,0.15668398141860962,0.13524620234966278,0.31280186772346497,0.18863338232040405,-0.16166125237941742,0.21061785519123077,0.1703455001115799,-0.2577671408653259,-0.13711071014404297,-0.4792870283126831,0.24827930331230164,-0.12617388367652893,-0.06443054974079132,0.03720824792981148,0.012533869594335556,-0.05235616862773895,-0.1616896241903305,-0.15064232051372528,0.1048172190785408,-0.2767350375652313,0.2661862075328827,0.23142610490322113,0.3091144561767578,-0.1316024214029312,-0.17462216317653656,-0.1898273229598999,-0.0728830099105835,0.21619002521038055,-0.06485642492771149,0.43391743302345276,0.24658074975013733,-0.18351486325263977,0.16940899193286896,0.22874923050403595,-0.0737738162279129,0.2385770082473755,-0.038007479161024094,0.1434108018875122,0.04903917387127876,0.09082404524087906,-0.379832923412323,-0.31278523802757263,-0.013573103584349155,0.18754291534423828,-0.14270341396331787,-0.02984476462006569,-0.08316009491682053,0.1282276064157486,-0.2615746557712555,-0.03309183567762375,-0.2190474271774292,-0.22257879376411438,0.025684779509902,-0.0722007304430008,0.22305049002170563,0.009763617999851704,-0.07039622217416763,-0.058879658579826355,0.11727429926395416,0.06126758083701134,-0.09790206700563431,0.1590057760477066,0.03655720874667168,-0.12984326481819153,0.054566480219364166,0.13018298149108887,0.19027790427207947,0.234658882021904,0.13708975911140442,-0.33801788091659546,0.039924170821905136,0.010870225727558136,-0.062388356775045395,0.16078928112983704,0.14835113286972046,0.46271705627441406,-0.20851735770702362,-0.15643052756786346,-0.4866943061351776,0.15770339965820312,-0.01581958495080471,-0.17779725790023804,0.04801800847053528,-0.1874045878648758,0.23325125873088837,-0.3925672173500061,0.11483880877494812,-0.21091842651367188,0.3410112261772156,-0.17488646507263184,-0.03828312084078789,-0.30634379386901855,-0.2241821587085724,-0.08155041188001633,-0.138651505112648,0.042761966586112976,-0.3858194947242737,0.14976580440998077,-0.0374358668923378,0.1380106806755066,-0.21028606593608856,0.07893196493387222],[0.04342963173985481,0.17152535915374756,-0.04655257239937782,-0.006172632332891226,-0.0571681410074234,0.05416218191385269,-0.16016928851604462,0.1836249679327011,-0.13249602913856506,0.0699939951300621,0.0317646786570549,-0.11761714518070221,-0.0027980718296021223,0.21204890310764313,0.1297283172607422,-0.08065659552812576,0.2976897954940796,0.2320161908864975,0.1308051496744156,-0.04334297776222229,0.17354609072208405,-0.023027006536722183,0.09682241827249527,-0.4645962119102478,-0.047047555446624756,-0.005943921394646168,-0.0813881903886795,0.19342899322509766,0.03816009685397148,-0.08499860763549805,0.2647380232810974,-0.014805015176534653,0.2474573403596878,0.3701638877391815,-0.006835724227130413,0.213254913687706,-0.04381668567657471,-0.35177403688430786,0.028754688799381256,0.09658626466989517,-0.08529991656541824,-0.3188277781009674,0.1534547507762909,0.32231763005256653,0.020139802247285843,0.11816495656967163,0.1408538818359375,0.052896685898303986,-0.2685049772262573,0.03712845966219902,-0.108518585562706,0.006547724828124046,-0.02746579237282276,0.22795000672340393,-0.2028276026248932,-0.051401425153017044,0.11273027956485748,-0.0036971289664506912,-0.13723129034042358,-0.10942038148641586,-0.20962461829185486,0.24876978993415833,0.23323248326778412,0.1034054085612297,0.03326721116900444,0.3657257854938507,-0.03809933736920357,0.15241014957427979,0.28976038098335266,0.021260177716612816,-0.02880038693547249,0.09923704713582993,-0.11491071432828903,-0.11381100118160248,0.026205435395240784,0.16677576303482056,-0.07936767488718033,-0.008405092172324657,-0.1462894231081009,-0.042249202728271484,-0.121808722615242,-0.12415460497140884,-0.06858882308006287,0.1071741133928299,-0.0824652910232544,-0.25223684310913086,0.006847409997135401,0.28561994433403015,0.2377370148897171,-0.11418426036834717,0.38234904408454895,0.28467345237731934,0.033574849367141724,0.044424477964639664,0.04181232675909996,-0.16131119430065155,0.33436524868011475,0.13556113839149475,-0.044573478400707245,-0.045873936265707016,-0.11787589639425278,0.047751229256391525,0.2759552299976349,-0.24788504838943481,0.08211396634578705,-0.1854604184627533,0.007180849555879831,0.1372876763343811,0.016890794038772583,-0.29169538617134094,0.3176007568836212,-0.20809362828731537,-0.3851165175437927,0.36880502104759216,-0.10038668662309647,-0.06613166630268097,0.234107106924057,0.11119416356086731,0.1978634148836136,0.07974031567573547,0.21799702942371368,-0.22172310948371887,-0.03956454247236252,0.391570508480072,-0.3050747513771057,-0.15248680114746094,-0.039392028003931046,0.024001363664865494,-0.12169278413057327,0.15925255417823792,-0.10934866964817047,0.03218534216284752,0.29417476058006287,0.046866826713085175,0.1101592481136322,0.06097766384482384,0.3224739134311676,0.1956670582294464,0.1984080821275711,-0.06406829506158829,-0.03176899626851082,-0.00645364448428154,-0.1449885070323944,0.3107879161834717,-0.24996966123580933,0.11135861277580261,0.07450778037309647,-0.030306315049529076,0.09802639484405518,-0.1011011078953743,0.034864384680986404,0.12778230011463165,-0.30509859323501587,-0.059690482914447784,0.05839410051703453,0.10936684161424637,0.1541309356689453,-0.11729385703802109,0.00846884772181511,-0.2971911132335663,0.08045835047960281,-0.04633702337741852,-0.42054033279418945,-0.009241384454071522,0.06832466274499893,0.024637650698423386,0.20996491611003876,0.0486912801861763,0.019173569977283478,-0.2115512490272522,-0.21038784086704254,-0.013144366443157196,0.22555086016654968,0.1358034610748291,0.013896740041673183,0.08030974119901657,0.23389209806919098,0.0690900906920433,0.007456011138856411,0.06835409998893738,0.0274455975741148,0.24537484347820282,0.18783526122570038,0.0818057432770729,0.09887424856424332,0.06395899504423141,0.39705583453178406,0.03478193283081055,-0.16265176236629486,0.03909727931022644,-0.03773961588740349,0.1295437067747116,-0.05185859277844429,0.24658553302288055,-0.2617349922657013,0.38075846433639526,-0.020394567400217056,-0.012090221978724003,0.22699931263923645,-0.15812931954860687,-0.007416191045194864,0.08254691958427429,0.12616518139839172,0.0076317740604281425,0.32995492219924927,0.14269010722637177,-0.38593539595603943,-0.05036730691790581,0.06218178570270538,-0.04640287160873413,0.07334135472774506,-0.114248126745224,-0.09212131053209305,0.05550043284893036,0.07386478781700134,0.183030903339386,0.024560680612921715,-0.06043202057480812,0.01753593422472477,-0.11969976872205734,-0.04958939552307129,0.38185253739356995,-0.030632121488451958,-0.06185697019100189,-0.04195282608270645,0.0799151211977005,0.06630787998437881,-0.09865584224462509,-0.20770879089832306,0.023793816566467285,-0.07259109616279602,0.04155436158180237,0.1747768372297287,0.08686523884534836,0.10903587937355042,0.04741835594177246,0.06840994209051132,0.24006347358226776,-0.05437815934419632,0.10530190914869308,-0.015020356513559818,-0.052131492644548416,0.060157254338264465,-0.008407674729824066,0.03080875799059868,0.15944623947143555,-0.05086599662899971,0.17720720171928406,-0.05388707295060158,0.064109668135643,0.009809461422264576,-0.010312872938811779,0.118604376912117,-0.19794467091560364,0.020085236057639122,0.003922929055988789],[0.10566246509552002,-0.14679200947284698,-0.04813249036669731,-0.2606099545955658,0.2229457050561905,0.05302660912275314,-0.13854552805423737,-0.025091787800192833,0.012843567878007889,-0.008209491148591042,-0.0779104009270668,-0.001247399253770709,0.01146039180457592,0.08386009186506271,-0.1929244101047516,-0.018069090321660042,0.02187841758131981,-0.13640354573726654,-0.20031139254570007,0.1386900693178177,0.04702688008546829,0.03341536223888397,-0.04272005707025528,-0.020711148157715797,-0.08035590499639511,-0.2100386917591095,0.26575422286987305,0.05858880281448364,0.12965704500675201,0.060383766889572144,0.5144063830375671,0.14111101627349854,0.03806234896183014,0.23715759813785553,-0.14400646090507507,0.06939972192049026,0.19448480010032654,-0.06678487360477448,0.08881618827581406,-0.3476027846336365,0.08059079945087433,0.09264566004276276,0.015735410153865814,0.4187142252922058,-0.31554603576660156,-0.04120597615838051,0.22851330041885376,0.25829949975013733,0.3881450593471527,-0.012789237312972546,0.06181535869836807,0.515425980091095,0.10927174240350723,-0.04116760566830635,-0.22196100652217865,0.2932276427745819,0.17048726975917816,0.30353525280952454,-0.042669206857681274,0.35522931814193726,-0.009101170115172863,-0.13327182829380035,0.1925848424434662,0.1456787884235382,-0.4633626937866211,-0.15571287274360657,0.002995386254042387,-0.3361055254936218,0.16986140608787537,-0.08122497797012329,0.03402453660964966,-0.1726185381412506,-0.014157678931951523,0.08806678652763367,0.3212035298347473,-0.10284970700740814,-0.16672639548778534,0.03885022550821304,-0.02839500829577446,0.1633552759885788,0.1468246728181839,-0.11521586030721664,-0.27181491255760193,-0.016853194683790207,0.08760979026556015,0.43391796946525574,0.08136387169361115,-0.3352311849594116,-0.018652886152267456,0.11264601349830627,0.21394266188144684,-0.012215198017656803,0.05810534209012985,0.013949650339782238,-0.18498386442661285,0.20546914637088776,-0.29205411672592163,0.004205465316772461,-0.18787987530231476,0.09300153702497482,0.10256039351224899,-0.009615176357328892,-0.04592538997530937,0.11132558435201645,-0.27148857712745667,0.0028166016563773155,-0.15015703439712524,-0.05166657269001007,-0.04920069873332977,-0.15005889534950256,-0.06440942734479904,-0.2244650423526764,-0.08930996060371399,0.05504806712269783,0.09846948087215424,0.2857514023780823,-0.2277960479259491,-0.0473586730659008,-0.2161322385072708,-0.07079186290502548,-0.10393563657999039,-0.13170941174030304,-0.11101876944303513,-0.0023674936965107918,-0.16656510531902313,-0.12387049943208694,0.1379476636648178,-0.14396680891513824,-0.23343797028064728,0.18544824421405792,-0.18941687047481537,0.10241873562335968,0.11413328349590302,-0.0588114857673645,-0.04361899942159653,-0.1384262591600418,-0.007261077407747507,0.25859275460243225,-0.11518000066280365,-0.22873273491859436,0.06473266333341599,-0.0737571120262146,-0.15214397013187408,0.01959572732448578,-0.042951975017786026,-0.05845915898680687,-0.23685632646083832,0.15292781591415405,0.07544775307178497,-0.04785054922103882,0.04020624980330467,0.09479357302188873,0.012044531293213367,-0.05661339685320854,0.08925165235996246,-0.25825732946395874,0.2566431164741516,0.4858870804309845,-0.08480961620807648,0.1575247049331665,0.11192796379327774,0.07413947582244873,-0.033069971948862076,-0.1395256370306015,-0.04875592142343521,-0.05871658772230148,0.11174990236759186,-0.10331684350967407,-0.09384267777204514,-0.047974154353141785,-0.21942757070064545,-0.32955649495124817,0.1219429299235344,-0.14295890927314758,-0.18935616314411163,-0.0987519919872284,0.13274860382080078,0.07769063115119934,0.07574879378080368,0.11023495346307755,0.0671696737408638,-0.06994104385375977,-0.409401535987854,0.07450355589389801,0.04203331097960472,-0.05501709505915642,0.06785989552736282,0.06077480688691139,0.12667198479175568,-0.0961747020483017,-0.16658547520637512,-0.5186724066734314,0.13406851887702942,0.03920060023665428,-0.042044226080179214,0.10796821117401123,-0.07279381901025772,0.34147903323173523,0.14003199338912964,0.23012353479862213,-0.1924116313457489,0.05602680519223213,0.3640916645526886,0.07965255528688431,0.02182547189295292,-0.01356418989598751,-0.08999893814325333,-0.04757136479020119,-0.21519900858402252,0.04989016056060791,0.04903550073504448,-0.03418540954589844,0.27943137288093567,0.0811978355050087,0.0015687450068071485,0.1577027291059494,-0.13811331987380981,-0.1907636523246765,0.1136244386434555,0.15676940977573395,0.036710016429424286,0.20671041309833527,0.11644890904426575,-0.010889245197176933,0.11708515137434006,-0.36253267526626587,-0.08705626428127289,-0.1445535123348236,0.20733653008937836,-0.02011837624013424,0.10494524240493774,0.166427344083786,0.35680699348449707,-0.09995118528604507,-0.15420827269554138,-0.19435162842273712,-0.13454191386699677,0.36804330348968506,-0.26006844639778137,-0.38170933723449707,0.1297926902770996,-0.09287966042757034,0.2525308132171631,0.07728730887174606,-0.08031226694583893,-0.04339221119880676,0.08532130718231201,-0.23464931547641754,-0.14627455174922943,-0.128330260515213,-0.16883119940757751,0.08269332349300385,0.07853364199399948,-0.06222759187221527,-0.05940002202987671,-0.09316781908273697],[-0.12643606960773468,0.11758558452129364,0.2978556156158447,0.09025058150291443,0.2613149583339691,0.06658300757408142,0.12099746614694595,-0.04609474167227745,0.12827010452747345,0.2333863377571106,-0.11825750023126602,-0.047579117119312286,-0.19869810342788696,-0.1301645189523697,0.164617657661438,-0.3318250775337219,-0.03919412940740585,0.265397846698761,-0.3071819543838501,0.12870536744594574,-0.4003693759441376,0.2238854020833969,0.2163095772266388,0.38670697808265686,0.07221541553735733,0.09471601247787476,0.10557172447443008,0.16287346184253693,-0.2604624927043915,-0.03998517617583275,-0.12746647000312805,0.19293177127838135,-0.027443397790193558,0.12860964238643646,-0.19594193994998932,-0.0588410384953022,0.04719391092658043,0.09857674688100815,0.1625199019908905,0.16099192202091217,-0.14086975157260895,0.04170212522149086,0.11571232974529266,-0.06293567270040512,0.006333124823868275,0.0008687888621352613,0.12951898574829102,0.01373037789016962,-0.21642909944057465,0.030317924916744232,-0.09011010825634003,-0.32306772470474243,-0.21259917318820953,0.2729378342628479,0.24330995976924896,-0.11004304885864258,0.012497876770794392,-0.18108561635017395,0.10887361317873001,-0.1683982014656067,0.1868056207895279,-0.034739237278699875,-0.15026742219924927,-0.14045098423957825,0.17123590409755707,0.05623301491141319,-0.051078569144010544,0.33914443850517273,-0.10473423451185226,0.2255387157201767,-0.0173406470566988,-0.04493308067321777,-0.20595595240592957,-0.14588743448257446,-0.24980227649211884,-0.19609558582305908,-0.07774512469768524,-0.10810799151659012,-0.06561554223299026,0.17019668221473694,0.09950520843267441,-0.012426335364580154,0.12441758066415787,0.0881425142288208,-0.11406752467155457,-0.007044403813779354,0.02427094429731369,0.02439207024872303,0.25446051359176636,-0.12597551941871643,0.38761430978775024,0.2016131579875946,-0.1109120100736618,0.17301645874977112,0.18635867536067963,0.16870509088039398,0.1572718620300293,-0.19896380603313446,-0.15758733451366425,-0.046840157359838486,-0.3703574538230896,0.09316419810056686,-0.09573719650506973,0.14230749011039734,0.135271817445755,0.24445375800132751,-0.12280061841011047,0.3518747389316559,-0.3273627758026123,0.17892269790172577,0.009996508248150349,0.036016859114170074,-0.3277377784252167,0.10991321504116058,-0.008132529444992542,-0.2697300314903259,0.03756469860672951,0.07157021760940552,-0.2215217500925064,0.16278846561908722,-0.13340915739536285,-0.03203379735350609,0.047412462532520294,-0.03899000212550163,0.2703685164451599,0.04126547649502754,-0.15919964015483856,-0.36808839440345764,-0.03916773572564125,-0.07842952013015747,0.21310670673847198,-0.15467770397663116,-0.20643064379692078,-0.014198406599462032,0.010317898355424404,-0.08742641657590866,0.16048306226730347,0.15059342980384827,-0.03223276510834694,-0.01876981370151043,-0.11785966902971268,0.1339653879404068,0.37249627709388733,-0.30548548698425293,0.07420345395803452,-0.061276935040950775,-0.06485392153263092,-0.18214409053325653,0.20069639384746552,0.521571159362793,0.19729891419410706,-0.1635831743478775,-0.13523957133293152,0.09193677455186844,-0.437662273645401,-0.03350147232413292,-0.35043492913246155,-0.4420035183429718,0.0584406778216362,-0.04006611555814743,-0.005215528886765242,-0.20650193095207214,0.5326439142227173,0.1947881281375885,-0.41766130924224854,-0.10860675573348999,-0.10299159586429596,0.08056493103504181,0.026034021750092506,-0.11784574389457703,-0.14092040061950684,0.04408909007906914,-0.265069842338562,-0.21141771972179413,-0.09227102249860764,0.14345432817935944,-0.09593071788549423,0.0037985909730196,-0.22745051980018616,0.11368252336978912,0.3339155614376068,-0.13778629899024963,0.12763650715351105,0.027647895738482475,-0.09159073978662491,0.16702885925769806,-0.20874248445034027,0.04561229795217514,0.014528275467455387,-0.007914192974567413,0.1983024775981903,-0.11869833618402481,0.16497142612934113,-0.32296091318130493,0.011096160858869553,0.12327547371387482,-0.18631458282470703,-0.12036673724651337,0.4219329357147217,-0.11257535964250565,-0.289351224899292,-0.10895320773124695,0.07784367352724075,0.09263311326503754,-0.18756870925426483,0.07143298536539078,-0.03070133365690708,-0.23849020898342133,0.4150811731815338,-0.2591651678085327,-0.0738312304019928,-0.19149154424667358,-0.20339010655879974,0.10259275883436203,-0.11453937739133835,-0.0650721862912178,0.03405245020985603,0.08020409941673279,0.1454312652349472,0.2116246521472931,-0.3096654713153839,-0.2813479006290436,0.24175184965133667,-0.18784964084625244,-0.020598189905285835,0.2406822293996811,-0.24177362024784088,-0.010178047232329845,-0.09437519311904907,-0.03381800279021263,0.1271485686302185,-0.3135055899620056,0.11455333232879639,0.12565764784812927,0.05293737351894379,-0.04136684536933899,-0.07983669638633728,0.21338796615600586,-0.3136599361896515,-0.053048666566610336,0.07091304659843445,-0.049485836178064346,0.11817663908004761,0.04331546276807785,-0.03998108580708504,-0.16200688481330872,-0.06473200768232346,-0.10443152487277985,-0.26465070247650146,0.28520870208740234,0.13378944993019104,-0.11027272790670395,0.09075850248336792,0.13929417729377747,-0.10576941817998886,0.07125482708215714],[0.3788299560546875,-0.014068759977817535,-0.10870122164487839,0.09710922092199326,0.0652489960193634,0.20133498311042786,0.12980800867080688,0.2107982337474823,0.30906155705451965,0.23037438094615936,0.01058887131512165,0.09204287081956863,-0.32241183519363403,0.16256020963191986,0.1018308699131012,-0.023601321503520012,-0.3467942476272583,-0.14569337666034698,0.19987265765666962,-0.2932415306568146,0.3511661887168884,-0.2849501967430115,0.1608625203371048,-0.15448561310768127,-0.2588934302330017,-0.23546655476093292,-0.1632750779390335,0.15370836853981018,0.026746487244963646,-0.1354914903640747,-0.08489572256803513,0.23063924908638,0.037350133061409,-0.2254558950662613,0.04835749790072441,0.20009523630142212,0.08491909503936768,-0.10867565870285034,-0.10114806145429611,-0.1538061797618866,-0.3144034743309021,-0.14812320470809937,-0.041115544736385345,0.11857818812131882,-0.25894197821617126,-0.20635412633419037,0.06492868065834045,-0.12115464359521866,-0.1322864443063736,-0.4072519540786743,0.3153216242790222,-0.035457175225019455,0.19454795122146606,0.11745638400316238,-0.0940127819776535,0.16546811163425446,0.280110239982605,-0.16489985585212708,0.1971820890903473,-0.04970188066363335,-0.2952437698841095,0.18218041956424713,0.2205202728509903,0.13950781524181366,0.05920998379588127,0.035334378480911255,0.09643176943063736,0.1152278259396553,-0.0036802508402615786,0.21097740530967712,-0.12270377576351166,-0.12608757615089417,-0.015034105628728867,0.1445256769657135,0.21352079510688782,-0.19727961719036102,0.0318596251308918,0.11565364897251129,0.24139223992824554,0.08899717777967453,0.18097062408924103,0.0539703294634819,0.00890019815415144,-0.21421489119529724,0.060545701533555984,-0.13299836218357086,-0.2043079137802124,-0.12896685302257538,0.22993919253349304,-0.07381802052259445,-0.04426240921020508,0.34618330001831055,-0.21154528856277466,0.25920483469963074,0.13268746435642242,-0.24356766045093536,0.13492700457572937,0.2925606667995453,0.2701406180858612,-0.25172361731529236,0.2188679426908493,-0.1645391583442688,0.22976653277873993,0.015891889110207558,-0.16541387140750885,0.059838391840457916,-0.06641367077827454,0.010541107505559921,-0.09899235516786575,-0.0256885327398777,-0.16538625955581665,-0.132486030459404,0.11848434805870056,-0.17557567358016968,0.043195877224206924,0.13604769110679626,-0.022621026262640953,0.3164828419685364,0.0031342492438852787,0.10860583186149597,-0.33106374740600586,-0.3437202572822571,0.23928990960121155,-0.06315576285123825,-0.3116125166416168,-0.15096589922904968,-0.08733044564723969,-0.030597757548093796,-0.0035120919346809387,0.06986525654792786,-0.07974600046873093,0.05994895100593567,-0.016722070053219795,-0.05862012878060341,0.016225697472691536,0.34812217950820923,-0.0023237785790115595,0.11163787543773651,0.15485505759716034,-0.2972618043422699,-0.17717666923999786,0.1547577828168869,-0.1655261516571045,-0.20786401629447937,0.1677246391773224,0.27145928144454956,-0.3552701473236084,-0.23533789813518524,0.2142287790775299,0.3522641658782959,-0.09051284193992615,-0.03978929668664932,-0.14148500561714172,0.18045969307422638,-0.1862332671880722,0.11565370112657547,-0.24488970637321472,-0.22081179916858673,0.48157936334609985,-0.43584564328193665,0.24052385985851288,-0.08694672584533691,-0.09742520749568939,-0.1166207492351532,-0.18695642054080963,0.33441293239593506,0.031122379004955292,0.18850985169410706,-0.03931480646133423,0.12409566342830658,0.10363110899925232,0.2896880507469177,0.2666248381137848,0.15836790204048157,0.11945950984954834,0.110422283411026,-0.19351105391979218,0.08353246748447418,-0.14494283497333527,0.0646887868642807,0.02429867535829544,-0.09657412767410278,-0.01303376629948616,-0.3632233738899231,-0.2442934513092041,0.11097173392772675,0.06977557390928268,0.0004143212572671473,-0.16659541428089142,-0.12599869072437286,-0.034905847162008286,0.07928905636072159,0.14121957123279572,0.03186846151947975,-0.16405372321605682,0.05387933552265167,0.23441973328590393,0.18761326372623444,-0.13234861195087433,0.3180840015411377,0.11088720709085464,0.10357946157455444,0.18693450093269348,0.29552534222602844,0.13694851100444794,0.03544795513153076,-0.0077284821309149265,0.29227301478385925,0.11526025831699371,-0.054284147918224335,0.30337920784950256,-0.2392466813325882,0.041364483535289764,0.30682751536369324,-0.010592077858746052,0.09617824107408524,-0.2531730532646179,-0.06455748528242111,0.16299118101596832,0.18343397974967957,-0.04378727078437805,-0.12329646944999695,-0.2340722531080246,0.16837537288665771,0.16231054067611694,-0.18416547775268555,0.07869818061590195,0.0015680610667914152,-0.06335540115833282,-0.2628152072429657,0.019379587844014168,0.20027212798595428,-0.12119247764348984,-0.1315118819475174,-0.02124212495982647,-0.3065783679485321,-0.014724447391927242,0.019685858860611916,0.05869473144412041,-0.07488472759723663,0.09640287607908249,-0.03952794149518013,-0.48803189396858215,-0.06627438217401505,0.20201683044433594,-0.20365716516971588,-0.1685975044965744,-0.05758789926767349,-0.3259193003177643,-0.01979062333703041,-0.04648740589618683,0.008423088118433952,0.028108596801757812,0.23275478184223175,-0.008010396733880043,-0.1818004697561264],[0.17764925956726074,-0.05352863669395447,0.08089271932840347,-0.37839049100875854,0.16741052269935608,0.014681002125144005,0.3826463520526886,0.12506526708602905,-0.2925848364830017,-0.5035022497177124,0.1513333022594452,0.25348612666130066,-0.0679815411567688,-0.3784428536891937,0.1580338329076767,-0.057105354964733124,-0.02980898693203926,0.3719286024570465,-0.18855056166648865,0.048461783677339554,-0.17431612312793732,0.06039917841553688,0.012018756940960884,-0.07165306806564331,-0.2229258418083191,-0.19815996289253235,-0.2900382876396179,0.12847542762756348,0.11691804975271225,-0.15005581080913544,-0.05447157472372055,0.08777959644794464,0.47656282782554626,-0.03558402508497238,0.0831899642944336,0.0036484766751527786,-0.003026567865163088,0.2404354214668274,0.05423760414123535,0.3522215783596039,0.25302907824516296,-0.03669419512152672,-0.25281330943107605,-0.004766388796269894,-0.09278060495853424,-0.09430049359798431,-0.39185547828674316,-0.3586851954460144,-0.07945453375577927,0.27136197686195374,0.007416102569550276,0.1179945170879364,0.019534647464752197,0.1465160846710205,0.3262915015220642,-0.08919215202331543,0.06511321663856506,-0.36947569251060486,-0.02100474201142788,-0.0807688757777214,0.1881571263074875,0.028324324637651443,0.09444904327392578,0.05246972292661667,-0.006137798074632883,-0.11325456202030182,0.27593496441841125,-0.1455308049917221,-0.20795972645282745,0.2174816131591797,0.045767102390527725,0.006144804880023003,0.15958602726459503,-0.15656223893165588,-0.048069797456264496,0.056964077055454254,0.0630585253238678,-0.1996680349111557,0.07141900062561035,-0.00759521359577775,0.3817880153656006,-0.2822672724723816,-0.2306823432445526,-0.08227016031742096,0.04511762037873268,0.027640650048851967,-0.16373427212238312,0.24264411628246307,-0.17643903195858002,0.2546370029449463,-0.13893678784370422,0.1330815702676773,-0.11569661647081375,-0.06438096612691879,0.08025123924016953,0.024717630818486214,-0.38840988278388977,-0.06669411808252335,-0.0876258835196495,0.10727069526910782,0.1218646988272667,-0.020176539197564125,-0.05996819585561752,-0.07346193492412567,0.25550881028175354,0.08071471750736237,0.09919749200344086,-0.1872650682926178,0.05010394752025604,0.04322638362646103,0.28838905692100525,0.12078653275966644,0.15490759909152985,0.03978101536631584,0.004337203688919544,-0.3212088346481323,-0.01714290678501129,-0.0731486901640892,-0.20962588489055634,-0.08617700636386871,0.03674519807100296,0.08906634896993637,-0.0201658234000206,0.15333664417266846,-0.18407106399536133,-0.29569536447525024,-0.07084165513515472,-0.028860731050372124,0.18380829691886902,0.04069957882165909,-0.24417422711849213,-0.15526863932609558,-0.12472887337207794,-0.06174171715974808,-0.06681519746780396,-0.13186223804950714,-0.21366019546985626,-0.027335572987794876,-0.020569229498505592,-0.05952543020248413,-0.04680892825126648,-0.014060791581869125,0.012342930771410465,-0.11704019457101822,-0.028263716027140617,-0.024770116433501244,-0.02846369706094265,-0.2395753264427185,0.02000395953655243,0.004329718183726072,0.24402594566345215,0.159019336104393,0.22779905796051025,0.10228404402732849,-0.32093480229377747,-0.10551609098911285,0.2587481737136841,0.0653865858912468,0.3240443468093872,0.1453446000814438,0.014366588555276394,0.09345123916864395,-0.20216166973114014,-0.17209717631340027,-0.3002987802028656,0.00009100794704863802,-0.17828761041164398,-0.021706920117139816,0.4428960084915161,-0.26067185401916504,-0.1071709394454956,0.24164153635501862,0.07881578803062439,-0.2192552089691162,-0.03480925038456917,0.15386760234832764,0.03688452020287514,0.06872500479221344,0.038557205349206924,-0.19003863632678986,-0.19112849235534668,-0.048678770661354065,-0.12130740284919739,-0.10000023245811462,-0.23576320707798004,0.04008050262928009,-0.016969135031104088,0.021002180874347687,0.11134900897741318,0.21531888842582703,-0.027833525091409683,0.14164091646671295,0.004052403382956982,-0.14095439016819,-0.006519487593322992,-0.018862156197428703,0.10114900022745132,0.025577381253242493,0.058910731226205826,-0.09659786522388458,-0.16368940472602844,0.02736934833228588,0.19438400864601135,-0.033751823008060455,0.05712389200925827,0.000924202031455934,0.1499229371547699,0.16844113171100616,-0.03171796351671219,0.23085661232471466,0.19486817717552185,-0.07322774827480316,-0.18097715079784393,0.15817223489284515,0.24967578053474426,-0.11039988696575165,0.40358859300613403,0.13030272722244263,0.46138110756874084,-0.03238232061266899,-0.07028607279062271,-0.10230138152837753,-0.04638666287064552,0.14901278913021088,0.14996103942394257,0.22054032981395721,0.0572405606508255,-0.2303752452135086,-0.027542108669877052,-0.22842895984649658,0.022827040404081345,0.11232101172208786,0.1525755673646927,0.11771747469902039,0.018869884312152863,-0.11712411791086197,0.0005859984084963799,0.10057400912046432,-0.07977660745382309,-0.252543181180954,0.25653076171875,-0.07890953868627548,-0.20542961359024048,0.028904655948281288,0.08705928176641464,0.21201011538505554,0.10885484516620636,-0.1495814174413681,0.15936987102031708,0.061084579676389694,0.2561913728713989,-0.17635636031627655,-0.2457577884197235,-0.12054364383220673,-0.19318193197250366,-0.04144242778420448],[0.06462167203426361,-0.017190800979733467,-0.1481194794178009,-0.23864898085594177,0.01191022153943777,0.035139165818691254,0.2200821340084076,-0.22766797244548798,0.07225146144628525,0.18771015107631683,0.08620554208755493,-0.022271007299423218,-0.09935528039932251,0.30334901809692383,-0.211075559258461,-0.2841011881828308,0.2520826458930969,0.12840095162391663,0.11099845170974731,0.020682398229837418,-0.20850834250450134,0.31754782795906067,-0.10201410949230194,0.1471702754497528,-0.02862357534468174,-0.19478972256183624,0.1085345521569252,0.04788324609398842,-0.1576519012451172,-0.04579171910881996,0.217743918299675,0.21653732657432556,-0.06954815238714218,-0.013739627785980701,-0.12254639714956284,-0.28973862528800964,0.24951283633708954,-0.4507845938205719,-0.3363944888114929,-0.21355880796909332,0.416471928358078,-0.03541538119316101,0.01893971487879753,-0.14582736790180206,0.01332545280456543,-0.09130235016345978,-0.01724149100482464,0.2333376109600067,-0.02684064581990242,-0.19789619743824005,0.3054259121417999,-0.007670857477933168,-0.26079338788986206,0.19753775000572205,-0.18163993954658508,-0.06909028440713882,-0.06231489032506943,0.12094978988170624,-0.19486840069293976,0.03468501940369606,0.28006821870803833,-0.15867994725704193,-0.08457683026790619,-0.23794692754745483,-0.08590301126241684,0.024530353024601936,0.013521024957299232,-0.35976168513298035,0.3103477358818054,0.18185825645923615,-0.17056703567504883,0.18512436747550964,-0.1397862732410431,0.08769036084413528,-0.07258246093988419,-0.16909901797771454,0.18068411946296692,-0.6016830205917358,0.27536770701408386,-0.044017791748046875,0.1251409947872162,-0.004418390803039074,0.0832998976111412,-0.08599135279655457,-0.1459110975265503,-0.03573593497276306,0.29403120279312134,-0.012842206284403801,-0.01192521583288908,-0.08076144009828568,-0.09730276465415955,-0.033788081258535385,-0.19428154826164246,0.050299886614084244,-0.19421212375164032,0.22975192964076996,-0.09013188630342484,-0.2543793320655823,-0.1478956639766693,0.012059316970407963,-0.14033818244934082,-0.05451108515262604,0.14200152456760406,0.05974612385034561,0.1042141392827034,-0.20346838235855103,0.44374021887779236,0.16898338496685028,0.14545033872127533,0.10797549039125443,0.025680193677544594,0.035156719386577606,-0.12453373521566391,0.5614709854125977,-0.05988660827279091,0.10066239535808563,-0.22603537142276764,-0.025900807231664658,0.2558918297290802,0.057789772748947144,0.2557002305984497,0.16724427044391632,0.1161704733967781,-0.05435978248715401,-0.3733189105987549,-0.1984785944223404,-0.07010393589735031,-0.19749893248081207,0.07619000971317291,-0.14844568073749542,0.10624288767576218,-0.20297612249851227,0.0829421728849411,-0.013266418129205704,0.33585336804389954,0.05953982472419739,-0.05834997817873955,0.1953650563955307,-0.2563474178314209,-0.013509498909115791,-0.05788194015622139,-0.15403062105178833,0.06559727340936661,0.11986260116100311,0.10841580480337143,-0.13637545704841614,0.16965046525001526,0.2759036421775818,0.1775697022676468,-0.011873462237417698,-0.11511177569627762,0.15798595547676086,-0.12125077843666077,0.1709361970424652,0.07380075752735138,0.03059127740561962,-0.26632797718048096,-0.07200954109430313,-0.07287775725126266,-0.0438755564391613,0.10026056319475174,-0.028049929067492485,-0.09719401597976685,0.21720127761363983,-0.21182072162628174,-0.1246584802865982,0.13946542143821716,-0.14997266232967377,-0.08915092051029205,-0.024067305028438568,-0.09706134349107742,-0.050387363880872726,-0.030438845977187157,0.5535491704940796,0.2596730589866638,0.4294273555278778,-0.04553321376442909,-0.06093030795454979,-0.06300228834152222,-0.2157611846923828,0.0314423106610775,-0.43506133556365967,0.04602881520986557,-0.11139203608036041,-0.02872416377067566,-0.025924136862158775,-0.030146144330501556,0.166263610124588,-0.22429728507995605,0.09944562613964081,0.22206556797027588,-0.09819959849119186,-0.04574395343661308,0.12492971867322922,-0.025474751368165016,0.024947598576545715,0.20039163529872894,-0.21689854562282562,0.04230596125125885,0.11419033259153366,-0.13645482063293457,-0.16543862223625183,0.22679415345191956,0.1411888152360916,-0.11483068764209747,-0.13548877835273743,-0.13978582620620728,0.018784230574965477,0.007690331898629665,-0.055574916303157806,0.02009529620409012,0.12961743772029877,-0.01477174274623394,0.020322687923908234,0.008652996271848679,-0.10850738734006882,0.11036473512649536,0.29019397497177124,0.0171139407902956,-0.008658256381750107,0.050018515437841415,-0.15290328860282898,0.1305718570947647,-0.04507540911436081,-0.20730403065681458,0.08504962176084518,-0.179906964302063,-0.45624813437461853,0.11482153087854385,-0.0787496343255043,-0.27679455280303955,-0.09894055873155594,0.5196745991706848,-0.03518848866224289,0.016937896609306335,-0.3197155296802521,0.20482856035232544,0.19012105464935303,0.013790040276944637,-0.06147858873009682,-0.14832815527915955,0.13340499997138977,-0.04462941363453865,0.12479709088802338,0.13406215608119965,0.2577459216117859,-0.36409878730773926,-0.001842986443080008,-0.28105872869491577,0.17436590790748596,0.020048629492521286,-0.2021743208169937,-0.26499003171920776,0.1307210773229599,0.23105160892009735,-0.028062904253602028],[0.15519048273563385,-0.08954562246799469,0.07529571652412415,0.09552488476037979,0.17864292860031128,-0.2840368151664734,-0.14573335647583008,0.017072053626179695,0.16779302060604095,-0.08641713112592697,-0.28840500116348267,0.15437975525856018,0.17830173671245575,0.05164353922009468,-0.08711773157119751,0.12211105227470398,0.17930246889591217,0.03068479336798191,0.24879702925682068,0.19243669509887695,0.11456191539764404,-0.053248897194862366,0.1673194319009781,-0.04126815125346184,-0.11281059682369232,0.006684478837996721,-0.045907143503427505,0.1661844551563263,-0.11920910328626633,0.11836455762386322,0.17369452118873596,-0.11140057444572449,0.008641453459858894,-0.07211832702159882,0.06809309870004654,0.1408988982439041,-0.050817735493183136,-0.016886970028281212,0.07028768956661224,0.1844462752342224,0.33196523785591125,-0.354184627532959,-0.3729011118412018,0.4052715301513672,-0.03098791092634201,-0.018348505720496178,-0.07456008344888687,-0.15699045360088348,-0.00753579568117857,0.0431763119995594,0.2242213636636734,-0.03748645633459091,-0.17492441833019257,0.017078744247555733,-0.2418726533651352,0.03511641547083855,0.010858590714633465,0.18448558449745178,-0.19004878401756287,0.22926221787929535,0.04763108864426613,-0.06763144582509995,-0.05671798065304756,-0.1622871458530426,-0.18068547546863556,0.061413682997226715,0.158059224486351,0.12154994159936905,0.015569780953228474,-0.007486232556402683,-0.023129139095544815,-0.1378459930419922,-0.17621132731437683,0.05751700699329376,-0.04372112825512886,-0.08925743401050568,-0.16035059094429016,-0.4024060070514679,0.025514449924230576,0.06860773265361786,0.08522708714008331,-0.04668860882520676,0.033872682601213455,-0.08251170814037323,0.12429475039243698,-0.15745186805725098,0.12323533743619919,0.21603479981422424,-0.016983095556497574,0.26769590377807617,-0.016120119020342827,-0.13375350832939148,-0.0015475050313398242,-0.1464454084634781,-0.06917412579059601,-0.26940396428108215,0.015380043536424637,0.04562943056225777,0.1511131227016449,-0.013099257834255695,-0.1883632391691208,0.0840337797999382,0.017855051904916763,0.1280112862586975,0.24664613604545593,0.13243937492370605,-0.04349163919687271,0.2840883135795593,-0.028050852939486504,-0.16947174072265625,0.39094188809394836,-0.2560219466686249,0.17205917835235596,-0.03699502721428871,-0.11245989799499512,0.020828362554311752,-0.042225196957588196,0.17289724946022034,-0.07445665448904037,-0.20656700432300568,0.03101738728582859,0.24620553851127625,0.042168889194726944,0.04953852668404579,-0.12883593142032623,-0.23171304166316986,-0.1459975242614746,-0.17720216512680054,0.24112989008426666,-0.040616028010845184,-0.027643803507089615,0.10218747705221176,0.15251946449279785,0.02820846624672413,-0.3422650396823883,-0.02141599729657173,0.10988329350948334,-0.3362483084201813,-0.20512108504772186,-0.21342207491397858,-0.4733528792858124,-0.22761255502700806,-0.2201205939054489,-0.1292223036289215,0.18575243651866913,0.12386981397867203,0.27156907320022583,-0.20341427624225616,0.17103730142116547,-0.3488752245903015,0.293738454580307,0.013686266727745533,0.22684504091739655,-0.1768825203180313,-0.126912459731102,-0.043950363993644714,-0.3146084249019623,0.015703720971941948,-0.04978230223059654,-0.1751321256160736,0.024817273020744324,0.0035758218728005886,0.12688903510570526,0.003161465283483267,0.1999845951795578,0.12109837681055069,-0.10040870308876038,-0.12252907454967499,-0.1504187434911728,-0.36021608114242554,-0.09905001521110535,-0.08603373169898987,0.054011255502700806,-0.18774515390396118,-0.07396361231803894,-0.01990782469511032,0.05311877280473709,0.12282026559114456,-0.063294917345047,-0.1628159135580063,0.21711497008800507,-0.2143004983663559,-0.07954664528369904,0.053209953010082245,-0.12353583425283432,0.14860987663269043,0.09285719692707062,-0.04380461946129799,0.1903514564037323,0.015779944136738777,0.3023085594177246,0.23125125467777252,-0.1229892149567604,-0.21640171110630035,0.014430481009185314,0.17485077679157257,-0.12514038383960724,-0.15394310653209686,-0.0725398063659668,-0.13509294390678406,-0.05515649914741516,0.17833058536052704,-0.1172124594449997,-0.22269658744335175,-0.08876701444387436,-0.04109850525856018,0.05313319340348244,0.07516095787286758,-0.06225353479385376,-0.017473779618740082,-0.07605011761188507,0.010147199966013432,-0.01613832637667656,-0.1464456021785736,0.07532040774822235,-0.1927107274532318,-0.0848839059472084,0.21008482575416565,0.08085130155086517,0.04379943013191223,-0.21492083370685577,-0.12317744642496109,0.3201250433921814,0.15844964981079102,0.20183874666690826,-0.3371596038341522,-0.03674940764904022,-0.0657430961728096,-0.011601930484175682,0.1310887485742569,0.05970551073551178,-0.11022230237722397,0.007216594181954861,0.18207339942455292,0.0057106963358819485,0.26686885952949524,-0.17534774541854858,0.02035161480307579,-0.12802104651927948,-0.010600592009723186,0.14073045551776886,0.22430099546909332,-0.016133302822709084,0.11416945606470108,-0.2287207692861557,-0.14300848543643951,-0.19272492825984955,-0.05421137809753418,-0.07161945104598999,0.06555905193090439,0.18521839380264282,-0.10411330312490463,-0.06692058593034744,-0.08307711035013199,-0.005844837985932827,0.13523542881011963],[-0.1719411164522171,0.11123600602149963,0.2224009931087494,-0.02912498638033867,-0.24308769404888153,-0.04640224203467369,0.2832883894443512,-0.27030929923057556,-0.13836270570755005,0.05653839558362961,-0.39710524678230286,-0.07773043215274811,0.010564127936959267,0.3155061602592468,-0.21855641901493073,-0.15160894393920898,0.003953869454562664,-0.07255050539970398,-0.08711441606283188,0.22946850955486298,0.14138415455818176,-0.2553183138370514,-0.07181743532419205,-0.09292194247245789,0.06360357254743576,-0.07740361988544464,0.04773715138435364,0.1376737356185913,0.10167920589447021,0.11353523284196854,-0.10401126742362976,0.15226031839847565,0.37793657183647156,0.03808728978037834,0.02282233163714409,0.07428126037120819,0.09164783358573914,0.08131881803274155,-0.14475667476654053,0.132114976644516,-0.07801707834005356,0.20894065499305725,0.285261869430542,-0.2554548382759094,-0.014228785410523415,0.12278109788894653,-0.1473502367734909,0.05795704200863838,-0.2473333775997162,0.21732766926288605,-0.03086157888174057,0.1647985577583313,0.11052045971155167,0.11933441460132599,-0.16264042258262634,-0.07175246626138687,0.003882857970893383,-0.09519084542989731,0.3448481857776642,0.11558187007904053,-0.00038429643609561026,-0.4029292166233063,0.220656156539917,-0.229034885764122,-0.17393085360527039,0.022944748401641846,-0.05809382349252701,-0.13275866210460663,-0.13049615919589996,-0.14192427694797516,-0.0012170157860964537,-0.3481047749519348,0.1218363493680954,0.05162828788161278,-0.3472144305706024,0.2054721862077713,-0.04019347205758095,-0.2799667716026306,-0.19224515557289124,0.0849400982260704,0.1105000227689743,-0.05089248716831207,0.06775827705860138,0.2139372080564499,0.009577624499797821,-0.046878937631845474,0.3062591552734375,0.17510533332824707,0.10476596653461456,0.046208396553993225,-0.10703005641698837,0.06111210584640503,0.2659740447998047,-0.4120592474937439,-0.06289698928594589,0.05064183846116066,-0.16849912703037262,-0.16265060007572174,-0.0022985818795859814,0.16504253447055817,0.11053956300020218,0.07221069186925888,-0.1801006942987442,0.11976296454668045,0.42793452739715576,-0.20122258365154266,-0.12592393159866333,0.027417562901973724,-0.1806783378124237,-0.329704225063324,-0.062272798269987106,0.259929358959198,0.13839294016361237,-0.2137179970741272,-0.056039564311504364,0.04663780331611633,-0.05365611985325813,-0.41045060753822327,-0.23187853395938873,0.114520363509655,-0.12344644218683243,0.4272475838661194,0.0873093456029892,0.1995926946401596,0.16270333528518677,-0.06376301497220993,-0.2951628863811493,-0.1615290343761444,0.02554524876177311,-0.023605264723300934,0.14151066541671753,-0.19744007289409637,0.20446480810642242,-0.00937697198241949,-0.046235814690589905,-0.030177582055330276,-0.0515037439763546,-0.13631418347358704,-0.0501115657389164,0.29156458377838135,-0.15773354470729828,0.059775613248348236,0.14343251287937164,0.2862408757209778,0.20648472011089325,-0.03979510813951492,-0.01871437020599842,-0.5014366507530212,-0.04874105751514435,0.29320085048675537,-0.3185884952545166,0.21634484827518463,-0.12347172200679779,-0.37019333243370056,0.25375086069107056,0.14115823805332184,0.05728480964899063,-0.11780460923910141,-0.14200587570667267,0.07838654518127441,0.2979367971420288,0.018875811249017715,-0.2728794515132904,-0.14086969196796417,-0.15451547503471375,-0.10550723969936371,-0.2414500117301941,-0.14023058116436005,0.23615407943725586,0.19072693586349487,0.2592412233352661,-0.028180750086903572,0.022678937762975693,-0.24522365629673004,-0.17489250004291534,-0.43135857582092285,0.01484808512032032,0.24371206760406494,0.327935129404068,-0.03964579477906227,-0.13289356231689453,0.16500481963157654,-0.1215365082025528,-0.13645106554031372,-0.058888714760541916,0.023404117673635483,-0.07624736428260803,-0.2723904550075531,0.05890531837940216,0.10834198445081711,-0.1499159038066864,-0.3476009964942932,-0.024673983454704285,-0.19053058326244354,-0.0026671430096030235,-0.41850757598876953,0.00626657297834754,-0.036186762154102325,0.07518459856510162,0.3925117254257202,0.07359495013952255,0.006264297291636467,-0.04003968834877014,-0.05870897322893143,0.04086356237530708,-0.18036526441574097,0.1480465829372406,0.04923837631940842,0.004200126510113478,-0.05761522427201271,0.22439752519130707,-0.0856473371386528,-0.01199431624263525,-0.007183175999671221,-0.07778163999319077,-0.06651010364294052,-0.09926136583089828,-0.18538802862167358,-0.1784037947654724,-0.24394108355045319,-0.2475157529115677,0.520904541015625,-0.11722253262996674,-0.12637042999267578,-0.011762288399040699,0.010875154286623001,0.1770612746477127,-0.0779026672244072,-0.09123601764440536,-0.14676466584205627,-0.2654929459095001,-0.3675650656223297,-0.16533935070037842,-0.02902720309793949,-0.22799260914325714,0.012414149008691311,0.0820145383477211,0.3612084686756134,0.25192177295684814,-0.06514748930931091,0.28146836161613464,0.05309177190065384,-0.10341373831033707,0.1312076300382614,-0.019404515624046326,-0.033177778124809265,-0.1244358941912651,-0.02241550385951996,-0.1768389195203781,-0.20622465014457703,0.08248168230056763,-0.25894108414649963,0.28030282258987427,0.1489015519618988,0.1455356329679489,-0.08081841468811035],[-0.14973382651805878,-0.07710836082696915,-0.1913558840751648,0.03794515132904053,-0.027843894436955452,-0.08348669111728668,0.21162629127502441,0.15259046852588654,0.028007633984088898,-0.15830695629119873,0.12861864268779755,-0.11590012162923813,0.28686755895614624,-0.14199918508529663,-0.04074689745903015,0.012284216471016407,-0.11721774190664291,-0.16267293691635132,0.11611901968717575,-0.02858150750398636,-0.015413695946335793,0.013437528163194656,-0.26131686568260193,0.09124081581830978,0.03187107667326927,0.09390506148338318,0.15465007722377777,0.1456630825996399,0.4078570306301117,0.08120794594287872,-0.008809560909867287,-0.019429804757237434,-0.18112310767173767,0.16334566473960876,-0.27261248230934143,0.0515008345246315,-0.15543784201145172,0.04564177989959717,0.19828066229820251,0.10279561579227448,0.16872987151145935,0.09322353452444077,0.20727670192718506,0.2145615518093109,-0.0838015154004097,-0.0800521969795227,0.33868491649627686,-0.30137449502944946,0.5020985007286072,0.03318439796566963,0.14885146915912628,0.01764831505715847,-0.04638489708304405,-0.0737784132361412,-0.16205932199954987,0.14483505487442017,-0.068762868642807,-0.3088359534740448,0.2524867653846741,0.24391455948352814,-0.025319790467619896,-0.1797546148300171,0.16524764895439148,0.15624792873859406,0.08315206319093704,-0.2155241221189499,-0.08043752610683441,-0.17549356818199158,0.1259724646806717,-0.18220773339271545,-0.34920892119407654,0.0739409476518631,-0.22238238155841827,-0.1045132577419281,-0.06888234615325928,-0.30135542154312134,0.21717023849487305,-0.025947269052267075,0.012777878902852535,-0.08329455554485321,-0.08833274245262146,-0.0005122331203892827,0.12116537988185883,-0.04527447745203972,0.07204911857843399,-0.27316728234291077,0.215339794754982,-0.12977299094200134,-0.16128069162368774,-0.03955833241343498,0.18530432879924774,-0.027141975238919258,0.04126066341996193,0.04559735208749771,-0.21297739446163177,-0.012096956372261047,0.20416122674942017,-0.22010080516338348,-0.06979566067457199,0.021425943821668625,0.07590573281049728,0.49826040863990784,0.05799442157149315,-0.26162707805633545,0.07506043463945389,-0.056501686573028564,0.006338451988995075,0.04942721500992775,-0.18194052577018738,-0.002933365060016513,-0.11257157474756241,0.29574304819107056,0.1297915279865265,-0.3264026939868927,-0.0159903634339571,0.0175811555236578,-0.037156928330659866,0.21027810871601105,-0.07367946952581406,-0.08923163264989853,-0.256038635969162,-0.1847827136516571,0.02653571031987667,0.4139251112937927,0.1318967342376709,-0.06752230226993561,-0.20102459192276,0.06788041442632675,0.10818455368280411,-0.00865442305803299,-0.09455753117799759,-0.08974738419055939,0.018474066630005836,-0.07414418458938599,0.08601424098014832,0.3477484881877899,-0.021407118067145348,0.2939847409725189,0.2575451731681824,0.038794320076704025,-0.03810302913188934,0.3601607084274292,0.04900846630334854,-0.045783694833517075,-0.18067890405654907,-0.159739151597023,-0.15894417464733124,0.2757365107536316,-0.4725269079208374,-0.07679034024477005,-0.12413634359836578,-0.20821362733840942,0.15009868144989014,0.200896218419075,0.028908057138323784,-0.05256625637412071,0.1691357046365738,0.23056410253047943,0.14524038136005402,-0.3723750710487366,0.3449324667453766,0.25413140654563904,-0.08052569627761841,-0.2319260686635971,-0.06023101136088371,-0.22564345598220825,0.04435959458351135,0.053564950823783875,-0.20935268700122833,-0.27764880657196045,-0.2908778488636017,0.43140944838523865,0.010565448552370071,0.16709095239639282,-0.24908894300460815,-0.19156499207019806,-0.07954844832420349,-0.028261618688702583,0.2389388233423233,-0.005013535264879465,0.1442122608423233,-0.20075517892837524,0.0038147238083183765,0.04853995144367218,0.11314850300550461,0.1639108806848526,-0.16884590685367584,0.04298409819602966,0.16648735105991364,-0.05664219334721565,0.07075542211532593,0.0013834495330229402,-0.11580323427915573,0.01632116176187992,-0.13122716546058655,0.05154421553015709,0.1230921745300293,-0.1742384135723114,0.0033934134989976883,-0.17539530992507935,0.2518872916698456,0.05334974825382233,0.21577000617980957,0.17690254747867584,-0.052572060376405716,-0.29537859559059143,-0.16210933029651642,0.6198222041130066,-0.17967413365840912,0.07724526524543762,0.062206532806158066,-0.10907819867134094,0.021952755749225616,-0.1151760071516037,0.2839308977127075,-0.2796406149864197,0.1376630961894989,-0.15054257214069366,-0.021921109408140182,-0.29893484711647034,0.057256683707237244,-0.05296305567026138,-0.04570861533284187,-0.23439961671829224,-0.13507331907749176,-0.015790989622473717,-0.09943832457065582,-0.012152861803770065,-0.07833802700042725,0.14118853211402893,0.02293926477432251,-0.20938804745674133,-0.2978717088699341,-0.06470808386802673,0.015204064548015594,-0.06958720833063126,-0.18046075105667114,-0.0426621250808239,0.28823643922805786,-0.37450769543647766,0.3917970657348633,-0.07846951484680176,-0.018718557432293892,-0.007891444489359856,-0.11816348880529404,0.023817600682377815,0.03760441392660141,0.07266482710838318,-0.2256239801645279,0.062354475259780884,-0.30675601959228516,0.3483310341835022,0.04205544665455818,0.24170361459255219,-0.022057970985770226,0.1365068405866623],[0.004726781509816647,0.1839093118906021,0.05103374645113945,-0.02588762156665325,0.06179541349411011,0.039868034422397614,-0.33491554856300354,-0.18740321695804596,0.02206442318856716,-0.023680008947849274,-0.32489341497421265,-0.048183735460042953,0.0007855642470531166,-0.19703195989131927,-0.02846240997314453,0.2652583718299866,0.17595915496349335,0.17030659317970276,-0.1918768286705017,-0.16008307039737701,0.07668638974428177,-0.15280570089817047,0.06824367493391037,-0.0019420207245275378,-0.047362070530653,-0.1463804990053177,-0.06604374200105667,0.15648727118968964,0.03503596782684326,-0.06254266947507858,-0.10988125950098038,0.11646128445863724,0.04231758043169975,0.144829660654068,-0.03098934143781662,0.1035032719373703,0.22130253911018372,-0.06155918911099434,0.09596822410821915,0.07338803261518478,0.042290009558200836,0.1927063912153244,-0.09044667333364487,0.09247203916311264,-0.17490990459918976,0.034410152584314346,-0.16879582405090332,-0.10478399693965912,0.1102864146232605,0.1458824872970581,-0.1487860083580017,0.31309089064598083,0.16843631863594055,0.07492595165967941,0.1594589799642563,-0.12770432233810425,0.2255593240261078,-0.02095533348619938,0.05839451029896736,-0.026360798627138138,-0.19910672307014465,-0.13709469139575958,0.10871908068656921,-0.055596139281988144,-0.14595021307468414,0.4495488703250885,-0.010561544448137283,-0.07554459571838379,0.18898533284664154,-0.05395038425922394,-0.08555073291063309,0.3065609633922577,0.09155398607254028,-0.05103040114045143,0.03619853034615517,-0.20561328530311584,0.08580359816551208,0.07767676562070847,0.004979949910193682,-0.10177570581436157,0.017364846542477608,0.04124431312084198,0.059349462389945984,0.0948735773563385,-0.03819644823670387,-0.13014940917491913,-0.25880923867225647,-0.09992580115795135,0.02946126088500023,-0.022004665806889534,-0.4127197265625,0.1695152372121811,0.10630825161933899,0.2105529010295868,0.2928255796432495,-0.09612113237380981,-0.3374924063682556,-0.18286173045635223,-0.1920570731163025,0.10284309089183807,0.15621662139892578,-0.05994041636586189,-0.18139737844467163,0.2085982859134674,-0.17955131828784943,0.30524155497550964,-0.2338697612285614,-0.17144224047660828,0.008857637643814087,-0.03742019832134247,-0.029509184882044792,0.05338441580533981,0.28141358494758606,-0.1776614785194397,0.27336812019348145,-0.0982094332575798,0.1444636583328247,-0.19819512963294983,0.10263691842556,0.350263386964798,-0.03980023413896561,0.17890776693820953,-0.20455682277679443,-0.03333812579512596,-0.36643412709236145,0.02871054783463478,0.16295620799064636,-0.22477537393569946,0.028348229825496674,-0.22905875742435455,-0.07134993374347687,0.02261841855943203,-0.1505431830883026,-0.1578940451145172,-0.12689203023910522,0.22306862473487854,-0.474779337644577,-0.0989261046051979,0.031877800822257996,-0.11312845349311829,-0.3135327398777008,0.12642395496368408,-0.20013867318630219,-0.17174865305423737,-0.058190446346998215,-0.05086636170744896,0.18014831840991974,-0.23580384254455566,0.019066553562879562,-0.14441430568695068,-0.18059256672859192,-0.29922977089881897,0.31716540455818176,-0.001682686386629939,-0.12204290926456451,0.1860801726579666,0.3070428967475891,0.04194650426506996,0.17913135886192322,0.34071993827819824,-0.18571463227272034,-0.07465101778507233,-0.03260675445199013,-0.05409644916653633,0.23658140003681183,0.13440774381160736,0.004388461355119944,0.17602786421775818,-0.10784149914979935,0.00451621925458312,0.01674363575875759,0.1426648199558258,-0.15306982398033142,-0.11198943108320236,0.08016911149024963,0.013238263316452503,0.02100175805389881,-0.20382197201251984,-0.04703398048877716,0.10703925043344498,-0.013402514159679413,0.20520184934139252,-0.11807060241699219,0.1847585290670395,-0.05150878429412842,-0.16294534504413605,0.018250539898872375,0.04738328233361244,-0.008822496049106121,0.054735008627176285,-0.17215731739997864,0.21526215970516205,-0.18754278123378754,-0.30447348952293396,0.2670305669307709,0.4315241575241089,-0.10274314135313034,-0.04070191830396652,-0.2691514492034912,0.1563207060098648,0.35251209139823914,0.06793702393770218,-0.10442524403333664,-0.11175147444009781,0.17006456851959229,0.3650069236755371,0.2552356421947479,-0.1963038295507431,0.16686859726905823,0.015051010996103287,0.2187529355287552,0.22362902760505676,-0.2610892355442047,-0.17896240949630737,-0.039022065699100494,-0.34413009881973267,0.03725274279713631,-0.08657921850681305,0.057852908968925476,0.0933871641755104,-0.011484934017062187,-0.25434932112693787,-0.004031744319945574,0.2709459662437439,-0.12157022207975388,0.26430544257164,0.1361040472984314,0.04862909018993378,0.47820621728897095,0.17501673102378845,0.004572168458253145,0.015460182912647724,-0.0375823900103569,-0.1097622960805893,0.15866662561893463,0.1329667866230011,-0.19253341853618622,-0.43404483795166016,-0.03375626727938652,-0.14887140691280365,-0.053970128297805786,-0.07160547375679016,-0.2309165745973587,0.09666711091995239,0.07204321771860123,-0.017269985750317574,0.017935387790203094,0.07234260439872742,0.003951773513108492,0.27755898237228394,0.14662468433380127,-0.14920975267887115,-0.1064225509762764,-0.14055751264095306,0.1483089178800583,-0.18178781867027283],[0.13961362838745117,-0.05220939591526985,0.1488633155822754,-0.1962766945362091,-0.27849042415618896,0.04725322872400284,-0.3662637770175934,0.2379707396030426,0.344090074300766,-0.0067681074142456055,0.16307775676250458,-0.03692576289176941,0.11357402801513672,-0.015180915594100952,0.23881995677947998,-0.45230066776275635,-0.2543949484825134,0.07784272730350494,-0.06275516748428345,0.08242954313755035,-0.1509205549955368,0.08402760326862335,-0.14408746361732483,0.23487283289432526,-0.1945231556892395,-0.005056466441601515,0.013998310081660748,-0.2016950100660324,0.08890383690595627,0.16408465802669525,0.13973844051361084,-0.12316504120826721,0.07970855385065079,-0.1627175509929657,0.28765353560447693,0.020142536610364914,0.3521296977996826,0.20989201962947845,-0.007659504190087318,0.05760951340198517,0.27170267701148987,-0.23184344172477722,0.02677987515926361,-0.35317325592041016,0.031012997031211853,0.11406444013118744,-0.3802841305732727,0.05740559846162796,-0.264763206243515,0.07669159770011902,0.0955704003572464,0.04404221847653389,0.17865701019763947,0.17209260165691376,0.4844939410686493,0.251483678817749,-0.0814148485660553,0.06458829343318939,0.06792082637548447,0.1544843465089798,0.2027820497751236,0.16606935858726501,-0.16183139383792877,-0.06306277215480804,-0.13860389590263367,-0.12803514301776886,0.2028958797454834,-0.15540876984596252,0.274832546710968,0.008500972762703896,0.09396447241306305,-0.17135260999202728,0.15965616703033447,-0.22001954913139343,-0.09724646806716919,0.3025250732898712,0.15077082812786102,-0.09785738587379456,0.027977511286735535,0.175262451171875,-0.17931759357452393,0.2494451254606247,-0.018111079931259155,-0.06663114577531815,-0.1352628618478775,0.07255128026008606,-0.3131857216358185,-0.011636149138212204,0.19567696750164032,-0.30619680881500244,-0.10666008293628693,-0.003781671402975917,-0.03625721484422684,-0.13599994778633118,-0.048211004585027695,0.038632262498140335,-0.045481689274311066,0.17176958918571472,0.12193550169467926,0.04392692446708679,-0.1649387925863266,0.052463456988334656,-0.2232239544391632,0.46999892592430115,0.061495959758758545,0.006073206663131714,0.2091769576072693,0.0448150634765625,0.04708421230316162,0.034439247101545334,-0.0608987919986248,-0.2515422999858856,-0.23891256749629974,-0.07980125397443771,-0.026308080181479454,-0.09241853654384613,-0.017222488299012184,-0.15153831243515015,0.06383190304040909,0.11344508081674576,0.3908570110797882,0.3307928740978241,-0.1220746859908104,-0.24736201763153076,0.13176794350147247,0.10717632621526718,-0.2179427444934845,-0.3013119399547577,-0.22603119909763336,0.2244483232498169,0.1769019067287445,-0.07732075452804565,0.07332414388656616,0.09123214334249496,-0.13870452344417572,0.3294784128665924,0.05350038781762123,-0.21415117383003235,-0.027968687936663628,-0.12651538848876953,0.17262883484363556,-0.15462079644203186,0.013096916489303112,-0.0650964304804802,0.3713395595550537,0.10932664573192596,-0.18109481036663055,0.0342407152056694,-0.17672747373580933,0.15177959203720093,0.26050522923469543,-0.16704457998275757,0.0533381849527359,-0.05394156277179718,0.13891658186912537,-0.0856984406709671,0.05359593406319618,0.20784001052379608,-0.12678486108779907,-0.053508248180150986,0.10452046990394592,-0.1425224095582962,-0.030175793915987015,0.10031624883413315,-0.17284291982650757,-0.07267893850803375,0.1564146876335144,-0.04854216426610947,0.047020889818668365,0.03871532529592514,0.1053740531206131,-0.0316748209297657,0.08084019273519516,0.05386529490351677,-0.0422566682100296,-0.16795627772808075,0.17061090469360352,-0.15757255256175995,-0.3294057250022888,0.09879075735807419,0.18332211673259735,-0.17713481187820435,-0.01923292875289917,-0.04423903301358223,-0.1375836282968521,0.027154231444001198,-0.02172013558447361,-0.03845655545592308,-0.3550172746181488,0.05436009168624878,0.15141995251178741,0.03356847167015076,0.13966500759124756,0.3210400342941284,0.5307531356811523,0.02337302267551422,0.5885199308395386,0.07598360627889633,-0.021095601841807365,-0.0963529720902443,-0.1832459568977356,0.1663547307252884,0.11444179713726044,-0.2349240630865097,0.23296596109867096,-0.10405942797660828,-0.0731087327003479,0.15065214037895203,0.0062534501776099205,-0.16168533265590668,-0.09462708234786987,-0.08890040218830109,-0.09397716820240021,-0.010145408101379871,0.048028524965047836,0.15471798181533813,-0.033053550869226456,0.17541229724884033,0.08327636122703552,-0.1361098438501358,-0.056368689984083176,-0.0947943851351738,0.10307899117469788,-0.15342150628566742,-0.30572399497032166,0.05932582914829254,-0.007596742827445269,-0.15104682743549347,-0.1206437200307846,0.21441350877285004,0.25172799825668335,0.029100675135850906,-0.06790118664503098,-0.13797301054000854,-0.012219468131661415,-0.2999389171600342,-0.16206640005111694,0.01182650588452816,0.08303311467170715,-0.16223545372486115,0.01929510571062565,-0.03259589895606041,0.007871067151427269,0.06920842081308365,0.19477389752864838,-0.010615505278110504,0.03602397069334984,0.2786872386932373,-0.058780260384082794,-0.09996218979358673,-0.08162982761859894,-0.11429008841514587,0.2958635687828064,0.201177716255188,-0.14122818410396576,-0.14670948684215546],[0.10622894763946533,-0.07043545693159103,-0.29409950971603394,-0.14547789096832275,-0.19313140213489532,-0.017862696200609207,-0.12886926531791687,0.03663409873843193,0.07831067591905594,0.15133093297481537,-0.007526007015258074,-0.021906927227973938,0.08068115264177322,0.17368465662002563,-0.075382299721241,-0.13264372944831848,0.1063138023018837,0.12185901403427124,0.08799616247415543,0.17369547486305237,-0.1859302520751953,-0.10554298013448715,-0.2028147578239441,0.07738938927650452,-0.05977560952305794,-0.03552153334021568,-0.052938465029001236,-0.1091054379940033,-0.10002383589744568,0.3303149938583374,0.0713261142373085,-0.03701191395521164,-0.40461471676826477,0.03194853663444519,-0.11847333610057831,-0.283625066280365,0.1135743260383606,-0.45278528332710266,-0.05083194375038147,-0.3650672435760498,0.10678870230913162,-0.11855346709489822,0.03756118565797806,-0.1755961924791336,-0.2816025912761688,0.02993440441787243,-0.20017531514167786,0.1214398443698883,0.24022094905376434,-0.009464239701628685,0.0867297500371933,0.20546510815620422,0.18503549695014954,0.015198192559182644,-0.028867578133940697,0.025069642812013626,0.17852407693862915,0.0016341652953997254,-0.02862919494509697,0.1292947381734848,0.23979389667510986,0.18839265406131744,0.025637280195951462,-0.02911841869354248,-0.026199867948889732,0.21123813092708588,-0.020236484706401825,0.059381451457738876,0.18656089901924133,-0.05186004564166069,0.06983795017004013,-0.1934831291437149,-0.18047766387462616,-0.22563721239566803,0.3253406882286072,-0.0944608747959137,0.05320321395993233,-0.026748796924948692,0.06425287574529648,-0.19779030978679657,-0.30669286847114563,-0.3982556462287903,-0.1377464383840561,-0.010731699876487255,-0.060844238847494125,-0.09060508012771606,-0.07321394234895706,0.19729863107204437,-0.038446567952632904,0.050237271934747696,-0.08768343180418015,0.09232307970523834,-0.06598576158285141,-0.11556149274110794,0.0375821627676487,-0.2526666820049286,-0.181570902466774,-0.20678961277008057,-0.21451109647750854,0.012172912247478962,-0.28637632727622986,-0.23259349167346954,-0.07355370372533798,0.16641581058502197,-0.19058361649513245,-0.0026706268545240164,-0.16997013986110687,0.05879294127225876,0.0931830033659935,0.11716468632221222,-0.005230883602052927,0.1400701105594635,-0.2613072097301483,-0.09084239602088928,0.18214771151542664,-0.07694129645824432,0.0803384780883789,0.2628241181373596,0.06638237833976746,-0.14745941758155823,-0.1552751362323761,0.02020835131406784,-0.14207440614700317,-0.1392667293548584,-0.11514295637607574,-0.09148309379816055,0.383672833442688,-0.007892126217484474,0.03729303926229477,0.3044610321521759,-0.27911388874053955,-0.08647554367780685,0.1300334930419922,0.3241094946861267,-0.03805495426058769,0.0008417825447395444,0.3068056106567383,-0.14390140771865845,0.3467388153076172,-0.36165788769721985,0.1597706377506256,-0.04769336059689522,0.08177027106285095,0.19773367047309875,0.13629250228405,-0.07979533821344376,-0.23983950912952423,-0.14248375594615936,-0.008935431018471718,0.1248437911272049,0.2823770344257355,0.19670020043849945,0.009073350578546524,-0.0936107188463211,0.23082837462425232,-0.08581315726041794,0.15114466845989227,0.16907210648059845,0.270397812128067,-0.07155947387218475,0.17694082856178284,-0.15570548176765442,0.030591830611228943,0.05303814634680748,0.214517742395401,-0.08317896723747253,-0.20274877548217773,-0.18606817722320557,0.0651395246386528,0.30238279700279236,-0.16962306201457977,-0.14028705656528473,0.27613285183906555,0.16737911105155945,0.19006970524787903,-0.3797672390937805,0.07539752870798111,0.2234354019165039,-0.07210180908441544,-0.302124947309494,0.2232217639684677,-0.0013987324200570583,0.04145079478621483,-0.04009855166077614,-0.1580180525779724,0.2722867727279663,0.20193690061569214,-0.025195561349391937,0.04868614673614502,0.08443178236484528,-0.14892350137233734,0.012648757547140121,0.059239260852336884,-0.11718855053186417,-0.282879501581192,0.06785531342029572,-0.12968015670776367,0.012759758159518242,-0.07265100628137589,-0.006902031600475311,-0.08269801735877991,-0.1419469714164734,-0.03913181647658348,-0.2800900638103485,0.06426367908716202,-0.1620161086320877,-0.08517132699489594,0.40410250425338745,0.04137019068002701,0.3194960951805115,-0.2557157874107361,-0.03539054095745087,0.16443400084972382,-0.15348368883132935,0.33358561992645264,0.3805719017982483,-0.2783305048942566,-0.07244951277971268,0.11031429469585419,0.07062435150146484,-0.22695942223072052,-0.22951321303844452,0.139092355966568,-0.1153622642159462,0.22675952315330505,0.03365885838866234,-0.14217863976955414,0.15452131628990173,-0.30660557746887207,-0.23878003656864166,-0.11268308758735657,-0.002592980396002531,0.31009477376937866,0.046716056764125824,-0.22511662542819977,0.19520188868045807,-0.14545370638370514,-0.09171383827924728,0.01909716986119747,0.10143149644136429,0.1784040629863739,0.15232950448989868,-0.01053168997168541,0.08420471101999283,0.1413726806640625,0.04547097906470299,0.1350288689136505,0.25523602962493896,-0.060848500579595566,-0.1857270747423172,-0.2170088291168213,0.3569331467151642,0.052902087569236755,0.2363162636756897,-0.07240700721740723,-0.12964457273483276],[0.13561893999576569,-0.0620683878660202,0.005461341701447964,-0.05886342376470566,0.08315274119377136,0.0720745101571083,-0.0790921077132225,0.43069344758987427,0.06493137031793594,-0.06815095990896225,0.2719927728176117,-0.01518072560429573,0.23668698966503143,-0.10103712230920792,-0.06872644275426865,0.14872056245803833,0.10372239351272583,0.4057141840457916,0.06848396360874176,-0.04529309272766113,-0.16444648802280426,-0.061343297362327576,-0.15005232393741608,-0.027098972350358963,-0.17669229209423065,-0.0035625766031444073,0.17222996056079865,-0.12736883759498596,-0.24856160581111908,0.380376935005188,-0.08295167982578278,0.2008064240217209,-0.1694350689649582,0.014971333555877209,0.2706261873245239,0.000702864199411124,0.15260310471057892,-0.02589605003595352,0.11581955850124359,-0.07426944375038147,-0.037790920585393906,-0.2200811803340912,-0.15416866540908813,0.055198945105075836,-0.18548820912837982,-0.40070804953575134,0.20950496196746826,-0.09244909137487411,0.004140511155128479,0.22929581999778748,0.23103879392147064,-0.04437783733010292,-0.2280140072107315,-0.01676400750875473,-0.05486104637384415,0.0005292489659041166,0.04587499424815178,-0.21376372873783112,0.01589224673807621,-0.057613324373960495,0.19101761281490326,0.009788398630917072,0.21846246719360352,-0.16620580852031708,-0.1799447387456894,-0.04904826730489731,-0.002447091042995453,0.072590172290802,-0.03459876775741577,0.07901579886674881,0.17665790021419525,0.011099807918071747,-0.21371155977249146,0.019598891958594322,0.012130019254982471,0.3058410584926605,0.010246234014630318,-0.2361224889755249,0.13449382781982422,0.11497762054204941,-0.3120816946029663,-0.11118566989898682,0.244810089468956,-0.09014556556940079,0.20394615828990936,-0.045424118638038635,0.08443713188171387,0.12317521870136261,0.0490230955183506,-0.2058182656764984,-0.42175304889678955,0.1005026176571846,-0.1089915782213211,-0.28712621331214905,0.290709912776947,-0.1741262823343277,-0.1385035663843155,-0.19910819828510284,0.06996738910675049,0.035147774964571,0.07086317241191864,0.050338536500930786,0.0984729677438736,0.09835651516914368,0.025281909853219986,-0.3578024208545685,-0.15124322474002838,-0.08921319246292114,0.20836299657821655,0.23438085615634918,0.2687716782093048,0.2717481553554535,0.22392070293426514,-0.31602585315704346,-0.16529609262943268,0.3102445602416992,0.16957391798496246,-0.0012017886620014906,0.33013173937797546,-0.36914172768592834,-0.2634996175765991,-0.04381894692778587,0.17375202476978302,0.19830355048179626,-0.10206758975982666,0.29340600967407227,-0.011066957376897335,-0.1769247055053711,-0.3724714517593384,-0.13146992027759552,-0.43234768509864807,0.08310846239328384,-0.2188478261232376,-0.18762916326522827,-0.3102976679801941,0.019654519855976105,0.5067872405052185,-0.49235108494758606,0.13824966549873352,0.20197391510009766,0.051093608140945435,0.010861728340387344,0.03231149539351463,0.08206639438867569,-0.02595369704067707,-0.027962183579802513,0.18543021380901337,-0.10756503790616989,-0.30559518933296204,-0.17509645223617554,-0.16793595254421234,-0.20199640095233917,0.0487421490252018,0.3250250518321991,-0.5609421133995056,0.2395276427268982,-0.05437508597970009,0.010068659670650959,0.29642796516418457,0.0705866739153862,-0.07135069370269775,-0.3375992774963379,0.05271473154425621,-0.1667831540107727,-0.07152816653251648,0.0026966319419443607,-0.32894089818000793,-0.3737812638282776,0.14792408049106598,-0.01651345193386078,0.23361234366893768,-0.21635614335536957,0.04377171769738197,-0.314576655626297,-0.2626831531524658,0.1533089280128479,-0.19974341988563538,-0.06713635474443436,0.1607590615749359,-0.20500494539737701,0.03674978390336037,0.04880938306450844,0.005127635318785906,-0.11000066250562668,0.0929865911602974,0.2533014714717865,0.10779903829097748,0.08923021703958511,-0.05964062362909317,-0.1114882230758667,-0.2602001130580902,0.022210588678717613,0.03518122434616089,-0.0007151801255531609,0.22391438484191895,0.01771283708512783,0.0011373775778338313,0.08558128029108047,-0.1993659883737564,-0.3375788629055023,0.006271223071962595,-0.013461989350616932,-0.13761258125305176,-0.4885823726654053,-0.013905760832130909,-0.28894948959350586,-0.11925956606864929,-0.005091735627502203,-0.0530712828040123,-0.12254192680120468,-0.0794336125254631,0.17197909951210022,0.08229142427444458,0.21206991374492645,0.06056144833564758,-0.32969072461128235,0.32471734285354614,-0.0735078677535057,0.11595958471298218,0.15367206931114197,0.1959766447544098,-0.09533015638589859,-0.4398079514503479,0.08501877635717392,0.3099115192890167,0.06949781626462936,-0.066571906208992,0.2951052188873291,0.04332343116402626,-0.2842412292957306,0.0025196776259690523,-0.16005133092403412,0.19597674906253815,0.09523853659629822,0.2045896351337433,-0.0247042216360569,-0.5273157954216003,0.16652533411979675,0.0444558747112751,-0.08733879774808884,0.12456945329904556,-0.019464734941720963,0.07433091849088669,-0.09707283973693848,0.2213224172592163,-0.16237697005271912,0.004386089742183685,0.23022344708442688,-0.09806496649980545,0.12115934491157532,0.1607295572757721,-0.13820770382881165,0.004015750717371702,-0.17438586056232452,-0.25839361548423767,-0.12338043004274368],[0.36720699071884155,0.25698965787887573,-0.22959503531455994,-0.10404685139656067,-0.1583808958530426,-0.04127419739961624,0.060622140765190125,0.07061819732189178,0.05680503323674202,0.04842424765229225,0.1812860518693924,-0.006531010381877422,-0.09352310746908188,-0.06043582409620285,0.3230765163898468,-0.042117130011320114,0.22002489864826202,-0.005485487636178732,-0.28309953212738037,0.0600370317697525,-0.08893764764070511,0.012295621447265148,0.1820281744003296,0.050992369651794434,-0.11600349843502045,0.0022068729158490896,-0.04673963040113449,-0.17496976256370544,0.1513131856918335,0.09527160227298737,-0.044702254235744476,-0.29199880361557007,