[[0.06303144246339798,0.13690340518951416,0.3316717743873596,0.015708517283201218,0.016482941806316376,-0.1096896380186081,-0.2087312489748001,0.040010303258895874,-0.034804053604602814,0.05590546876192093,0.025611164048314095,0.15706199407577515,-0.14860516786575317,0.13617047667503357,0.23470686376094818,0.08661844581365585,-0.0009955710265785456,-0.016434334218502045,0.0023124259896576405,0.23341819643974304,0.004045078996568918,0.024240508675575256,-0.30250227451324463,0.3433960974216461,0.20239698886871338,-0.14386484026908875,0.04333290830254555,0.18090759217739105,0.15412501990795135,0.019736967980861664,0.04147720709443092,-0.1896585077047348,0.06538248807191849,-0.07704536616802216,-0.16180133819580078,0.005347553174942732,0.16090591251850128,-0.24083036184310913,0.16721734404563904,0.09898538887500763,-0.016161173582077026,0.04881644994020462,-0.017042897641658783,-0.18069438636302948,-0.02708572708070278,-0.04399232193827629,0.14689631760120392,-0.08297562599182129,-0.14021232724189758,-0.061730023473501205,-0.031731508672237396,-0.1434604674577713,0.22750619053840637,0.0048417700454592705,-0.14652001857757568,-0.11632177978754044,0.07564327865839005,0.056961216032505035,-0.01747467927634716,0.02419031411409378,-0.1325616091489792,-0.060369282960891724,0.1068200096487999,-0.18799704313278198],[-0.11855622380971909,-0.0006849289056845009,-0.11663449555635452,-0.03641315922141075,-0.1179768443107605,-0.3395182490348816,0.11810313165187836,0.06474897265434265,-0.009051097556948662,-0.027530748397111893,-0.17158196866512299,-0.15081238746643066,0.010990094393491745,0.10436132550239563,0.1700439602136612,0.06860906630754471,0.06667594611644745,-0.022574448958039284,0.2351418137550354,0.1562143862247467,0.22603540122509003,-0.27473902702331543,-0.0292183980345726,-0.1889176219701767,0.07560029625892639,-0.07572340965270996,0.05917433649301529,0.05740153044462204,-0.11934606730937958,0.13885267078876495,0.04487065225839615,-0.04471300542354584,-0.03820439428091049,-0.08960521966218948,0.16770948469638824,0.06627879291772842,0.19456392526626587,-0.181834876537323,-0.23604154586791992,0.14515778422355652,0.04941597208380699,-0.1398824155330658,0.051903631538152695,-0.09940165281295776,0.14944738149642944,-0.2015848457813263,0.2686619162559509,0.15149138867855072,0.09409066289663315,-0.17036700248718262,0.09169850498437881,-0.007006280589848757,0.17026692628860474,0.15452326834201813,-0.2534310817718506,0.04701986536383629,-0.10807236284017563,-0.004442327655851841,0.11482103168964386,0.021020514890551567,0.07203762978315353,0.07919397950172424,-0.14280414581298828,0.03493623435497284],[-0.1826290637254715,0.37860211730003357,-0.10115814954042435,0.05101942643523216,0.07276774942874908,-0.23254382610321045,0.13663388788700104,-0.09068372845649719,0.08331430703401566,0.17945177853107452,0.01105345319956541,-0.06131577864289284,0.2869890630245209,0.17784473299980164,0.11030153930187225,0.1659633368253708,0.2457696944475174,0.17154352366924286,-0.1454080045223236,0.23073060810565948,0.018558762967586517,0.06777606904506683,-0.2336868792772293,-0.10472581535577774,-0.02971349097788334,-0.007207356858998537,0.1284784972667694,0.005020588170737028,-0.07792922854423523,0.1515754610300064,0.050658196210861206,0.029567141085863113,-0.015342657454311848,0.10237658023834229,0.046675506979227066,0.08576227724552155,0.10932696610689163,0.17877943813800812,0.04891403019428253,0.032081738114356995,-0.023206593468785286,0.1658487170934677,0.22328491508960724,-0.07081888616085052,-0.27774760127067566,-0.16207534074783325,-0.015297414734959602,-0.019742824137210846,-0.0303330160677433,-0.043980468064546585,0.051716748625040054,0.17791394889354706,-0.11441460996866226,-0.2326466590166092,-0.13747791945934296,-0.043710604310035706,0.0782451331615448,0.01720445789396763,-0.0466403067111969,0.09179235249757767,0.06016043201088905,0.06979244947433472,-0.0037361118011176586,0.0809992104768753],[0.13282987475395203,0.020244987681508064,-0.0363290011882782,-0.12456431984901428,-0.10354671627283096,-0.13345633447170258,0.174455463886261,-0.19185076653957367,0.045206427574157715,0.05013437196612358,-0.020463792607188225,0.09887909889221191,-0.18146683275699615,0.04219016060233116,-0.02878989279270172,0.06860049813985825,-0.012865522876381874,0.19527189433574677,-0.08477571606636047,-0.0355493500828743,-0.05613081902265549,0.012500828132033348,0.21453358232975006,-0.11074355989694595,0.20942212641239166,0.14986519515514374,0.06574196368455887,0.007411261089146137,-0.01848614774644375,-0.3441476821899414,0.002007355447858572,-0.19290588796138763,-0.05929127708077431,0.0836518257856369,-0.022901609539985657,0.11478425562381744,0.2335173338651657,-0.06420490145683289,0.07657793909311295,-0.0462644062936306,0.1108861044049263,-0.17911089956760406,0.08139778673648834,0.010830465704202652,-0.03474424034357071,0.3220452070236206,0.10478494316339493,0.24327857792377472,0.1163046807050705,0.04604782909154892,0.050234775990247726,0.05315152183175087,0.015313592739403248,-0.20185531675815582,0.02954396978020668,-0.04611241817474365,-0.13169892132282257,0.12908583879470825,-0.10290158540010452,0.2094184011220932,-0.049604013562202454,0.023838888853788376,-0.09316718578338623,-0.026697734370827675],[-0.20799373090267181,-0.05519140884280205,-0.0069084069691598415,-0.16064000129699707,-0.12053324282169342,-0.11317792534828186,-0.24748706817626953,-0.04701223596930504,0.18999917805194855,-0.0924215242266655,-0.13419456779956818,-0.016548626124858856,0.04306771233677864,-0.09867581725120544,0.011316127143800259,0.0034904954954981804,0.0016142523381859064,0.023032912984490395,0.04814416915178299,-0.03738042712211609,-0.11277112364768982,0.12334314733743668,0.05564488098025322,-0.02453906089067459,-0.10325510054826736,0.08026502281427383,-0.24706295132637024,-0.1870388686656952,-0.2272522747516632,-0.06429251283407211,0.13279806077480316,0.22968678176403046,0.17922645807266235,-0.1461065411567688,-0.05310504883527756,-0.13783696293830872,-0.06509124487638474,0.09176014363765717,0.0743686631321907,0.045734621584415436,0.028671739622950554,0.06833984702825546,0.25355127453804016,0.05448538064956665,-0.09610191732645035,-0.25600460171699524,-0.004377985838800669,0.0026492923498153687,0.16250553727149963,0.20025216042995453,0.12416431307792664,-0.01951264590024948,0.18588048219680786,0.1178039088845253,-0.03671712800860405,0.029803840443491936,0.07083898037672043,0.11610568314790726,0.05606735497713089,0.09499514102935791,0.1261569708585739,-0.11083813011646271,0.16189612448215485,-0.0394471175968647],[-0.10889678448438644,-0.16157923638820648,0.029533151537179947,0.2196037918329239,0.008640875108540058,-0.24686837196350098,0.24124808609485626,0.05612526461482048,-0.2017311304807663,-0.19620802998542786,-0.0529627799987793,0.0881040170788765,0.10296633839607239,-0.022282972931861877,0.06129957735538483,-0.05562741681933403,0.052293095737695694,-0.11077756434679031,-0.04643230140209198,-0.2287053018808365,0.20104406774044037,0.01997653767466545,0.04459598660469055,0.3449568748474121,0.20194752514362335,0.07019738107919693,-0.05967456474900246,0.03423214703798294,-0.07981269806623459,-0.09816566109657288,0.13605466485023499,0.068521648645401,0.1467893272638321,0.22453626990318298,-0.06745906174182892,0.05386144295334816,0.03766267001628876,-0.039995815604925156,-0.08592672646045685,-0.04389442130923271,-0.03452370688319206,-0.09207072108983994,-0.11908205598592758,0.08173862099647522,-0.09642502665519714,0.0038890137802809477,-0.0319790355861187,0.005718755070120096,0.22787272930145264,0.01696132868528366,-0.10340462625026703,0.20362582802772522,0.1352546215057373,0.14511947333812714,0.12344295531511307,0.02201198600232601,-0.11846036463975906,-0.18578647077083588,0.008748338557779789,0.2831156551837921,-0.030745839700102806,-0.03164725378155708,-0.13646526634693146,0.18576794862747192],[-0.2494208812713623,0.18395227193832397,0.2118331342935562,-0.24778734147548676,-0.198432058095932,-0.031214026734232903,-0.010558194480836391,-0.0324072390794754,0.0434403195977211,-0.040731750428676605,0.06683725863695145,-0.03439490497112274,-0.026673510670661926,-0.0753958597779274,0.1692478507757187,-0.018451618030667305,0.04595204442739487,-0.12778660655021667,0.15559400618076324,0.3134180009365082,-0.22257395088672638,-0.11077509820461273,-0.01745675876736641,-0.00712469220161438,-0.03380649909377098,0.08176412433385849,-0.11858341097831726,-0.22198522090911865,0.08866578340530396,-0.01579207554459572,-0.0013552153250202537,-0.05466919019818306,0.06029359996318817,0.054512012749910355,-0.13430148363113403,0.07164495438337326,0.17114362120628357,-0.05402052402496338,-0.017831260338425636,-0.021481188014149666,0.023724384605884552,-0.13185222446918488,-0.10700607299804688,0.04810180515050888,0.07062070071697235,0.04977404326200485,0.06334910541772842,0.0008797658374533057,0.023278243839740753,0.06536879390478134,-0.03085738979279995,-0.0662262812256813,0.032748401165008545,-0.17768995463848114,0.13640189170837402,-0.2577683627605438,0.04380315542221069,-0.06264176219701767,0.1288972944021225,-0.006869287230074406,0.09821327030658722,-0.01722462847828865,0.004803187679499388,-0.18100211024284363],[-0.20897208154201508,0.003412397112697363,-0.07427830249071121,-0.031918853521347046,-0.014407339505851269,-0.06333450227975845,-0.15848501026630402,0.1354704648256302,-0.12768742442131042,0.10418444126844406,-0.10982965677976608,0.21283626556396484,0.024543946608901024,-0.0458197183907032,-0.23106834292411804,0.03970017284154892,0.13949599862098694,-0.06835063546895981,0.25093287229537964,-0.03953317925333977,-0.10474321246147156,0.15058939158916473,0.14112026989459991,0.25984853506088257,-0.21353250741958618,-0.04291239380836487,-0.03141441568732262,-0.0976671576499939,-0.031095178797841072,0.07266414165496826,-0.16659042239189148,-0.04058745503425598,-0.13795208930969238,-0.0034736315719783306,-0.18065950274467468,-0.1280878335237503,-0.018784739077091217,-0.054944973438978195,-0.07599478960037231,-0.04133083298802376,0.06620242446660995,0.21233609318733215,-0.08410578221082687,0.1257244348526001,0.03931799530982971,0.2437823861837387,-0.18675194680690765,0.06187557801604271,0.24114930629730225,0.029419174417853355,-0.02545030415058136,-0.12177693098783493,0.028524141758680344,-0.06207163631916046,0.16820235550403595,0.15497136116027832,-0.04425693675875664,-0.06848644465208054,0.13125532865524292,0.07729052007198334,0.059543900191783905,-0.04947938024997711,-0.008342674933373928,0.2328636646270752],[-0.07495001703500748,-0.06350016593933105,0.06900612264871597,0.2998480200767517,-0.1920149326324463,0.02064463123679161,0.02116663008928299,-0.14537422358989716,-0.046797607094049454,0.23846307396888733,-0.11342526227235794,0.08143679797649384,0.13900743424892426,-0.029963603243231773,-0.20227164030075073,0.05358577147126198,-0.07656215876340866,0.0856555625796318,-0.15165495872497559,0.027849413454532623,-0.11855330318212509,0.01012730598449707,-0.05836319178342819,-0.13844995200634003,0.050158869475126266,-0.0901307463645935,0.07641849666833878,0.07100240141153336,0.15744931995868683,-0.017960969358682632,-0.03799799084663391,-0.038746874779462814,0.002892800373956561,-0.06648296862840652,0.16710765659809113,-0.10788120329380035,0.10445839166641235,-0.011830445379018784,0.0018272829474881291,-0.22989842295646667,-0.17427775263786316,0.012050699442625046,-0.17694661021232605,-0.07717607915401459,0.03948347643017769,0.09036130458116531,0.1423041820526123,-0.10206788033246994,0.15742233395576477,0.13724622130393982,-0.11031213402748108,0.11528899520635605,0.1771083027124405,0.04250118508934975,0.05090424790978432,0.13490773737430573,0.21491818130016327,-0.07168427109718323,0.08111254125833511,-0.14647118747234344,-0.22051523625850677,0.01566564477980137,0.009083212353289127,-0.16834332048892975],[-0.1998368352651596,-0.020306704565882683,0.12867940962314606,0.17535127699375153,0.04844655096530914,-0.08335720747709274,0.08566240221261978,-0.011164296418428421,-0.045558128505945206,0.0387563593685627,0.16604244709014893,0.00025517476024106145,0.037870801985263824,0.07803694903850555,-0.0031685694120824337,0.02882378362119198,-0.07129239290952682,-0.0943845883011818,0.03948163241147995,-0.25364750623703003,0.3026328980922699,-0.08473881334066391,0.29076939821243286,-0.15097856521606445,0.14673979580402374,0.01725856028497219,0.0198463536798954,-0.010409172624349594,0.14954984188079834,0.00343239214271307,0.16938422620296478,0.1013215184211731,-0.0006270362064242363,-0.10331031680107117,0.07019644975662231,0.007161497604101896,0.09173569083213806,0.061255645006895065,-0.04502033442258835,-0.09040065854787827,0.15907129645347595,0.12156239151954651,0.01245735865086317,0.04760345071554184,0.049417369067668915,0.013532180339097977,-0.06789163500070572,0.13315334916114807,0.07815872877836227,-0.13669002056121826,-0.16873237490653992,0.09127811342477798,0.034225329756736755,-0.35302260518074036,-0.1857975274324417,-0.06873518228530884,-0.21574251353740692,0.055275678634643555,0.1366092413663864,-0.11374875158071518,-0.016242576763033867,-0.24659761786460876,-0.1763928085565567,0.0280130747705698],[-0.022554246708750725,0.06940913200378418,-0.10225970298051834,-0.17196395993232727,0.16372182965278625,0.08908950537443161,-0.01148807629942894,0.2525806725025177,-0.06708351522684097,0.013833035714924335,0.2417054921388626,0.03719981014728546,-0.06517592817544937,0.06942395865917206,0.07288842648267746,0.09913021326065063,-0.0011284914799034595,0.14751696586608887,0.1282690167427063,0.13917452096939087,0.005063424818217754,0.006115184631198645,0.0788784921169281,0.1342906802892685,0.17465071380138397,0.04348728433251381,-0.10114358365535736,0.08028610795736313,-0.11940137296915054,-0.18483632802963257,-0.06947938352823257,-0.08892226964235306,0.15746307373046875,0.2151980698108673,0.0881393551826477,-0.04999008774757385,-0.06674913316965103,-0.15424637496471405,0.15336841344833374,-0.27342483401298523,0.11033820360898972,-0.09589280933141708,-0.07831085473299026,-0.10756298154592514,-0.15061241388320923,-0.04451320692896843,0.1234540119767189,-0.08084610104560852,-0.16053345799446106,-0.10837752372026443,0.03260213881731033,-0.13272221386432648,-0.16708707809448242,-0.1892319768667221,-0.06771529465913773,-0.0596061609685421,-0.07214102149009705,0.055543411523103714,-0.2921784520149231,-0.12428447604179382,0.18723566830158234,-0.19739943742752075,0.0716540664434433,0.055540531873703],[0.2643853425979614,0.11612507700920105,-0.06555413454771042,0.054828569293022156,0.023905901238322258,-0.012299560010433197,-0.09936360269784927,-0.25914448499679565,0.2717278301715851,0.19481150805950165,0.12099698930978775,-0.12180856615304947,0.025664236396551132,-0.0027478968258947134,-0.22865182161331177,0.19407778978347778,0.004102678503841162,-0.11180870980024338,0.009201530367136002,-0.13273382186889648,-0.012826237827539444,-0.09780893474817276,0.1790904700756073,-0.10698295384645462,-0.0720817819237709,-0.10223134607076645,-0.03190609812736511,-0.004229609854519367,-0.024719340726733208,0.004037429112941027,0.015477309003472328,0.053084444254636765,0.07155178487300873,0.28289321064949036,-0.016227250918745995,-0.19759856164455414,-0.10938723385334015,0.10793127864599228,0.008571757934987545,-0.08449116349220276,-0.05115978419780731,-0.03312400355935097,-0.06815458089113235,0.0028881870675832033,0.015064630657434464,-0.09549610316753387,-0.01387438178062439,-0.10206100344657898,-0.005431797821074724,0.3159942626953125,-0.16201405227184296,0.09555887430906296,-0.03329598158597946,0.007890352047979832,-0.04589259624481201,0.028748497366905212,-0.04073268547654152,0.02729598991572857,0.0919450893998146,0.049441758543252945,0.0794190838932991,0.04965309053659439,-0.06870856136083603,0.020360799506306648],[-0.08096236735582352,0.050292935222387314,0.04512641206383705,-0.03190695866942406,0.1712411493062973,-0.07270494848489761,-0.021945461630821228,-0.06047670170664787,0.001253585098311305,-0.10371241718530655,0.23518307507038116,0.03519205003976822,0.1700366586446762,-0.051780667155981064,-0.17357216775417328,-0.20642176270484924,0.11952149122953415,0.234538272023201,-0.31702595949172974,-0.08138025552034378,0.1610526144504547,-0.13285589218139648,-0.09034454077482224,-0.02215263992547989,-0.08636799454689026,0.2307628095149994,-0.07764516770839691,0.19192847609519958,-0.25420910120010376,-0.015899578109383583,0.0728091299533844,-0.02010681852698326,0.08628089725971222,-0.22698859870433807,0.21923336386680603,-0.07162626087665558,-0.03418132662773132,0.03617271035909653,-0.1076822429895401,-0.0022282609716057777,0.049284134060144424,0.23084324598312378,-0.20245076715946198,0.07216393202543259,0.051444027572870255,-0.22462508082389832,-0.11772364377975464,0.058786723762750626,0.0057836961932480335,0.2514922320842743,-0.018155083060264587,-0.15427479147911072,-0.026082104071974754,0.09130095690488815,0.025618059560656548,0.1188921332359314,-0.20675477385520935,0.048645369708538055,0.05113745108246803,-0.3325827717781067,-0.022199930623173714,0.12508909404277802,0.11067987233400345,0.04092967137694359],[0.26663336157798767,0.14759330451488495,-0.02994750626385212,0.12155362963676453,0.08543527126312256,0.20449067652225494,-0.11540615558624268,-0.06098802015185356,-0.11968380957841873,0.003975803963840008,0.059803660959005356,-0.0433654822409153,0.0010280671995133162,-0.04517107456922531,0.028485694900155067,-0.19441160559654236,-0.16220521926879883,0.0708148404955864,0.11594896018505096,0.01760934107005596,-0.12109504640102386,-0.0016595973866060376,0.12296611815690994,-0.030227355659008026,0.22741025686264038,0.11576125770807266,-0.14878912270069122,-0.07462019473314285,0.07920687645673752,-0.0955863818526268,0.14538991451263428,-0.033512454479932785,0.006722092162817717,0.14330890774726868,0.05961949750781059,0.0984172374010086,0.0031792118679732084,-0.05201006308197975,-0.1395474076271057,-0.035812683403491974,-0.06716819107532501,0.02459401823580265,-0.16023655235767365,0.11967199295759201,-0.024982916191220284,-0.05878033488988876,0.1466357707977295,0.19217926263809204,-0.07937778532505035,0.03911251574754715,0.012799144722521305,-0.03618171811103821,-0.04740886390209198,-0.00022715212253388017,-0.2384290099143982,0.06514129042625427,0.02764185331761837,-0.06628768146038055,0.019152671098709106,-0.12693125009536743,-0.03279787674546242,0.2682700455188751,0.003123279893770814,0.004832435864955187],[0.034088559448719025,0.34994733333587646,0.04789409786462784,0.07992478460073471,-0.019697390496730804,0.01590222679078579,0.10211700201034546,-0.07320696860551834,0.04723848029971123,0.07542917877435684,-0.02163943089544773,0.045427355915308,0.16474144160747528,-0.022676954045891762,0.2674506902694702,0.018103845417499542,0.0695556104183197,-0.06466785818338394,0.13319692015647888,-0.0164199098944664,0.05012167990207672,-0.006633310113102198,-0.002137961331754923,-0.10574422776699066,-0.08468016982078552,0.24460186064243317,0.008894047699868679,-0.059418391436338425,0.061129435896873474,-0.0760333463549614,-0.11084908992052078,-0.004177262540906668,0.22440975904464722,0.07557274401187897,-0.12258552014827728,0.04401470720767975,-0.014039531350135803,-0.02369150146842003,0.04631054773926735,-0.20847371220588684,-0.20549382269382477,-0.05796779692173004,0.0719870999455452,-0.08256373554468155,0.005250708665698767,-0.008084175176918507,-0.04615464434027672,-0.11370975524187088,-0.18064375221729279,0.15968307852745056,0.008055808953940868,-0.048369359225034714,0.2197330743074417,-0.23708446323871613,0.13839460909366608,0.05571413412690163,-0.05006575956940651,-0.18077118694782257,0.10718169063329697,0.128385990858078,0.19696074724197388,0.12605224549770355,0.20118191838264465,0.07480240613222122],[-0.18390505015850067,0.0047475616447627544,-0.07446778565645218,0.15604856610298157,0.0396563895046711,0.03976217657327652,0.10131467133760452,0.15488183498382568,0.13522103428840637,-0.015549966134130955,0.011063125915825367,-0.048427682369947433,0.04169011116027832,0.12732091546058655,-0.07627178728580475,0.07762507349252701,-0.02601577527821064,-0.14389091730117798,0.0014453943585976958,-0.2254142016172409,0.0706881508231163,0.02540815994143486,0.04725232347846031,-0.0024582187179476023,-0.03012276627123356,0.03907015547156334,0.0721137598156929,0.09328304976224899,0.04118672385811806,-0.02637171372771263,0.08197533339262009,-0.22901809215545654,-0.14975182712078094,0.052052807062864304,-0.21647214889526367,0.006578093860298395,-0.04138592630624771,-0.08907809108495712,0.32557621598243713,0.07757251709699631,0.21004228293895721,0.03558219224214554,0.2573126256465912,0.2001715451478958,0.09054812043905258,0.017013970762491226,-0.239676833152771,-0.13455551862716675,-0.24820931255817413,-0.0629362016916275,0.02655334211885929,0.0033939967397600412,0.0033578849397599697,-0.043275125324726105,0.23481518030166626,0.1973736435174942,0.16538803279399872,-0.29237428307533264,0.07506396621465683,-0.010187050327658653,0.010500503703951836,0.017199788242578506,0.049763694405555725,0.1457863450050354],[-0.1429712176322937,-0.0018660948844626546,0.09129401296377182,0.17148573696613312,-0.3164466321468353,0.018511127680540085,-0.18487241864204407,0.12544067203998566,0.0727037638425827,0.2061653435230255,-0.0736016035079956,0.05300484225153923,-0.24483421444892883,0.06514712423086166,-0.19603845477104187,0.2712179124355316,-0.07029443234205246,-0.13992802798748016,0.16249185800552368,0.035294368863105774,0.12676317989826202,-0.046722039580345154,0.19666093587875366,0.13156679272651672,0.12609584629535675,0.07734578847885132,-0.010064258240163326,0.0847468376159668,0.15514642000198364,-0.05036943778395653,0.03335938602685928,0.06423229724168777,-0.04571353644132614,0.0476524643599987,-0.13169412314891815,0.05013207718729973,0.012450539506971836,0.014883529394865036,0.13906925916671753,0.0664919763803482,0.09554821252822876,0.0852980986237526,-0.044321209192276,-0.1471180021762848,0.06210684776306152,-0.043905023485422134,-0.09406066685914993,-0.030231807380914688,-0.12125786393880844,0.15566915273666382,0.09815272688865662,-0.18417182564735413,0.15038232505321503,-0.23098665475845337,0.10956700891256332,0.1478511542081833,-0.08946159482002258,0.10504282265901566,0.13963742554187775,0.03147004172205925,0.09342826902866364,0.12943986058235168,-0.15162335336208344,-0.023464258760213852],[-0.12723517417907715,0.1283755749464035,0.07962599396705627,-0.16590915620326996,-0.10160410404205322,0.035533420741558075,-0.01667160540819168,-0.09153030067682266,0.05920449271798134,-0.13115113973617554,-0.16034328937530518,0.04261430352926254,0.002178291557356715,0.08309108018875122,0.09039200097322464,0.07459809631109238,-0.07758607715368271,0.03203882277011871,0.012192468158900738,0.04499421268701553,-0.10688408464193344,-0.11380002647638321,-0.012115808203816414,-0.1978226751089096,-0.050788477063179016,-0.18695001304149628,0.0798909068107605,-0.00879319105297327,0.1841270923614502,-0.0034607171546667814,0.05403832718729973,-0.12274102866649628,0.10184800624847412,-0.021833326667547226,-0.3200736939907074,0.04279588162899017,0.1300111562013626,0.02164255641400814,0.050578851252794266,0.11451604217290878,0.024622218683362007,-0.06397181004285812,-0.25111842155456543,0.17286936938762665,-0.08770713210105896,0.06634634733200073,-0.1379426121711731,0.07221539318561554,0.09888513386249542,-0.1985122114419937,0.21597690880298615,0.04050533100962639,0.07457461953163147,-0.10564439743757248,-0.06475364416837692,0.012517696246504784,-0.059999506920576096,-0.025834016501903534,-0.028968235477805138,-0.022092685103416443,0.14096704125404358,-0.11601398885250092,0.00004247139077051543,-0.038933999836444855],[0.0034179971553385258,0.16069753468036652,-0.36767277121543884,-0.016418742015957832,0.06359980255365372,-0.10927674919366837,0.02419223077595234,-0.031525686383247375,-0.026669923216104507,0.32005974650382996,-0.20075884461402893,-0.026524445042014122,0.10739151388406754,-0.06889647990465164,0.06834975630044937,-0.008165436796844006,0.08492694795131683,0.006640962790697813,0.07888216525316238,-0.048664841800928116,-0.022944368422031403,0.06969182193279266,-0.027962740510702133,-0.08406201750040054,-0.015811247751116753,0.1535940021276474,-0.09827660769224167,-0.0260933805257082,-0.07450854778289795,0.0530974417924881,0.019892919808626175,-0.02948889136314392,0.22289961576461792,-0.04334862530231476,0.27576467394828796,0.13678760826587677,0.07113520801067352,-0.154486745595932,0.11129898577928543,0.11038870364427567,-0.1536262184381485,0.06767968088388443,0.12270856648683548,-0.016250234097242355,0.11403750628232956,0.17669841647148132,-0.11175041645765305,-0.0014412711607292295,0.10148446261882782,-0.05309583619236946,0.09463167935609818,-0.4063405692577362,0.16924674808979034,0.047917913645505905,-0.13174432516098022,0.04933369904756546,0.15791375935077667,-0.029450105503201485,-0.034805841743946075,-0.07936098426580429,-0.09814257174730301,0.028720971196889877,0.001763953361660242,-0.15143941342830658],[0.23269441723823547,0.04109048843383789,-0.1196204125881195,-0.013106626458466053,0.10396120697259903,0.007910378277301788,0.15056590735912323,-0.2667006552219391,-0.08314696699380875,0.042461689561605453,0.060032330453395844,0.22829610109329224,0.21182988584041595,0.016385255381464958,-0.029500002041459084,0.20005516707897186,0.20408329367637634,-0.04279996082186699,0.15496456623077393,-0.022644609212875366,-0.0839456245303154,-0.146342471241951,-0.14727288484573364,0.08180468529462814,-0.023891152814030647,0.0742754191160202,-0.17762361466884613,-0.09854642301797867,0.03598714992403984,-0.16912499070167542,-0.049638908356428146,-0.15445874631404877,0.0037945499643683434,0.13572515547275543,-0.14121989905834198,0.11696186661720276,-0.11845538020133972,0.11131400614976883,0.29729339480400085,-0.034711502492427826,0.08227704465389252,-0.002987768966704607,-0.02719469740986824,0.16383957862854004,-0.07605759054422379,0.044387802481651306,0.07811383157968521,-0.2040426880121231,0.07044226676225662,-0.08920471370220184,-0.04567459225654602,-0.046097878366708755,-0.012603849172592163,0.022663934156298637,-0.016701119020581245,-0.10102640092372894,-0.061846815049648285,-0.10600893199443817,0.14764316380023956,-0.13497722148895264,0.21675032377243042,-0.016598490998148918,-0.0658358708024025,-0.039606038480997086],[0.04232191666960716,0.1616344004869461,0.13246186077594757,0.0029263882897794247,0.14249800145626068,0.08308757841587067,-0.1497497707605362,0.1983524113893509,-0.1288045048713684,0.022083282470703125,-0.11822552978992462,0.003481704043224454,0.13600066304206848,0.06907648593187332,-0.03412792086601257,-0.03281890228390694,0.11815747618675232,-0.20295794308185577,-0.07757864892482758,-0.16784262657165527,-0.16681769490242004,-0.13576126098632812,-0.07694035023450851,-0.017478840425610542,-0.20825117826461792,0.014921859838068485,-0.0733831599354744,-0.05019993707537651,0.1080375388264656,0.010693339630961418,-0.010957618243992329,-0.009854817762970924,0.20120646059513092,-0.05906665325164795,0.08500538766384125,0.10522882640361786,-0.11090555787086487,0.033032625913619995,-0.003415583400055766,-0.008886972442269325,0.07418998330831528,0.006737212650477886,0.10687872767448425,0.04027760401368141,-0.06967166066169739,-0.13229075074195862,-0.0290360227227211,-0.07061635702848434,-0.032587651163339615,-0.14414313435554504,-0.07183441519737244,-0.0411200188100338,-0.012442020699381828,0.30709564685821533,0.009819955565035343,0.0356382392346859,-0.005153026897460222,0.012334010563790798,-0.1432640552520752,0.16042731702327728,-0.09891966730356216,0.06622054427862167,0.052035264670848846,-0.014894604682922363],[0.04634575918316841,-0.03419036418199539,-0.0632297694683075,-0.23399364948272705,-0.22403736412525177,0.06348622590303421,0.18448330461978912,-0.0018552378751337528,0.13964451849460602,-0.0957401692867279,0.2714409828186035,0.06261447817087173,0.24699264764785767,0.09356063604354858,-0.05644446238875389,0.009502078406512737,0.07592272758483887,-0.2138752043247223,-0.27511921525001526,0.12893164157867432,-0.01967337355017662,0.10851341485977173,-0.1766013503074646,-0.025807956233620644,0.015262695029377937,0.12750950455665588,-0.053150881081819534,-0.0909070298075676,-0.005604215431958437,-0.0665769949555397,0.10722415149211884,-0.13385526835918427,-0.08493383973836899,-0.33558371663093567,-0.1698485165834427,-0.16152742505073547,0.012576472945511341,-0.03501012176275253,-0.058647628873586655,0.341505229473114,-0.1110161766409874,0.06478486210107803,0.23600363731384277,0.15801510214805603,-0.06239350512623787,-0.109005406498909,0.09868473559617996,0.12831950187683105,-0.08384504169225693,0.13397617638111115,0.19064371287822723,-0.09713611006736755,0.06077722832560539,0.13192036747932434,-0.06133538857102394,0.35976505279541016,0.0005876181530766189,0.016327690333127975,-0.03254071995615959,0.01779884286224842,-0.037921756505966187,-0.02339484728872776,0.19332629442214966,-0.06145085394382477],[-0.09001170843839645,0.19238339364528656,-0.038255609571933746,0.03489851951599121,-0.04823272302746773,0.03845351189374924,-0.08365043252706528,0.01676705665886402,-0.12920725345611572,-0.10980074107646942,-0.2218952625989914,-0.09099303930997849,0.012850284576416016,-0.02369721792638302,0.12946440279483795,-0.02758089080452919,-0.012972884811460972,0.19232936203479767,-0.1634313017129898,0.061553291976451874,-0.06060372292995453,0.08448002487421036,-0.26952940225601196,0.09075304120779037,0.08366341888904572,-0.05350548401474953,0.007984735071659088,-0.13350345194339752,0.020718635991215706,0.03952925652265549,0.12024211883544922,-0.2896305024623871,-0.023280872032046318,-0.007327227387577295,0.13923253118991852,-0.07755467295646667,-0.03628042712807655,-0.12002591788768768,0.05758843198418617,0.13388097286224365,0.20263399183750153,0.13882918655872345,0.15283696353435516,-0.20147894322872162,-0.05941053852438927,0.2300463616847992,0.15991008281707764,0.09411919116973877,0.05029557645320892,0.25407570600509644,0.12038904428482056,0.00619465671479702,0.04130784794688225,0.14034204185009003,-0.07668839395046234,-0.06430298089981079,0.248900905251503,-0.1689567118883133,-0.4916115403175354,-0.0423407182097435,0.0006820736452937126,-0.09232502430677414,0.07039478421211243,-0.002397431991994381],[-0.0015989372041076422,0.20045186579227448,-0.030246034264564514,0.021507982164621353,0.04465518891811371,-0.021748259663581848,-0.042130421847105026,0.0767943486571312,-0.0010846592485904694,-0.009681030176579952,-0.3624672591686249,-0.02293572947382927,0.20883150398731232,-0.006038101855665445,0.02695687673985958,0.03983820602297783,0.11623525619506836,-0.09759214520454407,0.05179371312260628,-0.09899706393480301,0.019960567355155945,0.01776685006916523,-0.11095505207777023,-0.07361245900392532,-0.07108499854803085,-0.05840294435620308,-0.06360366195440292,0.29349613189697266,-0.07758542895317078,0.09157118201255798,-0.05693192780017853,-0.2221146523952484,-0.11447744071483612,0.059673357754945755,-0.18691647052764893,-0.06466600298881531,0.03381754457950592,-0.01845715008676052,0.28399327397346497,0.02098940871655941,0.06736984848976135,-0.29056763648986816,-0.2182283252477646,0.13203388452529907,-0.11693155765533447,0.12400231510400772,-0.08229696750640869,0.02808540314435959,-0.0043465751223266125,0.18005961179733276,0.15186496078968048,-0.3408046066761017,0.015257876366376877,0.0769326314330101,-0.1621783822774887,-0.10408779978752136,-0.13240018486976624,-0.00886006560176611,0.2746622562408447,0.026836121454834938,-0.059630248695611954,0.15085385739803314,-0.048272754997015,-0.20651046931743622],[-0.08208854496479034,-0.08346342295408249,-0.025170624256134033,0.05801011994481087,0.1193830594420433,-0.04345393925905228,0.1862853616476059,-0.10749482363462448,0.024206046015024185,0.04952823370695114,-0.14731411635875702,0.09186471998691559,-0.1561407893896103,-0.13816843926906586,-0.26809510588645935,0.30302420258522034,-0.06378670781850815,0.07850723713636398,0.04474897310137749,-0.09819086641073227,0.058014895766973495,0.03999684378504753,-0.06345663219690323,-0.19898977875709534,-0.18254916369915009,-0.030462248250842094,0.08814162760972977,0.018136482685804367,0.021073248237371445,0.15347221493721008,0.011623704805970192,-0.08055099844932556,0.014200730249285698,0.06538183987140656,-0.09657914936542511,-0.26840171217918396,-0.02871725708246231,0.22481288015842438,0.15037859976291656,0.05838750675320625,-0.04297942668199539,-0.08932993561029434,0.09377379715442657,0.17564848065376282,-0.22016361355781555,-0.1995808333158493,-0.20583724975585938,-0.0805552527308464,0.12531456351280212,0.04843287169933319,0.031525950878858566,0.18118435144424438,0.3042639195919037,-0.10316683351993561,0.13088032603263855,0.01456491369754076,0.11111904680728912,0.006462445482611656,0.07091284543275833,-0.02238444611430168,-0.1311093121767044,-0.01053053792566061,0.0027549213264137506,-0.008155996911227703],[0.010940038599073887,-0.0011143805459141731,-0.0080986013635993,-0.07609721273183823,0.06073879450559616,-0.03489050269126892,0.2038821280002594,-0.00909559428691864,-0.09049975126981735,-0.04334027320146561,0.03189632296562195,-0.0304611474275589,0.05634089931845665,0.15346723794937134,-0.025667618960142136,-0.03147420287132263,0.10373491048812866,0.3964172303676605,0.340297669172287,0.1602417528629303,0.007830396294593811,-0.0689118504524231,0.03465219587087631,0.02242717333137989,-0.026331152766942978,-0.022246595472097397,0.028986873105168343,-0.09988489747047424,0.07933890074491501,0.1252380758523941,0.09272156655788422,-0.08027154207229614,0.010611282661557198,-0.02479945681989193,0.2457403540611267,-0.08007559925317764,-0.09918809682130814,0.033358681946992874,-0.14699825644493103,0.1572745442390442,-0.047124069184064865,-0.10557281225919724,0.12221186608076096,-0.22695966064929962,-0.11546015739440918,-0.22197771072387695,-0.04309581592679024,0.20613940060138702,-0.0025231046602129936,0.030950825661420822,-0.2019602656364441,-0.12612029910087585,0.04648571088910103,-0.014963825233280659,0.150136798620224,0.12243711203336716,0.13482558727264404,0.06855698674917221,-0.10779247432947159,0.09666837006807327,-0.10066577047109604,-0.1549501270055771,0.09116547554731369,0.061559759080410004],[-0.048356812447309494,0.04381934180855751,-0.10781756788492203,0.061249881982803345,-0.09666949510574341,0.023899730294942856,-0.000038615889934590086,0.010312492959201336,-0.012993901036679745,-0.054621268063783646,0.03179128095507622,0.08999606221914291,-0.3849838078022003,0.09945686906576157,0.01566191017627716,0.14416930079460144,-0.15756075084209442,-0.18905068933963776,-0.13130462169647217,0.13045161962509155,-0.09593874216079712,0.03178109973669052,-0.16999715566635132,0.11608052253723145,-0.17494504153728485,-0.08298718184232712,-0.06185390055179596,-0.0661030188202858,0.06856030225753784,-0.04818273335695267,0.11675522476434708,-0.10302932560443878,-0.23182986676692963,-0.007220035418868065,0.009371761232614517,0.1430784910917282,0.08791755884885788,0.030661260709166527,0.015087203122675419,0.22408658266067505,0.10673383623361588,0.15310458838939667,0.05258181691169739,-0.04454588145017624,0.10664673894643784,-0.304752916097641,0.11167219281196594,0.072137251496315,-0.06963881850242615,0.07227661460638046,0.04719911143183708,-0.029162680730223656,-0.06831660866737366,0.03626203536987305,0.17481708526611328,0.20803028345108032,0.07549487054347992,0.009090867824852467,0.08971627801656723,0.205149307847023,0.0613485649228096,0.24016037583351135,0.14230908453464508,0.021561892703175545],[-0.07001236826181412,0.020591624081134796,-0.043931201100349426,-0.023159625008702278,-0.022732606157660484,-0.17932304739952087,-0.007690398953855038,-0.004322357941418886,-0.23901619017124176,0.03297838568687439,0.06402742862701416,0.05345393344759941,0.1793815791606903,0.05046376585960388,0.08785223215818405,0.07119002938270569,0.20480497181415558,0.05370696634054184,0.08658435940742493,-0.043394818902015686,-0.08441037684679031,0.17339783906936646,0.17447319626808167,0.1604214608669281,0.08769086748361588,-0.15454167127609253,-0.003201815765351057,-0.029934141784906387,-0.0996563732624054,-0.06310338526964188,-0.14169563353061676,0.04675145447254181,0.07291063666343689,0.057575877755880356,0.09323681890964508,-0.051205191761255264,-0.15572196245193481,-0.07766593992710114,-0.04822138324379921,0.2472207397222519,-0.03075176477432251,0.03137682005763054,-0.0019110518041998148,-0.051217205822467804,0.10077499598264694,-0.1881154626607895,0.1397477239370346,0.01743932068347931,-0.059681449085474014,0.14350084960460663,0.1301438957452774,-0.006739343982189894,-0.06561826914548874,0.013043589890003204,-0.03879425302147865,0.04227757081389427,0.01575085148215294,0.11043918132781982,0.34738481044769287,0.02108604460954666,-0.2368876338005066,-0.025015832856297493,0.18410855531692505,-0.07584927976131439],[-0.09247259050607681,0.12142687290906906,0.16560275852680206,0.027625825256109238,-0.012212862260639668,0.05888993293046951,-0.10813184827566147,-0.19165320694446564,0.2607995867729187,-0.04696935787796974,0.04270371422171593,0.031724099069833755,-0.126328244805336,-0.040144409984350204,0.1984945833683014,0.007387242745608091,0.007799189537763596,0.03859768435359001,-0.10682424157857895,0.005105251912027597,-0.0051689171232283115,0.047315534204244614,0.035720985382795334,-0.16943123936653137,-0.04135286435484886,-0.09661992639303207,0.0598360113799572,0.11817532032728195,-0.04928499460220337,0.17794600129127502,0.04287908971309662,-0.027892032638192177,0.052962660789489746,-0.10076311230659485,0.20357216894626617,0.0036814671475440264,-0.2853489816188812,0.06491070240736008,-0.05458078160881996,0.07498306035995483,-0.18083468079566956,0.01098240539431572,-0.13705183565616608,-0.01672782562673092,-0.04367879778146744,0.024524176493287086,0.020332099869847298,0.058757346123456955,-0.07086633890867233,0.15322504937648773,0.18197192251682281,0.021154819056391716,-0.2107401043176651,-0.11650246381759644,0.027549684047698975,-0.03762310743331909,-0.027136385440826416,0.07318461686372757,0.0002876789658330381,-0.14624425768852234,-0.16199138760566711,0.03411650285124779,0.008564181625843048,-0.02087686024606228],[0.07776468247175217,-0.0774228647351265,0.12895891070365906,-0.09363385289907455,-0.08846721053123474,0.3052958548069,-0.09171053022146225,-0.15345698595046997,0.0006092143594287336,-0.052623141556978226,-0.08196857571601868,-0.04205389320850372,0.24330858886241913,0.03520713001489639,-0.12711837887763977,-0.09013921767473221,-0.041503842920064926,-0.01031708624213934,-0.12662188708782196,-0.010580976493656635,-0.017561940476298332,-0.1215912476181984,0.23007327318191528,0.12318733334541321,0.008609060198068619,-0.29144564270973206,-0.015430734492838383,-0.1215602308511734,0.14361606538295746,0.15111078321933746,0.002573738805949688,-0.015445115976035595,0.0047446913085877895,-0.1112067773938179,-0.0004862294881604612,0.014449916779994965,0.08723510056734085,0.07025367766618729,-0.11947847157716751,0.21899589896202087,0.0038487648125737906,-0.04635069519281387,0.02517309971153736,0.058240700513124466,0.1766199767589569,0.05900419130921364,-0.0770643875002861,-0.06006260961294174,-0.017938803881406784,-0.09421886503696442,-0.13498400151729584,0.14971283078193665,-0.053454674780368805,-0.027926336973905563,0.015593449585139751,0.11591895669698715,0.03064035251736641,0.11519452929496765,-0.03213771805167198,0.13398051261901855,0.082183338701725,0.10630733519792557,-0.07308106124401093,0.018071448430418968],[0.028546733781695366,0.13799430429935455,-0.0611206479370594,-0.038040801882743835,0.2010210156440735,0.11393087357282639,0.0902431383728981,-0.12615056335926056,0.054287150502204895,-0.04170352593064308,-0.03642711788415909,0.06847595423460007,0.03533952310681343,-0.02793246880173683,0.13256824016571045,0.1745203286409378,0.12602365016937256,-0.06071830540895462,-0.1507687270641327,-0.12276794016361237,0.14590658247470856,-0.04132672771811485,0.06984234601259232,0.154023677110672,0.2970831096172333,0.24084186553955078,0.02567925490438938,-0.09225676953792572,-0.0034202244132757187,0.025416405871510506,0.12097548693418503,-0.07997135818004608,0.1257527768611908,-0.013686786405742168,0.02755041792988777,-0.12272718548774719,0.013823606073856354,0.1476215124130249,-0.004960315767675638,-0.1557568460702896,0.2525522708892822,0.00385126075707376,0.1354045569896698,-0.005890816915780306,-0.07010297477245331,-0.09430307894945145,-0.18089766800403595,0.06121586263179779,0.10143189877271652,-0.20022046566009521,-0.038748834282159805,0.3905119001865387,-0.22010059654712677,-0.17410652339458466,0.11801445484161377,0.0013027263339608908,-0.13154272735118866,0.03128106892108917,-0.16899819672107697,-0.02590644545853138,-0.17757828533649445,-0.10346703231334686,0.2184133678674698,-0.11137939989566803],[0.17005077004432678,-0.05062974989414215,0.025244716554880142,-0.09237531572580338,-0.027604524046182632,0.011785438284277916,-0.06352464854717255,0.11606153845787048,-0.040666695684194565,0.029314659535884857,0.1209254339337349,-0.05601027235388756,0.0982031375169754,-0.03126394376158714,0.08133114874362946,0.24194428324699402,0.07725566625595093,-0.15171189606189728,-0.0654270350933075,-0.09423892199993134,-0.2518349289894104,-0.061700351536273956,0.14712554216384888,-0.22059260308742523,0.03674013167619705,0.021258341148495674,-0.08864463120698929,-0.07239606231451035,-0.08779361844062805,0.006624004803597927,0.14765623211860657,0.2576073408126831,0.15438546240329742,-0.020402435213327408,-0.07452083379030228,-0.14612065255641937,0.009693201631307602,-0.19465671479701996,-0.11977886408567429,-0.3024662733078003,0.14212100207805634,0.01924409531056881,-0.009381409734487534,0.09708456695079803,-0.05071655288338661,0.13569988310337067,0.10588343441486359,0.23131223022937775,-0.00859775859862566,-0.12034934014081955,-0.016507413238286972,0.03347153216600418,-0.021405411884188652,0.013341134414076805,0.004805660806596279,0.028480365872383118,0.0396970734000206,0.08466242253780365,-0.025959543883800507,-0.03565403074026108,0.04325984790921211,0.1145109012722969,0.3210994005203247,0.1071045994758606],[0.05083050951361656,0.08884938806295395,-0.21450623869895935,0.0009446703479625285,-0.09224727004766464,-0.10067972540855408,0.14231614768505096,0.08620676398277283,0.12097012251615524,0.13429740071296692,0.011515633203089237,-0.02082010731101036,0.2815343141555786,0.2814217507839203,0.05108227580785751,0.1078735738992691,-0.0640510618686676,0.20223066210746765,0.07407020032405853,-0.0072011337615549564,-0.20199070870876312,0.15947537124156952,0.1737138032913208,-0.26670581102371216,-0.14881351590156555,-0.20302662253379822,0.12837201356887817,-0.17940673232078552,-0.0483519583940506,-0.09519561380147934,0.12857593595981598,-0.009591272100806236,0.09391357749700546,-0.026499031111598015,0.032875560224056244,0.14293408393859863,0.1633617877960205,0.3363795578479767,0.19574081897735596,-0.1316297948360443,0.08291662484407425,0.19048327207565308,-0.04716496542096138,-0.13184934854507446,0.24483908712863922,-0.04772667586803436,0.20838169753551483,0.020570902153849602,-0.015796560794115067,0.11550841480493546,0.14738066494464874,-0.06011927127838135,0.14182588458061218,0.09152772277593613,-0.07756634801626205,0.12702907621860504,0.15507230162620544,0.06476414948701859,-0.08310145139694214,-0.05606124550104141,-0.024794816970825195,0.19463497400283813,0.18490362167358398,-0.029721729457378387],[0.0705837681889534,-0.17722155153751373,-0.04483093321323395,-0.053694844245910645,0.2516263425350189,-0.02281912975013256,0.06554379314184189,-0.026783999055624008,0.07921622693538666,0.04942801594734192,0.154323548078537,0.19787800312042236,0.09986614435911179,0.04580322280526161,-0.16525070369243622,-0.07907047122716904,0.3004252314567566,-0.12371695786714554,-0.015248446725308895,-0.06174389272928238,-0.03338692709803581,0.06484270095825195,-0.14045554399490356,0.1939866542816162,0.11722424626350403,0.22210969030857086,0.1568542718887329,-0.08043414354324341,-0.19487641751766205,0.14598050713539124,-0.3574645519256592,0.0335092693567276,-0.16610854864120483,0.0796811506152153,0.01492716372013092,0.11504589766263962,-0.040874943137168884,0.10667029023170471,-0.1637984961271286,0.378256231546402,-0.17133812606334686,-0.014697615057229996,-0.07497724145650864,0.02971331588923931,-0.11326461285352707,0.059809643775224686,-0.0686740055680275,0.10252667218446732,0.1828785389661789,0.09469916671514511,0.07772978395223618,0.11858393251895905,0.2522799074649811,0.09973734617233276,-0.23276641964912415,0.049706391990184784,-0.15195755660533905,-0.022871684283018112,-0.0679979920387268,0.04600770026445389,-0.07170072942972183,-0.10688142478466034,0.004754590801894665,0.024064285680651665],[0.0724538117647171,-0.07241303473711014,0.25337180495262146,-0.0016736305551603436,0.12885682284832,0.043737977743148804,-0.21008679270744324,-0.19964389503002167,0.023104144260287285,0.05407743901014328,0.09565111994743347,-0.07900384813547134,-0.17303578555583954,0.15589269995689392,-0.16152723133563995,0.06904614716768265,-0.10902685672044754,-0.1677146852016449,-0.060714319348335266,0.1465211659669876,-0.002362958388403058,-0.0746963620185852,0.12539876997470856,-0.12668928503990173,0.08472423255443573,0.06509986519813538,-0.052759770303964615,-0.1493743658065796,0.1411048322916031,-0.05340152606368065,0.11745087057352066,-0.06780959665775299,0.01265834178775549,-0.09743451327085495,-0.32404470443725586,0.13037000596523285,0.16363997757434845,0.04030996933579445,0.18854056298732758,0.09356793761253357,-0.017807498574256897,0.21281583607196808,-0.23433303833007812,-0.006770777516067028,0.14496789872646332,0.08589106798171997,-0.026577521115541458,0.22620519995689392,0.38119590282440186,-0.18703559041023254,0.05484965816140175,0.0621139295399189,0.018925804644823074,-0.1126154214143753,0.20012296736240387,0.14220421016216278,-0.009634213522076607,0.17826500535011292,0.3008420765399933,0.11610766500234604,-0.09856726974248886,0.05673906207084656,-0.09483592957258224,-0.1488700956106186],[-0.08043698966503143,-0.22861270606517792,0.06725448369979858,-0.02260393649339676,0.14688828587532043,-0.04597274214029312,0.088971346616745,0.08896173536777496,-0.17306837439537048,0.07628276199102402,0.025139454752206802,0.10055758059024811,-0.02753969468176365,0.14843341708183289,0.0871809870004654,-0.06027126684784889,-0.23156268894672394,0.003302864031866193,-0.24558375775814056,-0.15368930995464325,-0.050727877765893936,0.0705600157380104,0.005464231129735708,0.004588439594954252,0.04573226720094681,0.19040319323539734,0.1980448067188263,-0.26578614115715027,-0.009639834053814411,-0.02628982625901699,-0.08008095622062683,-0.09980813413858414,-0.13271257281303406,-0.14981286227703094,-0.04453711584210396,0.03120928443968296,0.04393105208873749,0.14308461546897888,-0.16523301601409912,-0.02723579667508602,-0.1392352432012558,-0.0720871239900589,0.030223989859223366,-0.20269076526165009,-0.2377580851316452,-0.055769603699445724,-0.1086687296628952,0.17074871063232422,0.18126773834228516,0.060544662177562714,-0.0884769856929779,0.119898222386837,0.02227979712188244,0.05611918494105339,-0.07990676164627075,0.12193768471479416,-0.051083989441394806,-0.04682798683643341,-0.1349058449268341,-0.0505162850022316,0.1432708352804184,-0.003859949763864279,-0.05749887228012085,0.08048460632562637],[-0.20044085383415222,-0.10229656845331192,-0.10688681155443192,-0.09147274494171143,-0.10881001502275467,-0.10587768256664276,-0.18518038094043732,0.10133571922779083,0.1258561760187149,0.0736883282661438,-0.09200330078601837,0.017823023721575737,0.23478515446186066,-0.17491096258163452,-0.004975757095962763,0.03440537676215172,0.05258534848690033,-0.007748037111014128,-0.13036273419857025,-0.2976098358631134,0.02775711379945278,0.075653076171875,0.08248620480298996,-0.15240605175495148,0.012300257571041584,-0.016367191448807716,-0.0727207362651825,-0.23789063096046448,-0.08147969841957092,0.034182045608758926,-0.05702288821339607,-0.18044130504131317,-0.06570984423160553,-0.015494924038648605,-0.043775931000709534,-0.05687635764479637,-0.02431449294090271,0.013458434492349625,0.08397974073886871,-0.002575760008767247,0.08875691890716553,0.03464391827583313,-0.1187242865562439,-0.12261583656072617,0.06006527319550514,-0.2116338461637497,-0.11437957733869553,-0.07336589694023132,0.12971468269824982,0.14456996321678162,-0.05686033144593239,-0.08102699369192123,-0.17220982909202576,-0.04638474062085152,-0.004162176512181759,0.2583090364933014,-0.16958047449588776,0.10762769728899002,-0.1599281281232834,0.2163058966398239,0.07708386331796646,-0.34636592864990234,0.026759140193462372,-0.16203324496746063],[0.029391741380095482,0.002010132186114788,-0.06822904944419861,0.15864157676696777,-0.32783570885658264,0.14029964804649353,-0.036442581564188004,0.11143700033426285,-0.30376923084259033,-0.034764550626277924,-0.10766474902629852,-0.05595606938004494,0.013171597383916378,-0.025845978409051895,0.007201801054179668,0.041862621903419495,-0.0615241676568985,0.19285181164741516,0.3760403096675873,0.014675418846309185,-0.08821626752614975,0.04144256189465523,-0.05548112094402313,-0.0005867083673365414,0.24439087510108948,-0.0774187222123146,-0.0509817935526371,-0.05198051407933235,0.06009072810411453,0.05788690224289894,0.09638435393571854,-0.04949376732110977,0.06415674090385437,-0.04395914822816849,0.1504465490579605,0.12266908586025238,-0.0026140273548662663,0.024871984496712685,0.0587754026055336,-0.07279270887374878,0.3515748977661133,-0.14084582030773163,0.10167615115642548,-0.13072055578231812,-0.0538814552128315,0.12035390734672546,-0.04871616140007973,-0.014624809846282005,0.14124608039855957,0.03912845999002457,-0.21455621719360352,-0.18740583956241608,0.07612618058919907,-0.01794799417257309,-0.014327159151434898,-0.08530952036380768,0.039628248661756516,0.058251094073057175,-0.16541247069835663,-0.060173578560352325,0.15471115708351135,-0.0709557980298996,-0.1065206378698349,-0.003913933876901865],[0.03271690011024475,-0.13856184482574463,0.06829951703548431,0.15537576377391815,0.11387420445680618,0.21412453055381775,-0.14489056169986725,0.05043075978755951,0.10917267948389053,0.023073911666870117,0.03906136006116867,0.013553012162446976,-0.1484878808259964,0.023119255900382996,-0.05279839038848877,0.060951873660087585,0.06255417317152023,-0.2516033351421356,-0.032107457518577576,0.08212140202522278,0.01280641183257103,0.02121947892010212,-0.2236502766609192,0.25834378600120544,0.08802715688943863,-0.10376881062984467,0.0018677610205486417,0.025303246453404427,0.1329478621482849,-0.2696779668331146,0.18091726303100586,-0.1263745129108429,-0.008098477497696877,0.030549263581633568,-0.16809694468975067,0.19595864415168762,0.23158462345600128,0.0066859363578259945,0.2455897331237793,-0.2075452208518982,0.09597092121839523,-0.03249768912792206,0.016428695991635323,-0.05312103405594826,0.033259641379117966,-0.004519489128142595,-0.1352051943540573,-0.13830429315567017,0.01003425382077694,0.1163201555609703,0.17279377579689026,0.05713242292404175,0.10419131815433502,-0.21241194009780884,0.015166385099291801,0.24327893555164337,0.2176894098520279,-0.08415684103965759,0.1513742357492447,-0.09836800396442413,0.0596795491874218,-0.14691932499408722,0.15022698044776917,0.053883146494627],[-0.03115394525229931,-0.10740963369607925,-0.1325332373380661,0.012791392393410206,-0.12370159476995468,-0.04711940884590149,0.12047892063856125,0.09976434707641602,0.05839638039469719,0.1533014476299286,0.04801865294575691,-0.09866543114185333,-0.007865614257752895,0.30638158321380615,0.04199838638305664,0.03483157604932785,0.06584765017032623,-0.07974299788475037,0.12914927303791046,0.20584842562675476,-0.23787154257297516,-0.16264037787914276,-0.06516528129577637,-0.007917743176221848,-0.12637276947498322,-0.1697235405445099,0.03659806773066521,0.1097029522061348,0.29106226563453674,0.1504262387752533,0.06155360862612724,0.13940279185771942,0.01696723885834217,0.12814319133758545,0.3027172386646271,0.10952184349298477,-0.06877289712429047,0.17473137378692627,-0.2967293858528137,0.1606391817331314,0.0714716985821724,0.11186312139034271,0.12760058045387268,-0.056220684200525284,-0.08662540465593338,0.00792810320854187,0.0840470939874649,-0.06596794724464417,0.2927430272102356,-0.11265727877616882,0.007992556318640709,-0.20139649510383606,0.07563463598489761,0.03135722130537033,-0.11702720075845718,0.12623609602451324,0.15564191341400146,-0.15312200784683228,-0.016239313408732414,0.014809955842792988,-0.10182814300060272,0.17155851423740387,0.06920764595270157,-0.16244903206825256],[-0.04431565850973129,0.0531473383307457,0.08295536041259766,0.07891237735748291,0.1982986181974411,0.11105497181415558,-0.04786507785320282,-0.02625640481710434,-0.16301532089710236,0.14702048897743225,-0.12634551525115967,-0.06737925857305527,0.03328144550323486,-0.11774150282144547,-0.0498306080698967,-0.1760605275630951,-0.032173871994018555,0.0058166817761957645,-0.060193341225385666,0.1605941504240036,0.0541013665497303,0.06820051372051239,-0.002177704591304064,0.1279250979423523,0.2251504510641098,-0.022506458684802055,-0.3389683663845062,0.03801338002085686,-0.0741133838891983,0.003929920494556427,0.20383340120315552,0.2819850444793701,-0.03895023465156555,-0.2153790295124054,0.3387073874473572,0.20558516681194305,-0.03486568480730057,0.07715053856372833,0.06122318282723427,-0.1479475498199463,0.13238908350467682,-0.009755813516676426,0.1141602024435997,0.06699234992265701,-0.12408183515071869,-0.2370399385690689,-0.13147485256195068,-0.03368441015481949,-0.11128316819667816,-0.06443077325820923,0.13737578690052032,-0.1488652378320694,-0.15850630402565002,-0.021725181490182877,-0.11320438235998154,-0.037719111889600754,-0.14868859946727753,0.11015922576189041,0.22432181239128113,-0.20720480382442474,0.24534519016742706,-0.10401005297899246,0.18509884178638458,0.02257503941655159],[-0.055934324860572815,0.19586296379566193,0.08278957009315491,0.10981857776641846,-0.17285940051078796,-0.12105877697467804,0.07058130204677582,-0.012753194198012352,0.04364310950040817,-0.11074338108301163,-0.09005019068717957,-0.0722656324505806,0.005355987697839737,-0.25008639693260193,-0.3005662262439728,-0.04217568784952164,0.03480805456638336,-0.08781708776950836,-0.0588001050055027,0.13195139169692993,0.057479649782180786,-0.23698973655700684,0.030251512303948402,-0.03638105466961861,0.029932420700788498,0.1080072820186615,0.23385919630527496,-0.13221876323223114,0.022576849907636642,0.07891342043876648,0.05400160327553749,-0.11261776089668274,-0.1143903136253357,-0.1205175369977951,-0.0835304707288742,0.21043963730335236,0.06476620584726334,0.055897608399391174,0.023674169555306435,-0.021547619253396988,-0.06159749999642372,-0.12114228308200836,0.006463223602622747,0.023153064772486687,-0.0947679877281189,0.10347158461809158,-0.0025589177384972572,0.07534640282392502,0.19264467060565948,-0.35141628980636597,-0.04690919443964958,-0.03881911188364029,0.23052826523780823,-0.13338738679885864,0.12453828006982803,-0.056491751223802567,-0.04147561267018318,0.029351089149713516,0.21511362493038177,0.3815951943397522,-0.09218531847000122,0.109805166721344,-0.02994871512055397,0.2059919834136963],[-0.11626560986042023,0.0793532133102417,0.013845223933458328,-0.035996563732624054,0.11854741722345352,0.0015489766374230385,-0.17122186720371246,-0.07323690503835678,-0.01738390512764454,0.1218082383275032,0.28945425152778625,0.0015547126531600952,-0.09984318166971207,-0.021196851506829262,-0.008163864724338055,0.22065991163253784,-0.08929697424173355,0.14075542986392975,0.022899074479937553,-0.09614337980747223,-0.10579761117696762,0.15047597885131836,-0.022644683718681335,-0.059273432940244675,-0.09811853617429733,0.09202408790588379,-0.2053276151418686,0.015622488223016262,-0.03523705527186394,-0.14926393330097198,0.06552760303020477,-0.03750431537628174,0.154734805226326,-0.010114826261997223,0.09036503732204437,-0.016315052285790443,-0.0793810486793518,-0.18936394155025482,-0.05015360936522484,0.10780030488967896,-0.00607777014374733,0.2131499946117401,0.07505275309085846,0.15612128376960754,-0.10414721071720123,0.018889514729380608,-0.08440261334180832,-0.027876587584614754,-0.2556430995464325,-0.057779911905527115,-0.13511766493320465,0.11185876280069351,0.06021419167518616,-0.01985636167228222,-0.22627206146717072,-0.1935611218214035,-0.00250305631197989,-0.09119954705238342,0.1464712768793106,0.012272520922124386,0.12214367091655731,0.2659909427165985,0.0867542028427124,0.2638493776321411],[-0.10971100628376007,-0.04202266037464142,0.18343231081962585,0.02225387468934059,0.10335894674062729,0.1938479244709015,-0.29197025299072266,-0.07983345538377762,0.1296127438545227,0.12687550485134125,-0.17448574304580688,-0.117128886282444,-0.026072198525071144,-0.23057715594768524,-0.056800685822963715,-0.0022824204061180353,0.06383899599313736,-0.13568215072155,-0.07461000978946686,-0.05863197520375252,-0.17231012880802155,-0.0036428701132535934,0.21871796250343323,-0.0699739083647728,-0.23774781823158264,-0.03883786126971245,-0.07044550776481628,0.023684220388531685,-0.036071568727493286,0.03862617537379265,0.09664808958768845,0.11609429866075516,-0.0736762136220932,-0.11473801732063293,-0.15245971083641052,0.23375597596168518,0.09083349257707596,0.15048626065254211,0.1903427690267563,0.11276644468307495,0.010101350955665112,0.0584784597158432,-0.10276015102863312,0.1260027140378952,-0.15108820796012878,-0.13849347829818726,0.07004957646131516,0.11519883573055267,-0.029730182141065598,0.030025411397218704,0.02300884947180748,-0.025438053533434868,-0.05621081218123436,0.067100390791893,-0.22109577059745789,-0.2210073173046112,-0.20678205788135529,-0.06255985051393509,-0.13791155815124512,-0.1998690813779831,0.06674537062644958,-0.016501490026712418,0.06634295731782913,-0.18863019347190857],[0.1966230571269989,0.03153650462627411,-0.2557401955127716,-0.1618857979774475,-0.02439952827990055,0.06824401766061783,-0.08089152723550797,0.11117749661207199,0.042472824454307556,0.30644166469573975,0.054578084498643875,0.05238364636898041,-0.05792882293462753,0.016941070556640625,-0.18103651702404022,0.1898668259382248,-0.1154959425330162,0.10891727358102798,-0.08043622970581055,-0.04515990614891052,0.10237147659063339,0.06234316900372505,0.0752963051199913,-0.007150983437895775,-0.17880044877529144,0.10882078856229782,-0.10073856264352798,-0.06226988136768341,-0.02878008782863617,-0.08074984699487686,-0.11067073047161102,-0.15528422594070435,-0.1671663522720337,0.1011601909995079,0.006089779082685709,-0.08020113408565521,0.048785123974084854,0.11876795440912247,-0.02045518532395363,-0.03572647646069527,0.18884305655956268,-0.12228672206401825,0.06917212158441544,-0.1337469071149826,-0.014860794879496098,-0.12043876945972443,0.026342879980802536,-0.10851819813251495,0.15978629887104034,-0.02348685823380947,0.1849890500307083,0.050495170056819916,-0.017002388834953308,0.07685425877571106,-0.09900212287902832,0.09484076499938965,0.14375728368759155,-0.1772458851337433,0.04251338168978691,0.05310619994997978,-0.03463263809680939,-0.21450099349021912,0.038900651037693024,0.022052491083741188],[0.08387558162212372,0.12739668786525726,-0.058036476373672485,-0.12553349137306213,0.1266031265258789,0.006700629834085703,0.10287043452262878,0.07074449211359024,-0.042844507843256,-0.0704079419374466,0.03687781095504761,-0.2713024914264679,-0.01562914252281189,0.031503114849328995,-0.017889633774757385,-0.0393994115293026,0.1457137018442154,0.16415031254291534,0.20362381637096405,0.07080888748168945,-0.029952503740787506,0.33462902903556824,-0.05569944903254509,-0.18454480171203613,-0.25020459294319153,0.05050547793507576,-0.06447411328554153,0.15584643185138702,0.01060205977410078,0.08320214599370956,-0.14246101677417755,-0.008146224543452263,-0.02052324078977108,0.07520250976085663,0.112580806016922,-0.11816918104887009,0.08185874670743942,0.018532048910856247,0.01994183100759983,0.0883602425456047,0.0120164193212986,-0.1574496030807495,-0.15223780274391174,-0.21559156477451324,-0.014938617125153542,0.22052578628063202,-0.118752621114254,-0.04333590716123581,0.10811331123113632,0.01550291758030653,-0.045266732573509216,0.02406438998878002,-0.026241334155201912,-0.09244782477617264,-0.01310498733073473,0.08065435290336609,-0.2061072140932083,-0.05402369424700737,0.1705750674009323,0.019978957250714302,0.023530585691332817,0.22673706710338593,0.22497308254241943,-0.047647811472415924],[-0.08549873530864716,-0.09518405050039291,0.1553378701210022,0.3135821521282196,0.0446358248591423,0.10052243620157242,-0.04155842959880829,-0.17853179574012756,-0.06841211766004562,-0.1565326303243637,-0.12918421626091003,-0.010298371315002441,-0.025268379598855972,0.10811565071344376,0.021862631663680077,-0.05811436474323273,-0.12914739549160004,0.10674598813056946,0.009328183718025684,-0.0807342529296875,-0.09537776559591293,0.002724077319726348,0.075113944709301,-0.14128772914409637,0.010265517979860306,0.12019362300634384,-0.003067092737182975,-0.1680854707956314,-0.024476010352373123,-0.026366200298070908,0.10059496760368347,0.0695071816444397,0.189853698015213,0.026865772902965546,-0.13205373287200928,-0.11449217796325684,0.2439553290605545,0.213324174284935,0.1676994115114212,-0.07280302792787552,-0.06622891873121262,-0.21759621798992157,-0.081075519323349,-0.06724339723587036,0.031031271442770958,-0.09827636182308197,0.017450783401727676,-0.08173571527004242,0.18550708889961243,-0.10012708604335785,-0.01651308499276638,0.04713456705212593,-0.09395633637905121,0.08551467210054398,-0.05934814363718033,-0.19507676362991333,-0.21069912612438202,-0.0500299371778965,0.14690759778022766,-0.1809150129556656,0.04961981996893883,-0.07688388973474503,-0.019800761714577675,-0.07286393642425537],[-0.06771201640367508,0.1596224308013916,-0.049981605261564255,-0.04616507515311241,0.07212026417255402,-0.10355500131845474,0.1947605162858963,0.19777806103229523,0.20810821652412415,-0.09811992943286896,-0.26592183113098145,0.08880925923585892,0.02919975481927395,-0.189514622092247,0.07981796562671661,0.03106340579688549,-0.21066485345363617,-0.17703187465667725,0.02725345641374588,0.14446693658828735,-0.043303877115249634,0.05284825339913368,-0.049567557871341705,0.042776789516210556,-0.1039268970489502,0.3473258316516876,0.08603376150131226,0.0059644379653036594,-0.09545443952083588,0.1849178820848465,-0.12032312899827957,-0.23446398973464966,0.07661482691764832,0.11560776829719543,-0.06080557778477669,0.06482667475938797,-0.15622729063034058,0.27840694785118103,0.060197532176971436,-0.03971679136157036,-0.17130355536937714,-0.21214622259140015,-0.2467564046382904,-0.10146874189376831,-0.11982870101928711,0.0240749791264534,0.1414707452058792,-0.2765588164329529,0.09377983957529068,-0.0203523151576519,0.018634293228387833,-0.019219715148210526,-0.17290182411670685,-0.06581465154886246,0.1413791924715042,0.057522017508745193,-0.004232682287693024,-0.055229552090168,-0.08044623583555222,0.1788097321987152,-0.1869354397058487,0.13483062386512756,-0.06070883944630623,0.0823320671916008],[0.13376817107200623,0.18964634835720062,-0.03543182089924812,-0.06529586017131805,0.0709787905216217,0.16390466690063477,-0.07059816271066666,-0.28315460681915283,0.2529655396938324,-0.03465750068426132,-0.1071290448307991,0.16365773975849152,0.1012076586484909,-0.04896193742752075,0.1331150233745575,0.012650811113417149,-0.027475427836179733,-0.09755731374025345,0.08529955893754959,0.00004419355173013173,-0.036422692239284515,-0.13840284943580627,0.08827176690101624,-0.08123011142015457,0.11846856772899628,0.13320237398147583,0.06438316404819489,0.06636849790811539,0.08739090710878372,0.18385685980319977,0.03358045220375061,-0.22901225090026855,0.005415425635874271,0.20975083112716675,0.10713808238506317,0.1739846169948578,0.010933224111795425,-0.006931759417057037,-0.03617478534579277,-0.17120958864688873,0.23392868041992188,-0.04510989040136337,0.15543770790100098,0.020137550309300423,-0.02577987127006054,-0.05093657970428467,-0.03822555020451546,0.15079104900360107,0.10637880861759186,0.031960129737854004,-0.011516609229147434,0.05582733452320099,0.16942599415779114,0.08779173344373703,-0.12136509269475937,0.11885527521371841,-0.06976299732923508,-0.3365209996700287,0.07438872009515762,-0.15841583907604218,0.055992595851421356,-0.02428685501217842,-0.042122483253479004,0.1395476907491684],[0.06612397730350494,-0.05218373239040375,0.10419369488954544,0.1795455366373062,0.06091839447617531,-0.17813540995121002,0.02233133837580681,-0.07719951122999191,-0.12244338542222977,0.11995486915111542,0.03449978306889534,-0.10822736471891403,-0.17137379944324493,0.2291521281003952,0.012431302107870579,0.12007927149534225,0.06644672155380249,-0.021474473178386688,-0.013829942792654037,-0.009983490221202374,0.0016061692731454968,0.22061024606227875,-0.05151516571640968,-0.14407147467136383,0.016620507463812828,-0.09965891391038895,-0.1090572252869606,-0.059602778404951096,-0.03545753285288811,-0.1016763225197792,-0.049822986125946045,-0.057506825774908066,-0.03264809027314186,0.016510827466845512,0.00990916695445776,0.019061284139752388,-0.04922563582658768,0.2619776129722595,-0.037275005131959915,-0.015195694752037525,0.2132142037153244,0.017950892448425293,-0.13320857286453247,-0.12625356018543243,-0.03902045264840126,0.07394909858703613,-0.13875484466552734,0.09856007993221283,-0.04117998853325844,0.12299108505249023,0.02526470273733139,0.14199914038181305,-0.09191296249628067,-0.021247539669275284,0.21618831157684326,0.1779279261827469,-0.08609605580568314,0.015192670747637749,-0.060720931738615036,-0.04123389720916748,0.025554494932293892,0.11000578850507736,-0.0814794972538948,0.006713744252920151],[-0.13609673082828522,-0.15168137848377228,-0.03821698576211929,-0.015730498358607292,-0.14133380353450775,-0.16676415503025055,0.08369232714176178,0.10084253549575806,-0.0996648520231247,-0.04216871038079262,-0.1105610802769661,0.18787334859371185,-0.03637045994400978,0.22808238863945007,0.05257551744580269,-0.13410578668117523,0.01797318086028099,-0.0950072854757309,0.013370572589337826,0.05375665798783302,0.024762768298387527,0.1469293087720871,0.07237423211336136,0.1864130049943924,0.23870137333869934,0.028098078444600105,-0.09873536229133606,0.3030286133289337,0.08314872533082962,-0.10244232416152954,0.01721949689090252,0.013542300090193748,0.16789314150810242,-0.02657127007842064,-0.05715901777148247,-0.03054671920835972,-0.2592492401599884,0.19005261361598969,0.1887580305337906,-0.10815604776144028,0.1481417864561081,-0.16977570950984955,-0.08060474693775177,-0.0824865773320198,0.042046964168548584,-0.08848594129085541,0.07049517333507538,0.04573618993163109,0.2437569499015808,0.018204089254140854,0.003973911050707102,-0.22069689631462097,0.07400351017713547,-0.12174742668867111,-0.05892524868249893,0.24249179661273956,0.16915972530841827,-0.01791233941912651,0.10937487334012985,-0.06903526932001114,-0.24872830510139465,0.10471737384796143,0.025930998846888542,-0.24195899069309235],[-0.18155626952648163,0.1674659103155136,-0.14942015707492828,-0.20758503675460815,-0.14325837790966034,0.15697738528251648,-0.06881999224424362,-0.11513406038284302,0.15716372430324554,-0.10344135761260986,0.04061470553278923,-0.06882522255182266,-0.05421505123376846,0.13827882707118988,0.08968066424131393,-0.20304040610790253,0.045680686831474304,0.057325780391693115,0.3338012397289276,-0.08324529230594635,-0.19076280295848846,0.026220694184303284,-0.1378941684961319,-0.1938149482011795,0.08218785375356674,0.10038907825946808,-0.12411705404520035,0.03714516758918762,0.19011273980140686,-0.09268058091402054,0.15841098129749298,-0.19544559717178345,-0.18833330273628235,-0.10489674657583237,0.2139296531677246,-0.0003361707495059818,-0.04145113751292229,0.06816759705543518,-0.22811771929264069,0.07695192843675613,-0.1121533140540123,-0.10511401295661926,-0.25240689516067505,-0.1352643221616745,-0.012083305045962334,-0.23642182350158691,0.04249134287238121,0.21859554946422577,0.16762632131576538,-0.0001368736120639369,-0.014269803650677204,0.023840032517910004,0.17257307469844818,0.07022027671337128,-0.013196025043725967,-0.1879970282316208,-0.06482198089361191,-0.10521899908781052,-0.10861972719430923,-0.2082718163728714,0.10421736538410187,0.2413433939218521,0.13024072349071503,-0.035301219671964645],[-0.18015602231025696,0.1413811445236206,-0.04212971776723862,-0.05814402550458908,-0.013317253440618515,0.1329185962677002,0.013245910406112671,-0.07323553413152695,0.05338522791862488,-0.10895020514726639,-0.022159826010465622,0.0115493293851614,0.09226606786251068,-0.1586982011795044,0.03364083915948868,0.22798797488212585,-0.21899357438087463,-0.018200131133198738,0.10950455069541931,0.039218299090862274,-0.0172334685921669,-0.07079217582941055,0.053327348083257675,0.07120455801486969,-0.022606106474995613,0.06368385255336761,0.11902257055044174,0.16620641946792603,0.22436583042144775,-0.21003630757331848,-0.08278767764568329,-0.019823813810944557,0.23665377497673035,-0.13331854343414307,-0.033653948456048965,0.32188066840171814,-0.15176934003829956,-0.2544299364089966,-0.0822553038597107,0.09320425242185593,0.03863922879099846,-0.15795496106147766,0.026312677189707756,0.12397677451372147,-0.09767694771289825,-0.027001017704606056,0.26020705699920654,-0.10532930493354797,0.052288077771663666,0.0594516396522522,-0.33803030848503113,0.08977802097797394,0.0016772083472460508,-0.0023757012095302343,-0.11500485986471176,0.19666728377342224,-0.17394225299358368,0.12550322711467743,0.08950760215520859,0.18963104486465454,0.06040053814649582,-0.08865280449390411,0.19541813433170319,-0.39595481753349304],[-0.16240544617176056,0.13765402138233185,-0.049038831144571304,0.11696875840425491,0.07888329029083252,-0.051908694207668304,0.1882038563489914,0.028591200709342957,-0.04764651879668236,0.04682103171944618,-0.09645678102970123,-0.0016740490682423115,-0.03826339542865753,-0.11024641245603561,0.19394421577453613,0.08094536513090134,-0.13357020914554596,0.1310397982597351,0.07535713165998459,0.13565096259117126,0.013122101314365864,-0.07552981376647949,0.06789590418338776,0.12066832184791565,-0.1478826403617859,0.00980828981846571,0.17412129044532776,-0.09220712631940842,0.054078031331300735,0.14045019447803497,-0.010414582677185535,0.013898991979658604,0.12515006959438324,0.03108886443078518,0.07000263035297394,-0.12201622128486633,0.010089225135743618,0.04816121608018875,-0.1518089920282364,0.0667932853102684,0.05450354143977165,-0.141859769821167,0.11165526509284973,-0.04967436566948891,-0.03579298406839371,0.0766805112361908,-0.04674919322133064,-0.14141467213630676,0.18438227474689484,0.25745171308517456,-0.0915442556142807,0.11681345105171204,0.03957861289381981,0.14735713601112366,-0.012276176363229752,-0.11140193045139313,0.0259501114487648,-0.027692077681422234,-0.039801567792892456,-0.19977766275405884,-0.018140973523259163,0.20985117554664612,0.0888959988951683,0.052354373037815094],[0.2048790156841278,-0.2086045891046524,-0.04453714191913605,-0.20029249787330627,-0.037773534655570984,0.09777326136827469,-0.15948046743869781,-0.007286818698048592,-0.12050479650497437,0.18763144314289093,-0.1349627673625946,0.07056327164173126,-0.033251021057367325,0.053769830614328384,0.07512162625789642,-0.036794692277908325,0.04393738508224487,-0.06883453577756882,0.01108504831790924,0.03604874759912491,-0.05686143785715103,0.0003082154144067317,0.20182587206363678,-0.2316461205482483,-0.19270291924476624,-0.2522571384906769,-0.19235309958457947,-0.11789361387491226,-0.07773912698030472,0.13138939440250397,-0.13325445353984833,-0.22411611676216125,-0.09598809480667114,-0.018312763422727585,-0.044269196689128876,0.0050299824215471745,0.15814711153507233,-0.024148857221007347,-0.0006802039570175111,-0.037796683609485626,0.008014611899852753,0.07285725325345993,0.06437433511018753,-0.123626209795475,0.12407198548316956,-0.06624677032232285,-0.05963830649852753,0.061652813106775284,0.03095856122672558,0.12318538874387741,0.10651875287294388,0.16966795921325684,-0.2254200130701065,0.10868919640779495,0.11256995052099228,-0.027175910770893097,-0.12282874435186386,-0.1093221977353096,0.0029862599913030863,0.01957501284778118,-0.07130227237939835,-0.010581731796264648,0.04035649076104164,0.09543436020612717],[0.05669352784752846,0.08681609481573105,-0.013397503644227982,0.20538955926895142,-0.06642790138721466,-0.15854738652706146,-0.05097900703549385,0.19284339249134064,-0.1548372060060501,-0.15611322224140167,-0.12169967591762543,0.018202591687440872,-0.2617526054382324,0.05364824831485748,-0.05829116702079773,-0.011963394470512867,-0.10682155936956406,0.1403910517692566,0.04964708164334297,0.0006650495924986899,-0.018569882959127426,-0.03490786999464035,0.1910819113254547,-0.006177447270601988,-0.1522681713104248,0.10486204922199249,0.03499576076865196,0.021654818207025528,0.13346464931964874,0.09921226650476456,-0.1526966392993927,0.02427525445818901,-0.08330389857292175,0.03895629942417145,0.09517226368188858,0.03443438187241554,-0.14145055413246155,-0.023581404238939285,0.08948088437318802,-0.11536472290754318,-0.005460401065647602,-0.31298181414604187,0.00730485375970602,0.004703248385339975,0.0613623782992363,0.24251210689544678,-0.0995040312409401,-0.07364069670438766,-0.001303797005675733,-0.04287511482834816,0.08757378160953522,0.026110002771019936,0.252183198928833,0.03719528764486313,0.024424666538834572,0.05703802406787872,-0.12493085116147995,0.06354375183582306,-0.03947743773460388,0.18980605900287628,-0.09246473014354706,0.033128220587968826,0.08666820824146271,-0.08779203146696091],[0.15855549275875092,-0.06314162164926529,-0.03578014671802521,0.2662057876586914,0.09319214522838593,-0.02862914465367794,0.054289866238832474,-0.23918524384498596,-0.05584428086876869,0.021303901448845863,0.09570154547691345,0.07854990661144257,0.10304377228021622,0.1229608803987503,0.0157182477414608,0.19337326288223267,0.09880625456571579,0.10084620863199234,0.1658022254705429,-0.32840800285339355,-0.23906709253787994,0.1345496028661728,0.05069420486688614,-0.2002153843641281,0.0479406975209713,-0.027764929458498955,-0.06569746136665344,0.013843554072082043,0.006090051494538784,-0.18049119412899017,0.211083322763443,-0.009549116715788841,0.10200278460979462,0.013385859318077564,0.20090150833129883,0.03087928518652916,-0.09037221968173981,0.11425783485174179,0.01505505945533514,0.02287442609667778,-0.07290387153625488,-0.18505661189556122,0.06691185384988785,0.0753101035952568,-0.06356346607208252,0.04401259124279022,0.04482360929250717,-0.11722218245267868,-0.29230883717536926,0.09820551425218582,0.05618768185377121,0.031334687024354935,-0.005396146327257156,-0.007227916736155748,-0.3522859513759613,-0.09265763312578201,0.07182176411151886,-0.06721364706754684,0.02680448442697525,-0.03409647196531296,0.02795361913740635,0.0736437439918518,-0.06548731029033661,-0.21827861666679382],[0.1389460265636444,0.18603715300559998,-0.11673782765865326,-0.1071944534778595,0.007918682880699635,0.11942112445831299,0.029500333592295647,0.028709622099995613,0.15689633786678314,0.04202359914779663,-0.10358084738254547,-0.0792161226272583,0.016409726813435555,-0.08828872442245483,0.13581714034080505,0.05573543533682823,0.0899956151843071,-0.1090114638209343,0.12345889955759048,-0.05256337672472,-0.1063898354768753,0.0780058428645134,0.05716116726398468,-0.06413794308900833,0.20513632893562317,-0.010389707051217556,0.003109282348304987,-0.025562088936567307,-0.03813638165593147,0.11214933544397354,0.018937893211841583,-0.03474391624331474,-0.08020693063735962,-0.12628798186779022,-0.21139270067214966,-0.02851920947432518,-0.2189558446407318,-0.15931911766529083,0.002715837908908725,0.1922592967748642,-0.04961983859539032,-0.21453531086444855,-0.10490342974662781,-0.17568771541118622,0.2693670690059662,-0.05072445049881935,-0.2602390944957733,0.20359939336776733,0.17430518567562103,0.14948265254497528,0.07494038343429565,0.053886301815509796,0.01660533994436264,-0.1779441237449646,0.14840221405029297,-0.15984702110290527,0.3442732095718384,0.05942017585039139,0.00698971189558506,-0.30619242787361145,0.20277588069438934,0.09198363125324249,0.0378633551299572,-0.022577693685889244],[-0.020678851753473282,-0.03764710947871208,0.10594267398118973,0.04110081493854523,-0.07849927246570587,-0.17571991682052612,0.14539550244808197,-0.24608086049556732,-0.07270251959562302,-0.10071194171905518,0.08428438007831573,-0.34624427556991577,-0.06806185096502304,-0.2506124973297119,-0.14450179040431976,-0.028031112626194954,-0.0937202125787735,-0.12161224335432053,0.03920727223157883,0.07364924997091293,-0.021976709365844727,0.04438043013215065,-0.08158374577760696,-0.03169317916035652,0.00006965237116673961,0.15536920726299286,0.01524167601019144,-0.13574834167957306,0.2290245145559311,-0.07705079764127731,0.0632070004940033,0.08117574453353882,-0.1484004706144333,0.04133632406592369,0.0614410899579525,-0.05108654499053955,0.015164951793849468,-0.16630128026008606,0.2073294073343277,-0.08016940206289291,0.13698460161685944,0.22426998615264893,-0.15622210502624512,-0.04308673366904259,0.054431963711977005,-0.048951104283332825,-0.1320301741361618,-0.06543024629354477,0.04295272380113602,0.13950799405574799,0.1684889793395996,0.06502149254083633,0.05187803506851196,-0.30272993445396423,0.029348211362957954,0.10500399023294449,0.26392489671707153,-0.4185367524623871,0.06068553030490875,0.057864394038915634,0.09204579144716263,0.1884402483701706,-0.056341592222452164,-0.1278427392244339],[0.14613711833953857,0.12040979415178299,-0.03210386633872986,0.05475364997982979,0.11858005076646805,0.26681068539619446,-0.028704380616545677,0.10175393521785736,-0.009247778914868832,0.22302500903606415,-0.04171406477689743,0.2733442187309265,-0.3263740837574005,0.10487552732229233,-0.0045252032577991486,-0.034134481102228165,-0.22756941616535187,0.12649084627628326,0.1934686303138733,-0.16500386595726013,0.06918622553348541,0.08990758657455444,-0.02432716079056263,0.19042177498340607,-0.1504533588886261,-0.018091175705194473,-0.0579679049551487,0.08357254415750504,0.022420957684516907,0.15273696184158325,0.01359584741294384,-0.1398765742778778,-0.10143782198429108,0.08772188425064087,0.07900579273700714,-0.3434039354324341,0.09399145841598511,-0.014657284133136272,0.07880063354969025,-0.23994183540344238,-0.09414409101009369,-0.06584673374891281,-0.17279274761676788,0.07412675768136978,0.001590796047821641,-0.1191205084323883,0.08576133847236633,0.12277136743068695,0.01975460909307003,-0.1623346507549286,0.04265517741441727,-0.2047484815120697,-0.19434942305088043,0.06414829194545746,0.11185166239738464,-0.02795521169900894,-0.11505039036273956,-0.05828637629747391,0.053412746638059616,-0.06303723156452179,-0.16486825048923492,-0.13159321248531342,-0.11794830113649368,-0.18435825407505035],[0.09309494495391846,0.11369353532791138,-0.13300099968910217,-0.12213223427534103,-0.047066591680049896,0.030601119622588158,-0.19346725940704346,-0.09391586482524872,0.19298498332500458,0.033821288496255875,0.08745092898607254,0.07592117041349411,-0.11712707579135895,0.12044987827539444,0.21590785682201385,0.030775463208556175,0.0650838315486908,0.27343615889549255,-0.027589226141572,-0.16671954095363617,-0.22883282601833344,0.11251592636108398,0.011886637657880783,0.01040672603994608,-0.16396573185920715,0.08803009241819382,0.10054254531860352,0.1224033311009407,-0.03995474427938461,-0.05602986365556717,0.020039325580000877,-0.016100134700536728,-0.20084470510482788,-0.12210643291473389,0.10466166585683823,-0.0527343712747097,0.1829511523246765,-0.04037802293896675,-0.21562795341014862,0.15375562012195587,-0.08483027666807175,-0.100382961332798,-0.06514696776866913,0.18678368628025055,0.23592068254947662,0.08671887218952179,-0.0009596676100045443,0.11762581020593643,-0.09146911650896072,0.1565128117799759,-0.13685062527656555,-0.11159143596887589,-0.01801089197397232,-0.02705647423863411,0.29145675897598267,-0.00586139177903533,-0.0024225921370089054,0.010338086634874344,0.10798671096563339,0.050645019859075546,0.08099870383739471,0.06725668162107468,-0.0031211033929139376,-0.05671669915318489],[-0.18353131413459778,0.05660134181380272,-0.08291567116975784,-0.13097980618476868,0.08309949934482574,0.15065497159957886,-0.0663309320807457,-0.001800848520360887,0.022144434973597527,-0.16608133912086487,-0.04050222039222717,0.06619668751955032,-0.17722384631633759,-0.07823211699724197,-0.21758191287517548,-0.14928185939788818,0.11046123504638672,0.05020274594426155,-0.09775026887655258,0.1372300237417221,-0.055958930402994156,-0.13681082427501678,-0.11206559091806412,-0.010250977240502834,-0.06300434470176697,-0.024762513116002083,0.04018865153193474,-0.00019778010027948767,-0.030492126941680908,-0.018418967723846436,0.21275772154331207,-0.011936438269913197,0.1937909722328186,-0.0002763803640846163,-0.08023281395435333,0.11872339993715286,0.02849324233829975,0.0771259143948555,-0.3054136037826538,0.1989963948726654,0.07528098672628403,-0.18622593581676483,-0.06536491215229034,-0.02900867350399494,0.13004617393016815,0.13876178860664368,-0.14668026566505432,0.09758925437927246,0.2113637924194336,0.08911656588315964,-0.02627606689929962,-0.18532422184944153,-0.1650446355342865,0.0018450055504217744,-0.007184810005128384,0.186850443482399,-0.035853538662195206,0.12713362276554108,-0.10998121649026871,0.012286494486033916,0.17459478974342346,-0.05247864872217178,-0.2236970067024231,0.04630288481712341],[-0.11789003759622574,-0.12513574957847595,0.04867483675479889,-0.03331857547163963,-0.05894309654831886,0.1642257571220398,-0.042916569858789444,0.07906100153923035,0.07142724096775055,0.11734243482351303,-0.08955421298742294,0.07299749553203583,0.29291996359825134,0.019496751949191093,-0.03386026620864868,-0.18447674810886383,-0.026927031576633453,-0.021364761516451836,-0.17888811230659485,-0.012469550594687462,0.24259796738624573,0.07485424727201462,-0.08702344447374344,0.02942335233092308,-0.0007736572879366577,-0.02375156059861183,0.09157881885766983,-0.013299727812409401,0.29084596037864685,-0.13126979768276215,0.006223419215530157,-0.02815062552690506,-0.13881036639213562,-0.06602700799703598,-0.19575217366218567,-0.08190976828336716,0.13058346509933472,-0.22036470472812653,0.20984633266925812,-0.036582499742507935,0.04485947638750076,-0.14015871286392212,0.005020830314606428,0.07107085734605789,0.09867601096630096,-0.01746330037713051,0.02884558215737343,0.09283937513828278,0.06588897854089737,-0.08229874074459076,0.11480440199375153,0.17871622741222382,-0.17747965455055237,0.13677838444709778,-0.012170775793492794,-0.06138310581445694,-0.015999838709831238,0.1398894339799881,0.09244364500045776,0.008444733917713165,-0.027951668947935104,-0.05243565887212753,0.03686303645372391,0.0335208922624588],[-0.11249120533466339,-0.013618542812764645,-0.15550759434700012,0.017698058858513832,-0.06750708818435669,0.02282167412340641,-0.2376042753458023,-0.01997295208275318,0.02078585885465145,-0.04929550364613533,-0.13058769702911377,0.0625658854842186,0.09008082747459412,-0.11560755968093872,-0.09988987445831299,-0.03127752244472504,0.25731751322746277,0.07226596027612686,-0.1083206832408905,-0.1388637125492096,-0.09102490544319153,0.2892894744873047,0.041015610098838806,-0.13318613171577454,0.07524807751178741,0.12795290350914001,-0.07988430559635162,-0.04228183254599571,-0.10204435139894485,-0.1308242231607437,0.1683838814496994,-0.04045059531927109,-0.0435301810503006,-0.019129116088151932,0.020090721547603607,-0.11676992475986481,0.046604450792074203,-0.266763299703598,-0.15592969954013824,0.0655500665307045,0.09440740197896957,0.19197113811969757,0.08051791787147522,-0.19099685549736023,-0.15066543221473694,0.03727760538458824,-0.1548132300376892,0.02607104927301407,-0.17087681591510773,-0.14907556772232056,-0.22351358830928802,0.09771513193845749,-0.1827991008758545,-0.034462571144104004,0.07096169888973236,-0.06793948262929916,0.027024809271097183,0.08353549987077713,-0.13537679612636566,0.11360720545053482,0.053229231387376785,0.0262959823012352,0.1524699330329895,-0.007228179834783077],[-0.07413693517446518,0.21656671166419983,0.21173083782196045,-0.04528801515698433,0.30847954750061035,0.03851146996021271,0.13969950377941132,0.16590504348278046,-0.12785527110099792,0.050740960985422134,0.0223798006772995,-0.04648119956254959,-0.02227267250418663,-0.2105347365140915,0.03158623352646828,-0.015756700187921524,-0.06613115966320038,-0.009763261303305626,0.2390519231557846,-0.06679016351699829,-0.03348921984434128,0.15093567967414856,0.05949678272008896,-0.19560450315475464,0.13968577980995178,0.07282419502735138,0.16201770305633545,-0.12493353337049484,-0.02356071025133133,-0.20111092925071716,-0.10493319481611252,-0.1845967173576355,-0.018576761707663536,0.03522740304470062,0.002282890724018216,-0.072394460439682,0.055512912571430206,-0.07659389078617096,-0.01064138114452362,-0.013531220145523548,-0.0108945332467556,0.22402960062026978,-0.11385331302881241,0.23163683712482452,-0.0666753277182579,-0.2014532834291458,0.23407423496246338,0.17608125507831573,0.11304698884487152,-0.21322067081928253,0.10903606563806534,-0.15021103620529175,-0.11430485546588898,-0.12688252329826355,-0.044629644602537155,0.06222522258758545,-0.08636593818664551,-0.12654773890972137,0.142023503780365,0.06578319519758224,-0.007336901966482401,-0.23335056006908417,-0.06138179451227188,-0.11582081764936447],[-0.10752930492162704,-0.177607923746109,-0.06237153336405754,-0.06288356333971024,-0.1065201386809349,0.20752127468585968,0.23907148838043213,-0.16337282955646515,0.18582801520824432,0.01246913243085146,-0.05262239649891853,-0.1218162477016449,0.019001366570591927,0.1267678290605545,-0.2788955867290497,0.0016958279302343726,0.16248977184295654,-0.1720447987318039,-0.06035805121064186,0.10544662922620773,0.1885552704334259,0.1694270670413971,0.18862515687942505,0.16019105911254883,0.017645709216594696,-0.16866083443164825,-0.23020268976688385,0.11273784935474396,0.09556344896554947,-0.06031174957752228,0.1311843991279602,0.12393856793642044,0.01900472864508629,0.010901018045842648,-0.10906566679477692,0.22765906155109406,0.07426039129495621,0.10179298371076584,0.14546070992946625,0.1014159545302391,-0.10923489928245544,0.01791880652308464,0.02283422276377678,0.007350423838943243,0.024190975353121758,-0.034317877143621445,0.1576516330242157,0.14049085974693298,0.019513476639986038,-0.015848957002162933,-0.1421407014131546,0.01813586615025997,0.12083788216114044,-0.15070012211799622,0.0002484485157765448,-0.05180614814162254,0.004023151472210884,-0.07627876102924347,-0.18362271785736084,0.05567564070224762,0.08338789641857147,-0.08725752681493759,-0.07678694278001785,0.1283816546201706],[0.01157720573246479,-0.008753098547458649,0.018478762358427048,-0.11806534975767136,0.18901227414608002,0.20724724233150482,0.08003244549036026,-0.02072131633758545,-0.09429062157869339,0.08817512542009354,0.11261644959449768,-0.3559204041957855,-0.02745203487575054,-0.26596564054489136,0.03589913249015808,-0.14847230911254883,0.057243701070547104,-0.14957435429096222,0.2705865800380707,0.007754769641906023,0.074466273188591,0.13766524195671082,-0.019458428025245667,0.15764136612415314,0.21404309570789337,-0.12555620074272156,-0.2281590849161148,0.04809504374861717,-0.010382642038166523,-0.1544385850429535,0.08334875851869583,0.024343224242329597,0.18857917189598083,-0.025341525673866272,0.06490856409072876,-0.10298837721347809,-0.022855132818222046,-0.015425114892423153,-0.149976447224617,0.14282318949699402,-0.011758428066968918,-0.11705044656991959,0.05123593285679817,-0.008264580741524696,0.19660815596580505,-0.17758668959140778,-0.047904592007398605,0.14509513974189758,-0.08935188502073288,0.011956666596233845,0.21042320132255554,0.019768845289945602,-0.04253768548369408,-0.038622546941041946,0.10872745513916016,-0.21591630578041077,-0.031663116067647934,-0.0065154205076396465,0.02454080991446972,-0.07670179754495621,-0.1958516538143158,-0.04465937986969948,-0.011457392945885658,0.04729141294956207],[0.07775235176086426,0.08746489137411118,-0.08071722090244293,0.015850292518734932,0.1770240217447281,0.0015043291496112943,-0.12373673170804977,-0.13491955399513245,-0.3640904724597931,-0.03504743054509163,-0.1505889743566513,0.1111588180065155,-0.16502536833286285,0.10377273708581924,0.11525575071573257,-0.10056635737419128,-0.01900986023247242,-0.038857463747262955,0.010625695809721947,0.03889470547437668,-0.009900800883769989,-0.04422915354371071,-0.02427414432168007,-0.045993875712156296,0.08628005534410477,0.03641680255532265,0.027186116203665733,0.07677316665649414,0.02642170339822769,0.05679936707019806,-0.1539764106273651,0.0948236808180809,0.03433706611394882,-0.022308308631181717,0.041122425347566605,0.028776418417692184,0.028964387252926826,-0.07649602741003036,-0.05083487555384636,-0.3134672939777374,-0.07318232953548431,0.06870519369840622,-0.03739441931247711,-0.024273598566651344,-0.06884083896875381,0.08566555380821228,0.06363347917795181,-0.09618905931711197,-0.031622134149074554,0.020377490669488907,0.23496593534946442,0.020775223150849342,-0.1722387969493866,0.03496776521205902,0.008290745317935944,-0.0882229283452034,-0.004057529382407665,0.04296412691473961,-0.058759450912475586,0.21975509822368622,0.016285870224237442,0.22192907333374023,0.07806720584630966,-0.010199951939284801],[-0.0008025997085496783,-0.07572373747825623,-0.036426808685064316,-0.030453244224190712,0.20711928606033325,-0.16959986090660095,0.15232424437999725,0.011747414246201515,-0.010579131543636322,-0.05968829244375229,-0.034921348094940186,0.04692516848444939,-0.04745906963944435,-0.22177469730377197,0.11461187154054642,-0.2073066383600235,-0.022766856476664543,0.2791387736797333,-0.08670983463525772,-0.17295622825622559,-0.2500550150871277,0.1496809422969818,-0.028225935995578766,-0.0010843230411410332,0.08297711610794067,-0.12903332710266113,-0.16736331582069397,0.14979499578475952,-0.07127044349908829,-0.02750268392264843,-0.06080373749136925,0.023677118122577667,-0.005315949209034443,0.11136922985315323,-0.059897251427173615,-0.22306659817695618,-0.00462983688339591,0.0025152191519737244,0.0014023780822753906,0.006148237269371748,0.07875639200210571,0.05998387560248375,0.08794542402029037,-0.2822017967700958,0.10785741358995438,0.003029527608305216,0.11291299015283585,-0.20797008275985718,-0.07414930313825607,-0.09107331186532974,-0.22087205946445465,-0.09078957140445709,0.06085311621427536,-0.06454966217279434,-0.11729352176189423,-0.1008409932255745,0.1875980645418167,0.22102822363376617,-0.1806381493806839,0.14258141815662384,0.07836205512285233,0.18863113224506378,-0.059734176844358444,-0.016106536611914635],[0.033701036125421524,0.12175841629505157,-0.028316130861639977,-0.02159375697374344,0.11240721493959427,-0.09640731662511826,0.1760532110929489,0.12104590237140656,-0.005682389717549086,0.1474975347518921,-0.11007294803857803,0.20440272986888885,0.10246822237968445,0.09647722542285919,0.02920893020927906,-0.08138484507799149,-0.25846588611602783,0.13022159039974213,0.06816791743040085,0.2481011003255844,0.13723722100257874,0.022454379126429558,0.09029507637023926,-0.111289381980896,0.1283448338508606,-0.24144519865512848,-0.17314940690994263,0.07224013656377792,0.05553897097706795,0.09000828117132187,0.008176866918802261,0.13818788528442383,0.21583053469657898,0.022227728739380836,-0.06167947128415108,0.02031773515045643,0.17163266241550446,0.11576564610004425,0.05941624566912651,0.11977788060903549,-0.20393957197666168,-0.09684338420629501,0.026183689013123512,0.010236850008368492,-0.10439791530370712,0.04906729236245155,-0.11324161291122437,-0.13244648277759552,0.012704188004136086,-0.09240269660949707,0.2400096207857132,0.15452784299850464,-0.038918882608413696,0.01144428551197052,-0.006250908598303795,-0.07231123000383377,0.04532667621970177,-0.07500708103179932,-0.042839862406253815,-0.012911325320601463,-0.2015600949525833,-0.003195298369973898,-0.11932983249425888,-0.017881635576486588],[-0.11206492781639099,-0.02264241874217987,0.3544839322566986,-0.23441360890865326,-0.05285695195198059,-0.013257510960102081,-0.041583508253097534,-0.14298516511917114,0.09116257727146149,0.11029645800590515,0.05734836682677269,-0.11162999272346497,-0.07852533459663391,0.009603513404726982,0.13480348885059357,-0.22879093885421753,0.035413339734077454,0.2627298831939697,0.04613026976585388,0.18542590737342834,0.09651509672403336,0.0837341770529747,0.14494673907756805,0.0618680976331234,0.0831071063876152,-0.012668083421885967,0.08054576814174652,-0.07195228338241577,-0.035055484622716904,-0.11013855785131454,0.2135923057794571,-0.23351457715034485,0.05447886511683464,0.05833160877227783,-0.08102069795131683,-0.06950069963932037,0.03165997192263603,0.057879962027072906,-0.02566899172961712,-0.08335400372743607,0.05983707308769226,0.0401691198348999,-0.04404236376285553,0.09904008358716965,-0.022118033841252327,-0.06810131669044495,0.09857827425003052,0.17245350778102875,0.15658526122570038,0.20490239560604095,-0.10464303940534592,0.0012752882903441787,0.00068790273508057,-0.050959907472133636,-0.11837715655565262,0.18590950965881348,0.1616356521844864,-0.06431572139263153,0.002874070545658469,-0.0017971148481592536,-0.0012860640417784452,0.16374696791172028,-0.088718943297863,-0.037066128104925156],[-0.040506720542907715,0.009914133697748184,-0.04151071608066559,-0.05730156600475311,-0.16052764654159546,0.15582473576068878,-0.10281651467084885,0.11671250313520432,0.01823442243039608,0.1127689778804779,-0.07355029135942459,0.002296517137438059,-0.2393500953912735,-0.20589840412139893,-0.08878682553768158,0.1207754909992218,0.038529280573129654,-0.32702961564064026,0.027512554079294205,0.17199526727199554,-0.046172790229320526,-0.1100861132144928,0.063092440366745,-0.11551100760698318,-0.16377732157707214,-0.033143091946840286,-0.14433619379997253,0.01462962944060564,-0.10657043755054474,0.1729556918144226,0.08686617761850357,0.02827977016568184,-0.111350879073143,-0.10052834451198578,-0.05919305980205536,0.10068760067224503,-0.12649379670619965,-0.17891165614128113,-0.02012914977967739,-0.049923282116651535,0.04378420487046242,-0.1376294642686844,-0.00029986060690134764,0.004133462905883789,0.28269949555397034,0.09322284907102585,-0.0653790608048439,0.098252072930336,-0.12600922584533691,0.0016358670545741916,0.04013138264417648,-0.07938184589147568,-0.16061808168888092,-0.06003275141119957,0.15617269277572632,0.03524262085556984,0.054485682398080826,0.08140688389539719,-0.2240947037935257,0.27125218510627747,-0.2030816525220871,0.006863927468657494,-0.04459092393517494,-0.08594635874032974],[-0.030354779213666916,0.0010218506213277578,0.010877792723476887,0.29371318221092224,0.008759884163737297,0.15668053925037384,0.0673016682267189,0.14474214613437653,0.2048744559288025,-0.3556600511074066,-0.030232321470975876,0.07692354917526245,0.16792839765548706,-0.09101972728967667,-0.12419124692678452,-0.00005028364103054628,0.1452045440673828,0.16002845764160156,-0.06629375368356705,0.10347165167331696,-0.11751804500818253,0.1434493213891983,0.11146597564220428,0.1116853728890419,-0.008643374778330326,-0.18684886395931244,0.044034216552972794,-0.23744742572307587,0.08550321310758591,0.07727865129709244,-0.09295820444822311,0.12689749896526337,0.13247743248939514,-0.06250521540641785,-0.15328122675418854,-0.15130770206451416,0.06630559265613556,-0.0344887413084507,-0.13281016051769257,-0.15624092519283295,-0.008666361682116985,-0.30818167328834534,-0.32259401679039,-0.12542103230953217,-0.2827349007129669,-0.03823494911193848,0.09623086452484131,0.2149101197719574,-0.35342273116111755,0.18751835823059082,0.17078518867492676,-0.13294261693954468,0.07379664480686188,-0.03875429183244705,-0.06833714246749878,0.004855733830481768,-0.0027711456641554832,0.07141850888729095,0.17447690665721893,-0.07415739446878433,-0.008432279340922832,0.0682244747877121,-0.04690130800008774,-0.2907537817955017],[0.10762608796358109,-0.13330160081386566,0.1696048527956009,-0.19300416111946106,-0.09020925313234329,0.04748498648405075,0.014034949243068695,0.248466357588768,0.03013724647462368,-0.11127969622612,-0.11871220916509628,0.1388959288597107,-0.14197678864002228,0.07759133726358414,-0.08836755156517029,0.14137396216392517,0.10335219651460648,0.10853447765111923,-0.015849187970161438,-0.052081603556871414,-0.032161664217710495,-0.2459769994020462,-0.08153098076581955,0.12196236103773117,-0.035213589668273926,-0.1015077605843544,-0.1247381642460823,0.07972497493028641,-0.2005600482225418,0.029057377949357033,0.06865286827087402,-0.16053186357021332,0.05810258165001869,-0.17804910242557526,0.0038847692776471376,0.033837269991636276,-0.06480450928211212,-0.1170191764831543,-0.009354003705084324,0.02322469837963581,0.06900613009929657,-0.0329698771238327,0.13742119073867798,0.11417994648218155,-0.00474491436034441,-0.09272944927215576,-0.16524621844291687,0.12055030465126038,-0.042953312397003174,0.2173854559659958,0.21390372514724731,-0.15327738225460052,-0.17972363531589508,-0.05940032750368118,0.25151848793029785,-0.08018116652965546,-0.10585843026638031,0.07859355211257935,0.10294858366250992,0.1780921369791031,0.10817594081163406,0.02786129154264927,-0.022270115092396736,0.0338103361427784],[0.3657339811325073,-0.059693172574043274,0.13677404820919037,0.14508643746376038,0.2084771990776062,0.09350494295358658,-0.05186225846409798,0.15585027635097504,0.17311842739582062,0.04316172003746033,0.14206859469413757,0.02554241009056568,-0.026869185268878937,0.060811739414930344,0.3041098415851593,-0.020876480266451836,0.00316621083766222,0.09220170229673386,0.07321137934923172,-0.04837796837091446,-0.004876409191638231,0.036965467035770416,0.1228589415550232,0.05379025265574455,0.005475064739584923,0.031946733593940735,0.0691409781575203,0.09015859663486481,0.05933760479092598,0.2511102557182312,0.18609899282455444,0.02531999908387661,0.09175921976566315,0.060082342475652695,-0.0017474404303357005,-0.2428407371044159,-0.23095859587192535,-0.24300624430179596,0.11687101423740387,-0.08190213143825531,-0.005142624024301767,-0.018701007589697838,-0.03628916293382645,-0.27312755584716797,0.26667413115501404,0.10695449262857437,0.0258791521191597,0.08667615801095963,-0.13628074526786804,0.06551849097013474,-0.0667390450835228,0.13631223142147064,-0.09849800914525986,0.05913003906607628,0.055954255163669586,-0.05473613366484642,-0.08195867389440536,-0.2417072057723999,-0.25389984250068665,0.18885469436645508,0.10770908743143082,0.1059512123465538,0.0006023832247592509,0.05891244858503342],[-0.07300376892089844,-0.15718021988868713,0.07108278572559357,0.15254220366477966,0.05601772293448448,-0.1484738439321518,-0.02719445712864399,0.06867436319589615,-0.08455438166856766,-0.18182674050331116,0.004814978688955307,-0.07035177201032639,-0.1653951108455658,0.015071354806423187,0.19630415737628937,0.19519856572151184,-0.15257543325424194,-0.05367601662874222,0.07993857562541962,-0.011358015239238739,0.019689826294779778,0.05136675760149956,0.21033841371536255,-0.058697640895843506,-0.03725140541791916,-0.04067240282893181,0.0055240485817193985,-0.19809311628341675,-0.25158748030662537,0.12116546183824539,-0.21641701459884644,0.10283587127923965,-0.050160329788923264,0.11324229091405869,0.11081282049417496,-0.12267719209194183,0.09678275138139725,-0.08037413656711578,-0.038464970886707306,-0.08662954717874527,0.11460743844509125,0.140862375497818,0.12078287452459335,0.05782824754714966,0.05897042155265808,-0.06336481124162674,0.054396092891693115,0.16986754536628723,-0.036966223269701004,0.04093320667743683,0.019931191578507423,-0.022237638011574745,0.061355866491794586,0.06747385114431381,0.07171111553907394,-0.05395715311169624,-0.06544318050146103,-0.1909041553735733,