[[0.002054391661658883,-0.11847001314163208,-0.10179659724235535,-0.0076754470355808735,0.004436730872839689,-0.09427833557128906,0.053437717258930206,0.07057130336761475,0.2822837829589844,-0.06715166568756104,-0.27735552191734314,0.1161479726433754,-0.016150163486599922,-0.21292366087436676,-0.05609419569373131,-0.34038978815078735,0.01538696326315403,-0.276163250207901,-0.19807572662830353,-0.08526511490345001,-0.06811301410198212,0.043461866676807404,-0.1760397106409073,0.08931703865528107,-0.022573474794626236,-0.04909183084964752,-0.02416081540286541,0.09319623559713364,0.1492566466331482,-0.06504448503255844,-0.39077994227409363,0.015963271260261536,0.06622757762670517,-0.2035788595676422,-0.28510919213294983,0.15796732902526855,-0.10329574346542358,-0.2100367695093155,-0.09191139787435532,0.27194923162460327,0.1545771062374115,0.039569344371557236,-0.2548549771308899,0.05135325342416763,0.2511056661605835,-0.2421288937330246,0.047504723072052,-0.4241028130054474,-0.11829748004674911,-0.05123370513319969,-0.22603729367256165,0.28374817967414856,0.06373879313468933,0.10916143655776978,-0.13387805223464966,0.23268386721611023,0.039568327367305756,0.17643392086029053,-0.31658974289894104,0.08140456676483154,0.189765065908432,0.04282105714082718,0.35775434970855713,-0.22759173810482025,-0.3119862973690033,-0.09765210002660751,0.1390237808227539,0.043268606066703796,-0.1648935079574585,0.17919211089611053,0.24076607823371887,-0.0013282925356179476,-0.0597892627120018,-0.19819365441799164,0.3787411153316498,-0.06263216584920883,-0.04892218858003616,0.09440962970256805,-0.02876860275864601,-0.09051697701215744,0.16326305270195007,-0.43649154901504517,0.18533658981323242,0.1224520355463028,-0.27648746967315674,0.1895764172077179,-0.004010836128145456,0.13550816476345062,-0.152187779545784,-0.33757880330085754,0.19430410861968994,-0.21500732004642487,-0.11093005537986755,0.11752209067344666,-0.08334683626890182,-0.03155875951051712,-0.12164492905139923,-0.12554576992988586,0.0016841721953824162,0.09432584792375565,-0.30056506395339966,-0.05394238978624344,-0.012040391564369202,-0.4848449230194092,-0.3595528304576874,-0.16845093667507172,-0.23875176906585693,-0.2888239920139313,-0.025265101343393326,0.24817389249801636,0.0001289739739149809,0.07489538937807083,0.16370059549808502,-0.021841667592525482,0.26920121908187866,-0.03346643224358559,-0.034456342458724976,-0.13048700988292694,-0.018691984936594963,-0.1641768515110016,0.09645050764083862,0.16506753861904144,-0.29029300808906555,0.01675674505531788,0.03534342348575592,0.0029574804939329624,0.12445765733718872,-0.13826866447925568,-0.03824928402900696,0.06906181573867798,0.20319460332393646,0.01114444900304079,-0.0064524998888373375,0.03656965121626854,-0.2000412940979004,-0.2897084951400757,-0.04218205437064171,-0.13818296790122986,0.1643119603395462,0.008296775631606579,0.1649513840675354,-0.010356125421822071,-0.20692305266857147,0.020205408334732056,-0.12440995126962662,0.13248372077941895,-0.017355725169181824,-0.32937827706336975,-0.2293732762336731,-0.09352875500917435,0.18757416307926178,-0.2678697109222412,0.1396702378988266,0.09837067127227783,0.17682631313800812,-0.0560104101896286,0.14595723152160645,-0.25215280055999756,0.15028764307498932,0.022054241970181465,-0.06852667778730392,0.13972364366054535,0.25566908717155457,-0.13684161007404327,0.06714408099651337,-0.020774036645889282,-0.4156375527381897,-0.5440743565559387,0.024023912847042084,-0.06862731277942657,-0.054014869034290314,-0.04839091747999191,-0.010827499441802502,0.09063146263360977,0.04544910043478012,0.04846391826868057,-0.0716225653886795,-0.0597233809530735,-0.1020110547542572,-0.2882790267467499,-0.31914377212524414,-0.10641709715127945,-0.09811793267726898,0.08225499093532562,-0.026012178510427475,0.279201477766037,-0.27204373478889465,-0.1595725417137146,-0.24542151391506195,0.25050196051597595,0.0766022652387619,-0.3977929353713989,-0.07973311096429825,-0.1371297687292099,0.06173231452703476,-0.3303506374359131,-0.09632380306720734,-0.46404674649238586,0.053347326815128326,0.035585302859544754,-0.1461630016565323,0.08603091537952423,-0.07555557042360306,-0.4657132029533386,0.15328451991081238,0.12845173478126526,-0.10261508077383041,0.24044382572174072,-0.2502064108848572,0.00027777341892942786,-0.31399470567703247,0.15135039389133453,-0.2104106992483139,0.02993224933743477,-0.32171663641929626,-0.09387961030006409,0.23402518033981323,0.32394614815711975,-0.25543859601020813,0.014924965798854828,-0.020153220742940903,-0.5082001090049744,-0.08211638033390045,-0.5413429737091064,-0.06348719447851181,-0.17210058867931366,-0.1557353287935257,-0.03615734353661537,-0.08725737035274506,0.376613587141037,-0.2816179394721985,0.22667965292930603,-0.20238886773586273,-0.1264752745628357,0.4643455147743225,-0.06062418222427368,0.08662499487400055,0.32699939608573914,-0.5576651096343994,-0.03403915837407112,0.2890331745147705,0.12348036468029022,-0.17176219820976257,-0.17686492204666138,0.30334705114364624,0.092551089823246,-0.14966605603694916,0.06956985592842102,-0.3438156843185425,-0.11931432038545609,0.05838999152183533,-0.18142163753509521,0.09652963280677795,-0.5461073517799377,-0.05948345735669136,-0.06236252933740616],[-0.48634588718414307,-0.11022105813026428,-0.1159965842962265,0.04453776404261589,-0.0006482603494077921,-0.017091160640120506,-0.21050620079040527,0.3107696771621704,-0.16139915585517883,-0.10066567361354828,0.07566916197538376,-0.06093261018395424,0.22317764163017273,-0.1826605647802353,-0.12398026883602142,0.10571141541004181,-0.19861552119255066,-0.02695128135383129,0.03221126273274422,0.2408938705921173,0.15662342309951782,0.0029326032381504774,0.09399167448282242,-0.2732028067111969,0.08877211809158325,0.23550353944301605,-0.05042927339673042,0.1160125657916069,-0.13961879909038544,-0.04514160752296448,0.23749680817127228,-0.1343606859445572,-0.34700867533683777,0.11262528598308563,-0.0023857508786022663,0.06518248468637466,-0.07177093625068665,-0.22210992872714996,0.029866423457860947,0.14279022812843323,-0.14320074021816254,0.05049262195825577,0.14455851912498474,-0.2699024975299835,0.08895812928676605,0.16322395205497742,0.06672739237546921,-0.22631801664829254,0.006223381496965885,-0.17894883453845978,-0.0839640349149704,-0.021551057696342468,-0.24772518873214722,0.0733065977692604,0.061540450900793076,0.06674178689718246,-0.10200812667608261,0.169404074549675,0.13635997474193573,-0.03362896293401718,0.08759187161922455,0.044541556388139725,-0.0643082931637764,-0.17452602088451385,-0.08129440248012543,0.09445386379957199,-0.058860309422016144,-0.05048316717147827,0.31014302372932434,-0.28892070055007935,-0.019352631643414497,-0.010491819120943546,-0.14554108679294586,-0.0496530644595623,-0.06268543004989624,0.05428396910429001,0.015073426067829132,-0.026303144171833992,0.17985589802265167,0.025785207748413086,-0.17931964993476868,-0.07321806997060776,-0.2458544224500656,-0.12240105867385864,0.12407273799180984,0.06665787100791931,-0.2888801395893097,-0.03648018836975098,-0.1645996868610382,-0.09839354455471039,-0.02352949231863022,-0.04860468581318855,0.0391409695148468,-0.10979700833559036,-0.037838421761989594,0.0010982772801071405,0.19676795601844788,0.2272990643978119,-0.01423870399594307,-0.285908043384552,-0.13914340734481812,0.04628041014075279,-0.43409061431884766,-0.07296110689640045,-0.1982121616601944,0.07705043256282806,-0.175967738032341,-0.21288655698299408,-0.07384342700242996,0.25919991731643677,0.29927676916122437,-0.36859774589538574,-0.34913933277130127,0.15056829154491425,-0.20154936611652374,0.07704944908618927,0.013668699190020561,0.35419130325317383,-0.1704910695552826,-0.001956990687176585,-0.12246093153953552,-0.3446613550186157,-0.05488045513629913,-0.09155235439538956,-0.16251294314861298,-0.019668610766530037,-0.06287063658237457,0.0374038964509964,0.04441410303115845,-0.29379019141197205,-0.001862071454524994,-0.22444558143615723,0.036610983312129974,-0.025820616632699966,0.23940207064151764,-0.10924539715051651,0.13610829412937164,0.0015368848107755184,-0.03673546761274338,0.3490508496761322,-0.02566077560186386,-0.31761619448661804,0.115301713347435,-0.12744122743606567,0.12856051325798035,-0.03626604005694389,0.02350306324660778,0.059428662061691284,-0.06984839588403702,-0.2420133501291275,-0.16599489748477936,-0.035186540335416794,0.12561413645744324,0.10394623130559921,0.19011902809143066,-0.11199846863746643,-0.1544998735189438,0.09801088273525238,0.16643153131008148,0.26275163888931274,0.06389867514371872,0.21007658541202545,-0.27257832884788513,0.17426399886608124,0.056696534156799316,-0.08680737763643265,0.18559642136096954,0.07252901792526245,0.036639727652072906,0.22228455543518066,-0.0920569971203804,-0.2573053538799286,-0.06801708042621613,-0.16694653034210205,0.212957963347435,0.05394308269023895,-0.07063113152980804,0.29718172550201416,0.3720228672027588,0.18892496824264526,-0.021175118163228035,-0.07702159136533737,0.07129500806331635,-0.14024771749973297,-0.02206989750266075,-0.013248431496322155,0.1101478636264801,0.27304384112358093,-0.4145422875881195,-0.02827431820333004,-0.21171186864376068,0.08567087352275848,0.1313437819480896,0.09079181402921677,0.08791820704936981,-0.1906140297651291,-0.15694880485534668,0.1962704211473465,-0.2307041734457016,0.04852275177836418,-0.13372614979743958,0.05277255177497864,-0.11480578780174255,-0.19494128227233887,-0.07682926952838898,0.13650569319725037,0.2960740029811859,0.041549377143383026,-0.023970436304807663,0.25140389800071716,0.3218857944011688,-0.16136936843395233,0.048807669430971146,-0.18087010085582733,-0.26271721720695496,0.12324394285678864,-0.021258654072880745,0.2050728052854538,0.033159445971250534,-0.08089211583137512,0.05840073525905609,-0.09933899343013763,-0.2036757618188858,0.0004163980484008789,-0.06848562508821487,-0.08261967450380325,-0.25085967779159546,-0.15867917239665985,-0.16123701632022858,0.10814010351896286,0.057986821979284286,-0.16598905622959137,-0.08568839728832245,-0.12115133553743362,-0.1506567746400833,0.13363973796367645,-0.004869318101555109,0.3707205057144165,0.012725913897156715,0.23405484855175018,-0.429315447807312,0.09087060391902924,-0.008888655342161655,-0.12039946764707565,0.06562301516532898,-0.02617209404706955,-0.12598152458667755,-0.26242685317993164,0.24090823531150818,0.32464656233787537,-0.23922842741012573,0.0617181621491909,0.40092039108276367,-0.10865776240825653,-0.09825004637241364,-0.1197219267487526],[0.11680325120687485,-0.21321140229701996,-0.39523905515670776,-0.3039163649082184,-0.18584305047988892,0.14924289286136627,0.236672505736351,0.10266117006540298,-0.37217164039611816,-0.07889191061258316,0.17772722244262695,-0.22566425800323486,0.18355248868465424,-0.015451070852577686,0.19054271280765533,-0.10154876112937927,0.09533023834228516,0.008069432340562344,0.1317787617444992,-0.2025051712989807,0.016604702919721603,-0.14016307890415192,-0.06911203265190125,-0.15466932952404022,-0.056501127779483795,0.2309473156929016,-0.1827707588672638,-0.059197474271059036,0.026559969410300255,-0.005864968989044428,0.21196791529655457,-0.013463473878800869,-0.013673059642314911,0.07204408198595047,0.21255776286125183,0.25973963737487793,0.04995962604880333,-0.16555041074752808,0.22114546597003937,-0.1422155499458313,-0.0075517757795751095,-0.33248764276504517,0.04277746006846428,-0.06218883395195007,-0.021512210369110107,0.22680653631687164,0.1561724692583084,-0.17064453661441803,-0.08815284073352814,-0.3864019215106964,-0.034528519958257675,-0.1535632461309433,-0.2512102723121643,-0.3177906274795532,-0.09962880611419678,0.27162107825279236,-0.18145643174648285,0.18796445429325104,-0.26665008068084717,-0.09257414937019348,0.23980650305747986,0.03643687441945076,0.24723875522613525,-0.019020630046725273,0.017507409676909447,-0.0663527101278305,0.15263192355632782,-0.09162896871566772,-0.24678337574005127,-0.20572897791862488,-0.3342568874359131,-0.08346578478813171,0.08575103431940079,-0.14983536303043365,-0.08594093471765518,0.10466409474611282,-0.07927919179201126,0.0342160202562809,-0.2194005250930786,-0.00464220717549324,0.1669573038816452,-0.17624840140342712,-0.08053918182849884,0.04867132008075714,0.014217485673725605,-0.09755584597587585,0.12088898569345474,-0.13802570104599,0.04040950909256935,0.4231818914413452,-0.054354507476091385,-0.13729733228683472,0.11025752872228622,-0.3015376031398773,-0.25789713859558105,-0.0863552987575531,-0.1460217535495758,-0.16606301069259644,-0.002098166849464178,-0.3566054403781891,0.03428078815340996,-0.17849747836589813,-0.13424496352672577,-0.44198375940322876,-0.009448764845728874,-0.2656649649143219,0.11026453971862793,-0.39749962091445923,-0.017611825838685036,-0.21962682902812958,0.17556868493556976,-0.1567869782447815,0.08499418944120407,0.05905095487833023,-0.05313431844115257,-0.05185038223862648,-0.24760355055332184,-0.15299347043037415,0.29018843173980713,-0.04891587793827057,-0.11182911694049835,-0.46121537685394287,0.009908750653266907,0.0467323437333107,-0.4030400216579437,0.12803293764591217,-0.08753007650375366,0.1908109337091446,0.11546705663204193,-0.04982355609536171,0.21800309419631958,-0.2271154671907425,-0.24926762282848358,0.15645720064640045,0.12660011649131775,-0.2093733549118042,-0.36828169226646423,0.09217251092195511,-0.08174167573451996,0.03427493944764137,-0.32405945658683777,0.05587081238627434,0.1821729689836502,-0.0915442705154419,0.21583043038845062,0.08897503465414047,-0.1420697271823883,-0.15021200478076935,0.1572612226009369,0.062080055475234985,0.0016943472437560558,-0.014202237129211426,-0.13042496144771576,-0.12112265825271606,0.01945873722434044,-0.17783211171627045,0.11839129775762558,0.05148690193891525,-0.11582450568675995,-0.0028750598430633545,0.01810944825410843,-0.15187563002109528,-0.09920705854892731,-0.27008917927742004,0.05432315915822983,0.14834685623645782,-0.01015916746109724,-0.02550424635410309,-0.06575164943933487,-0.007104484364390373,-0.1616581380367279,0.26686716079711914,0.08987299352884293,0.16114716231822968,-0.18632762134075165,-0.2008981853723526,0.10234355181455612,-0.06369611620903015,-0.2654702365398407,0.06741935759782791,-0.2303377389907837,0.12002173066139221,0.15810221433639526,-0.14499540627002716,0.01054740697145462,0.07125144451856613,0.45265090465545654,-0.08484380692243576,-0.22652705013751984,-0.21599294245243073,-0.1334531456232071,-0.0029357902240008116,-0.08718313276767731,0.030194398015737534,-0.1765349805355072,-0.32148829102516174,0.03660789877176285,0.10571946203708649,-0.11968384683132172,-0.19707773625850677,-0.06921648979187012,0.2142641693353653,-0.23706558346748352,-0.23403410613536835,-0.23492135107517242,-0.19788148999214172,-0.17052188515663147,-0.17831642925739288,-0.2831694781780243,-0.07066851109266281,0.2354263812303543,-0.15918955206871033,-0.24592548608779907,0.07051476091146469,-0.042218148708343506,0.07596870511770248,-0.4868561625480652,0.08763910084962845,0.14596520364284515,0.027675066143274307,-0.07478709518909454,0.4395695626735687,0.009383540600538254,-0.2377481609582901,0.10142239928245544,-0.1994447261095047,0.33831262588500977,-0.2331417351961136,-0.3478934168815613,-0.043192021548748016,-0.16792002320289612,-0.201761394739151,0.13566981256008148,0.35892242193222046,-0.003624156815931201,0.14290358126163483,-0.3207637667655945,-0.20908193290233612,-0.11304328590631485,0.11941774189472198,0.04125194624066353,-0.39579758048057556,0.11392095685005188,-0.002298855222761631,0.2955467402935028,-0.18790894746780396,-0.060155052691698074,-0.374004989862442,-0.233246311545372,0.17123648524284363,-0.3979744613170624,0.2598927319049835,-0.2843572795391083,0.030574779957532883,-0.16481582820415497,0.0546199232339859],[-0.0009249381255358458,-0.15078625082969666,0.22247475385665894,-0.020752396434545517,-0.27211281657218933,-0.04554956406354904,0.0744527131319046,-0.5129936933517456,0.18401554226875305,-0.14620733261108398,0.026517249643802643,0.16909259557724,0.286487877368927,0.07599280029535294,-0.06961888074874878,-0.07294727861881256,0.07955392450094223,0.005987734068185091,0.44475218653678894,0.09296508133411407,0.12844721972942352,-0.2524380683898926,0.10037048906087875,-0.2878234088420868,0.05434948578476906,-0.050888676196336746,0.03064790740609169,-0.08035604655742645,0.027944831177592278,-0.19986125826835632,-0.2280515879392624,-0.11138160526752472,-0.08404704928398132,-0.25195491313934326,-0.13831785321235657,0.1386694312095642,-0.004125338979065418,0.02968825213611126,-0.22200100123882294,-0.08265978842973709,-0.1583823263645172,0.07812347263097763,0.20836292207241058,0.10905644297599792,0.10667090117931366,0.06560061126947403,0.11854168027639389,-0.0671040490269661,-0.2207231968641281,-0.07838601619005203,-0.003975040279328823,0.05377842113375664,-0.0315738320350647,-0.27782490849494934,-0.16347037255764008,-0.03638957068324089,0.13546618819236755,0.20150423049926758,-0.038239847868680954,-0.14865335822105408,0.287900447845459,-0.2099587768316269,-0.05975157767534256,0.26989713311195374,-0.3665699362754822,0.0892491415143013,-0.2974145710468292,-0.2576177418231964,0.1272963583469391,0.18987061083316803,-0.1682293713092804,0.17133961617946625,0.00808241032063961,0.14798158407211304,0.009362755343317986,0.15597501397132874,0.10352661460638046,0.04680528864264488,-0.005641825497150421,-0.02488543465733528,0.10539579391479492,-0.17315037548542023,-0.3346833884716034,0.23820313811302185,-0.004698542878031731,-0.16204500198364258,-0.07294114679098129,-0.09669137746095657,0.15341471135616302,0.06967093795537949,0.002143880585208535,-0.4590567946434021,-0.15316873788833618,0.19580109417438507,-0.3216129541397095,-0.016612205654382706,0.16788992285728455,-0.010396888479590416,-0.08777958899736404,-0.03293226659297943,0.13566967844963074,-0.16203933954238892,-0.038995493203401566,-0.18469932675361633,-0.26409414410591125,-0.0375395268201828,-0.27457964420318604,0.39282888174057007,0.17402337491512299,-0.16780467331409454,-0.20061469078063965,-0.04026017338037491,0.07821618020534515,0.011460605077445507,-0.06109399348497391,-0.03990505635738373,-0.017315739765763283,-0.03903131186962128,0.13868892192840576,0.06764236092567444,-0.09003480523824692,-0.026790393516421318,-0.07733357697725296,-0.0990021601319313,0.11098572611808777,0.21709419786930084,0.17275550961494446,-0.13630148768424988,0.017970269545912743,0.011258953250944614,-0.1592024862766266,-0.11966229975223541,0.17941735684871674,0.24621708691120148,-0.07490549236536026,0.07674863934516907,-0.21366436779499054,-0.1277582347393036,-0.06402556598186493,-0.11470860242843628,-0.26201578974723816,-0.04219397157430649,-0.05915096402168274,0.015023449435830116,0.006814587861299515,0.34512487053871155,-0.0784006267786026,-0.4495883285999298,0.20760001242160797,0.08687656372785568,0.07322496920824051,0.1226290687918663,-0.16474363207817078,0.22640655934810638,0.06654176861047745,0.12890373170375824,0.13302913308143616,0.0012304361443966627,-0.4363754391670227,0.09190405160188675,-0.0845998153090477,-0.012987542897462845,0.25587087869644165,-0.1300659477710724,-0.17361831665039062,-0.22117310762405396,0.27331092953681946,0.5148012042045593,0.2503848373889923,-0.24858441948890686,-0.3982836902141571,0.17924541234970093,0.12064789980649948,-0.08381533622741699,-0.15915615856647491,0.36965039372444153,-0.019706901162862778,0.10970284789800644,-0.18179281055927277,0.08048999309539795,-0.03630561754107475,0.1002902090549469,0.04116938263177872,-0.5010935664176941,-0.09705400466918945,0.12122958153486252,0.11969926953315735,0.1302051991224289,0.13910822570323944,0.05879746004939079,0.0032746149227023125,-0.20850509405136108,-0.30456748604774475,0.30882564187049866,-0.3895525336265564,-0.08994518220424652,0.10329999029636383,-0.08292976766824722,-0.06543904542922974,0.16513139009475708,-0.001782681792974472,-0.2570776641368866,-0.2481885850429535,0.2241581231355667,0.18341577053070068,0.007976420223712921,0.22132223844528198,-0.11619041115045547,-0.07082575559616089,-0.18996764719486237,-0.39173591136932373,-0.09456087648868561,-0.37826570868492126,0.049851883202791214,-0.28243136405944824,-0.24683424830436707,0.05848584324121475,-0.08319932967424393,-0.3792506754398346,0.04885273799300194,-0.015527263283729553,-0.4206981658935547,-0.006411323323845863,-0.024890996515750885,0.08994992077350616,-0.2581767141819,0.16843582689762115,0.1965952217578888,0.1664070188999176,-0.04400381073355675,-0.04945783689618111,-0.12059010565280914,0.04734140634536743,-0.2510637044906616,0.0013627493754029274,-0.32454222440719604,-0.09500213712453842,0.1415727287530899,-0.19172827899456024,-0.04491998255252838,-0.2608323395252228,0.05121293291449547,0.1464112102985382,0.058412738144397736,-0.24837256968021393,-0.3056454062461853,-0.10181433707475662,-0.051422763615846634,0.009176907129585743,-0.09108638018369675,0.00345323677174747,0.16940732300281525,-0.2324049472808838,-0.15872006118297577,-0.14152111113071442,-0.20860815048217773],[0.2731321156024933,-0.19351254403591156,-0.1259569376707077,-0.09100888669490814,0.2082909792661667,-0.0792708620429039,-0.18448235094547272,0.2213379442691803,-0.12017614394426346,-0.216697558760643,0.19878830015659332,-0.3474111258983612,-0.05387600138783455,0.06108216568827629,0.3045140206813812,-0.12541373074054718,0.006065188907086849,-0.25169044733047485,-0.04660500958561897,0.11890639364719391,-0.20436841249465942,-0.2428581267595291,0.18334932625293732,0.20552311837673187,-0.0971747487783432,-0.1795365810394287,-0.07361739873886108,-0.06649725139141083,-0.009408567100763321,0.006078359205275774,-0.04127494618296623,0.1740083396434784,0.1399417221546173,0.001357321860268712,0.1960120052099228,0.10028175264596939,0.013554638251662254,0.12444476783275604,-0.0711827501654625,-0.05839172378182411,-0.3616931736469269,0.12220603972673416,0.32026639580726624,0.12993355095386505,0.08269527554512024,0.11807195842266083,-0.024292683228850365,-0.05878546088933945,0.21343906223773956,0.2376379519701004,0.1928219348192215,-0.08490722626447678,0.1480410099029541,0.10374541580677032,0.2734544277191162,0.16321250796318054,-0.27149680256843567,0.028200551867485046,-0.10987930744886398,-0.03911362960934639,-0.1416955143213272,0.04200492799282074,-0.06261106580495834,-0.006607094779610634,-0.25067469477653503,-0.13654735684394836,-0.1498461812734604,-0.15535344183444977,0.03255936875939369,0.10218784213066101,-0.002992602065205574,-0.288724809885025,-0.07333739101886749,0.30841749906539917,0.07207808643579483,0.10468785464763641,0.11819081753492355,0.08155640959739685,0.03650631383061409,0.022366248071193695,-0.18698522448539734,0.479044646024704,-0.10222849994897842,-0.2939031422138214,-0.14135754108428955,0.04414497688412666,-0.042367491871118546,-0.09594300389289856,-0.07929649204015732,-0.05695124715566635,0.22618946433067322,-0.12501658499240875,0.014817394316196442,-0.2905611991882324,-0.1277066171169281,-0.17922620475292206,-0.09657038748264313,0.17831218242645264,0.04603802040219307,0.13402493298053741,0.23644311726093292,0.08410578966140747,0.16541367769241333,-0.2442561686038971,0.08713963627815247,0.09390252083539963,-0.13675671815872192,-0.13880719244480133,0.006933072581887245,-0.18241283297538757,0.25759440660476685,-0.03670436888933182,-0.24076341092586517,0.050264906138181686,-0.144515722990036,0.33823448419570923,0.09073596447706223,-0.09372597187757492,0.01800961047410965,-0.04619244113564491,0.10467568784952164,0.21186299622058868,0.07109583914279938,-0.0038672068621963263,0.007083995267748833,0.3152850270271301,-0.17600561678409576,0.14814157783985138,-0.29234763979911804,-0.3221954107284546,-0.09457921981811523,-0.1735706925392151,-0.13249847292900085,0.14529171586036682,0.3565630316734314,-0.06632180511951447,-0.13517966866493225,-0.2982097268104553,-0.12814806401729584,0.09604354202747345,-0.27964362502098083,0.11857862770557404,0.24810156226158142,0.2532949149608612,-0.2671680748462677,-0.1260666847229004,0.09213757514953613,0.1484535187482834,-0.29319190979003906,-0.07124749571084976,-0.046923406422138214,-0.0006084402557462454,0.057161953300237656,-0.031766943633556366,-0.015157635323703289,-0.060295406728982925,0.14058808982372284,0.00043095508590340614,-0.18357668817043304,0.06266015022993088,0.1842581331729889,0.09772665053606033,0.07296116650104523,0.011721973307430744,0.1153702512383461,-0.1410789042711258,0.0550818033516407,-0.07628672569990158,-0.04035930708050728,0.06586111336946487,0.09223324805498123,-0.16241085529327393,0.068168506026268,0.27347898483276367,-0.12086772918701172,0.02146146446466446,-0.02034292370080948,0.08343528211116791,0.15700645744800568,-0.16956579685211182,-0.19943030178546906,-0.0018936952110379934,0.3405178487300873,0.25609344244003296,-0.2700178325176239,0.04100938141345978,0.09358767420053482,0.05749275162816048,-0.2575940191745758,0.006271627731621265,0.14970330893993378,0.12148880213499069,0.09546717256307602,-0.012310370802879333,-0.35398852825164795,0.218043252825737,0.0037251454778015614,0.041595954447984695,0.012476424686610699,0.13982167840003967,0.0004682827275246382,0.006714033894240856,0.14829780161380768,-0.11899168789386749,-0.04781374707818031,-0.31104138493537903,0.11959207057952881,-0.07465742528438568,-0.10823436826467514,0.038218699395656586,-0.06605064868927002,0.0539252944290638,-0.09835638105869293,0.22140541672706604,0.06430479139089584,-0.035938043147325516,-0.053033020347356796,-0.15066540241241455,-0.12429969757795334,0.15594615042209625,-0.3465535640716553,0.20859076082706451,-0.2721160650253296,-0.06604952365159988,-0.3674173355102539,0.17067129909992218,-0.4178151786327362,0.059442222118377686,0.1816764771938324,-0.2021944671869278,0.05806092917919159,-0.005913568660616875,-0.24522188305854797,-0.20141185820102692,0.2032233327627182,0.2995884120464325,0.11131905764341354,0.013788098469376564,-0.06896879523992538,0.11670387536287308,0.0312546044588089,0.5619089603424072,-0.04399532079696655,-0.23469743132591248,-0.018361594527959824,-0.37780672311782837,0.27179595828056335,0.0613773837685585,0.17908991873264313,-0.10442483425140381,-0.10379733145236969,-0.07631956040859222,0.040935613214969635,-0.05268994718790054,0.10330283641815186,-0.025118310004472733],[0.124519944190979,-0.10059910267591476,0.08348853141069412,0.31609269976615906,-0.11186648905277252,-0.032739363610744476,0.1281794309616089,-0.037139762192964554,-0.12292055785655975,0.09629372507333755,-0.26501861214637756,-0.03462029621005058,-0.27504703402519226,0.00646106107160449,0.1519344449043274,-0.09985856711864471,0.21525362133979797,0.011550291441380978,0.31519925594329834,0.1431364119052887,0.3469884395599365,0.1395930051803589,0.02299783192574978,0.02162196859717369,0.06420537084341049,0.1907631754875183,0.033240724354982376,-0.03889104723930359,-0.23936811089515686,-0.27140024304389954,-0.0023010338190943003,0.13682036101818085,-0.13448575139045715,0.021846158429980278,0.0009127482771873474,-0.10902844369411469,-0.19230477511882782,-0.05243212357163429,0.0019030477851629257,0.24021287262439728,-0.16796569526195526,0.06597402691841125,-0.013635598123073578,0.0904545858502388,-0.06747706979513168,0.025476260110735893,0.2501935064792633,-0.18352384865283966,-0.3493076264858246,0.22264105081558228,0.06365228444337845,0.28655916452407837,-0.07129762321710587,-0.2727293074131012,-0.2878754436969757,0.2509242594242096,-0.10183192789554596,-0.0499645434319973,-0.2872799038887024,-0.005652756430208683,0.25747352838516235,-0.20635530352592468,-0.06374780833721161,0.002620458835735917,-0.18885280191898346,-0.311747282743454,0.07789511233568192,-0.2538219094276428,-0.039797645062208176,-0.005075279623270035,0.06181513890624046,-0.014483314007520676,0.12383324652910233,0.30334147810935974,0.045975152403116226,-0.12573882937431335,-0.18001656234264374,-0.09231977164745331,-0.12928776443004608,0.01794746331870556,0.33278706669807434,-0.2227221131324768,0.3468589782714844,-0.23326188325881958,-0.1926928609609604,0.059198737144470215,-0.14925098419189453,-0.18371164798736572,0.11169175058603287,0.20707771182060242,0.272857129573822,-0.1613178849220276,-0.12235911935567856,-0.12746703624725342,0.1837737113237381,0.2683009207248688,-0.10545491427183151,0.2158445566892624,0.235441654920578,-0.13498501479625702,-0.0825740322470665,-0.5137271881103516,-0.00752728246152401,-0.16403299570083618,-0.2364422082901001,-0.11746583878993988,-0.03045971319079399,-0.20075756311416626,0.14313393831253052,-0.01826411858201027,0.2307823896408081,0.11642321199178696,0.022151991724967957,0.07086682319641113,-0.08816418796777725,-0.2803841829299927,-0.16183063387870789,-0.2830111086368561,0.12387019395828247,0.16556768119335175,-0.14838190376758575,0.21791791915893555,0.16338303685188293,-0.039144366979599,-0.2061493992805481,0.07797418534755707,0.03585832193493843,0.015237945131957531,-0.13913941383361816,0.04738156870007515,-0.1384592205286026,0.028876081109046936,-0.01957232505083084,-0.15708380937576294,-0.24250119924545288,-0.10203254967927933,0.07719595730304718,0.06440207362174988,0.13342466950416565,0.008078105747699738,0.12638084590435028,0.1387256532907486,0.1022600457072258,-0.11403951793909073,-0.21627908945083618,-0.37877562642097473,0.17734628915786743,0.21016134321689606,0.3638646900653839,0.20812176167964935,-0.0872887521982193,0.22737132012844086,0.3524625301361084,0.21530570089817047,-0.007407955825328827,0.11444561928510666,0.1913503259420395,0.140987366437912,-0.21272432804107666,-0.1282927393913269,0.25182169675827026,-0.010080107487738132,-0.30166852474212646,0.2165386974811554,-0.202195405960083,-0.2836399972438812,-0.05010326951742172,0.361392080783844,-0.1003827229142189,-0.2651030421257019,-0.16704264283180237,-0.17828011512756348,-0.08754328638315201,0.24026083946228027,-0.08621243387460709,-0.04586847871541977,0.3252161741256714,0.2785050868988037,-0.08871767669916153,-0.12816767394542694,-0.02758035436272621,0.2242693454027176,-0.0715949684381485,-0.10788518190383911,0.28420788049697876,-0.1206931546330452,0.1749911904335022,0.21050593256950378,0.44518545269966125,0.14685958623886108,-0.06313734501600266,-0.0524589829146862,-0.1451147049665451,0.12663915753364563,-0.04625760391354561,-0.027574358507990837,0.04550595581531525,0.18365080654621124,-0.03710618615150452,-0.08517953753471375,-0.3158878684043884,0.07576265186071396,0.38337841629981995,0.17201349139213562,0.13614648580551147,-0.12329810112714767,0.12839965522289276,0.09870642423629761,-0.0052091702818870544,-0.1403612196445465,0.31303566694259644,-0.02757328376173973,0.01668933965265751,0.17653831839561462,-0.017369281500577927,0.07626686990261078,0.15513211488723755,-0.07055927813053131,0.21601983904838562,-0.00739694107323885,-0.20725706219673157,0.27536463737487793,0.20857827365398407,0.1456734836101532,-0.05622529238462448,-0.3736337423324585,-0.0383046418428421,-0.07540534436702728,0.11802573502063751,0.19249413907527924,-0.11976059526205063,-0.16064144670963287,0.005720633082091808,-0.16304798424243927,0.17711181938648224,-0.4285477101802826,0.02459624968469143,0.12485335767269135,-0.5555804967880249,0.2382718026638031,-0.10741467773914337,0.4483073949813843,-0.17470362782478333,-0.35594508051872253,-0.0014238515868782997,-0.11581462621688843,0.20831580460071564,-0.288309782743454,-0.2603495121002197,-0.12193706631660461,-0.1949641853570938,-0.10189064592123032,-0.25359323620796204,0.1720053106546402,-0.20996980369091034,-0.035397619009017944],[0.06509336084127426,-0.0028259900864213705,-0.1902817338705063,0.09140019118785858,0.0708310604095459,0.307794451713562,-0.02265138551592827,-0.1268366575241089,-0.07265835255384445,-0.09326061606407166,-0.025823280215263367,0.38354477286338806,0.16297955811023712,0.12294405698776245,-0.01708180271089077,0.060262057930231094,-0.20254945755004883,-0.11982426047325134,0.10449355095624924,-0.13041773438453674,-0.011821690015494823,-0.16901272535324097,0.05406464636325836,-0.1282341480255127,0.026593808084726334,-0.012134576216340065,-0.041150763630867004,-0.10141163319349289,-0.07563558965921402,0.23337411880493164,0.07937394082546234,-0.13370555639266968,0.0904875099658966,-0.19630078971385956,0.07381074875593185,-0.16327401995658875,-0.22088579833507538,0.06149400398135185,-0.07776171714067459,0.18509623408317566,0.0901045873761177,-0.22971051931381226,0.3570463955402374,0.28372976183891296,0.03341144695878029,0.054255083203315735,-0.12149979919195175,0.09083199501037598,0.1432204693555832,-0.10246549546718597,-0.25026023387908936,-0.46700820326805115,0.27838650345802307,-0.1388513445854187,-0.3183038830757141,-0.05999826639890671,-0.26073551177978516,0.34016871452331543,-0.07791522890329361,0.12568959593772888,-0.1565210521221161,0.06694785505533218,-0.07630086690187454,-0.18168973922729492,-0.285884827375412,0.05235224962234497,-0.30257534980773926,0.10679223388433456,0.148544579744339,-0.18956328928470612,-0.3425728678703308,0.10000345855951309,0.04363709315657616,-0.16787999868392944,-0.11171278357505798,0.30250445008277893,-0.23152455687522888,-0.08792838454246521,-0.16068987548351288,0.1149141788482666,-0.13103163242340088,-0.05593184009194374,-0.22462651133537292,0.06925990432500839,-0.22102847695350647,0.05560366064310074,0.014928731136023998,0.2281310260295868,-0.02381686307489872,-0.39411675930023193,-0.010079022496938705,0.03335293009877205,0.20261867344379425,0.021106746047735214,0.18748992681503296,-0.06789124011993408,0.12927475571632385,-0.227256640791893,-0.134464293718338,-0.0911281555891037,0.100941501557827,0.07318104803562164,0.2647946774959564,0.04184206202626228,0.09304541349411011,0.00015109917148947716,-0.08971641957759857,-0.0940469354391098,-0.01862567663192749,0.0998295471072197,0.03441838547587395,0.0688277930021286,-0.13648462295532227,-0.12228624522686005,-0.178912952542305,0.13741479814052582,-0.20065318048000336,0.04674742370843887,-0.07511447370052338,-0.007715883664786816,0.14905418455600739,-0.2958132028579712,-0.28439709544181824,-0.05061844736337662,0.11826081573963165,-0.17271187901496887,-0.19701538980007172,0.03942762315273285,-0.0726216584444046,-0.1323312669992447,-0.09840425848960876,0.18973733484745026,0.3592434525489807,-0.03799942135810852,0.008093149401247501,0.22577643394470215,0.08088113367557526,-0.16552989184856415,-0.20361466705799103,-0.03559399023652077,-0.059773240238428116,0.10861466825008392,0.11052771657705307,-0.06528028100728989,-0.2594391703605652,0.05624143034219742,-0.1228797435760498,0.03552047908306122,0.03504493460059166,-0.04760696738958359,0.08238977938890457,-0.12810802459716797,-0.08709078282117844,0.16480568051338196,0.030127134174108505,-0.04721638932824135,0.02159471996128559,-0.06128142029047012,-0.06992006301879883,0.15968996286392212,0.1290314495563507,-0.01611749455332756,0.029283568263053894,-0.008508056402206421,-0.13614825904369354,0.09193584322929382,0.23824664950370789,-0.30498793721199036,-0.4631311893463135,0.11791733652353287,0.18647551536560059,0.003119089873507619,0.07190115004777908,0.08997432887554169,0.019549578428268433,-0.09595873206853867,0.026080967858433723,0.007873526774346828,0.02004740945994854,0.3471655547618866,0.09801390767097473,-0.17166753113269806,0.13077715039253235,0.07620314508676529,-0.3713502883911133,0.2994057536125183,-0.07025623321533203,-0.15399597585201263,0.17635568976402283,-0.06943374127149582,-0.20405875146389008,0.051115334033966064,-0.16376623511314392,-0.009460901841521263,0.11720119416713715,0.4399624764919281,-0.042880795896053314,-0.13685289025306702,0.07351373881101608,-0.17025770246982574,-0.006108726374804974,0.31328389048576355,-0.19502584636211395,0.08889342099428177,0.27689865231513977,-0.2230743169784546,0.12764188647270203,0.23913609981536865,0.11258848011493683,0.09666470438241959,0.41943612694740295,-0.3968247175216675,-0.0447859987616539,-0.0738394558429718,0.09780541062355042,-0.11213415861129761,0.24156591296195984,0.04635249450802803,0.11537689715623856,-0.018930215388536453,0.12256885319948196,-0.0819195881485939,0.20808662474155426,-0.26142704486846924,-0.43700408935546875,0.0296971183270216,-0.3260456919670105,-0.06825907528400421,0.10512955486774445,0.03007788583636284,0.1983327716588974,-0.17003706097602844,0.1604309231042862,0.028654174879193306,0.09606324136257172,0.33438998460769653,-0.09316139668226242,-0.07676266878843307,-0.11871222406625748,-0.14487679302692413,-0.028520626947283745,0.1521783024072647,0.07306922972202301,0.09663686901330948,-0.11848381161689758,0.1936631053686142,0.11418542265892029,-0.06446404755115509,-0.2885342240333557,-0.2052696943283081,0.244450181722641,0.0603276863694191,0.39275699853897095,0.013019585981965065,-0.17473363876342773,-0.060458485037088394],[0.053255338221788406,0.10202298313379288,0.10538571327924728,-0.13908810913562775,-0.09049980342388153,0.24883508682250977,-0.04360637813806534,-0.460745632648468,-0.10076046735048294,-0.25260382890701294,-0.0366787351667881,0.25004807114601135,0.09324699640274048,-0.03402072563767433,-0.14354965090751648,-0.3546283543109894,0.14155596494674683,-0.07361394166946411,-0.13959217071533203,-0.3350631594657898,-0.10171276330947876,0.054323960095644,-0.0026433023158460855,0.39590761065483093,-0.23204542696475983,0.03985339775681496,0.1476885825395584,-0.08806896209716797,0.05234971269965172,-0.16602838039398193,-0.16985972225666046,-0.038756582885980606,-0.06994309276342392,0.02497558295726776,-0.11609070003032684,0.040117956697940826,-0.12911845743656158,0.14076636731624603,-0.19411148130893707,-0.16479060053825378,0.08529119938611984,0.1991790384054184,-0.047563586384058,0.20247101783752441,0.08067479729652405,-0.09618724137544632,0.3963254988193512,-0.08702797442674637,0.01820121333003044,-0.2832357883453369,-0.37795257568359375,0.08322025835514069,0.05426127463579178,-0.14566363394260406,-0.06071403995156288,-0.00724922027438879,0.019240159541368484,-0.14499980211257935,-0.06100225821137428,-0.08190647512674332,0.019891545176506042,-0.23112304508686066,-0.048566605895757675,-0.13476060330867767,-0.20635469257831573,0.06852827966213226,-0.4199907183647156,-0.020334504544734955,-0.26816341280937195,-0.2343841791152954,0.13482694327831268,-0.429373562335968,-0.37895265221595764,-0.04824811592698097,0.19175800681114197,-0.1818605363368988,-0.3625190854072571,-0.2550901770591736,-0.044087328016757965,-0.02016693912446499,-0.04499400407075882,-0.11078149080276489,-0.1202877014875412,-0.0862278938293457,-0.11596314609050751,-0.02733164094388485,-0.20294439792633057,-0.17707794904708862,-0.2128220498561859,0.031856708228588104,0.04224974662065506,0.2892490029335022,-0.21028916537761688,-0.050599705427885056,0.015374306589365005,-0.048946939408779144,0.05676047503948212,-0.24042965471744537,0.19794094562530518,0.005774353630840778,-0.15015436708927155,-0.030545823276042938,0.0059705148451030254,-0.02381025440990925,0.14538134634494781,-0.20074671506881714,0.08112170547246933,-0.39125189185142517,-0.3176758885383606,-0.010020477697253227,0.30518701672554016,-0.039573587477207184,-0.1413154900074005,-0.023668386042118073,-0.14724966883659363,-0.03704993426799774,0.24555689096450806,-0.2395920306444168,-0.21057114005088806,-0.21829573810100555,-0.16782107949256897,-0.060694921761751175,-0.08479729294776917,-0.02199660800397396,-0.17065994441509247,0.1446390599012375,-0.17879141867160797,-0.28190377354621887,-0.12361694872379303,-0.1323390007019043,-0.04195481166243553,-0.3078072667121887,-0.0013103210367262363,-0.1219886913895607,0.025548435747623444,0.09555046260356903,0.03519049286842346,-0.2109709531068802,-0.10906267911195755,-0.18376798927783966,-0.09125692397356033,-0.08919671922922134,-0.06675741821527481,0.297329306602478,0.09488794952630997,0.01051537599414587,-0.11236146092414856,0.14736860990524292,-0.2719999849796295,-0.004608685150742531,0.02807380072772503,-0.12012676149606705,-0.007784008979797363,0.03714334964752197,0.2219407707452774,-0.08243007212877274,-0.028258176520466805,0.08975104987621307,0.03299028053879738,0.15965241193771362,-0.22627606987953186,-0.1660568118095398,-0.17708314955234528,-0.11511524021625519,-0.2367798089981079,0.41963905096054077,-0.3018094301223755,-0.1871010959148407,-0.30459579825401306,0.13794828951358795,-0.20533525943756104,-0.18948134779930115,0.008435138501226902,-0.20760799944400787,-0.14304599165916443,-0.05552589148283005,0.04814836382865906,0.017754165455698967,-0.06907334178686142,0.1472087800502777,-0.28281477093696594,-0.06572233140468597,0.016863126307725906,0.07134933769702911,-0.003055147361010313,0.11695434153079987,-0.22726935148239136,-0.1124974712729454,-0.045254770666360855,-0.3176169991493225,0.0203691516071558,-0.1666954755783081,-0.07437004148960114,-0.18595266342163086,-0.13829246163368225,-0.1921192705631256,-0.0350758358836174,-0.17569001019001007,-0.1119174063205719,-0.35483992099761963,-0.40787273645401,-0.10423517972230911,-0.28012463450431824,-0.07498808950185776,-0.058037836104631424,0.02754073217511177,0.021902266889810562,-0.2807535231113434,-0.24653099477291107,0.10616935789585114,0.10344517230987549,-0.0458180233836174,0.27884188294410706,-0.19293756783008575,-0.16170451045036316,-0.06139142066240311,-0.03529541939496994,-0.14204572141170502,-0.30483752489089966,-0.05052810534834862,0.029640385881066322,-0.4110960066318512,-0.012274621054530144,0.06838351488113403,-0.1349702775478363,0.03025662899017334,0.008082465268671513,-0.013119076378643513,0.22984358668327332,-0.016729174181818962,-0.023956146091222763,0.022681470960378647,-0.35015368461608887,0.3202439844608307,0.19848811626434326,-0.04760423302650452,-0.3575156331062317,-0.07875154912471771,0.15392987430095673,0.11868797987699509,0.010190318338572979,0.24423977732658386,-0.2149571180343628,-0.2809395492076874,-0.2757696509361267,-0.171077162027359,0.11777510493993759,0.0792626366019249,-0.28661611676216125,0.018749259412288666,-0.009718410670757294,-0.10092489421367645,-0.16614679992198944,-0.07813328504562378,-0.07101445645093918,-0.2963028848171234],[-0.16255556046962738,-0.1275022327899933,-0.2662141025066376,0.1922224760055542,0.01197537500411272,0.15522617101669312,-0.05378182977437973,-0.05294230952858925,0.15901553630828857,0.33837890625,-0.0004234379157423973,-0.16114582121372223,-0.10946241766214371,-0.07444271445274353,-0.11817920953035355,-0.2561876177787781,-0.01617441140115261,-0.13070136308670044,0.013644165359437466,0.2016933709383011,-0.08671903610229492,-0.1273178607225418,-0.2676577568054199,-0.1706082671880722,-0.010202101431787014,-0.14828582108020782,-0.019963424652814865,-0.04178130626678467,0.3291652202606201,-0.19086456298828125,0.08424888551235199,-0.15128810703754425,0.16777589917182922,-0.2661740779876709,-0.2376309335231781,0.042647864669561386,0.023671457543969154,-0.16734765470027924,-0.13463987410068512,-0.2681511640548706,-0.13606218993663788,-0.12015403807163239,0.02458771876990795,-0.06305056810379028,0.024841997772455215,0.368330180644989,-0.07602497935295105,0.23793742060661316,-0.11237981915473938,-0.16588501632213593,-0.20259325206279755,0.14123930037021637,-0.08842843025922775,0.12968632578849792,-0.2670603394508362,0.26710209250450134,-0.0914849266409874,0.3511320948600769,-0.09881006926298141,-0.3131296634674072,-0.20570997893810272,0.44345492124557495,-0.06391045451164246,0.2699805796146393,0.010620874352753162,0.3536888659000397,0.3752705752849579,0.036123376339673996,0.3391707241535187,0.015185869298875332,0.3811062276363373,-0.12625524401664734,0.01309556420892477,0.34819236397743225,0.13324829936027527,-0.006176561117172241,-0.006408228538930416,-0.1723558008670807,-0.047906506806612015,0.30813175439834595,0.2800033986568451,0.16480322182178497,0.06524543464183807,0.11424630880355835,-0.0994962602853775,-0.02573750540614128,-0.15454699099063873,0.40313205122947693,0.26217886805534363,0.17343313992023468,0.19186878204345703,-0.15668120980262756,0.19968950748443604,-0.20208151638507843,-0.184516042470932,-0.022673148661851883,-0.03934277966618538,0.4653923213481903,0.16042868793010712,-0.02478587068617344,-0.19423364102840424,-0.13124312460422516,0.43610769510269165,-0.1604377031326294,0.0333331860601902,0.3938780128955841,-0.004711374640464783,0.21515227854251862,-0.19347788393497467,-0.08022277802228928,0.18326842784881592,0.2057046890258789,-0.09544143080711365,0.1765046864748001,0.10856892168521881,-0.07550825923681259,-0.18787948787212372,0.2127726972103119,-0.16523507237434387,0.2603386342525482,-0.11326037347316742,0.1665538102388382,-0.09032446891069412,-0.29757368564605713,-0.19703234732151031,-0.07174324989318848,-0.10055118054151535,-0.18411193788051605,0.000786985270678997,0.08836303651332855,-0.35449832677841187,-0.07954587042331696,0.31419384479522705,0.4157932698726654,0.28301802277565,-0.16807684302330017,-0.11463608592748642,-0.23356893658638,-0.33712273836135864,-0.09273234754800797,-0.04200804978609085,0.02572239190340042,0.05219143629074097,0.0035440928768366575,0.1134750247001648,-0.09419608116149902,0.25953397154808044,-0.12846270203590393,0.20064778625965118,0.40060070157051086,-0.046506624668836594,-0.23182246088981628,-0.10957586020231247,-0.03512059897184372,0.26652392745018005,-0.03985648974776268,-0.11068516969680786,-0.11714837700128555,-0.07451291382312775,-0.02036891132593155,0.04430874064564705,-0.39559119939804077,0.025237880647182465,0.3227201998233795,-0.092783622443676,0.20241312682628632,0.18861468136310577,0.056424472481012344,-0.3061141073703766,0.0598716177046299,-0.1672370880842209,-0.19733892381191254,-0.14276698231697083,-0.07074028998613358,0.011009900830686092,0.039497483521699905,0.306040495634079,0.06892271339893341,0.10195118188858032,-0.02198662795126438,-0.0545024499297142,0.26773661375045776,0.14002613723278046,0.06128312274813652,-0.1494661420583725,0.28447702527046204,-0.09004784375429153,0.31799277663230896,0.07764163613319397,-0.30426040291786194,-0.06603412330150604,-0.54222172498703,0.012568079866468906,-0.187236025929451,0.1292351335287094,0.2730429768562317,-0.2945179343223572,0.26330724358558655,0.003766179783269763,0.21345263719558716,0.008313409984111786,0.03950756788253784,-0.08027653396129608,-0.25452396273612976,0.12962549924850464,0.44445502758026123,0.4426249861717224,0.09248668700456619,-0.1017412394285202,-0.04458578675985336,-0.3743104636669159,0.0036634113639593124,0.07886696606874466,0.14782586693763733,-0.26275721192359924,0.011040649376809597,0.03376973792910576,0.045413825660943985,-0.19471943378448486,-0.18080377578735352,0.12096384167671204,-0.08101103454828262,-0.5108271837234497,0.2560156583786011,0.07392199337482452,0.04890376701951027,0.33660420775413513,-0.2889101207256317,0.3984251618385315,-0.23146294057369232,-0.24470937252044678,-0.23603075742721558,0.3901984393596649,0.2641236186027527,0.020830169320106506,-0.3991917073726654,-0.19722822308540344,-0.24234379827976227,0.030291926115751266,0.11571589857339859,-0.12123444676399231,0.15084177255630493,-0.003697729669511318,-0.33198341727256775,0.161626398563385,0.05481291934847832,-0.18012726306915283,-0.2781931757926941,0.025453215464949608,0.22604677081108093,0.32389235496520996,0.27320653200149536,0.5428740382194519,0.4317370653152466,0.11189474165439606,0.04160816967487335],[0.2707155644893646,-0.06192311644554138,0.024266667664051056,0.11418715119361877,-0.15082712471485138,-0.3163142502307892,0.08823709934949875,-0.0025889805983752012,-0.18808504939079285,-0.23281526565551758,-0.26645728945732117,-0.04062957316637039,0.21262429654598236,-0.12991811335086823,0.007361581549048424,-0.45099174976348877,0.03330930694937706,-0.4532686769962311,0.1720711886882782,-0.19408977031707764,0.2652251720428467,-0.33589622378349304,0.15057970583438873,-0.2026786506175995,-0.014277772977948189,-0.03441474586725235,-0.3761458694934845,-0.13982029259204865,-0.24659207463264465,-0.06474632024765015,0.28085392713546753,-0.02525538206100464,-0.49583345651626587,-0.25480198860168457,0.26881545782089233,0.4207308292388916,0.17537805438041687,-0.17737682163715363,-0.16479000449180603,0.1441361904144287,-0.11489766091108322,0.058653783053159714,0.024010678753256798,-0.5308287739753723,-0.3819005489349365,-0.012890874408185482,0.03569667413830757,0.005039893090724945,-0.018762944266200066,0.1998598277568817,-0.19054214656352997,-0.1679154932498932,0.05751258507370949,0.11054033786058426,-0.293366014957428,-0.1782163679599762,0.09541915357112885,-0.2098921686410904,-0.3004823327064514,-0.04264498129487038,0.11204075813293457,-0.2608506679534912,-0.4334366023540497,-0.3800274133682251,-0.1672842800617218,0.16502973437309265,-0.067139632999897,-0.14614273607730865,0.028298798948526382,0.07894400507211685,-0.3305400013923645,0.25155192613601685,-0.18831418454647064,-0.2821924686431885,-0.526080310344696,0.1892518848180771,-0.13564108312129974,-0.2232477217912674,0.05566127598285675,-0.1252366006374359,-0.23739412426948547,-0.28653383255004883,0.0009728734148666263,0.18514202535152435,-0.030102327466011047,0.1765241026878357,-0.22823110222816467,0.2291179597377777,0.10444098711013794,0.05509544536471367,-0.37137916684150696,-0.006022524554282427,-0.01883682608604431,-0.09768684953451157,-0.33566582202911377,0.08847083896398544,-0.27694711089134216,0.1844196319580078,-0.015269103460013866,0.06932894140481949,0.12506192922592163,0.21510478854179382,-0.06015796586871147,0.0483933761715889,0.12472505867481232,0.26762664318084717,-0.2866889536380768,-0.13995607197284698,-0.07269900292158127,0.1703789383172989,0.09305500239133835,-0.2753208875656128,0.013811757788062096,-0.042744338512420654,-0.14877301454544067,0.29717135429382324,0.022929886355996132,-0.016367610543966293,0.04175414890050888,-0.1008344441652298,0.31498247385025024,-0.49437105655670166,-0.07751331478357315,-0.2757895588874817,-0.19598820805549622,0.1177356094121933,0.1657417267560959,-0.33486512303352356,-0.17619438469409943,-0.3002891540527344,0.30811989307403564,-0.05990558862686157,0.25670820474624634,-0.26850786805152893,-0.11462835222482681,-0.07079887390136719,-0.07934632152318954,-0.03935101628303528,-0.222606360912323,0.003503833431750536,-0.13050290942192078,0.002981676487252116,-0.018163034692406654,0.09119872003793716,-0.02921338751912117,0.27366918325424194,-0.042715854942798615,0.08033265918493271,-0.18857742846012115,-0.06761158257722855,0.03279460594058037,0.0037357851397246122,0.018445290625095367,-0.09474901854991913,0.025169674307107925,-0.3079071044921875,-0.1084139421582222,-0.3139384984970093,-0.3748190999031067,0.1825932413339615,0.023668034002184868,0.08766083419322968,-0.02692706324160099,-0.141387477517128,0.3881971538066864,0.2157825082540512,-0.11840291321277618,0.1277346909046173,0.20943115651607513,0.02038075588643551,-0.11469846963882446,0.0000812611760920845,0.06735436618328094,0.031421903520822525,-0.19158942997455597,0.12105605751276016,-0.17894664406776428,0.10531213879585266,0.10311159491539001,0.18242688477039337,0.06881919503211975,-0.35561662912368774,-0.18949775397777557,0.0073721869848668575,-0.09875664860010147,-0.22304300963878632,-0.25267547369003296,0.02232305333018303,0.10666924715042114,-0.26905837655067444,-0.04245254397392273,0.11516089737415314,0.22652092576026917,-0.03600718453526497,-0.23925505578517914,-0.03336517512798309,-0.5947625637054443,0.06769835948944092,-0.1952141523361206,0.1844434291124344,-0.2308858335018158,0.12906517088413239,-0.061440397053956985,0.17606140673160553,-0.0544920489192009,-0.17867234349250793,0.23487718403339386,-0.2116546779870987,0.018665513023734093,0.2425849288702011,-0.07297393679618835,0.01828765496611595,-0.0707688182592392,-0.17947733402252197,0.00826602429151535,-0.04544764757156372,0.08863738924264908,-0.07569991797208786,0.11320810765028,0.17467516660690308,-0.19740332663059235,0.026727277785539627,-0.16678674519062042,0.03807898610830307,0.03505698963999748,-0.09397535026073456,0.09300369769334793,0.08325254917144775,0.12515544891357422,-0.18758660554885864,-0.12125968188047409,-0.34502875804901123,-0.0017754909349605441,-0.4196000099182129,-0.03155321627855301,-0.22410602867603302,0.11008509248495102,-0.2194129377603531,-0.13125602900981903,-0.27821066975593567,-0.08667135238647461,-0.04296198487281799,0.06451024860143661,-0.042809564620256424,0.3038184642791748,-0.0472981296479702,-0.04861535131931305,-0.061114296317100525,-0.08159026503562927,-0.1685752123594284,-0.1071934849023819,-0.06129516288638115,-0.2565459609031677,0.3462976813316345,-0.14751844108104706,-0.12461566179990768],[0.5200152397155762,0.12617088854312897,0.514298677444458,0.0665484368801117,-0.024332478642463684,-0.002121365861967206,0.15087828040122986,-0.07173482328653336,0.2959967255592346,-0.061701495200395584,-0.1047876626253128,0.06618230789899826,0.11782816052436829,-0.1729208379983902,0.005201385356485844,-0.03931551054120064,0.18099267780780792,0.14424020051956177,-0.047908004373311996,-0.14631551504135132,0.12786558270454407,0.06917634606361389,0.0651448667049408,0.08440323919057846,0.014471873641014099,0.1392643302679062,-0.029908327385783195,-0.12253040075302124,-0.12155032902956009,0.1085294559597969,-0.10284769535064697,0.032316334545612335,-0.14365673065185547,0.07260429114103317,-0.09037254750728607,0.01919442042708397,0.034150443971157074,0.48846080899238586,-0.13253004848957062,-0.04175339639186859,0.3286278247833252,0.5335388779640198,-0.054454050958156586,0.07530490309000015,0.04891689866781235,-0.045194827020168304,0.048940081149339676,0.13991592824459076,-0.17024652659893036,0.28609445691108704,-0.23231756687164307,0.24082669615745544,0.007643949706107378,0.049153879284858704,-0.012555078603327274,-0.08349782228469849,0.1985221803188324,-0.019210711121559143,0.25830480456352234,-0.23059514164924622,-0.23626436293125153,0.20521187782287598,0.10538499802350998,0.06464838981628418,0.026865916326642036,0.40021100640296936,0.23881174623966217,0.20942087471485138,0.21202288568019867,0.17859210073947906,0.2950483560562134,0.014729462563991547,0.2563041150569916,0.22739166021347046,-0.1744108945131302,-0.08831541985273361,0.24832211434841156,0.1190047338604927,0.1249803900718689,-0.07406695187091827,0.15416455268859863,0.04537751525640488,-0.05007819086313248,0.10260100662708282,0.12414740771055222,0.4915012717247009,0.122279092669487,0.00815410353243351,0.028346989303827286,0.18455030024051666,-0.2124083787202835,0.10256364196538925,0.04578109830617905,-0.04668838158249855,-0.19063672423362732,0.29165178537368774,-0.08810985088348389,-0.2646319568157196,0.07777607440948486,0.4258585572242737,0.2736643850803375,0.011496881023049355,-0.07880623638629913,-0.047575175762176514,0.0829787328839302,0.19066929817199707,0.01991242729127407,0.20910413563251495,0.0029287172947078943,-0.0075968666933476925,-0.13538500666618347,0.6253108382225037,0.20913666486740112,-0.15608948469161987,0.03601054102182388,-0.0862245187163353,-0.12112073600292206,0.17714162170886993,0.2756555676460266,0.2288726568222046,0.13216449320316315,0.32449057698249817,0.05848037824034691,0.030084269121289253,0.22511790692806244,0.2565150856971741,-0.029526900500059128,0.3410733938217163,-0.28048479557037354,0.2337099313735962,-0.0845930278301239,-0.038256946951150894,0.1107209250330925,-0.05305386707186699,0.17062225937843323,-0.05802203342318535,0.3564123213291168,0.062391117215156555,-0.04319443181157112,0.3277297616004944,-0.056929849088191986,0.1860264539718628,0.2647404372692108,0.1749219000339508,0.19315965473651886,0.05857645720243454,0.5783646702766418,-0.24520374834537506,-0.1277669370174408,0.46792641282081604,0.11197079718112946,0.048787061125040054,-0.10613352060317993,0.1212867870926857,0.16469645500183105,0.3582693934440613,0.09334925562143326,0.19966408610343933,-0.03171638026833534,0.37108874320983887,0.027812087908387184,0.2215462028980255,-0.07729501277208328,0.6852442026138306,0.115826316177845,0.23216523230075836,-0.1861225813627243,0.2032562643289566,0.05620330572128296,-0.1270270049571991,0.04846300184726715,0.008806273341178894,0.5085350871086121,0.12078753858804703,0.06124648451805115,0.051091842353343964,0.13641218841075897,0.2925012409687042,0.28652405738830566,0.02095351368188858,-0.03188784793019295,0.1721324622631073,-0.19517195224761963,0.30996039509773254,0.038445524871349335,-0.19806735217571259,-0.20793581008911133,0.4142569601535797,-0.020870966836810112,0.2153490036725998,-0.03689517080783844,0.32807064056396484,0.300303190946579,-0.12821003794670105,0.39612069725990295,0.019460611045360565,-0.07242786139249802,0.022072630003094673,-0.09805531799793243,0.07127251476049423,0.08835039287805557,0.11615768074989319,-0.056391797959804535,-0.1423664689064026,0.275875061750412,-0.03868696093559265,0.2009940892457962,-0.09685910493135452,-0.04259055107831955,0.019695807248353958,0.16105234622955322,0.00735083781182766,-0.20377562940120697,0.17281146347522736,0.03751186281442642,0.1835569590330124,0.1530570387840271,-0.022734472528100014,0.1002228781580925,0.11086582392454147,0.25855299830436707,0.025579415261745453,-0.2670198678970337,0.028812335804104805,0.128104567527771,0.3022489547729492,0.3453758656978607,0.5575835704803467,0.18252818286418915,-0.11672867089509964,-0.30714088678359985,0.07888317853212357,0.062033943831920624,0.20433644950389862,0.1834029108285904,0.23405683040618896,-0.08489628881216049,0.06162021681666374,0.2665974199771881,0.21729446947574615,-0.2709406614303589,0.003376265987753868,-0.11562611907720566,0.24093878269195557,-0.148551344871521,0.11985641717910767,-0.22552913427352905,0.196334108710289,-0.019765356555581093,0.3483918011188507,0.07266972213983536,0.34288862347602844,0.23864290118217468,-0.06367630511522293,0.23305602371692657,-0.0038493885658681393],[-0.04335615038871765,-0.12367640435695648,-0.26815420389175415,0.32862353324890137,-0.03239401429891586,0.16741999983787537,0.22264112532138824,0.09913692623376846,-0.3812006711959839,0.14037612080574036,-0.21339379251003265,-0.1570342630147934,-0.2695094347000122,-0.3402828574180603,-0.11550775170326233,0.27507075667381287,-0.1619928628206253,-0.4400691092014313,-0.03582765907049179,-0.13679064810276031,0.2525024116039276,-0.32700732350349426,0.016773654147982597,0.17455051839351654,0.15451470017433167,0.05667397752404213,-0.055869679898023605,0.09794226288795471,-0.051140982657670975,-0.1964084655046463,0.13495901226997375,0.3613464832305908,0.1239326223731041,-0.035734232515096664,0.33289283514022827,-0.17471608519554138,-0.12269482016563416,-0.3374926745891571,0.26384446024894714,-0.036117635667324066,-0.0821857899427414,-0.27940940856933594,-0.17958593368530273,0.018781011924147606,0.14317664504051208,-0.1122697964310646,-0.03798798471689224,0.547367513179779,-0.07342763990163803,0.18908970057964325,-0.11259786039590836,0.32307374477386475,0.2571159601211548,-0.321643590927124,0.4663953185081482,-0.11552168428897858,-0.00839455146342516,0.24101091921329498,-0.12534858286380768,-0.2673245370388031,0.05276786535978317,-0.027180226519703865,-0.12164828926324844,-0.10557766258716583,-0.2010863870382309,0.11096900701522827,0.15207906067371368,-0.13532018661499023,-0.24692825973033905,0.232028529047966,-0.10624701529741287,0.07811228185892105,0.25677162408828735,-0.073283851146698,-0.005160041619092226,0.054283369332551956,-0.1463301032781601,0.2474096417427063,0.11134838312864304,0.07381878793239594,-0.19743689894676208,0.26134946942329407,0.25423893332481384,0.38455888628959656,-0.28706640005111694,0.05938783288002014,-0.12704451382160187,0.06558620929718018,-0.0979829877614975,-0.20888984203338623,-0.11917988955974579,0.13421042263507843,-0.2539997696876526,0.15579284727573395,-0.10583946853876114,0.12372558563947678,0.2655864655971527,-0.02072956971824169,-0.08081009238958359,-0.09242279082536697,-0.11596991121768951,-0.12356548756361008,0.2016971856355667,0.025327211245894432,-0.004463121760636568,-0.28265243768692017,0.13254287838935852,-0.1363474726676941,0.0004356200806796551,-0.0861000046133995,0.021394839510321617,0.10588093101978302,-0.024470826610922813,0.5320338606834412,-0.2419479489326477,0.3518364131450653,-0.3424806594848633,-0.10017663240432739,0.1387312114238739,-0.04957718402147293,-0.03378140926361084,0.1278313547372818,0.010746455751359463,0.011124730110168457,0.02460596151649952,-0.3013797700405121,0.25266629457473755,-0.25069552659988403,-0.32944825291633606,-0.3353329002857208,0.15198172628879547,0.10976006835699081,-0.3855116665363312,0.25775936245918274,-0.12289857864379883,-0.3041432201862335,-0.27802008390426636,-0.336132675409317,-0.1285935789346695,-0.27884411811828613,-0.023017490282654762,0.1061939001083374,0.03258692845702171,0.15451356768608093,-0.13225987553596497,0.1689852774143219,0.003475550329312682,-0.00624786177650094,-0.07078734040260315,0.06573379784822464,0.1308514028787613,0.011744914576411247,0.12039884179830551,-0.2414705902338028,-0.023713594302535057,-0.12560702860355377,-0.46405744552612305,-0.11302867531776428,-0.0942680761218071,0.023112516850233078,-0.41542840003967285,0.33514660596847534,-0.13898290693759918,0.1331414431333542,-0.08348209410905838,0.039604026824235916,-0.40783363580703735,-0.2207721471786499,0.11582303047180176,-0.21449053287506104,-0.23371455073356628,0.16644731163978577,0.052854664623737335,-0.03846926614642143,-0.04457952082157135,-0.011515173129737377,-0.005057149101048708,-0.3759879469871521,0.0489998497068882,-0.6424643397331238,0.051363296806812286,-0.30655544996261597,-0.1393333226442337,0.1197599321603775,-0.09690096229314804,-0.1979728490114212,-0.5252865552902222,-0.05920945852994919,0.1426827758550644,-0.20279377698898315,-0.12248744815587997,0.26742228865623474,-0.057828906923532486,-0.30612754821777344,0.09097421914339066,-0.18848566710948944,0.07941471040248871,0.056592907756567,0.19438356161117554,-0.35616955161094666,0.05915648862719536,0.18395602703094482,0.014863370917737484,-0.0921219065785408,0.04425409063696861,-0.22390274703502655,-0.02179212123155594,0.13570988178253174,0.1687505692243576,-0.1854279786348343,-0.006233396008610725,-0.08409415185451508,-0.05017845705151558,-0.24340903759002686,0.20206932723522186,-0.19046439230442047,-0.17212477326393127,-0.18736767768859863,-0.2212645709514618,0.049755919724702835,0.22322477400302887,0.2538464069366455,0.23838289082050323,0.040726326406002045,0.06580199301242828,0.18125787377357483,0.06646989285945892,0.07986335456371307,-0.24810360372066498,-0.04767705127596855,0.2236759066581726,-0.031181994825601578,0.06674572080373764,-0.05891400948166847,0.13325919210910797,-0.05226752161979675,-0.48123690485954285,0.10770149528980255,-0.12889529764652252,0.061293065547943115,0.06322311609983444,-0.22817926108837128,-0.36415666341781616,0.3738052248954773,0.10788868367671967,0.5840845704078674,0.15132328867912292,-0.37645989656448364,-0.13002443313598633,-0.14628469944000244,0.004700028337538242,0.011000962927937508,-0.13867156207561493,-0.24402914941310883,-0.06198373809456825,0.021057868376374245],[0.011503022164106369,-0.015358027070760727,-0.007447415962815285,0.01964593306183815,0.005406536161899567,-0.10690141469240189,0.0290097463876009,0.12697100639343262,-0.44791582226753235,-0.14459051191806793,-0.027876200154423714,-0.11157543212175369,-0.19269749522209167,-0.06936004757881165,-0.20409202575683594,0.14834092557430267,-0.2610221803188324,-0.1459287852048874,-0.21268466114997864,-0.22532658278942108,-0.13113421201705933,-0.013989103026688099,0.07374600321054459,-0.13026179373264313,0.05886123701930046,-0.33614009618759155,0.020394740626215935,0.3812748193740845,-0.10841603577136993,-0.19858714938163757,0.08434264361858368,-0.10279634594917297,0.20371904969215393,0.33018314838409424,0.4313755929470062,0.29353126883506775,-0.04876731336116791,0.37318000197410583,0.11724720150232315,-0.27533480525016785,0.16881980001926422,-0.04991835728287697,-0.24993151426315308,0.19671210646629333,-0.26194900274276733,-0.15664593875408173,0.10723906755447388,-0.06831102818250656,0.29353898763656616,-0.2566663920879364,-0.1844862997531891,0.05918094515800476,0.04109712317585945,0.11664444953203201,0.12553872168064117,0.00032868090784177184,0.20796944200992584,0.09969238191843033,0.0850529819726944,-0.0196576826274395,-0.2365662157535553,0.019570650532841682,-0.1453780084848404,-0.04365730285644531,-0.03861948847770691,0.013660799711942673,0.011970192193984985,0.1720799207687378,-0.3310184180736542,0.15360510349273682,-0.0016709720948711038,-0.33989763259887695,0.18177132308483124,-0.2349119931459427,-0.08441530913114548,-0.11707649379968643,-0.14053697884082794,-0.26037082076072693,-0.14429615437984467,-0.025788554921746254,-0.3803330361843109,-0.02130468562245369,-0.34928056597709656,-0.1356564313173294,-0.16135896742343903,-0.18723447620868683,-0.33050471544265747,-0.16238731145858765,0.11098100244998932,0.39778104424476624,-0.3019179403781891,-0.19652988016605377,-0.001116977771744132,0.21452048420906067,0.21261636912822723,-0.08077355474233627,-0.1641743779182434,0.0067456504330039024,-0.015463683754205704,-0.43036559224128723,-0.04392118752002716,-0.23445472121238708,0.23945929110050201,-0.29828551411628723,-0.0015455880202353,-0.21973153948783875,-0.17938733100891113,-0.1438208818435669,0.06497368216514587,-0.35103127360343933,-0.0644475445151329,-0.21833597123622894,0.44604119658470154,-0.02983778342604637,-0.12623819708824158,0.01554855052381754,-0.014759794808924198,0.08380167186260223,-0.11698754876852036,-0.03223453089594841,-0.26247119903564453,-0.44160622358322144,-0.04337640851736069,-0.18991777300834656,0.6132408976554871,0.06783989816904068,0.13390399515628815,-0.2150425761938095,-0.22825634479522705,-0.15537139773368835,-0.08984176069498062,-0.31005194783210754,0.06099916622042656,-0.0776473879814148,0.29717057943344116,-0.13091878592967987,0.022244084626436234,-0.0012661641230806708,0.01582266576588154,-0.1660148799419403,0.28523293137550354,-0.1794859617948532,-0.13039517402648926,0.3708873987197876,0.014638087712228298,-0.14447185397148132,0.07386819273233414,-0.07817455381155014,0.1120462715625763,-0.09801112860441208,0.08523877710103989,0.03656717389822006,-0.29259124398231506,-0.16453146934509277,0.1715860664844513,-0.09744331985712051,0.15458938479423523,-0.541035532951355,-0.10079656541347504,-0.3338995575904846,0.04172886535525322,-0.10759007930755615,0.19093236327171326,0.12219196557998657,0.07859009504318237,-0.2702358663082123,-0.2593109607696533,0.33893290162086487,-0.21493194997310638,0.05594194307923317,-0.12995794415473938,-0.06119398772716522,0.14514383673667908,-0.14660567045211792,-0.06600673496723175,-0.1601897031068802,-0.3355022668838501,-0.05042440816760063,0.2591634690761566,0.07907608151435852,-0.11856672912836075,-0.38223838806152344,0.16245445609092712,-0.36566081643104553,0.2651686668395996,0.3548292815685272,-0.20537705719470978,0.03722020983695984,0.021678604185581207,0.04979527369141579,0.19302813708782196,-0.13868661224842072,0.24146610498428345,-0.19029314815998077,0.16542372107505798,0.04076620191335678,-0.09742747992277145,-0.5837904214859009,0.0634070485830307,0.14591802656650543,0.14935064315795898,0.14087937772274017,0.12176129966974258,-0.06064829230308533,0.04111252352595329,-0.1787714958190918,0.0768599733710289,-0.011296309530735016,0.046707041561603546,0.014882687479257584,0.07307224720716476,-0.2001057118177414,0.04080331325531006,-0.08558546751737595,-0.22171802818775177,0.09549775719642639,0.06680268794298172,-0.13365665078163147,0.1159372553229332,0.11258570849895477,0.031952716410160065,-0.24056662619113922,0.10568325221538544,-0.5219736099243164,0.28760629892349243,-0.2879762351512909,0.046401459723711014,0.0525101013481617,-0.21857818961143494,-0.14406614005565643,0.22016851603984833,0.17741024494171143,-0.14331761002540588,-0.09354723244905472,-0.2699083983898163,0.26694485545158386,-0.27172645926475525,0.11809394508600235,-0.010045565664768219,-0.3208962380886078,0.1416347473859787,-0.13197952508926392,0.20610693097114563,0.06979534029960632,-0.17023645341396332,-0.3325967490673065,-0.17415174841880798,-0.3103492259979248,-0.14081571996212006,0.07559941709041595,-0.07257921248674393,0.2912498414516449,0.21666410565376282,-0.07962272316217422,-0.16183142364025116,-0.295063853263855],[-0.05138735473155975,-0.008196469396352768,0.29772600531578064,-0.09497468918561935,-0.20413124561309814,0.15098774433135986,0.03590571507811546,0.12483827769756317,-0.09992409497499466,-0.14705011248588562,-0.1301119327545166,0.2355649620294571,-0.09179377555847168,0.28372615575790405,0.19007043540477753,0.09659146517515182,0.1166614517569542,-0.0564621165394783,-0.15246327221393585,-0.016930118203163147,-0.029835103079676628,0.012144497595727444,-0.18334443867206573,0.23631668090820312,0.05694938823580742,-0.02218921296298504,-0.2778289020061493,-0.17325031757354736,-0.1897134780883789,-0.07825184613466263,-0.05929582566022873,-0.07969902455806732,-0.07300574332475662,-0.1942855268716812,0.0031782418955117464,-0.2632799744606018,0.15649771690368652,0.1668313592672348,0.17529310286045074,-0.13913041353225708,0.08489838987588882,-0.3224371373653412,0.03129412233829498,0.03528834134340286,-0.014354828745126724,-0.03343665972352028,0.024332299828529358,-0.060664840042591095,-0.09488977491855621,0.11676886677742004,-0.15263055264949799,0.18310220539569855,0.2584488093852997,-0.21497012674808502,-0.0015608083922415972,-0.04146893322467804,-0.03428150340914726,-0.11323948949575424,-0.026579948142170906,-0.35610872507095337,-0.11368577927350998,0.11566285789012909,-0.05342891812324524,0.10621161013841629,-0.12350273877382278,0.012303866446018219,-0.10569317638874054,-0.27713730931282043,0.2707117795944214,0.14567376673221588,-0.12286213040351868,-0.003000905504450202,0.0029854197055101395,-0.3472645878791809,-0.09025971591472626,-0.046701397746801376,0.22238874435424805,0.11036474257707596,0.1869329810142517,-0.368495911359787,0.013851406052708626,-0.01724873296916485,-0.29635947942733765,0.11302737146615982,0.11559542268514633,-0.3083557188510895,0.1499752700328827,0.28487029671669006,0.019086536020040512,-0.17158974707126617,0.10642316192388535,-0.3913068175315857,0.2798501253128052,0.19058391451835632,-0.5808092355728149,-0.07409977167844772,-0.1998128592967987,-0.14811275899410248,0.05871538445353508,-0.23002217710018158,-0.06054281070828438,0.2091614305973053,0.3603951632976532,0.06416929513216019,-0.013869579881429672,-0.2278910130262375,0.16707925498485565,-0.2973369359970093,-0.04110625386238098,0.013413731008768082,0.03788217902183533,0.1877519190311432,-0.5680773258209229,-0.09325429052114487,-0.11229760944843292,-0.3580591380596161,-0.04098108038306236,-0.6216375827789307,0.07489065825939178,-0.11389008164405823,0.07924370467662811,-0.07180961221456528,-0.31885626912117004,-0.13352110981941223,-0.11004257202148438,-0.22417691349983215,0.1202181950211525,-0.24017374217510223,-0.18530996143817902,-0.08612500131130219,0.16523174941539764,0.0474974662065506,0.1731104552745819,0.2870640158653259,-0.1271122545003891,-0.19196176528930664,0.07202544063329697,-0.14876241981983185,-0.015696194022893906,0.19957594573497772,-0.14275860786437988,-0.25499847531318665,-0.22421695291996002,-0.21206557750701904,0.1856490969657898,-0.22896331548690796,0.055855970829725266,-0.11741936206817627,0.10590344667434692,-0.20092988014221191,0.06759748607873917,0.02604580670595169,0.08061620593070984,0.015882333740592003,-0.22583597898483276,0.050542835146188736,-0.18831190466880798,-0.27912354469299316,-0.1554323434829712,-0.168795645236969,-0.2617539167404175,-0.21527104079723358,-0.052726179361343384,-0.09277511388063431,-0.032031238079071045,-0.18006399273872375,0.17116685211658478,-0.1590767800807953,-0.21739070117473602,-0.11066034436225891,-0.04698906093835831,-0.2388596087694168,0.15693804621696472,0.02371506206691265,-0.05090740695595741,-0.031345970928668976,0.16027657687664032,-0.4540354311466217,-0.20988599956035614,0.029581407085061073,0.01709229126572609,-0.1368187516927719,0.06902322173118591,-0.2683638334274292,0.16209949553012848,0.182967871427536,0.16188779473304749,-0.01955532096326351,-0.11582563817501068,-0.06038450822234154,-0.37087178230285645,0.05315917357802391,-0.2646866738796234,0.17561019957065582,0.11650002002716064,-0.08212370425462723,-0.46274590492248535,0.08502232283353806,-0.056666526943445206,0.024881841614842415,0.14774197340011597,-0.03942013159394264,-0.20518571138381958,0.0610598661005497,0.18760234117507935,0.3083932101726532,0.3146255910396576,0.10715590417385101,-0.06402429938316345,-0.2732924818992615,-0.049560073763132095,-0.10799450427293777,0.014244243502616882,-0.041807565838098526,0.12059573829174042,0.36828291416168213,0.1045379638671875,-0.17206257581710815,0.04761360585689545,-0.010406949557363987,0.1581929624080658,0.07577250897884369,0.28538015484809875,-0.21837441623210907,-0.28468558192253113,-0.04621158912777901,-0.19695383310317993,-0.1052510142326355,0.19466641545295715,-0.2053765207529068,-0.21540242433547974,-0.09260901063680649,0.0893583595752716,0.050769004970788956,-0.1937684714794159,0.11743161082267761,-0.2209639698266983,-0.07317639142274857,-0.11625462025403976,0.16391567885875702,-0.11140048503875732,-0.1212010458111763,-0.02898535132408142,0.12338265776634216,-0.12104463577270508,-0.25454050302505493,0.12429971247911453,-0.1886061131954193,-0.04785018786787987,0.13396985828876495,-0.07411415874958038,0.031360555440187454,-0.07849089801311493,-0.10535120218992233,-0.1811944842338562,0.11494479328393936],[0.08274637162685394,-0.08627983182668686,-0.023833036422729492,-0.11154462397098541,0.06102154776453972,-0.0890812873840332,0.15390393137931824,-0.26086097955703735,0.06493416428565979,-0.0016279242699965835,-0.012054064311087132,-0.05075053125619888,-0.08325862139463425,-0.34022197127342224,-0.10821936279535294,-0.08420722931623459,0.035456787794828415,-0.07047317922115326,0.21070735156536102,0.006053513381630182,-0.028518248349428177,-0.15260329842567444,-0.11220129579305649,0.22743135690689087,-0.1379302591085434,0.4638051390647888,-0.037061452865600586,-0.26966747641563416,-0.13006964325904846,-0.014616196975111961,-0.23359860479831696,-0.043853502720594406,-0.1493731290102005,0.3778754472732544,-0.03343072533607483,-0.07226362079381943,0.11431843787431717,0.13665422797203064,-0.04367548227310181,0.153227761387825,-0.08185744285583496,-0.1961018443107605,0.023930104449391365,0.16074135899543762,0.23131656646728516,0.12945877015590668,-0.12588471174240112,-0.11005378514528275,-0.01274737250059843,0.08771742880344391,-0.12501031160354614,0.14366942644119263,0.07443736493587494,-0.06632038205862045,0.36538049578666687,0.32134079933166504,-0.1462688446044922,0.1052301824092865,-0.04798148572444916,0.015549710020422935,0.11667045950889587,0.048960957676172256,-0.015098725445568562,-0.03860156238079071,-0.0721639096736908,-0.34771206974983215,-0.019276143983006477,-0.26639097929000854,-0.164875328540802,-0.01655500940978527,-0.11927096545696259,-0.32757681608200073,-0.07867325842380524,0.21006272733211517,-0.09557840973138809,-0.07693525403738022,-0.10420481115579605,-0.06865771859884262,0.14673928916454315,-0.04582468047738075,-0.08653243631124496,-0.1802719384431839,0.08529417961835861,-0.17150597274303436,-0.001693022670224309,-0.2997210919857025,-0.2059016078710556,-0.003981158137321472,0.2691951096057892,0.18723957240581512,0.025961983948946,0.007901954464614391,-0.0003785576263908297,0.20940850675106049,-0.2022293657064438,0.11532442271709442,-0.34619811177253723,0.03455010801553726,0.015431550331413746,0.07504518330097198,-0.013367263600230217,0.1427311897277832,-0.07516375184059143,-0.14419765770435333,0.007097417023032904,-0.04583103954792023,0.03132661059498787,-0.035286277532577515,-0.3738349378108978,-0.15905113518238068,-0.1023276299238205,0.05198545753955841,-0.1954570710659027,-0.15004275739192963,0.024412965402007103,0.10602910816669464,-0.02155432477593422,0.19838480651378632,0.06791158765554428,-0.3869868516921997,-0.007923048920929432,0.031248293817043304,-0.25586047768592834,0.3451310992240906,-0.30233973264694214,-0.24163928627967834,0.039942845702171326,-0.04267403110861778,-0.10053487122058868,-0.21197400987148285,-0.27679553627967834,0.1760268360376358,0.21606984734535217,0.1347416639328003,0.0784730538725853,-0.4209745228290558,0.052252598106861115,0.1448606252670288,0.08391284942626953,-0.14632612466812134,0.0012202149955555797,0.27584561705589294,-0.15220992267131805,-0.2154923677444458,-0.10050623118877411,0.0073025827296078205,-0.472116082906723,-0.23810115456581116,-0.03227849304676056,-0.13423745334148407,-0.021000714972615242,-0.08888978511095047,-0.24694107472896576,-0.17104318737983704,0.07951784133911133,0.043991569429636,-0.26360219717025757,-0.28848797082901,-0.09849558025598526,-0.023706907406449318,-0.40387994050979614,0.08989269286394119,-0.20968784391880035,-0.23646289110183716,-0.3643292784690857,0.011010237038135529,-0.1457337737083435,-0.2241356074810028,-0.3083033263683319,-0.23157170414924622,-0.3270714282989502,-0.039094503968954086,-0.04546526446938515,0.4722459018230438,-0.20262520015239716,0.12503819167613983,0.28265684843063354,-0.04713423550128937,0.055004604160785675,0.09001336246728897,-0.09326954931020737,-0.18870699405670166,-0.05119040235877037,-0.04797796905040741,-0.26600486040115356,-0.08876499533653259,-0.14691023528575897,-0.2105216085910797,0.06783099472522736,-0.3682953119277954,-0.2506992518901825,0.007405866868793964,0.16098155081272125,-0.2087225615978241,0.0757155641913414,-0.1752021461725235,-0.19791652262210846,-0.14096054434776306,0.05444743484258652,-0.2205972522497177,0.36303892731666565,0.057992711663246155,0.23274622857570648,0.03217471018433571,-0.09177034348249435,0.2517096996307373,0.01519702933728695,-0.060734402388334274,0.44694897532463074,-0.001110736047849059,0.10327571630477905,-0.16559089720249176,-0.11666642874479294,-0.3470630347728729,0.06400274485349655,0.19697916507720947,-0.20902448892593384,0.0014657543506473303,-0.1208253726363182,-0.03594649210572243,0.11362604796886444,0.3198550343513489,-0.3346731960773468,0.19582189619541168,-0.4324691593647003,0.07922326773405075,0.11036311089992523,-0.10681138932704926,-0.19870221614837646,0.29924601316452026,-0.294336199760437,-0.3218388855457306,0.05938081815838814,0.03853266313672066,-0.1149880513548851,-0.2540941536426544,-0.031088050454854965,-0.11892697215080261,-0.1895449012517929,-0.34963563084602356,-0.15864500403404236,-0.11003123223781586,-0.3760155737400055,-0.09827777743339539,0.27114227414131165,-0.08393428474664688,-0.03329405561089516,0.12285435944795609,-0.14031994342803955,0.00956681277602911,0.13690565526485443,-0.204950213432312,-0.1389969438314438,0.029894499108195305,0.12536154687404633,-0.2127910554409027],[-0.13810735940933228,0.6151543855667114,0.03837050497531891,-0.21574173867702484,0.12440358102321625,-0.35936757922172546,0.10625804215669632,-0.00139752053655684,0.04758719354867935,-0.3554684817790985,0.2152731716632843,-0.02748049795627594,-0.12305790930986404,-0.12562942504882812,-0.3602248430252075,0.046135254204273224,-0.051241833716630936,0.04787490516901016,-0.015192462131381035,0.035393163561820984,-0.12091857194900513,-0.07470214366912842,-0.03346031904220581,-0.18844643235206604,0.15775363147258759,0.10772570222616196,0.051121681928634644,0.12060566246509552,0.04345947131514549,0.07099789381027222,0.033848073333501816,-0.04990241304039955,0.16758345067501068,-0.10856803506612778,0.22501222789287567,0.018756601959466934,-0.14767543971538544,-0.17080098390579224,-0.06771937757730484,0.4154278039932251,-0.2975239157676697,-0.0004273675149306655,-0.13984140753746033,0.0330103300511837,0.13740728795528412,0.31172695755958557,-0.2846062183380127,-0.05919590964913368,-0.30665862560272217,-0.06394734233617783,0.16785484552383423,-0.2732826769351959,-0.04975346475839615,0.042908281087875366,-0.1842806339263916,-0.062480755150318146,-0.5110164880752563,0.04243043065071106,-0.16617313027381897,0.17184408009052277,-0.015313051640987396,-0.05274896323680878,-0.12357113510370255,-0.3267389237880707,0.05779033154249191,-0.24550573527812958,0.015265997499227524,-0.06764756888151169,-0.17309848964214325,0.021021487191319466,0.14840085804462433,0.12954048812389374,-0.6268541812896729,0.28654322028160095,0.17979073524475098,-0.16094925999641418,-0.004505706951022148,-0.10977397859096527,0.006805549841374159,0.18274356424808502,0.0643671452999115,-0.1717834174633026,0.07726108282804489,-0.23059284687042236,-0.19588464498519897,-0.16155126690864563,0.051186658442020416,0.05381261557340622,-0.2768324315547943,0.24422039091587067,0.2764127254486084,-0.2569575905799866,-0.05573923513293266,0.12266489118337631,0.003066055476665497,-0.16477879881858826,-0.021923907101154327,0.08601062744855881,0.550163745880127,-0.2487880438566208,0.13181188702583313,-0.03868729621171951,0.11000001430511475,0.04752387851476669,0.13322220742702484,0.2574010193347931,-0.160734623670578,0.10973106324672699,0.12956440448760986,-0.3638775646686554,-0.18615186214447021,0.2241963893175125,-0.13755680620670319,0.06354513764381409,0.04000890627503395,-0.28559771180152893,-0.14871592819690704,0.2507212162017822,0.014829091727733612,0.12997132539749146,-0.08355589210987091,-0.1670553833246231,0.5178186893463135,-0.07025906443595886,-0.22994382679462433,0.2750564217567444,-0.023288564756512642,0.004492630250751972,-0.03640948235988617,0.06780165433883667,-0.00045276014134287834,-0.12641437351703644,0.09872511774301529,-0.08160489052534103,0.08397633582353592,-0.026421859860420227,-0.1119564026594162,0.397285521030426,0.11628701537847519,-0.12062773108482361,0.16082794964313507,-0.059878233820199966,-0.21647696197032928,0.19280867278575897,-0.17455635964870453,-0.17756016552448273,0.36007794737815857,-0.09623194485902786,-0.038513459265232086,-0.06228923425078392,0.20624658465385437,0.12993724644184113,-0.20758002996444702,0.10718727856874466,0.15599645674228668,0.0011258202139288187,0.033154621720314026,-0.05395573750138283,-0.06553549319505692,0.011690742336213589,0.09966851770877838,0.34576764702796936,0.010674916207790375,-0.043941840529441833,0.3261842131614685,0.0723070427775383,-0.2682303190231323,-0.34692466259002686,0.10391630977392197,-0.21469952166080475,-0.0037577853072434664,0.27434462308883667,0.12776820361614227,-0.071935273706913,0.19173605740070343,-0.07250041514635086,0.1203719973564148,-0.25615113973617554,-0.30560851097106934,0.003993906546384096,-0.05256015434861183,-0.3965248465538025,0.026666169986128807,-0.36619833111763,-0.3021128177642822,-0.016153067350387573,0.1316859871149063,-0.3503324091434479,-0.0435371994972229,-0.2407359480857849,0.00854769628494978,0.056084439158439636,-0.188422292470932,0.29638904333114624,0.04499781131744385,0.0971924215555191,0.18348903954029083,-0.1656617969274521,-0.11983593553304672,0.24239099025726318,-0.43166473507881165,0.017438560724258423,0.09296389669179916,-0.2661822736263275,-0.2702559232711792,0.2791513204574585,0.14926069974899292,-0.37498435378074646,-0.312135249376297,0.019691135734319687,0.2957700192928314,-0.12363600730895996,0.022752029821276665,0.034641630947589874,-0.4311813712120056,-0.1037239208817482,-0.12504248321056366,0.1594255268573761,0.20326247811317444,0.0968703180551529,-0.17198903858661652,-0.3470342457294464,-0.057040657848119736,0.10720038414001465,0.00870801042765379,0.3114028573036194,-0.17832940816879272,0.2571463882923126,-0.26847922801971436,-0.23977749049663544,-0.43211987614631653,-0.11342529952526093,-0.008851798251271248,0.13471485674381256,-0.2018587440252304,0.15669533610343933,0.38213837146759033,-0.1387140154838562,-0.1972958892583847,-0.2568965256214142,0.35347670316696167,-0.09072593599557877,0.09666330367326736,0.4056728780269623,-0.08237982541322708,0.415663480758667,-0.35896703600883484,0.2706630825996399,-0.007575910538434982,-0.05206335708498955,-0.084925077855587,-0.0518551804125309,0.14438165724277496,-0.07483620941638947,0.024920618161559105,-0.03808388113975525],[0.3030882775783539,-0.16895654797554016,0.03681275621056557,-0.17194530367851257,0.0023741666227579117,-0.3854633569717407,0.15112292766571045,0.09680751711130142,0.12146469205617905,-0.013414973393082619,-0.5069096684455872,0.20298515260219574,-0.03621619567275047,-0.08357545733451843,-0.09934192895889282,-0.4051206409931183,-0.11644294112920761,-0.04919593036174774,0.09976597130298615,-0.2972465455532074,0.07578824460506439,-0.07159394770860672,0.016234245151281357,-0.07253450900316238,-0.057898517698049545,-0.3133283257484436,0.30980873107910156,0.19840788841247559,0.040777020156383514,-0.007040909491479397,0.17947520315647125,-0.056736987084150314,-0.13134488463401794,-0.002235138090327382,0.02920345962047577,0.16819991171360016,0.10797549039125443,0.04812055826187134,0.07385652512311935,-0.23066651821136475,-0.05508072301745415,-0.23420432209968567,0.0291744377464056,0.34754806756973267,-0.01614430919289589,-0.09671862423419952,-0.06558682024478912,0.14602771401405334,0.3188191056251526,0.04705418646335602,0.10257357358932495,0.14112141728401184,0.14838483929634094,-0.057103075087070465,-0.011069754138588905,-0.009660523384809494,-0.08335284888744354,0.1852794736623764,-0.2420610785484314,0.21274755895137787,-0.08471331000328064,0.31985121965408325,0.02811669185757637,-0.34145089983940125,-0.06271909177303314,0.08771071583032608,-0.19711177051067352,-0.46852633357048035,0.3085412085056305,0.2110481709241867,-0.16345146298408508,-0.15701527893543243,-0.01519080065190792,-0.04912756010890007,0.03966199979186058,0.12786352634429932,0.1328553706407547,-0.10717349499464035,0.3043839931488037,0.2207867056131363,0.269588440656662,-0.1514490842819214,-0.04812076315283775,-0.17738252878189087,0.036558713763952255,0.016120534390211105,-0.025955364108085632,0.10607031732797623,0.04248081147670746,-0.024004511535167694,0.048009272664785385,0.35797324776649475,0.02274644374847412,0.11384548246860504,-0.15818201005458832,-0.31614795327186584,0.18424348533153534,0.06658303737640381,-0.10487095266580582,-0.23480679094791412,-0.22851493954658508,-0.2129174768924713,-0.017228201031684875,-0.2499135583639145,-0.40603935718536377,-0.11698435992002487,-0.20725682377815247,-0.029546378180384636,-0.05792735144495964,-0.04795660078525543,-0.09056267142295837,0.06518930196762085,-0.16099028289318085,-0.19372890889644623,0.017513670027256012,-0.26659005880355835,0.10147737711668015,-0.03867785260081291,0.09457176178693771,0.03238588571548462,-0.33974289894104004,-0.19669517874717712,-0.03482005372643471,-0.26830750703811646,0.05567752942442894,-0.1313287317752838,-0.1999826282262802,0.34205904603004456,-0.13009250164031982,-0.013048935681581497,0.18870529532432556,-0.15365424752235413,-0.07155871391296387,0.1292358636856079,-0.21062570810317993,0.12948060035705566,0.07786081731319427,-0.1432783305644989,-0.1337396800518036,0.04865865409374237,-0.12247426807880402,0.06392429769039154,-0.07534313201904297,0.040681228041648865,-0.03518921136856079,0.24700339138507843,-0.022293180227279663,-0.21908748149871826,0.22411134839057922,-0.19450944662094116,-0.3341290056705475,-0.2530471682548523,-0.281826913356781,-0.5251219272613525,-0.10817743837833405,0.1274959295988083,0.04147449880838394,-0.22639019787311554,-0.009194491431117058,0.0023741063196212053,-0.10904417186975479,0.13261447846889496,-0.2884187698364258,-0.14239032566547394,-0.050557129085063934,-0.14994186162948608,-0.3107073903083801,0.08180001378059387,-0.11345791071653366,0.2808017134666443,-0.010358457453548908,0.04067341983318329,0.06140848249197006,0.19967231154441833,-0.33860528469085693,0.16723881661891937,0.34343624114990234,-0.3948747515678406,-0.23697791993618011,0.01977512612938881,-0.03185797855257988,-0.0689404308795929,0.14585384726524353,0.10760019719600677,-0.08355753868818283,0.017039917409420013,-0.44355446100234985,0.051753539592027664,0.3333871364593506,-0.03267138823866844,0.11446967720985413,-0.010972163639962673,0.14961393177509308,0.09319674223661423,-0.05171520635485649,-0.13136887550354004,-0.16973966360092163,0.046708427369594574,0.17804501950740814,0.12404888868331909,0.1172541156411171,-0.09804865717887878,-0.12265868484973907,-0.6208735108375549,0.03742134943604469,0.30540820956230164,0.1504950225353241,0.003546973690390587,0.03346864506602287,0.061100978404283524,0.05177931860089302,0.3467442989349365,0.025586852803826332,-0.10519936680793762,0.025340693071484566,0.11323727667331696,0.17924489080905914,-0.4100934863090515,-0.1417708396911621,0.10998278856277466,-0.23021985590457916,0.12024801969528198,-0.06471004337072372,-0.013549558818340302,-0.15767084062099457,-0.25114884972572327,-0.020747963339090347,-0.15012799203395844,-0.21212244033813477,0.0503036305308342,0.12514843046665192,-0.05426787957549095,-0.23774316906929016,0.25126370787620544,-0.18119081854820251,-0.08969678729772568,-0.16053541004657745,-0.0801689624786377,0.031545836478471756,-0.06898518651723862,0.06843921542167664,0.1823558211326599,-0.294589102268219,0.0031981782522052526,0.26985862851142883,-0.24688977003097534,-0.21626490354537964,0.037628255784511566,-0.13701239228248596,-0.34937483072280884,-0.02816174365580082,0.048776231706142426,0.14582741260528564,-0.014005925506353378,0.011892633512616158,-0.017949247732758522],[-0.4415656328201294,-0.183902308344841,-0.5078420042991638,-0.27253997325897217,-0.14345212280750275,0.08798325061798096,-0.30402156710624695,0.050598740577697754,0.06359373778104782,-0.017339572310447693,-0.20701605081558228,-0.3159010708332062,-0.20307515561580658,0.052952103316783905,0.12355721741914749,0.07765328139066696,-0.30258145928382874,-0.0835539773106575,-0.12233447283506393,0.13725608587265015,0.09170238673686981,-0.35110023617744446,0.17896908521652222,0.3119039535522461,0.38215237855911255,-0.2102833241224289,0.28946223855018616,0.10058508068323135,0.0646640881896019,-0.042708251625299454,0.03552698716521263,-0.06934576481580734,-0.23388808965682983,0.1837410181760788,0.23901337385177612,-0.19040687382221222,0.01932317391037941,-0.12419984489679337,0.25586411356925964,0.17413760721683502,-0.3609853982925415,0.4240049421787262,-0.014968167059123516,-0.04541323706507683,-0.03074115701019764,-0.05522850155830383,0.08721660077571869,-0.09368425607681274,0.02178945019841194,0.2130642533302307,-0.02445247955620289,-0.021683450788259506,-0.24561220407485962,0.0521475151181221,-0.18122299015522003,-0.15539386868476868,0.09154071658849716,0.013989875093102455,-0.08327624946832657,0.04405677318572998,-0.06841420382261276,-0.13863639533519745,0.03289446234703064,0.43669548630714417,-0.17477545142173767,0.30758699774742126,-0.05207516625523567,0.06708112359046936,-0.17276984453201294,-0.05762157961726189,0.15125194191932678,-0.2507677376270294,0.12400379776954651,-0.3257533013820648,0.08171164244413376,0.1453704833984375,-0.20280496776103973,-0.030117494985461235,-0.24698485434055328,0.07112203538417816,-0.056760549545288086,0.11198137700557709,-0.1584109514951706,0.10741483420133591,-0.20086921751499176,-0.013469384051859379,-0.150516539812088,-0.18149976432323456,-0.06734996289014816,-0.07701650261878967,0.07048698514699936,-0.12720973789691925,0.015161538496613503,0.007995535619556904,-0.07367977499961853,-0.019437354058027267,-0.06543990969657898,0.016018446534872055,0.037480007857084274,-0.06664368510246277,0.0847584530711174,0.056884765625,-0.4821471571922302,-0.15937478840351105,-0.07573765516281128,0.1486310213804245,-0.01086040586233139,-0.007171576377004385,-0.18599508702754974,-0.13820981979370117,-0.1820477843284607,0.030772805213928223,-0.24286259710788727,-0.03609640896320343,0.18826082348823547,-0.045316070318222046,-0.0006267193821258843,0.045507729053497314,-0.2571731209754944,-0.2691666781902313,0.18640542030334473,-0.015049032866954803,-0.33105409145355225,-0.10802408307790756,-0.09739271551370621,-0.01129324734210968,-0.3039889335632324,0.02684551291167736,-0.2334246188402176,-0.1873074173927307,-0.18036334216594696,-0.036299336701631546,0.16093996167182922,0.13818295300006866,0.08317521959543228,-0.41182366013526917,-0.03663145378232002,-0.012770453467965126,-0.04089720547199249,0.21941231191158295,-0.1918460875749588,0.2479773610830307,0.2422507256269455,-0.32276323437690735,-0.03283630311489105,-0.11071200668811798,-0.17985452711582184,-0.002932473085820675,0.0014075564686208963,-0.07768616825342178,0.43882834911346436,0.13186252117156982,-0.13698673248291016,-0.31102481484413147,0.023540612310171127,-0.20167288184165955,-0.26483452320098877,0.0006249251891858876,-0.1366090625524521,0.04799218848347664,0.3062969446182251,-0.3004308342933655,-0.3491400480270386,-0.026165617629885674,-0.25848570466041565,0.16670529544353485,0.20844677090644836,0.15717487037181854,0.3910791277885437,0.15976914763450623,-0.058700334280729294,-0.24076731503009796,-0.11757886409759521,-0.18743251264095306,0.0526142381131649,-0.13630855083465576,0.5598692297935486,-0.1284884363412857,-0.22335994243621826,0.022768419235944748,-0.025114674121141434,0.33038783073425293,-0.053287312388420105,-0.24057303369045258,-0.22313590347766876,0.0776258185505867,0.041703518480062485,0.10490085184574127,0.10228301584720612,-0.1553078293800354,-0.386090487241745,-0.26849913597106934,0.043925054371356964,-0.12884685397148132,-0.016151830554008484,0.01273990236222744,-0.24749377369880676,-0.4456123113632202,0.2093862146139145,0.07889911532402039,0.16591213643550873,-0.028296295553445816,-0.0021392505150288343,0.21216599643230438,-0.03124079667031765,-0.025659220293164253,-0.09203687310218811,-0.2085510492324829,0.2274111807346344,0.1368836611509323,-0.19627797603607178,-0.18203310668468475,-0.37195566296577454,0.2059607356786728,0.19254083931446075,0.03803382068872452,-0.13290850818157196,-0.21599090099334717,-0.30544671416282654,-0.053409986197948456,0.130412295460701,0.18593399226665497,0.09836797416210175,-0.3536462187767029,0.21368521451950073,-0.013263365253806114,0.08355981856584549,-0.22684654593467712,0.12556803226470947,-0.19424758851528168,-0.03695505112409592,-0.24028633534908295,-0.04234647378325462,-0.006764094810932875,0.2608906328678131,0.14835236966609955,-0.09457512199878693,-0.1958262026309967,-0.04435189813375473,0.21040448546409607,0.16206684708595276,-0.2998044192790985,0.05608333274722099,-0.01024449523538351,-0.3285162150859833,0.2716612219810486,-0.2309555560350418,-0.22581785917282104,0.2781662344932556,-0.0630718320608139,-0.27576130628585815,-0.1828395277261734,0.008535767905414104,-0.0729585736989975,-0.021979501470923424,-0.23654530942440033],[0.12553709745407104,0.058541957288980484,0.18221630156040192,-0.26436692476272583,-0.17476175725460052,-0.09017319977283478,0.09348754584789276,-0.013472314924001694,0.6257610321044922,-0.04579741507768631,-0.4197160601615906,0.08222343027591705,0.07957880944013596,0.08580614626407623,-0.18863597512245178,-0.03044191375374794,-0.07119851559400558,0.0847773477435112,-0.04243478551506996,0.0760435163974762,0.1325526088476181,-0.22557510435581207,0.05771716311573982,-0.08481967449188232,-0.023034144192934036,0.11208275705575943,0.0481158122420311,-0.024914013221859932,0.06266412138938904,-0.12095163762569427,0.2756247818470001,0.13080598413944244,0.07103081792593002,-0.4211575984954834,0.11128833889961243,-0.03649064898490906,-0.020664330571889877,-0.1288343369960785,0.007542451843619347,-0.150839164853096,-0.1900966316461563,-0.0031331030186265707,0.21078045666217804,0.08220826834440231,0.21453535556793213,-0.13507401943206787,-0.313513845205307,0.2141493707895279,0.044117268174886703,-0.34310582280158997,0.1815468817949295,0.3155501186847687,0.045205023139715195,-0.04111828655004501,-0.12364976108074188,-0.1667909473180771,-0.025146912783384323,0.008421413600444794,0.0037554579321295023,-0.09646043181419373,0.08078470826148987,0.054709542542696,-0.17705470323562622,0.1908336728811264,-0.2849723696708679,0.04904795438051224,-0.3045504093170166,-0.17620277404785156,-0.3859109580516815,-0.19337311387062073,0.06098031997680664,0.20466959476470947,0.20551462471485138,-0.09343894571065903,-0.12074391543865204,-0.048250358551740646,0.2131977528333664,0.05913065746426582,0.15724064409732819,-0.07163946330547333,-0.0573568269610405,0.04028557613492012,0.22053340077400208,-0.07770580053329468,0.23645515739917755,0.20246393978595734,0.04571835324168205,0.06856393069028854,0.21355915069580078,-0.29913872480392456,-0.10023131966590881,0.08129977434873581,0.4737299978733063,-0.14231657981872559,0.0801786482334137,-0.013942194171249866,0.1319538801908493,0.3739634156227112,0.19856606423854828,-0.09857302904129028,0.013555540703237057,-0.09323576837778091,0.3737912178039551,-0.022062040865421295,-0.12418827414512634,0.14036934077739716,0.4386933147907257,0.03853259235620499,-0.1421479731798172,-0.3811321556568146,-0.17135834693908691,-0.1263633668422699,-0.17332009971141815,-0.09251312166452408,-0.12870347499847412,0.25787049531936646,0.15641503036022186,0.06353249400854111,-0.23685231804847717,0.1274852603673935,-0.1955343633890152,-0.1376485526561737,-0.07182539999485016,-0.03338542580604553,-0.0373820923268795,-0.24803069233894348,-0.16544725000858307,-0.17025800049304962,0.07208113372325897,-0.2792474031448364,0.17097675800323486,0.13816286623477936,-0.23482654988765717,0.27065005898475647,0.01257721520960331,-0.03286278247833252,-0.2678254544734955,-0.05178312212228775,0.000971130677498877,-0.07755108177661896,-0.1487639844417572,-0.03974694386124611,-0.1286800503730774,0.044601667672395706,0.07764077186584473,-0.20037327706813812,-0.055263835936784744,-0.32165250182151794,0.2428600937128067,-0.29512178897857666,-0.1395287960767746,-0.10493076592683792,-0.08422476053237915,-0.1780606061220169,-0.19232907891273499,0.23757591843605042,0.17123784124851227,-0.06311015039682388,0.0017981529235839844,-0.0058187395334243774,-0.0853002518415451,0.025513576343655586,0.4298030734062195,-0.30925244092941284,0.024087868630886078,0.0436936691403389,0.23547904193401337,-0.15743038058280945,0.02077876403927803,0.05581223592162132,0.19479133188724518,-0.3197275698184967,-0.12619958817958832,0.14586621522903442,-0.012903380207717419,0.04033417999744415,0.11160588264465332,-0.1439172476530075,-0.06232773885130882,-0.017002495005726814,0.09307298809289932,0.09484037756919861,-0.050057921558618546,0.00047513307072222233,0.11733772605657578,0.154321551322937,0.014266863465309143,0.1449352353811264,0.05363548919558525,-0.2891678214073181,0.1769942194223404,-0.17960594594478607,-0.19012263417243958,-0.1423051804304123,0.25021499395370483,-0.019441667944192886,-0.3652554452419281,0.09159843623638153,-0.13006016612052917,0.1666419953107834,-0.15246030688285828,-0.3038889765739441,-0.1385045051574707,-0.290706068277359,0.38460448384284973,-0.1787494271993637,0.03437314182519913,0.016831524670124054,-0.3926129937171936,-0.23495881259441376,-0.10340623557567596,0.11110178381204605,-0.1612776517868042,-0.1857118457555771,0.0420881062746048,0.25969198346138,-0.24429967999458313,-0.027928778901696205,0.006919620558619499,0.22779037058353424,0.1252804398536682,-0.40177080035209656,0.28183457255363464,-0.21327973902225494,-0.20412041246891022,-0.2937271296977997,-0.10819949954748154,-0.07172416150569916,0.13992810249328613,0.026957280933856964,0.20453882217407227,-0.188930481672287,-0.3479467034339905,-0.04411286115646362,-0.184775710105896,0.08128739893436432,-0.09308051317930222,-0.06570567190647125,0.10318919271230698,0.2579975426197052,-0.09728269279003143,-0.049875810742378235,-0.4694146513938904,0.09883204847574234,-0.13040587306022644,-0.023293720558285713,-0.47853633761405945,0.17330043017864227,0.05838225036859512,0.09242181479930878,0.06340275704860687,0.11110880225896835,-0.04038361459970474,-0.09933574497699738,-0.3582198917865753,0.010773720219731331],[-0.4855741560459137,0.021318789571523666,-0.21186193823814392,-0.16736342012882233,0.11277607828378677,0.1135411188006401,-0.3906385004520416,-0.4977147877216339,-0.10355661809444427,-0.17591175436973572,0.05608469992876053,0.037820927798748016,0.29740285873413086,-0.059789471328258514,-0.03147345408797264,0.11792547255754471,-0.049238987267017365,-0.27990952134132385,0.03625156730413437,-0.20174044370651245,0.31318119168281555,0.053599096834659576,0.14714539051055908,-0.13661597669124603,