[[-0.007409935817122459,-0.15749603509902954,0.06645286083221436,0.05802371725440025,0.1977737694978714,-0.14425376057624817,-0.15049715340137482,0.01825154945254326,0.03278692811727524,-0.05077716335654259,0.03656890243291855,0.1671101599931717,0.07987378537654877,0.03471720963716507,0.13070951402187347,-0.03645647317171097,0.04501163586974144,0.12210403382778168,0.15956641733646393,-0.15538151562213898,0.03845314681529999,-0.05882220342755318,-0.05716830492019653,-0.024823173880577087,-0.05342225730419159,0.1349879801273346,-0.19780611991882324,-0.14480383694171906,0.006143795792013407,-0.05640587583184242,-0.304798424243927,-0.0823964923620224,-0.05098715424537659,-0.09668243676424026,0.022921374067664146,0.06909897178411484,0.045148178935050964,-0.20067259669303894,-0.15531888604164124,0.14715903997421265,-0.10551179945468903,-0.09028752893209457,0.11309334635734558,0.3334532678127289,0.2362346053123474,0.20665648579597473,-0.053927719593048096,0.027465790510177612,-0.021654698997735977,0.01466885581612587,0.03564228117465973,0.09496410936117172,0.17888954281806946,-0.2093753069639206,0.002771254163235426,0.2684601843357086,0.0009633554145693779,-0.14523254334926605,0.15725821256637573,-0.020347489044070244,0.08668100833892822,-0.014264869503676891,-0.028561526909470558,0.0328051820397377,0.14256592094898224,-0.025467971339821815,0.15072345733642578,-0.06879367679357529,-0.05728880316019058,0.018427904695272446,0.048799559473991394,0.08502884209156036,-0.025611331686377525,0.1497076004743576,-0.2978246212005615,0.06025619059801102,-0.050384797155857086,0.03531312569975853,0.18309031426906586,0.051149483770132065,0.1143079325556755,0.16707441210746765,-0.07799334079027176,-0.10014945268630981,-0.06436554342508316,0.056605398654937744,-0.12495383620262146,0.05088157206773758,0.07388485223054886,-0.004985183477401733,0.027547510340809822,0.021884435787796974,0.012946737930178642,0.023969706147909164,-0.08241923898458481,-0.039399031549692154,-0.03550448641180992,-0.002981219906359911,0.15610083937644958,0.07610701769590378,0.0382361002266407,0.002859126077964902,-0.2423294335603714,-0.04874049872159958,0.09991763532161713,0.0436737984418869,0.0001037756446748972,-0.0638791024684906,0.10269168019294739,-0.11069656908512115,0.06684976816177368,0.038844749331474304,-0.11949536204338074,0.04032518342137337,-0.04607083648443222,0.034709371626377106,0.1396133452653885,0.07541299611330032,-0.08447197824716568,-0.12755951285362244,-0.04200555384159088,0.14480333030223846,0.1892033815383911,0.18969734013080597,-0.03230465203523636,0.016373757272958755,0.07503614574670792,-0.04187803342938423,0.3151510953903198,-0.15639393031597137,-0.11913032829761505,-0.011857392266392708,0.08220408856868744,0.00935019738972187,0.16161903738975525,-0.04044191911816597,-0.03158443793654442,0.14517022669315338],[-0.0757330060005188,0.28205493092536926,-0.07134804129600525,0.06710576266050339,-0.034564513713121414,0.021007416769862175,0.10208161175251007,-0.08691249042749405,0.00900211464613676,-0.05614961311221123,-0.10136599093675613,-0.00975888967514038,0.08072003722190857,0.21499872207641602,0.12306277453899384,0.09246927499771118,0.045654937624931335,0.07707411795854568,-0.19127479195594788,0.09995733201503754,0.022181637585163116,0.1641140580177307,-0.15856817364692688,0.060273315757513046,0.06219721585512161,-0.08194420486688614,0.13081710040569305,-0.1330370157957077,0.09183111041784286,-0.21068477630615234,0.10570862144231796,0.08871090412139893,-0.1265385001897812,-0.22955480217933655,-0.16228170692920685,0.09144552797079086,0.08482418954372406,0.2827520966529846,0.259908527135849,-0.07571510970592499,0.015800802037119865,-0.008954613469541073,0.1239749938249588,-0.014948495663702488,0.07697438448667526,-0.03347013518214226,0.1422894150018692,-0.07111361622810364,0.11298436671495438,0.16312475502490997,-0.04009721055626869,0.058106642216444016,0.0752943754196167,0.10817063599824905,0.03889232873916626,-0.18118062615394592,-0.03646141290664673,-0.09911562502384186,-0.14254270493984222,0.03596365079283714,0.1245189905166626,-0.11397351324558258,0.0018664132803678513,0.09967344254255295,0.10259540379047394,0.04939328506588936,-0.14979608356952667,0.2711333930492401,0.04625163972377777,-0.21076008677482605,0.2096695452928543,0.1401384025812149,0.032563261687755585,0.3311394155025482,0.11842993646860123,0.087521992623806,0.0017801269423216581,0.0033346565905958414,0.048353105783462524,0.07267533242702484,0.14969025552272797,-0.051560595631599426,-0.22389739751815796,-0.1155000627040863,-0.12494062632322311,0.11616819351911545,0.1494680792093277,0.20590978860855103,-0.04625007137656212,0.10833624005317688,-0.04146767407655716,-0.023651622235774994,0.08097078651189804,-0.15243102610111237,-0.06113496422767639,0.2291354238986969,-0.03344201296567917,-0.10553041845560074,-0.19742949306964874,0.07181719690561295,-0.017032483592629433,0.06483227759599686,-0.11458741128444672,-0.00583523279055953,-0.06147654354572296,0.017810657620429993,-0.06234212592244148,-0.03399120643734932,-0.10644742846488953,-0.04283006861805916,0.10600519180297852,-0.015380466356873512,0.03630223870277405,-0.09689126163721085,-0.08635418862104416,0.06944434344768524,0.14363963901996613,0.02756664715707302,-0.1600152850151062,0.050605107098817825,-0.24066419899463654,-0.10177820175886154,-0.019537704065442085,0.04602065309882164,-0.040977589786052704,0.04467320814728737,0.35910436511039734,-0.09616744518280029,0.01135811023414135,-0.10637497156858444,0.11312976479530334,0.06862960010766983,-0.06303016096353531,0.10143721103668213,-0.05940840765833855,0.028464073315262794,0.06590480357408524,-0.023727402091026306],[-0.09409335255622864,-0.11513829231262207,-0.07207118719816208,0.04404078423976898,-0.16065603494644165,-0.03108917362987995,0.0027509350329637527,0.054230041801929474,-0.04557273909449577,-0.12133768200874329,0.08629202842712402,0.03152395784854889,-0.017864592373371124,-0.04833788052201271,-0.026053549721837044,0.14964106678962708,-0.11318712681531906,-0.11547611653804779,0.08548331260681152,-0.1368757039308548,0.041052065789699554,0.1662757247686386,0.0517519973218441,0.019667314365506172,0.11065058410167694,0.08412016183137894,0.2573629915714264,0.0765591561794281,-0.013350451365113258,0.10676559060811996,0.06994743645191193,0.05658888816833496,-0.09456367790699005,-0.03756704926490784,-0.03878224641084671,-0.006602225359529257,-0.25701504945755005,-0.02667340636253357,0.008019819855690002,-0.10868828743696213,0.07764921337366104,0.10684459656476974,0.06958935409784317,0.054013941437006,-0.03423580154776573,-0.06492320448160172,0.02232205495238304,0.08988209068775177,0.23511189222335815,-0.047524724155664444,-0.062177252024412155,0.21520011126995087,0.01727648451924324,0.04965567588806152,0.018813900649547577,-0.31628167629241943,0.035111673176288605,-0.10111141204833984,0.017144661396741867,0.14029882848262787,-0.04736555367708206,-0.027936717495322227,-0.04350476339459419,-0.010134113021194935,0.08435378968715668,-0.1343742161989212,-0.09040846675634384,0.0467107929289341,0.09700832515954971,0.25867900252342224,0.03430447727441788,-0.08045671135187149,0.007581889629364014,0.15906986594200134,-0.014745891094207764,-0.02621391974389553,0.1365157514810562,0.0771527886390686,-0.1007642149925232,0.006783345714211464,-0.09768315404653549,0.02987844869494438,-0.13247816264629364,0.03596559166908264,0.011996609158813953,0.07359378784894943,-0.024088909849524498,-0.09113310277462006,-0.07221294939517975,-0.030078928917646408,-0.2179020494222641,0.052040740847587585,0.12377212941646576,0.044507451355457306,0.03661555051803589,0.06751830875873566,-0.15103290975093842,-0.14824166893959045,-0.0280100479722023,0.11649076640605927,-0.08623243123292923,0.06651090085506439,-0.01989652030169964,-0.03733492270112038,-0.06376073509454727,-0.0657515898346901,-0.0738714188337326,-0.04299258068203926,-0.06901207566261292,-0.1005159541964531,-0.06194571033120155,0.10577662289142609,-0.02465236559510231,0.07578789442777634,0.15312449634075165,-0.14078831672668457,-0.09203614294528961,-0.06585610657930374,-0.03315340727567673,0.007755504921078682,-0.17845262587070465,0.03760683909058571,-0.1113056018948555,0.18855376541614532,0.0039012462366372347,-0.10156683623790741,0.010538621805608273,0.14027458429336548,0.09553687274456024,0.11659818887710571,-0.12176860123872757,-0.015032647177577019,0.04849044606089592,0.018822625279426575,0.15955796837806702,0.1299392282962799,-0.1944630891084671,0.05153432860970497],[-0.08013235777616501,0.026603931561112404,-0.07292047142982483,0.031816817820072174,0.1444256752729416,-0.024883661419153214,0.00817306712269783,0.050349220633506775,-0.023226996883749962,-0.032846082001924515,-0.12957321107387543,-0.20172962546348572,-0.2885764539241791,-0.12411327660083771,0.04048370569944382,0.024513809010386467,0.043565783649683,-0.10436217486858368,0.15329957008361816,-0.05593360960483551,0.19061952829360962,0.07007814198732376,0.16902010142803192,0.13228853046894073,0.06073090434074402,0.009076290763914585,-0.18532560765743256,-0.059873513877391815,-0.053921137005090714,0.01877639628946781,-0.05441899970173836,0.17689456045627594,-0.16475041210651398,0.12464112043380737,0.08750985562801361,0.10239008814096451,0.251905232667923,-0.011912921443581581,-0.04298161342740059,0.1478474885225296,0.00046487501822412014,-0.07496022433042526,-0.06551723927259445,0.030023524537682533,0.04230700433254242,-0.07734837383031845,-0.012308239936828613,-0.1059059351682663,-0.045023318380117416,0.10494637489318848,0.1257907897233963,-0.05641800910234451,-0.043234631419181824,-0.07607938349246979,0.078880675137043,0.13882406055927277,-0.0031838901340961456,-0.07248342782258987,-0.1906597763299942,-0.0012402122374624014,-0.14097873866558075,-0.09897347539663315,-0.05547468736767769,0.04795568436384201,0.08239319920539856,0.08651141822338104,-0.11069474369287491,0.004110748879611492,-0.048990678042173386,-0.029358956962823868,0.03737453371286392,-0.029927067458629608,0.07579462975263596,0.3792033791542053,0.19207432866096497,0.002806029049679637,-0.034248869866132736,-0.12587785720825195,-0.07516740262508392,-0.004396457225084305,-0.2482278048992157,-0.05911412835121155,0.002680428558960557,0.015401812270283699,-0.02285127341747284,0.1624547243118286,0.04424802586436272,-0.019884677603840828,-0.12374143302440643,-0.007388590835034847,-0.09215114265680313,-0.17059087753295898,0.011991546489298344,0.0608782097697258,0.12846703827381134,0.2211272269487381,0.10839012265205383,0.033086806535720825,-0.07029545307159424,0.1019616350531578,-0.039029303938150406,0.24375638365745544,-0.03316319361329079,-0.18670207262039185,0.03712499141693115,0.11345668882131577,-0.12002596259117126,0.19230437278747559,0.13813482224941254,0.0569767951965332,0.02675231359899044,0.22755183279514313,-0.0584210604429245,0.014210084453225136,0.26523876190185547,-0.13217392563819885,0.08231600373983383,0.002425412880256772,-0.09082214534282684,-0.022036340087652206,0.15703707933425903,-0.09458495676517487,0.051114000380039215,-0.17741157114505768,-0.037571344524621964,0.05173446238040924,0.012027345597743988,-0.11388713121414185,0.08558081835508347,0.0026355513837188482,0.18044841289520264,-0.0026685623452067375,-0.00683208042755723,0.12711389362812042,-0.2756868004798889,0.298810213804245,-0.04681149125099182,-0.07379091531038284],[-0.18694347143173218,-0.03892352059483528,-0.23595330119132996,-0.09307785332202911,0.13924860954284668,-0.07812733203172684,0.17652031779289246,-0.13508166372776031,0.05297669768333435,-0.055043548345565796,0.08344956487417221,0.02909298613667488,-0.03656921535730362,0.18604475259780884,-0.06854328513145447,0.1078709214925766,0.24148260056972504,0.07136073708534241,0.06717649102210999,-0.06894996762275696,-0.009963719174265862,0.2100602686405182,0.049514200538396835,0.13335610926151276,-0.006469349842518568,0.054215095937252045,-0.1750756949186325,0.1962469220161438,-0.16655564308166504,-0.018269000574946404,0.0012445228639990091,0.09717826545238495,-0.18162459135055542,-0.07683305442333221,0.06188540160655975,-0.02413593977689743,0.09321895986795425,0.1579679697751999,0.005871029570698738,-0.07406704872846603,-0.10126049071550369,0.0742402896285057,-0.1504104733467102,-0.05576667934656143,-0.04723552241921425,-0.04507241025567055,0.01675187610089779,0.040401384234428406,0.022303253412246704,0.041839566081762314,0.16061203181743622,0.05519793927669525,-0.11159863322973251,0.11793868243694305,0.1320181041955948,0.009485802613198757,-0.07960212975740433,-0.05010959878563881,-0.10636955499649048,-0.03500084578990936,-0.03422209993004799,-0.04591396823525429,0.014199751429259777,0.03483767807483673,0.11795061826705933,-0.07682326436042786,-0.06003062427043915,0.07466615736484528,-0.10873817652463913,0.1580689549446106,0.03167352080345154,0.10643433034420013,-0.09774526953697205,0.07380164414644241,0.07828333228826523,0.035155944526195526,0.02168186753988266,-0.17213942110538483,-0.03726061433553696,-0.0956449955701828,0.1663224697113037,-0.009885823354125023,-0.03057066909968853,-0.010604978539049625,-0.011001253500580788,0.19081492722034454,0.007072405889630318,-0.049062542617321014,-0.14893920719623566,-0.08642710000276566,-0.0900079607963562,-0.19107112288475037,-0.07840409874916077,0.08963329344987869,0.16031557321548462,-0.08522580564022064,0.12825407087802887,0.012218114919960499,-0.21282917261123657,0.1984652429819107,0.10880768299102783,-0.014148639515042305,0.11113051325082779,-0.052009694278240204,-0.043118737637996674,0.009558028541505337,0.24755807220935822,0.11806061118841171,-0.14111196994781494,0.01693163625895977,0.07735137641429901,-0.041274361312389374,0.023154962807893753,-0.14559616148471832,-0.02438163571059704,-0.0015771561302244663,0.10117597132921219,0.0875357910990715,0.07645392417907715,-0.04240863770246506,-0.10254590958356857,0.10826679319143295,0.07389657944440842,-0.0772295594215393,-0.04764280840754509,0.06747063249349594,0.05434754118323326,-0.023170046508312225,0.11696421355009079,-0.07860234379768372,0.07234063744544983,-0.11547030508518219,-0.04978451877832413,0.1845492720603943,-0.04296724870800972,0.2788298726081848,-0.010820587165653706,-0.05285327136516571],[0.050687309354543686,-0.11114031076431274,-0.024676430970430374,0.0012615658342838287,-0.2262464016675949,0.008958535268902779,0.06963595747947693,-0.016338111832737923,0.033874575048685074,-0.2048371285200119,0.029065921902656555,0.13272547721862793,0.034325964748859406,-0.010796190239489079,-0.11735671013593674,0.2207329124212265,0.029333675280213356,0.14363780617713928,0.00737017160281539,0.015722159296274185,0.002993830479681492,0.0634213536977768,-0.17508135735988617,-0.042904943227767944,-0.1318809688091278,0.08055971562862396,-0.007556035649031401,0.020947527140378952,-0.11641079187393188,0.19645297527313232,0.05813850834965706,0.0757422000169754,-0.1329912692308426,0.23968178033828735,0.026267386972904205,-0.10803308337926865,-0.017342671751976013,-0.12876756489276886,0.1384558528661728,-0.08921029418706894,0.06116533651947975,0.12148278951644897,-0.08162855356931686,0.10588835924863815,-0.04605937376618385,0.016399068757891655,-0.06325844675302505,-0.026201803237199783,0.007412802893668413,-0.1811332106590271,-0.016570039093494415,-0.16542398929595947,0.11437646299600601,0.06792999804019928,-0.03169074282050133,0.11691435426473618,0.09906021505594254,-0.04709905385971069,0.14506895840168,0.06535659730434418,-0.10537853837013245,-0.028126288205385208,0.024335961788892746,0.09250957518815994,-0.004315204452723265,0.046420514583587646,0.052506398409605026,0.06735154986381531,0.12215418368577957,0.03969232738018036,0.10717467963695526,0.024653343483805656,-0.010613801889121532,-0.013710156083106995,0.016192376613616943,-0.1105845645070076,-0.15035462379455566,-0.16706089675426483,-0.11265997588634491,-0.0874093621969223,-0.04637007787823677,-0.19375106692314148,0.041809652000665665,0.11643993854522705,-0.07475107908248901,0.08222080022096634,-0.22655364871025085,-0.11967352032661438,0.049453526735305786,0.0739254355430603,-0.2214255928993225,0.09662417322397232,-0.04459414258599281,-0.11196182668209076,-0.09421747177839279,0.022219765931367874,0.07376997917890549,0.012566797435283661,0.03134429454803467,0.08046337962150574,0.0328337661921978,-0.05689771845936775,0.07655928283929825,-0.032248690724372864,0.032858289778232574,-0.05116719752550125,0.14293134212493896,0.10023501515388489,0.08189805597066879,0.11172641068696976,0.06870806217193604,-0.0035613318905234337,-0.06377648562192917,0.04466668516397476,-0.14033061265945435,-0.06646709889173508,0.20636458694934845,-0.07165646553039551,-0.2404298335313797,0.01942882500588894,-0.11217191815376282,-0.017761051654815674,-0.1436973363161087,-0.014880586415529251,0.07074421644210815,0.027408702298998833,-0.07012368738651276,0.09474257379770279,-0.1422690749168396,0.07304273545742035,0.0673750787973404,0.11161525547504425,-0.2066957801580429,-0.019896887242794037,0.07128564268350601,-0.12855158746242523,-0.04193612188100815,-0.19975994527339935],[-0.04350358247756958,-0.12636642158031464,0.05466160550713539,0.21420811116695404,-0.1804456114768982,-0.14058183133602142,-0.23326781392097473,-0.006212960928678513,-0.0007857594173401594,0.08037640154361725,0.004973224364221096,0.05981573462486267,0.09994182735681534,-0.005117639899253845,0.035726580768823624,-0.050762247294187546,0.055958062410354614,0.057622380554676056,-0.05391246825456619,-0.04810824617743492,-0.016180653125047684,-0.0063622151501476765,0.008792869746685028,-0.0329199843108654,0.08007500320672989,-0.17223070561885834,-0.14019066095352173,-0.0177350752055645,0.020773442462086678,-0.16464664041996002,-0.033772360533475876,0.1536862999200821,-0.09249210357666016,0.012021094560623169,-0.16100701689720154,-0.15524160861968994,-0.1330070197582245,-0.0977051705121994,-0.24181053042411804,0.19909538328647614,0.25702500343322754,0.15138840675354004,-0.05048469826579094,-0.07685691118240356,-0.05454593896865845,0.13293780386447906,0.10209345072507858,-0.014922045171260834,0.22537481784820557,0.30191770195961,-0.015110397711396217,-0.06806939840316772,-0.013301125727593899,0.18607228994369507,0.13065510988235474,0.14348340034484863,0.08273185044527054,0.061509232968091965,-0.028600167483091354,-0.06096016615629196,0.037421390414237976,0.0334848128259182,0.018859170377254486,0.021262511610984802,-0.1475740522146225,0.1236458569765091,0.09080184251070023,-0.2081076055765152,0.21385326981544495,0.06194540858268738,0.10819093883037567,0.04279209300875664,0.17447146773338318,0.13336153328418732,-0.05950193107128143,0.030620267614722252,0.015309881418943405,0.007994045503437519,0.027056723833084106,-0.15751317143440247,0.12989570200443268,0.0853935107588768,0.062326766550540924,-0.003932165447622538,0.04016168415546417,-0.016470730304718018,0.019778206944465637,0.011816374026238918,-0.009435957297682762,0.08138780295848846,-0.10426288098096848,-0.0944209024310112,0.10098891705274582,-0.22703878581523895,-0.16626974940299988,-0.08231230080127716,0.09088121354579926,0.16692958772182465,-0.09025280177593231,-0.08474861830472946,0.041432905942201614,-0.056373342871665955,-0.13950768113136292,-0.08556708693504333,-0.030708851292729378,0.1528041511774063,-0.1613631695508957,0.029849881306290627,-0.08241855353116989,-0.0510176420211792,-0.16239489614963531,0.012477952986955643,0.14483100175857544,0.028233319520950317,-0.052925627678632736,0.08753475546836853,-0.057210203260183334,-0.08660664409399033,-0.18804877996444702,-0.07338475435972214,-0.12458443641662598,0.21105796098709106,-0.06553385406732559,0.06620268523693085,0.08658269792795181,-0.048117998987436295,-0.09809550642967224,-0.0034530467819422483,0.04238377884030342,0.07408563792705536,0.009454832412302494,-0.09331894665956497,0.0170124564319849,-0.10456065833568573,-0.15156617760658264,-0.09398673474788666,-0.06919072568416595,-0.20173954963684082],[0.07165512442588806,0.11306969821453094,-0.010267023928463459,-0.05954533442854881,-0.32843029499053955,-0.16693006455898285,-0.06172202154994011,0.08054646849632263,0.1839602142572403,-0.15644291043281555,0.054784517735242844,-0.05204808712005615,-0.08443675190210342,-0.08460193872451782,0.1082177460193634,-0.09358973801136017,0.26775506138801575,0.03126943111419678,-0.13102249801158905,0.02927074208855629,0.015044122003018856,0.06683840602636337,-0.10158627480268478,0.019367743283510208,0.0059565226547420025,-0.1592806726694107,-0.23977775871753693,-0.04915596917271614,0.03104621171951294,0.06415215879678726,0.018482787534594536,-0.0029780855402350426,0.19593727588653564,0.06460117548704147,-0.10816950350999832,-0.1634967178106308,0.027112571522593498,-0.02446991205215454,-0.0342901349067688,0.20921656489372253,-0.07522842288017273,-0.10707060247659683,0.06240944564342499,-0.14590506255626678,0.06763721257448196,-0.04576847329735756,-0.1566246747970581,0.024307554587721825,-0.19565944373607635,0.18744467198848724,-0.03987021744251251,-0.10268895328044891,-0.018082531169056892,-0.023194758221507072,0.0669308453798294,-0.00719369575381279,-0.09887735545635223,0.2549760341644287,-0.15786957740783691,-0.2970946729183197,0.26422131061553955,0.0888458788394928,-0.016793353483080864,0.02387028932571411,-0.02781701646745205,-0.05706429108977318,-0.09364388138055801,0.07252101600170135,-0.05024105682969093,0.07495255023241043,-0.19935129582881927,0.021024620160460472,-0.0627182275056839,-0.051604755222797394,-0.11504767835140228,0.06068896874785423,-0.13319498300552368,0.18878580629825592,-0.12965960800647736,-0.05049188435077667,-0.08585317432880402,0.09249228239059448,0.07077805697917938,0.041251372545957565,0.01164650171995163,-0.020894331857562065,-0.11731961369514465,-0.13955825567245483,0.042321305721998215,-0.005540522281080484,0.024288924410939217,-0.10970962792634964,0.2156856209039688,0.10619627684354782,0.09588777273893356,0.04020000994205475,-0.17584443092346191,0.010287509299814701,-0.1730504333972931,-0.06198820844292641,0.08169414103031158,0.12694378197193146,-0.07040641456842422,-0.031785398721694946,0.041008204221725464,0.007706405129283667,-0.11784589290618896,0.19083864986896515,-0.07679027318954468,-0.06530947238206863,-0.20078471302986145,0.12701445817947388,0.06917764246463776,0.022791393101215363,-0.22732162475585938,0.16687195003032684,-0.1496320366859436,-0.09186842292547226,-0.05418761447072029,0.07049019634723663,0.15560846030712128,-0.04271946847438812,0.06599441170692444,-0.034801412373781204,0.023480167612433434,-0.1351807564496994,-0.16010898351669312,-0.1375822126865387,-0.1332884579896927,0.11644399911165237,-0.12453046441078186,-0.22926034033298492,0.14552506804466248,-0.22879046201705933,0.01785656437277794,0.1546504944562912,-0.0907454714179039,-0.01016872189939022],[-0.09801174700260162,0.058017317205667496,-0.008512580767273903,0.18299104273319244,0.01951862871646881,-0.03990274667739868,-0.1403532326221466,-0.029030516743659973,0.08058927208185196,0.15254715085029602,-0.010424276813864708,0.10313786566257477,-0.09718131273984909,0.1586696207523346,0.12454374134540558,-0.08421512693166733,-0.06894929707050323,0.021035833284258842,0.010941555723547935,0.027763618156313896,0.13003608584403992,0.055854469537734985,-0.1687084585428238,-0.039146021008491516,0.24758240580558777,0.20135720074176788,-0.13119854032993317,0.029558131471276283,0.008324035443365574,-0.17302380502223969,0.08627259731292725,0.24260452389717102,-0.06800904124975204,0.10512454807758331,-0.02955843135714531,0.004599511623382568,-0.07651893049478531,0.025892194360494614,-0.05584675073623657,-0.08788223564624786,-0.1949809491634369,0.18464446067810059,-0.16417258977890015,-0.02575259655714035,-0.008255391381680965,-0.0673689916729927,0.10655050724744797,0.003616973990574479,-0.043904758989810944,0.12904949486255646,0.006782799959182739,0.3084661066532135,-0.042766205966472626,-0.15125373005867004,-0.03323816880583763,0.09925716370344162,0.07284369319677353,0.13381998240947723,-0.06546678394079208,-0.03334161266684532,0.024322593584656715,-0.0680122822523117,0.03170701488852501,-0.01676262356340885,-0.06124631687998772,0.20233915746212006,0.028708230704069138,0.04474518075585365,0.11465732753276825,-0.028823867440223694,0.02862503193318844,0.0331437923014164,0.06784211099147797,0.020156780257821083,0.26198330521583557,-0.14716829359531403,-0.21209897100925446,-0.13898363709449768,-0.08851590752601624,0.018251247704029083,0.0405639111995697,-0.0773918405175209,-0.1077626645565033,0.2191656529903412,-0.21948646008968353,0.12724822759628296,0.045927226543426514,-0.10441471636295319,0.0239228717982769,-0.033247414976358414,0.12287591397762299,-0.20074187219142914,0.024840783327817917,0.12308026850223541,0.0766439437866211,-0.04385053738951683,-0.16758547723293304,-0.08414973318576813,0.1659437119960785,0.1338062435388565,0.006961706560105085,0.01662433333694935,-0.12769250571727753,-0.12279444932937622,0.07166007161140442,-0.19332554936408997,-0.03917401656508446,0.2098609358072281,0.08536122739315033,0.10559819638729095,-0.12919004261493683,0.045164406299591064,-0.023466138169169426,0.031561218202114105,-0.19235195219516754,0.10475854575634003,-0.24735234677791595,0.0020841555669903755,-0.0007089274004101753,-0.08364297449588776,0.09112898260354996,0.07417037338018417,0.12443701922893524,0.07108978927135468,0.001643790164962411,-0.19857381284236908,-0.0015286416746675968,0.14097878336906433,0.14190718531608582,-0.08121883869171143,-0.10936382412910461,0.2807845175266266,-0.0032078956719487906,-0.042014747858047485,-0.14458881318569183,0.05090877041220665,0.020895961672067642,-0.11843433231115341],[-0.048183102160692215,-0.06943739205598831,-0.12018586695194244,0.11167354136705399,0.2810100317001343,0.19663339853286743,-0.04686601087450981,0.08252859115600586,0.02348622865974903,0.0019303017761558294,-0.11666132509708405,-0.0613563247025013,0.039340559393167496,-0.2350488007068634,-0.005581052973866463,-0.1654690057039261,-0.03761082515120506,-0.024292821064591408,0.041064437478780746,0.08432398736476898,-0.013241114094853401,-0.04336969181895256,-0.07666235417127609,-0.11644283682107925,-0.008698072284460068,-0.004609838593751192,-0.06715883314609528,-0.14902149140834808,0.10552500188350677,-0.029766017571091652,0.021610355004668236,-0.022921103984117508,0.13536909222602844,0.20749680697917938,-0.08217664808034897,-0.2500420808792114,0.12285035848617554,-0.24694392085075378,-0.06738226115703583,0.12405215948820114,0.33902707695961,0.005142752081155777,-0.25245925784111023,-0.2101811170578003,0.026164861395955086,-0.02642538771033287,-0.011916063725948334,0.07899250090122223,-0.23317642509937286,-0.03363578021526337,-0.14115692675113678,-0.0122313741594553,-0.018115278333425522,0.12788285315036774,-0.06977605074644089,0.26487836241722107,-0.026170045137405396,-0.018102778121829033,-0.07863586395978928,0.04352211952209473,-0.09084965288639069,-0.15781590342521667,0.007222253363579512,0.0931151881814003,0.1821673959493637,0.020460041239857674,0.04126166179776192,-0.14461356401443481,0.2070780247449875,-0.008548930287361145,0.03407745808362961,-0.15639092028141022,-0.0031920296605676413,0.1032906174659729,0.002551866229623556,0.08994543552398682,-0.1945154219865799,-0.11760120093822479,-0.06912471354007721,0.02265116199851036,0.10812505334615707,0.16613569855690002,0.14127051830291748,-0.18284596502780914,-0.049583800137043,-0.08478886634111404,0.038235850632190704,0.006716113071888685,0.024958211928606033,0.06465096026659012,0.00684958603233099,-0.11088066548109055,0.005122563801705837,0.020509054884314537,-0.09595950692892075,0.0696861669421196,-0.12204629927873611,0.10600698739290237,0.08533753454685211,-0.09856294095516205,0.45156461000442505,-0.17312537133693695,-0.1490938365459442,-0.09419663995504379,0.05230122059583664,-0.13699759542942047,-0.05442599207162857,0.14990152418613434,0.16638249158859253,-0.21178358793258667,-0.02781972475349903,-0.07107014954090118,0.03190810978412628,0.09896475076675415,-0.06513489782810211,-0.03870046138763428,0.09451880306005478,-0.10431773215532303,-0.17798475921154022,-0.0612797811627388,-0.05899816006422043,-0.015540593303740025,0.028452666476368904,0.30172523856163025,0.030144715681672096,0.2643026113510132,-0.0739077553153038,-0.038205038756132126,-0.08106552064418793,0.017894666641950607,-0.06167680025100708,0.09041573852300644,-0.04314078390598297,0.03908924385905266,-0.042483676224946976,0.06818477809429169,-0.05244748294353485,-0.19565357267856598],[0.19332824647426605,-0.056174714118242264,0.07015073299407959,0.05931670591235161,0.010905767790973186,-0.12518931925296783,-0.15207959711551666,0.14708220958709717,0.002777556423097849,-0.07105658948421478,-0.07440727204084396,-0.04995013400912285,-0.12821631133556366,0.05643916130065918,0.07211855798959732,0.027746934443712234,0.13142578303813934,0.08870135247707367,-0.09525804221630096,0.08490733057260513,-0.10795284807682037,0.04273122921586037,0.12040609121322632,-0.22290988266468048,-0.17694951593875885,0.18512026965618134,0.15711639821529388,0.004835967905819416,0.10710747539997101,0.037609707564115524,0.09549285471439362,-0.14205150306224823,0.06777296960353851,0.0290304496884346,0.06225786358118057,0.16072194278240204,-0.014692969620227814,0.1973625123500824,-0.09377025812864304,0.05059710890054703,0.07694867253303528,-0.09064443409442902,-0.12011949717998505,0.12299258261919022,-0.00147713883779943,0.06441568583250046,0.188988596200943,0.003398807952180505,0.10762199014425278,-0.11958103626966476,-0.21699029207229614,0.1143295019865036,-0.05369066819548607,-0.15332746505737305,-0.09862037748098373,-0.1533139944076538,-0.005203967913985252,0.08640605956315994,0.1537398248910904,-0.17283685505390167,-0.057091403752565384,-0.217261403799057,0.10770609974861145,0.05841531977057457,-0.15326519310474396,-0.016054602339863777,-0.09618218243122101,-0.014868986792862415,-0.12944580614566803,-0.008478384464979172,0.04623541235923767,0.21365490555763245,-0.20393629372119904,0.07515500485897064,-0.2679578363895416,0.03406795859336853,0.12696082890033722,-0.014084983617067337,0.2194318175315857,-0.253200501203537,0.019502464681863785,0.05835258960723877,-0.189883291721344,-0.07904680073261261,0.0853361189365387,-0.17286917567253113,-0.08061543852090836,0.05191490054130554,-0.016221631318330765,0.0019777126144617796,0.01478186808526516,-0.1331629604101181,-0.023719817399978638,-0.13878805935382843,-0.1267293393611908,-0.06203309819102287,-0.08596436679363251,0.06407426297664642,0.006436511874198914,-0.037334293127059937,0.12186259776353836,0.35921379923820496,-0.11870044469833374,0.02246832847595215,0.06033695861697197,-0.04098689556121826,-0.10635998845100403,0.07219544053077698,-0.03839568793773651,-0.030050264671444893,-0.19248421490192413,-0.050816748291254044,-0.13165050745010376,0.021508226171135902,-0.1276189684867859,0.048949550837278366,-0.03679180145263672,0.02299468405544758,0.06293611228466034,-0.07362842559814453,-0.1141447052359581,-0.03231717646121979,-0.13759835064411163,0.1359206736087799,-0.11915698647499084,-0.08689463883638382,-0.01784823276102543,-0.09918412566184998,0.059912338852882385,-0.0011214343830943108,0.019058406352996826,0.045023951679468155,0.18586505949497223,-0.06935226172208786,0.1335691213607788,0.04802683740854263,-0.15102419257164001,-0.11033540964126587],[-0.019564751535654068,0.004255110397934914,-0.0931539386510849,0.2605080306529999,-0.09309305250644684,0.2783682346343994,-0.031045259907841682,0.09307682514190674,0.036108825355768204,-0.1733889877796173,0.08567655831575394,0.14505180716514587,0.08644766360521317,-0.11948222666978836,0.06844975799322128,-0.04250425472855568,0.10122077167034149,0.015209365636110306,0.028108971193432808,-0.11849337071180344,0.006473088636994362,-0.020386070013046265,-0.205782949924469,0.12125622481107712,-0.13969022035598755,-0.009215558879077435,0.12159767001867294,-0.11632320284843445,-0.04967799037694931,0.18875637650489807,-0.1420443058013916,-0.07425203919410706,0.034033387899398804,0.03014700673520565,0.20256303250789642,0.2786279022693634,0.07690832018852234,0.021139152348041534,-0.21231400966644287,-0.049611955881118774,0.04840666055679321,-0.03759027272462845,-0.08799104392528534,-0.19776557385921478,-0.08609200268983841,0.038432128727436066,0.02829715795814991,-0.05078880116343498,-0.0001901643117889762,-0.032327309250831604,0.17220528423786163,-0.13727250695228577,-0.06253156810998917,-0.07845189422369003,-0.13845567405223846,0.04851657897233963,0.03015897050499916,0.12522649765014648,-0.1349690705537796,0.07438089698553085,-0.032767653465270996,-0.13553033769130707,0.08173064142465591,0.1944580376148224,0.08993500471115112,-0.00881333276629448,-0.03425286337733269,-0.10658864676952362,-0.09223517775535583,0.12199726700782776,-0.06058506667613983,-0.15525604784488678,0.04796121269464493,0.1812778115272522,0.023228509351611137,-0.04391421377658844,-0.03592844679951668,-0.0660405233502388,-0.17732664942741394,-0.051807891577482224,-0.11338586360216141,0.01785132847726345,0.00655951164662838,-0.00958348624408245,0.1003304272890091,0.02655535377562046,-0.12732873857021332,0.1338970810174942,-0.20461474359035492,0.07989855855703354,-0.052553076297044754,-0.02673202008008957,-0.012229378335177898,0.09489146620035172,-0.08939443528652191,0.06344863027334213,-0.008326433598995209,0.15571464598178864,-0.14126171171665192,-0.03631746023893356,-0.16905684769153595,0.023053046315908432,0.15949149429798126,0.10011431574821472,0.1408221572637558,0.09140922874212265,-0.1736200600862503,0.1657320261001587,-0.16117368638515472,0.028347674757242203,0.04517333209514618,-0.02334507554769516,0.06357166916131973,-0.12352707982063293,0.15073667466640472,-0.13123711943626404,0.23399725556373596,-0.014974856749176979,-0.20965853333473206,0.18125507235527039,0.048297807574272156,-0.13400773704051971,0.13585321605205536,-0.053208254277706146,0.061842046678066254,0.03685741871595383,-0.07780998945236206,0.05261180177330971,0.08146947622299194,-0.020009642466902733,0.13334573805332184,-0.06215698644518852,0.1362777054309845,-0.08301317691802979,0.012770794332027435,0.22722886502742767,-0.04751769080758095,-0.12788651883602142],[-0.054395176470279694,-0.06900806725025177,-0.07337848097085953,0.08956088125705719,0.021916773170232773,-0.08305362612009048,-0.0409725122153759,0.1579592376947403,0.04281583055853844,0.21644991636276245,0.049563344568014145,-0.05460616573691368,-0.06043524667620659,-0.1461021602153778,0.02685479447245598,-0.06520606577396393,-0.006642110645771027,-0.024514032527804375,-0.18226078152656555,0.055860478430986404,0.06009916961193085,-0.1286250203847885,-0.25226444005966187,-0.06064266338944435,-0.14158764481544495,-0.028580820187926292,-0.03451929986476898,0.03548421338200569,-0.02714821882545948,-0.038629256188869476,-0.17245297133922577,0.1950477510690689,-0.05045143887400627,-0.078069768846035,-0.010462133213877678,0.006941187661141157,0.09216523170471191,0.042225103825330734,-0.07337945699691772,0.189137265086174,0.09495618939399719,-0.1661086529493332,0.15648268163204193,0.022580601274967194,0.03939718380570412,-0.15512685477733612,0.00007413630373775959,0.08257028460502625,-0.026381785050034523,0.02384992316365242,-0.13571476936340332,0.08847296237945557,0.10391078144311905,-0.09489015489816666,0.05978319048881531,-0.07592181861400604,-0.08394859731197357,0.0375191867351532,0.2977597117424011,-0.11740148812532425,-0.0538191981613636,0.019105108454823494,-0.11393322795629501,-0.19136205315589905,0.08123069256544113,0.027023129165172577,-0.03627578169107437,-0.02910807356238365,-0.07603372633457184,0.18190988898277283,0.047556228935718536,-0.17124219238758087,-0.053064215928316116,0.07296545058488846,-0.024811754003167152,-0.03925839066505432,-0.04622608423233032,0.10499746352434158,0.13879069685935974,-0.09355010837316513,-0.05841109901666641,0.08896160125732422,0.1415928602218628,0.07461673766374588,0.14429426193237305,-0.1263081431388855,-0.3707331418991089,-0.05437042936682701,-0.06424715369939804,0.10661622881889343,-0.07781381160020828,-0.007188924588263035,-0.17551611363887787,-0.02534952014684677,-0.04572272673249245,-0.29683005809783936,0.0091898487880826,-0.14856436848640442,-0.10896079242229462,-0.20425070822238922,0.04984956607222557,0.03839675337076187,-0.13086380064487457,0.005505608860403299,0.07055153697729111,0.029980042949318886,0.05548786744475365,-0.05291243642568588,0.009390320628881454,-0.10018010437488556,-0.1922937035560608,0.14954788982868195,0.1405418962240219,0.15160970389842987,0.02956627868115902,0.03188259154558182,-0.05764279514551163,-0.05579791218042374,0.04211317375302315,0.0827721580862999,0.04543216526508331,0.12084617465734482,0.043380316346883774,0.04871976003050804,0.01701909676194191,-0.07765185832977295,0.06784172356128693,0.0935751348733902,-0.12940819561481476,0.19158878922462463,-0.07173558324575424,-0.022543834522366524,-0.00408990727737546,-0.13324478268623352,-0.04163438826799393,0.004602683708071709,0.01639292761683464,-0.15919525921344757],[0.10348860174417496,-0.2581750750541687,-0.11069872230291367,0.17004485428333282,0.15396185219287872,0.15170517563819885,0.0475730299949646,-0.15600325167179108,-0.07613193243741989,-0.03292819857597351,-0.029123077169060707,-0.057641349732875824,-0.10650482028722763,-0.1057848259806633,0.020515551790595055,0.04408031702041626,0.17021505534648895,-0.16603191196918488,0.1217079758644104,0.050783921033144,0.17287689447402954,-0.07519789040088654,-0.003686521202325821,0.11022078990936279,-0.12910597026348114,0.2599915862083435,0.032555464655160904,-0.03292795270681381,-0.09825021773576736,0.041236814111471176,-0.06683594733476639,-0.13217830657958984,0.0758538544178009,-0.02676672302186489,-0.05820687115192413,0.1140211671590805,-0.04699926823377609,0.08555467426776886,0.01789792999625206,0.02060718834400177,-0.12344519048929214,-0.09325805306434631,-0.1366090476512909,0.04856384918093681,0.1602628380060196,-0.3074970543384552,-0.16617846488952637,0.03810185566544533,-0.08175219595432281,-0.07836394757032394,0.3028198480606079,0.060695696622133255,-0.12039589881896973,-0.05781829357147217,0.0486067533493042,-0.07400637865066528,0.10440241545438766,-0.02585720084607601,-0.13385039567947388,0.016701167449355125,0.0460185632109642,-0.11699938774108887,0.030524427071213722,-0.0478682741522789,-0.03298216685652733,0.028160225600004196,-0.006956439930945635,-0.0384160652756691,-0.10110718756914139,0.18766407668590546,0.020536018535494804,0.1610279381275177,-0.10940802097320557,0.031380794942379,-0.08029314130544662,-0.025440525263547897,0.08119850605726242,-0.10965386778116226,-0.08794704079627991,0.11339986324310303,0.03657151013612747,0.09177379310131073,0.08396391570568085,0.053746193647384644,0.09113674610853195,-0.1700219213962555,0.13935890793800354,0.0431235134601593,0.04968232288956642,-0.006551419384777546,-0.13763388991355896,-0.087256520986557,-0.12297307699918747,0.043362367898225784,0.01226074155420065,-0.026674939319491386,-0.3028792142868042,0.1375018060207367,-0.08681770414113998,0.13699986040592194,-0.20212164521217346,0.04151057451963425,0.1638898104429245,-0.0352763906121254,-0.0714951753616333,-0.0068967947736382484,0.11299171298742294,0.07442639768123627,-0.08947617560625076,0.015661703422665596,0.2509112060070038,-0.10944703966379166,0.08016745746135712,-0.005936013534665108,0.04611679166555405,0.0005384939722716808,0.24796578288078308,0.04922696575522423,-0.045176587998867035,-0.1391822248697281,-0.01869802735745907,0.11855196952819824,-0.06689883023500443,-0.07794968038797379,-0.010078100487589836,0.2974521517753601,0.14759927988052368,-0.0664692372083664,-0.038805246353149414,-0.04031302034854889,-0.05695197358727455,-0.010483046993613243,0.085249163210392,0.02316155657172203,0.11852582544088364,0.08797676116228104,-0.036252204328775406,-0.007650022394955158],[0.1101834625005722,0.21692506968975067,0.05310807004570961,-0.0051214005798101425,-0.025677775964140892,0.037283994257450104,0.09348760545253754,-0.12816686928272247,-0.09862890094518661,0.021021099761128426,-0.16982115805149078,-0.171744704246521,-0.005156666971743107,0.1284690648317337,-0.030790332704782486,0.20685914158821106,0.08246922492980957,-0.08751249313354492,-0.04213960841298103,-0.013851377181708813,-0.014564286917448044,0.12316584587097168,0.0736851766705513,-0.08541303128004074,-0.10301779955625534,0.03873562812805176,-0.1393589973449707,0.005858039483428001,-0.27286478877067566,-0.05172506347298622,0.11757870018482208,0.0725359171628952,0.012312816455960274,0.09863777458667755,-0.1034431904554367,0.11457455158233643,-0.016451619565486908,-0.009301590733230114,-0.07214455306529999,0.0461033470928669,-0.06477584689855576,0.005909361876547337,-0.0282405074685812,0.002561942208558321,-0.07749269157648087,-0.0053875986486673355,-0.12745758891105652,-0.02650219388306141,0.013367095962166786,-0.06553786993026733,0.059501245617866516,0.14334535598754883,-0.08444794267416,-0.25373509526252747,0.0720335990190506,0.11831972748041153,0.0892191156744957,0.156411275267601,0.08177676796913147,-0.23873783648014069,-0.12097065150737762,-0.11099476367235184,0.012651702389121056,0.0917876809835434,-0.00024571618996560574,0.13554784655570984,0.1146884635090828,-0.0019448493840172887,-0.07859234511852264,-0.057586170732975006,-0.12480783462524414,-0.039685893803834915,0.20132564008235931,-0.01986508257687092,-0.019222917035222054,-0.01255987212061882,0.03446543216705322,0.07951853424310684,-0.10568459331989288,0.0011906626168638468,-0.08137943595647812,-0.1844281256198883,0.22031661868095398,0.15835487842559814,-0.007210614159703255,-0.19382916390895844,-0.10811316221952438,-0.10418395698070526,0.011670717038214207,0.19045919179916382,-0.1588488668203354,0.0285310298204422,0.04890112951397896,-0.08996362239122391,0.051491957157850266,0.09022649377584457,-0.23456519842147827,0.01901060715317726,0.05709056928753853,0.07861687242984772,-0.07660151273012161,0.15407297015190125,0.0038145361468195915,-0.028601065278053284,-0.0023357162717729807,-0.13045957684516907,0.10237734764814377,0.05944891273975372,0.04021820053458214,-0.21018710732460022,-0.11811117082834244,-0.2949528098106384,-0.07832422852516174,0.15507085621356964,-0.04776440188288689,0.0785897895693779,-0.02382197417318821,-0.11158619076013565,0.0972200334072113,-0.09926876425743103,-0.06709247827529907,0.06198323518037796,-0.010715963318943977,-0.18311955034732819,-0.01481481920927763,0.2190506011247635,0.06277064979076385,-0.072538822889328,0.15125331282615662,-0.04040195792913437,-0.14883483946323395,0.11888402700424194,-0.031926751136779785,-0.14166705310344696,0.009261121973395348,-0.10498611629009247,0.18528582155704498,-0.06058076396584511],[0.03346874192357063,0.07252473384141922,-0.20632299780845642,0.0859474167227745,-0.054849084466695786,-0.06220604106783867,-0.05286683514714241,-0.05488219112157822,-0.10977952927350998,-0.030099919065833092,0.22077937424182892,-0.16571243107318878,-0.22685572504997253,0.009462922811508179,-0.001801491598598659,-0.01043237280100584,-0.0628621056675911,-0.041831713169813156,-0.2644977867603302,0.012363736517727375,-0.18464817106723785,0.030623415485024452,-0.10005439817905426,-0.07687387615442276,0.10191823542118073,-0.01750435307621956,0.15321427583694458,0.01961161196231842,0.07696177810430527,0.09682334214448929,0.09643074125051498,0.015839576721191406,-0.20071202516555786,-0.029188409447669983,0.12431793659925461,-0.08856486529111862,-0.0007209128234535456,0.07489106804132462,0.23680207133293152,0.1601320058107376,0.20791122317314148,-0.13842150568962097,0.17177706956863403,-0.1498987376689911,-0.09680671989917755,-0.09147152304649353,0.038538526743650436,-0.03661658987402916,-0.1361979991197586,0.1054396852850914,0.15186353027820587,-0.15098756551742554,-0.13704094290733337,-0.2005343735218048,-0.017166251316666603,-0.02150198072195053,0.004028451628983021,0.09906213730573654,-0.028858747333288193,0.25661909580230713,0.1715203821659088,0.12847518920898438,-0.09173328429460526,0.0574333630502224,-0.0016957776388153434,-0.030091432854533195,-0.06574984639883041,-0.17492569983005524,0.0767078697681427,0.16960769891738892,0.08008293062448502,-0.008174198679625988,0.04044147580862045,0.2769468426704407,-0.1080402359366417,0.12218529731035233,0.1354055404663086,0.05688711628317833,0.0428827702999115,0.005365665536373854,-0.066498301923275,0.3292493224143982,-0.08018548786640167,-0.07741446793079376,0.22619499266147614,0.03288491815328598,0.00837692990899086,-0.08350950479507446,-0.11767558753490448,0.1054372563958168,0.06826163083314896,-0.058365557342767715,0.025969665497541428,-0.020842749625444412,-0.006249634549021721,0.22732961177825928,-0.10896171629428864,0.08785868436098099,0.05055944621562958,-0.1893358826637268,0.17279422283172607,-0.08235689252614975,0.06534669548273087,0.07406677305698395,-0.07835924625396729,0.17513540387153625,-0.24271363019943237,-0.30463388562202454,-0.1508280485868454,0.003634876571595669,0.014272233471274376,0.1550239473581314,-0.10739776492118835,0.01229820866137743,0.13862892985343933,-0.0881534069776535,0.023705998435616493,-0.08507416397333145,-0.0379742830991745,-0.13210651278495789,-0.04645312950015068,-0.013944013975560665,-0.12233898788690567,0.16226299107074738,0.20735026895999908,0.05445921793580055,0.2911006510257721,-0.10417361557483673,-0.2079891860485077,-0.04460035264492035,0.22124777734279633,-0.23405864834785461,0.10498933494091034,0.03982028365135193,-0.027858106419444084,-0.01464475691318512,0.01941191591322422,-0.027937516570091248],[-0.2375943511724472,-0.11055753380060196,0.052409954369068146,0.2575887441635132,0.03027649223804474,-0.1879577785730362,-0.22616073489189148,0.15408360958099365,-0.05390799045562744,-0.12558549642562866,-0.2020852416753769,-0.06616424769163132,-0.03281685337424278,-0.06670019030570984,0.040105048567056656,-0.009591596201062202,0.239181250333786,-0.0556531585752964,-0.0393550768494606,-0.06229139119386673,-0.04851624369621277,-0.06660272181034088,0.024158082902431488,-0.04661913588643074,-0.018135881051421165,-0.09281491488218307,-0.1287451982498169,0.01018010824918747,-0.25131750106811523,-0.030881496146321297,0.06701052188873291,0.19296881556510925,-0.0907789096236229,0.23329795897006989,-0.034151144325733185,0.14949020743370056,0.19320261478424072,0.2873474657535553,-0.07939357310533524,-0.02660260908305645,0.21291546523571014,0.0009706700220704079,0.11675942689180374,0.14112472534179688,-0.14815166592597961,-0.10635462403297424,-0.15812449157238007,-0.1367914378643036,0.17194461822509766,0.16434575617313385,-0.11643826216459274,-0.05993981659412384,-0.06581209599971771,-0.0009311905596405268,-0.06060050055384636,0.25328531861305237,0.28400805592536926,0.12166604399681091,0.10081689059734344,-0.026359057053923607,-0.22299835085868835,0.07043541222810745,0.0033613641280680895,0.03597395122051239,-0.16951000690460205,0.16079767048358917,-0.060123372822999954,-0.05451466515660286,0.07671444863080978,-0.1607086956501007,0.11455754935741425,0.025681400671601295,0.2610401511192322,0.28018611669540405,0.4354265034198761,0.10479115694761276,0.03510933369398117,-0.006513976491987705,0.005013225134462118,-0.2430783361196518,0.05593785643577576,0.05426231026649475,-0.03382311761379242,0.043435364961624146,-0.09058799594640732,0.06546305119991302,0.016348551958799362,-0.013725841417908669,-0.06412580609321594,-0.0007626980077475309,0.09893395006656647,0.04705873876810074,0.20351222157478333,-0.08078223466873169,0.0019650182221084833,0.1674104630947113,0.04528706520795822,0.05844680592417717,-0.02421065978705883,0.01914099045097828,0.29482802748680115,-0.0016834704438224435,0.14143671095371246,0.1511356085538864,-0.00043491972610354424,0.018728746101260185,-0.15750493109226227,-0.015095101669430733,0.19533297419548035,0.07919319719076157,-0.02765023708343506,-0.03261274844408035,0.06838332116603851,0.014234153553843498,-0.16013501584529877,0.01709079183638096,-0.11630064249038696,0.06522618234157562,-0.09868893027305603,-0.045888446271419525,0.08203500509262085,0.1937721222639084,-0.02699465863406658,0.08334799855947495,0.0150377182289958,-0.006025445647537708,-0.17965561151504517,-0.18095402419567108,-0.2716425657272339,0.1301698088645935,0.0864064022898674,-0.02138243243098259,0.07474248111248016,-0.08058261126279831,-0.05969127267599106,0.21626046299934387,-0.15205000340938568,-0.1832955777645111],[0.10924927890300751,-0.1912238597869873,0.029638763517141342,0.3652569055557251,0.05882797762751579,-0.06870697438716888,-0.011402086354792118,-0.03877273201942444,-0.1735529601573944,0.20086301863193512,-0.21684078872203827,-0.06351539492607117,0.10828956961631775,-0.07202532142400742,0.0160475205630064,0.029165050014853477,-0.09941434860229492,0.20668207108974457,0.15757006406784058,0.03489669784903526,0.1582021713256836,0.06416400521993637,-0.15233848989009857,0.011859232559800148,0.1449352502822876,0.1072952151298523,-0.12059951573610306,-0.17889437079429626,-0.15595798194408417,-0.0713433250784874,0.26699623465538025,-0.08471140265464783,0.07926923036575317,-0.04574418067932129,-0.08578511327505112,-0.22350215911865234,0.05151595175266266,-0.10528426617383957,-0.04016483947634697,0.09547661244869232,-0.02886144630610943,-0.12797565758228302,0.18036852777004242,-0.08237984031438828,0.0028548529371619225,0.004703915677964687,-0.13075298070907593,0.08498329669237137,0.11567305773496628,-0.014748911373317242,-0.0071642533876001835,0.0452391654253006,-0.09723002463579178,0.032924287021160126,0.06306204944849014,-0.1198544055223465,0.07983122020959854,0.06612713634967804,-0.14398063719272614,-0.17524346709251404,0.11348970234394073,-0.1704699844121933,-0.0006974660791456699,-0.05202199146151543,0.12563221156597137,-0.014069974422454834,0.013140292838215828,-0.06780390441417694,0.1269715577363968,0.09444133937358856,-0.03456789627671242,-0.10976585745811462,0.06265529990196228,0.1295040249824524,0.23522228002548218,-0.05433882772922516,0.06178034469485283,0.010300956666469574,-0.02729051187634468,-0.02968677319586277,-0.2119760364294052,0.0662863478064537,0.09401687234640121,0.09126316010951996,-0.13462640345096588,-0.06939592957496643,-0.03365541249513626,0.016160212457180023,-0.003909512888640165,-0.04199302941560745,0.05072943866252899,0.08187680691480637,0.037152428179979324,0.023552993312478065,-0.0630221739411354,0.007356405258178711,0.02294519543647766,-0.07439809292554855,-0.0496000275015831,-0.06521577388048172,0.0963047593832016,0.1757749617099762,-0.03633448854088783,0.14950118958950043,0.05628492683172226,-0.008482527919113636,0.009732604026794434,0.11967466026544571,-0.07151900231838226,0.23315483331680298,-0.0036483260337263346,0.1546461135149002,0.12316621840000153,0.0010118968784809113,-0.11688020080327988,-0.01344966422766447,0.15685667097568512,0.045968033373355865,0.045995038002729416,0.047859061509370804,-0.08548642694950104,-0.15707504749298096,-0.03965145722031593,0.05969345197081566,-0.10939921438694,0.11482905596494675,0.02818918228149414,0.05060476064682007,0.24182292819023132,0.018224526196718216,-0.09519833326339722,0.08225017040967941,-0.06593195348978043,-0.14627179503440857,-0.0011346873361617327,-0.020680367946624756,0.1537187248468399,0.00373955350369215],[0.27087393403053284,-0.044627126306295395,-0.02996927872300148,0.011052364483475685,-0.05131234601140022,-0.20882776379585266,0.09884809702634811,0.00227539986371994,-0.02676180936396122,0.030354754999279976,0.12559999525547028,0.050327301025390625,0.021818699315190315,-0.03737981989979744,0.07025913149118423,0.14086726307868958,0.35036030411720276,0.10643273591995239,-0.03120375983417034,0.13438154757022858,-0.08660776168107986,0.022265730425715446,0.13666188716888428,0.0859287679195404,0.02508779987692833,0.027522321790456772,0.027493271976709366,0.08816821128129959,-0.10978337377309799,-0.06099934130907059,-0.006490619853138924,-0.05452530458569527,0.007372927851974964,-0.05081084370613098,0.1263836771249771,0.17288008332252502,-0.0021101958118379116,0.02523783966898918,0.26631098985671997,0.10141284763813019,-0.04581267759203911,0.00252400035969913,-0.047976091504096985,-0.1325225830078125,-0.04224354401230812,0.04229231923818588,-0.010913960635662079,-0.05781800299882889,0.057986773550510406,-0.01707420125603676,-0.0007929061539471149,0.07937038689851761,0.0041100336238741875,0.062359169125556946,0.19034221768379211,0.04467228800058365,0.037401605397462845,-0.047923069447278976,0.12420900166034698,-0.007429047487676144,0.11100628226995468,0.06967334449291229,0.07306071370840073,0.023722343146800995,0.016163378953933716,-0.12297195196151733,-0.07750669121742249,0.13809402287006378,-0.16409146785736084,0.11956679821014404,-0.04400841146707535,0.04231901839375496,0.06725998967885971,0.10208547860383987,0.049839943647384644,0.12121124565601349,-0.03024248778820038,0.11629471182823181,-0.1430814117193222,-0.029734088107943535,-0.32748791575431824,0.1785152405500412,-0.0011934832436963916,0.05001552030444145,0.1819070428609848,0.007732851430773735,-0.15115292370319366,0.08899808675050735,0.10764789581298828,0.14884160459041595,-0.1311338096857071,0.15988004207611084,0.06327323615550995,-0.03075593151152134,-0.14754460752010345,-0.16173875331878662,0.07212937623262405,-0.36889520287513733,-0.015738409012556076,0.0606159046292305,-0.030285393819212914,0.04267406091094017,-0.09447987377643585,0.1932794600725174,0.0473269559442997,-0.023049239069223404,0.05622958764433861,0.06907106935977936,0.07276840507984161,-0.05342378094792366,0.0834377333521843,0.14278115332126617,0.07847005128860474,-0.0057070935145020485,-0.053095005452632904,-0.008742270059883595,-0.0657452717423439,-0.27112314105033875,0.14664076268672943,0.15169638395309448,0.04499577358365059,0.1111965924501419,-0.13902802765369415,-0.027904128655791283,-0.03672834858298302,0.17291441559791565,-0.034015607088804245,-0.10962820053100586,0.09805065393447876,-0.02858632802963257,0.01046336255967617,0.0751524567604065,-0.06920100748538971,0.008922195062041283,0.19610445201396942,0.056494273245334625,0.008754958398640156,-0.12009891867637634],[0.17781738936901093,-0.10509400814771652,0.014193632639944553,0.22529996931552887,0.03172694891691208,0.09401483088731766,-0.13353417813777924,0.18317964673042297,0.010467750020325184,0.06063554063439369,-0.000005327388862497173,0.06076270341873169,-0.04339422658085823,0.10549260675907135,0.034288182854652405,0.0033411080949008465,0.21137161552906036,0.12140283733606339,0.0499105304479599,-0.033904846757650375,0.10638270527124405,-0.11618020385503769,0.03498852625489235,-0.05143670737743378,-0.05051690712571144,0.16285763680934906,-0.015983259305357933,-0.02015974372625351,-0.05374879390001297,-0.2891630232334137,-0.11702500283718109,0.10707667469978333,-0.08366215974092484,-0.13100984692573547,0.11695519089698792,-0.14260168373584747,0.039489708840847015,0.13236016035079956,0.05723096802830696,-0.04419183358550072,-0.19507862627506256,0.02335769310593605,-0.001294864108785987,0.11301528662443161,0.18724873661994934,-0.025084828957915306,0.035645291209220886,-0.09774776548147202,0.30630844831466675,-0.1873266100883484,0.02212485857307911,-0.1257653683423996,-0.00298292119987309,0.03618879243731499,-0.2532975375652313,-0.0659380778670311,0.04158621281385422,0.0843304768204689,0.030716607347130775,0.24647346138954163,-0.02327505312860012,-0.06649929285049438,-0.05537820979952812,-0.0223689042031765,0.22071607410907745,0.15323659777641296,0.09884194284677505,0.21205466985702515,0.04937869310379028,-0.20909005403518677,0.14872416853904724,0.010148108936846256,0.15567754209041595,-0.04952574521303177,0.1313071995973587,-0.14545919001102448,-0.01852530799806118,-0.09140834212303162,-0.08382846415042877,-0.025231819599866867,-0.06869938969612122,-0.04800695180892944,0.05847793072462082,-0.2161540389060974,-0.04792068898677826,0.11110885441303253,0.00425785081461072,0.029282836243510246,-0.10667144507169724,-0.04313502833247185,0.07888220250606537,-0.002523696282878518,-0.0930248275399208,-0.06410769373178482,0.050006601959466934,0.177337646484375,0.1015692874789238,0.019249845296144485,0.0041299620643258095,0.05044881999492645,-0.06233719736337662,-0.14577268064022064,0.16205398738384247,-0.031070098280906677,-0.08743423223495483,-0.2650658190250397,-0.009750367142260075,0.004405711777508259,-0.11234590411186218,0.16406027972698212,0.11364568024873734,0.17667141556739807,0.06980426609516144,0.07584446668624878,0.019672293215990067,0.00018470105715095997,-0.14112375676631927,-0.1091277152299881,-0.20231465995311737,-0.09046503901481628,-0.05318799614906311,0.05924324318766594,0.07855543494224548,0.13801200687885284,0.11824451386928558,0.07757158577442169,-0.02295294776558876,0.09463193267583847,0.04081958159804344,0.11344213038682938,-0.13026770949363708,0.060931868851184845,-0.2122982144355774,-0.1148301437497139,0.048810169100761414,0.02672465890645981,0.037266358733177185,-0.00021530804224312305],[-0.02830900251865387,-0.12562477588653564,0.06064089760184288,0.06505928933620453,-0.2160724252462387,-0.08603323251008987,-0.13206468522548676,-0.18569637835025787,0.08772136270999908,0.02978796511888504,0.026071561500430107,0.030926132574677467,-0.127860888838768,-0.01094004139304161,0.08189797401428223,0.16472503542900085,0.02123858407139778,0.07570226490497589,-0.023932702839374542,0.026025183498859406,-0.14850200712680817,0.042529523372650146,-0.15495027601718903,-0.10589970648288727,-0.07793033868074417,0.014729331247508526,-0.10045450925827026,0.052498020231723785,-0.12435950338840485,0.03108295425772667,0.12568922340869904,0.16626673936843872,0.057552237063646317,-0.12104583531618118,-0.01378109771758318,0.20206321775913239,0.12867388129234314,-0.12456776201725006,0.02828674577176571,0.006354495882987976,-0.13913710415363312,-0.08222506940364838,-0.01662250980734825,0.07339401543140411,0.1255878210067749,-0.14138707518577576,-0.03759140148758888,0.2241940051317215,0.05352504923939705,-0.06370335072278976,0.006391596980392933,-0.0635673925280571,-0.12816108763217926,-0.060756515711545944,-0.028037909418344498,0.03928587958216667,0.0788363590836525,-0.09020811319351196,0.14490966498851776,0.10005760937929153,-0.041872553527355194,0.12082403153181076,-0.2121220976114273,-0.019576165825128555,0.002019727136939764,0.007628927007317543,0.014979219064116478,0.12591856718063354,0.143453449010849,0.19661638140678406,0.06922701001167297,0.06659826636314392,0.12517328560352325,0.010458135977387428,-0.031249871477484703,0.10612540692090988,-0.09706992655992508,-0.03487149253487587,-0.010656881146132946,-0.08515068888664246,-0.009903572499752045,-0.011573702096939087,0.04189309477806091,-0.10498864948749542,-0.061356913298368454,0.07623231410980225,-0.026209460571408272,0.03362252935767174,-0.022364499047398567,0.003505188738927245,-0.1320202499628067,0.17565585672855377,-0.31784409284591675,0.10762066394090652,-0.14192013442516327,-0.04611271247267723,0.1695900559425354,0.23115988075733185,-0.020424261689186096,0.2637941539287567,0.10729482769966125,0.037887606769800186,-0.05000728741288185,-0.047297075390815735,0.1567959487438202,-0.0031430874951183796,0.11221902072429657,0.024673203006386757,-0.053746603429317474,-0.022006696090102196,-0.04372448846697807,-0.0212810430675745,0.055821891874074936,-0.02705414965748787,-0.06464055925607681,-0.08153486251831055,-0.07245336472988129,0.10460469126701355,-0.09890954941511154,-0.0802026242017746,-0.02269107662141323,0.06646586209535599,0.19451090693473816,0.0027716278564184904,0.024175072088837624,0.11907918006181717,0.15319296717643738,0.03914935886859894,-0.09139818698167801,0.09878789633512497,-0.07333839684724808,0.005357404239475727,0.16535307466983795,-0.03799288719892502,0.12161167711019516,0.023041758686304092,-0.21392089128494263,-0.1682412028312683],[-0.16183823347091675,0.06958959996700287,-0.1820269525051117,0.20026609301567078,-0.05591621249914169,0.1350111961364746,0.14124387502670288,0.002138034673407674,-0.1686161309480667,-0.08284304291009903,-0.03599660471081734,-0.022320561110973358,-0.1256978064775467,-0.22018761932849884,0.01205951627343893,0.11439786106348038,-0.04434548690915108,0.06489494442939758,-0.005844893865287304,-0.19972455501556396,-0.1863534301519394,0.2529134452342987,0.029601503163576126,-0.066853828728199,0.11923810094594955,0.06278595328330994,-0.05268385261297226,0.10002538561820984,-0.1590670347213745,-0.256376177072525,-0.12547855079174042,-0.049244217574596405,-0.07932548224925995,0.0017903130501508713,0.006223403383046389,0.18203215301036835,0.013957666233181953,0.06354925781488419,0.10661476105451584,-0.02621648646891117,0.12556523084640503,0.08046215027570724,0.04003996029496193,-0.17951273918151855,0.018448786810040474,-0.057364288717508316,-0.09767410904169083,-0.022003496065735817,0.10202648490667343,0.009178463369607925,-0.15220360457897186,-0.07418928295373917,-0.07736684381961823,-0.03742583841085434,-0.03171059116721153,-0.02543812245130539,0.0385948121547699,0.01196971070021391,-0.18620577454566956,0.2684076130390167,0.1451554000377655,-0.052737027406692505,-0.05657706782221794,-0.11068569123744965,0.035507284104824066,-0.15594609081745148,0.08320686966180801,0.07248613983392715,0.0064649563282728195,0.10327374190092087,-0.09278140217065811,0.13391855359077454,0.056645531207323074,0.11098234355449677,-0.017776280641555786,-0.16376879811286926,-0.07542960345745087,0.07975035160779953,0.023333868011832237,0.15374323725700378,0.0734829381108284,0.09069498628377914,0.032493941485881805,0.06482423841953278,-0.05436096340417862,-0.12831661105155945,0.03133765980601311,-0.19057035446166992,0.056556668132543564,-0.04852154850959778,0.1770193725824356,-0.1786542534828186,0.2514064311981201,0.10033130645751953,-0.04128830507397652,0.09844004362821579,0.07885157316923141,0.3541238605976105,-0.10640140622854233,-0.007448754273355007,0.18645639717578888,-0.10045413672924042,-0.030603880062699318,0.024987194687128067,-0.10568234324455261,0.061825189739465714,-0.028225747868418694,-0.059747643768787384,0.18586663901805878,0.04982249066233635,-0.020967606455087662,0.047521207481622696,0.08345208317041397,-0.1171233281493187,-0.08659090846776962,-0.20608609914779663,-0.1276165097951889,-0.09490630030632019,0.08262121677398682,-0.027435002848505974,0.03746112808585167,-0.24539831280708313,-0.08752276748418808,-0.1268167644739151,-0.003745040390640497,-0.12675084173679352,-0.04604548215866089,-0.3089336156845093,0.16558106243610382,-0.3057892620563507,-0.15832826495170593,0.09584446996450424,-0.06220957636833191,-0.2230767458677292,0.020737839862704277,0.14687636494636536,0.06138711795210838,-0.23329803347587585],[0.11799962818622589,-0.04637268930673599,0.1968391090631485,-0.05827496573328972,-0.23585844039916992,0.08323901146650314,0.24906666576862335,0.12844307720661163,-0.1568329930305481,-0.11064644157886505,0.09620500355958939,0.004855053499341011,0.05641978979110718,-0.02449606917798519,0.1462511271238327,-0.049544282257556915,-0.21013739705085754,0.18498657643795013,0.08415301144123077,-0.12808918952941895,-0.12601478397846222,0.08684037625789642,-0.030702251940965652,0.04556999355554581,-0.01718457229435444,0.041086193174123764,-0.08195021748542786,-0.016686035320162773,-0.12299297749996185,0.020024588331580162,-0.18818919360637665,-0.029676344245672226,0.18472224473953247,0.012039689347147942,0.055988751351833344,-0.021007193252444267,0.07968568056821823,-0.09486079216003418,-0.19984765350818634,0.0030468949116766453,-0.02607850916683674,0.15263286232948303,0.001148001290857792,0.03005209192633629,-0.05731535330414772,-0.05817009508609772,0.10185359418392181,0.11399739980697632,0.22540698945522308,-0.026090282946825027,-0.05076729878783226,0.12148807942867279,-0.06080574914813042,-0.013407912105321884,0.0055234250612556934,0.17397533357143402,0.02981453202664852,0.12170916050672531,0.09322678297758102,-0.10778135806322098,-0.0020282668992877007,-0.11935693770647049,-0.08091826736927032,0.01127882394939661,0.17140792310237885,0.06656133383512497,0.04422706738114357,-0.01758141815662384,0.09534769505262375,0.11384635418653488,0.03447045385837555,-0.14741204679012299,-0.05153098329901695,0.17771980166435242,0.05686148628592491,-0.10278723388910294,-0.11135146766901016,0.0021206524688750505,-0.054490502923727036,0.09842351824045181,-0.010297395288944244,0.04563594609498978,0.16119728982448578,-0.040335770696401596,-0.15394890308380127,-0.08637284487485886,-0.19082650542259216,0.18642619252204895,-0.2702617943286896,0.043025024235248566,-0.047891005873680115,0.1506102830171585,0.10677944868803024,0.06444773077964783,-0.04292231425642967,0.23940087854862213,0.031551770865917206,-0.03952345997095108,0.06326872110366821,-0.018376333639025688,0.07894352078437805,0.029756074771285057,-0.029587090015411377,0.10778612643480301,0.048201680183410645,-0.13333489000797272,-0.07509244233369827,-0.11514367163181305,-0.17166440188884735,-0.07439550012350082,-0.01155476551502943,0.11661699414253235,0.05309061333537102,-0.15562976896762848,0.019596610218286514,-0.1178128570318222,0.0015490795485675335,-0.047541018575429916,-0.02556517720222473,-0.12656104564666748,0.07711004465818405,0.001060680253431201,0.11386778950691223,0.011472835205495358,-0.023175271227955818,0.028431398794054985,-0.17732453346252441,-0.3141365945339203,-0.1810457706451416,-0.059260159730911255,0.06666790693998337,0.16862258315086365,-0.11343469470739365,-0.04584452137351036,0.07982923835515976,0.1632326990365982,-0.12500545382499695,0.040339723229408264],[0.11833664774894714,-0.03720260411500931,0.2627899646759033,0.016559990122914314,-0.12836256623268127,0.014128263108432293,0.026945339515805244,0.08341420441865921,-0.016752302646636963,-0.025453366339206696,0.05212666839361191,0.09606397151947021,0.19388923048973083,-0.019340097904205322,-0.01616593636572361,0.019887683913111687,0.04118257761001587,-0.00654573692008853,0.0089732576161623,-0.1135544627904892,0.024530628696084023,-0.06168689578771591,0.08001485466957092,0.08036600053310394,0.06651002168655396,0.002968729240819812,-0.007045867387205362,-0.0032952050678431988,-0.07627483457326889,-0.0354328379034996,0.09914042800664902,0.023854423314332962,0.008052538149058819,0.10310213267803192,0.1399492770433426,-0.029459383338689804,0.04757502302527428,0.010469771921634674,-0.09838094562292099,-0.16639471054077148,-0.06168169900774956,0.12752431631088257,-0.03287702426314354,0.07980360090732574,0.2487242966890335,-0.01142044086009264,0.20719453692436218,-0.12818248569965363,0.23260201513767242,-0.179891437292099,0.06596871465444565,0.006655803881585598,-0.06747470796108246,-0.31308433413505554,-0.12806950509548187,-0.20267514884471893,0.11192942410707474,0.002511504804715514,-0.11771868169307709,-0.08638118207454681,0.20314042270183563,-0.00004826625809073448,-0.0033745381515473127,-0.02371780015528202,0.19403888285160065,0.025585195049643517,-0.08197226375341415,0.006112350150942802,-0.10368800163269043,-0.04686310887336731,-0.08220849186182022,0.01708832196891308,0.10372918844223022,-0.003486773930490017,-0.039578281342983246,-0.16317415237426758,-0.11146696656942368,0.03547842055559158,-0.006262604612857103,0.018740806728601456,-0.11920434236526489,0.032113030552864075,0.22721117734909058,0.21411184966564178,0.04826687276363373,-0.06682740896940231,0.0028837784193456173,0.04318736493587494,0.06492063403129578,-0.014837958849966526,0.14692391455173492,0.05193421244621277,-0.10342526435852051,-0.059972673654556274,0.050537094473838806,-0.016160383820533752,0.023652730509638786,0.007857215590775013,0.19021877646446228,0.060206834226846695,0.1669984608888626,0.08515610545873642,0.006094104610383511,0.13655856251716614,-0.035795409232378006,0.015061955899000168,0.08538864552974701,0.05337347462773323,0.08968627452850342,0.08850020170211792,0.1329934448003769,0.009153986349701881,0.08416091650724411,-0.057604990899562836,0.19648602604866028,0.03498426079750061,0.0880027785897255,0.10629265010356903,-0.06578047573566437,-0.05404599383473396,0.1283368617296219,0.06690458953380585,0.2874293923377991,-0.02833699993789196,0.14395968616008759,0.08367371559143066,0.020120756700634956,0.10217908024787903,-0.009147516451776028,0.07242446392774582,0.0042366147972643375,-0.12816140055656433,-0.007206625770777464,-0.06437123566865921,-0.04087680205702782,0.03996099531650543,0.021818693727254868,0.25178447365760803],[0.10014195740222931,-0.2943642735481262,-0.035006213933229446,0.024544650688767433,0.02148069255053997,0.08328113704919815,0.07957866787910461,0.023201022297143936,0.03256013244390488,0.04610547795891762,0.07617060095071793,-0.2736321687698364,-0.03168582171201706,0.12706321477890015,0.13998688757419586,0.10007373243570328,0.2344120293855667,-0.03767525777220726,0.20915772020816803,0.10543985664844513,0.017734583467245102,-0.04923519119620323,-0.029996030032634735,0.01863074116408825,-0.15026727318763733,-0.10199451446533203,-0.13410624861717224,0.041444092988967896,-0.021200107410550117,0.18688847124576569,-0.09347778558731079,0.24084191024303436,0.08670122921466827,0.005496930330991745,0.010783085599541664,0.07830199599266052,0.053036730736494064,-0.05546826869249344,0.03342929482460022,0.07495789229869843,-0.0402313657104969,-0.06999874860048294,0.17924650013446808,0.10363608598709106,-0.0335257351398468,0.05454666167497635,-0.09280794858932495,-0.0464417040348053,-0.1612951159477234,-0.023524068295955658,-0.018114648759365082,0.04186135157942772,0.13729073107242584,-0.10221010446548462,-0.01932157762348652,-0.03851751238107681,-0.05019153654575348,-0.08671523630619049,0.09420716762542725,-0.17601914703845978,0.043244365602731705,0.1811586320400238,-0.05579216033220291,-0.14880184829235077,-0.04434552043676376,-0.05697028711438179,0.028421422466635704,-0.13759715855121613,0.10611347109079361,0.26077085733413696,0.011647571809589863,-0.12129117548465729,0.041240841150283813,-0.037310000509023666,-0.040776677429676056,-0.016573533415794373,0.011341861449182034,-0.2192336767911911,-0.09605053812265396,0.0428505502641201,0.004184405319392681,0.141032412648201,-0.19642455875873566,0.10021644830703735,0.09376439452171326,0.11628685891628265,-0.07268153876066208,-0.015137635171413422,0.14707200229167938,-0.03968912735581398,-0.0670485720038414,0.07509380578994751,-0.1544114500284195,0.05469889938831329,0.10803808271884918,-0.006573837716132402,0.05575859546661377,0.14197079837322235,0.07787437736988068,0.07864782214164734,0.017356926575303078,-0.07345809787511826,0.02624131366610527,-0.0276888869702816,-0.023335007950663567,-0.13232485949993134,-0.0245006512850523,0.09529794007539749,0.0468108169734478,-0.12225733697414398,0.0788903534412384,0.0019926659297198057,0.23392227292060852,0.09296947717666626,-0.05269746482372284,0.03446999937295914,0.1499260812997818,0.06868398189544678,0.1530180126428604,-0.031308483332395554,0.23210428655147552,-0.01920410804450512,-0.1426168978214264,0.21582680940628052,-0.04793510213494301,0.18354526162147522,-0.13867422938346863,-0.02740463800728321,0.03723329305648804,0.011865757405757904,-0.1041036918759346,-0.11382834613323212,0.07942554354667664,0.03609224781394005,-0.047015368938446045,-0.08396077156066895,0.02876860275864601,-0.06342974305152893],[-0.10983598977327347,-0.05263209342956543,0.048115573823451996,-0.024245070293545723,0.053881075233221054,0.05862030014395714,-0.02533535845577717,0.2255159616470337,0.10788184404373169,-0.032125748693943024,-0.058344557881355286,0.04237377271056175,0.31419676542282104,0.00894122663885355,0.09988899528980255,0.0005875471979379654,0.006336180493235588,-0.08515869826078415,-0.2827032506465912,-0.023710211738944054,0.07344164699316025,0.0038377789314836264,-0.008515382185578346,0.04362517595291138,-0.11077375710010529,-0.011395609937608242,-0.06433544307947159,0.033377569168806076,0.011296458542346954,-0.0210588276386261,-0.02631618268787861,0.1178000271320343,-0.06932041049003601,0.04214257001876831,0.04153779149055481,0.11586213856935501,-0.11374027281999588,-0.059023015201091766,-0.06599610298871994,0.005510400980710983,-0.009573105722665787,0.07405438274145126,0.15346848964691162,0.1473502814769745,0.03643086552619934,0.18245916068553925,0.014298534020781517,-0.13203966617584229,0.12583625316619873,0.1340174823999405,0.04700123891234398,0.006157585885375738,-0.055283304303884506,0.06446313858032227,-0.05000622943043709,-0.020023029297590256,0.14023752510547638,-0.12892365455627441,0.0227160956710577,-0.10399381816387177,0.015297172591090202,-0.15555162727832794,-0.2588181495666504,0.0266078133136034,-0.11701545864343643,0.04788962006568909,0.002709039719775319,0.09206462651491165,0.05469793081283569,0.10561495274305344,-0.13266193866729736,-0.1148395910859108,-0.077994704246521,0.07554008066654205,-0.09387639909982681,-0.11879149079322815,-0.017802659422159195,-0.0383417047560215,0.1308707743883133,0.03175349533557892,-0.11637573689222336,0.007922446355223656,0.01780594512820244,-0.022755829617381096,0.01993708126246929,0.0732089951634407,-0.039745960384607315,-0.04041138291358948,-0.18857406079769135,-0.08836041390895844,-0.0012831009225919843,-0.10056333243846893,0.061175279319286346,-0.027678027749061584,-0.08737483620643616,-0.10987600684165955,-0.007884792983531952,-0.1586318165063858,-0.06003604829311371,-0.16871730983257294,0.013779625296592712,-0.21996016800403595,-0.12200449407100677,-0.013033580034971237,-0.0301688089966774,-0.24254804849624634,0.02815920300781727,0.09219878911972046,-0.05070769041776657,-0.07385708391666412,0.025133678689599037,0.0048826467245817184,0.02948160283267498,-0.01225360855460167,-0.15553395450115204,0.052614305168390274,-0.1330789476633072,-0.002393688540905714,-0.04454704374074936,0.06488524377346039,0.045139506459236145,-0.005305159837007523,-0.1434873789548874,-0.09256058186292648,0.06605923920869827,-0.031776897609233856,-0.24300013482570648,-0.06289655715227127,-0.03378789871931076,0.028744932264089584,-0.058880385011434555,0.012483174912631512,0.1445501446723938,0.02937476523220539,-0.023830341175198555,0.042826615273952484,0.10173404961824417,0.1869347244501114],[0.11105740070343018,-0.03576883301138878,-0.04568048194050789,0.01214983593672514,-0.02686021663248539,0.08510785549879074,0.02993188239634037,-0.013219708576798439,-0.009630054235458374,-0.12602820992469788,0.0032762500923126936,0.07492253184318542,-0.08133943378925323,-0.09740515053272247,0.14639458060264587,-0.15365569293498993,0.10480451583862305,-0.06296670436859131,0.011882605962455273,0.014565533958375454,0.17050988972187042,-0.11043179035186768,-0.14359910786151886,0.28791001439094543,0.1823238581418991,-0.02573789469897747,-0.12677167356014252,-0.03833145275712013,0.05894201993942261,-0.12654580175876617,0.06349968910217285,-0.19353561103343964,0.21489456295967102,-0.00020614801906049252,-0.12697169184684753,0.06672660261392593,-0.032519519329071045,-0.01083365362137556,-0.09929540753364563,0.021511796861886978,0.06093974784016609,-0.015750089660286903,0.022071290761232376,0.10667595267295837,0.11969910562038422,0.006241995841264725,0.04645512253046036,-0.014896796084940434,0.045810651034116745,-0.13006779551506042,-0.17869116365909576,0.052790164947509766,-0.10584264248609543,0.044554419815540314,0.025544336065649986,0.0009398147230967879,0.09208931028842926,-0.027052711695432663,-0.11050280183553696,-0.12713995575904846,-0.08945643901824951,0.08575351536273956,-0.121158167719841,0.04238707199692726,0.09319857507944107,-0.09452083706855774,-0.09708493202924728,-0.2178071290254593,0.033356793224811554,0.006186595186591148,0.039232295006513596,-0.029860075563192368,-0.027786001563072205,-0.09272851049900055,0.010758726857602596,-0.11600568890571594,0.0008092038333415985,-0.08706715703010559,0.026302196085453033,-0.006179867312312126,-0.10466168820858002,0.031431786715984344,-0.006725843995809555,-0.005121099762618542,-0.044414255768060684,-0.04625088721513748,0.15879571437835693,-0.06406686455011368,-0.016436520963907242,-0.07145699113607407,0.07412184774875641,0.1497059315443039,0.009181225672364235,-0.03274746611714363,0.02656213380396366,-0.023647496476769447,0.03701581805944443,-0.046488456428050995,-0.05498237535357475,0.022211149334907532,-0.04578149691224098,-0.0601128451526165,-0.045668795704841614,-0.07791552692651749,0.06752680242061615,-0.15461672842502594,0.12462002784013748,0.25117579102516174,0.039880797266960144,-0.10100614279508591,0.07020147144794464,0.15602347254753113,0.07146705687046051,0.01375792920589447,0.0832177996635437,-0.03887602314352989,-0.12345318496227264,0.06722746044397354,-0.07339693605899811,0.20698919892311096,0.14112693071365356,-0.03540009260177612,-0.13777939975261688,-0.08903944492340088,0.16122916340827942,-0.047924019396305084,-0.05273415893316269,-0.04896840825676918,0.2415836751461029,0.007760492153465748,-0.023973608389496803,0.08441761136054993,-0.07802841067314148,0.02290903404355049,-0.09884224832057953,-0.08428019285202026,0.06182873621582985,0.09821002185344696],[0.050678715109825134,-0.22662320733070374,-0.045892201364040375,-0.19169682264328003,-0.07098281383514404,0.11400201916694641,-0.06562885642051697,-0.3076637387275696,0.09497328102588654,0.10734140127897263,0.115985207259655,-0.048059962689876556,0.08832061290740967,-0.1533767580986023,0.05590770021080971,-0.08058938384056091,-0.06891164183616638,-0.15943080186843872,-0.03778497129678726,-0.1153765395283699,0.3411096930503845,-0.1706750988960266,-0.1687726527452469,-0.019610799849033356,-0.008877159096300602,0.08134286850690842,-0.07300471514463425,0.1586439311504364,-0.06826740503311157,-0.11529576033353806,0.06481241434812546,0.02259269542992115,0.11323598772287369,-0.19916893541812897,-0.17362093925476074,-0.019926482811570168,0.04741489514708519,-0.05063774436712265,-0.03105982579290867,0.1670926809310913,-0.1400972157716751,-0.012047534808516502,-0.18108439445495605,0.20640763640403748,-0.05009409040212631,0.07948272675275803,-0.18122214078903198,0.034872498363256454,0.10785730928182602,-0.09906670451164246,0.011525612324476242,0.16831843554973602,-0.04446921497583389,-0.07767186313867569,0.0494699664413929,-0.03069412335753441,0.023228341713547707,-0.19642263650894165,-0.05716119706630707,-0.12721596658229828,-0.22674599289894104,0.0721401646733284,0.06960845738649368,-0.06190694868564606,0.0666009709239006,0.005282610654830933,-0.0497015044093132,-0.009119796566665173,0.1251358538866043,0.09068560600280762,-0.09372901916503906,-0.08486215025186539,0.044079773128032684,-0.21329264342784882,0.015347329899668694,-0.006463056430220604,0.1802458018064499,-0.03865468502044678,0.035092756152153015,-0.04445638135075569,0.20171751081943512,0.011707577854394913,0.25571897625923157,0.08130631595849991,-0.036384932696819305,0.026242144405841827,0.042874377220869064,0.17757637798786163,-0.007151809986680746,-0.11287670582532883,0.026114828884601593,-0.07863900810480118,-0.17853327095508575,-0.1687689572572708,0.05990619957447052,-0.029660280793905258,0.11483334749937057,0.0023591862991452217,-0.1586115062236786,-0.1382359117269516,0.02792598120868206,-0.09500480443239212,0.14514178037643433,-0.06790252029895782,-0.015553710982203484,0.059442128986120224,0.15602326393127441,-0.0722881555557251,-0.022926494479179382,0.020805079489946365,-0.023539336398243904,0.07103262841701508,0.03913751244544983,-0.06387201696634293,0.004453573375940323,-0.11597105860710144,0.10784678906202316,0.04513942077755928,-0.027932606637477875,-0.03748301789164543,-0.09584224224090576,-0.012839920818805695,0.16813762485980988,-0.11774442344903946,0.10631115734577179,0.04375967010855675,-0.08776739239692688,-0.11695793271064758,-0.11997849494218826,0.18151366710662842,-0.0514693446457386,0.02596360631287098,-0.07535779476165771,-0.0354367233812809,-0.017739126458764076,0.0723579004406929,-0.02307838574051857,0.1857808381319046],[0.04674086719751358,-0.20947623252868652,-0.013415711000561714,-0.14389924705028534,0.04487932473421097,0.07430732995271683,0.1969345062971115,0.14506405591964722,0.038508497178554535,0.03045334666967392,-0.020075801759958267,-0.06900015473365784,-0.008625980466604233,0.03664984554052353,0.07197807729244232,0.15059858560562134,0.2201627492904663,-0.05634588375687599,-0.05233735963702202,0.27792292833328247,-0.029073797166347504,0.02146182954311371,0.02568022347986698,-0.07788297533988953,0.05985691398382187,0.155387744307518,-0.20231498777866364,-0.03273503854870796,-0.0614175945520401,0.09432504326105118,-0.1204565092921257,-0.0336255207657814,0.2082066386938095,0.09317547082901001,0.14014789462089539,0.11894850432872772,0.05795851722359657,0.05193096399307251,0.03787824884057045,-0.16655902564525604,0.0763988271355629,-0.12945018708705902,0.11322416365146637,0.06056445837020874,0.050534024834632874,-0.0744091346859932,-0.23291942477226257,0.19096608459949493,-0.006077590398490429,-0.008375906385481358,-0.03816290199756622,-0.2478923201560974,0.08488105982542038,0.00857695285230875,-0.1514613777399063,-0.07902935147285461,0.035054489970207214,-0.1273508071899414,0.16190804541110992,-0.17138482630252838,-0.04257216677069664,0.1700320690870285,0.01944943517446518,-0.004321755841374397,-0.01913822814822197,-0.07513371109962463,0.04256531596183777,0.12365814298391342,0.01702723652124405,0.005917033646255732,-0.00646570697426796,-0.06613751500844955,-0.02891027368605137,-0.2549292743206024,0.07125982642173767,0.03199459984898567,0.12511003017425537,0.10890889167785645,0.04595726728439331,0.059669822454452515,0.13139259815216064,-0.16119249165058136,0.11035747081041336,0.0654287114739418,-0.10050331801176071,0.08450445532798767,0.021253272891044617,0.052673496305942535,0.21739250421524048,-0.030465006828308105,0.03448795899748802,-0.06561500579118729,-0.17108727991580963,0.017580745741724968,0.21728581190109253,-0.07410793751478195,-0.10229261964559555,-0.18940088152885437,-0.14823687076568604,0.2826771140098572,-0.11191824823617935,-0.09936683624982834,-0.1165851503610611,0.04905609041452408,-0.11129958927631378,0.0899062529206276,-0.033406857401132584,-0.1320316344499588,0.07994230836629868,-0.09306000173091888,-0.032646603882312775,-0.09546580165624619,0.19978034496307373,-0.09199658036231995,-0.03696082904934883,-0.0626726895570755,0.10808482766151428,0.11961338669061661,0.29902777075767517,-0.058144304901361465,-0.08766944706439972,-0.17318330705165863,0.09363080561161041,0.10925419628620148,-0.034042421728372574,0.2633802592754364,-0.04257636517286301,-0.05869855359196663,0.011851763352751732,-0.23418009281158447,-0.05564509332180023,0.011756009422242641,-0.16146700084209442,-0.04903912544250488,-0.1302947700023651,0.03901541978120804,-0.07847683131694794,0.16137003898620605],[0.029345840215682983,0.03236112743616104,-0.053667597472667694,0.2737102210521698,-0.061281051486730576,-0.010937953367829323,0.11454112082719803,0.18303771317005157,0.1192532554268837,-0.043513182550668716,-0.12423378229141235,0.08008532226085663,-0.028794318437576294,-0.08753430098295212,-0.1424889713525772,-0.11027337610721588,0.04284154623746872,-0.017658377066254616,0.005752934608608484,0.27996954321861267,-0.0719829723238945,0.13486459851264954,-0.08705420792102814,0.13711068034172058,-0.10527200251817703,-0.08249346911907196,0.12676207721233368,-0.1086563915014267,0.049001723527908325,-0.15849868953227997,0.006030697375535965,-0.25175777077674866,0.007339366711676121,0.16037426888942719,0.21772795915603638,0.26341935992240906,-0.0015327348373830318,0.07627321779727936,-0.2480381578207016,0.13457265496253967,0.01140656229108572,-0.06765524297952652,0.006007136311382055,-0.0002895141951739788,-0.07861657440662384,-0.20165897905826569,0.1107187569141388,0.09957684576511383,0.1670805960893631,0.0958482176065445,0.07296416163444519,-0.16379280388355255,-0.1143912523984909,0.011718768626451492,-0.014984391629695892,0.17183944582939148,-0.14562581479549408,0.05785679072141647,0.15733003616333008,0.19205209612846375,0.24830526113510132,-0.027800623327493668,-0.15736274421215057,0.07268815487623215,0.07199154794216156,0.11900748312473297,-0.2231665700674057,-0.22129803895950317,0.13227126002311707,-0.07032258808612823,-0.05547654628753662,-0.05623733997344971,0.07448546588420868,0.18255645036697388,-0.08968792110681534,0.15125423669815063,-0.1232483834028244,-0.009045898914337158,0.017382316291332245,-0.07909081876277924,-0.0808916911482811,0.19305099546909332,0.035383597016334534,-0.06283674389123917,0.16819073259830475,0.14913654327392578,0.02751081995666027,-0.10116691142320633,0.17433251440525055,0.01766377128660679,0.00142911565490067,-0.04831686243414879,-0.15106341242790222,0.052122775465250015,-0.013140660710632801,-0.10997113585472107,-0.07247501611709595,0.07072804123163223,-0.21774625778198242,-0.0031257823575288057,0.2151806354522705,-0.10813531279563904,0.18206243216991425,0.20483969151973724,-0.10384844243526459,0.07638177275657654,-0.17107568681240082,0.0521535649895668,-0.18400201201438904,-0.12908565998077393,0.12152837961912155,0.04746060445904732,0.1781323105096817,0.13991639018058777,0.1026388555765152,-0.2702701985836029,0.13892754912376404,-0.0942317396402359,-0.06776081025600433,-0.2391592264175415,-0.11038463562726974,0.020320579409599304,0.1507309228181839,0.008458108641207218,0.024331869557499886,-0.014036687090992928,0.03810945898294449,-0.059616491198539734,0.04926658794283867,-0.06281688064336777,-0.07121961563825607,-0.04715443402528763,0.08706934005022049,-0.12937363982200623,-0.017899703234434128,0.185344398021698,-0.05292992293834686,-0.12374650686979294],[-0.09683375805616379,-0.08350144326686859,0.0754859670996666,0.0247856006026268,-0.013730295933783054,-0.021790385246276855,-0.16930408775806427,0.03578893467783928,-0.028625791892409325,-0.09499949216842651,-0.0922386571764946,0.056335389614105225,-0.14721065759658813,-0.08340781927108765,-0.08703906834125519,0.041935838758945465,-0.015274700708687305,0.04286747798323631,0.1067308560013771,0.10418348759412766,-0.10488862544298172,-0.14334706962108612,-0.21376411616802216,-0.03421974927186966,0.021473797038197517,0.018957458436489105,-0.0031972629949450493,0.036178331822156906,-0.0346795991063118,-0.1274484544992447,0.1179916262626648,-0.12334463000297546,0.014664015732705593,-0.047585662454366684,-0.1795438826084137,0.01761719584465027,0.03201825171709061,0.016946999356150627,-0.082009457051754,0.06663341820240021,0.07438881695270538,-0.03469245135784149,-0.10253947228193283,0.020290909335017204,0.03461863473057747,-0.162567138671875,0.13803286850452423,0.022270217537879944,-0.08409543335437775,0.06517250835895538,0.25339123606681824,0.05632203817367554,0.1479586660861969,0.1658899486064911,-0.04710853099822998,0.20366501808166504,-0.008589704521000385,0.11787165701389313,-0.044466130435466766,0.13940536975860596,-0.2567971646785736,-0.011392724700272083,-0.05066085606813431,0.017273519188165665,0.22182349860668182,0.18790994584560394,0.09416429698467255,-0.02100863866508007,0.2211938500404358,-0.09019951522350311,0.05158436298370361,-0.34870943427085876,0.1721186339855194,-0.008355721831321716,-0.1876002848148346,0.11844558268785477,-0.048451025038957596,-0.05487022176384926,-0.17762769758701324,0.00267873820848763,-0.14634636044502258,0.2158748060464859,0.18522775173187256,0.03167993947863579,0.16855549812316895,0.10557300597429276,0.036832988262176514,-0.11162932962179184,0.04092901945114136,-0.08946312963962555,0.10279588401317596,-0.006446514744311571,0.20798726379871368,-0.021860860288143158,-0.09350962936878204,0.07890541106462479,0.10060726851224899,0.00930347852408886,-0.12141377478837967,0.0037932991981506348,-0.10058233141899109,-0.12428127974271774,-0.16483348608016968,-0.1741231083869934,0.10167668759822845,-0.04699675738811493,-0.1475987732410431,0.18315932154655457,0.06729189306497574,-0.060224905610084534,0.12843459844589233,0.11400553584098816,0.04625299200415611,-0.1299809068441391,0.10709366947412491,-0.15024743974208832,-0.08160464465618134,-0.06533239036798477,-0.1747242510318756,0.1484624296426773,0.036451634019613266,0.13653090596199036,-0.009074403904378414,-0.1325068175792694,0.14436841011047363,0.11419336497783661,-0.17602603137493134,-0.22934289276599884,-0.05402855575084686,-0.08108800649642944,0.20264369249343872,0.0018128501251339912,-0.07594183832406998,-0.028997527435421944,-0.027688534930348396,-0.07042968273162842,0.06816565245389938,0.06725259125232697],[0.04548202455043793,-0.06326428055763245,-0.09443943202495575,-0.1427801102399826,-0.0049070995301008224,0.08622852712869644,0.04270845651626587,0.10277031362056732,-0.014650003984570503,0.03736671060323715,0.0989665538072586,-0.14381496608257294,0.10482862591743469,0.21938426792621613,-0.02143096551299095,0.05294039472937584,0.059902843087911606,-0.1591109335422516,-0.10612960904836655,-0.09354567527770996,0.016374832019209862,0.02733672969043255,0.05916043370962143,-0.13589704036712646,-0.15373773872852325,-0.01429533027112484,0.056906066834926605,0.0777406394481659,-0.22030073404312134,0.10649340599775314,0.005105207674205303,0.047418199479579926,0.05622963234782219,0.14039207994937897,-0.07993635535240173,0.06184656172990799,-0.04617323726415634,-0.09688306599855423,0.012201424688100815,0.05309409275650978,-0.13028082251548767,-0.005553728435188532,0.06343281269073486,-0.02855471707880497,0.0906277671456337,-0.055223315954208374,-0.10730205476284027,-0.1284269541501999,0.20378689467906952,0.1519322246313095,0.04034893214702606,0.17256473004817963,-0.19807031750679016,-0.05207212641835213,0.016162719577550888,-0.0027832745108753443,0.07816322147846222,-0.13439121842384338,0.1207166537642479,0.009005023166537285,0.13150282204151154,0.05137811601161957,-0.26367050409317017,-0.29663631319999695,0.0921054407954216,-0.029725806787610054,-0.009392322972416878,-0.15640224516391754,-0.018922816962003708,0.0959494486451149,-0.11820769309997559,0.05675767362117767,0.1108379065990448,0.028526993468403816,-0.03957388550043106,-0.1433172971010208,-0.05216493085026741,-0.1964891105890274,0.07016583532094955,-0.031220857053995132,-0.08819631487131119,0.0016810030210763216,0.003492064541205764,-0.21042150259017944,-0.10641369223594666,0.04048122465610504,0.12270097434520721,0.1220020204782486,0.09401936829090118,0.0396486334502697,-0.08056908845901489,-0.30772966146469116,-0.0016400977037847042,0.1766475886106491,0.02590112015604973,0.023722881451249123,-0.08964202553033829,-0.06986343115568161,0.0423189252614975,-0.1760370284318924,0.01985274814069271,0.13449199497699738,0.14203178882598877,0.09507552534341812,-0.12498582154512405,-0.057683464139699936,0.004820111207664013,0.2266133725643158,-0.03150833770632744,0.08184245228767395,-0.13987885415554047,-0.036679383367300034,0.17513573169708252,0.06658806651830673,-0.08058538287878036,-0.13934321701526642,0.07539532333612442,-0.03500239551067352,0.17195570468902588,0.027412347495555878,-0.04285740852355957,0.15498793125152588,-0.02991708368062973,-0.12289971113204956,-0.07342907041311264,0.09356644749641418,-0.042901411652565,0.0951547771692276,0.10288182646036148,-0.0065982709638774395,-0.08922645449638367,-0.004056850448250771,0.0839894562959671,-0.1010919138789177,-0.08611705899238586,-0.03869590163230896,-0.16996341943740845,-0.12901681661605835],[-0.001629786565899849,0.022237000986933708,0.10625562816858292,0.22794441878795624,-0.04464137181639671,-0.03272373601794243,0.0008990768692456186,0.07538900524377823,0.08487620204687119,-0.12117733061313629,0.06718411296606064,0.11255909502506256,-0.09001438319683075,-0.1633099466562271,-0.010882335714995861,-0.22476623952388763,0.30484655499458313,0.0396302193403244,-0.006280847825109959,-0.027490582317113876,-0.09381188452243805,0.192527174949646,-0.1610800325870514,-0.0038866375107318163,-0.283053457736969,-0.06843923032283783,0.2055978626012802,-0.10944154858589172,-0.005083114840090275,0.02470134198665619,-0.010204220190644264,0.004805983975529671,-0.04661045968532562,0.13299357891082764,0.14715246856212616,0.186228945851326,0.13903190195560455,0.07215889543294907,0.06298691779375076,0.11232876032590866,-0.09453475475311279,0.06025179848074913,-0.014016485773026943,0.033823419362306595,-0.051536642014980316,0.04072721675038338,0.08357598632574081,-0.023965205997228622,-0.0763525441288948,-0.10896575450897217,0.005245250649750233,0.052261125296354294,-0.08858278393745422,-0.10612782835960388,0.00650289561599493,-0.04457487538456917,-0.09204617887735367,0.17408408224582672,-0.3587143123149872,-0.20774735510349274,0.01645796187222004,-0.07201574742794037,-0.1273736208677292,-0.16695311665534973,-0.1282975822687149,0.016231749206781387,0.034547921270132065,0.1457260549068451,0.08310116827487946,0.21479572355747223,-0.0706975907087326,0.1372801512479782,-0.11311100423336029,-0.08717206120491028,0.051988013088703156,-0.024754444137215614,0.047670841217041016,-0.1355741024017334,-0.02479310892522335,-0.08083712309598923,0.010746090672910213,0.011511899530887604,0.1385854184627533,0.08690566569566727,-0.1720367819070816,0.10817056149244308,0.21419481933116913,0.22361284494400024,-0.21096114814281464,0.1985113024711609,-0.1063980832695961,0.1617935299873352,0.11643470078706741,-0.045981515198946,0.044384587556123734,0.0750996321439743,-0.12037234753370285,0.17304930090904236,0.04907090589404106,0.1166810393333435,-0.18887747824192047,-0.04984673857688904,-0.1143798679113388,0.06839745491743088,0.021903829649090767,-0.0013833381235599518,-0.03886890038847923,0.06704448908567429,-0.0553109236061573,0.08396296203136444,-0.04775479435920715,0.005212525371462107,0.1103765144944191,-0.037792280316352844,-0.003989929798990488,-0.07337896525859833,-0.024387625977396965,0.07870037853717804,0.13320763409137726,-0.024722345173358917,0.06284473091363907,-0.06910799443721771,0.2577829360961914,-0.12154228985309601,0.024387596175074577,0.00949935894459486,0.10612884908914566,0.08736512809991837,0.06585301458835602,0.024667203426361084,0.020431768149137497,-0.12816832959651947,-0.019913826137781143,-0.12607692182064056,-0.00515122152864933,0.19389411807060242,0.13127242028713226,-0.018794655799865723],[0.12103689461946487,0.035730939358472824,0.04374464228749275,0.025391828268766403,-0.12334198504686356,0.0875171571969986,0.04265593737363815,0.20283126831054688,0.14306917786598206,0.13572560250759125,0.09834104031324387,-0.163986936211586,-0.17006543278694153,-0.0075091151520609856,0.09992749243974686,-0.02448701672255993,0.06073169782757759,0.238676518201828,-0.14212793111801147,-0.026232635602355003,-0.06913133710622787,-0.006140843033790588,-0.05854485556483269,-0.06564454734325409,-0.04442033916711807,-0.14107896387577057,0.008135087788105011,0.0321798101067543,0.17456530034542084,0.1075424775481224,-0.0976719856262207,0.08632731437683105,0.2562367618083954,0.032891646027565,-0.021931840106844902,0.13709935545921326,0.051358211785554886,-0.038280367851257324,0.1895669400691986,0.01974487118422985,0.04787854477763176,0.06413960456848145,0.11157187074422836,-0.07711400091648102,0.11249856650829315,0.18506944179534912,-0.13602671027183533,0.07343524694442749,0.12537480890750885,0.026740163564682007,-0.016683481633663177,-0.01606883481144905,-0.010192520916461945,0.18470022082328796,-0.12589596211910248,-0.08128028362989426,-0.13062475621700287,0.022874148562550545,0.021345121785998344,-0.3278549015522003,0.024213192984461784,-0.13477398455142975,0.0028037475422024727,-0.03014538064599037,-0.05655211955308914,0.12153258919715881,0.20215938985347748,-0.09647935628890991,0.002521887421607971,0.029474807903170586,0.1831970512866974,-0.15111136436462402,-0.14248543977737427,-0.041095633059740067,-0.1550593227148056,0.049977172166109085,0.06218402832746506,0.19277769327163696,-0.19582414627075195,0.014685723930597305,-0.01844131201505661,0.10963810980319977,-0.15010404586791992,-0.13061395287513733,-0.04760840907692909,-0.0073843710124492645,-0.12271386384963989,0.014452175237238407,0.052629999816417694,-0.005928792059421539,-0.08486639708280563,0.16354352235794067,-0.05108122527599335,-0.07534654438495636,0.017262673005461693,-0.1250036358833313,0.02939927577972412,0.029779646545648575,0.10132507979869843,0.05504610389471054,0.11767873167991638,-0.07821457833051682,0.033695340156555176,-0.11333005130290985,0.038134172558784485,-0.026113519445061684,0.04853842407464981,0.004383299965411425,0.02755458652973175,-0.27084165811538696,-0.006004653871059418,-0.0659448429942131,0.17359505593776703,0.08366568386554718,0.03905944898724556,0.0034347474575042725,0.22867687046527863,-0.21070434153079987,0.11065234988927841,0.15736553072929382,-0.07391984015703201,0.10410083830356598,-0.011727388948202133,0.221107617020607,0.0028581973165273666,-0.041139014065265656,0.03626493737101555,0.0017000403022393584,-0.1084606945514679,-0.08110181987285614,-0.034851159900426865,-0.017137344926595688,-0.05060522258281708,0.022086530923843384,0.05100740119814873,-0.007478565908968449,-0.1140562891960144,-0.11463746428489685],[-0.0011601888108998537,0.03517734259366989,0.057492177933454514,0.11274654418230057,-0.082435242831707,0.04959247261285782,0.09201885014772415,0.008992509916424751,-0.1834964156150818,-0.04787076264619827,-0.0809130072593689,-0.021852931007742882,-0.06285090744495392,-0.2927471995353699,-0.03113146871328354,0.13352346420288086,-0.03360283747315407,-0.15712322294712067,0.04994181543588638,-0.1489909142255783,-0.03905795142054558,-0.11908411234617233,-0.0472409762442112,0.08996839821338654,0.005873110145330429,-0.07853998988866806,0.04111194238066673,-0.11771988868713379,-0.05737750232219696,0.17238421738147736,0.035351406782865524,0.08274780213832855,0.01865452714264393,0.01476479135453701,-0.09846826642751694,0.0009740672539919615,0.1332981139421463,0.019009694457054138,0.09385953843593597,-0.2114134281873703,-0.004196483176201582,0.06671089679002762,-0.11665506660938263,0.2145145982503891,-0.13701440393924713,-0.024090884253382683,-0.07431754469871521,0.014491831883788109,-0.07558171451091766,-0.14601261913776398,-0.1610419601202011,-0.25810495018959045,-0.09990610182285309,-0.1156352162361145,0.02882714942097664,0.02157052420079708,0.033785026520490646,-0.018642297014594078,0.11291344463825226,-0.19299736618995667,0.1477605700492859,0.023635122925043106,0.019956283271312714,-0.045327890664339066,-0.15534386038780212,-0.1642540991306305,0.051934484392404556,0.17974232137203217,0.011755367740988731,0.01402304694056511,-0.04057443141937256,0.003411847399547696,0.011126751080155373,0.014230810105800629,-0.05083799362182617,-0.016320321708917618,-0.09043858200311661,-0.0421539768576622,-0.028261037543416023,-0.05288014933466911,0.2140878140926361,0.16426090896129608,0.16258712112903595,0.04564787447452545,-0.00783681869506836,-0.17065858840942383,0.029079042375087738,0.15292860567569733,-0.06654441356658936,-0.1694728583097458,0.0037600586656481028,0.17955711483955383,-0.17525611817836761,0.10129374265670776,0.06786400824785233,-0.10851512849330902,0.10762418806552887,-0.13908234238624573,0.16200615465641022,0.037290092557668686,0.051854122430086136,-0.028136050328612328,0.002540990710258484,0.060908135026693344,-0.043178025633096695,-0.030255498364567757,0.15778891742229462,-0.013247745111584663,-0.07670139521360397,0.1052042692899704,0.009766574949026108,-0.031206905841827393,0.14125457406044006,-0.07609555870294571,0.10592008382081985,0.02978574112057686,0.1174512431025505,0.30594751238822937,0.06941936165094376,0.06466652452945709,0.07344448566436768,-0.013413900509476662,0.039197441190481186,0.04638824611902237,-0.1112201139330864,0.043707024306058884,-0.22166402637958527,-0.033880073577165604,0.006280330941081047,0.06040779873728752,-0.15038681030273438,0.0368349514901638,-0.05110253766179085,0.02652025781571865,-0.14037179946899414,-0.09983561187982559,0.07231678068637848,-0.06407523155212402],[-0.12631095945835114,0.11882372945547104,0.039832569658756256,-0.0123446611687541,-0.133468359708786,0.005209688097238541,0.14937570691108704,0.08735180646181107,0.14134632050991058,0.10642693191766739,-0.28451499342918396,0.06887168437242508,-0.1766829937696457,-0.09733707457780838,0.08337297290563583,0.045416802167892456,-0.113617904484272,0.10355793684720993,-0.05812588334083557,-0.03099517524242401,