[[-2.514265775680542,1.0580101013183594,0.8450921773910522,-0.8107181787490845,-2.16782808303833,-0.9560620188713074,1.7534314393997192,-0.38264763355255127,1.2796735763549805,1.8070292472839355,0.07775188982486725,0.8648455739021301,2.1955575942993164,-0.3342461585998535,-1.450521469116211,0.6569958925247192,-1.4633320569992065,-0.33337894082069397,1.0825186967849731,0.9745216965675354,-0.0029126040171831846,2.196579694747925,0.16671612858772278,0.7931547164916992,2.0715065002441406,-0.8948484659194946,-2.4817826747894287,-1.2569208145141602,-0.6497694849967957,0.7980092763900757,2.0360093116760254,1.8032888174057007,0.8866453766822815,0.022707946598529816,2.3243777751922607,1.3677114248275757,-1.3880497217178345,-3.009425401687622,1.5241459608078003,-0.5192700624465942,0.6108919978141785,-0.2779117524623871,-1.7047924995422363,1.1981849670410156,-0.21608075499534607,-1.1558655500411987,-0.4311474561691284,-0.5713093280792236,-0.2876874506473541,-0.03676014393568039,0.2493777573108673,0.5503072738647461,0.5825902223587036,0.947009801864624,0.5799686312675476,-0.9278663396835327,-0.1996350884437561,2.117948532104492,-0.8256640434265137,0.005334626883268356,0.8938617706298828,-1.702714443206787,-1.3260787725448608,-0.44422590732574463,0.5887658596038818,0.03912048041820526,0.22721345722675323,-0.013335905969142914,-0.39924439787864685,0.6668614745140076,0.45376065373420715,0.4638005793094635,-0.9664056301116943,1.5084991455078125,1.9620482921600342,-2.208834409713745,1.82218599319458,-1.4910759925842285,0.18606232106685638,-0.6981403231620789,0.5807200074195862,0.7570884823799133,-2.1260690689086914,1.9399663209915161,0.5412905216217041,1.1062653064727783,0.5817340016365051,0.0437760092318058,0.1974589228630066,-1.53514564037323,0.2648988962173462,1.8907279968261719,1.6906039714813232,-0.019593754783272743,0.7544127702713013,-0.3231222331523895,1.2362254858016968,1.8541563749313354,-0.9187843799591064,-1.1687016487121582,0.8963951468467712,-0.7794792652130127,-1.8512396812438965,0.2711053192615509,0.39776232838630676,-1.907766580581665,0.09592650085687637,-1.6946001052856445,-0.890594482421875,-1.0937808752059937,-0.9167982339859009,0.8679100871086121,0.9736400842666626,-0.9483959674835205,0.42019808292388916,-1.6354429721832275,1.8591735363006592,0.0241281408816576,-2.1560566425323486,-0.2641017735004425,1.3036863803863525,-3.3309388160705566,1.3009421825408936,1.598637342453003,0.7288324236869812,-4.0144219398498535,-1.706514835357666,-2.088329553604126]]