[[0.2067798376083374,1.2985882759094238,-1.1692060232162476,-0.20720288157463074,1.1493408679962158,0.6814091801643372,-0.2834535539150238,0.39565277099609375,0.9114211201667786,0.6320698857307434,0.7597668170928955,-0.1196736991405487,0.16804993152618408,2.7150747776031494,0.423242449760437,1.8154488801956177,-1.060317039489746,1.5400993824005127,-0.8049161434173584,0.9837828874588013,0.9380435943603516,-0.9262722134590149,-0.01052326150238514,1.3650683164596558,-0.06534785777330399,-1.3372563123703003,0.3264249861240387,0.9178043603897095,-1.957404613494873,-0.8243846893310547,-1.0260894298553467,0.8413439989089966,0.09201500564813614,-1.814146637916565,-3.8246777057647705,0.47684893012046814,0.339362770318985,-0.22677667438983917,-2.6613762378692627,0.3540579378604889,-0.22699017822742462,0.01628800854086876,-0.6478920578956604,-1.3136308193206787,-0.09887316823005676,-1.6323366165161133,-0.5158035159111023,2.676459550857544,-0.7133229374885559,0.8450947999954224,1.3929386138916016,3.1456565856933594,2.3933446407318115,-0.20247770845890045,0.1510433405637741,-1.137255072593689,-1.1723376512527466,-1.8323243856430054,-0.3311610817909241,-0.9188840389251709,0.26277390122413635,0.2102728933095932,0.9333695769309998,-1.6517224311828613,-1.2681539058685303,-1.5247935056686401,0.864008367061615,0.4669948220252991,-0.38763272762298584,0.7008191347122192,-1.3673640489578247,2.1328437328338623,0.5175938606262207,-1.2402565479278564,0.6404290795326233,1.7483675479888916,1.5294543504714966,0.9979605078697205,-0.347708523273468,-0.3964247703552246,2.2681758403778076,-0.05860784649848938,1.1142419576644897,-0.8361009955406189,-2.00506591796875,-1.29558265209198,1.1294339895248413,1.6433838605880737,0.41114839911460876,2.7468976974487305,-2.4643704891204834,0.13182979822158813,2.602158784866333,-1.3506169319152832,0.44884032011032104,-1.3091729879379272,1.3858087062835693,-1.6122288703918457,1.8059717416763306,-3.2055392265319824,0.24584251642227173,2.3091862201690674,-1.010661244392395,1.0536565780639648,-2.472141742706299,-0.20034365355968475,2.0039877891540527,-1.79180109500885,2.171180486679077,0.04885884001851082,-1.3340564966201782,-0.03288605064153671,0.44718340039253235,-0.02720567397773266,-2.390964984893799,-0.36635667085647583,1.1927731037139893,3.0405185222625732,-0.8204073309898376,-1.1452993154525757,-2.235337734222412,-2.0414669513702393,-2.197366952896118,-0.43161386251449585,-1.6878254413604736,-1.278169870376587,-0.8235707879066467,3.5829989910125732]]