[[-0.2727002203464508,0.0400674045085907,-0.015720834955573082,-0.09953927993774414,0.05369943380355835,0.05818633735179901,-0.27048608660697937,0.12318819761276245,0.12188675999641418,-0.11395090073347092,-0.2995392978191376,0.13620629906654358,0.0022354198154062033,0.0964323878288269,0.11845293641090393,0.023854896426200867,0.09942720830440521,0.06680045276880264,-0.04151737689971924,-0.15727077424526215,0.01631752774119377,-0.09819871932268143,-0.07198452949523926,-0.04927664250135422,0.12723049521446228,-0.10463029891252518,0.1945677548646927,-0.052459366619586945,0.07872562855482101,-0.2581367492675781,-0.029063506051898003,-0.05704114958643913,0.12696489691734314,0.0297869723290205,0.17194634675979614,0.1610877513885498,0.003403786104172468,-0.030026571825146675,-0.16353213787078857,0.24702277779579163,0.06546816229820251,0.12734320759773254,0.16266711056232452,-0.05067446827888489,-0.14615033566951752,-0.024461129680275917,0.035553909838199615,-0.07202058285474777,-0.06880733370780945,-0.11581967025995255,0.02012617327272892,-0.045197993516922,-0.26114019751548767,0.023327268660068512,-0.1572442501783371,0.046994324773550034,-0.14080306887626648,-0.10039620101451874,-0.05036450922489166,-0.22634528577327728,-0.10511678457260132,-0.05450853705406189,-0.13684946298599243,0.00625072093680501,0.03145023435354233,0.047313280403614044,0.1642819046974182,-0.2966177761554718,0.06348538398742676,-0.002885655965656042,0.12113107740879059,0.21250852942466736,0.11855483800172806,-0.24067477881908417,-0.07741174846887589,0.009961039759218693,-0.2157198041677475,-0.18761518597602844,0.16690906882286072,-0.2182890623807907,0.20667485892772675,0.13366155326366425,0.038747865706682205,-0.021643923595547676,0.01437301468104124,-0.10589778423309326,0.05918150022625923,-0.03767269849777222,-0.05643748119473457,-0.026185406371951103,0.020730845630168915,-0.0206337571144104,-0.17509505152702332,0.012474591843783855,0.04949672892689705,-0.021422062069177628,0.10322035104036331,-0.0010522369993850589,0.13956396281719208,0.0646851435303688,0.06884194910526276,-0.034509047865867615,0.023692144080996513,0.017539622262120247,0.018667299300432205,-0.056535299867391586,0.10108596086502075,0.10342694073915482,0.023388199508190155,0.04549603536725044,0.12230989336967468,-0.057046473026275635,0.076836496591568,-0.00034706556471064687,0.04745543748140335,-0.09813445061445236,-0.199037104845047,0.27194762229919434,0.2227083444595337,-0.05115702748298645,-0.09929586201906204,-0.061284326016902924,0.03590136766433716,0.04024257883429527,0.18152126669883728,0.1157882958650589,-0.022411417216062546,-0.1915685087442398,-0.27632150053977966,-0.03737225756049156,0.0059275939129292965,0.04793215170502663,0.06650656461715698,-0.17234070599079132,-0.37443357706069946,-0.08074925094842911,-0.11373110860586166,-0.029246050864458084,0.02852551080286503,-0.12380030751228333,0.09159139543771744,-0.05711933597922325,0.10131972283124924,-0.0433737114071846,-0.053428344428539276,-0.0836930051445961,-0.07973537594079971,0.10510541498661041,-0.05122143402695656,0.056011006236076355,-0.011211501434445381,-0.04183395206928253,0.06043873354792595,0.24095086753368378,-0.20207615196704865,-0.06446224451065063,-0.05099212005734444,-0.04822114109992981,0.02633359096944332,0.0947878360748291,0.1327584683895111,0.137968510389328,-0.11011727154254913,0.04038739949464798,-0.1564251035451889,-0.3828465938568115,0.020136339589953423,-0.1382848173379898,-0.09130946546792984,0.06210612878203392,-0.19200262427330017,0.11656005680561066,0.009765119291841984,-0.11497434228658676,-0.010498199611902237,-0.0990229994058609,-0.2156907618045807,-0.009936666116118431,0.026614315807819366,0.17270351946353912,0.1380363404750824,-0.013543801382184029,0.24361179769039154,0.14582109451293945,0.2102934867143631,0.06808844953775406,0.14475497603416443,0.17447331547737122,-0.11777199804782867,-0.023062385618686676,-0.029547210782766342,-0.18219083547592163,-0.09937982261180878,-0.10817065834999084,-0.1375272572040558,0.0041857194155454636,-0.0684271827340126,0.026883093640208244,0.08174534887075424,0.14993207156658173,-0.05661173164844513,-0.08211850374937057,-0.12265633046627045,0.02715461514890194,-0.14882230758666992,0.08487202972173691,0.24839350581169128,-0.20507055521011353,-0.10206407308578491,0.041281722486019135,-0.11225581169128418,0.02480497770011425,0.12546758353710175,-0.10005627572536469,0.22193363308906555,-0.21629148721694946,-0.07270374894142151,0.05886639654636383,-0.12103752791881561,-0.05746731907129288,0.06719125062227249,-0.0376051664352417,-0.03309345990419388,-0.006247398909181356,0.13170307874679565,0.024944601580500603,-0.24183332920074463,-0.0030526136979460716,0.11832058429718018,0.006112830713391304,0.0792057141661644,0.0401836521923542,0.03392511233687401,0.05590672418475151,0.17307531833648682,-0.09001412987709045,-0.013624724932014942,0.008923016488552094,-0.062326014041900635,0.006457014475017786,0.043371669948101044,0.009333888068795204,-0.09859313815832138,-0.1989930123090744,0.00704815611243248,0.2534164488315582,0.029135681688785553,-0.01849696971476078,-0.13401395082473755,-0.00916268676519394,0.08985048532485962,-0.08676017075777054,0.12373220920562744,0.015181070193648338,-0.012415763922035694,-0.03371801972389221,0.051800671964883804,-0.0572553426027298,0.08710283041000366,-0.03981925919651985,-0.010399765335023403,0.24125836789608002,-0.21852266788482666,0.034072838723659515,-0.004813551437109709,0.17974945902824402,0.10807916522026062,0.04785564914345741,-0.3549575209617615,-0.06538919359445572,0.07141044735908508,-0.13997988402843475,-0.08150231093168259,-0.11091368645429611,-0.11079194396734238,0.2773401737213135,0.10400126129388809,0.03171160817146301,0.031624920666217804,-0.19158048927783966,0.10432667285203934,-0.032740332186222076,0.02402832731604576,-0.07507620751857758,0.08340538293123245,0.11587066203355789,-0.13091826438903809,0.12459395825862885,0.05950234830379486,0.20335717499256134,0.10713662952184677,-0.20445266366004944,0.20288297533988953,-0.18405529856681824,0.03242214769124985,-0.01188125740736723,-0.09460123628377914,0.08385897427797318,-0.0029016577173024416,-0.10608948767185211,-0.01833576336503029,-0.009350950829684734,-0.043041449040174484,-0.12060601264238358,0.1907968372106552,-0.08926123380661011,0.01589391939342022,0.033570509403944016,0.1081356406211853,0.1016664057970047,-0.15543721616268158,0.032222725450992584,0.025651337578892708,0.10854028910398483,-0.05049335956573486,-0.3368210196495056,0.11230883747339249,-0.13713887333869934,0.268886923789978,0.13336002826690674,-0.21455714106559753,0.18309439718723297,0.11680111289024353,0.06491964310407639,-0.09349802136421204,0.13608205318450928,0.09895230829715729,0.09311442077159882,0.12957502901554108,-0.318268358707428,0.14697356522083282,-0.13004356622695923,-0.07775339484214783,0.07008926570415497,-0.042722687125205994,-0.12125769257545471,0.15683887898921967,-0.04722157493233681,0.19617991149425507,-0.03794506564736366,-0.047081295400857925,0.21392282843589783,-0.1356426477432251,-0.003398935543373227,0.038158923387527466,0.009347500279545784,0.07194126397371292,0.04624122753739357,-0.08069077134132385,-0.09123266488313675,0.16665855050086975,-0.12585338950157166,0.013265521265566349,-0.07383723556995392,-0.023802485316991806,-0.08342257142066956,0.29647091031074524,0.07813984900712967,-0.10658638179302216,0.022667737677693367,0.016033591702580452,-0.12175722420215607,-0.022506235167384148,0.052235472947359085,-0.09153132140636444,0.13355489075183868,0.0003015542752109468,-0.07760564237833023,0.030226213857531548,0.06456370651721954,-0.2854600250720978,0.25474271178245544,0.12189306318759918,-0.1414317637681961,-0.16101449728012085,-0.1946442723274231,-0.05591708794236183,0.23082055151462555,-0.03606552630662918,-0.07024526596069336,-0.09499726444482803,-0.09769896417856216,0.1870308369398117,0.015851786360144615,0.1116306409239769,-0.1679946929216385,0.10230207443237305,0.03751640394330025,-0.15537571907043457,0.19988130033016205,-0.01884785108268261,-0.026691589504480362,-0.051688302308321,-0.01749822124838829,0.11230742186307907,-0.12875932455062866,-0.1778051108121872,0.026331469416618347,-0.04388148710131645,0.11275766789913177,-0.02251533791422844,0.010883125476539135,0.13305498659610748,-0.051227957010269165,-0.031373947858810425,-0.023109573870897293,0.018654542043805122,-0.16773520410060883,-0.2562139630317688,0.01470057014375925,0.08018282055854797,0.0647510513663292,-0.08229236304759979,0.16913677752017975,-0.028026781976222992,-0.03800823912024498,-0.22429704666137695,0.18162623047828674,0.11794744431972504,-0.10885051637887955,0.09830088168382645,-0.2276197224855423,-0.1123303472995758,-0.0009990648832172155,0.10425730049610138,0.047290701419115067,-0.2157314270734787,-0.1754220873117447,-0.38594067096710205,0.027962319552898407,-0.2577937841415405,-0.1665911078453064,0.11685582995414734,-0.039193592965602875,0.15611954033374786,0.04969242960214615,-0.10360520333051682,-0.060011155903339386,-0.05567178502678871,-0.12468535453081131,-0.03278316184878349,0.0406937412917614,0.12955334782600403,-0.2388494610786438,-0.12014966458082199,0.08490163087844849,0.10584627836942673,0.038527462631464005,0.0014484390849247575,-0.020041953772306442,-0.021119769662618637,-0.16484606266021729,0.09289618581533432,-0.14273804426193237,0.057303208857774734,-0.07569929957389832,0.20279470086097717,0.06326790153980255,-0.007629222236573696,0.017519492655992508,-0.17209076881408691,0.08312951028347015,-0.059407901018857956,0.24012857675552368,-0.03708634525537491,-0.16928401589393616,-0.030954070389270782,0.11543871462345123,-0.2620786726474762,-0.06197498366236687,0.11117595434188843,-0.16186845302581787,0.18322092294692993,-0.16940699517726898,-0.03374173492193222,0.12446627765893936,-0.02594837173819542,-0.10958818346261978,0.08942698687314987,0.12101132422685623,0.08541016280651093,0.044805701822042465,0.13550128042697906,0.08233098685741425,0.09958544373512268,-0.11327879875898361,-0.002019769512116909,0.17994794249534607,0.08190619945526123,-0.2662696838378906,-0.21961857378482819,0.04296861216425896,0.025158770382404327,-0.10020677000284195,-0.06023676320910454,0.03328913822770119,-0.01072811707854271,-0.16124573349952698,0.027328498661518097,0.1753944605588913,-0.12630371749401093,-0.2502475678920746,-0.14932796359062195,0.02319428138434887,0.09214930981397629,0.0020028077997267246,-0.17795732617378235,-0.0418090857565403,-0.13899506628513336,0.04435301572084427,0.13922558724880219,0.11030437052249908],[0.022000590339303017,-0.17310528457164764,-0.026665620505809784,-0.005362119060009718,0.26374420523643494,-0.09259771555662155,-0.11680341511964798,0.23875606060028076,-0.054713837802410126,-0.01972733996808529,-0.1564626693725586,0.11866899579763412,0.058879412710666656,0.11281022429466248,-0.018538234755396843,0.18902748823165894,0.1759905070066452,-0.21830016374588013,0.16876943409442902,0.04856821149587631,0.034512631595134735,0.10469893366098404,-0.13681946694850922,-0.035883013159036636,-0.18546265363693237,-0.06550295650959015,0.07775270193815231,0.19146442413330078,-0.2206505388021469,0.0018746168352663517,0.08878336101770401,0.16015216708183289,-0.03522845357656479,-0.0568719357252121,0.1602454036474228,0.05080091208219528,0.10572173446416855,0.12773491442203522,0.06623435020446777,-0.1552066057920456,-0.10693595558404922,0.1033286452293396,0.11469143629074097,0.09272236377000809,-0.20751743018627167,-0.05872351676225662,-0.020164599642157555,-0.0786898210644722,-0.061995796859264374,0.0353698693215847,-0.04724616929888725,-0.012216005474328995,-0.0034192956518381834,-0.1348884403705597,0.046057917177677155,0.061037320643663406,0.1755126267671585,-0.15400563180446625,-0.01948472484946251,-0.21382194757461548,-0.10576716810464859,-0.035077694803476334,-0.015112142078578472,0.02229193039238453,-0.1183890774846077,0.008109988644719124,0.00046322966227307916,-0.06599229574203491,-0.05225798860192299,-0.2139936089515686,0.08610927313566208,-0.04154209792613983,-0.21060115098953247,-0.1660616546869278,0.008228696882724762,0.06450871378183365,0.03366117551922798,-0.01203778013586998,-0.2179911732673645,0.03239072859287262,0.05785201117396355,0.06652393937110901,-0.13332653045654297,-0.05811626464128494,-0.0842573344707489,0.06261921674013138,0.08503284305334091,-0.05580970644950867,-0.06160042807459831,-0.029909996315836906,0.014845442026853561,-0.04228884354233742,-0.08121593296527863,0.03186160698533058,0.07612480223178864,-0.0754961296916008,-0.13111966848373413,0.022730307653546333,0.04581129923462868,-0.09147250652313232,0.04664035513997078,-0.22089950740337372,0.06523822993040085,0.11967191100120544,0.04390447959303856,0.07908286154270172,-0.09308666735887527,-0.1042381301522255,0.07692462205886841,0.052898529917001724,-0.010948837734758854,-0.07087147980928421,0.1006840318441391,0.034910716116428375,0.026183750480413437,0.08544925600290298,0.034258294850587845,-0.04733092337846756,-0.15532051026821136,0.06236015632748604,-0.060762837529182434,-0.1279354840517044,-0.021679243072867393,0.033048830926418304,-0.10341644287109375,0.06385310739278793,0.037639230489730835,0.03837426006793976,0.024153361096978188,0.022827506065368652,0.03697128966450691,0.06143578886985779,0.11284687370061874,0.036427102982997894,-0.19145555794239044,-0.06970012933015823,-0.10241860151290894,0.05231866240501404,-0.0881991758942604,-0.09058092534542084,-0.008316576480865479,-0.0781261995434761,-0.16436901688575745,0.153690904378891,0.08158425241708755,-0.10081417858600616,0.1950789839029312,-0.0849071517586708,-0.1057250052690506,0.006096896715462208,-0.09486741572618484,-0.05899288132786751,-0.1030377522110939,0.05014587193727493,0.0017999939154833555,0.07538054883480072,-0.15810926258563995,-0.04185636714100838,0.04551810398697853,-0.2435043752193451,0.19408252835273743,-0.15488994121551514,0.0520055815577507,0.009576614946126938,-0.04354053735733032,-0.05799564719200134,-0.0173404049128294,-0.0482623316347599,-0.14511366188526154,0.05120670422911644,-0.053252872079610825,0.10702382773160934,-0.10355543345212936,0.26513341069221497,-0.15147021412849426,0.18576791882514954,0.07859223335981369,0.04308479651808739,0.11011005938053131,-0.2241727113723755,0.15331701934337616,-0.12908732891082764,0.021870499476790428,0.1341674029827118,0.07697892934083939,0.055660180747509,-0.11710843443870544,0.008147941902279854,-0.011200708337128162,0.018303656950592995,-0.012574580498039722,0.13345950841903687,0.021597621962428093,0.07217428833246231,0.2007753998041153,0.16055691242218018,-0.011803725734353065,-0.10229445993900299,0.004640121012926102,-0.03832926228642464,0.00812165904790163,0.09416229277849197,0.31205421686172485,0.04927661642432213,-0.147227481007576,0.039629191160202026,-0.1567622870206833,0.12168768793344498,0.019209885969758034,0.001260015880689025,-0.031245827674865723,0.014254304580390453,-0.058955755084753036,0.05437500402331352,-0.03588138520717621,-0.028355596587061882,0.256373792886734,0.0032273675315082073,0.21479737758636475,0.13763664662837982,0.12757937610149384,0.036486852914094925,0.13939924538135529,-0.06089475005865097,-0.06831423938274384,-0.11553143709897995,0.007150348741561174,-0.025874029844999313,-0.059787046164274216,0.18208079040050507,-0.08422713726758957,0.18241716921329498,-0.04005023464560509,0.030557380989193916,-0.07754743099212646,-0.1966802477836609,0.023080842569470406,0.1970328837633133,0.30215519666671753,0.28955402970314026,-0.006132608279585838,0.07297144085168839,-0.23683223128318787,0.022282974794507027,0.13849931955337524,0.26435473561286926,0.049309298396110535,-0.02664894051849842,0.07255064696073532,-0.06915820389986038,0.073122039437294,0.06124541163444519,0.1050330400466919,-0.0033180606551468372,-0.1613343060016632,0.04753026366233826,-0.164204403758049,-0.03567569702863693,-0.010935225524008274,0.20059166848659515,-0.16380557417869568,-0.005663027986884117,0.12400171905755997,0.027139674872159958,0.06716355681419373,0.02928384579718113,0.06116478890180588,0.16799424588680267,0.006173400674015284,-0.21899206936359406,-0.09159807860851288,0.09673149138689041,0.13596415519714355,-0.07478106021881104,-0.14292888343334198,0.07373038679361343,0.0070228842087090015,-0.12070100754499435,-0.027245838195085526,0.12999172508716583,0.007495112717151642,-0.03471400961279869,0.11497166007757187,-0.08282661437988281,-0.0014994789380580187,-0.28739607334136963,-0.06493527442216873,-0.06530345976352692,-0.040530975908041,0.25847169756889343,0.028777336701750755,0.14089637994766235,0.25096285343170166,-0.03406759724020958,0.10344681888818741,-0.11200431734323502,-0.047997064888477325,-0.11998160928487778,0.07604772597551346,0.11796961724758148,-0.16674946248531342,-0.0709986537694931,0.05448979511857033,-0.19379839301109314,0.1250840574502945,-0.1253087967634201,0.26374486088752747,-0.1752111166715622,0.0014571548672392964,0.00502210995182395,-0.15002398192882538,-0.24019969999790192,0.041493970900774,-0.02334360033273697,0.15512923896312714,0.03159775212407112,-0.07814332097768784,0.12133655697107315,0.09793202579021454,0.16601933538913727,0.004911520052701235,0.1768612116575241,0.012457868084311485,0.10625182837247849,-0.2740952968597412,-0.060592830181121826,-0.20850832760334015,0.10857240110635757,0.026625026017427444,-0.17490336298942566,-0.07643067091703415,-0.16023695468902588,-0.0106186643242836,0.10305961966514587,0.14670978486537933,0.0651862844824791,-0.12010147422552109,0.12491863965988159,-0.02125931717455387,0.16647815704345703,-0.0960245206952095,-0.04715118557214737,0.1839245855808258,-0.0036579722072929144,-0.08739199489355087,0.0896398201584816,0.24491456151008606,0.09469737112522125,0.019455445930361748,-0.10041284561157227,-0.04210112988948822,-0.21018876135349274,-0.02366470731794834,0.06610856205224991,0.12793511152267456,0.0567895844578743,-0.08394468575716019,0.06547166407108307,0.03360654413700104,0.013015750795602798,0.09112988412380219,-0.056148845702409744,-0.1448003649711609,-0.10206188261508942,-0.2107122838497162,0.039576489478349686,-0.07712986320257187,0.06188351660966873,-0.1395239382982254,0.039808958768844604,-0.1283285915851593,0.18394775688648224,-0.31503933668136597,-0.018854038789868355,0.06399521976709366,0.10809286683797836,-0.11719396710395813,0.17388291656970978,-0.14992058277130127,-0.06922587752342224,0.1827278882265091,-0.16602841019630432,0.005553986877202988,0.037125732749700546,0.014566641300916672,0.08121754974126816,0.09448253363370895,-0.06900836527347565,0.09929536283016205,-0.08164286613464355,-0.10699433833360672,-0.04531267285346985,-0.04180207848548889,-0.05165481939911842,-0.041917942464351654,0.13236752152442932,0.13744665682315826,-0.11478903144598007,-0.08416938036680222,-0.01563556306064129,0.017350317910313606,-0.04203394055366516,0.009716608561575413,-0.06363652646541595,0.08417412638664246,-0.1350405365228653,0.14036968350410461,0.07962314784526825,-0.08723578602075577,0.25905841588974,-0.07500030845403671,0.038386374711990356,0.19900153577327728,0.09546239674091339,-0.18027105927467346,-0.18413373827934265,-0.17719602584838867,0.11184472590684891,0.14617304503917694,-0.16849637031555176,-0.04548031836748123,0.05078452080488205,0.015197384171187878,0.08914320170879364,-0.11681067198514938,0.041769977658987045,0.02190142497420311,0.060648735612630844,0.02095845527946949,0.04930344969034195,0.013667339459061623,0.03751511871814728,0.0757938101887703,0.2615296542644501,-0.14438922703266144,-0.029942693188786507,0.17958863079547882,-0.06701208651065826,-0.005561267491430044,-0.1600746065378189,-0.12890051305294037,-0.17691199481487274,-0.031226862221956253,-0.09422945976257324,-0.04837338253855705,-0.014045528136193752,-0.05084560811519623,0.01786903664469719,-0.07995420694351196,-0.14946964383125305,-0.0030909215565770864,0.09061627089977264,0.21629157662391663,-0.028552550822496414,-0.05686230957508087,-0.17869719862937927,-0.06415452808141708,0.0779242292046547,0.09964977204799652,0.05155600979924202,0.08222036063671112,-0.05583393946290016,-0.08871299773454666,-0.024445945397019386,-0.3061977028846741,0.15537753701210022,0.35631564259529114,-0.24936096370220184,-0.09585502743721008,0.04051459580659866,0.09009021520614624,0.1969846487045288,-0.13868126273155212,-0.025898560881614685,0.10592485219240189,0.13869531452655792,-0.08561887592077255,0.03372524678707123,-0.1005808636546135,0.04821611940860748,-0.03270580619573593,-0.140348881483078,0.14495977759361267,-0.13702119886875153,0.013795881532132626,-0.17138761281967163,-0.1507931351661682,-0.10598398000001907,0.03833802416920662,-0.008137746714055538,-0.18485352396965027,-0.03802783787250519,-0.25109678506851196,-0.17972980439662933,0.22409512102603912,-0.004226377699524164,-0.14877849817276,0.03154702112078667,0.15312008559703827,0.13082319498062134,-0.04910392686724663,0.06862366944551468,0.21794921159744263,0.012725512497127056,0.13546253740787506,0.08671628683805466,-0.04449114948511124,-0.112009696662426,-0.17788486182689667,0.1913014054298401,0.0685611218214035,-0.016692696139216423],[-0.005836770869791508,0.0464656837284565,-0.007629055995494127,-0.124952033162117,-0.11499356478452682,0.006484787445515394,-0.012942935340106487,0.02195058949291706,0.0979459136724472,0.05766717344522476,0.008171701803803444,-0.0848342701792717,-0.1653241217136383,-0.19332194328308105,0.09909513592720032,-0.008317265659570694,-0.059230364859104156,0.12421721965074539,0.1330493539571762,0.09911763668060303,-0.09008355438709259,-0.03782258182764053,0.02042813040316105,0.11343645304441452,0.04917805641889572,-0.042737290263175964,0.08724052459001541,0.013568507507443428,0.0015507081989198923,-0.0591723769903183,-0.033487413078546524,-0.08157405257225037,0.00958956778049469,-0.022563252598047256,0.24187017977237701,0.12898847460746765,0.011538786813616753,0.10122736543416977,-0.20685195922851562,-0.08501376211643219,-0.11273045092821121,0.05120576173067093,-0.10048899799585342,0.12991021573543549,0.07949421554803848,0.10818848758935928,0.08555614203214645,-0.11162198334932327,0.09296921640634537,0.06380898505449295,-0.27664798498153687,-0.021057868376374245,-0.1418079137802124,0.05726282298564911,0.011049029417335987,-0.158359557390213,0.037503838539123535,0.0001013265791698359,-0.07933994382619858,-0.0980454832315445,-0.14865301549434662,-0.041440412402153015,0.05496424064040184,-0.14857591688632965,-0.05815994367003441,-0.06457231938838959,0.047863248735666275,0.0846729576587677,0.01897546648979187,-0.054847896099090576,-0.12287091463804245,-0.025176486000418663,0.05997876450419426,0.14271962642669678,-0.10824835300445557,-0.035159315913915634,-0.006840059999376535,-0.04874703660607338,0.15375955402851105,0.07452770322561264,0.1666092574596405,0.2044018656015396,0.14918264746665955,-0.0928904190659523,0.054880544543266296,0.10633330047130585,0.006095930002629757,-0.11169203370809555,-0.1449940800666809,-0.06338198482990265,0.0012670732103288174,0.1189359650015831,0.09021637588739395,0.02691580355167389,0.1913178563117981,0.00336053385399282,0.11424286663532257,-0.24298535287380219,-0.27088093757629395,0.07635007798671722,-0.13572388887405396,-0.14935272932052612,0.10583480447530746,-0.18781928718090057,-0.05828264355659485,-0.06551412492990494,-0.2953040897846222,-0.2545876204967499,0.1625446081161499,0.226127490401268,-0.007159343454986811,0.2483709454536438,-0.05611263960599899,-0.027765581384301186,-0.05974346399307251,0.036524493247270584,-0.11614511162042618,0.003693905659019947,-0.19603295624256134,0.04838151857256889,-0.07459717243909836,-0.31756889820098877,0.010024629533290863,0.062024541199207306,0.01116461306810379,0.05923222377896309,0.05504082515835762,-0.14801540970802307,0.07812310010194778,0.040279414504766464,-0.3421974182128906,0.11662043631076813,-0.1059163361787796,0.10977911949157715,-0.08513882756233215,0.003068720456212759,0.059813108295202255,-0.11748401820659637,-0.07675505429506302,0.046562083065509796,0.1118643507361412,-0.13597752153873444,0.09700047969818115,-0.10262533277273178,0.18263640999794006,-0.0030428743921220303,-0.240796759724617,0.08288557827472687,-0.05512490123510361,0.08133318275213242,0.11931955814361572,0.041958801448345184,-0.3909114897251129,-0.17203961312770844,-0.08370724320411682,-0.06585250794887543,0.11055150628089905,-0.05759787932038307,-0.24181996285915375,0.14282283186912537,-0.3397344648838043,0.0699743703007698,-0.09164878726005554,-0.00013811845565214753,0.05254796892404556,0.15254537761211395,-0.036592356860637665,0.0066257044672966,-0.3267669677734375,-0.19620755314826965,-0.3100294768810272,-0.004054939839988947,0.044159721583127975,0.07074279338121414,-0.12229477614164352,-0.05264214053750038,-0.0005661192699335515,0.08939389139413834,0.1568383276462555,0.016877995803952217,0.22439557313919067,0.01797095127403736,0.057805970311164856,-0.04996449500322342,-0.2830737829208374,0.16215942800045013,-0.04971092939376831,-0.22321689128875732,0.01910482719540596,-0.008298682048916817,-0.13054800033569336,-0.10843188315629959,0.0877639502286911,-0.01082589104771614,0.062371183186769485,0.10561961680650711,0.1506529301404953,-0.03609403222799301,-0.03912798687815666,0.10872327536344528,0.06048887223005295,0.2449837327003479,-0.016667651012539864,0.1665969341993332,0.07297507673501968,-0.08660190552473068,0.06782510876655579,-0.08361072838306427,0.08812136203050613,-0.10638228058815002,0.024371923878788948,-0.09796638786792755,-0.05933196842670441,-0.10592527687549591,-0.0456143319606781,-0.0016124497633427382,-0.19423134624958038,-0.1350530982017517,-0.004317429848015308,0.03900905326008797,0.12103136628866196,0.20821045339107513,0.05146971717476845,-0.08337779343128204,0.19479136168956757,-0.07655183970928192,-0.022968603298068047,0.11148650199174881,0.15760844945907593,0.23867671191692352,-0.15567980706691742,-0.09051305800676346,-0.09728165715932846,-0.17722947895526886,-0.053646598011255264,-0.4075147807598114,-0.14135615527629852,-0.15997980535030365,-0.003189143491908908,-0.23557086288928986,0.22318792343139648,0.16653406620025635,0.41159236431121826,-0.12257739156484604,0.12266451120376587,-0.14477020502090454,0.021355269476771355,-0.08327799290418625,0.13535331189632416,0.3021445572376251,-0.001816477277316153,-0.1973167061805725,0.09958798438310623,0.03369217738509178,0.002100059064105153,0.15589475631713867,-0.26034221053123474,-0.05164659395813942,0.11119108647108078,-0.15603837370872498,0.07936884462833405,-0.06544741243124008,-0.13901108503341675,0.16809070110321045,0.06077080965042114,-0.07374674081802368,-0.10725913196802139,0.07276266813278198,-0.06892111897468567,0.002834608778357506,-0.0550382137298584,-0.1275710165500641,0.041376177221536636,0.1735278069972992,0.03727561607956886,0.2549647390842438,0.019414987415075302,0.059841591864824295,-0.07866903394460678,0.056852154433727264,-0.21762625873088837,0.15988515317440033,0.15603560209274292,-0.06705760210752487,-0.0420529805123806,-0.043675702065229416,-0.011726529337465763,0.1775423139333725,-0.07764892280101776,0.0353265218436718,-0.10499442368745804,0.1616041362285614,-0.008293642662465572,-0.36078470945358276,-0.008573812432587147,-0.1685752272605896,0.05175657197833061,-0.0811414122581482,-0.0938829705119133,-0.09134306758642197,-0.031169474124908447,0.014800388365983963,-0.13248896598815918,-0.22279661893844604,0.010923471301794052,0.0711422711610794,-0.18676809966564178,-0.012092341668903828,-0.2396714836359024,0.0925300195813179,-0.06930066645145416,-0.019252201542258263,0.04793437942862511,-0.023133745416998863,0.1561896651983261,0.1083729937672615,-0.08543886244297028,0.06046801805496216,-0.16146904230117798,0.25198110938072205,-0.12784701585769653,0.15358944237232208,-0.1935226172208786,-0.044179242104291916,0.15871645510196686,0.1341627687215805,0.055553995072841644,0.09315414726734161,-0.18285450339317322,0.2257564216852188,-0.07441576570272446,-0.1280827820301056,0.1924356073141098,0.24163100123405457,0.1729540079832077,0.051148831844329834,0.16684292256832123,-0.05499453842639923,-0.15860137343406677,-0.034313302487134933,0.03625871241092682,0.06871650367975235,-0.12202727049589157,-0.1290457546710968,-0.27410778403282166,-0.3202029764652252,-0.14678066968917847,0.041028305888175964,0.05879752337932587,-0.03326387703418732,-0.1293688416481018,0.05886608362197876,-0.10410832613706589,-0.07619447261095047,-0.005105639807879925,-0.03914692997932434,0.14791004359722137,0.16607928276062012,-0.02973802387714386,0.12807302176952362,-0.10095153748989105,0.21836009621620178,0.06934908032417297,-0.09911651164293289,-0.0798163041472435,0.021542156115174294,0.06540263444185257,0.11682168394327164,-0.08994278311729431,0.04093368351459503,-0.07093290984630585,-0.08017900586128235,-0.05828527361154556,0.16406576335430145,-0.11798828840255737,-0.025239888578653336,-0.18854744732379913,0.055589623749256134,-0.028634821996092796,-0.04225650802254677,0.051084790378808975,-0.042046014219522476,0.21820008754730225,0.03339175507426262,0.11133590340614319,-0.2300291508436203,-0.04043096303939819,0.02513873390853405,0.15488691627979279,-0.1111021414399147,-0.014322349801659584,0.2653988301753998,0.10791312158107758,-0.006457275710999966,0.33468735218048096,0.07218943536281586,-0.024231726303696632,0.020128097385168076,0.04552356153726578,-0.18367978930473328,-0.045084189623594284,0.09252230077981949,-0.10054470598697662,0.10852378606796265,0.022143594920635223,0.02443883940577507,-0.08931983262300491,-0.08109890669584274,-0.20300623774528503,0.04430481046438217,-0.00970710813999176,0.02298678830265999,0.07848817855119705,0.09266819059848785,0.04479222744703293,0.21754111349582672,-0.03360340744256973,-0.10997976362705231,-0.028893042355775833,0.026746150106191635,0.0649016723036766,-0.17143884301185608,-0.00976801197975874,0.07121314853429794,0.06023407727479935,0.20852848887443542,0.10845472663640976,0.076387420296669,-0.19058643281459808,0.01636365056037903,0.14225216209888458,-0.1919340342283249,0.09671024233102798,-0.009330491535365582,-0.009072454646229744,-0.030344408005475998,0.22500334680080414,-0.08220156282186508,-0.11295019090175629,-0.02682882361114025,-0.017585260793566704,-0.22637730836868286,0.11024243384599686,-0.0958063006401062,-0.22200492024421692,-0.09715835750102997,0.18629562854766846,-0.15466319024562836,-0.09896113723516464,0.1028219610452652,-0.0065509299747645855,0.13938802480697632,0.07618778944015503,-0.17752382159233093,-0.20327481627464294,-0.2928538918495178,-0.04534125328063965,-0.03605571761727333,0.03401922062039375,-0.14658445119857788,0.11823630332946777,-0.18498621881008148,-0.07610099762678146,-0.008013508282601833,0.026274042204022408,-0.2180839627981186,-0.06648904830217361,-0.032591838389635086,0.2468479573726654,-0.21971654891967773,-0.022606976330280304,-0.007570268120616674,0.04652933031320572,-0.0552813746035099,0.028765102848410606,-0.11987224966287613,-0.2165585160255432,-0.16223309934139252,-0.05807939171791077,-0.09284616261720657,-0.15050238370895386,0.11355140805244446,0.051026638597249985,0.02341095730662346,0.036967936903238297,-0.02759568579494953,-0.002105146646499634,-0.18505744636058807,0.16369441151618958,-0.06665419042110443,0.20297843217849731,0.15456044673919678,0.014862945303320885,0.053077176213264465,0.07119458168745041,0.10388385504484177,0.0397188626229763,0.1627902239561081,0.02741974964737892,0.0935550406575203,0.012986770831048489,-0.23490343987941742,0.1990167796611786,-0.02500368095934391,-0.02064819447696209,-0.09092632681131363,-0.10348459333181381,-0.08482927083969116,0.032815225422382355,0.12066321074962616,0.03068123571574688,-0.0367954820394516],[0.051126766949892044,-0.10497056692838669,0.14315631985664368,-0.09857639670372009,-0.05600298196077347,-0.08030650019645691,-0.14116159081459045,-0.03593744337558746,0.11005465686321259,-0.049031369388103485,-0.0931771993637085,-0.015548143535852432,-0.1084296852350235,0.17809131741523743,-0.039831582456827164,0.15540075302124023,-0.019372863695025444,-0.09322380274534225,0.04802623391151428,-0.08636746555566788,0.05280377343297005,0.052711859345436096,-0.013906427659094334,0.2554677426815033,0.0037406759802252054,0.2187868058681488,0.13925309479236603,0.04156867042183876,0.01518684159964323,-0.15987640619277954,0.09666203707456589,-0.09477495402097702,-0.1575668901205063,0.1483355015516281,0.08868250250816345,-0.25899216532707214,0.12090812623500824,-0.13575701415538788,0.09020142257213593,0.06121058017015457,0.0602223202586174,0.10684382170438766,-0.04421412572264671,-0.0016254866495728493,-0.048559270799160004,-0.03677389398217201,0.08567517250776291,0.09981953352689743,0.07406353205442429,-0.018203040584921837,0.2614422142505646,0.024342449381947517,-0.014698435552418232,0.16251099109649658,0.0974363461136818,-0.10581164062023163,0.23911091685295105,0.0049819545820355415,-0.15778550505638123,0.10192438960075378,0.16598482429981232,-0.009123719297349453,-0.18047334253787994,0.2718282639980316,0.10087008029222488,0.14362174272537231,-0.1346321552991867,0.06843224167823792,-0.13664577901363373,-0.029749946668744087,-0.08051581680774689,0.1938348412513733,-0.17052863538265228,-0.09413221478462219,-0.023702040314674377,-0.05978470668196678,-0.004419826902449131,-0.000745075405575335,-0.09916410595178604,-0.34362083673477173,-0.07193460315465927,-0.07449829578399658,0.008752073161303997,0.16191032528877258,-0.06102725863456726,0.04476788640022278,-0.09958691149950027,0.050076477229595184,-0.158057302236557,0.1158466711640358,0.37512049078941345,-0.06639590859413147,0.17003627121448517,0.22176460921764374,-0.14510318636894226,-0.2663429081439972,-0.02598285861313343,-0.03435298800468445,-0.15869584679603577,0.21600063145160675,-0.19719727337360382,-0.0865713357925415,0.3105016350746155,-0.008210130035877228,0.22973178327083588,0.10402508825063705,0.09940023720264435,-0.007055963389575481,0.16149789094924927,0.10037200152873993,-0.026858901605010033,-0.1133490577340126,-0.08277714997529984,-0.05511307716369629,-0.011639480479061604,0.00888123456388712,-0.03251410648226738,-0.06714478880167007,0.044003210961818695,0.0314042903482914,-0.06936363130807877,0.00243786140345037,0.0030797079671174288,0.03690355643630028,-0.07840573042631149,-0.1564406156539917,0.27844420075416565,-0.043571244925260544,-0.04333162307739258,-0.09352413564920425,-0.2739392817020416,-0.014114231802523136,0.12400531023740768,-0.22575990855693817,-0.006268715485930443,-0.14077749848365784,0.12843871116638184,-0.0049523706547915936,-0.021253762766718864,-0.0930446982383728,0.030241671949625015,0.038986340165138245,-0.16479335725307465,0.07470869272947311,-0.12627209722995758,-0.03606342151761055,0.12592118978500366,0.1448865383863449,-0.032737310975790024,0.054804157465696335,0.1003255546092987,0.03689705580472946,0.07205288857221603,-0.08802707493305206,0.2503722906112671,0.007054618094116449,-0.167000874876976,0.23810164630413055,-0.0289725661277771,0.03791581466794014,0.0720742791891098,-0.008927424438297749,0.09685114771127701,0.046396590769290924,-0.0822216123342514,0.05241072550415993,-0.03478315845131874,-0.1345071792602539,0.10861075669527054,0.10148532688617706,0.026310129091143608,0.03078039176762104,0.07220190018415451,-0.0468655526638031,0.043445952236652374,0.1165069043636322,0.037695106118917465,0.25874677300453186,-0.021765435114502907,0.02820638008415699,0.046594761312007904,0.33187004923820496,-0.035190828144550323,0.13910047709941864,0.005484218243509531,0.009827470406889915,-0.09116421639919281,-0.03893916681408882,0.06565441936254501,-0.19669288396835327,-0.0700249969959259,0.04100752994418144,-0.14607471227645874,-0.028687098994851112,0.14207766950130463,-0.04649066552519798,-0.2339216023683548,0.06741396337747574,-0.16818325221538544,-0.07820083200931549,-0.037958137691020966,0.03443175181746483,-0.005306656938046217,-0.024992089718580246,-0.16196797788143158,0.17099682986736298,-0.036018963903188705,0.05963631346821785,0.1420254111289978,0.17182470858097076,0.003252654103562236,-0.09440688788890839,0.010587344877421856,-0.16077937185764313,-0.08959772437810898,-0.14962910115718842,0.0802152156829834,-0.09087773412466049,0.13610507547855377,-0.037801630795001984,0.18378549814224243,-0.05080362409353256,0.1644708812236786,-0.10711643099784851,-0.06907910853624344,-0.2600744366645813,-0.09510119259357452,0.007999864406883717,0.20063325762748718,0.04645451158285141,0.07277283817529678,-0.3316425681114197,-0.05724810063838959,-0.044798843562603,-0.09014807641506195,-0.04562126472592354,0.021975021809339523,0.11024928092956543,0.01082091499119997,-0.010904250666499138,-0.03784339502453804,-0.1145666316151619,0.08010512590408325,-0.014985665678977966,-0.06539009511470795,0.05734405666589737,-0.1527630090713501,-0.16701476275920868,-0.056219432502985,0.13840632140636444,0.177778959274292,0.17053760588169098,0.05821578577160835,0.2237025648355484,-0.01577073335647583,-0.010229002684354782,-0.06535974144935608,-0.11545789241790771,-0.01980653405189514,0.01677720621228218,-0.05964422971010208,-0.03866545855998993,0.0721203163266182,-0.09341912716627121,0.1762894093990326,-0.0562005341053009,-0.22307288646697998,-0.08938230574131012,-0.054716333746910095,-0.015303798019886017,-0.10315565764904022,0.13261739909648895,0.16313162446022034,-0.06568010151386261,0.13173212110996246,-0.1276535838842392,0.11840062588453293,0.11049393564462662,-0.07235530763864517,-0.00849648006260395,0.0343293771147728,-0.01579483039677143,0.24909141659736633,0.1256592571735382,-0.018598707392811775,-0.013055583462119102,0.08537102490663528,-0.07274505496025085,0.08819742500782013,-0.1950029730796814,0.001691684708930552,0.20458409190177917,0.11725630611181259,0.11225524544715881,0.19568489491939545,0.04284326732158661,-0.018299469724297523,-0.11077001690864563,-0.30308395624160767,-0.1233968660235405,0.03588993102312088,-0.16557177901268005,-0.04005778953433037,0.1194494441151619,-0.009158364497125149,0.1677156239748001,0.025279592722654343,-0.0018684002570807934,0.10226047784090042,0.009355033747851849,-0.06065737083554268,0.09219774603843689,-0.027711553499102592,-0.0010313300881534815,-0.20028215646743774,-0.004735718015581369,-0.14176538586616516,0.06776176393032074,-0.0459962859749794,0.03414120525121689,-0.019986022263765335,-0.02877875417470932,0.09142788499593735,-0.07197239995002747,0.04405626654624939,-0.14395417273044586,-0.08609452098608017,0.020352505147457123,0.19589494168758392,0.11558688431978226,0.0034237788058817387,-0.1350753754377365,-0.14735466241836548,0.17039355635643005,0.09747318923473358,-0.2218264788389206,0.016474677249789238,0.0840313732624054,0.1824030727148056,0.048079751431941986,0.12833021581172943,-0.05580657348036766,-0.016335170716047287,0.039074383676052094,0.06800398975610733,-0.03472156822681427,-0.21791969239711761,0.13979820907115936,0.04814878851175308,-0.02259722538292408,0.16734705865383148,-0.05012383311986923,-0.048893269151449203,0.19227898120880127,-0.14775897562503815,-0.05252387747168541,0.08608050644397736,0.01781134493649006,0.09674843400716782,-0.07959148287773132,-0.061363063752651215,-0.26983723044395447,0.09358922392129898,0.33227813243865967,-0.04365668445825577,0.27610352635383606,-0.11961611360311508,-0.03257571905851364,-0.03594131022691727,0.28998103737831116,-0.09320587664842606,0.025879209861159325,-0.07254160940647125,-0.0016689354088157415,-0.18620899319648743,0.008790004067122936,-0.008280191570520401,0.1650293916463852,0.1707219034433365,0.008724001236259937,-0.047361861914396286,-0.001305594458244741,0.15693825483322144,0.11114846915006638,0.0012951807584613562,0.07924851775169373,-0.04042902961373329,-0.07306734472513199,-0.09419959783554077,-0.16670487821102142,0.006305534392595291,-0.03963935375213623,0.008465668186545372,0.051932573318481445,-0.22741596400737762,0.03688462823629379,-0.027264971286058426,-0.12844353914260864,-0.159523606300354,0.04681095480918884,0.017165033146739006,-0.05743787810206413,0.17725664377212524,0.06732177734375,0.052209991961717606,0.030790096148848534,0.13358210027217865,0.19406981766223907,-0.11740271747112274,0.2243429720401764,0.17437173426151276,-0.02728291228413582,-0.10944925248622894,-0.208790585398674,0.08420732617378235,-0.11468135565519333,-0.05557093396782875,-0.05611556023359299,0.12186964601278305,-0.06352125108242035,-0.02663935162127018,-0.1486770063638687,0.06111383065581322,-0.10981044173240662,0.18980224430561066,0.21465647220611572,-0.028740672394633293,-0.0008485116413794458,-0.2440226674079895,-0.1269793063402176,0.030539190396666527,0.05015922710299492,-0.10125161707401276,0.04023013263940811,0.1286269873380661,-0.04918554797768593,-0.0062326001934707165,0.1487966626882553,0.005614071153104305,0.1603827327489853,-0.1486196666955948,-0.00892920233309269,-0.1297425627708435,0.15307731926441193,-0.041428495198488235,0.1227685883641243,-0.05007639527320862,0.12657374143600464,-0.07089891284704208,-0.022489437833428383,0.014768699184060097,0.06415095180273056,0.15945956110954285,0.02477641962468624,-0.06130249798297882,-0.016072796657681465,0.035283204168081284,0.17734766006469727,-0.0847451239824295,0.1055711954832077,0.1544134020805359,0.1838940978050232,0.09415915608406067,-0.1604289561510086,0.08829492330551147,0.14678402245044708,0.17018644511699677,-0.2362651228904724,-0.2935263216495514,-0.11691685765981674,0.0655822604894638,-0.174982950091362,0.1546948403120041,0.06253316253423691,0.08540429174900055,-0.1752697378396988,0.010419406928122044,-0.0777922049164772,0.18307307362556458,-0.05633925646543503,0.1124618873000145,0.1444598138332367,-0.009218975901603699,0.016418928280472755,-0.15111318230628967,0.2240484654903412,0.16148248314857483,-0.02502254955470562,0.07799329608678818,0.05523691698908806,-0.22480547428131104,-0.03735107183456421,0.028144605457782745,-0.09503472596406937,0.018912846222519875,-0.1890101283788681,-0.09395097196102142,0.05792759731411934,-0.03432109206914902,-0.022773709148168564,-0.017166391015052795,0.09170463681221008,0.09105170518159866,0.020029764622449875,0.0009591881535016,0.06917700171470642,0.06711779534816742,-0.12041301280260086,0.13950768113136292,-0.017184078693389893,0.08218330144882202,0.0940517857670784],[0.14539965987205505,0.15805302560329437,-0.14215540885925293,-0.052046824246644974,-0.10111147910356522,-0.33801841735839844,-0.08655104786157608,-0.05731172114610672,0.2645227015018463,-0.03796093910932541,-0.07784921675920486,0.15979506075382233,0.06334976851940155,-0.006747977342456579,0.05512251332402229,0.08693920075893402,-0.03330078348517418,0.026816703379154205,0.3023749589920044,0.022560376673936844,0.04457791522145271,0.13223260641098022,-0.17595995962619781,-0.0025640393141657114,0.08280979096889496,-0.19012391567230225,0.11704347282648087,0.05322093144059181,0.19387486577033997,-0.11865692585706711,0.022759683430194855,-0.05017181485891342,-0.0747176930308342,0.3448390066623688,-0.024945829063653946,0.11978555470705032,-0.13153040409088135,-0.0960555449128151,-0.09223385900259018,0.08559247106313705,0.17488941550254822,-0.20745953917503357,-0.010797997936606407,-0.15970183908939362,0.060225509107112885,0.16648247838020325,-0.05885837972164154,-0.1988503485918045,0.15439729392528534,-0.004768265876919031,-0.05563492327928543,0.1068023294210434,0.03973332792520523,-0.03918207809329033,-0.03673204779624939,0.12329234927892685,-0.07013034075498581,0.03666668385267258,-0.17039258778095245,-0.05144217237830162,0.08120499551296234,-0.009512672200798988,-0.1149154081940651,-0.03859128803014755,0.020012931898236275,0.06259137392044067,-0.16532424092292786,0.03318845480680466,0.10602208971977234,-0.021699687466025352,0.09400124847888947,0.016403255984187126,-0.07817213237285614,0.13756372034549713,-0.10292948782444,0.044449128210544586,-0.17751535773277283,-0.01942981220781803,-0.02111898362636566,0.11462321877479553,0.15877047181129456,-0.08623038977384567,-0.0397023968398571,0.0032326795626431704,0.049816496670246124,0.056634340435266495,0.049563270062208176,0.2082289755344391,-0.1873103678226471,0.048723846673965454,-0.021322887390851974,0.12594889104366302,0.13408958911895752,-0.007169248536229134,0.15872742235660553,-0.10238383710384369,0.09324106574058533,-0.06942920386791229,-0.010722760111093521,0.11318527162075043,0.3026181161403656,-0.1639259308576584,-0.07374503463506699,-0.008411405608057976,0.012275539338588715,0.08716186136007309,0.1413935273885727,0.08104635030031204,-0.19045622646808624,-0.043591342866420746,0.0980478823184967,-0.06545157730579376,-0.038238927721977234,0.05546339973807335,0.008227977901697159,-0.010548919439315796,-0.04227973148226738,0.023098403587937355,0.01741533726453781,0.035386256873607635,-0.1466517299413681,0.03828275203704834,0.01608939841389656,-0.23168912529945374,0.19994129240512848,0.13474437594413757,0.08075296878814697,-0.02004231885075569,0.25606128573417664,-0.07538081705570221,0.04874951392412186,0.13735704123973846,0.17926445603370667,0.06589648127555847,-0.019911013543605804,-0.03693311661481857,0.11084389686584473,-0.07398606836795807,0.02785748615860939,0.0683533251285553,0.17116907238960266,0.028654366731643677,0.12978948652744293,-0.10690275579690933,0.012780994176864624,-0.007713425438851118,-0.054575975984334946,0.09585822373628616,0.030054470524191856,-0.0671801045536995,-0.10725358128547668,0.26090696454048157,0.05021531134843826,0.014318563975393772,-0.03278524428606033,-0.14974457025527954,-0.028931882232427597,0.18098649382591248,0.11388450115919113,0.16823334991931915,-0.09483397006988525,-0.07929322123527527,-0.1835634708404541,-0.15548104047775269,-0.03623829036951065,-0.08355025202035904,0.07159443199634552,-0.09026694297790527,0.005692015402019024,-0.17834992706775665,0.007060069590806961,-0.06055542826652527,-0.08725810050964355,-0.33476361632347107,-0.007253280840814114,0.2783408761024475,-0.028311926871538162,0.10431962460279465,-0.016579605638980865,-0.0851304680109024,0.030581174418330193,0.27304399013519287,-0.06553629040718079,-0.0902688130736351,-0.1125209704041481,0.06621410697698593,-0.028482576832175255,0.1679207980632782,0.0427343025803566,-0.006333286873996258,0.10417011380195618,-0.0455041378736496,0.015008320100605488,0.04819246008992195,0.17047598958015442,0.14795920252799988,0.09350480884313583,0.17322391271591187,0.1574063003063202,-0.07298842817544937,0.14608877897262573,-0.16152364015579224,0.08595690131187439,-0.1492200344800949,-0.13251638412475586,0.03901345282793045,0.09210851043462753,-0.03727065399289131,-0.1229790672659874,0.08339671790599823,-0.04328342527151108,0.01108026597648859,0.14487671852111816,0.17054390907287598,0.04342925176024437,0.026352208107709885,0.09087670594453812,0.05164235830307007,-0.08116352558135986,-0.03188181295990944,0.04881669953465462,0.10036754608154297,0.03305986523628235,0.08151288330554962,0.1928471028804779,0.20709091424942017,-0.22570936381816864,-0.1289392113685608,0.12001574039459229,-0.06088690087199211,0.0430644229054451,0.1835179626941681,-0.22273297607898712,-0.05770759657025337,0.14017151296138763,-0.07769104838371277,0.1276538074016571,0.08964229375123978,0.03165968507528305,0.08068807423114777,0.22800138592720032,0.16065900027751923,-0.18216294050216675,0.09976616501808167,-0.025730876252055168,-0.0994616448879242,-0.0020979351829737425,-0.07083038240671158,-0.026435794308781624,-0.0922011211514473,0.05088578909635544,-0.08386466652154922,-0.010611345060169697,0.11088504642248154,0.07890293002128601,-0.1636141687631607,-0.03766101226210594,0.15153251588344574,-0.04328514635562897,-0.10279753804206848,0.08094505220651627,0.12502233684062958,0.019343968480825424,-0.19535385072231293,-0.06137287616729736,-0.017025228589773178,-0.22666975855827332,-0.10022643208503723,0.08627377450466156,0.02588476985692978,-0.14380106329917908,-0.2045689821243286,-0.07887393236160278,-0.002842444460839033,-0.15070241689682007,0.08178966492414474,0.15719078481197357,0.05536021664738655,0.14519934356212616,-0.24576587975025177,-0.07655443251132965,0.04663161560893059,0.06674957275390625,-0.19205625355243683,-0.26197752356529236,0.1794634908437729,0.164240762591362,0.027675388380885124,0.11310545355081558,-0.17220786213874817,0.0930594876408577,-0.026105357334017754,-0.012306059710681438,0.09250744432210922,0.16790439188480377,-0.10344240814447403,-0.03015383519232273,-0.05500989034771919,-0.008125849068164825,-0.1864047348499298,-0.07608751952648163,0.14260511100292206,-0.012846801429986954,0.15031369030475616,0.019410213455557823,-0.06359951943159103,-0.05023316666483879,0.14476493000984192,-0.09519756585359573,-0.12298654764890671,0.043079160153865814,-0.03160827234387398,0.23048751056194305,0.011175552383065224,-0.06760001182556152,-0.07955021411180496,-0.41175922751426697,0.13390293717384338,-0.07966741174459457,-0.023379579186439514,-0.09823563694953918,0.07211969047784805,0.24495607614517212,-0.1426251083612442,-0.044708553701639175,-0.1539040207862854,-0.032875675708055496,0.13235290348529816,0.054102811962366104,-0.02563728578388691,-0.10717958211898804,-0.04101819172501564,0.17330147325992584,0.12269962579011917,0.04326467216014862,-0.14425963163375854,0.22541631758213043,0.06830160319805145,0.22738830745220184,0.09176532924175262,-0.03726537898182869,-0.0458776019513607,-0.23599787056446075,-0.03072110190987587,0.04274412617087364,-0.03623814135789871,0.18904048204421997,-0.19178515672683716,0.010281904600560665,-0.2322278469800949,0.010272113606333733,-0.1153753250837326,-0.2961977422237396,0.025845637544989586,-0.17879165709018707,-0.04164387658238411,0.0941029042005539,-0.029881298542022705,-0.044669490307569504,0.24445505440235138,-0.04355476796627045,0.02659807913005352,0.04941542074084282,0.022354209795594215,0.04771096631884575,-0.05999373272061348,-0.05187372490763664,-0.19845883548259735,-0.022604316473007202,0.1226809099316597,0.13047270476818085,0.1644010841846466,0.16633053123950958,0.035104505717754364,-0.05025237426161766,-0.293618768453598,-0.15134869515895844,-0.03953585401177406,-0.011012565344572067,-0.2139759212732315,-0.011315767653286457,-0.1325359344482422,-0.03699388727545738,0.21133598685264587,0.053696926683187485,0.05234536901116371,-0.08704503625631332,-0.09631704539060593,0.2838231921195984,0.13254116475582123,0.06975635141134262,0.05502793565392494,0.1029173880815506,-0.08851830661296844,0.04983697086572647,-0.03264768421649933,0.22415073215961456,-0.052932363003492355,-0.15842574834823608,0.04484928771853447,0.02681332267820835,-0.0026153631042689085,0.10120445489883423,0.08121342957019806,0.05136849731206894,-0.1539541333913803,-0.18060913681983948,-0.08370861411094666,0.1769736260175705,-0.03737220913171768,0.0265965573489666,-0.08905816823244095,0.0698915645480156,-0.041822172701358795,0.05261355638504028,0.1490669697523117,-0.07595799118280411,0.10509110987186432,-0.06480884552001953,-0.14338168501853943,0.06151003763079643,0.09766604006290436,-0.042898133397102356,-0.019035791978240013,0.07586923241615295,-0.07074475288391113,0.05979025736451149,0.08069278299808502,0.0498490110039711,-0.013707078993320465,0.14572028815746307,0.022222118452191353,-0.03277672454714775,-0.03488701209425926,0.14756593108177185,-0.1815139800310135,0.0016388659132644534,0.11488007754087448,-0.12567633390426636,-0.10974365472793579,0.10496211051940918,-0.017846642062067986,0.10472743958234787,0.09467238187789917,0.0010635777143761516,-0.04113110899925232,-0.02743975631892681,-0.08505535125732422,-0.3121541440486908,-0.04526131972670555,-0.0706804096698761,-0.10929052531719208,0.1556946039199829,0.012161524966359138,0.04771820455789566,0.31870976090431213,0.045836836099624634,-0.35207539796829224,0.05415826663374901,-0.040623247623443604,0.11664389073848724,-0.10131533443927765,0.09059185534715652,0.18754954636096954,-0.02708596922457218,0.07782760262489319,0.08303200453519821,-0.014302832074463367,-0.12838828563690186,-0.18989287316799164,-0.05565736070275307,0.05751751363277435,-0.017496533691883087,-0.05972445011138916,0.02356337569653988,0.08368635922670364,-0.006019186228513718,-0.12066775560379028,0.24333219230175018,0.16132228076457977,-0.04896077886223793,0.15874534845352173,-0.006263444200158119,-0.048987314105033875,0.10648372024297714,0.05175628885626793,0.27845269441604614,-0.1194140687584877,0.055140990763902664,-0.02516927942633629,-0.17810463905334473,0.0626460462808609,0.06766912341117859,0.035263270139694214,-0.10254941135644913,-0.04926309362053871,-0.2561136782169342,-0.062109824270009995,-0.14933709800243378,0.014968189410865307,0.031028565019369125,-0.029141414910554886,0.10831145942211151,-0.03403798118233681,-0.11665532737970352,0.05003366246819496,-0.035958047956228256,-0.05361102893948555,0.027814950793981552,-0.07656361907720566,0.1376645863056183,0.034585364162921906],[-0.1199115440249443,-0.1715133786201477,0.10721764713525772,0.13799940049648285,-0.02903466671705246,-0.09964235126972198,-0.009349173866212368,0.1541544497013092,0.12841495871543884,0.11582642048597336,0.09664318710565567,0.13281477987766266,-0.015106801874935627,0.12281443178653717,0.0791139155626297,-0.16589538753032684,0.21780668199062347,-0.05058710277080536,0.10227330029010773,0.013356519863009453,0.09502823650836945,-0.0977693721652031,-0.12521444261074066,-0.08813072741031647,-0.14073722064495087,-0.22342167794704437,-0.0031551949214190245,0.005837365984916687,-0.22838373482227325,0.05304814130067825,-0.26129287481307983,-0.20058980584144592,-0.09251564741134644,0.09094985574483871,-0.007254349533468485,0.1855192482471466,-0.03295814245939255,-0.14099054038524628,-0.139214888215065,0.1254076212644577,0.10884984582662582,0.22413502633571625,-0.1513664275407791,0.3446648120880127,0.0023140707053244114,-0.15895313024520874,-0.08720933645963669,0.17828074097633362,-0.3414705991744995,0.2659580707550049,0.06134756654500961,0.08061729371547699,-0.136906698346138,0.058139726519584656,-0.25130754709243774,-0.07373053580522537,0.10232322663068771,-0.1028677374124527,-0.21470502018928528,0.13105382025241852,-0.022460997104644775,0.13232667744159698,-0.13184139132499695,0.030849050730466843,0.028548110276460648,-0.02829575724899769,0.04315033555030823,-0.08787398040294647,-0.16793283820152283,0.019356314092874527,-0.11509967595338821,0.16767485439777374,0.188421830534935,0.05760756880044937,-0.10359302163124084,-0.09193292260169983,-0.08625892549753189,0.02962140552699566,0.007003876380622387,0.03564057499170303,0.06411875039339066,0.013395373709499836,-0.1555597186088562,0.12696324288845062,0.059102680534124374,-0.02363624796271324,0.0720430240035057,-0.04696279764175415,-0.038000911474227905,0.022555707022547722,0.026632655411958694,0.018284166231751442,0.011137249879539013,-0.046260394155979156,0.18653257191181183,0.025299958884716034,0.09005746990442276,-0.10056496411561966,-0.1863262802362442,-0.0069410293363034725,-0.07449017465114594,-0.0029848050326108932,0.07240694761276245,0.1048583909869194,0.0162915401160717,-0.002004740759730339,0.1526169627904892,0.15123562514781952,-0.08505028486251831,-0.11667939275503159,-0.10797452926635742,-0.24952982366085052,-0.23085559904575348,-0.005573430564254522,0.11795837432146072,-0.4202742576599121,0.03317447006702423,0.021176982671022415,0.044807348400354385,-0.06288912892341614,-0.01508925762027502,0.009030777961015701,0.06288482993841171,0.04854594171047211,-0.07265539467334747,0.03146840259432793,-0.24494849145412445,0.21678639948368073,-0.06226763129234314,0.14209969341754913,-0.1066533550620079,0.3239288926124573,-0.021991701796650887,-0.24022136628627777,-0.09477613866329193,-0.024782445281744003,0.06630762666463852,0.1621585339307785,-0.03374161571264267,-0.21105468273162842,-0.28706806898117065,0.18440788984298706,0.11106586456298828,-0.10004620254039764,0.1497725546360016,0.00509094912558794,0.0500858873128891,-0.07577696442604065,-0.016964567825198174,0.08325611799955368,0.04763474687933922,0.03648432716727257,-0.09157630801200867,-0.008195454254746437,-0.017719727009534836,0.07834534347057343,0.010714252479374409,0.28458356857299805,-0.13520969450473785,0.12967564165592194,-0.09440023452043533,-0.006722030229866505,0.039017193019390106,0.1938665807247162,0.26545003056526184,0.14534741640090942,-0.00505454046651721,0.07641236484050751,0.16183149814605713,0.08858112245798111,0.06629642844200134,-0.05270117521286011,-0.04192471504211426,-0.10020674765110016,0.10842660814523697,-0.17101339995861053,-0.028666043654084206,-0.10926833748817444,0.013342566788196564,0.042949236929416656,-0.25726890563964844,-0.023647518828511238,-0.17294509708881378,0.0673464760184288,-0.06760968267917633,0.11084066331386566,0.003971976228058338,-0.07161331921815872,0.2964668273925781,-0.02615765482187271,-0.17928120493888855,0.06385110318660736,0.08054262399673462,0.04703031852841377,0.053473807871341705,0.006622083485126495,-0.11259350925683975,0.01046024914830923,0.2053995132446289,-0.056097887456417084,-0.2862711548805237,-0.10862480103969574,0.012584281153976917,0.07702632993459702,-0.09598102420568466,0.056849993765354156,0.11733188480138779,-0.04588382691144943,-0.12408358603715897,0.04323273152112961,0.10608070343732834,-0.09180836379528046,0.028332801535725594,-0.03863918408751488,-0.18212890625,0.08358833938837051,-0.12844505906105042,0.05569879338145256,-0.24989433586597443,-0.024764757603406906,0.2128332555294037,-0.16441552340984344,-0.3275195062160492,-0.13788144290447235,0.06847697496414185,0.2502307891845703,-0.14438538253307343,0.04906264320015907,0.25284475088119507,0.09991107881069183,-0.19431494176387787,-0.04454084858298302,0.036792729049921036,-0.07636041939258575,0.024076880887150764,-0.0730309933423996,-0.07648429274559021,-0.04691615700721741,0.11397894471883774,0.0030622335616499186,0.048004768788814545,-0.17516116797924042,0.2253028303384781,0.007275416515767574,0.09676910191774368,0.12484053522348404,-0.1263769268989563,0.163918137550354,0.07562302052974701,-0.09774988889694214,0.04227805510163307,-0.01662609539926052,-0.1140403002500534,-0.18092498183250427,-0.09119852632284164,0.15834227204322815,-0.30344945192337036,0.09875764697790146,0.028170432895421982,0.053266242146492004,0.15737463533878326,-0.1492229849100113,0.012893587350845337,0.1433596909046173,0.06033793091773987,-0.007440495304763317,0.19031497836112976,0.10355569422245026,0.09000058472156525,0.09558600932359695,0.18985049426555634,0.17523252964019775,-0.0387120358645916,-0.19575083255767822,-0.133224755525589,0.010776764713227749,0.06655166298151016,0.05979877710342407,-0.08604210615158081,-0.017460478469729424,-0.003991339821368456,0.08243478089570999,0.22879473865032196,-0.091428242623806,-0.09402599930763245,-0.23723797500133514,-0.02606964111328125,0.013445736840367317,-0.034058086574077606,0.1303519606590271,0.08278656005859375,0.1434353142976761,0.011108663864433765,-0.32226717472076416,0.08498527109622955,0.0945335328578949,0.043769318610429764,0.045791734009981155,0.0485994890332222,0.16357386112213135,-0.051490917801856995,0.13557982444763184,-0.015309462323784828,0.03597845137119293,-0.06971561908721924,0.04979337751865387,0.03773806616663933,0.051815953105688095,0.07935385406017303,-0.02142353169620037,0.02606746181845665,-0.07417455315589905,0.01685499958693981,0.05779564008116722,0.20103566348552704,-0.12619200348854065,0.10404829680919647,0.006225123070180416,0.14286401867866516,-0.041258979588747025,0.17122790217399597,0.08602507412433624,-0.006972764153033495,-0.027931734919548035,0.25593626499176025,0.04398978129029274,-0.1568835824728012,-0.1806439459323883,0.07090762257575989,0.03187885135412216,-0.11433756351470947,0.08744267374277115,0.024446098133921623,0.021073393523693085,0.08660788089036942,0.1725900024175644,-0.11708754301071167,0.18139749765396118,0.18053361773490906,0.1791193038225174,0.08180060982704163,0.31567081809043884,-0.1485341191291809,-0.06679794937372208,-0.24524426460266113,-0.3001806437969208,0.2505614161491394,-0.014221437275409698,0.01810496300458908,-0.042532626539468765,0.25190469622612,-0.17113909125328064,-0.01585566997528076,0.1402888298034668,-0.027034973725676537,-0.16520977020263672,-0.05623047053813934,0.1810808628797531,0.013219592161476612,0.1821437031030655,-0.2594183087348938,-0.09656655788421631,-0.14401483535766602,-0.037263013422489166,0.054001253098249435,0.17736980319023132,0.05646945908665657,0.08384371548891068,-0.10610038042068481,0.10937582701444626,-0.020740777254104614,0.07785472273826599,0.027632053941488266,-0.0044497842900455,-0.19439131021499634,0.006443439982831478,0.0730702206492424,0.030936622992157936,-0.2538221776485443,-0.00923934206366539,0.07344356179237366,-0.13958469033241272,-0.13530120253562927,-0.09566660225391388,0.1538943499326706,-0.09216964989900589,-0.11838622391223907,0.016948338598012924,0.15095411241054535,-0.014019088819622993,0.30716463923454285,0.0012005073949694633,-0.21000933647155762,-0.18311916291713715,0.042800333350896835,-0.054368872195482254,0.20323902368545532,0.06293433904647827,0.1166759580373764,0.05706308037042618,-0.15364840626716614,-0.12665508687496185,0.059283867478370667,0.0964561179280281,0.2527391314506531,0.026598408818244934,0.08802202343940735,-0.024397389963269234,-0.12132558226585388,-0.03295305371284485,0.07273290306329727,-0.002889955183491111,0.12555384635925293,-0.18830005824565887,0.053000058978796005,0.06305161863565445,0.009004095569252968,0.07596027106046677,-0.0705503523349762,0.06461469829082489,-0.038998860865831375,0.09216251969337463,-0.03266115486621857,-0.026557907462120056,0.16323351860046387,0.13844549655914307,-0.02424617111682892,0.007441412191838026,0.027583302929997444,0.07132377475500107,0.008105142042040825,-0.1791832000017166,0.03892943263053894,-0.08926443010568619,-0.16994903981685638,-0.13043540716171265,-0.18448218703269958,0.14920994639396667,0.0148513438180089,-0.04431327059864998,0.052550412714481354,0.09897459298372269,-0.22000491619110107,0.14919444918632507,-0.2592434585094452,-0.05766425281763077,-0.06302819401025772,-0.03171700984239578,0.032216861844062805,0.021663174033164978,0.057276833802461624,0.10738555341959,-0.02021205797791481,-0.09764321893453598,-0.02155563235282898,0.15327566862106323,-0.039259832352399826,-0.002661239355802536,0.05838928371667862,-0.018442898988723755,-0.011162078939378262,-0.04365354776382446,0.19953501224517822,-0.004276145249605179,0.003574935020878911,-0.10523676127195358,0.02847314439713955,-0.13880625367164612,0.005194708704948425,-0.14657196402549744,0.12132397294044495,-0.07701615989208221,-0.3254435658454895,-0.01334192045032978,-0.07284393161535263,-0.10667912662029266,0.14563149213790894,0.11056454479694366,0.06711173057556152,-0.14149531722068787,0.003339938586577773,0.16956187784671783,0.06296515464782715,0.10282128304243088,-0.035527925938367844,-0.13753977417945862,-0.014989381656050682,-0.03124237060546875,0.007835873402655125,-0.010665311478078365,0.16087007522583008,0.06297174841165543,-0.08514057844877243,-0.07708203047513962,0.1193249449133873,-0.0006393817602656782,0.13675245642662048,-0.05919763445854187,-0.029486313462257385,0.1287788301706314,0.14226485788822174,-0.01824823208153248,-0.0009176466264761984,-0.21397282183170319,-0.17370106279850006,0.1102379560470581,0.07379844039678574,0.2333754003047943,-0.07269381731748581,-0.08609090745449066,-0.019193626940250397,0.016519654542207718],[-0.3343246281147003,0.03348786383867264,-0.246356800198555,-0.04204050824046135,0.000012330497156654019,0.04633207991719246,-0.1579195111989975,-0.03420330584049225,0.004971212241798639,0.28552329540252686,0.03835127875208855,0.004710470326244831,0.0341811366379261,-0.09186586737632751,-0.13744130730628967,0.10694757103919983,-0.09094903618097305,0.14064921438694,0.0269362460821867,-0.2902817726135254,0.14322802424430847,0.08031284809112549,-0.11477650701999664,-0.05828985571861267,0.02911265380680561,-0.09805294126272202,-0.00013844417117070407,0.07650326192378998,-0.043403659015893936,-0.026504939422011375,-0.158951535820961,-0.07916658371686935,-0.21566417813301086,0.03444091975688934,-0.03778349608182907,-0.24990104138851166,0.1963893473148346,0.06186622008681297,0.14379894733428955,-0.03401990607380867,-0.1214224174618721,0.010102808475494385,0.011362224817276001,0.00015280907973647118,-0.0880703553557396,-0.09346005320549011,-0.020790282636880875,-0.04372552037239075,0.02788672037422657,0.08814360201358795,0.01036844216287136,-0.013530121184885502,-0.09494580328464508,-0.19174058735370636,-0.0090330820530653,-0.008604138158261776,-0.18831521272659302,0.039094727486371994,0.06537286937236786,0.1236761286854744,0.015160104259848595,-0.0815238505601883,0.0033785193227231503,-0.016775760799646378,-0.039132259786129,-0.010743450373411179,0.029138749465346336,-0.09697890281677246,-0.17886532843112946,0.19223283231258392,-0.09844328463077545,0.049141060560941696,-0.11203242093324661,0.18268297612667084,0.1469622701406479,0.0137339411303401,0.04350728914141655,-0.22207486629486084,0.06381873786449432,-0.035535652190446854,-0.07029280066490173,-0.0003879711148329079,0.03178485110402107,0.05604380741715431,0.11062467098236084,-0.11326096206903458,-0.15156297385692596,-0.12376737594604492,0.21114352345466614,-0.05607005953788757,-0.2586916983127594,0.020415877923369408,-0.045397158712148666,-0.008073321543633938,-0.09446395933628082,0.11382951587438583,0.06442954391241074,-0.07590103894472122,0.12337011098861694,-0.08025621622800827,0.015339631587266922,0.05438459292054176,-0.018115095794200897,0.10860767215490341,-0.10760617256164551,0.06229880079627037,0.16553151607513428,-0.0731825903058052,0.20309530198574066,-0.042545754462480545,0.061508141458034515,0.17525601387023926,-0.04624367877840996,-0.03606975078582764,-0.06325764954090118,0.08606549352407455,0.12438961863517761,-0.2702358365058899,-0.0697062686085701,-0.16572575271129608,-0.13541316986083984,-0.08154787123203278,0.11765053868293762,0.05900217965245247,-0.01592409610748291,-0.06714325398206711,-0.18384990096092224,-0.02791496552526951,-0.06580900400876999,-0.12520599365234375,0.10028810799121857,-0.032313503324985504,0.15525564551353455,0.05096491426229477,0.18123535811901093,0.19110074639320374,0.1774526834487915,0.025027787312865257,0.053448665887117386,-0.18042272329330444,-0.1499931365251541,0.04545076936483383,0.097472183406353,-0.12254871428012848,0.03147203102707863,-0.08789302408695221,0.12063605338335037,-0.01720055751502514,-0.2984166443347931,-0.1295674592256546,0.20361191034317017,-0.13160760700702667,-0.07571273297071457,0.04609669744968414,0.322020947933197,0.0029212504159659147,0.00005619565490633249,-0.25176626443862915,0.041740816086530685,-0.145030215382576,-0.10037240386009216,-0.048489708453416824,-0.09992150962352753,0.0059936875477433205,0.07928598672151566,0.09186761826276779,-0.032067976891994476,-0.08032470941543579,0.3989991247653961,0.04900014400482178,-0.10878920555114746,0.04502725973725319,0.1706550121307373,0.04092766344547272,-0.15158239006996155,0.1235838383436203,-0.12091877311468124,0.14794600009918213,-0.015018245205283165,0.05553869530558586,0.023379385471343994,0.039472922682762146,-0.1628311425447464,-0.17147456109523773,0.20563197135925293,-0.13757149875164032,0.06346312910318375,0.16591647267341614,-0.3053317368030548,0.022836195304989815,-0.09333114326000214,0.23765644431114197,-0.07064855843782425,0.016080373898148537,-0.05411519110202789,0.035560041666030884,0.1298191100358963,0.20742513239383698,-0.04800993204116821,-0.05532453581690788,-0.16451670229434967,0.044987961649894714,0.059274863451719284,-0.24093030393123627,0.1103106141090393,0.23033709824085236,0.1517171859741211,0.13696147501468658,-0.030517876148223877,-0.09154711663722992,0.07809589058160782,-0.04428141936659813,0.049034979194402695,-0.14791853725910187,0.04932413622736931,-0.03143567591905594,-0.305830180644989,0.008222173899412155,0.046670060604810715,-0.019008534029126167,0.05140715464949608,-0.07940673828125,-0.1330963522195816,0.05690032243728638,-0.04083903878927231,0.010492363944649696,0.08249451220035553,0.01580086536705494,-0.021200379356741905,-0.11304562538862228,-0.011413946747779846,0.053581591695547104,-0.030494365841150284,0.08441609144210815,-0.053945597261190414,0.03275856003165245,0.1846781224012375,-0.013135924935340881,0.06862591207027435,0.03349485993385315,-0.0016408576630055904,0.22192414104938507,0.1708095669746399,-0.1685364842414856,-0.48172348737716675,0.09683164954185486,-0.027566280215978622,0.2262001484632492,0.08023564517498016,-0.06463708728551865,-0.003836594056338072,0.14389212429523468,-0.06921930611133575,-0.1219397783279419,0.04343874007463455,-0.0531538724899292,0.2396167665719986,0.08121379464864731,0.18213799595832825,0.3596018850803375,-0.04863038286566734,-0.21719825267791748,-0.12127993255853653,-0.07045687735080719,-0.06672397255897522,-0.27697402238845825,-0.028645288199186325,-0.06117724999785423,0.04669099301099777,-0.0811595767736435,0.06579561531543732,-0.005933693610131741,0.14412617683410645,0.3874102532863617,-0.019162924960255623,-0.05474170297384262,0.03822293132543564,-0.11534330248832703,-0.13463860750198364,-0.047667261213064194,0.046738624572753906,0.19745254516601562,-0.18756645917892456,0.1318531036376953,0.16537439823150635,-0.05572286993265152,0.07038882374763489,-0.02756882831454277,-0.1605829894542694,0.11800486594438553,-0.22200393676757812,-0.06406880170106888,-0.08358422666788101,-0.32498109340667725,-0.10580167919397354,0.16102132201194763,0.23375150561332703,0.0013472125865519047,0.03243904933333397,-0.07882561534643173,-0.007592677138745785,-0.031147971749305725,0.0223721731454134,-0.13194727897644043,0.03774194419384003,-0.059821225702762604,-0.05184889957308769,-0.10002537071704865,-0.06265893578529358,-0.18903134763240814,-0.010453121736645699,0.12016019225120544,-0.040758807212114334,-0.03226352855563164,0.1415518820285797,-0.15614868700504303,-0.061429884284734726,0.11108122020959854,0.04541571065783501,-0.05013369768857956,-0.12472136318683624,0.14759716391563416,-0.03491892293095589,-0.03968852013349533,-0.1717834621667862,-0.04108867794275284,0.096315898001194,-0.08045734465122223,-0.20666517317295074,0.01826374977827072,0.01652265153825283,0.17502780258655548,-0.012625711970031261,0.12935271859169006,-0.24504618346691132,-0.08150352537631989,-0.02861730568110943,-0.172743558883667,-0.2510029971599579,0.14340758323669434,0.014374908991158009,-0.011967359110713005,-0.11160124838352203,-0.11120463907718658,-0.02660674974322319,-0.29151293635368347,-0.07464739680290222,0.07061893492937088,0.08236882835626602,0.02068723924458027,-0.09576034545898438,-0.023732343688607216,0.11688417941331863,-0.14681829512119293,-0.09094316512346268,0.12140357494354248,0.13395041227340698,-0.14315834641456604,0.15199482440948486,-0.05289265140891075,0.037152428179979324,0.007852436043322086,0.07589606195688248,-0.008935892954468727,-0.08196128904819489,0.008193280547857285,0.15725141763687134,-0.04302162304520607,-0.12207061052322388,-0.05701487883925438,-0.09282373636960983,0.14301081001758575,0.07495838403701782,-0.005488786846399307,0.022110164165496826,-0.1359378844499588,0.1049763634800911,-0.19952811300754547,0.12445759773254395,-0.10006138682365417,0.009296804666519165,-0.13543909788131714,-0.007473485078662634,-0.0666005089879036,0.060164932161569595,-0.07177094370126724,0.13658225536346436,0.18785306811332703,-0.18590222299098969,0.058788642287254333,0.1368381381034851,-0.09766276180744171,-0.0019394204718992114,-0.006827147211879492,0.09175917506217957,-0.10846879333257675,0.0016616861103102565,0.04554184526205063,-0.07001875340938568,0.02196359448134899,0.10819068551063538,0.1725042462348938,0.08431213349103928,-0.15442559123039246,0.17603102326393127,-0.2652748227119446,0.11366349458694458,0.2064216434955597,0.1378488838672638,0.047603487968444824,-0.0019688871689140797,0.05944155529141426,0.03706661984324455,0.21808429062366486,0.10078766942024231,-0.09836392849683762,0.025602545589208603,-0.08572735637426376,0.19800271093845367,0.04877270385622978,0.20529486238956451,0.059389349073171616,-0.03793744742870331,0.14246051013469696,-0.19019027054309845,-0.12038562446832657,-0.049499183893203735,0.10017146170139313,-0.0949823409318924,-0.08096665143966675,0.011580175720155239,0.20325495302677155,0.02995217777788639,-0.16599306464195251,-0.023247933015227318,-0.007755720522254705,0.02014506794512272,-0.029523855075240135,-0.00602106424048543,-0.12786607444286346,0.25129184126853943,-0.13742020726203918,0.14927709102630615,0.03755273297429085,-0.28967225551605225,-0.12475509941577911,-0.03907838836312294,-0.16865168511867523,0.2707363963127136,0.03779161721467972,0.019719569012522697,-0.013310783542692661,0.11064550280570984,-0.06934749335050583,-0.06741030514240265,0.01078439224511385,0.14010566473007202,0.011472598649561405,-0.03810488060116768,-0.021607229486107826,0.20931673049926758,0.05408504977822304,-0.031127961352467537,-0.03862098604440689,0.07113415747880936,0.0263238362967968,-0.023630985990166664,-0.02798846736550331,0.06283845752477646,0.05719180777668953,-0.08237268775701523,0.05114215239882469,0.03987201303243637,0.19020608067512512,0.006581234745681286,-0.08973820507526398,0.08095457404851913,0.01698477938771248,0.0879831612110138,-0.21201375126838684,0.14033649861812592,0.10276703536510468,0.19218523800373077,-0.05567791685461998,0.11413131654262543,0.2196560949087143,0.0626048594713211,-0.10479620099067688,-0.03354939445853233,0.059371039271354675,0.005834921728819609,0.08781301975250244,-0.10259474813938141,0.06629583239555359,0.19553199410438538,0.002294289879500866,0.09311145544052124,0.052577100694179535,0.03285539522767067,-0.1610371619462967,-0.2668037712574005,-0.03425893187522888,0.1506030112504959,-0.11160534620285034,0.07915614545345306,-0.10385134816169739,0.024354152381420135,-0.16019341349601746,0.01688689924776554,0.06543169915676117,-0.09559546411037445,0.03475317358970642],[-0.000532914069481194,0.24924126267433167,-0.04186132177710533,0.06808391213417053,-0.1439712792634964,0.05376441776752472,-0.0750247910618782,0.1418275535106659,0.11702263355255127,-0.21609197556972504,-0.024680135771632195,-0.013469908386468887,0.024714147672057152,0.07284034043550491,0.0924164354801178,-0.009046128951013088,0.07073070108890533,0.02214444987475872,-0.20660154521465302,0.20902438461780548,0.1219886839389801,-0.16478903591632843,0.16241572797298431,0.04069843888282776,0.08330659568309784,-0.11954382807016373,0.14212748408317566,0.2318888157606125,-0.1503233015537262,0.0972706750035286,-0.2679171860218048,0.16789571940898895,-0.11934810131788254,-0.026280442252755165,0.08305858075618744,0.2779276371002197,0.004723839927464724,0.01391756534576416,-0.053611867129802704,-0.056323107331991196,-0.022018035873770714,0.03445403277873993,0.06419767439365387,-0.08569113165140152,-0.13443423807621002,0.2030620574951172,-0.04839227721095085,-0.2700446844100952,-0.04301595687866211,-0.056547194719314575,-0.13680976629257202,-0.1503256857395172,0.03986583650112152,0.015850326046347618,0.07961902767419815,-0.0812193974852562,0.04881323128938675,-0.267294704914093,-0.027209853753447533,0.12491800636053085,-0.06791171431541443,0.25394511222839355,0.039213795214891434,-0.05825337767601013,0.0798519104719162,0.029556894674897194,0.12674352526664734,-0.07827761024236679,-0.07008785009384155,0.19148510694503784,-0.028850292786955833,-0.029024630784988403,-0.07952497899532318,-0.229945108294487,-0.01706947386264801,0.11724995821714401,-0.04655279964208603,-0.02099941298365593,0.10498277097940445,-0.09477152675390244,0.09965650737285614,-0.17137277126312256,-0.008760163560509682,0.06127115711569786,-0.02663404680788517,-0.2642488181591034,-0.20071867108345032,-0.03751129284501076,-0.09650444984436035,0.2164035439491272,-0.06174812093377113,-0.09277970343828201,0.14610110223293304,-0.035641930997371674,-0.12266914546489716,0.022283663973212242,0.06242634356021881,0.0449015274643898,0.0784544125199318,0.06639257073402405,-0.019209517166018486,0.11768775433301926,-0.05463963374495506,0.18583455681800842,0.1997128278017044,0.14263756573200226,0.11941477656364441,0.1856084018945694,0.04687003418803215,0.02532978169620037,0.2446821630001068,0.1922740340232849,0.07985252887010574,-0.052682939916849136,-0.0018697711639106274,-0.10112611949443817,-0.06894081085920334,-0.14231562614440918,-0.1654672771692276,0.01727292686700821,0.09422852098941803,0.0005771684809587896,0.043933819979429245,0.31187596917152405,0.11211518198251724,0.08724432438611984,0.03111332841217518,-0.04564761742949486,0.00910959392786026,0.3252451717853546,-0.047103941440582275,-0.27835261821746826,-0.18830819427967072,0.08574777841567993,0.0012141484767198563,-0.11910837888717651,0.0626598373055458,0.029989982023835182,0.13003098964691162,0.1553678959608078,0.034456588327884674,-0.08790864795446396,0.06981582939624786,-0.07670537382364273,0.1871892362833023,-0.10435295850038528,0.1332262009382248,0.04621810093522072,0.11509714275598526,-0.09782704710960388,-0.0262964628636837,0.1891563981771469,-0.06383119523525238,0.15342828631401062,0.1025116965174675,0.010291933082044125,-0.11149948835372925,0.064303457736969,0.2596488296985626,-0.14078256487846375,-0.17388932406902313,-0.045120738446712494,-0.13658654689788818,0.23191246390342712,0.11456165462732315,0.1585930734872818,-0.05093702673912048,-0.005590670742094517,-0.09493818134069443,-0.1335923820734024,0.013488206081092358,-0.0505509227514267,-0.013430348597466946,-0.03619718924164772,-0.023324884474277496,-0.06146252155303955,-0.012442976236343384,-0.10134688764810562,0.0015913674142211676,-0.0803590789437294,0.1588180959224701,0.17336833477020264,0.025013020262122154,0.05447175353765488,-0.11227762699127197,0.02765687368810177,0.0299407709389925,0.0057625537738204,-0.16432826220989227,-0.11241713166236877,-0.1360720843076706,-0.21762715280056,-0.14269059896469116,0.1285046488046646,-0.05323882773518562,0.00877954252064228,-0.030014103278517723,0.125408336520195,0.0589798279106617,-0.07739263027906418,-0.07775425165891647,-0.09061993658542633,0.11146790534257889,-0.18897797167301178,-0.22760505974292755,0.08665129542350769,0.12576527893543243,0.06733168661594391,-0.11836275458335876,-0.2483435869216919,0.10355783998966217,-0.028707953169941902,0.09871023893356323,-0.2257620096206665,-0.07712474465370178,0.15497562289237976,-0.24156077206134796,0.00023435484035871923,0.23737546801567078,-0.30568066239356995,-0.12567074596881866,-0.18486373126506805,-0.02248941920697689,0.28156235814094543,-0.15706612169742584,-0.09040521085262299,0.17125770449638367,0.15749384462833405,0.06298014521598816,0.09917926043272018,-0.14575694501399994,-0.038812071084976196,0.11868022382259369,0.044251948595047,-0.10600735992193222,0.23768389225006104,0.07936055213212967,0.03232771158218384,0.0023225219920277596,-0.14000193774700165,-0.09249062836170197,0.030199220404028893,0.05024264007806778,0.32172438502311707,-0.040302637964487076,-0.141323059797287,-0.06134359911084175,-0.30025815963745117,0.10722187161445618,-0.11753245443105698,0.06072487682104111,-0.14862234890460968,0.18714872002601624,-0.028790239244699478,0.013238796032965183,-0.05878012999892235,-0.10607001930475235,0.013606804423034191,0.12477653473615646,-0.1470082849264145,0.024720674380660057,-0.17531101405620575,0.159381702542305,0.26536163687705994,-0.19219739735126495,-0.2552724778652191,-0.14404535293579102,-0.1254260540008545,-0.07070951908826828,0.03450807183980942,-0.15679241716861725,-0.24531452357769012,0.0774778500199318,0.030142540112137794,0.01416133251041174,0.1383906453847885,0.16118499636650085,-0.06367795169353485,0.0032384267542511225,0.1479101926088333,-0.17308513820171356,0.10258495807647705,-0.038662735372781754,-0.06215289980173111,-0.16200746595859528,0.04744178429245949,-0.08362019807100296,-0.12320826202630997,-0.061318155378103256,0.20594410598278046,0.20767973363399506,-0.12625934183597565,-0.0038060082588344812,0.2007112354040146,-0.012571847066283226,-0.29693371057510376,-0.05552047863602638,0.1853177547454834,-0.14795705676078796,-0.05563424527645111,-0.03346064314246178,-0.005209490191191435,-0.1438019722700119,0.04529375955462456,-0.21610181033611298,0.13734591007232666,0.040285058319568634,0.07038339227437973,-0.2447088360786438,0.054719507694244385,-0.10872981697320938,-0.12451077997684479,0.08114577829837799,-0.16919265687465668,0.12451066821813583,0.08688955008983612,0.09791678190231323,-0.09562323987483978,-0.09996286034584045,-0.026067711412906647,0.1321597695350647,0.022221054881811142,-0.009801235981285572,-0.11757542192935944,-0.20376965403556824,0.007825665175914764,-0.1449003368616104,-0.06774165481328964,0.19395388662815094,0.031143730506300926,-0.0034028252121061087,-0.04800854250788689,0.000006873431175336009,-0.08839758485555649,0.1846563220024109,-0.04352940618991852,0.15298207104206085,-0.13928566873073578,-0.11711335927248001,0.16669227182865143,-0.18267658352851868,0.13813944160938263,0.025390420109033585,0.04146076738834381,-0.14271104335784912,-0.051587726920843124,-0.03927811235189438,0.17423725128173828,0.014654763974249363,0.14905902743339539,-0.20450888574123383,-0.005681036505848169,0.09935791790485382,0.10630235075950623,0.08329225331544876,-0.10739757120609283,0.12407264113426208,-0.06914346665143967,-0.08540366590023041,0.119045689702034,0.12750332057476044,0.09776171296834946,0.3393913507461548,-0.08340144902467728,-0.19143103063106537,-0.09605671465396881,-0.03945697098970413,0.06846452504396439,-0.00325600104406476,0.13243970274925232,-0.1674516797065735,0.005415496416389942,-0.09369129687547684,0.16406196355819702,0.24937275052070618,0.18655186891555786,-0.045233502984046936,-0.12004360556602478,0.14730913937091827,-0.006889367010444403,-0.09886320680379868,-0.04611215367913246,0.030635254457592964,0.03580884635448456,-0.09790116548538208,0.0196901336312294,0.2585076689720154,0.1253889501094818,0.056560710072517395,-0.10199861228466034,0.14917610585689545,0.18099230527877808,0.06879095733165741,-0.0996706411242485,0.29524311423301697,0.06951073557138443,-0.021965231746435165,0.23185335099697113,-0.15132465958595276,-0.01616114005446434,-0.006723832339048386,0.13027212023735046,-0.036126770079135895,0.03311866521835327,-0.15566255152225494,0.11137108504772186,0.06542716920375824,-0.021660901606082916,-0.015549162402749062,-0.11528659611940384,0.057784728705883026,-0.0236149150878191,0.04082086309790611,-0.003926611505448818,-0.12196993827819824,0.06386571377515793,0.012042677961289883,0.12532049417495728,0.03970005735754967,-0.018203409388661385,0.05784602463245392,0.07153722643852234,0.04962573200464249,-0.03540769964456558,-0.011043300852179527,-0.04695054516196251,-0.22065678238868713,-0.11141616106033325,0.14574021100997925,-0.035899918526411057,0.09640463441610336,0.15743732452392578,-0.10993530601263046,0.16343124210834503,-0.009383219294250011,-0.0015083067119121552,0.00673475069925189,-0.19742801785469055,0.00016080128261819482,-0.11988174915313721,-0.1187022477388382,0.07409115880727768,-0.11253860592842102,-0.11220594495534897,-0.18126437067985535,-0.11300351470708847,0.1707451045513153,-0.08291642367839813,-0.39808183908462524,-0.02522224932909012,-0.02460143156349659,-0.0238406490534544,0.03564449027180672,-0.10398922860622406,0.19413799047470093,0.26910361647605896,0.002117606345564127,-0.056537527590990067,-0.066630519926548,0.1435830444097519,-0.036330536007881165,0.006817367393523455,0.010867255739867687,-0.03170360252261162,-0.018792806193232536,-0.08804349601268768,0.037488363683223724,-0.01401618029922247,-0.22722533345222473,0.04401054233312607,0.02645488642156124,0.14873221516609192,0.07054232060909271,-0.0387909859418869,-0.13348765671253204,-0.08726415038108826,0.03288983553647995,0.15297730267047882,0.15059475600719452,-0.19168828427791595,0.08110877871513367,-0.08935028314590454,-0.007188013754785061,-0.07563012838363647,0.07953748852014542,-0.021985851228237152,-0.1478128880262375,0.13942506909370422,-0.09069287776947021,0.180612251162529,-0.18907569348812103,-0.01200143527239561,-0.25753718614578247,0.04095839336514473,0.15652044117450714,-0.2754210829734802,0.1454942226409912,-0.0534522719681263,-0.11208953708410263,-0.060440268367528915,-0.06831830739974976,0.14126314222812653,0.11879147589206696,-0.03750951588153839,-0.059166308492422104,-0.07412327826023102,0.0632559061050415,0.11501206457614899,0.0249477531760931,0.04884522035717964,0.12681950628757477,0.13116580247879028],[-0.3014157712459564,0.0036508056800812483,0.11722191423177719,0.22095267474651337,-0.026340613141655922,-0.042189475148916245,-0.0685209333896637,-0.11138103157281876,0.23327705264091492,0.09359797090291977,0.022772183641791344,0.22202858328819275,0.11190541833639145,0.01862994395196438,0.07060867547988892,0.015702908858656883,0.02461863122880459,0.10668598860502243,0.0053650569170713425,0.011586402542889118,0.11438258737325668,-0.03474739193916321,-0.1596297174692154,-0.0349634550511837,0.11607526987791061,0.012331939302384853,-0.06675539165735245,0.057559557259082794,-0.00526717584580183,-0.10077650099992752,-0.12274972349405289,0.07109227031469345,0.02124575711786747,0.049792639911174774,-0.0322701521217823,0.21143889427185059,-0.15079818665981293,-0.012416969984769821,-0.01565883308649063,0.07014311105012894,0.1941354125738144,0.15615762770175934,-0.007656622678041458,-0.1145225390791893,0.027377504855394363,0.026132021099328995,-0.12774454057216644,-0.15441817045211792,-0.09286963194608688,0.009152651764452457,-0.07307367026805878,0.07284695655107498,-0.012911048717796803,0.007965677417814732,-0.03190818428993225,0.04452753812074661,0.0829961821436882,0.028003063052892685,-0.24255700409412384,-0.09223837405443192,-0.10017911344766617,-0.09626658260822296,-0.12232282757759094,0.25300684571266174,-0.021388132125139236,-0.04456866532564163,0.08212999254465103,0.13018208742141724,-0.022035883739590645,0.15510861575603485,0.07344012707471848,-0.29771798849105835,0.1469009667634964,-0.12835848331451416,-0.2060886174440384,0.009664281271398067,0.17143067717552185,0.0005383362295106053,0.018222050741314888,0.1134226992726326,0.03682684525847435,-0.10609228163957596,-0.07915706187486649,0.08598629385232925,-0.027662701904773712,0.016235005110502243,-0.010654577985405922,-0.10141579806804657,-0.042344048619270325,-0.030834224075078964,-0.10847155749797821,-0.2546241879463196,-0.13244904577732086,0.08222531527280807,0.18624165654182434,-0.09584551304578781,-0.19308169186115265,-0.014300135895609856,0.0665409192442894,-0.1524713784456253,0.09271066635847092,-0.06241978332400322,0.04602938890457153,-0.04560018703341484,0.07727346569299698,0.36871814727783203,0.03176150470972061,-0.11206959187984467,0.17848998308181763,-0.07568713277578354,0.0011998434783890843,-0.05588730797171593,0.10196544975042343,-0.06628447771072388,0.016866188496351242,-0.03539416566491127,0.0832524299621582,-0.15156173706054688,-0.24642202258110046,0.033643849194049835,0.1320900022983551,0.007425997871905565,0.02489394135773182,0.06894100457429886,0.16830892860889435,-0.03867081180214882,0.12867771089076996,-0.1120908334851265,0.01056918315589428,-0.11869946867227554,-0.2343096286058426,0.327902615070343,-0.034683458507061005,0.14557939767837524,0.02470925636589527,-0.060003895312547684,0.04908926412463188,0.04762329161167145,0.05498780310153961,0.03631442412734032,0.06372598558664322,0.10134003311395645,-0.16331976652145386,-0.19669489562511444,-0.04682440310716629,-0.05731329694390297,-0.16165988147258759,-0.022521421313285828,0.15146519243717194,0.10349410027265549,0.0020955349318683147,0.04858027771115303,0.1677333563566208,-0.14293165504932404,-0.05592508614063263,0.04559791833162308,0.2549254596233368,-0.28713542222976685,0.07452908903360367,-0.06584974378347397,0.06383661925792694,0.04197836294770241,0.12571701407432556,-0.38250046968460083,-0.07855790853500366,0.5373715758323669,-0.05531369149684906,0.0013434076681733131,-0.033402543514966965,0.02167247049510479,-0.013406585901975632,-0.03582562878727913,-0.025719981640577316,-0.03054387867450714,-0.17713673412799835,0.06839939951896667,-0.07153477519750595,0.15531890094280243,0.010412740521132946,0.0947473794221878,-0.006176121532917023,0.02949778363108635,0.18013322353363037,0.11093931645154953,0.14171649515628815,0.07699913531541824,0.08189951628446579,-0.013055428862571716,-0.016341712325811386,0.0734630674123764,-0.02776961959898472,-0.13579429686069489,-0.07351189851760864,-0.08016469329595566,-0.11285281181335449,-0.24551469087600708,-0.016870882362127304,-0.0675574317574501,-0.17396563291549683,-0.18151943385601044,0.16822929680347443,-0.011120563372969627,0.3241836428642273,0.07241696119308472,-0.07015446573495865,0.0191035158932209,-0.005170940421521664,-0.08123945444822311,0.18238602578639984,0.19701579213142395,-0.038462623953819275,0.04251018539071083,-0.020922916010022163,0.13611561059951782,-0.12799790501594543,0.22694556415081024,-0.13525156676769257,0.013827694579958916,-0.01768549531698227,-0.06913179904222488,-0.05324538052082062,-0.053521741181612015,0.008905085735023022,-0.008139713667333126,0.3253185749053955,0.23907622694969177,-0.09479222446680069,-0.088846854865551,-0.06360351294279099,0.26250171661376953,-0.06754263490438461,-0.08315274119377136,-0.02622227929532528,0.05236842483282089,-0.06088036671280861,0.008293583057820797,-0.0037397139240056276,0.061560727655887604,0.040290046483278275,0.11484266072511673,-0.07057841867208481,0.20516207814216614,0.0033184560015797615,0.24071185290813446,0.0003200510109309107,-0.15778733789920807,-0.05356186255812645,-0.09056134521961212,0.07932201772928238,0.1439727395772934,0.0013697703834623098,-0.030168477445840836,0.0021239835768938065,0.1265975683927536,-0.05714152008295059,0.016906140372157097,-0.02220074087381363,0.18289585411548615,0.008963465690612793,-0.012856225483119488,-0.0282256118953228,-0.08432213217020035,-0.036958809942007065,0.005950992926955223,0.19696974754333496,0.06609421968460083,-0.004456403665244579,-0.12269026786088943,-0.2034790962934494,0.06040824577212334,-0.10841065645217896,0.25613853335380554,0.04843509942293167,0.010169773362576962,0.043783627450466156,0.009683608077466488,0.034894030541181564,-0.01998593471944332,0.15157189965248108,0.021291151642799377,-0.13384313881397247,0.009521402418613434,0.0012227691477164626,0.11800111085176468,0.10899408906698227,0.26010432839393616,0.004262497182935476,0.1108153834939003,0.01182488165795803,0.1088494062423706,-0.1545279622077942,-0.051308803260326385,0.012196422554552555,0.18358445167541504,0.12090801447629929,-0.17997652292251587,0.15515778958797455,0.035955458879470825,0.11580447852611542,-0.06084330752491951,0.12360221892595291,-0.11862687766551971,-0.056391820311546326,0.04601585865020752,0.18253865838050842,0.22694885730743408,-0.047965023666620255,-0.04259718209505081,-0.016352344304323196,0.18545807898044586,0.0012173375580459833,0.14062093198299408,-0.03544800728559494,-0.0808071419596672,0.06023264303803444,0.08972087502479553,-0.07274473458528519,0.14861564338207245,-0.14951956272125244,0.10480627417564392,0.09270168840885162,0.12849020957946777,-0.013129843398928642,-0.004027897957712412,-0.027425486594438553,-0.009918523952364922,0.27551034092903137,-0.02259787730872631,-0.14837107062339783,-0.1380605846643448,0.08784428238868713,-0.2052444964647293,-0.02655821666121483,0.10643132030963898,0.002121672499924898,0.1255374401807785,0.08320904523134232,-0.0413229763507843,0.048367999494075775,0.06891617178916931,0.05153050646185875,-0.0604436881840229,-0.23441307246685028,0.04530927538871765,0.07701674103736877,0.02758707106113434,-0.13757306337356567,-0.07476416975259781,-0.11816004663705826,0.14381974935531616,0.11075037717819214,-0.3034028708934784,0.05791991576552391,0.032023925334215164,-0.00724696135148406,0.0005817711353302002,0.2019650787115097,0.0006187140243127942,0.09709979593753815,0.08490903675556183,0.07061086595058441,-0.04016881436109543,-0.09692679345607758,-0.16409632563591003,-0.05669274926185608,0.12151945382356644,0.19969232380390167,-0.09234218299388885,0.12993180751800537,0.15291155874729156,0.009403573349118233,0.13273338973522186,0.08582266420125961,-0.41512230038642883,-0.004834077320992947,-0.17561602592468262,0.25163060426712036,-0.009975364431738853,0.007905063219368458,0.08178336173295975,0.0036031780764460564,0.061478141695261,-0.037928998470306396,-0.006742809433490038,0.052926234900951385,0.051171787083148956,0.08452887088060379,-0.25864025950431824,-0.1818932145833969,0.046752505004405975,-0.002149921841919422,-0.03387618809938431,0.03447376564145088,-0.004129833076149225,0.006469328422099352,0.1370832622051239,0.09306296706199646,0.0990147516131401,-0.013300970196723938,-0.07657510787248611,-0.017988815903663635,-0.021462857723236084,0.22674021124839783,0.003681595204398036,-0.16714459657669067,-0.035366758704185486,0.1347038298845291,0.182374507188797,-0.10574508458375931,-0.04573022201657295,0.0029919792432338,-0.11408572643995285,-0.06540199369192123,0.06603778153657913,-0.10313306003808975,0.16397890448570251,0.16009877622127533,-0.038956139236688614,-0.0752033069729805,-0.014329238794744015,-0.010197799652814865,0.10966505855321884,-0.026258796453475952,0.17498239874839783,-0.12115529924631119,0.11066506803035736,0.07291155308485031,-0.1515638381242752,-0.24725227057933807,-0.019420191645622253,0.20998188853263855,0.1638842076063156,0.13745921850204468,0.4050535261631012,-0.041691139340400696,0.10389100015163422,0.0465690903365612,0.012848949059844017,-0.19452781975269318,-0.30441296100616455,-0.013964192010462284,0.23344047367572784,-0.05375685915350914,0.15212081372737885,0.12196388840675354,0.07930456101894379,0.1806354820728302,0.13465459644794464,0.14666429162025452,0.15516184270381927,-0.10860566794872284,0.038479652255773544,0.14794395864009857,0.1771659404039383,-0.06856822222471237,0.18183070421218872,0.0635731890797615,0.0917946919798851,0.1551942378282547,-0.06883332133293152,-0.06415014714002609,-0.026128217577934265,0.03447376936674118,-0.03291986510157585,0.054328709840774536,-0.027604522183537483,-0.06512909382581711,-0.10163848102092743,0.07249273359775543,0.031046099960803986,-0.04787348583340645,0.3235397934913635,-0.18665379285812378,-0.08507224172353745,-0.05060967803001404,-0.12102122604846954,-0.25140005350112915,-0.2030884176492691,0.16125652194023132,0.0972529724240303,0.15893541276454926,-0.11714930832386017,0.10653743147850037,0.020182812586426735,0.02657446078956127,0.0638357400894165,-0.1369454264640808,0.06307565420866013,-0.26929840445518494,-0.053282808512449265,-0.09093829989433289,-0.13634058833122253,-0.27950507402420044,0.0677441731095314,0.08045834302902222,-0.04105984792113304,0.20166976749897003,0.11052396148443222,-0.10043652355670929,0.031736817210912704,0.08676104247570038,0.12768517434597015,-0.04937314614653587,-0.09354666620492935,-0.06982114911079407,0.21077613532543182,0.02017555572092533,0.13857370615005493,0.13504242897033691,0.10311441868543625,-0.14066466689109802,-0.19361120462417603],[0.09819691628217697,-0.010928620584309101,-0.025122469291090965,0.07269692420959473,-0.1468488872051239,-0.006161651108413935,-0.046818993985652924,-0.1362961232662201,0.1401822566986084,-0.05646102875471115,-0.10871130228042603,-0.10411690175533295,-0.06148609146475792,-0.07196807116270065,0.06640638411045074,0.008352566510438919,-0.0014115559170022607,0.28775641322135925,0.06957215070724487,0.05059110373258591,0.052550166845321655,0.03337671235203743,0.14974597096443176,-0.1491548866033554,0.07184679061174393,-0.060894109308719635,0.08564550429582596,0.02086157165467739,-0.08997347205877304,-0.0168369859457016,-0.0068486654199659824,0.12899193167686462,0.00979954469949007,-0.18064212799072266,-0.023094557225704193,-0.10124212503433228,-0.07297547161579132,-0.00976926926523447,0.07784399390220642,-0.03653095290064812,0.0007120801601558924,-0.033952824771404266,0.12361770123243332,-0.06461820006370544,0.30378425121307373,-0.1645348221063614,-0.3102555572986603,-0.07531953603029251,-0.07621791958808899,-0.037743210792541504,0.15416070818901062,-0.025308605283498764,-0.19322465360164642,-0.14698848128318787,-0.024549363180994987,-0.14918158948421478,-0.005178811494261026,0.052840787917375565,-0.1814216524362564,0.018295690417289734,0.06476748734712601,-0.1582580953836441,-0.016994668170809746,-0.024769989773631096,0.05096503719687462,-0.02930421009659767,-0.09215226024389267,0.03464195132255554,0.07504015415906906,0.16627439856529236,0.24547988176345825,0.004315123427659273,0.0563332736492157,-0.18442724645137787,-0.004539594054222107,0.13554906845092773,-0.03688329458236694,0.04577556997537613,0.09598875790834427,-0.12102876603603363,0.01325382012873888,-0.1722230166196823,0.1182715967297554,0.03954217582941055,0.1841793805360794,0.01780821941792965,-0.18857954442501068,0.2573551535606384,-0.08633120357990265,-0.021280165761709213,-0.12774088978767395,0.09765355288982391,-0.03736036270856857,-0.0440896712243557,0.08728688955307007,0.26049983501434326,0.07991109788417816,-0.07357163727283478,0.11466500908136368,0.04203629493713379,-0.08662468940019608,0.1476089060306549,0.030198540538549423,0.03721019998192787,-0.1365695744752884,-0.08365475386381149,0.08260384947061539,-0.12508681416511536,-0.12253076583147049,0.11094348132610321,-0.20641566812992096,-0.1481958031654358,-0.07130804657936096,-0.027895567938685417,0.0682193785905838,0.20893923938274384,0.2042238712310791,-0.023821813985705376,-0.18348118662834167,-0.11342132091522217,0.12832169234752655,0.06652538478374481,-0.032020214945077896,-0.22400407493114471,0.018032342195510864,-0.04441225156188011,-0.2561410963535309,-0.06755948811769485,0.14957264065742493,-0.09390714764595032,-0.18893663585186005,0.10219012945890427,0.14136938750743866,-0.23203161358833313,-0.12729564309120178,-0.023631947115063667,-0.06694690138101578,0.09684090316295624,-0.1670537143945694,0.0601777620613575,-0.21686673164367676,0.07267817854881287,0.09008938074111938,0.021167272701859474,-0.1431577205657959,-0.04799097403883934,-0.09805945307016373,-0.013707938604056835,0.0757998526096344,0.03480363264679909,0.15773358941078186,0.14136329293251038,-0.005602765362709761,0.0019857909064739943,0.07164864987134933,0.010941793210804462,-0.05497416853904724,0.03838886693120003,-0.011621934361755848,0.10065016895532608,-0.0473804846405983,0.16726425290107727,0.060769353061914444,0.1899178922176361,0.02757365070283413,0.031039290130138397,-0.09981599450111389,-0.04004671424627304,-0.029863834381103516,-0.07851521670818329,-0.08214472979307175,-0.12055184692144394,0.13991454243659973,0.10619648545980453,0.12346415966749191,0.07614593952894211,0.10089103877544403,0.2097683697938919,0.040800392627716064,0.05356227979063988,-0.0579339936375618,-0.0639096274971962,-0.1650628298521042,0.002993957372382283,-0.0676456168293953,-0.10395684838294983,-0.0011935430811718106,0.09447625279426575,-0.07146016508340836,-0.023236079141497612,0.042823996394872665,-0.059515610337257385,-0.12241510301828384,0.22867053747177124,0.08531540632247925,-0.06943168491125107,-0.005094046238809824,-0.08362333476543427,-0.06741806119680405,-0.00528716528788209,-0.0176028311252594,0.14530041813850403,0.05519788712263107,0.048254914581775665,-0.381668359041214,0.046785544604063034,-0.05951458588242531,-0.048705387860536575,0.07866747677326202,-0.20901747047901154,-0.0382738895714283,-0.07807742059230804,-0.22960786521434784,-0.15429121255874634,-0.026012267917394638,0.03780696541070938,-0.22943741083145142,0.08455047011375427,0.08588965237140656,0.19974510371685028,-0.11978307366371155,-0.030773403123021126,0.13452133536338806,0.10344534367322922,0.022541018202900887,-0.02055913768708706,-0.005128324963152409,0.006835475564002991,0.03956686332821846,-0.06628061830997467,-0.08148349821567535,0.13155893981456757,0.028068244457244873,0.1118626669049263,-0.009045230224728584,-0.11418834328651428,-0.14290012419223785,0.2164652943611145,0.018938302993774414,-0.12363229691982269,0.0322432778775692,-0.10612373054027557,0.006173879373818636,0.009760782122612,-0.14832575619220734,0.16915927827358246,0.12024608999490738,-0.16189171373844147,0.13261166214942932,-0.12512367963790894,0.044298212975263596,0.19085122644901276,