[[-0.07372027635574341,-0.06313260644674301,0.19993168115615845,0.006402280647307634,0.1304531842470169,0.08845087885856628,0.07045146077871323,0.05241070315241814,-0.010955272242426872,0.014050867408514023,0.005570811685174704,0.14211758971214294,0.30255046486854553,-0.005160011351108551,-0.15942469239234924,-0.026532141491770744,-0.15584717690944672,-0.08074058592319489,0.04315171763300896,0.09395797550678253,0.1318572461605072,-0.013333143666386604,-0.29528141021728516,-0.019205914810299873,-0.14232760667800903,-0.0929870456457138,-0.11900635808706284,0.024200407788157463,-0.05333626642823219,-0.019209593534469604,0.06554292887449265,-0.062285616993904114,-0.06182779371738434,-0.012997125275433064,0.1599840670824051,0.01509823463857174,-0.062080804258584976,0.08563090115785599,-0.04354413226246834,0.10988393425941467,-0.01596796326339245,0.11736956983804703,-0.09731127321720123,0.024789247661828995,0.02184435725212097,0.1179286316037178,-0.0026752271223813295,0.06883479654788971,0.04448958486318588,-0.06424663215875626,-0.038385700434446335,-0.054732631891965866,-0.07673906534910202,-0.004931295290589333,-0.12360543012619019,-0.1333799958229065,-0.11078661680221558,-0.01306332927197218,-0.04559483379125595,0.0358097068965435,0.06335784494876862,0.03969302773475647,0.03899235278367996,0.11487162113189697,-0.01095228549093008,0.037408940494060516,0.06340811401605606,0.04064437374472618,0.01187107339501381,0.12716250121593475,0.05447334051132202,-0.007757971063256264,0.015519273467361927,0.021777017042040825,-0.12839218974113464,-0.05390450730919838,0.036809924989938736,-0.04563813656568527,0.048692964017391205,0.07920661568641663,0.01847710832953453,-0.07401682436466217,0.03963916003704071,-0.08575062453746796,0.018319234251976013,0.03574756160378456,0.20103710889816284,-0.06366933882236481,-0.01344295497983694,-0.005365993827581406,0.14209377765655518,-0.09652907401323318,0.03700002282857895,-0.20639915764331818,0.16892585158348083,-0.0016529493732377887,0.015533670783042908,-0.13578879833221436,0.14296330511569977,-0.049015626311302185,0.05856666341423988,0.12839804589748383,0.15477301180362701,0.08966413885354996,-0.05409060791134834,-0.04391077160835266,-0.14710251986980438,-0.22543223202228546,-0.09154228866100311,0.029902715235948563,0.02128445915877819,-0.09614888578653336,0.2295234650373459,0.08047883212566376,0.0024978630244731903,-0.04014020785689354,-0.02532779984176159,-0.21719256043434143,-0.08283621072769165,0.001828833599574864,0.0073766447603702545,-0.19722825288772583,0.01080899965018034,0.005381022114306688,0.025322120636701584,0.005079377442598343,-0.09666811674833298,-0.047526873648166656,-0.08265727758407593,0.08439691364765167,0.13672097027301788,0.12361475825309753,-0.0403192937374115,0.06318984925746918,-0.16515617072582245,-0.07410368323326111,0.06820345669984818,-0.14632636308670044],[-0.07807666063308716,0.09297869354486465,-0.03833675757050514,-0.0388307087123394,0.053096670657396317,0.12284991145133972,-0.08185085654258728,0.11006736010313034,-0.17195765674114227,-0.006680966354906559,0.057425107806921005,0.011247331276535988,-0.11306045949459076,0.0350942425429821,0.13678252696990967,-0.026534205302596092,-0.01809081807732582,0.07404954731464386,-0.1261320859193802,-0.03736907243728638,-0.06317992508411407,-0.1478556990623474,0.027753546833992004,0.03217781335115433,-0.10622044652700424,-0.005509594921022654,0.028897469863295555,0.2173667550086975,0.04924044758081436,0.11491529643535614,0.17348144948482513,-0.008122351951897144,0.23983919620513916,-0.09136300534009933,0.17290180921554565,0.06874372810125351,0.03203250467777252,-0.20386381447315216,0.09138501435518265,-0.1320592761039734,0.004898764658719301,-0.10299801081418991,-0.04084755480289459,0.08037721365690231,0.07658842206001282,-0.11804398149251938,-0.00497152004390955,-0.0014481829712167382,0.18384796380996704,-0.10440531373023987,0.07851553708314896,0.07362636178731918,0.22743156552314758,0.30109280347824097,-0.007376795634627342,-0.10646218061447144,0.011132245883345604,-0.08130723237991333,0.04253161698579788,-0.09534983336925507,-0.15312322974205017,0.15755213797092438,-0.05877106636762619,-0.011961759999394417,-0.009142461232841015,-0.04480939358472824,0.028230996802449226,0.017652591690421104,-0.13072499632835388,0.021039914339780807,-0.03316494822502136,-0.19348183274269104,-0.17165319621562958,0.10356630384922028,-0.030227268114686012,-0.21925215423107147,-0.10274757444858551,0.019391503185033798,-0.1097823902964592,0.02781675010919571,0.013820933178067207,0.0344952717423439,-0.06078112870454788,0.044815871864557266,-0.06012049689888954,0.024938078597187996,0.0771581158041954,0.1670284867286682,0.10698764026165009,0.18108543753623962,-0.09628093242645264,-0.20307926833629608,-0.034559447318315506,-0.1622810810804367,0.048476722091436386,0.1415383219718933,0.04050822556018829,0.09600032866001129,0.05781774967908859,0.06845344603061676,-0.035730279982089996,-0.20470799505710602,0.07924622297286987,-0.0900055542588234,0.050099633634090424,-0.12433905899524689,-0.04273485019803047,0.09205013513565063,0.05514230579137802,-0.01769585907459259,-0.1291123330593109,-0.062326524406671524,0.0438692644238472,0.18855097889900208,0.07836610078811646,-0.08205994963645935,0.06483034789562225,-0.057816777378320694,0.05959952250123024,0.17678602039813995,-0.06155672296881676,-0.032647665590047836,-0.07241934537887573,0.12722808122634888,0.1452873945236206,-0.12622623145580292,-0.056739430874586105,-0.06637637317180634,-0.024422617629170418,0.1205303743481636,-0.007026734296232462,-0.06853687018156052,-0.012625297531485558,-0.02970593236386776,-0.08426317572593689,-0.10605429112911224,0.014584410935640335,-0.061745427548885345],[0.015848234295845032,-0.011060631833970547,0.006383821368217468,0.24917076528072357,-0.004094572272151709,-0.0833037868142128,-0.049933575093746185,0.0032541188411414623,-0.07186640053987503,-0.011453984305262566,-0.03500661998987198,0.053426098078489304,0.040933758020401,-0.012032278813421726,0.12713691592216492,0.041889749467372894,-0.06552121788263321,-0.1041431874036789,0.01766493357717991,-0.16953130066394806,-0.12052739411592484,0.027849461883306503,0.14028829336166382,0.08151162415742874,-0.030976086854934692,0.035120800137519836,0.21195167303085327,-0.15630243718624115,-0.2602488398551941,0.023815682157874107,-0.006431547924876213,-0.07641097903251648,0.058198969811201096,-0.00872255489230156,-0.04718639329075813,0.061791498214006424,0.060162100940942764,0.07631136476993561,-0.08169969171285629,-0.0402664951980114,0.03913336992263794,0.10246019810438156,-0.0722711980342865,0.3022478222846985,0.1660337597131729,-0.02738042175769806,0.16028104722499847,-0.088753841817379,0.036377035081386566,-0.030696775764226913,0.11926396191120148,0.1994534283876419,-0.17407704889774323,0.026196517050266266,-0.0005608789506368339,0.09556737542152405,0.08839535713195801,-0.16522464156150818,-0.09081465005874634,-0.1852826327085495,0.19270510971546173,-0.1588398963212967,0.12697547674179077,-0.024585150182247162,-0.0004993749316781759,-0.09694347530603409,-0.00771098118275404,0.04835960641503334,-0.0798986628651619,0.05501452088356018,0.06277866661548615,0.11216780543327332,0.11417382955551147,0.12089469283819199,-0.14721757173538208,-0.02577950805425644,0.04182826727628708,0.034858040511608124,0.10315138846635818,-0.08086349815130234,0.17767830193042755,-0.006934861186891794,0.010730498470366001,0.11054576188325882,0.16384483873844147,-0.029493357986211777,-0.088738813996315,-0.02678680419921875,0.05532963573932648,-0.005812446121126413,-0.11075892299413681,-0.035416748374700546,-0.11350571364164352,0.12442666292190552,0.12412142008543015,-0.0021906353067606688,0.01887834630906582,0.007451101206243038,0.21128468215465546,-0.37320253252983093,0.05685276910662651,0.09310853481292725,0.12189612537622452,-0.025270575657486916,0.10652212798595428,0.0036321936640888453,0.03432373329997063,0.011642439290881157,0.04396789148449898,-0.0050981370732188225,0.08191578835248947,-0.19645525515079498,0.026347022503614426,-0.0038854198064655066,0.048512548208236694,-0.062103111296892166,-0.07817037403583527,-0.055700115859508514,0.016882095485925674,-0.15055912733078003,-0.050098102539777756,-0.006647808011621237,0.05984837934374809,-0.03231283649802208,-0.03967958688735962,0.03265826776623726,0.08359597623348236,-0.1674729436635971,0.03960872441530228,0.1101962998509407,-0.09992378205060959,-0.185531884431839,0.0721045583486557,0.03916102275252342,-0.09156394749879837,0.08534113317728043,-0.1328323483467102,-0.08268877118825912],[0.047950103878974915,-0.018170593306422234,-0.02893676422536373,-0.0753958597779274,0.0710722804069519,0.12772618234157562,-0.06529348343610764,0.008632270619273186,0.014184793457388878,-0.0836821123957634,-0.0592096745967865,-0.12038467079401016,0.22956588864326477,-0.04991505667567253,-0.22252020239830017,0.11940857023000717,-0.03628074750304222,0.03408050164580345,-0.1041833832859993,0.2504369020462036,-0.10393074154853821,-0.10251792520284653,0.0616556853055954,0.13221973180770874,-0.04028598591685295,0.01881563849747181,0.07859524339437485,0.026518234983086586,0.1424214392900467,-0.12827038764953613,0.13781072199344635,-0.03609500080347061,-0.10521045327186584,0.18579068779945374,0.012278037145733833,0.014117433689534664,-0.09300865232944489,0.029346024617552757,-0.038727790117263794,-0.11407262086868286,0.13532708585262299,-0.06999553740024567,0.058237504214048386,0.1833057850599289,0.012105920352041721,0.012585312128067017,0.16058175265789032,-0.13019247353076935,-0.03873306140303612,0.04351633042097092,-0.02587282843887806,-0.15860755741596222,0.176178440451622,-0.13803048431873322,-0.15079940855503082,-0.0784030631184578,-0.11871093511581421,0.18308790028095245,0.0757860466837883,0.042307622730731964,-0.09574967622756958,0.02219562791287899,-0.11937879025936127,-0.18592287600040436,-0.0038982792757451534,-0.07280868291854858,0.0938202366232872,0.09806421399116516,-0.2590923607349396,0.11545989662408829,-0.1576242297887802,-0.03872734680771828,0.023490048944950104,-0.24855701625347137,-0.1740717589855194,-0.1769164800643921,-0.026588361710309982,-0.1298106610774994,-0.019425850361585617,-0.1500634402036667,0.08963008970022202,0.028549235314130783,0.026974627748131752,-0.0244029238820076,-0.19095978140830994,-0.1735377013683319,0.10812301188707352,-0.08733761310577393,0.0394505150616169,0.14652734994888306,-0.0015335225034505129,0.17532257735729218,-0.0303640216588974,-0.1279904544353485,0.31891196966171265,-0.22310230135917664,-0.024828849360346794,0.1078796535730362,-0.04842275753617287,0.03022289276123047,0.13616612553596497,-0.11411750316619873,0.0638299286365509,-0.029094204306602478,0.03937556967139244,0.141721710562706,0.13809899985790253,0.0027226347010582685,-0.05623272433876991,0.030439024791121483,-0.2063518762588501,-0.0378619022667408,0.03396293893456459,0.2253446877002716,0.20785634219646454,-0.06879937648773193,0.03029767982661724,0.33025509119033813,-0.10379055887460709,0.05581849813461304,-0.0135829858481884,-0.03656933456659317,0.14719419181346893,0.019508330151438713,0.13219672441482544,-0.027363549917936325,0.026340655982494354,-0.07665301859378815,0.006972777657210827,-0.04977204650640488,-0.09463413804769516,0.27445241808891296,0.18856960535049438,0.09385229647159576,0.07645203173160553,-0.1348775327205658,-0.036633096635341644,-0.058630622923374176],[-0.043102871626615524,0.11286702007055283,-0.01553174015134573,0.05063977465033531,-0.061512116342782974,0.020675936713814735,0.06805195659399033,-0.1252346783876419,0.009258939884603024,0.10738328099250793,-0.14457108080387115,0.029870307072997093,0.14819134771823883,-0.05756239965558052,-0.052154794335365295,-0.09230750799179077,-0.00425491901114583,0.17087681591510773,0.033854492008686066,-0.022569213062524796,0.04542190581560135,0.1749277114868164,-0.25566232204437256,0.02452351339161396,0.09331221878528595,-0.1586635261774063,-0.06216561049222946,-0.2167607843875885,0.19317111372947693,-0.014640524983406067,0.08225858956575394,0.2271149605512619,0.017357001081109047,-0.06226527318358421,-0.019926751032471657,-0.1102682575583458,0.0378357358276844,0.10326975584030151,0.09847301989793777,-0.20688217878341675,-0.14532352983951569,0.13931146264076233,0.057308439165353775,0.20179565250873566,-0.03290838003158569,-0.07427093386650085,0.21452566981315613,0.05153590813279152,0.055584609508514404,-0.13079985976219177,-0.07893045246601105,-0.03155092895030975,0.10487940907478333,0.14316745102405548,-0.02043309062719345,-0.04930848255753517,0.033749401569366455,-0.1986864060163498,0.07507800310850143,-0.19009187817573547,-0.17316551506519318,-0.1499882936477661,0.19096902012825012,-0.190389484167099,-0.0576515831053257,0.03718385845422745,-0.031831152737140656,0.12150616943836212,0.09700532257556915,-0.1327454298734665,-0.11873812973499298,0.13162562251091003,-0.05315624922513962,0.08272060751914978,-0.09932302683591843,0.007376544177532196,-0.03898954018950462,-0.06602862477302551,-0.016005810350179672,0.034737493842840195,0.05330020561814308,0.23465365171432495,-0.14148712158203125,0.013785620220005512,-0.04645100608468056,-0.0392228402197361,-0.003915341570973396,-0.08794495463371277,-0.07485277205705643,0.05572342500090599,0.00710825901478529,0.0441444106400013,-0.256406307220459,-0.10083262622356415,-0.00385701353661716,-0.05474544316530228,-0.04089970886707306,0.23455028235912323,0.060809049755334854,-0.04412412643432617,-0.03283135965466499,0.2958807051181793,-0.12046360224485397,0.10616296529769897,0.07836011052131653,-0.029878566041588783,0.03609968349337578,-0.0044038668274879456,-0.022319458425045013,0.08219455182552338,0.11383844912052155,0.039243344217538834,0.02354488894343376,-0.07790646702051163,0.04191058129072189,0.010681146755814552,-0.031382471323013306,0.2480669617652893,-0.024514341726899147,-0.1903539001941681,0.10095290839672089,-0.0825958251953125,-0.10842970013618469,-0.04211802780628204,-0.04823913425207138,0.07050659507513046,-0.16449005901813507,-0.05044303834438324,0.06850381940603256,0.0069534205831587315,0.13538359105587006,-0.1149241104722023,-0.0820826068520546,-0.048360977321863174,0.06745082139968872,0.14602835476398468,0.054384276270866394,0.031303770840168],[-0.08126116544008255,0.07632512599229813,-0.02675655484199524,-0.044896528124809265,-0.01947844959795475,0.0989605188369751,-0.09904498606920242,0.09323465824127197,-0.019560301676392555,-0.0052310205064713955,0.11103422939777374,-0.13651445508003235,0.10573040693998337,-0.000003825555268122116,0.0002482858544681221,0.13306723535060883,-0.1007905900478363,0.1529170572757721,0.10336365550756454,0.08493578433990479,-0.1325148493051529,0.08342502266168594,-0.10595721006393433,0.11369229108095169,-0.016459133476018906,0.04970453679561615,-0.0910077914595604,0.06646162271499634,-0.01623835414648056,-0.0333445705473423,-0.14107048511505127,-0.1049250140786171,0.06747516244649887,-0.07574170082807541,0.044564131647348404,0.08822252601385117,0.11198513209819794,-0.07906367629766464,-0.023635024204850197,0.18863187730312347,0.1812327355146408,0.010614607483148575,-0.09515250474214554,-0.28205445408821106,0.16336816549301147,0.06352723389863968,-0.003466750495135784,-0.07552576065063477,0.025021899491548538,-0.06342794001102448,0.12620139122009277,0.14891117811203003,-0.09525229781866074,-0.03505973517894745,0.04779437929391861,0.15811897814273834,0.07351820170879364,0.03873242810368538,0.07112614810466766,-0.038573913276195526,-0.1732088029384613,0.25119084119796753,0.04172515496611595,0.1781691014766693,0.09465168416500092,-0.0018268243875354528,0.0843832790851593,-0.17938348650932312,0.05153369903564453,0.0905374214053154,0.26212596893310547,-0.04613008722662926,0.0765751451253891,0.052719395607709885,-0.06897515058517456,0.05919082462787628,0.06403028964996338,0.051545824855566025,0.08748507499694824,0.07992692291736603,-0.05348766967654228,-0.07040321081876755,0.04853001609444618,0.04956482723355293,0.05994972586631775,0.19696353375911713,-0.0680648684501648,-0.11535991728305817,0.024316072463989258,-0.015426578000187874,0.009129432961344719,-0.038097869604825974,-0.007999707013368607,-0.04419954866170883,0.01081144716590643,0.11160247772932053,0.07518215477466583,0.140715092420578,-0.20104439556598663,0.25696083903312683,0.07215194404125214,0.13094326853752136,-0.198527529835701,0.18619102239608765,-0.02077120542526245,0.05825202539563179,-0.10264319181442261,0.02084886096417904,-0.11930277943611145,-0.17518022656440735,-0.06904375553131104,0.11000631004571915,-0.02462437003850937,-0.07763902842998505,-0.14420770108699799,0.08558537065982819,0.09885305166244507,-0.06106928363442421,0.015374022535979748,0.13294760882854462,0.049095913767814636,-0.01866551861166954,0.04472796991467476,0.17274883389472961,0.09301288425922394,-0.03835676982998848,-0.06313708424568176,0.071563221514225,0.00850481167435646,0.235812246799469,0.2997802197933197,-0.05265963077545166,0.10166946053504944,0.0032764559146016836,0.10029860585927963,-0.10955614596605301,-0.1360141783952713,0.014301346614956856],[-0.10678189247846603,-0.02428227849304676,-0.23882393538951874,0.10770401358604431,0.03249731659889221,0.1446472406387329,-0.1148044764995575,0.01948593370616436,0.13719457387924194,0.06440398097038269,-0.1533920019865036,0.08257214725017548,-0.07906913012266159,-0.11346017569303513,-0.23053613305091858,0.014888848178088665,0.08143667876720428,0.05353403463959694,0.13141077756881714,0.013849553652107716,0.12050488591194153,0.10278388857841492,0.13585492968559265,0.08954764902591705,-0.0023403603117913008,0.05527210980653763,0.16436034440994263,-0.04746332764625549,0.1149129718542099,0.200025737285614,-0.07286612689495087,0.06074393168091774,0.003843841142952442,0.09934913367033005,0.1069273054599762,-0.1377250701189041,-0.1202516034245491,-0.11388490349054337,0.1156705915927887,-0.11223460733890533,-0.13522884249687195,0.10931790620088577,-0.10381551086902618,-0.06557196378707886,0.036299124360084534,0.029358765110373497,-0.1678212434053421,-0.025533754378557205,0.010741309262812138,-0.10583677887916565,-0.19006812572479248,-0.14066676795482635,-0.09557970613241196,0.03409171104431152,0.02350197732448578,-0.018855435773730278,0.10006608814001083,-0.007438726723194122,-0.08347403258085251,-0.19045397639274597,-0.13995319604873657,0.20554706454277039,-0.03633907809853554,0.22515520453453064,-0.0234842486679554,0.01710420846939087,-0.04321817308664322,-0.03108273074030876,0.17107509076595306,-0.05617976188659668,-0.07481399178504944,0.12889601290225983,0.08712731301784515,0.08368190377950668,0.008059791289269924,-0.012886176817119122,0.09556636959314346,0.05192893370985985,-0.03080996684730053,0.029883340001106262,-0.12236450612545013,-0.3941308856010437,-0.0027473298832774162,-0.02786957658827305,-0.04966273903846741,0.07148415595293045,-0.2221193164587021,0.09443233907222748,-0.1875823736190796,-0.30327457189559937,0.033531006425619125,0.021253127604722977,0.10332761704921722,-0.053887203335762024,-0.10237511247396469,0.07062800228595734,0.09857209026813507,0.04038925841450691,-0.11902258545160294,-0.21663108468055725,0.14270278811454773,0.020349524915218353,-0.17221121490001678,0.033609744161367416,-0.04238824173808098,0.05065424367785454,0.038189008831977844,-0.03813343495130539,0.0036876099184155464,0.216103658080101,-0.14479759335517883,0.025244614109396935,0.12033236771821976,0.003970106597989798,-0.10554597526788712,-0.010150477290153503,0.02546020783483982,-0.1860409826040268,-0.01402862649410963,0.026178473606705666,-0.014568307437002659,0.040381401777267456,0.06697902828454971,-0.025194164365530014,0.12857677042484283,-0.18540345132350922,-0.0698816254734993,0.17808568477630615,0.02359631098806858,0.21203438937664032,-0.115706667304039,-0.01546524092555046,0.006774828769266605,0.11237908154726028,0.006480616983026266,0.1252124309539795,0.12946870923042297,0.005820165853947401],[-0.05967668071389198,-0.048391714692115784,-0.1278596669435501,-0.013819553889334202,0.012065429240465164,0.16480198502540588,0.011431252583861351,0.051699962466955185,-0.09531450271606445,-0.06221549212932587,-0.07414401322603226,-0.11204145103693008,0.006225967779755592,0.06561189889907837,-0.11286315321922302,0.22621314227581024,-0.014642874710261822,-0.01867261715233326,0.17061980068683624,0.00736458832398057,0.0940597876906395,0.17678798735141754,0.17394991219043732,-0.0719364583492279,-0.016102071851491928,-0.07438421994447708,0.0543794147670269,-0.13059929013252258,0.17161321640014648,-0.0282969381660223,0.11717154830694199,-0.15008383989334106,0.07234865427017212,-0.008704373612999916,0.004572641104459763,0.06277553737163544,-0.0029624809976667166,0.026724351570010185,0.10600622743368149,0.015389475971460342,-0.053388360887765884,-0.036064863204956055,0.16722585260868073,-0.1588870733976364,0.16850422322750092,-0.09432221204042435,-0.12065993994474411,0.0027287451084703207,0.03607812151312828,-0.043066252022981644,0.05227271467447281,-0.022447742521762848,0.004262911155819893,0.08122436702251434,-0.13487914204597473,-0.020102063193917274,-0.05011027678847313,-0.018560020253062248,-0.03362680971622467,0.11885271966457367,0.036399293690919876,0.07977315038442612,-0.089217908680439,-0.03783319890499115,0.023442240431904793,0.008047668263316154,-0.04740552231669426,-0.10073607414960861,-0.07984647899866104,0.0016200196696445346,0.20147772133350372,-0.0554012805223465,-0.2007693201303482,0.030887439846992493,0.08886691182851791,-0.07449649274349213,-0.03748020902276039,0.04027856886386871,-0.1301790028810501,-0.09542324393987656,0.057494115084409714,-0.07918781787157059,-0.0396626777946949,-0.02525896392762661,0.12791107594966888,-0.0357208251953125,0.17543666064739227,-0.0026000223588198423,-0.17564146220684052,0.041452325880527496,-0.0005442678811959922,0.20305034518241882,-0.1712617427110672,0.09746219962835312,0.05917532369494438,0.13194648921489716,0.13091492652893066,-0.11517900228500366,0.09030145406723022,0.08529289811849594,0.002857436891645193,-0.028253931552171707,-0.07779520004987717,0.21796594560146332,-0.1072140708565712,-0.12889786064624786,0.11643749475479126,-0.014821127988398075,-0.04267645254731178,0.0787273645401001,-0.04914342984557152,-0.11924467235803604,-0.10688597708940506,0.02642648108303547,-0.07034169882535934,0.10194021463394165,0.0826169028878212,-0.15773622691631317,-0.15763984620571136,0.1548159122467041,0.06485304981470108,0.13136494159698486,-0.30124542117118835,0.15315066277980804,0.08622156083583832,0.0307784266769886,0.19130773842334747,-0.03925500065088272,-0.2402428239583969,0.1863689124584198,-0.1306435763835907,0.14329394698143005,0.05153513699769974,0.029399169608950615,-0.04547074809670448,-0.1666449010372162,-0.023645583540201187,-0.1079312115907669],[-0.06964081525802612,-0.14498429000377655,0.0035155119840055704,0.10169669985771179,-0.018988287076354027,0.08610668778419495,-0.06772634387016296,-0.151132270693779,-0.07643479108810425,0.045084502547979355,-0.06997615098953247,-0.09502878785133362,-0.004907586146146059,0.13493487238883972,0.17942306399345398,0.15194223821163177,0.10158809274435043,-0.10736581683158875,-0.18919901549816132,0.09484495222568512,-0.0705588236451149,0.04275578632950783,0.06894790381193161,0.022914497181773186,0.1344049721956253,-0.0370338037610054,0.09004364162683487,-0.055750276893377304,-0.009994789958000183,0.06313198804855347,0.009038535878062248,0.0728565976023674,-0.06147671863436699,0.15323315560817719,0.12375180423259735,-0.11360292881727219,0.08460184931755066,-0.06981492787599564,-0.09791304171085358,-0.09238310158252716,0.2918265461921692,0.09930161386728287,0.040621478110551834,0.1739794760942459,0.02200629934668541,-0.0659606009721756,0.09088575839996338,0.040685731917619705,-0.11235816031694412,0.07260283082723618,-0.004686212167143822,0.004251097794622183,0.08723877370357513,0.001808981760405004,0.04573150724172592,0.10037147253751755,-0.10562001913785934,0.07596160471439362,0.10402818769216537,0.0853542909026146,-0.013287288136780262,-0.011162713170051575,-0.09783869981765747,0.07563327252864838,-0.41578441858291626,0.10463323444128036,-0.0960971936583519,-0.10769650340080261,-0.27309855818748474,-0.06641111522912979,-0.18820223212242126,0.05870736390352249,-0.054735731333494186,-0.015225737355649471,-0.023962153121829033,-0.01456365268677473,-0.03244844079017639,-0.1013726070523262,0.11900926381349564,-0.025280771777033806,0.04833602160215378,-0.0020569562911987305,0.07638514041900635,0.1256677210330963,0.005883099045604467,-0.07695790380239487,-0.016830427572131157,-0.07277610898017883,0.15868280827999115,0.09022471308708191,0.0916992574930191,0.08797542005777359,-0.16190944612026215,-0.2717283368110657,0.16501730680465698,0.0432373471558094,0.008750852197408676,-0.02908778376877308,-0.05579795315861702,-0.11552602797746658,-0.1323833018541336,0.022013332694768906,-0.12842124700546265,-0.20382729172706604,-0.01294709276407957,0.06653546541929245,0.18682651221752167,0.09189622849225998,-0.05899464711546898,-0.08286828547716141,0.134985089302063,-0.016119590029120445,0.09628970921039581,-0.12989871203899384,0.08343736082315445,0.02087428979575634,-0.14615628123283386,0.11780627071857452,-0.1351180374622345,0.014972181990742683,0.17231595516204834,0.07584519684314728,-0.10793735831975937,-0.08694148808717728,-0.07626405358314514,0.04908868297934532,-0.007531723938882351,-0.08623524755239487,0.2039831429719925,-0.021884800866246223,-0.2628685534000397,0.1487889438867569,0.08234419673681259,-0.042513418942689896,-0.05312841385602951,-0.0368928499519825,-0.04054369032382965,0.08271216601133347],[0.12938353419303894,-0.03081478364765644,-0.1479857712984085,0.037451449781656265,-0.0647921934723854,-0.029846705496311188,-0.1701592653989792,-0.0023293348494917154,-0.052221789956092834,-0.017729872837662697,-0.02854568511247635,0.08343920856714249,-0.04498959332704544,-0.027951190248131752,0.15420253574848175,-0.040242765098810196,-0.08996862918138504,-0.03825497254729271,0.07369447499513626,0.048436131328344345,-0.042790208011865616,-0.16728058457374573,0.14415112137794495,-0.11965364962816238,-0.10403009504079819,0.06515593826770782,0.12732739746570587,-0.0015595091972500086,0.08263057470321655,0.1288272887468338,-0.15040947496891022,-0.10928457230329514,0.13078995048999786,0.14039497077465057,-0.073183573782444,0.017837705090641975,0.014990617521107197,-0.03210240602493286,-0.12146656960248947,-0.20450422167778015,-0.017241453751921654,0.10037017613649368,0.14273285865783691,0.25342661142349243,-0.08575663715600967,0.14142921566963196,-0.11547904461622238,-0.13010554015636444,0.17638519406318665,0.16449551284313202,-0.08316445350646973,-0.18805988132953644,-0.21910378336906433,0.00927523523569107,-0.15034522116184235,-0.0028407543431967497,0.04166341945528984,-0.06266938894987106,-0.14899203181266785,0.12116437405347824,0.08129969984292984,-0.13565178215503693,0.06320527195930481,-0.2652449607849121,-0.19166430830955505,-0.01480432040989399,0.03370857983827591,0.08007028698921204,-0.10583823174238205,-0.17794391512870789,0.13462528586387634,0.10385258495807648,-0.017643051221966743,-0.0419631265103817,-0.049125369638204575,-0.1951984018087387,0.28487706184387207,0.0561491996049881,-0.09081055968999863,0.02218518778681755,-0.07681961357593536,-0.014735364355146885,-0.025430312380194664,0.13791751861572266,0.02326849289238453,0.2187819480895996,-0.06977804750204086,0.1385200023651123,0.05680457502603531,-0.24430978298187256,-0.10276105254888535,0.02545987069606781,0.07633093744516373,-0.02185303159058094,-0.010088594630360603,-0.1642812043428421,-0.030788980424404144,0.0509396493434906,0.09327132254838943,-0.13933958113193512,0.05113987624645233,0.20212650299072266,-0.09286148846149445,-0.004925243090838194,0.01760578155517578,0.04324671998620033,-0.0716220960021019,-0.10798663645982742,0.014507608488202095,0.09241505712270737,0.05640251561999321,0.20569339394569397,-0.04130000248551369,-0.00835198163986206,0.03969746083021164,0.05423085018992424,-0.016269393265247345,0.12991097569465637,0.13944296538829803,-0.04888248071074486,-0.11387145519256592,0.019046049565076828,0.1849617063999176,0.07416850328445435,-0.16605818271636963,0.048671938478946686,-0.05789894238114357,0.09821506589651108,-0.1821363866329193,0.09328325092792511,-0.008428622037172318,0.05147585645318031,0.013778729364275932,-0.07668762654066086,-0.07271789759397507,-0.01432704646140337,0.274279922246933,-0.2046450525522232],[-0.16747966408729553,0.2556159198284149,0.005035883281379938,0.07410755753517151,-0.06486135721206665,-0.16637888550758362,-0.01178903691470623,0.1283913403749466,0.08712410181760788,0.15251772105693817,-0.06915757805109024,0.18724602460861206,0.03155197203159332,0.16303233802318573,-0.016549520194530487,-0.024799894541502,-0.03903583809733391,0.023824624717235565,0.06951918452978134,-0.11608453840017319,-0.08848138898611069,-0.10059993714094162,0.0034917648881673813,0.015811391174793243,0.0591440424323082,0.06586135923862457,-0.024179987609386444,0.06009294465184212,0.1414463371038437,0.057000041007995605,-0.14002689719200134,0.06177065521478653,-0.04872458055615425,-0.06992535293102264,0.05348853021860123,0.000652611197438091,0.2203354686498642,0.08381743729114532,0.021028121933341026,0.11894237995147705,-0.00677971076220274,-0.21052506566047668,0.13957379758358002,-0.039454326033592224,0.18230047821998596,0.06753457337617874,-0.07814903557300568,-0.06520779430866241,0.10029783099889755,0.05776518955826759,0.12747851014137268,0.02139323204755783,-0.1682981550693512,-0.14263641834259033,0.16723744571208954,-0.010813916102051735,0.1596723198890686,-0.05585826560854912,0.08070652931928635,-0.04309790953993797,0.01457761786878109,0.15162785351276398,-0.06646806001663208,-0.011003738269209862,0.012539689429104328,-0.1451002061367035,-0.0287440437823534,0.04150652512907982,-0.11669141799211502,0.02326449379324913,0.07567358016967773,0.05235658586025238,0.04238048940896988,0.12843374907970428,-0.15389829874038696,-0.1288139671087265,-0.22821319103240967,0.16360998153686523,-0.13184991478919983,-0.13847512006759644,0.004198126960545778,0.05021902546286583,-0.21369898319244385,0.041417092084884644,-0.12332604825496674,-0.02460799738764763,0.06140102073550224,0.09278948605060577,0.08456115424633026,0.08956462889909744,0.025497304275631905,0.017436429858207703,0.018021974712610245,-0.20506522059440613,-0.08489798754453659,-0.012935447506606579,-0.263552188873291,-0.027715150266885757,-0.032331015914678574,0.0810110792517662,0.0590362548828125,-0.18621014058589935,-0.03954312577843666,-0.04834384843707085,-0.07310933619737625,0.012895619496703148,-0.048330795019865036,-0.030756833031773567,-0.19865140318870544,-0.002450733445584774,0.0445525236427784,0.02422776259481907,-0.06711411476135254,-0.10913672298192978,0.022317584604024887,-0.019392330199480057,0.10454989969730377,-0.04643163084983826,0.112336166203022,0.030587613582611084,0.03669273108243942,0.058816809207201004,0.0007737235282547772,0.015372617170214653,0.06861400604248047,0.05093061551451683,0.07229731231927872,-0.0878283679485321,0.021029388532042503,0.144505575299263,-0.11701381951570511,-0.11571172624826431,0.07152935117483139,-0.05076921731233597,-0.06823853403329849,0.028728384524583817,-0.0017927794251590967,-0.07231950014829636],[-0.20279353857040405,-0.027527673169970512,0.12584339082241058,-0.0634971410036087,0.009106872603297234,-0.06584756821393967,0.10139989852905273,0.06794652342796326,0.06460141390562057,0.18584325909614563,0.08700574934482574,0.08286698162555695,0.15544664859771729,0.05676105618476868,-0.04603850841522217,-0.040366146713495255,0.01435582060366869,-0.09988347440958023,0.03108639270067215,-0.039790984243154526,-0.09039802104234695,0.000646678265184164,-0.11176227778196335,0.04203670099377632,0.0324779711663723,0.05716158077120781,0.2656261920928955,0.16314640641212463,0.09105949848890305,-0.14793996512889862,-0.11155044287443161,0.0947415828704834,0.001661399845033884,-0.021226197481155396,-0.04002512991428375,0.0209878608584404,0.02254556491971016,-0.03185359016060829,-0.08307856321334839,0.10159461945295334,-0.1124195009469986,0.16577491164207458,-0.08512039482593536,0.049041394144296646,-0.1371345967054367,-0.317605584859848,0.0516851469874382,0.009291824884712696,-0.04977383464574814,-0.08793286979198456,0.057148464024066925,0.13273781538009644,-0.10635042935609818,-0.05302460119128227,0.058797795325517654,0.10030823200941086,-0.03091293014585972,0.09240546077489853,0.026500901207327843,-0.15678030252456665,0.05186853185296059,0.08880816400051117,-0.064668208360672,0.04515496641397476,0.03098222427070141,-0.04310320317745209,-0.01470223255455494,-0.17541274428367615,-0.11792837828397751,-0.07692258805036545,-0.058663610368967056,-0.02757815457880497,-0.014343075454235077,-0.07467766851186752,-0.10205446928739548,0.027598490938544273,-0.06313525140285492,0.037613511085510254,-0.03644879534840584,0.0736461654305458,-0.04428825527429581,0.16040869057178497,-0.061211273074150085,-0.0030000745318830013,-0.056844595819711685,-0.10103702545166016,-0.07529717683792114,0.06896009296178818,-0.21726393699645996,0.17873266339302063,-0.26767101883888245,0.0877225250005722,-0.030560074374079704,-0.058058418333530426,-0.04619661346077919,-0.01630769856274128,0.17939215898513794,0.001583428354933858,-0.019422316923737526,-0.0038812237326055765,-0.05802302807569504,0.0676443800330162,-0.10833833366632462,-0.04650311544537544,0.13354794681072235,0.05323445796966553,-0.15834832191467285,0.058200154453516006,0.1590961217880249,-0.10146947205066681,-0.09606736898422241,-0.04037923365831375,0.052079543471336365,-0.16878066956996918,0.009859255515038967,-0.07042425125837326,0.07839424908161163,-0.028530649840831757,-0.10370060801506042,0.09181806445121765,-0.24554607272148132,-0.15042759478092194,0.07015068084001541,-0.07744689285755157,-0.0006872210651636124,-0.0773390680551529,0.1789286732673645,-0.10658898949623108,-0.02994665876030922,0.040859390050172806,-0.033898331224918365,0.029241956770420074,-0.026619432494044304,0.1304972916841507,0.13201896846294403,0.05390635505318642,0.0028309335466474295,-0.2060675472021103],[0.15289537608623505,-0.19303683936595917,-0.11562520265579224,-0.2126343846321106,-0.0555904246866703,0.2412862479686737,0.06335493922233582,-0.14682692289352417,-0.046868838369846344,-0.05811533331871033,-0.06513652205467224,0.04430991783738136,0.08605316281318665,0.2211298942565918,-0.02689537964761257,0.038759998977184296,-0.08125447481870651,-0.08449576050043106,-0.08338505029678345,0.08888088166713715,0.0015343480044975877,0.21590527892112732,-0.08793823421001434,-0.0016285920282825828,0.28930333256721497,0.03761332482099533,-0.10104593634605408,0.031498149037361145,-0.15587592124938965,-0.07831539213657379,-0.26533621549606323,-0.04838431254029274,0.06174614280462265,0.23675255477428436,-0.08278119564056396,0.11661960184574127,-0.05155201256275177,0.16576159000396729,0.045580677688121796,-0.08030611276626587,-0.12784479558467865,-0.10061565041542053,0.024196341633796692,0.09240318834781647,-0.041255101561546326,0.11182693392038345,-0.20409484207630157,0.0490761324763298,0.06124226376414299,-0.0015804875874891877,-0.06867307424545288,0.06327258050441742,-0.04350157082080841,-0.058934301137924194,0.04182688891887665,-0.03488789498806,0.13271023333072662,-0.022417280822992325,0.09934717416763306,-0.24288329482078552,0.09227565675973892,0.13222737610340118,-0.2113732546567917,0.05038849264383316,-0.018874002620577812,-0.047228824347257614,-0.13513274490833282,0.01628560572862625,-0.011252949014306068,-0.005528630688786507,0.05402589589357376,0.00848282128572464,0.1164369285106659,0.03597210720181465,0.045225705951452255,0.0811787098646164,0.1341124325990677,-0.03348162770271301,-0.1852939873933792,-0.14808091521263123,0.04596893489360809,0.06562648713588715,0.042635951191186905,-0.1621374636888504,0.09969990700483322,-0.14529335498809814,0.12853942811489105,-0.007779505103826523,-0.10045155137777328,0.1075965166091919,-0.014527827501296997,0.09958331286907196,0.03338659927248955,-0.08661197870969772,0.0044076526537537575,-0.06537117063999176,-0.06082084774971008,0.009159741923213005,-0.048958733677864075,0.11244095861911774,-0.06279001384973526,-0.22320133447647095,-0.1271687000989914,-0.24066968262195587,0.09681624919176102,0.18353985249996185,-0.03396536782383919,-0.023137418553233147,0.060098130255937576,0.11176630109548569,-0.14476962387561798,0.05236812308430672,-0.3188776671886444,0.22747083008289337,0.060880303382873535,-0.05128965526819229,0.04619571939110756,0.022401494905352592,0.27934539318084717,-0.11685273796319962,-0.23250658810138702,0.04460585489869118,0.2181539535522461,-0.01291312463581562,-0.014802967198193073,-0.1326785832643509,-0.023300329223275185,0.07646846771240234,-0.2022830992937088,0.13379770517349243,0.13272008299827576,0.13184574246406555,0.08144419640302658,-0.1633569598197937,0.10847051441669464,0.27429142594337463,-0.1537931114435196,-0.03582479804754257],[0.06574419140815735,-0.29478564858436584,-0.11905129998922348,0.07614534348249435,-0.1371770054101944,-0.06951823085546494,0.29130274057388306,0.016435984522104263,-0.03531327471137047,0.16476716101169586,-0.036037806421518326,-0.10347403585910797,0.0501115657389164,0.03634180128574371,0.14950060844421387,0.08100786805152893,0.09378433227539062,-0.04324690252542496,0.018079722300171852,-0.033557239919900894,0.18127916753292084,-0.23571665585041046,0.061092544347047806,0.02925070747733116,-0.1875334084033966,0.0900120735168457,-0.019781727343797684,-0.13694238662719727,-0.023379841819405556,-0.07891136407852173,0.05612706020474434,0.03346925601363182,0.004765155725181103,-0.08070526272058487,-0.020095689222216606,-0.2266521155834198,0.15010005235671997,0.052843134850263596,-0.08731773495674133,-0.1439228057861328,0.1910347193479538,-0.10548169165849686,-0.12104292213916779,-0.1049477756023407,-0.028847139328718185,-0.07106010615825653,0.2086334526538849,-0.07594357430934906,0.17008072137832642,0.1463758945465088,0.08808375149965286,0.1020030826330185,-0.025393126532435417,-0.07510384917259216,0.0212502833455801,-0.04221784695982933,0.047513239085674286,-0.006965453736484051,0.03277333080768585,0.22473889589309692,-0.17050039768218994,-0.03094925917685032,-0.0883573368191719,0.08558091521263123,-0.2101098746061325,-0.25061506032943726,-0.012354585342109203,-0.037010807543992996,0.06241588667035103,-0.041859954595565796,-0.0416937880218029,-0.012690945528447628,0.12268119305372238,0.01695665344595909,-0.0808139219880104,0.04568431153893471,-0.07609681785106659,0.07020556926727295,-0.0804079920053482,-0.016980350017547607,-0.13785354793071747,-0.050643011927604675,0.07229285687208176,-0.007448860444128513,0.010965034365653992,0.01599860191345215,0.11024460941553116,-0.014175422489643097,-0.12352269142866135,-0.17446602880954742,-0.09149985015392303,-0.09567675739526749,0.25460830330848694,-0.48439276218414307,-0.14531102776527405,0.059224359691143036,-0.012868760153651237,0.033551428467035294,0.02588912472128868,-0.01333482377231121,-0.029541440308094025,-0.13240714371204376,0.1710122525691986,0.10157991945743561,-0.025586949661374092,0.011224568821489811,0.10941356420516968,0.06402836740016937,0.13889656960964203,-0.0007318505668081343,-0.16636550426483154,-0.07506894320249557,0.060293685644865036,0.040264930576086044,-0.18794964253902435,-0.028662163764238358,-0.2128484696149826,0.2397790551185608,-0.19865751266479492,0.09114902466535568,-0.17868614196777344,-0.06167270243167877,-0.22733832895755768,-0.13382872939109802,-0.06369958072900772,-0.12051525712013245,0.23612122237682343,0.12420845031738281,0.17127586901187897,0.20232173800468445,0.04488428309559822,-0.017949413508176804,-0.0368366576731205,-0.0504082590341568,-0.0582813061773777,0.07397594302892685,0.024277178570628166,-0.04133197292685509],[0.141778364777565,-0.06989818811416626,0.014590342529118061,-0.011755975894629955,0.09447303414344788,0.043920669704675674,-0.22786836326122284,-0.010250856168568134,-0.010388700291514397,-0.05514875054359436,0.01823708973824978,-0.05693303421139717,-0.07891655713319778,0.054175034165382385,0.05562697350978851,-0.04116949066519737,-0.18820491433143616,-0.16540995240211487,0.10409387946128845,0.04135627672076225,-0.09105844795703888,-0.023134469985961914,0.06533028185367584,-0.19644437730312347,-0.05708833038806915,0.07968124747276306,0.02482778951525688,0.04666823893785477,-0.14608697593212128,-0.007292597554624081,-0.08278210461139679,0.11219567060470581,-0.07970872521400452,0.2148977816104889,-0.176723912358284,-0.092714324593544,0.11222140491008759,-0.15886197984218597,-0.028136175125837326,0.1033022403717041,0.16831348836421967,0.07774917781352997,0.0003219457867089659,0.08612531423568726,-0.02872478775680065,-0.04689847305417061,0.026409348472952843,-0.059420499950647354,0.04269353672862053,0.003861390519887209,0.03658975660800934,-0.18992093205451965,-0.11763158440589905,-0.06240157410502434,0.024951890110969543,0.01967005617916584,0.05933443829417229,0.09166724979877472,-0.027365999296307564,0.09231600165367126,0.04995488375425339,-0.17882443964481354,-0.11580493301153183,0.09453750401735306,-0.016846438869833946,-0.023692667484283447,-0.14803127944469452,0.05818627402186394,0.027141330763697624,0.06286916881799698,0.015011999756097794,0.10262517631053925,0.08958505094051361,-0.018392261117696762,-0.0650380477309227,0.06861002743244171,-0.029375093057751656,-0.1246497854590416,0.07991226762533188,-0.0021905042231082916,0.08857966214418411,-0.049553535878658295,0.0006877135601826012,0.10355671495199203,0.019925521686673164,-0.13026928901672363,-0.03301587328314781,-0.1209542378783226,-0.14095807075500488,0.045545388013124466,-0.030740724876523018,0.16472043097019196,-0.05187946557998657,-0.26020556688308716,-0.09119910001754761,-0.10266284644603729,0.18183134496212006,-0.03995726630091667,-0.10858270525932312,0.12899808585643768,-0.09050007164478302,-0.2647170126438141,0.10534276813268661,-0.07043372839689255,0.11856835335493088,-0.08032982051372528,-0.09399105608463287,0.014962377026677132,0.10410083085298538,0.14954087138175964,0.000012985716239199974,-0.06429538130760193,0.08546097576618195,-0.032966285943984985,-0.08346424251794815,0.21122530102729797,0.0042211259715259075,0.15203386545181274,-0.029868271201848984,0.09535910189151764,-0.022672809660434723,0.026494555175304413,-0.26255226135253906,0.03685043379664421,-0.07578124105930328,-0.1542709767818451,-0.012410977855324745,0.09920185059309006,-0.004152568988502026,-0.053272832185029984,-0.052021514624357224,-0.1725485622882843,0.09255587309598923,0.11978289484977722,0.12290672212839127,0.04492487013339996,0.07052316516637802,-0.22093471884727478],[0.1150943711400032,0.17079834640026093,0.15530237555503845,-0.16163849830627441,0.08268183469772339,-0.11248021572828293,0.08392467349767685,-0.21422100067138672,-0.022244347259402275,-0.08248785883188248,-0.020041238516569138,0.126262828707695,-0.1263580173254013,0.13671672344207764,-0.03807526081800461,-0.14691302180290222,0.0021557314321398735,0.14348873496055603,-0.1396620124578476,-0.1248910054564476,-0.14984166622161865,0.10126607865095139,-0.12484746426343918,-0.23972375690937042,-0.08284782618284225,0.014408443123102188,0.04694567993283272,0.05450698733329773,0.21209517121315002,0.18110278248786926,-0.05860653147101402,-0.23942722380161285,0.05618095025420189,-0.19363106787204742,-0.0870894193649292,0.002302406821399927,0.03079408034682274,-0.04523692652583122,-0.025711506605148315,0.19042246043682098,0.04730945825576782,-0.04682840034365654,0.01751246303319931,0.09051388502120972,0.024918314069509506,-0.09196305274963379,-0.03931741416454315,-0.061662252992391586,-0.01604633219540119,0.019098857417702675,-0.1435108482837677,-0.001435177749954164,-0.12934288382530212,-0.03599422052502632,-0.006891957018524408,-0.012486781924962997,0.0881834626197815,-0.007940859533846378,-0.0967569500207901,0.02397102676331997,0.06225408986210823,0.12866996228694916,-0.023796653375029564,-0.08706844598054886,-0.043861061334609985,-0.01650962233543396,-0.21964621543884277,0.09550078958272934,0.06392811983823776,-0.09596110880374908,0.049243438988924026,0.15312153100967407,0.08702152222394943,0.0004063421511091292,0.07734911888837814,0.13501965999603271,-0.06883250921964645,-0.09006012231111526,-0.0700286328792572,-0.0330951027572155,0.22286541759967804,0.17401322722434998,0.2330150604248047,0.07482379674911499,0.04789053648710251,0.16744092106819153,0.03073061630129814,-0.09549565613269806,-0.111829474568367,-0.08472137153148651,0.08376236259937286,0.17926077544689178,-0.12698350846767426,0.10524452477693558,-0.14032423496246338,0.10862328112125397,0.0009845899185165763,0.007631146814674139,0.012999496422708035,0.11405958980321884,-0.048388902097940445,-0.08773917704820633,0.016016393899917603,0.12102632224559784,0.09666923433542252,0.07950861006975174,-0.04084636643528938,0.07209810614585876,0.04541380703449249,0.13159669935703278,-0.06628429144620895,-0.0491030290722847,0.0450378879904747,0.12957847118377686,-0.08101166784763336,-0.005602146964520216,-0.028284801170229912,-0.11598213762044907,0.07427947223186493,-0.05568282678723335,-0.015178886242210865,0.17589356005191803,-0.011512771248817444,-0.10706647485494614,-0.0185350701212883,0.05048331245779991,0.022182581946253777,0.011639609932899475,0.01835126429796219,-0.1210937574505806,0.04979255050420761,-0.016935240477323532,0.0362657830119133,-0.05408656597137451,0.15061499178409576,0.04994313418865204,0.20815828442573547,0.03290531784296036],[-0.13338811695575714,-0.18332833051681519,-0.18689757585525513,0.07961972802877426,0.07430006563663483,-0.11582162231206894,-0.08077043294906616,0.06819979846477509,0.03551927208900452,-0.03749788925051689,0.19031982123851776,-0.16248387098312378,0.09114781767129898,0.045394014567136765,0.1791917383670807,0.03367803618311882,-0.05994245782494545,0.12073500454425812,-0.033799972385168076,0.11979751288890839,0.015357619151473045,-0.09834038466215134,0.11994247138500214,0.09605826437473297,-0.038252655416727066,-0.05422122776508331,0.03312990069389343,0.18656913936138153,-0.10993412882089615,-0.13628309965133667,-0.18350498378276825,0.22855231165885925,0.06018295884132385,-0.1785172075033188,0.06231435760855675,-0.04673279821872711,0.1780494898557663,0.022757714614272118,-0.01545013953000307,-0.07866059243679047,-0.15012414753437042,-0.0020653775427490473,0.1620858758687973,-0.1471910923719406,-0.1559983789920807,-0.16792777180671692,-0.03529205918312073,-0.0776369571685791,-0.05922340974211693,0.02473372220993042,-0.031360920518636703,0.14464646577835083,0.05543915554881096,0.18904778361320496,-0.3423023521900177,-0.09950390458106995,-0.044442154467105865,0.12106150388717651,0.06000526249408722,-0.18124446272850037,0.048768799751996994,-0.27078181505203247,-0.07184216380119324,0.0005097762914374471,-0.05607165768742561,-0.04123120754957199,0.052223023027181625,0.1346540004014969,0.17234304547309875,-0.039597637951374054,-0.005051665939390659,-0.2168581783771515,-0.09791123121976852,-0.2859823405742645,-0.08752187341451645,0.14530827105045319,0.010615842416882515,0.11884068697690964,-0.004379936959594488,-0.06721438467502594,0.033148232847452164,-0.12221374362707138,-0.057697098702192307,0.18961291015148163,0.08786409348249435,0.054430317133665085,0.034295160323381424,-0.01239180751144886,0.006144220940768719,0.15102703869342804,0.17672263085842133,0.04740944504737854,0.1768408864736557,-0.0944824144244194,0.025902654975652695,0.006833234336227179,0.16218601167201996,-0.07318586111068726,-0.03659442439675331,-0.08084893226623535,-0.03133891522884369,0.059317078441381454,-0.1395731121301651,0.16739311814308167,0.1030920147895813,-0.022399406880140305,0.18179138004779816,0.1879711002111435,0.19447524845600128,0.00973677821457386,-0.17787392437458038,0.04122164472937584,-0.08764635026454926,0.08212296664714813,-0.05110713839530945,-0.09657113999128342,0.1706438511610031,-0.01889634132385254,-0.054385267198085785,0.14156074821949005,0.08345635235309601,0.1336924135684967,-0.03189650550484657,0.06668426841497421,-0.0028066954109817743,0.042232148349285126,0.12073089182376862,-0.2175317257642746,0.22407816350460052,-0.009337496012449265,-0.08718254417181015,0.12433381378650665,0.09749745577573776,-0.16109251976013184,0.12910589575767517,0.14029809832572937,-0.02912076935172081,0.06872031837701797],[0.05138026922941208,-0.23044587671756744,-0.07935094833374023,0.021794317290186882,-0.04115479066967964,-0.08221425861120224,0.08241402357816696,-0.050002582371234894,0.06232345849275589,0.027175914496183395,-0.04980437830090523,-0.049782395362854004,-0.07612492889165878,0.04384630545973778,0.19532237946987152,-0.1571502685546875,-0.1051560640335083,0.07710754871368408,-0.03227763995528221,0.00290493736974895,0.13080598413944244,-0.41209688782691956,-0.09643443673849106,-0.08069729059934616,0.07329488545656204,0.21311961114406586,-0.002622324740514159,-0.1325799524784088,0.2022784948348999,0.18390360474586487,0.004607345908880234,0.06950272619724274,0.10840727388858795,-0.037030383944511414,0.10720336437225342,0.03556814417243004,-0.10786354541778564,-0.05251385271549225,0.07538815587759018,0.03537682443857193,-0.04643062502145767,0.2205599993467331,0.20235809683799744,0.2944445312023163,-0.11415048688650131,-0.07336047291755676,0.24415980279445648,0.05659276247024536,0.2584814429283142,0.13838769495487213,-0.010766347870230675,-0.030889254063367844,-0.0013735442189499736,0.1172388568520546,0.13995155692100525,0.06508960574865341,-0.009920536540448666,-0.13010691106319427,-0.17112001776695251,-0.015532808378338814,-0.05447043478488922,-0.2366095781326294,-0.02845492586493492,0.19958999752998352,-0.2256803959608078,-0.21149589121341705,-0.1420711725950241,-0.06433737277984619,-0.15700271725654602,-0.1277042031288147,-0.2427847981452942,0.14217883348464966,-0.07261008024215698,0.12195916473865509,0.10986289381980896,0.12913921475410461,0.17547325789928436,-0.30793139338493347,-0.0470641553401947,0.05752023309469223,-0.1673828512430191,0.1285238415002823,-0.037192683666944504,-0.017731551080942154,-0.15269942581653595,-0.13929657638072968,0.05997008830308914,-0.1730775684118271,-0.05229445919394493,0.15003234148025513,0.13061979413032532,-0.12904229760169983,-0.2587971091270447,-0.06959496438503265,0.11178963631391525,-0.09645849466323853,0.10264161229133606,-0.035350847989320755,-0.025081612169742584,-0.16468852758407593,0.012667943723499775,0.012087826617062092,0.15561875700950623,0.1312122642993927,0.045875873416662216,0.16210554540157318,0.20906373858451843,-0.09194651246070862,0.01315919030457735,0.0404135063290596,-0.025108233094215393,-0.01349154207855463,-0.0032864620443433523,0.04794468358159065,0.15001294016838074,-0.1383986920118332,-0.2500533163547516,0.027100924402475357,0.04131021723151207,-0.09845475107431412,-0.07065913826227188,-0.08046344667673111,0.047992605715990067,-0.028056830167770386,-0.10261959582567215,0.062377944588661194,0.1513839066028595,0.049932610243558884,-0.14583393931388855,-0.04354609176516533,-0.1782555878162384,-0.05869292840361595,-0.04893875494599342,-0.07368222624063492,0.064320407807827,0.0782025009393692,0.07198014110326767,-0.14548151195049286],[0.0216035395860672,-0.014601736329495907,0.027163097634911537,0.027280673384666443,0.0871831402182579,-0.029456736519932747,0.1996532380580902,-0.00487942062318325,0.07289712876081467,-0.001695567392744124,-0.03988956660032272,-0.022031817585229874,-0.1153004914522171,0.048135243356227875,-0.09624731540679932,-0.2686643898487091,0.008186533115804195,-0.034468162804841995,-0.09974583983421326,0.09416400641202927,-0.007358092349022627,0.12252278625965118,0.02358287014067173,-0.1851673126220703,-0.2483879178762436,-0.05684005469083786,0.16536083817481995,0.07608386874198914,0.037953149527311325,0.018802959471940994,-0.1044083908200264,-0.19896800816059113,-0.06147732585668564,-0.12087704986333847,0.13783711194992065,-0.03213067352771759,-0.12258900701999664,0.05368208885192871,0.048223868012428284,-0.07799965888261795,0.06863880902528763,-0.055076714605093,0.1460425704717636,-0.07086395472288132,0.040059465914964676,-0.01381082832813263,0.145205557346344,-0.09382166713476181,0.014399565756320953,-0.07210160791873932,0.17315542697906494,0.04595555365085602,-0.19431361556053162,-0.10310348868370056,0.026614859700202942,-0.002215038985013962,-0.04620517045259476,0.044758908450603485,-0.04502385854721069,-0.08078929036855698,-0.11423453688621521,-0.003951580263674259,-0.10769867897033691,0.10576280206441879,0.07316377758979797,-0.010894064791500568,-0.31428685784339905,-0.05624888837337494,0.12598161399364471,-0.05998678132891655,-0.038098566234111786,0.03646289184689522,0.041758812963962555,0.152236208319664,-0.0019927413668483496,-0.16088522970676422,-0.02800731360912323,0.010675555095076561,-0.012242786586284637,-0.07023431360721588,-0.0059926449321210384,0.08432622253894806,0.06947539746761322,-0.011272716335952282,0.03075125254690647,-0.07743760943412781,-0.023233946412801743,0.14900365471839905,-0.06296189874410629,0.014209813438355923,0.046508003026247025,-0.02038773149251938,-0.035507045686244965,0.18851453065872192,-0.03441924601793289,-0.12217797338962555,-0.07829318195581436,-0.055964723229408264,-0.1521718055009842,0.028724178671836853,0.06207403913140297,0.08539997786283493,0.09816309064626694,-0.10336185991764069,-0.06872931867837906,0.07158396393060684,0.02948831021785736,-0.1044628918170929,0.006474762223660946,-0.007854084484279156,-0.10989733040332794,0.17282675206661224,-0.09667477756738663,-0.020902879536151886,-0.06973262876272202,0.11107007414102554,0.06808136403560638,-0.09439118951559067,-0.013903027400374413,-0.05435039475560188,0.00010689767805160955,0.04448958486318588,0.024628816172480583,-0.0483660064637661,-0.047527480870485306,0.13698314130306244,-0.14318881928920746,0.09967903792858124,-0.0871683731675148,0.12581634521484375,-0.18125580251216888,0.019349515438079834,-0.17532527446746826,-0.02857961133122444,-0.10436698794364929,-0.07280561327934265,0.07392816245555878,-0.20423516631126404],[0.039942819625139236,-0.05023622885346413,-0.15948347747325897,0.13927647471427917,-0.025796212255954742,-0.04817362502217293,0.1716511845588684,-0.023943958804011345,0.05938137322664261,-0.07370255887508392,0.02714359201490879,0.01581612415611744,-0.030664844438433647,-0.10405118018388748,-0.21631702780723572,0.07512623071670532,-0.15931567549705505,0.12192092090845108,-0.12884199619293213,-0.03520411625504494,-0.05718470737338066,-0.10465186089277267,0.41503074765205383,-0.06900611519813538,-0.09446295350790024,-0.046596452593803406,0.030059820041060448,0.028957579284906387,-0.15686409175395966,-0.05267425626516342,0.14217309653759003,-0.028035230934619904,-0.01366844866424799,-0.1283683329820633,0.12463072687387466,0.10204756259918213,0.008530301973223686,-0.06417068839073181,0.12221717834472656,0.10175058990716934,-0.013778951950371265,-0.01242152787744999,-0.15469610691070557,-0.11226925998926163,-0.07539985328912735,-0.11198066920042038,-0.045302614569664,-0.058706216514110565,0.06608613580465317,-0.08783010393381119,0.07344600558280945,-0.08252178877592087,-0.08985310792922974,0.09148501604795456,0.047186966985464096,0.018064461648464203,-0.03097676858305931,0.2120068371295929,-0.13027650117874146,0.08672547340393066,0.0033834786154329777,0.10962745547294617,0.0023605029564350843,0.05863892287015915,0.04264465346932411,0.05265001580119133,0.044746749103069305,-0.022356336936354637,0.1319098025560379,-0.20369458198547363,0.13748298585414886,0.07702361047267914,0.020027946680784225,-0.05173073709011078,-0.13576288521289825,0.11033454537391663,-0.15396665036678314,-0.04523193836212158,-0.05225198715925217,0.014865652658045292,-0.19494646787643433,-0.10573534667491913,0.009105849079787731,0.12518948316574097,0.16459663212299347,0.09177699685096741,0.09431733936071396,-0.1013878881931305,0.029055459424853325,-0.17015494406223297,-0.10735159367322922,-0.20388440787792206,0.17370988428592682,-0.07300981879234314,0.01799684576690197,0.16080844402313232,-0.026888523250818253,-0.0684155523777008,-0.07997764647006989,-0.18516387045383453,0.21647366881370544,-0.3809453547000885,-0.0013634805800393224,-0.07353534549474716,-0.03607151284813881,0.02237636409699917,-0.0004139080410823226,0.12174300104379654,-0.17734313011169434,-0.08046747744083405,-0.06397215276956558,-0.1495410054922104,0.06647203862667084,0.047843944281339645,0.005503235384821892,-0.015614490024745464,0.07371962070465088,0.053679127246141434,-0.10657787322998047,-0.10400810092687607,0.18848773837089539,-0.13323350250720978,-0.0671016052365303,0.1334974616765976,0.005518691148608923,0.054612938314676285,-0.013135148212313652,-0.1112290695309639,0.06860589981079102,0.011488286778330803,0.11026631295681,0.1837671399116516,-0.04888514056801796,-0.0941333994269371,-0.11044429242610931,0.04746447131037712,0.109042227268219,0.05914294719696045],[-0.10200826823711395,-0.056362252682447433,-0.014733795076608658,0.08091524988412857,-0.11609208583831787,-0.12033309042453766,0.14498980343341827,-0.0636044591665268,-0.13242599368095398,0.07942809164524078,-0.04615896940231323,0.0005637090653181076,0.049312524497509,-0.05403275042772293,0.1320897489786148,-0.05368482321500778,0.1962159126996994,-0.07666970789432526,0.0577986054122448,-0.21374057233333588,0.132185697555542,0.07115808874368668,0.19055797159671783,0.09544941782951355,-0.07571403682231903,0.043405886739492416,-0.14433950185775757,0.07287129014730453,-0.04007870331406593,0.08421547710895538,-0.16194453835487366,0.049440693110227585,-0.13064494729042053,-0.03530910983681679,0.05345925688743591,0.10019661486148834,-0.07257349044084549,0.0834697037935257,-0.08210921287536621,-0.12335487455129623,-0.04593001306056976,0.030114222317934036,0.14487549662590027,-0.05317721143364906,-0.0076116351410746574,-0.01883852481842041,-0.013727706857025623,0.024570001289248466,0.1307232528924942,-0.10692291706800461,-0.08328204602003098,-0.0933341234922409,-0.0594339594244957,0.13556252419948578,0.08973145484924316,0.19385407865047455,0.06873112171888351,0.04875747114419937,0.23459339141845703,-0.12729544937610626,0.08905218541622162,-0.003415637882426381,-0.30141332745552063,-0.02964213490486145,0.19609534740447998,-0.0006252889870665967,-0.03940008953213692,0.0689447820186615,-0.14809605479240417,-0.1528962403535843,0.0583527609705925,0.1127748116850853,-0.20025093853473663,0.02596038021147251,-0.05684932693839073,0.012483744882047176,-0.038434550166130066,-0.19354559481143951,0.07469796389341354,-0.07821197807788849,-0.010130797512829304,-0.02683240920305252,-0.2053801417350769,-0.13927409052848816,-0.02093915268778801,-0.095258928835392,0.04264398291707039,0.01839817501604557,0.16602879762649536,-0.06521103531122208,-0.07386719435453415,0.11867433786392212,-0.07012557983398438,0.3035127818584442,0.024657268077135086,-0.034913256764411926,0.03619293123483658,0.20179039239883423,-0.03618748113512993,0.02782856673002243,0.12448018044233322,0.24843300879001617,-0.09220826625823975,-0.10375629365444183,-0.17379604279994965,0.02344263345003128,0.08649656921625137,0.007394626270979643,-0.009415540844202042,-0.01099502481520176,0.018155835568904877,-0.0597861222922802,-0.2094305157661438,0.06698141992092133,-0.1052713468670845,-0.1145908460021019,-0.14148366451263428,0.0698392316699028,-0.0963044986128807,0.04896208271384239,-0.142788365483284,0.03541429340839386,0.006013837177306414,0.0057267253287136555,0.11784295737743378,-0.06217214837670326,-0.0404735691845417,0.05019911006093025,-0.006363623309880495,-0.10063618421554565,-0.09251755475997925,-0.18993288278579712,-0.10413122922182083,0.14078299701213837,-0.13839204609394073,-0.004977609496563673,0.08408352732658386,0.16841574013233185],[0.07689359039068222,-0.1103789433836937,-0.006084961351007223,0.06834414601325989,0.01902722381055355,0.0792941004037857,-0.0012559787137433887,0.06092964485287666,-0.1170085072517395,0.0006891196826472878,0.022745860740542412,0.20984840393066406,-0.00030717888148501515,-0.10666228830814362,-0.13714765012264252,-0.06580091267824173,0.03346488997340202,0.1145302951335907,0.04532759264111519,0.03886308893561363,0.19029217958450317,-0.21127580106258392,-0.13549549877643585,-0.03256891667842865,0.037209756672382355,0.07935761660337448,0.036070045083761215,-0.07523694634437561,-0.018267199397087097,-0.15009170770645142,-0.07015098631381989,0.13106562197208405,-0.0047368863597512245,-0.19700844585895538,-0.0027037644758820534,0.08394241333007812,0.1220545843243599,0.05039697140455246,-0.035845763981342316,0.05734993517398834,0.13607275485992432,0.11394758522510529,-0.19340994954109192,-0.05136512592434883,0.02636253647506237,0.05210573226213455,-0.016680298373103142,0.05469755455851555,0.08046121895313263,0.11676456779241562,0.17622673511505127,-0.018436603248119354,0.18070638179779053,-0.04027702286839485,0.07073128968477249,0.07848531752824783,0.010205407626926899,0.0875774472951889,-0.0656573623418808,-0.06564100831747055,-0.014900644309818745,-0.05413433909416199,-0.055789388716220856,0.124370276927948,0.00307589047588408,-0.08994448930025101,-0.12010612338781357,0.04126482456922531,0.07998146861791611,0.06823429465293884,-0.12480472773313522,0.22042901813983917,-0.08182370662689209,0.16341686248779297,0.05535208806395531,0.16057877242565155,0.16295835375785828,0.06838478893041611,-0.011643615551292896,0.01539770606905222,0.19449567794799805,-0.023059895262122154,-0.10611691325902939,0.03106880933046341,0.036917101591825485,0.2813396751880646,0.011960250325500965,-0.05144694447517395,0.04149578511714935,-0.10847894847393036,-0.1263969987630844,-0.08468826115131378,0.12983690202236176,-0.017970360815525055,0.014343219809234142,-0.1327524036169052,-0.011610563844442368,0.05899902805685997,-0.12487757205963135,-0.011899203062057495,-0.14717547595500946,-0.1690262258052826,0.14151930809020996,0.03453901782631874,0.04454146698117256,0.07530773431062698,-0.07854972034692764,-0.1718229204416275,0.053839053958654404,-0.2089291512966156,-0.16771593689918518,-0.14086779952049255,-0.13616038858890533,-0.01703789085149765,0.03358091786503792,-0.0007272380171343684,-0.05899333208799362,-0.0015655822353437543,-0.1445881873369217,-0.057633738964796066,-0.013138883747160435,-0.021339382976293564,-0.029694655910134315,-0.10855025053024292,-0.009062381461262703,-0.006603277754038572,0.13609932363033295,0.21595822274684906,-0.0712275579571724,0.12912456691265106,-0.06432095170021057,-0.056054070591926575,0.01632237248122692,0.2411876618862152,-0.002943989122286439,-0.09681680798530579,0.08680587261915207,0.13470707833766937],[0.03592144325375557,0.0387074239552021,-0.030725322663784027,0.0692487582564354,-0.021212255582213402,-0.06509175151586533,0.0852578803896904,0.0774957686662674,-0.32178571820259094,0.030453581362962723,0.026134068146348,-0.13576994836330414,0.023860441520810127,-0.07214992493391037,0.17893698811531067,0.04198925197124481,0.0010733377421274781,0.023329341784119606,-0.026771215721964836,-0.10709861665964127,-0.06793471425771713,-0.01314589660614729,0.17229703068733215,0.04089709371328354,0.09454061090946198,0.09880082309246063,-0.06460774689912796,-0.11944496631622314,0.06305555999279022,-0.03540274128317833,0.17809805274009705,-0.11682073026895523,0.029065312817692757,0.1365543007850647,0.10462313145399094,-0.0796319916844368,0.008181263692677021,-0.050631824880838394,0.05108476057648659,0.055479131639003754,-0.1540270894765854,0.01678869128227234,-0.17565619945526123,0.1085752472281456,0.1786874532699585,-0.09665785729885101,0.08764107525348663,-0.05491931736469269,-0.028235003352165222,0.061467692255973816,-0.09634242206811905,-0.02800757810473442,-0.02493562363088131,-0.051939841359853745,0.09527852386236191,0.07398247718811035,0.004003659822046757,0.025335093960165977,0.07277663797140121,0.01807485893368721,0.010534695349633694,0.0170526672154665,0.2905489504337311,0.14402690529823303,-0.044374555349349976,0.12468010187149048,-0.011414244771003723,0.12745939195156097,0.06549543142318726,-0.16434277594089508,-0.025018343701958656,0.03534394130110741,0.2265828400850296,0.035518828779459,0.10877528041601181,0.04490995407104492,-0.0224196407943964,0.14615444839000702,0.011513049714267254,0.14100930094718933,-0.16518856585025787,-0.12616851925849915,-0.053520042449235916,0.04545257240533829,0.0635351687669754,-0.010129109025001526,-0.053309038281440735,-0.09629743546247482,0.16382473707199097,-0.06352605670690536,0.03907616436481476,0.0670379176735878,0.17498688399791718,-0.06338628381490707,-0.0042146979831159115,-0.16990992426872253,-0.008742455393075943,-0.15298210084438324,0.11072033643722534,0.014412404038012028,0.05399122089147568,0.14520929753780365,-0.04935693368315697,0.03773996978998184,0.03586041182279587,0.08872644603252411,-0.022443698719143867,0.1271238625049591,0.048543691635131836,0.029668817296624184,-0.1595340520143509,0.12925344705581665,0.00918930396437645,0.10834317654371262,-0.015007195062935352,-0.032247405499219894,0.08647951483726501,-0.20119354128837585,0.024953072890639305,0.03331068530678749,-0.1666300743818283,0.050478801131248474,0.027049057185649872,0.023725904524326324,0.16654077172279358,-0.04644574970006943,0.07156109064817429,-0.1510157287120819,0.1340581476688385,-0.04489459842443466,-0.03755657747387886,-0.22285306453704834,0.15832380950450897,0.049709491431713104,0.08272511512041092,0.10911470651626587,0.03229189291596413,0.019128428772091866],[-0.022535543888807297,0.03013450838625431,-0.09562928974628448,0.09658890217542648,0.1793813407421112,0.09081508964300156,0.06941454112529755,0.04499131813645363,0.054023124277591705,0.15687543153762817,-0.001331710140220821,-0.06161700189113617,-0.17734560370445251,-0.016883190721273422,0.053983092308044434,-0.18624533712863922,0.10831476747989655,-0.10157503187656403,-0.1625281572341919,-0.02466479502618313,0.043432723730802536,0.16684839129447937,-0.0033792576286941767,-0.12400756031274796,0.040776971727609634,-0.11176032572984695,0.11836988478899002,0.12497039884328842,-0.006337841972708702,0.07518697530031204,0.08190956711769104,0.09450887888669968,-0.031396426260471344,-0.10642296820878983,0.032028671354055405,0.000505305826663971,0.0994955450296402,0.03914055600762367,-0.03139537200331688,-0.06597959995269775,-0.09666513651609421,-0.05798529088497162,-0.10770474374294281,-0.08668379485607147,0.07502863556146622,0.0020332029089331627,-0.01129269041121006,0.0569421611726284,-0.05685820430517197,-0.007741931360214949,0.24509505927562714,0.06803923100233078,0.10667382180690765,-0.1295279711484909,-0.08436477184295654,0.1293342560529709,0.11574099212884903,0.09032326936721802,-0.012959547340869904,0.22466936707496643,-0.026210669428110123,0.020074209198355675,0.024224266409873962,-0.06829924881458282,0.09257390350103378,0.2045457810163498,-0.08522992581129074,0.05449075624346733,-0.08948644995689392,-0.06300316005945206,0.05900272727012634,-0.005619061179459095,0.032390568405389786,0.0630691647529602,0.09925717860460281,-0.08698152005672455,-0.06632094085216522,-0.03362660109996796,-0.07158873975276947,0.007142579182982445,-0.05798271670937538,0.017883652821183205,0.08646425604820251,0.16885524988174438,0.04325128346681595,0.06565657258033752,-0.22145813703536987,-0.08942240476608276,0.013983940705657005,0.09535757452249527,0.02073569782078266,0.029141994193196297,-0.0839291587471962,-0.049741230905056,0.22200147807598114,-0.14306628704071045,0.06370923668146133,-0.01682937517762184,-0.049182355403900146,0.04279979690909386,0.00801477674394846,-0.10350298881530762,0.020800834521651268,-0.0960003063082695,-0.032105427235364914,-0.0024685771204531193,0.22828322649002075,0.14013662934303284,0.08281499892473221,0.11111149191856384,-0.016805220395326614,0.1011076346039772,0.029690612107515335,0.01615607924759388,-0.008162867277860641,0.09874749183654785,-0.03137918561697006,-0.10214512795209885,0.04836392402648926,-0.04194723069667816,-0.25799596309661865,0.2672162353992462,-0.04187522828578949,0.1951320767402649,0.13571496307849884,0.11807774752378464,-0.1576344221830368,0.06327559053897858,0.09337065368890762,0.0416361466050148,0.11774468421936035,0.02371872030198574,-0.07523179799318314,0.0810016542673111,0.1238185465335846,0.002258756896480918,0.16937243938446045,-0.060575224459171295],[0.012083671987056732,0.1692715734243393,-0.03525057062506676,0.043267372995615005,0.13768132030963898,0.06161465123295784,0.010529585182666779,0.1038605347275734,-0.04584777355194092,0.13967186212539673,-0.14266890287399292,-0.00878223404288292,-0.01608196645975113,-0.13480991125106812,0.20284178853034973,0.006129574496299028,0.022524259984493256,0.0069493502378463745,0.006075769197195768,-0.08274234086275101,0.20226359367370605,-0.03965296968817711,-0.04825644940137863,-0.07654742151498795,0.08766139298677444,-0.05563362315297127,-0.024773428216576576,-0.0701705813407898,0.07096962630748749,-0.10096316784620285,-0.10611075907945633,0.028974061831831932,0.006812575273215771,-0.11670257151126862,-0.2732982337474823,0.05253058299422264,0.048539262264966965,0.022909026592969894,0.11600930988788605,-0.04389214515686035,-0.3261127769947052,0.09619416296482086,0.02991878055036068,-0.004364383406937122,0.004635277669876814,0.05181870236992836,0.24504505097866058,0.1002383902668953,-0.05520666018128395,-0.07841908186674118,-0.1243961825966835,-0.011379528790712357,-0.15317699313163757,0.0011697703739628196,0.06579359620809555,0.20993545651435852,-0.05668773129582405,-0.08850409835577011,-0.062056176364421844,-0.1905757337808609,-0.11801426112651825,-0.1302124410867691,-0.10752075910568237,0.021334771066904068,-0.20020247995853424,-0.024690402671694756,0.007125120609998703,0.08383530378341675,-0.011013356037437916,-0.04864918440580368,-0.10905631631612778,0.01075519435107708,0.1968064159154892,-0.07869860529899597,0.06587421149015427,0.1881217509508133,-0.048862818628549576,0.09044890105724335,-0.12458349019289017,0.11978118866682053,0.008092816919088364,0.03162556141614914,-0.03163864463567734,0.13913442194461823,-0.01727104000747204,-0.165029838681221,0.059187985956668854,-0.023825183510780334,0.03175339847803116,0.11392822116613388,0.18754535913467407,-0.10420139133930206,-0.08510426431894302,0.08475074917078018,-0.010478835552930832,-0.1560133546590805,0.14379896223545074,-0.10197900980710983,-0.025490732863545418,0.011113942600786686,-0.031435735523700714,0.10329613834619522,0.040727272629737854,0.07061208784580231,0.08065979182720184,0.18610967695713043,-0.07516229897737503,-0.02771533839404583,0.0016408603405579925,0.04898975417017937,0.14008517563343048,0.0008327080868184566,-0.11509539186954498,-0.03366294875741005,0.0011645614868029952,-0.034608785063028336,0.23706567287445068,0.0773961991071701,0.0640782043337822,-0.12886333465576172,0.041751328855752945,-0.0035618958063423634,-0.12840667366981506,0.042700137943029404,-0.028217503800988197,0.1729343831539154,0.010836509987711906,0.012923827394843102,0.10886634886264801,-0.05501369386911392,-0.17904038727283478,0.32758185267448425,-0.20468957722187042,-0.141837939620018,-0.07066787779331207,0.10367470234632492,0.026164675131440163,-0.01308404840528965],[0.011443076655268669,-0.1144413948059082,0.0652516707777977,0.06219475716352463,-0.1876542717218399,-0.02824338711798191,0.0845569521188736,0.10139159858226776,0.09590975940227509,0.03824419155716896,-0.09404601901769638,-0.1940986067056656,0.17832694947719574,0.05284442380070686,-0.11437037587165833,0.051617879420518875,0.03771965205669403,0.11059898138046265,0.07571820169687271,0.10206470638513565,0.014924977906048298,0.07899722456932068,0.12459423393011093,0.0024121571332216263,-0.3710428476333618,0.03364061564207077,0.06683003902435303,0.21492154896259308,-0.07738540321588516,0.09311017394065857,-0.14168284833431244,0.06639639288187027,-0.006636855658143759,-0.0006438602576963603,0.18628495931625366,0.06289345771074295,-0.01882239617407322,0.150818333029747,0.16761672496795654,0.20435048639774323,-0.04155198484659195,-0.0010636941296979785,-0.028864193707704544,-0.06944634020328522,0.1324991136789322,0.10996115952730179,-0.14513830840587616,-0.10472800582647324,-0.060965728014707565,-0.19821450114250183,-0.035203222185373306,0.06995595246553421,0.02417590096592903,0.1112048402428627,0.00256298272870481,-0.12253403663635254,-0.06786010414361954,-0.03892361745238304,0.18210135400295258,-0.08194772899150848,-0.011110964231193066,-0.009792386554181576,0.09435725212097168,0.03233562782406807,-0.11813998222351074,-0.08769682794809341,0.18390364944934845,-0.1158607229590416,0.006462732329964638,-0.10388628393411636,0.1298816204071045,-0.11912854760885239,-0.09433859586715698,0.0398595929145813,0.08507489413022995,0.028138548135757446,-0.10529971122741699,0.07413095980882645,0.023838574066758156,-0.09939516335725784,0.02792966365814209,-0.0717371478676796,0.04142265021800995,-0.004591431934386492,0.080448679625988,0.05441414192318916,-0.0834733247756958,-0.07941935211420059,0.03558577969670296,0.026463020592927933,0.20295383036136627,0.11921101063489914,-0.11790955066680908,0.04187340289354324,-0.018850158900022507,0.058720823377370834,0.03379405289888382,0.0461813360452652,-0.03812159597873688,0.2178618460893631,0.04289253056049347,0.1054595485329628,0.02409493178129196,-0.003346299286931753,-0.03756514564156532,-0.05321309342980385,0.12657029926776886,-0.00033468182664364576,-0.02536800317466259,-0.07954518496990204,-0.029342681169509888,-0.10953399538993835,-0.04371531307697296,0.03731199726462364,0.04922007769346237,0.06508670747280121,0.05855946987867355,-0.19297592341899872,-0.02312486618757248,0.21317794919013977,-0.11000055819749832,0.18013344705104828,0.030253281816840172,0.1021171361207962,0.01631893590092659,0.23466573655605316,0.02071325108408928,-0.14762704074382782,0.03342985361814499,0.03745696693658829,0.025465307757258415,-0.1742704212665558,-0.047855306416749954,0.12236163765192032,0.15294381976127625,0.07864905893802643,-0.05824084207415581,0.09878231585025787],[0.05860334262251854,-0.08833783864974976,0.023629069328308105,-0.038800690323114395,-0.07077690958976746,-0.0031347861513495445,-0.013974633999168873,-0.05860195308923721,-0.20382484793663025,-0.007227918598800898,0.03340626135468483,0.014445073902606964,0.163334921002388,0.23899276554584503,-0.014773006550967693,0.09594929963350296,0.03179177641868591,-0.13375426828861237,-0.04169110208749771,0.02194524183869362,-0.030792994424700737,0.03500201180577278,-0.017046209424734116,-0.044200532138347626,0.16730853915214539,-0.12069178372621536,0.10283268243074417,-0.07216864079236984,0.03788123279809952,0.10445083677768707,-0.12828794121742249,0.09190807491540909,0.024779681116342545,0.06489960104227066,0.017906438559293747,-0.0009805980371311307,0.13721412420272827,0.11394137144088745,0.05314844846725464,-0.1785985678434372,0.06074465438723564,0.01301147136837244,-0.04900170490145683,-0.12203771620988846,-0.01776341162621975,0.019764704629778862,-0.18273180723190308,0.017688944935798645,0.05449281260371208,0.008562521077692509,-0.13552051782608032,0.01113347988575697,0.07885555177927017,0.035093288868665695,0.025431402027606964,-0.12070746719837189,0.03323451057076454,-0.013574612326920033,0.006183132994920015,0.017800629138946533,0.029141586273908615,0.08993963897228241,0.09824349731206894,-0.11879061907529831,0.006375322118401527,0.1146014854311943,-0.1005333736538887,0.026641076430678368,-0.13095523416996002,0.10262636095285416,0.034150976687669754,-0.03837130218744278,-0.13176552951335907,-0.058463528752326965,-0.05049692466855049,-0.09913831949234009,-0.2776794135570526,0.031729862093925476,0.04530809074640274,-0.03745931386947632,0.16338641941547394,0.14415434002876282,-0.035904232412576675,0.21453885734081268,0.10913728177547455,-0.05906488373875618,-0.1717769205570221,0.2511293590068817,0.158401221036911,-0.0913005992770195,-0.09688504040241241,-0.02315523847937584,-0.021685056388378143,0.014633454382419586,-0.054518867284059525,-0.018670791760087013,0.04721272736787796,0.014639303088188171,0.22536076605319977,-0.0599653497338295,-0.030841948464512825,0.04303635284304619,0.01427845936268568,0.005096993409097195,-0.24525471031665802,0.09081882238388062,-0.10637374222278595,0.20495478808879852,0.049560192972421646,0.107328861951828,-0.1443750560283661,-0.06786657124757767,0.049999792128801346,-0.05485972762107849,-0.0358554869890213,0.02097513899207115,-0.05568452179431915,-0.26719772815704346,0.037124790251255035,0.1538495421409607,-0.02611272968351841,-0.025427350774407387,-0.07505779713392258,0.1570219248533249,0.0330057293176651,-0.028353489935398102,0.04749221354722977,-0.08507663756608963,-0.08705528825521469,-0.07875305414199829,-0.015465814620256424,-0.01250449474900961,0.05378376692533493,-0.020553966984152794,0.11202266067266464,0.005091087426990271,-0.11381601542234421,0.13105696439743042],[0.336222767829895,-0.07460523396730423,-0.08025744557380676,-0.041460178792476654,0.0485520102083683,0.23401395976543427,0.12500405311584473,-0.06504229456186295,-0.053994566202163696,0.1288045346736908,0.024988507851958275,-0.006319438572973013,0.06569068133831024,0.2531086802482605,0.29036596417427063,-0.0858178436756134,0.010616369545459747,0.11141828447580338,-0.13590066134929657,0.0640445277094841,-0.0965837612748146,-0.07374238967895508,0.1414174884557724,0.08653285354375839,0.06300756335258484,0.011624651961028576,-0.12019476294517517,0.12368293106555939,0.08956891298294067,0.1056700050830841,0.167707622051239,-0.21152375638484955,-0.2675940990447998,0.18923474848270416,-0.07148127257823944,0.10704652965068817,0.28632912039756775,-0.0651082992553711,-0.0012299703666940331,-0.036437153816223145,-0.05211315676569939,-0.03751209005713463,0.08201196044683456,-0.03759239241480827,-0.14824797213077545,0.0594605877995491,-0.20301325619220734,0.034510254859924316,0.017014475539326668,-0.007596360985189676,0.1491110771894455,0.13254843652248383,-0.029116183519363403,-0.06738246232271194,-0.07699648290872574,-0.13369931280612946,0.12122853100299835,0.1253999024629593,0.08920755982398987,-0.19767241179943085,0.022181250154972076,-0.10596886277198792,-0.015460378490388393,0.0932740718126297,-0.05082546919584274,-0.05610939487814903,-0.011742159724235535,-0.16857165098190308,-0.08556414395570755,-0.03205543011426926,0.16137941181659698,0.13761647045612335,0.19498620927333832,-0.08955058455467224,0.021426787599921227,0.1339576691389084,0.23291659355163574,0.008278848603367805,0.02830198034644127,0.09958909451961517,-0.06649018079042435,-0.003930871374905109,-0.024946162477135658,-0.19897417724132538,0.03878146782517433,0.0026012202724814415,0.03686205670237541,0.038010239601135254,-0.0053265755996108055,0.07768745720386505,-0.1809363067150116,-0.03017757274210453,-0.005997814703732729,-0.2848191261291504,0.09125184267759323,-0.004898392129689455,0.02610272355377674,-0.14855092763900757,-0.12360132485628128,-0.0677441880106926,0.016787558794021606,-0.2912736237049103,0.1430021971464157,-0.16882789134979248,0.05770522356033325,0.04960596188902855,-0.000443095137597993,-0.05407780036330223,-0.04496249929070473,0.023597778752446175,-0.0734507292509079,-0.08717624098062515,0.08313663303852081,0.1622133105993271,0.14470210671424866,-0.1056540310382843,-0.09707671403884888,-0.004981246776878834,0.08402875810861588,-0.17305533587932587,-0.01700449176132679,-0.047568097710609436,0.03950352221727371,-0.03023510053753853,-0.00655606621876359,-0.017828423529863358,-0.0925602838397026,0.07920064777135849,0.17788484692573547,-0.032852232456207275,-0.24937142431735992,-0.1310873180627823,0.1182645857334137,-0.055782515555620193,-0.014880567789077759,-0.01061517558991909,-0.09178908914327621,-0.09996321052312851],[-0.03170205280184746,-0.0640062540769577,0.048410478979349136,0.06538299471139908,-0.050033409148454666,-0.0788397490978241,-0.1587153673171997,-0.12374991923570633,0.1313219964504242,-0.1743282675743103,0.05007002130150795,0.1607205867767334,-0.07842391729354858,0.013888824731111526,0.06609300523996353,0.056900814175605774,0.06847242265939713,0.11039567738771439,-0.12074891477823257,-0.05885029211640358,0.061920735985040665,0.11859677731990814,0.054856639355421066,0.008634967729449272,-0.03485320508480072,-0.004171714186668396,0.07352428883314133,-0.033877354115247726,0.10887647420167923,-0.05203935131430626,-0.18006667494773865,-0.061285555362701416,-0.14629200100898743,-0.1730683594942093,-0.05390849709510803,0.0013764690374955535,0.040944550186395645,0.317668080329895,0.041816242039203644,-0.28508642315864563,-0.045767683535814285,0.01686105504631996,0.23198680579662323,0.10547193884849548,-0.037010133266448975,-0.015188719145953655,-0.10525154322385788,0.040734633803367615,0.1839529424905777,-0.12208817154169083,0.13607291877269745,-0.0021694847382605076,0.05374615639448166,-0.03445158153772354,-0.2937900424003601,0.09214071929454803,-0.15280479192733765,-0.17686760425567627,0.10776735097169876,-0.1392994374036789,-0.021838940680027008,-0.07666190713644028,0.1644641011953354,-0.005449788644909859,-0.10818607360124588,0.017702355980873108,0.12694811820983887,0.0015877231489866972,-0.051133669912815094,-0.04264965280890465,-0.17675192654132843,0.016581138595938683,-0.03239082172513008,0.045539408922195435,-0.05175086855888367,0.12398628890514374,-0.04195872321724892,-0.0729224756360054,-0.03407108783721924,-0.1609741896390915,-0.03133859112858772,-0.031702037900686264,-0.11572129279375076,0.050898969173431396,0.03743252530694008,0.10402511060237885,-0.35884666442871094,-0.02370559796690941,0.11302761733531952,0.32008180022239685,-0.022418690845370293,0.02055266685783863,-0.0981355533003807,0.06705661118030548,-0.16570717096328735,-0.18442708253860474,0.13003242015838623,-0.08969380706548691,0.20311562716960907,-0.21908053755760193,0.04498424381017685,0.06256663799285889,0.1772180199623108,-0.18585601449012756,-0.03058801405131817,0.14281123876571655,0.26744920015335083,-0.0007110119331628084,-0.040116485208272934,0.13393475115299225,-0.004134654998779297,-0.0015121197793632746,-0.07758786529302597,0.0668361634016037,0.006445021368563175,-0.0013940714998170733,-0.12227475643157959,-0.15348699688911438,-0.11633140593767166,0.04026784002780914,-0.0880340039730072,0.15489590167999268,0.043545451015233994,-0.07779642939567566,-0.013774491846561432,0.1424466222524643,0.03291745111346245,-0.09669779241085052,-0.03174484521150589,-0.09755873680114746,-0.019043298438191414,-0.08454715460538864,-0.19433361291885376,-0.09832543134689331,-0.1796005666255951,-0.039898596704006195,-0.09247155487537384,-0.2598884105682373],[-0.08853472024202347,0.07145996391773224,-0.057668622583150864,0.029833106324076653,-0.08707647025585175,-0.022179340943694115,-0.03833697736263275,0.010850243270397186,-0.1757661998271942,0.04851502925157547,-0.0653950497508049,0.1454787403345108,0.1556028574705124,0.09526316821575165,-0.14498154819011688,0.012713408097624779,-0.050061218440532684,0.1810748428106308,0.019347812980413437,-0.28287485241889954,0.13019274175167084,0.00589725049212575,-0.055939942598342896,0.09413585811853409,0.04629885405302048,-0.0012387974420562387,-0.04640043154358864,0.04862290248274803,-0.22411222755908966,0.007781772408634424,-0.12483566254377365,-0.03187362477183342,-0.031563758850097656,0.016479887068271637,-0.02593940682709217,-0.02067512646317482,-0.0055103967897593975,-0.21021246910095215,0.15397243201732635,0.17476169764995575,-0.11107632517814636,0.21237939596176147,0.1501016616821289,0.012589095160365105,-0.022309167310595512,0.040269944816827774,0.14768260717391968,-0.029188372194767,0.017159081995487213,-0.19220185279846191,0.0633041262626648,-0.03352426365017891,-0.09353286027908325,-0.2680359482765198,0.0900617316365242,-0.08249019086360931,0.10539966076612473,0.03146997094154358,-0.014496942050755024,0.07470979541540146,-0.011734578758478165,0.1678786426782608,-0.0903550386428833,0.008444656617939472,-0.040654852986335754,0.07985523343086243,0.04509371891617775,-0.062082476913928986,0.16087190806865692,0.11736060678958893,-0.15966357290744781,-0.04505555331707001,-0.021751947700977325,0.04626043513417244,-0.10104841738939285,-0.07218633592128754,-0.0189534742385149,-0.12567026913166046,-0.0013111117295920849,-0.03715973347425461,-0.13674257695674896,-0.14331242442131042,0.21475589275360107,0.017501311376690865,0.09530874341726303,-0.01127072237432003,0.0024241828359663486,0.009776860475540161,0.08337853848934174,0.0387912318110466,-0.0725177451968193,0.08260606974363327,0.02891521342098713,-0.1245826929807663,-0.09065354615449905,0.17326311767101288,0.10866682976484299,-0.04643910005688667,-0.028761647641658783,-0.10138633847236633,-0.08840600401163101,0.005793463904410601,-0.03957979753613472,-0.11012714356184006,-0.1271704137325287,-0.09467513859272003,-0.04946086183190346,-0.00495478231459856,0.05857154726982117,0.07809338718652725,0.06834683567285538,0.09737975150346756,0.09667500853538513,0.043359071016311646,0.10718438029289246,-0.05856243148446083,0.008448734879493713,-0.06954003125429153,0.043917033821344376,0.12091512233018875,-0.07402631640434265,0.17169436812400818,0.05011177062988281,0.020179638639092445,0.019466359168291092,0.020395996049046516,-0.06955927610397339,-0.2155652940273285,-0.05251317098736763,0.10264544934034348,-0.16539497673511505,0.09507165849208832,0.012987399473786354,-0.03736254572868347,-0.04816543310880661,-0.040585704147815704,-0.10535286366939545,-0.06703753024339676],[-0.13652311265468597,-0.03965844213962555,-0.0005210026283748448,0.03989752009510994,-0.12599419057369232,-0.05754401907324791,0.040069401264190674,0.028456343337893486,-0.28785625100135803,0.026029519736766815,-0.09839233756065369,-0.013375146314501762,0.1490725427865982,-0.15763111412525177,0.003208830486983061,-0.05652706325054169,0.022992074489593506,-0.09513314813375473,0.09878269582986832,0.11820127815008163,-0.1533902883529663,0.1350330412387848,0.018139028921723366,-0.012227486819028854,-0.01725648157298565,0.0065530408173799515,-0.07290197908878326,0.01764342188835144,0.14596661925315857,-0.06627725064754486,0.08354459702968597,0.016372349113225937,-0.009507120586931705,-0.04118393734097481,0.009354631416499615,-0.06428176164627075,-0.03046131320297718,0.11027493327856064,0.15828818082809448,0.009463251568377018,-0.024245217442512512,0.08516670763492584,0.09188450127840042,-0.05988108366727829,-0.03530595079064369,0.05132889002561569,0.08845171332359314,-0.08385296911001205,-0.002958294004201889,0.10140174627304077,0.1109650731086731,-0.0264270082116127,0.277688592672348,0.02792271599173546,0.036188993602991104,0.00649225851520896,0.05681995302438736,0.03202312812209129,0.09546773135662079,0.1127275750041008,-0.026708856225013733,0.08141821622848511,0.043539199978113174,-0.0805826261639595,-0.06787282973527908,-0.02614757791161537,-0.025993885472416878,-0.1321762204170227,0.21839798986911774,0.005106213036924601,-0.01709784008562565,-0.07430928200483322,0.013537239283323288,-0.08505041897296906,0.04018346220254898,0.02543940767645836,0.1000436544418335,0.09665606915950775,-0.035574719309806824,0.1398278921842575,-0.03151579946279526,-0.1538849174976349,-0.000006435387604142306,-0.32957905530929565,-0.03632747009396553,0.06026822328567505,-0.09170954674482346,0.2228998988866806,0.0133163807913661,-0.0421343669295311,0.1100231409072876,0.002404116792604327,0.1203889325261116,-0.0672684907913208,0.06767987459897995,-0.021564485505223274,0.03528311103582382,-0.09909699112176895,0.10387072712182999,-0.02463463507592678,0.09396780282258987,-0.11580765247344971,-0.11350517719984055,0.1645633578300476,-0.07697931677103043,0.22194655239582062,0.000602973101194948,0.17089474201202393,-0.005835135001689196,0.05895209684967995,0.009650605730712414,0.019741510972380638,0.21122226119041443,0.03301301598548889,0.027693290263414383,0.1630605012178421,-0.15158221125602722,-0.04723426699638367,0.05195029824972153,-0.0074544185772538185,0.1937752515077591,-0.026012098416686058,0.006401032209396362,-0.08593583106994629,0.0444922037422657,0.019910596311092377,-0.26069581508636475,-0.01738487184047699,-0.021114666014909744,0.1645854413509369,-0.04406692832708359,0.02505352348089218,0.07547833025455475,-0.21430890262126923,0.056737594306468964,-0.04018903523683548,-0.11919799447059631,-0.03132091835141182],[-0.17467616498470306,0.12832780182361603,-0.17462459206581116,0.19668272137641907,-0.03856446221470833,0.04370419681072235,0.12131945788860321,0.03793191909790039,0.0261794775724411,0.12477772682905197,0.08817791938781738,-0.05102267488837242,-0.15532994270324707,0.025509806349873543,-0.18119530379772186,0.04080924391746521,0.09472370892763138,0.014284482225775719,0.08694517612457275,-0.13356755673885345,0.05597835034132004,-0.02519211545586586,0.15276101231575012,-0.029519496485590935,0.060469355434179306,0.044645532965660095,0.03278205543756485,0.08918789774179459,0.04560781642794609,0.18214428424835205,0.11468588560819626,0.020035570487380028,0.10478664934635162,0.1567796915769577,0.05016159638762474,0.060634419322013855,-0.03458571434020996,-0.10216771811246872,-0.05101211741566658,0.021927673369646072,0.05439608171582222,0.016216225922107697,-0.11690467596054077,-0.01703706569969654,0.13800841569900513,-0.08520215004682541,0.006970188580453396,-0.0183752179145813,0.007994563318789005,0.0036872131749987602,0.07762563228607178,-0.05514894798398018,0.025828393176198006,0.16692540049552917,0.11028929054737091,-0.052356574684381485,-0.06708822399377823,0.13387104868888855,-0.14431144297122955,0.11849801242351532,-0.11722586303949356,-0.09339708089828491,-0.0665958970785141,0.02677415870130062,0.04857345297932625,0.09018130600452423,-0.05853131040930748,-0.01447093766182661,-0.15869544446468353,-0.012563368305563927,-0.14358867704868317,0.09335717558860779,0.13587675988674164,0.07730760425329208,-0.21516093611717224,-0.054549384862184525,0.22603005170822144,0.006798220332711935,-0.13835139572620392,-0.0033334004692733288,-0.004959633573889732,-0.07092534005641937,0.03938649967312813,0.006825990043580532,0.14112137258052826,0.07653500884771347,0.3854939341545105,-0.09524684399366379,0.0816589966416359,-0.19494298100471497,-0.07648623734712601,0.0014694640412926674,0.02247096598148346,-0.12044882029294968,-0.06425978243350983,0.13198989629745483,0.10812127590179443,-0.009907691739499569,-0.08375690877437592,0.12286408990621567,0.000733853317797184,-0.02078079618513584,-0.027327444404363632,0.05006628483533859,-0.23929880559444427,0.06686925888061523,-0.08993086963891983,0.07691419124603271,0.004014340229332447,0.00554491113871336,0.005076333414763212,-0.08046466112136841,0.11835121363401413,0.03418423607945442,0.0736478716135025,0.041586559265851974,0.11327757686376572,0.12341971695423126,-0.2641517221927643,0.13665428757667542,0.04585609957575798,0.15098319947719574,0.013381187804043293,0.037577319890260696,-0.0077590420842170715,0.0016845670761540532,-0.01742592640221119,-0.03503262996673584,0.10812848061323166,-0.055352065712213516,-0.07741588354110718,0.23338383436203003,-0.01163804903626442,0.08838150650262833,-0.060829732567071915,0.05508138984441757,-0.005753348581492901,0.03616895154118538],[-0.13105979561805725,-0.11934692412614822,0.15343113243579865,-0.06955743581056595,-0.004072278738021851,-0.11876238137483597,0.09172379225492477,0.1000918596982956,0.09984996914863586,-0.2619498670101166,-0.061084456741809845,-0.08154167979955673,-0.08428386598825455,-0.01249525137245655,-0.10549186915159225,0.11767315864562988,-0.009702258743345737,0.12368045002222061,-0.1805158257484436,0.1843748539686203,0.061175622045993805,0.22139669954776764,-0.025865226984024048,0.08166482299566269,0.09176202118396759,-0.014709902927279472,0.07136626541614532,-0.118710458278656,-0.07371057569980621,-0.15507346391677856,0.024311108514666557,-0.19232404232025146,0.05940379947423935,0.16225787997245789,0.04500531032681465,-0.1497672200202942,-0.0802607610821724,0.19345733523368835,0.03526246175169945,0.1517748385667801,-0.12270666658878326,-0.04556223005056381,-0.12970635294914246,0.05502964183688164,-0.10933345556259155,-0.15819792449474335,0.03689027205109596,-0.04599243029952049,-0.024514934048056602,-0.014156621880829334,0.08056023716926575,-0.10666576027870178,-0.01936708204448223,-0.11114726215600967,-0.07307544350624084,-0.08086583018302917,0.09997867047786713,-0.13189591467380524,0.07768348604440689,0.04510864242911339,-0.06127318739891052,-0.2216363549232483,-0.36963027715682983,0.06314542144536972,0.07920608669519424,0.012762229889631271,0.1387919932603836,-0.051216576248407364,0.002458435483276844,0.02102876454591751,0.027752259746193886,-0.019282620400190353,-0.04870176687836647,-0.06529389321804047,0.03749017417430878,-0.027303971350193024,-0.15627893805503845,0.23423466086387634,-0.1850702464580536,0.024137694388628006,-0.06454700976610184,-0.03417086973786354,0.15494506061077118,-0.030093247070908546,-0.02993476204574108,-0.11448397487401962,-0.034027211368083954,-0.07000944763422012,-0.01569703221321106,-0.008515103720128536,-0.2795819640159607,-0.060486093163490295,-0.0008803258533589542,-0.3106146454811096,0.06468342244625092,-0.03804856538772583,-0.003010569838806987,0.057189930230379105,0.1721539944410324,-0.02806704118847847,0.1154763326048851,-0.12818904221057892,0.000029952736440463923,-0.0068328347988426685,0.04512050375342369,-0.1126042902469635,0.1458701342344284,-0.006909601856023073,0.02919205278158188,0.08910514414310455,-0.19420696794986725,0.04800339788198471,0.12031080573797226,0.08512178808450699,-0.05853597819805145,0.04313012585043907,0.10752435028553009,0.11879582703113556,-0.1924167424440384,0.10390977561473846,0.003604075638577342,-0.03865303844213486,-0.1772654950618744,0.01998567394912243,0.057103369385004044,-0.1553116738796234,-0.10659938305616379,-0.034148383885622025,0.1377677023410797,0.10641155391931534,-0.03607699275016785,0.0487067848443985,-0.02350805141031742,-0.018021784722805023,0.025230545550584793,0.00838523544371128,-0.15704549849033356,-0.06971251964569092],[-0.10120057314634323,0.10177992284297943,-0.17959322035312653,0.09633060544729233,0.04813305661082268,0.07899941504001617,0.10189753025770187,0.16602113842964172,-0.08498963713645935,0.1299140602350235,0.04878876730799675,0.052280571311712265,-0.03535500913858414,-0.03531767055392265,-0.04587326571345329,-0.053904205560684204,-0.09473202377557755,0.12605223059654236,-0.060703109949827194,-0.07548071444034576,-0.12547805905342102,-0.14279350638389587,0.026436736807227135,0.060168977826833725,-0.11117227375507355,-0.048112064599990845,0.004692031070590019,0.09235431253910065,0.09291237592697144,0.31543925404548645,-0.018311811611056328,-0.01832285337150097,0.04995707422494888,0.1354665607213974,0.22522875666618347,-0.26162928342819214,-0.05547147989273071,0.20352090895175934,-0.1404096931219101,0.1887868493795395,-0.020785542204976082,-0.022081851959228516,-0.08635447174310684,-0.10048734396696091,-0.011978465132415295,-0.19147178530693054,0.08278176933526993,0.08541066199541092,-0.07245919853448868,0.08541704714298248,-0.03274989873170853,0.02513567917048931,0.022721657529473305,-0.0219342652708292,-0.16954351961612701,0.029735887423157692,-0.07359600812196732,0.023670457303524017,0.11163704842329025,0.06757140159606934,-0.09602516889572144,0.13673706352710724,0.022663190960884094,0.09701763093471527,0.04322963207960129,0.01904940791428089,-0.09060289710760117,-0.11642362177371979,0.02021653577685356,0.07859388738870621,0.016611238941550255,0.2354150116443634,-0.02561131678521633,-0.19932302832603455,0.03515107184648514,0.07402174174785614,-0.07394694536924362,-0.028717273846268654,-0.11915870010852814,-0.13968254625797272,0.04562905430793762,0.23544219136238098,-0.05931437388062477,-0.0513688325881958,0.03289855271577835,0.08546711504459381,-0.21135978400707245,-0.1426854282617569,0.15497112274169922,-0.012722034938633442,-0.13235139846801758,-0.04343002289533615,0.03772369772195816,-0.0633455365896225,0.02956525795161724,0.1375560164451599,-0.1609257608652115,-0.16466446220874786,-0.15853334963321686,0.07367406040430069,-0.09881187975406647,-0.11113455146551132,-0.051139749586582184,-0.09275232255458832,0.00596342608332634,0.014851361513137817,-0.11525531113147736,0.14609742164611816,-0.046351078897714615,-0.0871284157037735,-0.10312115401029587,-0.0985758975148201,0.13335302472114563,0.002812028396874666,0.00020777979807462543,-0.0032418514601886272,0.06020055338740349,-0.1886231005191803,0.11561168730258942,0.021722683683037758,0.06043173372745514,0.004165826365351677,-0.0001824401260819286,-0.010831177234649658,0.03342355787754059,0.09415940940380096,-0.029060035943984985,-0.08842480182647705,0.1789732575416565,0.18711979687213898,0.10229337215423584,-0.05986340716481209,-0.018603840842843056,-0.11241312325000763,-0.11092189699411392,0.10851700603961945,-0.10972312092781067,-0.11247789114713669],[-0.06603080779314041,0.03631271794438362,0.0362175889313221,0.014801296405494213,-0.12186115235090256,-0.15178856253623962,-0.016922539100050926,0.1125757247209549,0.1510070562362671,-0.13142263889312744,0.045358385890722275,0.06056667119264603,0.0023964291904121637,0.0704294741153717,-0.1869022101163864,0.006516183260828257,0.037120550870895386,-0.05832821875810623,-0.00247318297624588,-0.07726778835058212,0.042596254497766495,0.25644180178642273,0.06568004935979843,-0.062209296971559525,-0.04003638029098511,0.004013730678707361,-0.09680046141147614,0.07125487178564072,-0.07177790254354477,0.04923628270626068,0.02475973404943943,0.02699701301753521,-0.04296177625656128,-0.009863167069852352,-0.06620274484157562,0.14039631187915802,-0.03243761137127876,-0.2572191059589386,0.07691053301095963,0.22700709104537964,-0.12402258068323135,-0.06623833626508713,-0.11822038143873215,-0.2189027965068817,-0.07322165369987488,-0.07178399711847305,-0.11874429136514664,0.09573105722665787,-0.015219424851238728,0.21687741577625275,-0.05634405091404915,-0.06326448917388916,-0.10853179544210434,-0.04167887941002846,-0.04399871453642845,0.051830269396305084,-0.19131916761398315,0.09580224007368088,-0.23247532546520233,0.28539368510246277,-0.00871739350259304,-0.013126127421855927,-0.1286204606294632,0.11922020465135574,0.18783672153949738,-0.07775123417377472,0.003231625771149993,-0.14295817911624908,-0.08423151075839996,0.1632387787103653,-0.059185147285461426,0.2267409712076187,0.11124518513679504,-0.05098332464694977,-0.0066430335864424706,-0.050974857062101364,0.010248287580907345,0.16438338160514832,-0.1176832839846611,-0.014072870835661888,0.012758487835526466,-0.07016289234161377,0.171129509806633,0.12620259821414948,0.07874730974435806,0.09220746159553528,0.1523229479789734,0.04446893185377121,-0.03099510632455349,-0.15846554934978485,-0.07073939591646194,-0.06555003672838211,0.05833287164568901,0.004763621836900711,0.010748256929218769,0.0028885998763144016,0.11083458364009857,-0.16767309606075287,0.10992320626974106,0.05334224924445152,-0.03444184735417366,-0.04709630087018013,-0.1426805853843689,0.014060521498322487,0.004848893731832504,0.10212844610214233,-0.11215275526046753,-0.23060867190361023,0.16896024346351624,0.1383432298898697,0.13654209673404694,0.18927305936813354,-0.21977372467517853,0.014394178986549377,0.09554369002580643,-0.16685032844543457,0.05170954763889313,0.10577132552862167,-0.21205444633960724,0.03947770968079567,-0.06851626932621002,0.054237134754657745,-0.036592792719602585,-0.11245748400688171,0.004675599280744791,-0.008424255065619946,0.05659695714712143,-0.1685396283864975,0.048439495265483856,0.25156790018081665,0.13908979296684265,0.0047827353700995445,-0.20146037638187408,0.08675553649663925,-0.009713949635624886,-0.11556273698806763,-0.017665930092334747,-0.047749850898981094],[-0.019448574632406235,-0.035628270357847214,0.11431203037500381,-0.11019518971443176,0.03547978401184082,-0.0002085348533000797,0.11444664001464844,0.14679692685604095,-0.054867833852767944,-0.010895217768847942,0.07490860670804977,0.058039590716362,0.06002308428287506,0.17037518322467804,-0.1336919665336609,0.1327962428331375,-0.19042037427425385,