[[0.0675710141658783],[0.1173892691731453],[-0.060112662613391876],[0.005628078710287809],[-0.10710819810628891],[0.05368143692612648],[0.07309721410274506],[-0.027421467006206512],[-0.045253023505210876],[-0.03688981011509895],[-0.015438543632626534],[0.08307699859142303],[0.020496688783168793],[-0.05884285643696785],[0.027323486283421516],[0.018648141995072365],[0.016032028943300247],[-0.012815742753446102],[0.05927698686718941],[0.026214856654405594],[-0.02717454731464386],[0.0034909886308014393],[0.005467141047120094],[0.043796345591545105],[0.023553485050797462],[-0.08865034580230713],[0.05082742124795914],[0.017151420935988426],[-0.12951332330703735],[-0.02639176696538925],[0.05971892178058624],[-0.0035091193858534098],[-0.05517815798521042],[0.03923319652676582],[-0.03352084755897522],[-0.0008681011386215687],[0.049605172127485275],[0.16102643311023712],[0.004285438917577267],[-0.06948132067918777],[0.013635917566716671],[0.01782376877963543],[-0.01915414072573185],[0.0531902052462101],[-0.11754611879587173],[-0.0009062226163223386],[-0.01715392805635929],[0.17086389660835266],[-0.007563947234302759],[-0.09290364384651184],[-0.04153793677687645],[-0.050879910588264465],[0.046243928372859955],[0.035992950201034546],[-0.11959906667470932],[-0.08497515320777893],[-0.020364774391055107],[0.024478429928421974],[0.014234219677746296],[-0.13776269555091858],[-0.11226880550384521],[0.11388089507818222],[-0.021141154691576958],[0.010835590772330761],[-0.02006399631500244],[-0.011877861805260181],[-0.02742120437324047],[-0.0946647971868515],[0.06609804183244705],[0.052085358649492264],[0.03769690543413162],[0.014127749018371105],[-0.09420204162597656],[-0.05609185993671417],[0.08700159192085266],[-0.08545969426631927],[-0.013676595874130726],[-0.1339559406042099],[-0.05157849192619324],[0.0794667974114418],[0.06267429888248444],[-0.008452347479760647],[0.014227951876819134],[0.05140276625752449],[-0.01159270666539669],[0.009283294901251793],[-0.011598735116422176],[0.07049255818128586],[-0.02018030919134617],[-0.10167636722326279],[-0.06656376272439957],[-0.07240013033151627],[0.14615081250667572],[-0.09255916625261307],[-0.09242786467075348],[0.012436974793672562],[-0.04233810305595398],[-0.005749036092311144],[-0.03325721248984337],[-0.016886724159121513],[-0.031968116760253906],[0.08988793939352036],[-0.05275505408644676],[-0.07084380835294724],[-0.009274325333535671],[-0.03802434355020523],[0.02787722647190094],[-0.006478716619312763],[-0.05549690127372742],[0.05877232924103737],[-0.02844865806400776],[-0.11020961403846741],[-0.00934142991900444],[0.02460821345448494],[-0.04291132837533951],[-0.07689621299505234],[-0.11589612066745758],[-0.050318051129579544],[-0.07754404097795486],[0.047533728182315826],[-0.046850819140672684],[-0.11177089810371399],[-0.03395356982946396],[0.01059021707624197],[-0.013848574832081795],[0.11677715927362442],[0.024962501600384712],[-0.014172586612403393],[-0.03417981415987015],[0.02333998680114746],[0.024152152240276337],[0.05975634232163429],[-0.00832489226013422],[0.04269561171531677],[-0.07432689517736435],[-0.050383999943733215],[0.10145897418260574],[0.013410895131528378],[-0.00005328653787728399],[-0.050525352358818054],[0.011139114387333393],[-0.03854435682296753],[0.007012175861746073],[0.008344520814716816],[-0.09049069136381149],[-0.08159356564283371],[0.09813299030065536],[-0.049690548330545425],[0.023394012823700905],[-0.01390380971133709],[0.0585179328918457],[0.033740442246198654],[-0.07821669429540634],[0.030230805277824402],[0.040081337094306946],[-0.01765506900846958],[-0.00036474052467383444],[0.08261425793170929],[-0.040732190012931824],[-0.1292070746421814],[0.05591820552945137],[-0.04381847381591797],[0.04347449168562889],[0.040752261877059937],[-0.012968732044100761],[-0.04546304792165756],[0.06072128936648369],[-0.027639297768473625],[-0.11769416928291321],[0.1007959172129631],[-0.033325258642435074],[-0.0071023330092430115],[-0.014401130378246307],[-0.03898638114333153],[-0.049798499792814255],[-0.023356609046459198],[0.004095091018825769],[-0.06764727830886841],[0.003907506354153156],[0.01225898414850235],[0.027055123820900917],[0.14210431277751923],[-0.04336259886622429],[-0.024477558210492134],[-0.008256539702415466],[-0.02648589201271534],[-0.015474219806492329],[-0.062219467014074326],[0.03209000080823898],[0.05976663529872894],[-0.016317809000611305],[-0.011277464218437672],[0.058995287865400314],[-0.039763838052749634],[0.04480778053402901],[-0.08284130692481995],[0.11398551613092422],[0.03144584596157074],[-0.06450189650058746],[0.014057823456823826],[0.016070958226919174],[-0.023436782881617546],[-0.006311533972620964],[-0.10108251124620438],[-0.020156128332018852],[0.012686315923929214],[0.02420736849308014],[-0.013205436989665031],[0.061227548867464066],[-0.07117697596549988],[-0.05105523765087128],[-0.08946318179368973],[-0.05190606415271759],[-0.048578452318906784],[0.07137404382228851],[0.07432400435209274],[0.06612018495798111],[-0.09302466362714767],[-0.07787399739027023],[-0.04331345111131668],[-0.03384430706501007],[0.041306059807538986],[-0.06680168956518173],[-0.023764220997691154],[-0.00392275070771575],[0.014557757414877415],[-0.03814303129911423],[-0.07907293736934662],[0.05637628212571144],[0.010630875825881958],[-0.0025842837058007717],[0.029321201145648956],[0.09012942761182785],[-0.014504656195640564],[0.07930397242307663],[0.0996035560965538],[-0.009996684268116951],[0.05089384317398071],[0.06257505714893341],[0.046111587435007095],[0.009098278358578682],[-0.06164688616991043],[0.005717233754694462],[0.008925845846533775],[-0.06043411046266556],[-0.06247054040431976],[-0.020607443526387215],[0.047805432230234146],[-0.05149699002504349],[-0.033439867198467255],[-0.053652990609407425],[-0.050496261566877365],[-0.02300075627863407],[0.0106190275400877],[0.04469997063279152],[0.023454805836081505],[-0.024811329320073128],[0.10593259334564209],[0.05827376991510391],[-0.13922876119613647],[-0.023736780509352684],[-0.06711440533399582],[-0.05950610712170601],[-0.08205321431159973],[0.0735139325261116],[-0.011805840767920017],[-0.11280398815870285],[-0.0584784559905529],[0.10251829773187637],[-0.07972969114780426],[-0.1959354281425476],[0.040901605039834976],[-0.06897628307342529],[-0.05417962372303009],[-0.007033597212284803],[-0.11868690699338913],[0.05366912856698036],[0.06646398454904556],[-0.00969500932842493],[-0.006187060847878456],[0.01263489667326212],[-0.0032925009727478027],[-0.0037238867953419685],[-0.07535602897405624],[-0.1781676560640335],[-0.029637396335601807],[-0.03474415838718414],[-0.03125360608100891],[-0.08401627838611603],[0.073005810379982],[-0.020597368478775024],[0.05392572283744812],[-0.06449585407972336],[-0.01655406691133976],[0.07716172933578491],[0.029391052201390266],[-0.031161755323410034],[-0.02657727524638176],[0.06559748202562332],[-0.025801094248890877],[-0.0029266204219311476],[0.02594180777668953],[-0.11348648369312286],[-0.04734882712364197],[-0.028840044513344765],[-0.06007334589958191],[-0.027711760252714157],[0.13088451325893402],[-0.09630970656871796],[0.04540889337658882],[-0.02053830586373806],[0.05568752810359001],[0.0834006667137146],[0.017374202609062195],[0.06335002183914185],[0.046098604798316956],[-0.02371501363813877],[-0.08765554428100586],[-0.05477557331323624],[0.037576302886009216],[-0.009191217832267284],[-0.06097713112831116],[-0.07605022192001343],[-0.14889253675937653],[0.02312953770160675],[-0.07915084064006805],[0.06105050817131996],[0.10042966157197952],[-0.07821552455425262],[-0.012678978964686394],[-0.17647989094257355],[0.1060270220041275],[0.042872052639722824],[0.010933900251984596],[0.02273750677704811],[0.03983094543218613],[0.12142651528120041],[-0.012356988154351711],[-0.02791587822139263],[0.15401512384414673],[0.061818934977054596],[-0.045059096068143845],[-0.05677840858697891],[-0.01525805052369833],[-0.04688427969813347],[0.010885084979236126],[-0.014483388513326645],[0.09301141649484634],[0.03542768582701683],[-0.05750264227390289],[-0.0070044295862317085],[0.01439877413213253],[-0.033246852457523346],[-0.034001804888248444],[-0.14231790602207184],[0.007634526118636131],[0.024615108966827393],[0.01570388861000538],[-0.0689786747097969],[-0.028244122862815857],[0.0708753913640976],[-0.08888201415538788],[0.10717550665140152],[0.059375692158937454],[0.059999458491802216],[-0.014535409398376942],[0.04416259005665779],[-0.0569920651614666],[-0.009427197277545929],[-0.0326644666492939],[-0.023431306704878807],[-0.015484847128391266],[-0.05720434710383415],[-0.046030621975660324],[-0.03893662989139557],[-0.01130926888436079],[0.05811173841357231],[-0.07836480438709259],[-0.02970987558364868],[-0.0723031535744667],[-0.007370766252279282],[0.07865015417337418],[0.06849534064531326],[-0.039621420204639435],[0.04792012274265289],[0.026915492489933968],[-0.06391854584217072],[0.07271499931812286],[0.04811077192425728],[0.051914460957050323],[0.05410212278366089],[-0.009423750452697277],[-0.07040246576070786],[0.0018348817247897387],[-0.09588216245174408],[-0.0445554293692112],[-0.03442632406949997],[-0.04454367980360985],[0.048327937722206116],[0.1647525429725647],[-0.013647486455738544],[-0.027146609500050545],[-0.008879441767930984],[0.010114421136677265],[0.00350191886536777],[0.002517127664759755],[0.1128169521689415],[0.032994650304317474],[0.09474889189004898],[0.13274674117565155],[0.035370342433452606],[0.0052492450922727585],[-0.040655702352523804],[0.04036683216691017],[0.009781726635992527],[-0.08960152417421341],[0.08498537540435791],[0.028306633234024048],[0.023187557235360146],[-0.09102877974510193],[-0.10750610381364822],[-0.018631495535373688],[-0.003300062147900462],[-0.15188613533973694],[0.07164755463600159],[-0.03697946295142174],[0.014774506911635399],[0.03765060380101204],[-0.22744205594062805],[0.013454054482281208],[-0.0404713936150074],[0.08301953226327896],[-0.049631617963314056],[0.04199757054448128],[0.10845714807510376],[0.014969214797019958],[-0.03688526898622513],[0.027581557631492615],[-0.00028366752667352557],[0.02958090603351593],[-0.04047258198261261],[-0.06257429718971252],[-0.0019261473789811134],[-0.08458889275789261],[-0.03662741929292679],[0.003145934082567692],[-0.028241876512765884],[0.10277446359395981],[-0.031155848875641823],[-0.04236059635877609],[0.03162284940481186],[-0.13539142906665802],[-0.1970999538898468],[-0.0493316575884819],[-0.029280690476298332],[0.03082473762333393],[-0.11674650758504868],[-0.028907066211104393],[-0.07797833532094955],[0.0119745759293437],[-0.06808359920978546],[0.1243128851056099],[-0.01690320298075676],[-0.010061291977763176],[0.01167378667742014],[0.03888551890850067],[-0.07873201370239258],[0.11498060077428818],[-0.013423596508800983],[0.03913323953747749],[-0.03764592856168747],[0.033160410821437836],[-0.0018489217618480325],[-0.019675737246870995],[0.09463769197463989],[0.0604114904999733],[0.18609295785427094],[0.06827864795923233],[0.027899157255887985],[-0.028982998803257942],[-0.07108231633901596],[0.04510539770126343],[-0.07935281097888947],[0.13316534459590912],[-0.05412498861551285],[-0.05790530517697334],[0.015649762004613876],[-0.028778281062841415],[0.0999065488576889],[0.0560058131814003],[0.016024762764573097],[0.07225726544857025],[-0.004352704621851444],[-0.07591944932937622],[-0.0619284063577652],[0.05485072731971741],[0.08081061393022537],[-0.03774671256542206],[-0.05968707054853439],[0.010271651670336723],[-0.07774193584918976],[-0.040513209998607635],[-0.03970588371157646],[0.0020553641952574253],[-0.045049719512462616],[-0.0828155130147934],[0.008827319368720055],[0.04431893676519394],[0.07632772624492645],[0.04794643446803093],[-0.17642509937286377],[0.06534943729639053]]