[[0.1243460550904274],[0.0987795814871788],[-0.12902787327766418],[-0.025148959830403328],[0.03810763359069824],[-0.0012860576389357448],[-0.12473401427268982],[0.022191006690263748],[-0.07295288145542145],[0.06975115090608597],[0.056511424481868744],[0.0573384128510952],[0.11271356791257858],[0.1396419107913971],[0.17330610752105713],[-0.20948384702205658],[-0.027947239577770233],[0.015562721528112888],[-0.12976793944835663],[-0.16252467036247253],[-0.1615496128797531],[-0.14772871136665344],[-0.05401592329144478],[-0.045117467641830444],[-0.056114088743925095],[0.08155184239149094],[-0.05040782317519188],[0.06293688714504242],[0.0000025629472020227695],[-0.11139947175979614],[-0.029248489066958427],[0.060325007885694504],[-0.0573887974023819],[-0.18265701830387115],[0.01298031397163868],[-0.137607604265213],[0.05141131952404976],[0.17151114344596863],[-0.12102100998163223],[0.03283196687698364],[0.21935684978961945],[-0.06778912246227264],[-0.04098762199282646],[0.010449028573930264],[-0.013840594328939915],[-0.01091688871383667],[-0.05680619925260544],[-0.008022138848900795],[-0.09320981800556183],[-0.010767052881419659],[-0.07189466804265976],[0.02731296606361866],[-0.052414219826459885],[-0.22225578129291534],[0.01510588824748993],[0.048974115401506424],[-0.10436930507421494],[0.2366212159395218],[-0.22750450670719147],[-0.05314844474196434],[-0.044967569410800934],[-0.07629846036434174],[0.054287053644657135],[0.07078896462917328],[0.11710107326507568],[-0.08392708748579025],[0.1599992960691452],[0.1975671797990799],[0.05683136731386185],[-0.10271605104207993],[-0.021734420210123062],[-0.11910359561443329],[0.018361767753958702],[-0.17366427183151245],[0.052241310477256775],[-0.06269846856594086],[0.006086846813559532],[-0.03360140696167946],[0.1339002400636673],[0.17332632839679718],[0.200893834233284],[-0.04981285333633423],[0.04872274026274681],[0.01402965933084488],[-0.12410744279623032],[-0.007406286429613829],[-0.08319022506475449],[-0.06469026207923889],[0.1132517009973526],[0.11415853351354599],[-0.015019098296761513],[-0.09705573320388794],[0.03951307386159897],[-0.18733586370944977],[-0.017454586923122406],[-0.19661368429660797],[0.14370734989643097],[0.20232006907463074],[0.08123636990785599],[-0.15075747668743134],[0.007258381228893995],[-0.14871804416179657],[-0.12541331350803375],[-0.16982856392860413],[0.0042623537592589855],[0.015423718839883804],[-0.04073215276002884],[-0.12751683592796326],[-0.13856452703475952],[-0.13829699158668518],[-0.05282493680715561],[-0.03887939453125],[-0.005645365454256535],[-0.06057586893439293],[-0.05980166792869568],[-0.08076277375221252],[0.11664176732301712],[0.09236082434654236],[0.21242527663707733],[-0.0005108800251036882],[0.04089372977614403],[0.1364583969116211],[-0.05062148720026016],[-0.059429701417684555],[0.14398984611034393],[-0.0933259129524231],[0.00839303806424141],[-0.10223811119794846],[-0.057736512273550034],[-0.18456445634365082],[-0.0900098904967308],[0.0026820513885468245],[-0.12113014608621597],[-0.02098352275788784],[0.006393323186784983],[-0.06912776827812195],[0.20594669878482819],[-0.15086157619953156],[-0.1619473397731781],[0.11241432279348373],[0.09383915364742279],[-0.11746494472026825],[0.007021403405815363],[0.061032023280858994],[0.004861258435994387],[0.045232344418764114],[-0.07193940132856369],[-0.10012493282556534],[-0.022587032988667488],[0.11068807542324066],[-0.054295893758535385],[-0.023234589025378227],[0.010225147008895874],[-0.04291982203722],[0.015727857127785683],[-0.09642097353935242],[0.018515294417738914],[-0.0029650286305695772],[0.13088510930538177],[0.016709735617041588],[-0.14125017821788788],[-0.15054644644260406],[0.026279481127858162],[0.07838869094848633],[-0.012990683317184448],[-0.01234847865998745],[-0.012829731218516827],[0.12688687443733215],[-0.09443239867687225],[0.11471515148878098],[0.025019846856594086],[0.007508689071983099],[-0.03712226450443268],[0.12305757403373718],[0.0875205397605896],[0.020796174183487892],[0.03844481334090233],[-0.00467718206346035],[0.10790546238422394],[-0.010591396130621433],[0.15921826660633087],[-0.1476232260465622],[-0.07059174031019211],[0.03917916119098663],[-0.03993826359510422],[0.23880116641521454],[-0.047932855784893036],[0.06860216706991196],[-0.011116520501673222],[-0.02389391139149666],[-0.01011663954705],[-0.12104646116495132],[0.056479211896657944],[-0.02762977033853531],[-0.020262043923139572],[0.11847306042909622],[-0.11381740123033524],[-0.08543509989976883],[0.07128240913152695],[0.00041181666892953217],[0.06160471588373184],[0.03266199305653572],[0.030419426038861275],[0.006229916587471962],[-0.024148639291524887],[-0.1345813274383545],[0.2353721410036087],[-0.0517687052488327],[0.013117038644850254],[-0.07264526933431625],[-0.060036055743694305],[-0.11069826036691666],[-0.05556626245379448],[-0.05952984094619751],[0.24083009362220764],[0.020740780979394913],[0.1100422739982605],[-0.0629584789276123],[-0.035311948508024216],[0.037337981164455414],[0.06051340326666832],[-0.10259663313627243],[-0.03572193905711174],[-0.04073300212621689],[-0.012759100645780563],[0.05359970033168793],[-0.013329577632248402],[-0.10865434259176254],[0.21188578009605408],[-0.034992802888154984],[-0.13579469919204712],[-0.1975204348564148],[0.007283487822860479],[-0.11814634501934052],[0.13885729014873505],[-0.17871840298175812],[0.0653233453631401],[0.03973068296909332],[-0.03540334850549698],[0.05295214429497719],[0.024435147643089294],[-0.062273405492305756],[-0.07138385623693466],[0.012225624173879623],[0.13919593393802643],[0.1531621217727661],[0.2660330832004547],[0.0018245988758280873],[-0.20488551259040833],[-0.030336609110236168],[-0.05195234343409538],[0.1056331992149353],[0.09609950333833694],[0.1801546961069107],[-0.22054077684879303],[0.04937371611595154]]