[[-0.008035161532461643],[-0.16713251173496246],[-0.18837548792362213],[-0.15971426665782928],[-0.15891893208026886],[-0.24339507520198822],[0.01807720772922039],[0.18788109719753265],[-0.01918003521859646],[0.0339781828224659],[-0.08247418701648712],[-0.007981640286743641],[-0.15234626829624176],[0.04527503624558449],[-0.03642076253890991],[0.043236419558525085],[0.00011192599049536511],[-0.12342703342437744],[0.06572003662586212],[-0.08536286652088165],[-0.19043631851673126],[-0.08974107354879379],[-0.011848066002130508],[-0.22167859971523285],[0.028603268787264824],[-0.10062593966722488],[-0.1462993621826172],[-0.019873404875397682],[0.13283953070640564],[-0.028111211955547333],[0.1858454942703247],[-0.292403906583786],[0.07149752229452133],[0.08361024409532547],[0.06317053735256195],[-0.23291797935962677],[-0.3183106780052185],[-0.11858022212982178],[0.05341176316142082],[-0.06703999638557434],[-0.029966609552502632],[-0.28122901916503906],[0.10667631775140762],[0.11168096214532852],[-0.11625318974256516],[0.07630141824483871],[0.022371189668774605],[0.17024019360542297],[-0.19704192876815796],[0.060678597539663315],[-0.23980118334293365],[-0.06168322265148163],[-0.028304537758231163],[-0.12669256329536438],[-0.053952887654304504],[-0.08296384662389755],[0.17341996729373932],[-0.040146902203559875],[-0.13982334733009338],[0.11645776033401489],[-0.30103492736816406],[-0.07858870178461075],[0.07572519034147263],[-0.2361588180065155],[-0.1294793039560318],[-0.17369350790977478],[0.09825904667377472],[-0.004991283640265465],[-0.05959858000278473],[-0.048528093844652176],[0.09609580039978027],[0.09356975555419922],[-0.13964936137199402],[-0.16054008901119232],[-0.04205184429883957],[-0.08212478458881378],[0.0394003726541996],[0.11571811884641647],[0.1010739728808403],[-0.207200825214386],[0.08280257135629654],[0.05631561949849129],[-0.14140695333480835],[0.014225653372704983],[0.06371089816093445],[-0.21879199147224426],[-0.09606090933084488],[-0.18238164484500885],[-0.08628696948289871],[0.11626125872135162],[0.06721058487892151],[-0.10362749546766281],[-0.04454109072685242],[0.19015464186668396],[-0.0217589158564806],[-0.1330697238445282],[0.07797607034444809],[-0.19959484040737152],[0.05174414813518524],[-0.09359722584486008],[-0.09730610996484756],[-0.03729977831244469],[0.04516681656241417],[-0.2405131459236145],[0.08594372868537903],[0.10056819021701813],[-0.024085290729999542],[-0.09558073431253433],[-0.08070625364780426],[0.09513001143932343],[-0.05397404730319977],[-0.042897120118141174],[-0.12612088024616241],[-0.0717926025390625],[-0.1519366204738617],[-0.2880639135837555],[-0.045962169766426086],[-0.009649560786783695],[0.1680082529783249],[0.02333717606961727],[0.05441409349441528],[-0.1089775338768959],[-0.13363109529018402],[0.18610528111457825],[-0.13370248675346375],[-0.17935511469841003],[-0.04737614095211029],[-0.15928910672664642]]