[[-0.13594068586826324],[-0.007844175212085247],[-0.006103452295064926],[0.16002503037452698],[-0.31903159618377686],[-0.013879187405109406],[0.1744382530450821],[-0.010035685263574123],[0.17985095083713531],[-0.12309777736663818],[0.06651079654693604],[0.05932842195034027],[-0.21884939074516296],[0.0007892118883319199],[-0.14995478093624115],[0.2576679587364197],[-0.11900234967470169],[-0.03486444056034088],[0.05695066601037979],[-0.03488238528370857],[0.03813723102211952],[0.02614368125796318],[-0.05978010594844818],[0.07730317860841751],[-0.2592799961566925],[-0.0542701818048954],[-0.03136921674013138],[0.017193790525197983],[-0.011580721475183964],[-0.09763708710670471],[-0.11443368345499039],[0.041330110281705856],[0.0576728917658329],[-0.010252684354782104],[0.06218427047133446],[-0.24693772196769714],[-0.19933968782424927],[-0.040120679885149],[0.059658825397491455],[0.06260022521018982],[0.05653778091073036],[-0.02595297433435917],[0.1349184662103653],[0.10230258107185364],[-0.32375606894493103],[0.11112469434738159],[-0.05984879657626152],[-0.0338817797601223],[0.07877396792173386],[0.03438205271959305],[-0.06456407904624939],[-0.09713968634605408],[-0.02580997720360756],[0.049936894327402115],[-0.08873149752616882],[-0.12760376930236816],[-0.023203080520033836],[-0.06118544563651085],[-0.18825416266918182],[0.17509296536445618],[-0.06885512173175812],[-0.006660658400505781],[0.12901639938354492],[0.1795569658279419],[-0.15125522017478943],[-0.0010652487399056554],[-0.12062396854162216],[-0.0581965297460556],[-0.025181053206324577],[-0.010950366035103798],[-0.12752994894981384],[-0.12065260857343674],[-0.012571390718221664],[0.10116872936487198],[0.08106521517038345],[-0.1559268981218338],[0.13156498968601227],[0.11775682121515274],[-0.028237825259566307],[-0.16098065674304962],[-0.23306763172149658],[-0.003049917286261916],[0.03794468566775322],[0.0018571325344964862],[-0.0511913038790226],[0.075994111597538],[0.058893270790576935],[-0.007272908464074135],[0.08955202996730804],[-0.09319061785936356],[-0.11642825603485107],[-0.02025754377245903],[0.2324119359254837],[-0.11889077723026276],[0.19390468299388885],[-0.032776739448308945],[-0.04665294289588928],[0.08498459309339523],[0.04448721557855606],[0.22356370091438293],[0.24946759641170502],[0.01020513754338026],[-0.05821096897125244],[0.15858396887779236],[0.1981549710035324],[0.06460786610841751],[-0.39791181683540344],[0.09607701003551483],[0.07395724207162857],[-0.07481814920902252],[0.08373366296291351],[0.13333441317081451],[0.0626491829752922],[0.07510090619325638],[0.20109498500823975],[-0.16662026941776276],[-0.2202768325805664],[-0.03511356934905052],[0.21159204840660095],[0.014755968935787678],[-0.1483042985200882],[0.008556383661925793],[-0.14195893704891205],[0.1502428501844406],[-0.11873549968004227],[0.05136393755674362],[-0.057313982397317886],[0.07778750360012054]]