[[[0.11952546238899231,-0.22274211049079895,-0.06375913321971893,-0.16852012276649475,-0.018915275111794472,0.03428363800048828,-0.006398450583219528,0.03424237668514252,-0.08126772940158844,0.036145832389593124,0.030355338007211685,0.13893607258796692,0.05914583429694176,0.15861298143863678,-0.05641460791230202,0.07739464938640594,-0.006940253544598818,-0.16526322066783905,0.06564721465110779,-0.1120167151093483,0.0381096787750721,0.08323065936565399,0.13443626463413239,-0.04387278109788895,0.2895730137825012,0.08168180286884308,0.061412133276462555,-0.08422230184078217,0.04027879983186722,-0.003442761255428195,0.10362163931131363,0.10148732364177704,-0.04934753477573395,-0.014005376026034355,0.13220591843128204,0.1908694952726364,-0.17020098865032196,-0.04380257427692413,0.10266273468732834,-0.04302668944001198,0.1272978037595749,0.16100946068763733,-0.047273699194192886,0.0973653495311737,0.11955796927213669,0.06989537924528122,0.02296786569058895,0.16807089745998383,0.06471507996320724,-0.010649433359503746,0.07904539257287979,0.14455793797969818,0.005320386495441198,0.07128644734621048,-0.19060614705085754,0.08066663891077042,-0.03677145391702652,0.03143783286213875,0.1361016184091568,-0.15591886639595032,0.019129186868667603,-0.09582119435071945,-0.14827367663383484,-0.019057931378483772,-0.09332482516765594,0.07744243741035461,0.22014696896076202,-0.07397787272930145,0.1645384281873703,-0.049913328140974045,-0.18393641710281372,-0.2104635387659073,-0.03894539177417755,0.01536271907389164,-0.0028583877719938755,0.001061204238794744,0.06534859538078308,-0.13378401100635529,-0.06759748607873917,-0.2827692925930023,-0.13645139336585999,-0.006060141138732433,-0.1513282060623169,0.10886330902576447,-0.09315989166498184,-0.1859273612499237,0.06385011970996857,0.05745093151926994,0.046694014221429825,-0.10488434135913849,0.08226091414690018,0.024356050416827202,-0.09390262514352798,0.03941423445940018,-0.02648642472922802,0.0722287967801094,0.027379818260669708,-0.14138001203536987,0.0349515937268734,0.006929012946784496,0.05726398155093193,-0.07814597338438034,-0.06954709440469742,0.006630280055105686,-0.00458209915086627,-0.02078482136130333,0.10670102387666702,0.06949302554130554,-0.02566113881766796,-0.06897961348295212,0.027272904291749,0.02009948156774044,0.05752838775515556,-0.10872545838356018,0.11328515410423279,0.14980915188789368,-0.030776647850871086,-0.09460711479187012,-0.08902590721845627,-0.027402203530073166,0.04744958132505417,-0.1726454496383667,-0.056491248309612274,-0.06945735961198807,0.31313392519950867,0.05942370742559433,-0.05579789727926254,0.12223125249147415,-0.05234189331531525,0.07031909376382828,-0.1393047273159027,-0.08238596469163895,-0.07529718428850174,0.02765408344566822,0.3356068432331085,0.024438511580228806,0.06735612452030182,0.035977669060230255,0.07678521424531937],[0.08637414127588272,-0.10786731541156769,-0.06443337351083755,-0.020145196467638016,-0.04960810765624046,-0.24358807504177094,-0.0862204059958458,0.11413977295160294,0.0020998744294047356,-0.03594914451241493,0.18543224036693573,0.019251493737101555,0.09002841264009476,-0.06242840364575386,0.28788477182388306,-0.11931625008583069,0.11232739686965942,-0.1515357941389084,-0.10973653197288513,0.14209777116775513,0.20094549655914307,-0.139460489153862,0.15893371403217316,0.09687910228967667,-0.09527195990085602,-0.048295874148607254,-0.17828543484210968,-0.11997373402118683,0.0024838242679834366,-0.07903802394866943,-0.14341625571250916,0.0904252901673317,-0.023755325004458427,0.24782414734363556,0.10198057442903519,-0.0862748771905899,0.16431443393230438,0.004039518069475889,-0.007450583856552839,0.011510487645864487,-0.09451005607843399,-0.027839671820402145,-0.034461624920368195,0.12323477119207382,-0.08160653710365295,-0.01230914518237114,0.09184516966342926,-0.03590733930468559,0.13789577782154083,0.034332964569330215,0.2687006890773773,-0.023347917944192886,0.0408688522875309,0.03938750922679901,0.139208123087883,-0.16099140048027039,-0.004375290125608444,0.09156204760074615,0.17955413460731506,-0.18380379676818848,0.05447672680020332,-0.1002006009221077,0.24892325699329376,-0.09854286164045334,-0.12017996609210968,0.07830163091421127,0.04743612930178642,-0.20964315533638,-0.20914652943611145,-0.042874690145254135,-0.1773286908864975,-0.18681751191616058,0.2177020013332367,-0.21799321472644806,-0.22871136665344238,-0.04177511855959892,-0.1348322033882141,-0.040579840540885925,0.12095031142234802,0.029959416016936302,-0.18225812911987305,-0.12540142238140106,-0.2497686743736267,-0.03275854140520096,0.05304071679711342,-0.012712490744888783,0.027457604184746742,0.03721766546368599,-0.16259647905826569,0.00714814243838191,0.14915397763252258,-0.13110610842704773,-0.11956139653921127,-0.21865631639957428,0.08345207571983337,-0.051439184695482254,0.09076041728258133,-0.09584369510412216,0.018193669617176056,-0.03228763863444328,-0.07911244034767151,0.002702130237594247,-0.16776901483535767,-0.005234928335994482,0.009649296291172504,0.11260482668876648,0.04716382548213005,0.0781371146440506,-0.004727677907794714,0.11448289453983307,-0.10805471241474152,0.02014840953052044,-0.001557706156745553,0.1898626983165741,0.029156943783164024,-0.003871493972837925,-0.019588297232985497,0.07670218497514725,0.05998431518673897,-0.2122003138065338,0.11733362823724747,-0.09242802113294601,0.16481603682041168,0.15100610256195068,0.1430361270904541,0.08212286978960037,0.12036731094121933,-0.07724420726299286,0.03486728295683861,0.23694150149822235,0.03705902770161629,0.13357962667942047,0.001367456279695034,-0.12400386482477188,0.07648754864931107,0.09802334755659103,0.005000604782253504,0.028494665399193764,-0.00907144509255886],[0.02623578906059265,0.022792093455791473,-0.06221548095345497,0.0020649791695177555,0.167110413312912,0.058056946843862534,-0.0681181401014328,0.011027541011571884,0.07615972310304642,0.054426778107881546,-0.10872864723205566,-0.1201108992099762,-0.06849082559347153,-0.13400457799434662,-0.14169707894325256,-0.15419387817382812,-0.060479097068309784,0.11102375388145447,-0.11411842703819275,-0.1220506951212883,0.07959801703691483,-0.09840612858533859,0.2726260721683502,0.2064729630947113,-0.10741743445396423,0.1665377914905548,0.03236857429146767,-0.1291794776916504,0.05723755806684494,0.011710675433278084,-0.16382981836795807,-0.22982923686504364,-0.04057886824011803,0.1853797733783722,0.0279444120824337,-0.07431387901306152,-0.08410825580358505,-0.20667217671871185,0.03901202976703644,0.12249820679426193,-0.15003596246242523,-0.29268085956573486,0.10370496660470963,-0.28095999360084534,-0.19500832259655,-0.01001579500734806,0.03675669804215431,0.15631040930747986,0.057028356939554214,-0.0024167385417968035,-0.2096530944108963,-0.008424317464232445,-0.07720968872308731,0.09128450602293015,-0.05412568151950836,0.044597551226615906,-0.016536809504032135,-0.08620759099721909,-0.20631824433803558,-0.39095163345336914,-0.009049938060343266,-0.11250057816505432,-0.05918685719370842,0.040484800934791565,-0.028177691623568535,-0.07385352998971939,-0.17069123685359955,-0.03850533440709114,-0.1550128161907196,-0.11370282620191574,0.16693587601184845,-0.22320891916751862,0.0009656468173488975,-0.0738045871257782,0.026111697778105736,0.04588509351015091,-0.14380209147930145,-0.2541131377220154,0.04559594392776489,0.0055733066983520985,-0.10814511775970459,-0.11752746999263763,-0.006392108742147684,0.10243864357471466,0.04958220571279526,0.05356982350349426,-0.0589430145919323,0.1911708265542984,0.03179674223065376,0.12605564296245575,-0.04044139385223389,0.0855301171541214,0.030536971986293793,0.14129897952079773,0.12997369468212128,0.030591735616326332,0.06912150979042053,0.03326299786567688,-0.2685515582561493,-0.09743332862854004,0.13942132890224457,0.06552296876907349,0.015131973661482334,0.06563271582126617,0.0003775263612624258,0.0205336082726717,0.018276380375027657,-0.0975184291601181,0.010362450033426285,-0.13693946599960327,-0.20248088240623474,-0.02954154647886753,0.0866234228014946,-0.03830834850668907,-0.009248180314898491,-0.3477456867694855,-0.053419068455696106,0.013453511521220207,-0.07493311911821365,-0.1592523753643036,0.05548078566789627,0.01707739382982254,0.08445576578378677,-0.13230441510677338,0.1790500283241272,-0.015290596522390842,-0.1623765081167221,0.03361445292830467,-0.041031911969184875,0.054209478199481964,0.2776540517807007,-0.2656669318675995,0.08154704421758652,-0.04111289232969284,-0.07457984983921051,-0.025801531970500946,-0.044640492647886276,-0.11482255160808563,-0.1531202644109726],[-0.10212397575378418,0.25834548473358154,0.14915035665035248,0.08618898689746857,-0.11401566118001938,0.08349378407001495,-0.057632651180028915,0.0898522436618805,-0.07886360585689545,-0.08329802751541138,0.07030098885297775,0.011972888372838497,0.06154820695519447,0.04408305138349533,0.1808081567287445,0.06243967264890671,-0.26812830567359924,0.00218959036283195,-0.09596206247806549,0.006817909423261881,0.06620433926582336,-0.1070038378238678,-0.1342972368001938,0.003303669625893235,-0.07830819487571716,-0.07627470791339874,0.026067856699228287,-0.16121718287467957,0.038276731967926025,0.02694675326347351,-0.15638788044452667,0.12481068074703217,-0.08269936591386795,-0.032682135701179504,-0.08231467753648758,-0.05828333646059036,0.07668577879667282,-0.09450908750295639,-0.08890842646360397,-0.1198643296957016,0.04129648581147194,-0.08987308293581009,0.04535496607422829,0.25059112906455994,-0.003508906112983823,-0.07531847059726715,-0.0007264401065185666,0.06377086043357849,0.08163471519947052,-0.10541476309299469,-0.1571737378835678,-0.06776902824640274,-0.17154689133167267,0.0888558104634285,-0.10663106292486191,-0.1015748381614685,0.032788634300231934,-0.012393536977469921,-0.011655672453343868,0.11159228533506393,0.06076657027006149,0.00003937670771847479,-0.2286035269498825,0.04715767130255699,-0.05393661931157112,-0.19772757589817047,0.037139955908060074,0.11110072582960129,0.1434578001499176,0.02146925963461399,-0.06260567158460617,0.18706540763378143,-0.12250501662492752,-0.10900014638900757,0.10462667047977448,0.15325388312339783,-0.03951757028698921,0.10146597027778625,-0.13068248331546783,0.2471015453338623,-0.11225008219480515,-0.04161639139056206,0.12082906812429428,0.0973697081208229,-0.07741965353488922,-0.18224984407424927,0.06310586631298065,-0.013707202859222889,-0.16570813953876495,0.11502545326948166,0.13054262101650238,-0.0028480971232056618,-0.3246828615665436,-0.21716485917568207,0.13886773586273193,-0.15425989031791687,0.08768957853317261,0.025739310309290886,0.031498540192842484,-0.04866873100399971,-0.03183838725090027,0.010147985070943832,-0.11170449107885361,-0.18394532799720764,-0.03216996043920517,0.22010189294815063,-0.10922468453645706,0.13482370972633362,0.14019902050495148,-0.051039766520261765,0.14195990562438965,-0.1365681290626526,-0.14427073299884796,0.0887146070599556,0.13108302652835846,-0.23074926435947418,-0.11097533255815506,0.18853136897087097,-0.22748267650604248,0.03186887502670288,0.04404076933860779,-0.052291277796030045,-0.13583090901374817,-0.06426829099655151,0.05094471946358681,0.07609037309885025,0.06515348702669144,-0.032826393842697144,-0.029213136062026024,-0.1627010554075241,-0.10571439564228058,-0.036328498274087906,0.03977702930569649,-0.148463174700737,-0.01549399085342884,0.04674258828163147,-0.1763738989830017,-0.13173434138298035,-0.028115512803196907],[-0.10746072232723236,-0.06107990816235542,0.08320499956607819,-0.09214814007282257,-0.02849506586790085,-0.09400101751089096,0.0056496914476156235,-0.05304281413555145,-0.158804789185524,0.17219066619873047,0.05583078786730766,-0.14013423025608063,-0.1836584508419037,-0.028519578278064728,0.26643726229667664,0.04288896918296814,0.0978458821773529,-0.019804751500487328,0.2018883377313614,-0.1504679173231125,0.07517385482788086,-0.06362821161746979,-0.1984182596206665,0.11286510527133942,-0.059464696794748306,0.0737248882651329,-0.01374939363449812,0.2267865240573883,-0.06986118853092194,0.13565468788146973,0.10011744499206543,0.009460577741265297,0.2605697512626648,-0.12657077610492706,-0.15412673354148865,-0.025278307497501373,0.017966944724321365,-0.17519094049930573,0.22697797417640686,0.22097614407539368,0.04507424309849739,-0.17398720979690552,0.09000273048877716,-0.0883031040430069,0.1827695667743683,-0.026502320542931557,0.1072491854429245,0.05712547525763512,0.10254822671413422,0.06471538543701172,0.02079111896455288,0.2292785793542862,-0.04176584631204605,-0.22393041849136353,0.08315776288509369,0.1632373332977295,0.10975795239210129,-0.06350933760404587,0.06342323869466782,-0.010965943336486816,-0.08506764471530914,0.005074451211839914,0.10274451225996017,0.13142262399196625,0.11884617805480957,-0.17197154462337494,-0.04031073674559593,0.07290047407150269,0.15265469253063202,0.06728138029575348,-0.12919647991657257,0.08767842501401901,-0.06097133085131645,0.09620486199855804,-0.122063048183918,-0.15765123069286346,0.009265796281397343,0.08536562323570251,-0.062351010739803314,0.08036971837282181,-0.039847470819950104,0.03342237323522568,-0.04284551367163658,0.1600755900144577,-0.024643665179610252,-0.09374340623617172,-0.19048455357551575,0.16937491297721863,-0.14716200530529022,-0.001886656042188406,0.055762577801942825,-0.024942919611930847,0.22163733839988708,-0.09325564652681351,-0.018608929589390755,0.11040095239877701,0.09901163727045059,0.018024999648332596,-0.08452785760164261,0.11754044890403748,0.001796369324438274,0.18836663663387299,0.19409029185771942,-0.0746639221906662,-0.014234548434615135,-0.09638739377260208,0.14162147045135498,-0.032602325081825256,0.013516216538846493,0.07795985043048859,-0.00028112702420912683,0.02374293841421604,-0.03767947107553482,0.17936135828495026,-0.14401483535766602,-0.10944105684757233,-0.26003676652908325,0.07438355684280396,-0.1715705692768097,0.12416164577007294,-0.018064172938466072,-0.29380401968955994,0.23625178635120392,0.0302460715174675,-0.0343768447637558,0.1920415610074997,0.06467733532190323,0.04802551493048668,-0.020631803199648857,-0.046893972903490067,0.12530267238616943,0.18815754354000092,0.07745055109262466,0.14029836654663086,-0.2540402412414551,0.16489143669605255,0.061759013682603836,-0.12302777171134949,-0.031236916780471802],[-0.18021798133850098,-0.04833135008811951,-0.023324521258473396,-0.004925889894366264,0.017450908198952675,0.09083615243434906,-0.00158586329780519,0.17299431562423706,0.10762490332126617,0.07782898098230362,0.07568271458148956,-0.03577595576643944,0.19391696155071259,0.025870785117149353,-0.007270656060427427,0.13114804029464722,-0.137886181473732,-0.1314377337694168,-0.003409232245758176,-0.059535544365644455,0.013906028121709824,0.07317203283309937,0.030756281688809395,-0.2978348433971405,-0.06544899195432663,0.15736247599124908,0.028735218569636345,0.04788375645875931,-0.10186971724033356,0.12653979659080505,0.07516689598560333,0.029572932049632072,-0.061026375740766525,0.03518962487578392,-0.15924841165542603,0.02289573661983013,-0.1221139132976532,0.11714623123407364,0.22769121825695038,0.054931238293647766,-0.09000705182552338,-0.09694571048021317,-0.12991595268249512,0.026907047256827354,0.1093035638332367,-0.010681184940040112,0.05449158698320389,0.14734695851802826,-0.05537673458456993,0.053136058151721954,-0.05761050432920456,-0.17181634902954102,-0.22376857697963715,-0.03065132163465023,0.08451563864946365,-0.03587799519300461,0.29306191205978394,0.04052523896098137,0.006734256166964769,0.1825539618730545,-0.0628666803240776,0.0656551793217659,-0.017349667847156525,0.028935356065630913,-0.1698828935623169,0.04651268571615219,0.15876862406730652,0.05158650875091553,0.06985505670309067,-0.11032868921756744,-0.08756408840417862,0.0005434647900983691,0.027810944244265556,0.2696112096309662,0.038515396416187286,-0.19737465679645538,-0.1265234500169754,-0.11691655963659286,0.011208528652787209,-0.02549436315894127,-0.0010282554430887103,-0.003880196949467063,-0.13688892126083374,-0.09398005902767181,-0.05108864605426788,-0.12993907928466797,-0.07066660374403,0.06899680197238922,0.02353934943675995,0.16215422749519348,-0.10368971526622772,0.01459306851029396,0.1578049212694168,-0.00013034441508352757,0.29902297258377075,-0.03337240219116211,0.01228411216288805,-0.0012590114492923021,0.0420406237244606,-0.14984656870365143,-0.026712598279118538,0.11418288201093674,-0.06087346747517586,-0.06015710160136223,-0.005747433751821518,0.02338089421391487,0.09586944431066513,0.12875410914421082,0.004482775926589966,0.03852217644453049,-0.06174575164914131,0.027921661734580994,0.0730137750506401,0.03160998225212097,0.0049202037043869495,-0.19024458527565002,0.008122568018734455,-0.1917814463376999,-0.0242707971483469,-0.04194658622145653,0.03653692826628685,0.023547276854515076,-0.13312013447284698,0.12470221519470215,-0.21676599979400635,0.08166743814945221,-0.09500610828399658,-0.07342001050710678,-0.0964161604642868,-0.039242375642061234,-0.16761478781700134,-0.16589584946632385,0.16273540258407593,0.1721504032611847,0.025156637653708458,-0.05420367047190666,0.040195174515247345,-0.10920831561088562,0.1135961189866066],[-0.06076807156205177,-0.07188677787780762,-0.02133718878030777,0.1227187067270279,-0.12887926399707794,-0.20628273487091064,0.1859840601682663,-0.13474446535110474,-0.18085189163684845,0.12394898384809494,-0.2897825539112091,-0.09816164523363113,0.15914131700992584,0.23843657970428467,-0.13320985436439514,0.2665759027004242,0.07399898767471313,0.11178664863109589,-0.03280385583639145,-0.009800232015550137,0.058184146881103516,-0.061333563178777695,-0.0698225125670433,-0.05941547080874443,0.09059417247772217,-0.1901586949825287,-0.046759605407714844,-0.08059369027614594,0.07895796746015549,-0.08539584279060364,0.03789301961660385,0.3280620574951172,-0.11120794713497162,-0.12154192477464676,-0.1290019154548645,-0.05734981596469879,-0.049565546214580536,0.01678502932190895,0.18814201653003693,0.007921905256807804,-0.025927802547812462,-0.10670126974582672,-0.06669820100069046,-0.015097295865416527,0.007025462109595537,-0.017339957877993584,0.031536079943180084,0.07044154405593872,0.1794198453426361,-0.03881905972957611,-0.12367130070924759,0.004976249765604734,-0.041604671627283096,0.16178171336650848,0.2705094814300537,0.029750578105449677,-0.2559269964694977,0.1661442071199417,0.10020231455564499,-0.07608433067798615,-0.10682142525911331,-0.24129857122898102,0.02545059844851494,-0.034808628261089325,0.040405333042144775,-0.10823394358158112,0.17024429142475128,-0.08660555630922318,-0.13704311847686768,0.02238653413951397,-0.022830897942185402,0.12668374180793762,0.08504239469766617,0.026303909718990326,0.11598369479179382,-0.09802843630313873,-0.04407869279384613,-0.07977994531393051,0.16994068026542664,0.273563951253891,-0.15040943026542664,-0.03275322541594505,-0.17180782556533813,-0.020078307017683983,0.09837483614683151,-0.070639967918396,0.17896676063537598,-0.10938256233930588,-0.02222633548080921,-0.22917623817920685,-0.11092183738946915,0.1206616684794426,0.09177044779062271,0.11214602738618851,-0.0559723898768425,0.08415689319372177,-0.1731194257736206,0.30635732412338257,0.07630760222673416,-0.12764286994934082,0.1443376988172531,-0.3125883936882019,-0.08197986334562302,-0.04806026816368103,0.07068704068660736,-0.16149300336837769,0.17435388267040253,0.09840650856494904,0.14686347544193268,-0.025120791047811508,-0.07356786727905273,-0.08242311328649521,0.10531731694936752,-0.08840984851121902,0.03790154308080673,-0.030066214501857758,-0.006341071799397469,0.10992026329040527,-0.0004937694757245481,-0.057530827820301056,0.11514534801244736,0.006991398520767689,0.05331761762499809,0.1842615306377411,0.023750953376293182,-0.11934492737054825,0.08625350892543793,0.0755254253745079,0.03532844036817551,-0.07634391635656357,0.1808384656906128,-0.18138103187084198,0.0911574512720108,0.03177274018526077,0.1453760415315628,0.11905389279127121,-0.21032240986824036,0.07494644820690155,-0.01698637753725052],[0.030483882874250412,0.01283713337033987,0.022937830537557602,0.14858734607696533,0.08816012740135193,-0.07528690248727798,-0.1321219652891159,0.07338312268257141,-0.08029510825872421,0.1483641117811203,0.032260455191135406,-0.2003856748342514,-0.14257028698921204,0.02065063826739788,0.0005112035432830453,0.004367548506706953,0.21008676290512085,-0.10262121260166168,-0.15295761823654175,-0.055980078876018524,0.16190798580646515,-0.13140544295310974,-0.05607398971915245,0.19863669574260712,-0.010781767778098583,0.05203528702259064,-0.1040496677160263,-0.16773541271686554,0.01644502766430378,-0.14800727367401123,-0.08568774908781052,-0.13765740394592285,-0.1806824803352356,0.28932392597198486,0.09173472970724106,-0.06007004156708717,0.036034416407346725,0.09869741648435593,-0.06332701444625854,-0.03574404865503311,-0.09082674980163574,0.03391774371266365,-0.04397309198975563,0.09643206745386124,0.1776839941740036,-0.04868094250559807,0.013711361214518547,0.04535280913114548,0.06802685558795929,0.12601923942565918,-0.15107494592666626,0.04181104525923729,0.14238117635250092,-0.21982450783252716,0.18724389374256134,0.010782245546579361,-0.03873847424983978,-0.17853809893131256,-0.042730141431093216,0.010448711924254894,-0.0039216456934809685,0.2781423032283783,0.04342784732580185,0.22766129672527313,-0.05196797847747803,-0.01029561273753643,0.08590574562549591,-0.01263461634516716,0.05760573595762253,0.09067526459693909,-0.02905844897031784,-0.008292323909699917,0.15610982477664948,-0.13250289857387543,0.08827970176935196,-0.05218002200126648,-0.10137544572353363,0.007120393682271242,0.2761240005493164,-0.009257976897060871,-0.13465577363967896,-0.028972601518034935,-0.01231240201741457,-0.07628315687179565,-0.009510044939815998,0.037515319883823395,0.1185397356748581,-0.04534901678562164,-0.06714795529842377,0.015713809058070183,0.08278990536928177,0.1526714563369751,-0.039338573813438416,-0.24490836262702942,-0.11299746483564377,-0.012295672670006752,0.17260374128818512,0.1987365484237671,-0.2203119546175003,-0.11455634981393814,0.142249196767807,0.20442479848861694,0.01978721283376217,0.10256075859069824,-0.025940079241991043,0.02117328532040119,-0.05931524187326431,-0.1634673923254013,-0.18386699259281158,-0.07094196230173111,0.019194161519408226,0.06220487505197525,-0.1510762721300125,-0.05177585408091545,-0.21014054119586945,0.2329506278038025,-0.036985717713832855,0.27114081382751465,0.003557284129783511,0.05404624715447426,0.027964606881141663,-0.04511437192559242,-0.08612790703773499,0.013789070770144463,0.1172192245721817,0.1756012737751007,-0.000718155293725431,0.1712900996208191,0.004783648531883955,0.23912738263607025,-0.3061186671257019,0.2460324615240097,-0.008687105029821396,0.010865841992199421,0.08693534135818481,0.039086632430553436,-0.022818783298134804,-0.06881079077720642,-0.22578725218772888],[-0.05433114990592003,0.19520418345928192,0.05903542414307594,-0.1253947764635086,0.062144868075847626,-0.061418939381837845,0.08887255191802979,-0.01786990463733673,-0.07308970391750336,0.047202855348587036,-0.18665121495723724,0.13719289004802704,0.09022580087184906,-0.08084604889154434,0.008618021383881569,0.1823890656232834,-0.09724254906177521,-0.061185937374830246,0.022033702582120895,-0.008085235953330994,-0.029798511415719986,-0.008258144371211529,0.006683005020022392,0.02618110552430153,0.15255025029182434,-0.029113898053765297,-0.10591981559991837,0.0544326975941658,0.07381139695644379,-0.03976815938949585,-0.03516073152422905,0.035780079662799835,-0.06337658315896988,0.22367268800735474,0.19402194023132324,0.06626558303833008,0.1275254487991333,-0.028627123683691025,0.154097318649292,0.05958004295825958,0.02024434320628643,0.151274174451828,-0.034513119608163834,-0.06195906922221184,-0.10440991073846817,-0.005617464892566204,0.36039477586746216,-0.027452891692519188,0.03667861595749855,0.13841648399829865,0.008038337342441082,0.1831580400466919,-0.14272315800189972,0.10274574160575867,0.02222643606364727,0.06008481979370117,-0.0007908536354079843,-0.26421111822128296,0.0859992653131485,-0.2125004678964615,-0.10421828180551529,-0.06114811450242996,-0.03869962692260742,-0.04198030009865761,-0.0806921198964119,0.12264204770326614,0.17996418476104736,-0.08319095522165298,-0.1296442151069641,-0.30035069584846497,-0.1448782980442047,0.011154230684041977,-0.08822336047887802,-0.24880145490169525,-0.03841327875852585,-0.03421587869524956,0.040574632585048676,-0.08978720009326935,-0.11518123000860214,-0.2131035178899765,0.05074818804860115,-0.11618974804878235,-0.13010375201702118,-0.0916164219379425,0.1630191057920456,0.23858095705509186,0.04401532560586929,-0.045456286519765854,0.0751996636390686,-0.0754728689789772,-0.0052263508550822735,0.20270434021949768,-0.018839968368411064,-0.11379683762788773,-0.05235888063907623,0.02164228819310665,-0.045742493122816086,-0.22972816228866577,-0.06585298478603363,-0.03157401084899902,-0.0015884801978245378,0.13459183275699615,0.18096639215946198,-0.011035522446036339,-0.08292952179908752,-0.0064844791777431965,-0.12101231515407562,-0.2416149228811264,-0.009357143193483353,0.03087214194238186,0.2035605013370514,0.12418130785226822,0.027134548872709274,-0.21866850554943085,-0.04354052245616913,-0.07579829543828964,-0.18276500701904297,-0.07123805582523346,-0.019180363044142723,-0.15789324045181274,0.11836033314466476,-0.15967489778995514,0.06198924034833908,-0.10954958945512772,-0.06373462826013565,-0.04529230669140816,-0.23522184789180756,0.14236892759799957,0.15469683706760406,0.11940211057662964,-0.010090036317706108,0.011553123593330383,0.03229594975709915,-0.04335765913128853,-0.08850432187318802,-0.06365247815847397,0.2804884612560272,-0.2893899083137512,-0.11013488471508026],[0.07284274697303772,-0.07054808735847473,0.09733383357524872,0.13664984703063965,-0.02669055014848709,-0.07866884768009186,-0.09486666321754456,0.08249511569738388,-0.183667853474617,0.019825389608740807,-0.009275850839912891,0.03386881947517395,-0.07145537436008453,-0.02121291123330593,0.12734369933605194,0.09036363661289215,-0.0854339450597763,0.07326801121234894,-0.09197089076042175,0.10987602174282074,0.12049394845962524,-0.07478214055299759,-0.08174692839384079,-0.2610589563846588,-0.04154987260699272,0.05940547585487366,0.04459342360496521,-0.06478959321975708,0.08834339678287506,-0.1746942102909088,0.03653273731470108,0.15254183113574982,-0.0939430445432663,0.21048209071159363,0.11638927459716797,-0.043665818870067596,-0.10370451211929321,-0.14672182500362396,-0.13921794295310974,-0.08750975877046585,-0.024925991892814636,-0.10061244666576385,-0.04737605154514313,-0.04501306638121605,-0.16290394961833954,-0.10056459903717041,0.20078107714653015,-0.06360509246587753,0.007720510475337505,-0.14620210230350494,0.1365853101015091,0.027471518144011497,-0.14367203414440155,0.09288126230239868,0.10188610851764679,0.09146447479724884,0.018620287999510765,0.21701008081436157,0.00954986922442913,0.1590428352355957,-0.011595536023378372,0.10154541581869125,0.0607384592294693,0.0020302790217101574,0.1986052542924881,0.11105150729417801,-0.12181665748357773,0.013538151048123837,-0.15158304572105408,0.10885503888130188,-0.08680349588394165,0.14098046720027924,0.008674420416355133,-0.13111338019371033,0.15553124248981476,0.10579650104045868,0.15180721879005432,0.30301880836486816,-0.06987262517213821,0.11502932757139206,0.05043628066778183,-0.03740905597805977,0.015290546230971813,0.21886426210403442,0.11758990585803986,0.052002791315317154,-0.2374764233827591,0.08476242423057556,0.13954536616802216,-0.1672658920288086,-0.16493342816829681,0.18162788450717926,-0.059987083077430725,-0.16357143223285675,0.17903177440166473,-0.13232462108135223,-0.042026955634355545,-0.1173887699842453,-0.18802177906036377,-0.10239885747432709,0.09358469396829605,0.010037168860435486,-0.06900618225336075,-0.19639039039611816,-0.06039151921868324,-0.07621388882398605,0.12901951372623444,-0.23189008235931396,0.12139566987752914,0.059889137744903564,-0.05790947750210762,-0.006100511644035578,-0.08492713421583176,-0.12583334743976593,-0.216424360871315,0.2374144196510315,0.04825140908360481,0.17145271599292755,0.16713076829910278,-0.06291338801383972,0.018347641453146935,-0.04708688333630562,0.09698699414730072,-0.0008173719397746027,0.09242339432239532,-0.18146593868732452,0.13662731647491455,-0.019123928621411324,-0.2660471796989441,-0.04921390861272812,0.04472078010439873,0.0931449607014656,0.013418266549706459,-0.03131639584898949,0.05135505646467209,-0.260579913854599,0.08414240181446075,0.19279628992080688,-0.07462723553180695],[-0.014329839497804642,0.1539381742477417,-0.16455881297588348,-0.1824672818183899,0.010057525709271431,0.02514566481113434,-0.0973166897892952,-0.029263244941830635,-0.13781006634235382,-0.10777056962251663,-0.2305068075656891,-0.19790078699588776,-0.1847625970840454,0.056826576590538025,-0.022869447246193886,0.051999762654304504,-0.029787937179207802,0.10118620842695236,0.013736664317548275,-0.06934601068496704,-0.41015633940696716,0.0254762414842844,-0.07007841020822525,-0.07115203887224197,0.12014172971248627,-0.06535492092370987,0.13831709325313568,0.15722408890724182,-0.08686880022287369,-0.043697357177734375,0.02656729333102703,-0.09845113754272461,0.10261941701173782,0.01329575665295124,-0.0018577747978270054,-0.031062636524438858,-0.006976664997637272,-0.06233716011047363,0.04747557267546654,0.0355692096054554,-0.14714054763317108,-0.10843124240636826,-0.040274377912282944,-0.122430719435215,0.11888325214385986,0.1097598671913147,0.06732811778783798,-0.19358649849891663,-0.08792319893836975,0.0606938935816288,0.08142278343439102,-0.09152649343013763,-0.029154904186725616,-0.03035426139831543,0.10155034065246582,-0.13615797460079193,-0.11536262184381485,0.1279858648777008,-0.18565914034843445,-0.06481745839118958,0.10451604425907135,-0.033936575055122375,0.1936805546283722,0.13492918014526367,-0.027078600600361824,-0.1623392105102539,0.237518310546875,0.004339148756116629,-0.11150360107421875,0.0031975111924111843,0.0026907201390713453,-0.1374662071466446,0.16102451086044312,-0.02734324149787426,0.12027023732662201,-0.2754501402378082,0.13486793637275696,0.12151319533586502,-0.16398878395557404,-0.08939848840236664,-0.03053944557905197,0.047901853919029236,0.15607260167598724,-0.03669228032231331,-0.07953579723834991,0.0017850135918706656,0.022164400666952133,-0.021848104894161224,-0.1580161452293396,-0.02670123800635338,0.08414652198553085,-0.013561324216425419,0.041648443788290024,-0.2076466679573059,0.054173871874809265,-0.19413156807422638,0.2631983757019043,0.005769556853920221,-0.16775400936603546,0.12494675070047379,0.06392044574022293,-0.045150671154260635,-0.15293705463409424,0.09549359977245331,-0.19745346903800964,-0.181449294090271,-0.09142197668552399,-0.06358673423528671,-0.0827752873301506,0.011616884730756283,0.022462040185928345,-0.1313067376613617,-0.05719197168946266,-0.2060879021883011,0.03750444948673248,0.11570516973733902,0.005768041592091322,0.0583902932703495,-0.11768295615911484,0.055463824421167374,-0.2747613489627838,0.06189674511551857,-0.04528902843594551,-0.14437809586524963,-0.006892317906022072,0.2228602170944214,0.3263688385486603,0.17687039077281952,-0.0038831247948110104,0.11109619587659836,0.17850562930107117,-0.14666512608528137,0.11369426548480988,-0.3075132966041565,-0.06952442973852158,0.02030797116458416,-0.10501394420862198,-0.16235005855560303,0.09384071826934814],[0.28271085023880005,0.03711865842342377,0.09412623941898346,0.13633248209953308,0.053924862295389175,-0.06847046315670013,0.07896135747432709,0.007042014040052891,-0.06888468563556671,-0.022132396697998047,0.16101717948913574,-0.17414265871047974,-0.1981172114610672,0.07426585257053375,0.012574111111462116,0.24836833775043488,0.09448488056659698,0.09622213989496231,0.16541798412799835,0.09002803266048431,0.07965561747550964,0.054928556084632874,0.06336278468370438,0.040800053626298904,0.16107767820358276,-0.12619613111019135,-0.092057965695858,-0.1606467217206955,0.0696946382522583,-0.0670633614063263,-0.0388011634349823,-0.005107790231704712,0.19496455788612366,0.017021847888827324,-0.2040368765592575,-0.13151858747005463,0.1813836693763733,-0.09956639260053635,0.06007566675543785,-0.14812667667865753,-0.031530965119600296,0.08222902566194534,-0.15702761709690094,-0.050615012645721436,0.05621092766523361,-0.19737282395362854,0.09375163912773132,0.0442977100610733,0.023381706327199936,0.16339044272899628,-0.060690876096487045,0.18280693888664246,0.06803759187459946,0.02096353843808174,0.0026501098182052374,0.0999639630317688,-0.09263908863067627,-0.022091683000326157,-0.19383543729782104,-0.09548718482255936,0.10646969079971313,-0.10266277939081192,-0.1113886833190918,0.13669830560684204,0.09447965770959854,0.2938515245914459,-0.13846322894096375,-0.07572589069604874,0.02076144888997078,-0.0075162784196436405,0.15319040417671204,-0.07564791291952133,0.1507405787706375,-0.0067023178562521935,-0.06468641012907028,0.05302455276250839,-0.03220897167921066,0.006942518055438995,-0.007375013083219528,-0.19408033788204193,-0.07247956097126007,-0.02298220619559288,0.09452458471059799,-0.0604533925652504,-0.053919099271297455,-0.16747012734413147,0.027805959805846214,-0.06970389187335968,0.10182824730873108,-0.2549116909503937,-0.0393160879611969,0.37160831689834595,-0.1904916614294052,0.01024563703685999,-0.03263469412922859,0.07089587301015854,0.016045555472373962,-0.059349700808525085,0.35718971490859985,0.2837557792663574,-0.05718274042010307,0.09721749275922775,0.09978996962308884,-0.0699722096323967,-0.1726774275302887,-0.13545720279216766,-0.09012363106012344,-0.04920690879225731,-0.01912437193095684,0.04745686054229736,-0.0063834781758487225,-0.051151078194379807,-0.2584076523780823,0.1028621569275856,0.0469759926199913,0.12982682883739471,-0.11892639845609665,-0.17905226349830627,-0.08572471886873245,0.25743380188941956,-0.08991941809654236,-0.004384958650916815,-0.3437584638595581,0.061911072582006454,-0.02515353262424469,-0.11147492378950119,0.03565695509314537,0.10225997865200043,-0.26802411675453186,-0.009605126455426216,0.05229799076914787,0.06784973293542862,0.1092531606554985,0.0504566952586174,-0.03883114457130432,-0.012638255953788757,-0.05320984870195389,0.10327134281396866,0.08533204346895218],[0.14937648177146912,0.017831668257713318,0.18019303679466248,-0.027611441910266876,-0.13523821532726288,0.01308795902878046,-0.0010892711579799652,0.03274264931678772,-0.0359419509768486,-0.026930125430226326,0.20562367141246796,0.09377846866846085,-0.17644743621349335,0.0863601341843605,0.1420692503452301,0.17411421239376068,-0.14270882308483124,0.2480347603559494,0.1051308885216713,-0.05329814553260803,-0.12741342186927795,-0.09293685853481293,0.14203748106956482,0.04479554295539856,-0.018645022064447403,0.06535300612449646,0.017434952780604362,-0.013826007023453712,-0.24854707717895508,0.019159341230988503,0.10499297082424164,0.15721184015274048,-0.05033459514379501,-0.055708106607198715,0.012343103997409344,0.03891783580183983,-0.01584744080901146,0.033604446798563004,-0.10957493633031845,0.2758161723613739,0.14801962673664093,-0.09729104489088058,-0.022750264033675194,-0.10243506729602814,0.03295218199491501,-0.07304972410202026,0.02185968868434429,-0.014185948297381401,-0.05411814898252487,0.017356015741825104,0.13017632067203522,0.07478276640176773,-0.023783156648278236,0.07590961456298828,-0.02115783840417862,0.031664468348026276,-0.09786520153284073,0.17356766760349274,-0.19082796573638916,0.21364915370941162,-0.021172868087887764,0.05016890913248062,0.14963304996490479,0.008573630824685097,0.11276936531066895,-0.0999758169054985,-0.09109807759523392,0.007913175970315933,-0.16031081974506378,-0.03569972887635231,0.12327036261558533,0.19712603092193604,-0.11207809299230576,0.07580972462892532,0.042839597910642624,0.14477811753749847,-0.04096171259880066,-0.005904146004468203,0.07973289489746094,-0.028134725987911224,-0.33252257108688354,-0.23018701374530792,-0.0815204456448555,0.024822508916258812,-0.10719840228557587,-0.11346839368343353,0.09863946586847305,-0.1669285148382187,0.11783666908740997,0.04931751266121864,-0.04492279887199402,0.008789715357124805,0.11384285986423492,0.20084331929683685,0.0026423900853842497,-0.04607543349266052,-0.20467565953731537,0.16621987521648407,-0.2502422332763672,-0.021156111732125282,-0.07383744418621063,0.06648392975330353,-0.07947497069835663,0.01719483733177185,-0.020570766180753708,-0.10383487492799759,0.07118979841470718,0.010440338402986526,-0.309026837348938,0.11114704608917236,0.04805207625031471,0.025425337255001068,-0.03201688081026077,-0.13116566836833954,0.22556816041469574,0.05786654353141785,0.14661303162574768,-0.07514504343271255,-0.18019554018974304,0.18307580053806305,-0.1644216626882553,-0.03477904945611954,-0.08799412101507187,-0.20953023433685303,-0.03633446991443634,-0.011797517538070679,0.10030615329742432,0.17780455946922302,-0.018196290358901024,0.07234946638345718,0.12988479435443878,0.12179957330226898,0.054140929132699966,-0.22196157276630402,-0.12518395483493805,0.06808256357908249,0.06975055485963821,0.3555586636066437,0.020205307751893997],[0.20073601603507996,0.0816391333937645,-0.08748596161603928,0.05071306601166725,0.10470055043697357,-0.10523583739995956,-0.10900659114122391,-0.11936788260936737,-0.12366335093975067,-0.10233853757381439,0.040945202112197876,-0.11255805194377899,0.12769626080989838,-0.06578366458415985,-0.1261492818593979,0.09744483232498169,-0.05481491982936859,0.013652416877448559,0.049248240888118744,0.03945925459265709,-0.00364889414049685,-0.12918569147586823,-0.03982101380825043,0.12449922412633896,0.05627153068780899,-0.24112199246883392,-0.05766729637980461,0.1442711353302002,-0.08551362156867981,0.08121936768293381,-0.037589266896247864,-0.005995471961796284,-0.00392807275056839,0.12931492924690247,-0.05436859279870987,0.0589708536863327,-0.08571469783782959,0.1855970323085785,0.0779486820101738,-0.26127418875694275,-0.012220373377203941,-0.05815046280622482,-0.03545130789279938,0.1144576370716095,-0.12382625043392181,-0.1353086531162262,-0.13344037532806396,0.1170654222369194,-0.11848337203264236,-0.07407084852457047,-0.06626781076192856,0.15327678620815277,0.038827721029520035,0.15063871443271637,0.02997678704559803,-0.1646331250667572,-0.16607916355133057,0.11453519016504288,-0.050207510590553284,0.14102236926555634,0.09675876051187515,-0.06790647655725479,0.04917020723223686,-0.08180215954780579,-0.09098884463310242,0.11302827298641205,0.07778087258338928,-0.23560208082199097,0.07790113240480423,-0.07054613530635834,-0.048284586519002914,-0.12367501854896545,-0.06786995381116867,-0.045758165419101715,0.010989873670041561,-0.086525559425354,-0.2633906304836273,0.035731084644794464,-0.12986552715301514,0.022047335281968117,0.17145714163780212,-0.03774861618876457,0.11880888044834137,-0.031145669519901276,0.07896971702575684,-0.1478661149740219,-0.28452086448669434,-0.22328294813632965,0.011847101151943207,-0.04622485861182213,0.23957526683807373,-0.05778122693300247,0.06017142906785011,-0.10739946365356445,-0.06226133927702904,0.07969623059034348,0.16670504212379456,0.07479258626699448,0.10667756199836731,-0.054156623780727386,0.09722428023815155,-0.010727605782449245,0.010935379192233086,-0.03327465429902077,0.1071227565407753,-0.14738677442073822,0.03927742689847946,0.2136586606502533,-0.2853547930717468,0.04782433807849884,0.08983301371335983,0.0395754873752594,0.0029713883996009827,0.21747493743896484,0.08132874220609665,-0.1460384577512741,-0.03518585488200188,0.09524616599082947,-0.08954443037509918,-0.1694757044315338,-0.13976572453975677,-0.021471915766596794,0.1234833374619484,0.04712768644094467,0.14463704824447632,0.059199266135692596,-0.22819572687149048,0.37395673990249634,-0.0318540595471859,0.033054836094379425,-0.02003336139023304,-0.11444961279630661,-0.08569573611021042,-0.10151265561580658,0.025357266888022423,-0.01094683539122343,-0.178169384598732,-0.10019849985837936,-0.038074858486652374],[0.08435025811195374,0.006722501944750547,-0.06716085225343704,0.1121678277850151,0.056568387895822525,-0.053579334169626236,-0.2748865485191345,0.033682335168123245,0.047128960490226746,0.016927944496273994,0.13707049190998077,-0.003404186572879553,0.03774797171354294,0.3008591830730438,0.0269329771399498,0.03267380967736244,-0.027855906635522842,0.10131636261940002,-0.1621052622795105,-0.013574579730629921,-0.10996575653553009,-0.08372492343187332,-0.03126199170947075,0.0030236493330448866,-0.045546211302280426,-0.21923600137233734,-0.08105959743261337,-0.0659453496336937,-0.04910469427704811,-0.06399176269769669,0.1037750244140625,0.07261157780885696,0.09883846342563629,0.03996134549379349,0.06357216089963913,0.19613327085971832,0.013674925081431866,0.20141015946865082,0.08037540316581726,-0.12307438999414444,-0.17681880295276642,0.03737897425889969,-0.025218624621629715,0.14821647107601166,-0.04681958258152008,-0.006450038403272629,-0.17914095520973206,0.015791738405823708,0.18423539400100708,-0.03732447326183319,-0.07958608120679855,-0.011688360944390297,-0.19666869938373566,0.029450632631778717,-0.1845255047082901,0.03947306051850319,-0.24797387421131134,0.03432771563529968,0.1876336932182312,-0.08905152231454849,0.26235154271125793,-0.021874452009797096,-0.21023933589458466,0.04426257684826851,-0.17240235209465027,0.20614023506641388,0.09471172839403152,-0.030298614874482155,-0.08404449373483658,0.2159097045660019,-0.03152678161859512,-0.09154905378818512,-0.0035997522063553333,-0.12101909518241882,0.14074094593524933,-0.012934451922774315,0.12855377793312073,0.006769844796508551,-0.006952852942049503,-0.19635716080665588,0.08095447719097137,-0.10839428007602692,-0.11976370215415955,0.1599123328924179,-0.11180818825960159,-0.198863685131073,-0.03909088671207428,-0.023949600756168365,0.18891014158725739,-0.008934464305639267,0.12848864495754242,-0.14628519117832184,-0.2120298445224762,0.05068381875753403,-0.09988542646169662,0.068217433989048,0.05389590561389923,-0.08490011096000671,-0.2086683213710785,0.18285299837589264,-0.31834548711776733,-0.05855545029044151,0.013529988005757332,-0.12340296059846878,0.20968087017536163,0.08886446803808212,-0.051343951374292374,0.03659440577030182,0.016350528225302696,-0.07102691382169724,0.025870680809020996,0.010319463908672333,0.11781344562768936,-0.1757829636335373,0.14852531254291534,-0.17959406971931458,0.04981201887130737,0.05851103365421295,0.047401126474142075,0.15242883563041687,-0.07564222812652588,0.11224044114351273,-0.05449973791837692,0.026719270274043083,0.009334263391792774,0.07401926815509796,0.10444628447294235,0.04217042773962021,-0.10656048357486725,0.13730525970458984,0.05762004107236862,-0.26202327013015747,0.30015963315963745,0.035559095442295074,-0.20591546595096588,0.0606410875916481,-0.10057281702756882,-0.07937020808458328,0.12686151266098022],[0.054274603724479675,-0.0010558433132246137,0.018608754500746727,0.3381776809692383,-0.025720156729221344,0.3148595094680786,-0.015155739150941372,0.060979925096035004,-0.056851502507925034,0.07416415214538574,0.043663524091243744,0.14140070974826813,-0.09383358806371689,0.2133886069059372,-0.09505494683980942,0.0005615648115053773,-0.13565756380558014,0.16059601306915283,0.10265380889177322,0.02160370536148548,-0.015621298924088478,-0.19246529042720795,-0.04554565250873566,-0.03534844145178795,0.014532070606946945,0.0574418380856514,0.1256883442401886,0.019623152911663055,0.029096834361553192,0.0667322501540184,0.0032227286137640476,0.16629409790039062,0.07624556869268417,-0.2327704280614853,-0.08837288618087769,0.23185794055461884,0.0028358520939946175,-0.05740920826792717,0.2030121237039566,0.25441229343414307,-0.20399491488933563,-0.09767365455627441,-0.20033946633338928,0.0242086760699749,0.1276904195547104,0.03073113225400448,-0.0497683621942997,0.13355448842048645,0.07543277740478516,0.13812382519245148,-0.23393383622169495,0.03670226037502289,0.13136714696884155,0.01553340908139944,0.09492318332195282,0.16238045692443848,-0.16136816143989563,-0.09054636210203171,0.10878053307533264,0.05078979581594467,0.11757824569940567,0.20434989035129547,0.00442968076094985,-0.07216262817382812,-0.02355114184319973,0.06017731502652168,0.08044017851352692,0.019196445122361183,-0.08323132991790771,-0.09954924136400223,0.14808155596256256,0.06175806373357773,0.13333052396774292,0.12835989892482758,0.16024021804332733,-0.21353119611740112,-0.10106132924556732,0.1004294604063034,0.08528583496809006,0.08642351627349854,0.12129706144332886,0.07026071846485138,-0.01941787451505661,0.07900462299585342,-0.019750982522964478,0.10069337487220764,-0.2961360216140747,-0.14617212116718292,0.10199104994535446,-0.00017411068256478757,0.004395517520606518,-0.1461910605430603,0.06813570857048035,-0.0025609219446778297,0.10057655721902847,-0.0924820750951767,-0.17227955162525177,0.00032977049704641104,0.2622043192386627,0.06178317964076996,0.11408453434705734,0.2196761667728424,-0.04723605141043663,0.14658020436763763,0.010029449127614498,0.059434447437524796,-0.24409756064414978,0.1515408158302307,0.07402297109365463,0.2035784274339676,-0.07934162765741348,-0.027566157281398773,-0.014996343292295933,0.04119468480348587,-0.2757517099380493,-0.01721968688070774,0.050155412405729294,-0.13374973833560944,-0.1421431601047516,-0.1256036013364792,-0.12100409716367722,0.17316371202468872,-0.05329066514968872,-0.025639958679676056,0.16265548765659332,0.14275838434696198,0.2401542365550995,-0.0028023342601954937,-0.027772346511483192,-0.1313122659921646,-0.0707661509513855,-0.12835271656513214,0.21435421705245972,-0.08304182440042496,0.20896568894386292,0.1802794188261032,-0.07078858464956284,-0.17940133810043335,-0.08970088511705399],[0.333098828792572,-0.24072247743606567,0.07846637815237045,0.16213209927082062,-0.289309024810791,0.005636904388666153,-0.07105319201946259,0.12625084817409515,-0.13625197112560272,0.14662814140319824,0.03988078609108925,0.13470867276191711,0.02542400173842907,0.14149557054042816,0.1100325882434845,0.013757840730249882,-0.04085133597254753,-0.03999164700508118,0.11463892459869385,-0.11060871183872223,0.12649096548557281,-0.09933562576770782,0.3865332007408142,-0.000862979213707149,-0.13515591621398926,-0.08776907622814178,-0.033243872225284576,0.10591094940900803,-0.03688299283385277,0.009034136310219765,-0.1453605741262436,0.010315264575183392,0.099947988986969,0.13377003371715546,0.06156570091843605,0.019122157245874405,-0.07003046572208405,0.18506331741809845,0.044636450707912445,-0.15793494880199432,0.07959175854921341,-0.11793733388185501,-0.0528268963098526,-0.04615912213921547,0.27202820777893066,0.24854950606822968,-0.10114136338233948,0.06196451932191849,-0.07627449184656143,0.4122227430343628,0.06904624402523041,-0.12367574870586395,0.05255323648452759,0.04439939931035042,-0.11814713478088379,-0.14492669701576233,-0.04625008627772331,0.021289564669132233,0.0650361105799675,0.05473519489169121,0.033971358090639114,-0.14981694519519806,0.03051886148750782,-0.03656593710184097,-0.053649041801691055,0.1899907886981964,0.04968699440360069,0.09178752452135086,-0.0622241385281086,-0.07765743881464005,0.2841514050960541,0.038244426250457764,0.19066132605075836,0.0003609564446378499,0.0646279826760292,-0.0388464517891407,-0.08574491739273071,-0.1147376000881195,0.24714407324790955,-0.2462124079465866,0.008782630786299706,-0.07858996093273163,-0.11067893356084824,-0.1621648222208023,0.048470839858055115,0.127529114484787,-0.16137085855007172,-0.17315444350242615,0.12749285995960236,0.014752926304936409,-0.08121992647647858,0.18971498310565948,0.10600566118955612,-0.1304411143064499,-0.06395406275987625,0.15553869307041168,0.11111005395650864,-0.11006921529769897,-0.11382797360420227,0.11094395071268082,0.09617558121681213,-0.08994454890489578,-0.021732037886977196,0.09629055112600327,-0.0035167105961591005,-0.22076529264450073,-0.14849555492401123,0.135243222117424,-0.10014207661151886,-0.023807208985090256,0.1330486238002777,0.21367064118385315,-0.10155176371335983,0.1230430155992508,0.07401954382658005,0.02373191900551319,-0.02189144492149353,-0.07598711550235748,0.03077460266649723,0.053108327090740204,-0.05751654878258705,0.17526152729988098,-0.0914602056145668,-0.24396957457065582,-0.01378895714879036,0.013040813617408276,0.0927131399512291,-0.011598700657486916,0.08925199508666992,0.056573208421468735,-0.029162053018808365,-0.05502048134803772,-0.017302002757787704,0.04586948826909065,0.037504736334085464,-0.12329168617725372,0.1774147003889084,0.006463824771344662,0.012291684746742249],[0.03925777226686478,-0.0767967700958252,-0.0838831216096878,0.08108039200305939,0.042453836649656296,0.08404023200273514,0.0740523636341095,0.10975268483161926,0.05778232961893082,-0.11377580463886261,0.14812861382961273,0.05684736371040344,0.07539380341768265,-0.22567544877529144,0.11921320855617523,-0.054345499724149704,0.041237737983465195,-0.03673970326781273,0.24315926432609558,0.22279216349124908,0.19114241003990173,0.1138843297958374,0.038206927478313446,-0.059436481446027756,-0.1626332700252533,0.032092299312353134,0.05929480865597725,0.08054754883050919,-0.1077084168791771,-0.005099229980260134,-0.1679348349571228,-0.053640756756067276,-0.09067772328853607,0.09693817794322968,-0.08894512802362442,-0.05875455588102341,0.12176977097988129,0.08850511163473129,-0.03764761984348297,0.008344465866684914,0.24604903161525726,0.13535839319229126,0.33554062247276306,0.151799276471138,-0.21375790238380432,-0.1603386402130127,0.03724462911486626,0.14901632070541382,-0.09329508244991302,0.05353397876024246,-0.065883569419384,0.04041502624750137,-0.06557532399892807,0.14715361595153809,-0.17307128012180328,0.21073205769062042,0.013622882775962353,0.23636403679847717,0.109019435942173,-0.006062369793653488,-0.08687269687652588,-0.12723855674266815,0.019462866708636284,-0.14995205402374268,-0.01668846234679222,-0.173154816031456,0.012379658408463001,-0.09231117367744446,-0.04507507011294365,-0.1592569649219513,0.030544333159923553,-0.08966337889432907,0.11668861657381058,0.18849852681159973,0.04989888146519661,0.1420627236366272,0.16463631391525269,-0.10700041800737381,-0.03994148597121239,-0.1605081558227539,-0.05470767989754677,0.008542879484593868,-0.06552805006504059,-0.25481319427490234,-0.22211448848247528,-0.014676351100206375,-0.011457758024334908,0.0014660770539194345,-0.040237151086330414,0.1475370079278946,-0.03686508908867836,0.061934031546115875,0.04667044058442116,0.0625140368938446,-0.15222354233264923,-0.052435655146837234,-0.28401845693588257,0.14545069634914398,0.013354097492992878,0.04632997885346413,0.02525612898170948,-0.05092981457710266,0.008981326594948769,0.0803498700261116,-0.06575297564268112,-0.0529971718788147,0.11934991180896759,-0.2593432068824768,0.06571818888187408,0.021267306059598923,-0.231548473238945,0.32976993918418884,0.09316417574882507,-0.09941858798265457,0.05938528850674629,0.2108663022518158,0.17986974120140076,-0.04602702334523201,0.12390676885843277,0.16112251579761505,0.10047826915979385,0.13111929595470428,-0.027549995109438896,0.028357133269309998,-0.09924519062042236,0.09524518251419067,0.05214404687285423,0.22054342925548553,0.0754740834236145,0.03928672894835472,0.18119576573371887,0.004259694367647171,-0.0720815509557724,-0.11338144540786743,0.06349090486764908,-0.06129991635680199,0.31483274698257446,0.07523807883262634,0.045196425169706345],[-0.18657442927360535,0.04511019214987755,0.1799582839012146,0.07172013819217682,0.1352890133857727,-0.032588619738817215,0.10497239977121353,0.04871859773993492,0.10713724792003632,-0.08255645632743835,-0.1658075898885727,-0.15188796818256378,-0.12009727209806442,0.13853861391544342,0.20777562260627747,0.23738913238048553,-0.09746766090393066,0.0509837344288826,-0.04458649456501007,-0.03895276039838791,-0.09736507385969162,-0.17733819782733917,0.12032300233840942,-0.06729310005903244,0.05214238911867142,-0.001251261797733605,-0.03296284005045891,-0.28396862745285034,-0.023126650601625443,0.22922253608703613,-0.09964287281036377,-0.01894403249025345,-0.12130456417798996,-0.062222156673669815,0.19179943203926086,0.028955645859241486,-0.19178152084350586,-0.15960656106472015,-0.1443420648574829,0.016655946150422096,0.14986275136470795,0.12175442278385162,0.03930074721574783,0.24115142226219177,0.14796912670135498,-0.07816609740257263,0.10122530907392502,-0.05948276072740555,0.19966377317905426,-0.12191101908683777,-0.08593927323818207,0.01974276639521122,-0.07255548983812332,0.14361068606376648,0.005540018901228905,0.04721405729651451,-0.061635181307792664,-0.16399848461151123,0.11005967110395432,-0.004050043411552906,-0.0764307826757431,-0.056490443646907806,0.08507952094078064,-0.04888016730546951,-0.08255869895219803,-0.2028016299009323,0.08951323479413986,0.07791765034198761,0.21863289177417755,-0.18260760605335236,0.16785123944282532,0.05913905054330826,0.015432286076247692,-0.09433310478925705,0.0010596232023090124,-0.07992091029882431,-0.12231198698282242,0.011659692972898483,-0.020994817838072777,0.017322765663266182,-0.05249996483325958,-0.11340945214033127,-0.0272673387080431,-0.010344511829316616,0.038722045719623566,0.11891999840736389,0.17732147872447968,-0.004089497495442629,0.09219399839639664,-0.11741598695516586,-0.0856197401881218,0.13384127616882324,0.10164444893598557,0.036906782537698746,0.030438119545578957,-0.04564093053340912,-0.04534245654940605,0.09790056943893433,0.09639351069927216,-0.032854001969099045,0.10417652130126953,0.07923685759305954,-0.03477291390299797,0.013832843862473965,-0.02277388796210289,0.2021467238664627,0.2204510122537613,-0.14689692854881287,0.011635368689894676,0.01725664548575878,-0.035116713494062424,0.271638959646225,0.049448151141405106,-0.0043530636467039585,-0.02536015771329403,0.11365039646625519,0.04990795999765396,0.21029144525527954,-0.1801070123910904,0.10762894153594971,0.06334566324949265,-0.0010587439173832536,0.03845242038369179,0.08097374439239502,-0.16264581680297852,-0.05768805742263794,0.03392326831817627,0.03403186798095703,0.2958398461341858,-0.0773039236664772,-0.0026540798135101795,0.0786651074886322,0.0982690081000328,0.0016855496214702725,0.0753154531121254,0.10077722370624542,-0.08678096532821655,-0.2688887417316437,0.16082863509655],[0.13157233595848083,-0.0604412667453289,0.12654656171798706,-0.1297139972448349,0.22215227782726288,0.03235222026705742,0.3516659736633301,0.0682704970240593,-0.07924410700798035,0.033728860318660736,-0.06783577054738998,0.02416028082370758,0.04844368249177933,-0.1472647786140442,0.012124097906053066,-0.11111870408058167,-0.13199496269226074,0.09289489686489105,0.050562482327222824,0.014083832502365112,0.050057657063007355,0.1873035579919815,0.04158599302172661,-0.14792734384536743,0.1491595357656479,-0.061912525445222855,0.3951505422592163,-0.10049900412559509,-0.02237037383019924,0.17023210227489471,-0.07419721782207489,0.22632922232151031,-0.18047669529914856,-0.09516773372888565,0.06750047206878662,0.0622805617749691,0.024522287771105766,0.08362016081809998,-0.2815973460674286,0.04120996221899986,0.05684034526348114,0.19743774831295013,-0.2364266812801361,-0.04204658791422844,0.07743045687675476,0.16221247613430023,-0.15598373115062714,-0.11023305356502533,-0.025885991752147675,0.13160009682178497,0.05282437056303024,0.0644938200712204,0.057561956346035004,0.1379297971725464,-0.07271362841129303,-0.03259576857089996,0.17438539862632751,-0.06992671638727188,0.18564912676811218,0.05979269742965698,-0.033686768263578415,-0.10499325394630432,-0.20904310047626495,0.05091589689254761,0.10232880711555481,-0.076754130423069,0.08862073719501495,0.17931854724884033,0.16982054710388184,-0.04849131032824516,0.16751472651958466,-0.11119144409894943,-0.010266117751598358,-0.03689310699701309,-0.10425275564193726,0.07292154431343079,-0.01607293076813221,-0.21827509999275208,0.10527537018060684,0.1233462244272232,0.01933162473142147,0.029166819527745247,-0.08695849776268005,-0.037067655473947525,0.0668291226029396,-0.08723415434360504,0.09930437803268433,0.123834528028965,0.14388373494148254,-0.13710938394069672,-0.07461901009082794,-0.16486288607120514,-0.14250770211219788,-0.23326954245567322,-0.023577453568577766,0.005138184409588575,-0.07050774991512299,-0.20230607688426971,-0.012615448795258999,-0.009991957806050777,-0.004546972922980785,0.06273254752159119,-0.018793860450387,-0.050655871629714966,0.11578553915023804,0.14709332585334778,-0.005996714811772108,-0.10260289907455444,-0.05337701737880707,-0.0809929221868515,0.033754512667655945,-0.0992436632514,0.027910713106393814,0.12319185584783554,0.0012377930106595159,0.1743748039007187,0.14850427210330963,-0.22118335962295532,0.07911410927772522,0.03537062555551529,0.0520152822136879,-0.13186481595039368,0.062321729958057404,0.10554447770118713,-0.15918909013271332,0.19297796487808228,0.07205013185739517,-0.17661337554454803,0.03482833132147789,0.2267393171787262,0.012842196971178055,0.05431089922785759,-0.02780134603381157,-0.12062730640172958,-0.19221928715705872,-0.1261884868144989,0.06322259455919266,0.008278004825115204,-0.016673048958182335],[0.2803916931152344,-0.30128905177116394,-0.018806537613272667,0.21147030591964722,-0.10747294872999191,0.04130271449685097,-0.024400120601058006,-0.08024246245622635,0.01713070273399353,0.08717595785856247,0.04332542046904564,-0.1044263020157814,0.045279812067747116,-0.007833359763026237,-0.04718291014432907,0.10735763609409332,0.1897340714931488,-0.1831524521112442,-0.04240947216749191,0.045675866305828094,0.00704166991636157,0.12385933846235275,0.12500929832458496,0.1610574722290039,-0.08474192768335342,0.10552740097045898,-0.010619274340569973,0.18253591656684875,0.12021207809448242,0.09353666007518768,0.23376935720443726,-0.07237475365400314,0.17357084155082703,0.05303475633263588,0.053474485874176025,-0.010922195389866829,-0.05324763432145119,-0.01711542159318924,0.17200882732868195,-0.00935083907097578,0.172589972615242,-0.03690548241138458,0.13651017844676971,0.08060024678707123,0.02827741950750351,0.008289695717394352,0.05413483455777168,0.1416769027709961,0.0340900644659996,0.05289885774254799,0.09420738369226456,-0.07389397919178009,0.21509107947349548,0.006506064906716347,-0.24412736296653748,-0.019712116569280624,-0.19794335961341858,-0.10483528673648834,-0.08295002579689026,-0.132795512676239,-0.03239186108112335,0.00382337742485106,-0.07068795710802078,0.09874377399682999,0.04574539139866829,-0.1055532693862915,-0.3518032431602478,0.10241535305976868,-0.00918253418058157,0.02816157415509224,-0.07820682972669601,0.021049262955784798,0.05858137458562851,0.1712235063314438,-0.12000356614589691,0.2910062372684479,0.07446414232254028,-0.08774114400148392,-0.15366575121879578,-0.01990048959851265,0.13487206399440765,0.2331952005624771,0.08240725845098495,-0.13255248963832855,-0.04788900911808014,0.01777208410203457,-0.07745174318552017,-0.025134732946753502,0.08960476517677307,-0.15298447012901306,-0.012089816853404045,0.0060690538957715034,-0.04211678355932236,-0.23650433123111725,-0.11708525568246841,-0.08071248233318329,-0.09270467609167099,-0.17439916729927063,0.07833477854728699,-0.03395383432507515,-0.04837925732135773,0.1117408499121666,-0.057450998574495316,0.03371908888220787,-0.012102269567549229,-0.0690070241689682,0.0052115130238235,0.024942979216575623,0.08523520082235336,0.26133593916893005,-0.020560486242175102,-0.04909105971455574,-0.048285480588674545,-0.14795447885990143,-0.18496285378932953,-0.12546300888061523,0.026741230860352516,0.3290926516056061,0.030335979536175728,-0.1853124052286148,0.056989576667547226,0.07963626086711884,-0.025745810940861702,-0.1974632441997528,0.06846507638692856,-0.13785962760448456,0.07006491720676422,0.0938153937458992,0.043622732162475586,0.05964774265885353,-0.1338435411453247,0.18048520386219025,-0.24297574162483215,-0.008269410580396652,-0.030975613743066788,-0.3910137414932251,0.0724233016371727,0.28748562932014465,-0.22917059063911438],[-0.02128390595316887,0.2050633281469345,0.11906544119119644,-0.027728265151381493,-0.13675352931022644,-0.04359498247504234,0.17221131920814514,0.11586849391460419,0.07694338262081146,0.018576910719275475,-0.17894122004508972,-0.08138102293014526,-0.0834420919418335,0.1490129977464676,0.03736930713057518,0.07638408988714218,-0.10045396536588669,-0.0017793208826333284,-0.03433680161833763,-0.19074764847755432,-0.03271858021616936,-0.139583021402359,0.15385645627975464,0.09593967348337173,-0.011920641176402569,-0.041829679161310196,-0.1309402883052826,0.03883318603038788,0.21023845672607422,-0.062459755688905716,-0.03411690145730972,0.19712422788143158,0.04795654118061066,-0.04657454416155815,0.09374753385782242,-0.09172353893518448,-0.01390314381569624,-0.2674425542354584,0.11027954518795013,-0.06144028902053833,-0.0022098012268543243,-0.02949742041528225,-0.06770522892475128,0.01789237931370735,-0.10972660779953003,-0.014289985410869122,0.233347550034523,-0.16707754135131836,-0.14662101864814758,0.01923675835132599,-0.08844253420829773,0.15590332448482513,0.026376770809292793,0.12853364646434784,-0.030076906085014343,-0.021940529346466064,0.15458111464977264,-0.007051778491586447,0.16385889053344727,-0.002086107386276126,0.10865151137113571,0.02949594520032406,0.25200775265693665,0.20667067170143127,-0.27303364872932434,0.09722006320953369,-0.00964384712278843,0.150395929813385,0.060683779418468475,-0.10287678986787796,0.03157898411154747,0.12021772563457489,-0.021295340731739998,0.17641904950141907,-0.11562561243772507,-0.04395778849720955,-0.1141587644815445,0.11397194862365723,0.10159335285425186,0.0707462802529335,-0.18173351883888245,-0.14944566786289215,0.15214496850967407,0.13621722161769867,-0.09105943888425827,0.20349062979221344,-0.09910643845796585,0.12164291739463806,-0.04049980267882347,0.04007892683148384,-0.19424651563167572,0.08713371306657791,-0.04373060539364815,0.059612829238176346,0.23725971579551697,-0.09299515932798386,-0.02624676376581192,-0.012072814628481865,0.014411045238375664,-0.14358557760715485,0.10460387915372849,-0.2700884938240051,0.07589899003505707,-0.0178617462515831,-0.1472078561782837,-0.05901974067091942,-0.055636342614889145,0.05760803446173668,-0.029873579740524292,-0.025094814598560333,0.16896454989910126,-0.05087757483124733,0.15739448368549347,0.03403303027153015,-0.08760040998458862,0.3001432418823242,-0.03144272789359093,0.05683823674917221,0.18065497279167175,-0.14159145951271057,0.024945832788944244,0.06751851737499237,-0.08428391069173813,-0.27275246381759644,-0.01668912172317505,0.09156434237957001,-0.010716328397393227,0.013718802481889725,0.04633311182260513,0.052621934562921524,-0.025036044418811798,0.13593634963035583,-0.19078119099140167,0.0208412017673254,0.10174489766359329,0.1841699331998825,-0.05388406291604042,0.11332086473703384,0.11614064872264862],[0.09716255962848663,-0.023431824520230293,-0.07597950845956802,0.017180200666189194,-0.0523480623960495,0.052222106605768204,0.023666011169552803,-0.08630377054214478,-0.019361238926649094,-0.07155434787273407,0.14475421607494354,-0.01882333494722843,0.05754289776086807,-0.042663995176553726,0.041325751692056656,0.045656468719244,0.13774359226226807,-0.09825269877910614,-0.047790057957172394,-0.12016690522432327,-0.09216099977493286,-0.14074574410915375,0.13219085335731506,0.05835584178566933,-0.002353847026824951,0.1517179012298584,-0.003985186573117971,0.06930968910455704,-0.16376522183418274,-0.010033520869910717,-0.135005921125412,0.10895699262619019,0.08686969429254532,-0.17450353503227234,-0.07299072295427322,-0.06197323277592659,0.05864698439836502,0.2186209261417389,0.1562846302986145,-0.02630983293056488,0.03455673158168793,-0.0036609373055398464,-0.09164085984230042,0.061251942068338394,0.1384928971529007,0.1754658818244934,-0.08964376151561737,0.042038191109895706,0.09701887518167496,0.13260485231876373,0.14538335800170898,0.10164099931716919,0.06091848015785217,0.13570822775363922,-0.2070428431034088,-0.22514861822128296,0.06322391331195831,0.19624802470207214,0.19083721935749054,0.057000529021024704,-0.12923415005207062,0.010778623633086681,-0.10125523805618286,-0.014701626263558865,0.11881715804338455,0.04116752743721008,-0.07008185237646103,-0.19950634241104126,-0.12326877564191818,-0.16114799678325653,0.09530813992023468,0.037916216999292374,0.11130578070878983,-0.04558829963207245,0.18703284859657288,-0.0704781785607338,-0.052985675632953644,-0.0694323182106018,-0.05096786841750145,-0.24889469146728516,-0.07831164449453354,0.05273290351033211,0.058611031621694565,0.1295507848262787,0.1564282476902008,-0.026266368106007576,-0.017402593046426773,0.06620384007692337,-0.09381925314664841,-0.027480246499180794,0.020636606961488724,-0.2258164882659912,-0.03133015334606171,0.1776917427778244,-0.02674255333840847,-0.1039559617638588,-0.2480495423078537,0.19330468773841858,-0.037888094782829285,-0.1808362752199173,-0.04932117834687233,0.051829829812049866,-0.12661497294902802,-0.06082851067185402,-0.14506934583187103,-0.188479483127594,-0.07518499344587326,0.1749284863471985,-0.06450191885232925,0.11999362707138062,0.01576198823750019,-0.062378935515880585,-0.17342711985111237,-0.11741948127746582,-0.02868114784359932,0.1940315216779709,-0.06214921548962593,-0.07378173619508743,0.0514071062207222,-0.09563757479190826,-0.035376906394958496,0.0209043025970459,0.18740293383598328,0.17233984172344208,0.04591645300388336,-0.04177437722682953,-0.07104721665382385,-0.13158245384693146,0.11743415892124176,0.01672833226621151,0.056252621114254,-0.014120948500931263,-0.014591539278626442,-0.055547140538692474,0.009392661973834038,-0.0318109393119812,-0.13521744310855865,-0.017168696969747543,0.17661288380622864],[0.13137206435203552,-0.15207189321517944,0.1570790410041809,-0.26055121421813965,0.0014845157274976373,-0.14016598463058472,0.03589022904634476,-0.1086450070142746,0.08644532412290573,0.03725552186369896,-0.13408344984054565,-0.00095706048887223,-0.054265961050987244,0.030988750979304314,-0.10535603016614914,-0.17907410860061646,0.009320066310465336,0.06156299263238907,0.02945639379322529,-0.09642598778009415,0.11977099627256393,-0.1504952758550644,-0.15370167791843414,0.04742102697491646,-0.0677676796913147,0.04043015465140343,0.1511598825454712,-0.016961533576250076,0.11874166876077652,0.041227638721466064,0.08890710026025772,0.10270299017429352,0.05624384060502052,-0.13647954165935516,0.1363804191350937,-0.005141198635101318,-0.013137775473296642,0.010084833018481731,-0.08825131505727768,-0.06457891315221786,0.024897171184420586,0.06000674515962601,-0.02822875790297985,0.002426208695396781,0.08680522441864014,-0.07926040887832642,0.0030763233080506325,-0.008244878612458706,0.18757985532283783,-0.07164859026670456,0.07231999933719635,0.21083177626132965,0.052348509430885315,0.17651396989822388,-0.06876128911972046,-0.016354132443666458,0.037360891699790955,-0.07642391324043274,-0.0024308967404067516,-0.13337942957878113,0.03589721396565437,-0.16830974817276,0.2556610107421875,0.13831768929958344,0.020711060613393784,0.04993635043501854,-0.06490213423967361,0.06840004026889801,-0.08334185928106308,0.08359242230653763,0.06160830706357956,-0.21269802749156952,0.06076428294181824,-0.17798607051372528,0.14904657006263733,0.06506874412298203,0.041342027485370636,-0.04493482783436775,-0.17920097708702087,-0.2086765468120575,0.11175443977117538,0.05913761258125305,0.011327485553920269,-0.1759626865386963,0.0939670130610466,-0.10061377286911011,0.14491884410381317,-0.06021275743842125,-0.1690329760313034,-0.0037039197050035,-0.083315908908844,0.08505881577730179,-0.14654330909252167,-0.11438079923391342,0.06464424729347229,0.03659644350409508,0.07999483495950699,0.11507407575845718,0.07993197441101074,0.12566819787025452,-0.17733097076416016,-0.017803801223635674,-0.02134883403778076,-0.12424157559871674,-0.116545669734478,0.08681032806634903,-0.06395260244607925,0.02683926746249199,0.07818622142076492,0.12440574914216995,0.1064949631690979,0.03537943959236145,0.03521130606532097,-0.02832678332924843,0.1881842315196991,-0.18751941621303558,-0.027359599247574806,0.22007326781749725,0.01322576217353344,-0.1740284264087677,0.1415322870016098,0.08076635003089905,-0.12120820581912994,-0.04438650608062744,0.1949748694896698,0.011402704752981663,0.058431100100278854,0.09317060559988022,-0.0940045565366745,-0.13446888327598572,-0.24131301045417786,-0.10892342031002045,-0.08732490986585617,0.050977155566215515,0.199116051197052,-0.17701394855976105,-0.07511208206415176,0.0225895494222641,-0.09216974675655365],[0.025987965986132622,-0.12229707092046738,-0.0023032084573060274,0.12046227604150772,0.054127778857946396,-0.13441039621829987,-0.03768241032958031,0.0015216709580272436,-0.08830250799655914,0.008073138073086739,0.10416318476200104,-0.06429769843816757,0.03345934674143791,0.011582845821976662,-0.1718319207429886,0.14061957597732544,0.006665485445410013,0.26525363326072693,0.07857217639684677,-0.012914016842842102,-0.03908003121614456,-0.2668905556201935,0.02470194175839424,0.17712369561195374,-0.0847773402929306,0.008168493397533894,0.09251608699560165,-0.31784704327583313,-0.07996243983507156,-0.09369134902954102,0.009041078388690948,0.3095840513706207,0.13874028623104095,0.0502389557659626,0.043405838310718536,-0.34247979521751404,-0.05595344305038452,0.07977639883756638,0.05287495255470276,0.06826919317245483,0.0704919770359993,-0.089564748108387,-0.1750727742910385,0.06579954922199249,-0.20594483613967896,0.059640031307935715,-0.046576082706451416,0.04251306504011154,-0.024139780551195145,0.049612611532211304,0.0036650195252150297,-0.1632068008184433,-0.20343877375125885,0.20259004831314087,0.03690330684185028,-0.026371223852038383,0.0852680653333664,0.2072223573923111,0.017544865608215332,-0.26259148120880127,-0.00047957891365513206,0.07618752121925354,-0.01928403601050377,-0.05999843776226044,0.06502697616815567,0.005821807775646448,0.07330503314733505,0.11111434549093246,-0.10763940215110779,0.18389484286308289,-0.04825275391340256,0.05795013904571533,0.09138042479753494,-0.008729800581932068,-0.033298153430223465,0.1502109318971634,-0.17138789594173431,-0.09204886108636856,0.025169633328914642,-0.17381040751934052,0.20506466925144196,0.08236397802829742,0.01774444244801998,-0.10895995795726776,0.12714937329292297,-0.023750202730298042,-0.01882048323750496,0.08447932451963425,-0.08877332508563995,0.16998031735420227,0.05092928186058998,0.13797259330749512,0.007461132016032934,-0.06254038214683533,0.08455315977334976,0.09930557012557983,0.02029445953667164,0.14427581429481506,0.1307535320520401,0.13324901461601257,0.12996020913124084,0.10110544413328171,0.06934911012649536,0.04952556639909744,0.25720664858818054,0.22128137946128845,-0.11460370570421219,-0.10847601294517517,0.17451491951942444,-0.012282862327992916,0.022417794913053513,-0.11161178350448608,0.029127109795808792,-0.07450975477695465,0.0069784242659807205,-0.22248871624469757,-0.14601704478263855,0.012372960336506367,0.2532046139240265,0.16690191626548767,-0.140614315867424,0.01510968990623951,-0.013280841521918774,0.14827953279018402,-0.27861547470092773,-0.019148696213960648,0.033921197056770325,0.030727729201316833,-0.09830290079116821,0.010538180358707905,0.09341897815465927,0.05437078699469566,-0.12373331934213638,0.09357506781816483,0.22000713646411896,-0.22786106169223785,-0.14767643809318542,0.19615215063095093,-0.07528271526098251],[-0.03619111701846123,-0.012157682329416275,-0.045325521379709244,0.06348738074302673,0.07810802012681961,0.059951309114694595,-0.048947203904390335,-0.1548459529876709,0.02286606840789318,0.14398467540740967,0.12349487841129303,-0.09006823599338531,-0.008136913180351257,-0.03737007454037666,-0.15281155705451965,-0.0075666531920433044,0.13934463262557983,0.22310781478881836,0.10954838991165161,0.03354569524526596,-0.011433064006268978,-0.17187733948230743,-0.147605761885643,-0.05441133305430412,0.03876955434679985,0.21606671810150146,-0.07517325133085251,-0.1174287423491478,-0.0766143947839737,0.11410855501890182,-0.09051637351512909,0.1888086050748825,-0.13007384538650513,0.10550151020288467,-0.027344640344381332,-0.01662294752895832,-0.004299745429307222,-0.10059186816215515,0.014222614467144012,-0.04705493897199631,-0.3493151366710663,0.07045058161020279,-0.025356577709317207,0.05730782821774483,-0.04056496545672417,0.177814781665802,0.17608846724033356,-0.026386907324194908,-0.018983444198966026,-0.013073964044451714,0.13125957548618317,0.3052580654621124,-0.060926854610443115,-0.03201109543442726,0.1115567535161972,0.09375149011611938,-0.046775735914707184,0.05200408026576042,-0.005852468777447939,-0.021291017532348633,-0.14329861104488373,0.24046902358531952,0.04291840270161629,-0.14946718513965607,-0.05466209352016449,0.13633990287780762,0.0033748692367225885,0.09372252225875854,0.12006635218858719,-0.019340477883815765,-0.08096450567245483,-0.07386627048254013,0.14632877707481384,0.1266433745622635,-0.1804226040840149,0.0166673231869936,-0.06410914659500122,-0.15445221960544586,-0.14096683263778687,-0.14183029532432556,-0.148116335272789,-0.2377983033657074,-0.02162136137485504,-0.023314043879508972,-0.12477561831474304,-0.17876356840133667,-0.20546364784240723,-0.037926219403743744,-0.08522241562604904,0.11367879062891006,0.01656736247241497,0.32812175154685974,0.1103755384683609,0.22143448889255524,-0.06795835494995117,-0.15930479764938354,0.048236045986413956,0.020652025938034058,-0.001152737531810999,-0.07999905198812485,-0.05267469212412834,-0.11716022342443466,-0.07666640728712082,0.005273295566439629,0.04367035999894142,-0.0575111098587513,-0.04303540289402008,-0.025964628905057907,-0.07464534789323807,0.045519523322582245,0.06344243139028549,0.037667445838451385,0.019683776423335075,-0.2641810178756714,-0.028297701850533485,0.08367782831192017,-0.07634173333644867,0.06004878506064415,-0.20854175090789795,-0.03595637530088425,-0.25922027230262756,0.014410530216991901,-0.14550384879112244,0.11287318170070648,-0.1241011694073677,-0.15035563707351685,0.05946734920144081,-0.22959060966968536,0.22839191555976868,0.014397100545465946,-0.08204177767038345,0.023375708609819412,0.09211104363203049,-0.09629245847463608,-0.2198178917169571,-0.1285601109266281,-0.1628606766462326,-0.13960595428943634,0.019177384674549103],[0.31851089000701904,0.07473138719797134,0.08157302439212799,0.09076409786939621,0.16818831861019135,-0.01334311068058014,-0.1837427169084549,-0.16133709251880646,-0.006043624598532915,-0.054763052612543106,-0.14069850742816925,0.04287383705377579,-0.16517016291618347,-0.007068753708153963,-0.002355882665142417,0.017474878579378128,-0.033267147839069366,0.14785587787628174,0.08171169459819794,0.1876777708530426,0.06477753818035126,0.14577190577983856,-0.07071899622678757,0.1274498999118805,0.01419762335717678,-0.1842714548110962,0.02682686038315296,0.14470984041690826,-0.006564074195921421,-0.20936572551727295,0.013700119219720364,-0.04988475143909454,0.03141465038061142,0.14345504343509674,0.03507645055651665,-0.25457701086997986,-0.2865716218948364,-0.03402549400925636,-0.04029146209359169,-0.386980265378952,0.2146032750606537,0.12791141867637634,-0.06121499463915825,0.004402353428304195,0.018277468159794807,-0.07886818796396255,0.04682592302560806,-0.05199772119522095,0.12074078619480133,-0.20899134874343872,-0.02066095918416977,0.12118750065565109,0.15062463283538818,-0.06637630611658096,-0.053680118173360825,0.12516990303993225,-0.026142647489905357,0.008337976410984993,-0.003176938509568572,-0.27655571699142456,0.16097883880138397,-0.11077596247196198,0.09464123845100403,0.26981818675994873,0.17881622910499573,0.07506468147039413,-0.0574689656496048,-0.08432337641716003,-0.10242002457380295,0.07113438844680786,0.17040318250656128,-0.04460999742150307,-0.0996759682893753,0.12023311108350754,0.009161143563687801,-0.27635765075683594,0.08804762363433838,0.18249504268169403,0.014006037265062332,0.03367966040968895,0.1993703991174698,-0.060676515102386475,-0.01730913296341896,-0.18417999148368835,0.10522282868623734,-0.033664800226688385,-0.08944341540336609,-0.125057652592659,0.24310584366321564,0.09543196111917496,0.16875940561294556,0.05033906176686287,0.16815678775310516,-0.14714281260967255,0.009201735258102417,-0.12383158504962921,-0.09156077355146408,-0.07438109070062637,0.2915753424167633,0.04346085339784622,-0.07118193060159683,0.06280183047056198,0.11603458225727081,-0.1814560890197754,0.008744649589061737,0.138154074549675,-0.2670162618160248,-0.04633538797497749,-0.0026240828447043896,0.058329615741968155,0.04832496866583824,0.09379976987838745,0.01697920262813568,0.03956982493400574,0.12330618500709534,0.01466856524348259,0.03636236488819122,-0.009513070806860924,-0.18429341912269592,0.12492896616458893,-0.020843597128987312,-0.09760729223489761,-0.2209586650133133,0.12515738606452942,0.1350221037864685,-0.14069342613220215,-0.11283347755670547,-0.13381917774677277,-0.15253391861915588,0.191928893327713,-0.08563978970050812,0.07465837150812149,-0.023772571235895157,0.015627674758434296,-0.001911395345814526,0.3066265881061554,-0.028018765151500702,0.11839182674884796,-0.1813090741634369],[0.04197936877608299,-0.20599576830863953,-0.00807540025562048,0.049220770597457886,-0.14347437024116516,-0.08170023560523987,-0.014077773317694664,0.054078392684459686,0.0016191804315894842,0.028804553672671318,-0.09954562038183212,0.03610369563102722,-0.07004378736019135,-0.023856084793806076,0.06352093815803528,-0.037844218313694,0.08034894615411758,-0.053582560271024704,-0.09435953944921494,-0.16072571277618408,0.21554085612297058,-0.1266278475522995,-0.17733266949653625,-0.1468963921070099,-0.014481188729405403,0.03634636849164963,0.13053691387176514,-0.08664301037788391,-0.20119810104370117,0.20042893290519714,-0.009221669286489487,-0.17913150787353516,0.03507767990231514,-0.0585639588534832,0.10160905122756958,0.0003614234155975282,0.3007875680923462,0.20385248959064484,-0.07490209490060806,-0.04409315437078476,0.15405802428722382,0.02351902239024639,-0.016808025538921356,-0.14559106528759003,0.20387239754199982,0.032728176563978195,0.1676694005727768,-0.10898177325725555,0.32521888613700867,0.02560579776763916,-0.03518649563193321,-0.17101618647575378,-0.10417618602514267,-0.135720357298851,0.0663420632481575,0.34824201464653015,0.2476409524679184,0.042480532079935074,0.07392863184213638,-0.09970885515213013,-0.1338140070438385,-0.07259585708379745,0.10986360162496567,-0.010850678198039532,0.31568068265914917,0.015708869323134422,0.12481153756380081,-0.08763082325458527,0.01051908265799284,-0.015992894768714905,0.07258530706167221,0.03269669786095619,0.03029915876686573,-0.05166531354188919,0.1509326696395874,-0.0592891164124012,0.08478187769651413,0.18932005763053894,-0.0026723891496658325,-0.03815252706408501,-0.2269842028617859,0.042854536324739456,0.07180574536323547,0.27574747800827026,0.08122739940881729,0.10657673329114914,0.04461842030286789,-0.017647208645939827,0.13528545200824738,-0.07617315649986267,-0.16181163489818573,-0.014298602938652039,0.08356532454490662,-0.13858908414840698,0.07737541943788528,0.11547868698835373,0.07791260629892349,-0.02082856558263302,0.02076750248670578,0.25733625888824463,0.18926087021827698,0.12582430243492126,0.13545984029769897,-0.10510468482971191,-0.10443498939275742,0.10121520608663559,0.22565191984176636,0.10633928328752518,-0.30618295073509216,-0.22304536402225494,-0.18068809807300568,0.08252505213022232,-0.020236710086464882,-0.17331670224666595,0.08908580988645554,0.09981337189674377,-0.12926991283893585,0.17032448947429657,0.18066667020320892,0.09528603404760361,-0.11174552887678146,-0.07381520420312881,0.1776217222213745,0.07780008018016815,0.046400830149650574,-0.0832211971282959,0.05779630318284035,0.03543870896100998,0.0815049484372139,-0.07205837219953537,0.021480618044734,0.1687241643667221,-0.03263382241129875,0.15620550513267517,-0.02542758919298649,-0.08003167062997818,0.0008522019488736987,-0.04520844295620918,0.0024607633240520954],[-0.147133469581604,-0.022994423285126686,0.17988307774066925,0.019935686141252518,0.023249804973602295,-0.03828864172101021,-0.0996350422501564,0.10396957397460938,-0.10261429101228714,-0.11713607609272003,0.2851051688194275,-0.01325169950723648,0.032310739159584045,-0.0868317112326622,-0.11226321756839752,0.04361662641167641,0.11477062851190567,-0.006353726144880056,-0.15727819502353668,0.05830531194806099,-0.11247241497039795,-0.04193367809057236,-0.34220609068870544,0.021855425089597702,-0.25449588894844055,-0.1562192291021347,0.13774795830249786,-0.15878519415855408,0.165827214717865,-0.25510725378990173,0.1208944320678711,-0.049214355647563934,0.09405292570590973,-0.07829935103654861,-0.3281466066837311,-0.049547698348760605,-0.0753355473279953,0.044142939150333405,-0.17613396048545837,0.1726313680410385,-0.027410928159952164,-0.01012594997882843,-0.14423054456710815,-0.05770358070731163,0.07236097753047943,0.2335691899061203,-0.007072933949530125,-0.1091279461979866,-0.09201380610466003,-0.16351066529750824,-0.12250570207834244,0.08003366738557816,-0.07683909684419632,-0.07445765286684036,0.025391584262251854,-0.0779494121670723,-0.013598473742604256,0.16768479347229004,0.10705292224884033,-0.2033209651708603,0.12708504498004913,0.1544879972934723,0.16984736919403076,0.05862284079194069,0.08800025284290314,0.10136900842189789,-0.02505902759730816,-0.1545277088880539,-0.04774399474263191,0.11233512312173843,-0.1693669855594635,-0.0577496699988842,0.0476427860558033,0.08979368209838867,0.04818018525838852,-0.1972416192293167,0.05636174976825714,-0.10506775975227356,-0.1675056666135788,0.08647532016038895,0.0320400595664978,0.1227019652724266,0.002107970416545868,0.10010553151369095,0.032590750604867935,-0.055544428527355194,-0.09116694331169128,0.0029812874272465706,0.2042044997215271,-0.058427680283784866,-0.09080619364976883,-0.04228512570261955,-0.02515740506350994,-0.006233407650142908,0.023299524560570717,0.05048348382115364,0.04103562980890274,-0.052084069699048996,0.19457770884037018,0.008064541965723038,0.0340278297662735,-0.169166699051857,0.14776448905467987,0.047886352986097336,-0.1779308170080185,0.11140426248311996,0.01909627951681614,0.114037424325943,-0.15013277530670166,0.09788020700216293,-0.18071973323822021,-0.05688120424747467,-0.2652193605899811,0.02621481381356716,-0.23729325830936432,0.03895937278866768,0.08223070204257965,0.043220918625593185,0.04440320283174515,0.07947729527950287,0.05771242454648018,-0.024548590183258057,0.05290878191590309,0.09000364691019058,-0.06105579808354378,0.08375882357358932,-0.13967476785182953,-0.04079029709100723,0.10987863689661026,-0.07549288123846054,-0.05799851939082146,-0.319034218788147,0.09819746762514114,-0.01723351515829563,0.06823211163282394,-0.16778334975242615,0.16737885773181915,0.02736959233880043,-0.04252178966999054],[0.11965769529342651,-0.07466497272253036,0.08323489129543304,-0.05265047773718834,0.10023253411054611,0.07787012308835983,0.17578323185443878,0.1874253898859024,-0.11224758625030518,-0.1884153187274933,0.16780678927898407,-0.27564817667007446,-0.10033871978521347,-0.21744932234287262,0.04956372082233429,-0.0979107990860939,0.0016197034856304526,0.17415466904640198,0.11306896060705185,-0.14183533191680908,-0.010119659826159477,-0.036198265850543976,0.07049914449453354,-0.030545765534043312,-0.2062305361032486,0.21873588860034943,0.06105298176407814,-0.050563961267471313,-0.22635436058044434,0.03758696839213371,0.09385388344526291,-0.01255242433398962,0.1366369128227234,0.06268586218357086,-0.3071022927761078,0.029158608987927437,-0.19963186979293823,0.023153817281126976,0.05956980958580971,0.12196493148803711,0.12473971396684647,0.21160094439983368,-0.04042235389351845,0.140464648604393,-0.06774194538593292,-0.1037849634885788,-0.07647385448217392,0.010875833220779896,0.21823523938655853,0.11556492000818253,0.0032618411350995302,-0.0578075647354126,-0.025857774540781975,-0.06127339228987694,0.09585010260343552,0.20795823633670807,0.015248115174472332,-0.027687078341841698,-0.18839600682258606,-0.012040821835398674,-0.1388883888721466,0.010185755789279938,0.00609376048669219,-0.0655331090092659,-0.09896489977836609,0.1819370985031128,0.03340821713209152,-0.019307425245642662,0.2020525336265564,0.27668261528015137,0.029866700991988182,-0.2003629505634308,0.011661404743790627,0.0004266180912964046,-0.03987440839409828,0.008442772552371025,0.17301176488399506,0.3112644851207733,0.05480639263987541,-0.014097186736762524,0.0015178057365119457,0.2633165717124939,-0.035838983952999115,-0.07725220918655396,-0.02949763648211956,0.03559909015893936,0.014020866714417934,-0.025376316159963608,-0.09128306806087494,0.024386003613471985,-0.07150012999773026,0.10362689942121506,-0.09563259035348892,0.2077580690383911,-0.2370172142982483,0.18229001760482788,-0.1425894796848297,0.07473138719797134,-0.17149071395397186,0.10329872369766235,0.00619286997243762,0.06499132513999939,0.21040178835391998,0.07000058144330978,-0.16291095316410065,0.11359468847513199,0.01472111139446497,0.22424398362636566,-0.0440194346010685,0.02384723722934723,0.03082066774368286,-0.07179751992225647,0.19862431287765503,-0.01038120873272419,-0.14185820519924164,0.14371804893016815,0.09881888329982758,-0.159281924366951,0.147568941116333,-0.2379988729953766,0.1550944447517395,-0.11041481792926788,0.05348094180226326,-0.16313280165195465,0.07556726038455963,0.04049277305603027,-0.20054768025875092,-0.00803902093321085,-0.1822035014629364,0.021921539679169655,-0.03979111090302467,0.07313193380832672,-0.19688165187835693,-0.20530934631824493,-0.01379767619073391,-0.003096746513620019,0.16117681562900543,-0.03751065954566002,-0.15750426054000854],[0.1328631341457367,-0.22804409265518188,-0.07388264685869217,0.09671259671449661,-0.059831731021404266,0.0762670636177063,0.10174156725406647,-0.04645908996462822,-0.03103894554078579,0.19191455841064453,0.10251954942941666,0.14855407178401947,0.014085598289966583,0.1780998855829239,0.14913956820964813,-0.010430077090859413,-0.09041613340377808,0.13499800860881805,0.04802827537059784,-0.04184219613671303,-0.1303679347038269,-0.07543104887008667,-0.11372116953134537,-0.08677899092435837,0.05573407560586929,-0.07993221282958984,0.06697793304920197,0.06270940601825714,-0.21945592761039734,0.18733063340187073,-0.010361308231949806,0.06062298268079758,0.16130180656909943,-0.046914782375097275,-0.13075830042362213,-0.030494360253214836,-0.2654755711555481,0.1457483321428299,-0.030418280512094498,-0.08428411185741425,0.01999184861779213,-0.18929523229599,-0.18497087061405182,0.05515076592564583,0.014884598553180695,0.017545368522405624,-0.16237933933734894,0.1809738427400589,0.07226994633674622,-0.012769067659974098,-0.012456861324608326,0.10695942491292953,0.23209203779697418,-0.016064118593931198,0.13669805228710175,-0.05135853961110115,0.11915628612041473,-0.3801249861717224,-0.10968014597892761,0.002777444664388895,0.11503586918115616,-0.11202088743448257,0.1004522368311882,0.026388058438897133,-0.13432420790195465,-0.13566109538078308,0.0882616862654686,-0.06797045469284058,0.0037227605935186148,0.0614563450217247,-0.007162827532738447,-0.032456498593091965,-0.2672252953052521,-0.0009576783631928265,-0.11107312887907028,0.1536768674850464,0.027743646875023842,0.05418155714869499,-0.09535544365644455,0.05928319692611694,-0.11071848124265671,0.00790767278522253,0.002682093530893326,0.04151277244091034,-0.03682845085859299,0.08361786603927612,-0.17674097418785095,-0.13267876207828522,0.15695644915103912,0.14964783191680908,-0.18475206196308136,-0.20993152260780334,0.18175123631954193,-0.1227097436785698,-0.1904086321592331,-0.04155030474066734,-0.16266928613185883,0.033931076526641846,0.22679847478866577,-0.09822562336921692,0.1626121699810028,-0.32791709899902344,-0.16629278659820557,-0.0337468758225441,-0.12214215099811554,-0.1682898849248886,-0.21375270187854767,0.029568517580628395,0.16332939267158508,0.4107952415943146,0.059248778969049454,0.21406377851963043,0.08249358087778091,0.045940548181533813,0.06873971968889236,0.06125080585479736,0.0059647755697369576,-0.1065758764743805,0.16905902326107025,0.07136775553226471,-0.0959877148270607,0.058198705315589905,-0.1755734086036682,0.017789287492632866,-0.1803053915500641,-0.17729297280311584,-0.09984204173088074,0.2732420563697815,-0.05051370710134506,0.13891549408435822,0.00852703582495451,0.2333172857761383,-0.013844320550560951,-0.22102119028568268,0.02117358334362507,0.07848052680492401,-0.07486291974782944,0.07178773730993271,0.05756254866719246],[0.017212312668561935,0.0028060260228812695,0.024146519601345062,0.04922030493617058,0.07593615353107452,0.17671482264995575,-0.12265080213546753,0.035892389714717865,-0.06469447165727615,0.04905961826443672,0.09049884229898453,0.11714944243431091,-0.10582005232572556,0.1699865162372589,0.20240305364131927,-0.000026175004677497782,0.027181563898921013,-0.09067680686712265,-0.15618310868740082,-0.19104740023612976,0.12478882819414139,0.06794563680887222,-0.0015561543405056,-0.05252011492848396,-0.04619549214839935,0.09374383836984634,0.060396067798137665,-0.17589828372001648,0.03473101183772087,-0.10077525675296783,-0.030075352638959885,0.027665749192237854,-0.24200589954853058,-0.07518113404512405,0.16455964744091034,0.34660062193870544,-0.029239511117339134,0.03185848519206047,0.014067623764276505,0.05646606534719467,0.021756507456302643,-0.11041320115327835,0.12156146764755249,0.10589666664600372,0.021360915154218674,0.04412947595119476,-0.05089534446597099,0.011759492568671703,-0.03493781387805939,-0.10676556080579758,0.14079144597053528,-0.017666839063167572,-0.11183804273605347,-0.10623487085103989,-0.02893398143351078,-0.016236640512943268,-0.3054081201553345,-0.007851063273847103,-0.1112510934472084,0.1808008849620819,-0.08319815248250961,-0.37889885902404785,-0.016559159383177757,0.05163751542568207,-0.1468118131160736,-0.11495357751846313,0.020707303658127785,-0.0970727950334549,-0.10415815562009811,-0.10811258852481842,0.06246297433972359,-0.018631666898727417,-0.0815042033791542,0.0855976864695549,-0.1518847644329071,-0.1603422313928604,-0.024398647248744965,-0.11534580588340759,-0.03294050320982933,0.0496894046664238,0.06460565328598022,-0.034239452332258224,0.00495182303711772,-0.13510672748088837,0.03444981947541237,-0.15939900279045105,0.07436823099851608,0.0408206433057785,-0.0242861770093441,-0.07696329057216644,-0.11852473765611649,-0.07233314216136932,0.19197192788124084,0.01006265077739954,0.0038220102433115244,0.10665227472782135,-0.094213105738163,-0.03296804800629616,-0.025454256683588028,-0.19249217212200165,0.11711719632148743,-0.2512962818145752,-0.2796666920185089,0.0799727588891983,0.22401109337806702,0.07377534359693527,0.03143792226910591,0.0933116152882576,-0.2617835998535156,0.07895512133836746,-0.04447738453745842,0.3359830677509308,0.14796285331249237,0.048790689557790756,-0.07854276895523071,-0.034874334931373596,-0.15705320239067078,-0.10427246242761612,-0.054063305258750916,0.08485954999923706,-0.20021575689315796,0.13716697692871094,-0.09125551581382751,-0.06669718772172928,-0.006153421942144632,-0.03481035679578781,-0.1028209924697876,0.02215012162923813,-0.0686730444431305,-0.15083542466163635,0.02808750420808792,0.32545503973960876,0.000903065491002053,0.10137050598859787,-0.1471107453107834,0.06737324595451355,0.10749252140522003,-0.0079412292689085,-0.00924669299274683],[0.04081326350569725,0.17497339844703674,0.03810213506221771,0.08347589522600174,-0.0778314545750618,-0.06837586313486099,-0.09872743487358093,-0.039640482515096664,-0.11237725615501404,-0.028837814927101135,-0.25430935621261597,0.08489122986793518,0.09088484942913055,-0.27907440066337585,-0.06103389710187912,-0.027992069721221924,-0.09602486342191696,-0.02878519333899021,-0.13210079073905945,0.002601257525384426,0.1271786093711853,0.018083225935697556,-0.10545945167541504,-0.05514669418334961,-0.07128950953483582,0.02181357517838478,0.06896036118268967,0.026534125208854675,-0.06070835143327713,-0.02652883529663086,0.032313358038663864,0.014004790224134922,0.08496994525194168,-0.09267598390579224,-0.04425789788365364,-0.018797527998685837,-0.05446261167526245,0.22038604319095612,-0.1912786215543747,-0.03874445706605911,0.3140445947647095,0.13122953474521637,0.071632981300354,-0.035435669124126434,0.0371609665453434,-0.07381198555231094,-0.03507585823535919,-0.04932525008916855,0.15938395261764526,-0.00640217587351799,-0.057014741003513336,-0.12176751345396042,0.02514510042965412,-0.06286384910345078,0.09722818434238434,-0.14192833006381989,0.0005466379807330668,0.05470219999551773,-0.1473851203918457,-0.11718916147947311,0.0665590763092041,-0.1597653180360794,-0.029766051098704338,-0.1775672733783722,0.11644896864891052,-0.00030164458439685404,0.17533427476882935,0.05109291896224022,-0.07271315902471542,-0.04507490620017052,-0.21518170833587646,0.03906508907675743,0.06402062624692917,-0.08008996397256851,0.0013979788636788726,0.14200738072395325,-0.31396204233169556,-0.12593241035938263,0.22014088928699493,-0.13035881519317627,-0.0642002522945404,0.048792507499456406,0.02566554769873619,0.1287771314382553,0.028582604601979256,0.130831778049469,-0.14739049971103668,-0.13110168278217316,0.004281630273908377,0.21917268633842468,0.0644238218665123,-0.001954072155058384,0.07289672642946243,-0.2912253439426422,0.16058483719825745,-0.09246629476547241,0.025069212540984154,-0.2210184633731842,-0.10758157819509506,0.07330648601055145,-0.010883684270083904,0.15669940412044525,0.11381099373102188,0.10716893523931503,0.008050785399973392,0.11452474445104599,-0.17339567840099335,0.008454794995486736,-0.2534036338329315,-0.1694948971271515,0.1013980284333229,0.0893501564860344,0.009321552701294422,-0.07260650396347046,0.006690837908536196,0.03136444464325905,-0.10231661796569824,0.027150269597768784,0.15195737779140472,0.057190559804439545,-0.047611214220523834,-0.04808051884174347,0.04570313170552254,-0.42696017026901245,0.06666095554828644,-0.14015865325927734,-0.08659742772579193,-0.03272511437535286,0.028441550210118294,0.17799067497253418,-0.06306024640798569,0.12202855944633484,0.04608572646975517,-0.03736468777060509,-0.2462073266506195,0.035792093724012375,-0.21241360902786255,-0.11451815813779831,-0.000675663526635617],[0.10917593538761139,0.1359436959028244,-0.018250877037644386,0.04304378479719162,-0.2258739471435547,0.08835107833147049,0.12720629572868347,-0.10850397497415543,-0.00614009378477931,-0.08194144070148468,-0.02323410101234913,0.1252647191286087,0.13249577581882477,-0.046163734048604965,0.14449642598628998,-0.21614833176136017,0.06704562902450562,0.004944357089698315,-0.06021498516201973,-0.014118694700300694,0.12423482537269592,0.29536744952201843,0.29890012741088867,-0.12187265604734421,-0.08402334153652191,-0.02913384884595871,-0.03762117028236389,0.10072772204875946,-0.10044331103563309,-0.025302959606051445,0.07706375420093536,-0.018542775884270668,0.026452815160155296,-0.2579752504825592,0.055588528513908386,-0.07686356455087662,0.1838773936033249,-0.0590197779238224,0.09203110635280609,0.0828847661614418,-0.09216918051242828,0.09150223433971405,-0.047583889216184616,-0.141342431306839,0.133430615067482,0.058660972863435745,-0.11464788764715195,0.12893463671207428,0.08315978944301605,0.04885134845972061,0.08872370421886444,0.11661779135465622,-0.23890134692192078,-0.07508398592472076,0.18616046011447906,0.014166637323796749,-0.015185748226940632,-0.007145666982978582,0.05323934927582741,-0.11948465555906296,-0.08388015627861023,-0.039045218378305435,-0.02629120461642742,-0.059991028159856796,0.12647391855716705,0.014107584953308105,0.03183175250887871,0.015095913782715797,0.00891371164470911,0.29992756247520447,0.07431720197200775,0.038962770253419876,0.09174235910177231,-0.03146713227033615,-0.037488289177417755,0.1062701866030693,0.024561865255236626,-0.017457429319620132,-0.12379813939332962,0.059172652661800385,-0.025489268824458122,0.1858542263507843,-0.017928240820765495,-0.07947757095098495,0.10911786556243896,0.09313536435365677,-0.03565112501382828,0.06542215496301651,-0.06258872896432877,-0.1668420135974884,-0.010024504736065865,0.05329420045018196,-0.11968906968832016,-0.07663340866565704,0.0596717968583107,-0.05922539159655571,-0.06648499518632889,-0.005048784427344799,0.058010365813970566,0.0552152618765831,0.12293936312198639,0.22009703516960144,-0.10288155823945999,-0.02807200513780117,-0.056547436863183975,0.08677047491073608,0.12291360646486282,-0.12887266278266907,0.06283614784479141,-0.205131396651268,0.04453620687127113,-0.06278564035892487,-0.04515206441283226,0.1342678815126419,0.07215353101491928,-0.3487740159034729,0.11871826648712158,0.10416726022958755,0.10024520754814148,0.0413716658949852,0.2539578080177307,-0.06927502900362015,-0.0765484869480133,-0.06975193321704865,-0.06611136347055435,0.06640199571847916,-0.01922844722867012,0.07290557026863098,0.08298750221729279,-0.1721813976764679,-0.14096945524215698,-0.1765267699956894,0.03392829746007919,0.10682477056980133,0.03566453233361244,-0.060846760869026184,0.11172834038734436,0.13938122987747192,-0.04535738006234169],[-0.24195648729801178,-0.03372446075081825,0.13003236055374146,0.0560147725045681,0.023178422823548317,0.06130081042647362,-0.10661307722330093,-0.06713983416557312,-0.06522136181592941,-0.11669212579727173,0.03398923575878143,0.2041817456483841,0.030579131096601486,-0.17924724519252777,-0.03777800872921944,-0.12895560264587402,-0.1270652562379837,0.17711156606674194,0.09821104258298874,-0.021146757528185844,-0.06441701948642731,-0.1470867544412613,0.08266071230173111,0.13628463447093964,-0.06591556966304779,-0.0004690405330620706,-0.07921057194471359,0.06429353356361389,0.01067169290035963,-0.10382643342018127,-0.23883910477161407,0.1224239245057106,-0.14988288283348083,0.185355082154274,0.1619994044303894,0.04202912375330925,-0.003432551398873329,0.15262974798679352,-0.0162979569286108,0.18566152453422546,0.05972970277070999,0.0464109443128109,-0.07396364212036133,-0.03687033802270889,0.09724075347185135,0.149728924036026,-0.1147998720407486,0.015910135582089424,-0.08198751509189606,0.11734899878501892,0.06223120167851448,0.04103747755289078,-0.04343511536717415,-0.12716256082057953,-0.047138512134552,0.1957930326461792,-0.05985254421830177,0.06425081193447113,0.052463483065366745,0.07577633112668991,-0.0891529768705368,-0.01991567574441433,0.14990632236003876,0.04907264560461044,-0.12153453379869461,0.02678416669368744,0.11162091046571732,0.08039677143096924,0.025754140689969063,-0.030782021582126617,0.06211218237876892,-0.10167815536260605,-0.1401391327381134,0.06275560706853867,0.15353797376155853,0.09967352449893951,-0.09532609581947327,-0.0068196821957826614,0.0327051542699337,0.02135305106639862,-0.305729478597641,0.12107204645872116,-0.17478898167610168,-0.09828728437423706,-0.09317396581172943,-0.09559763967990875,-0.17302630841732025,0.22903941571712494,-0.24109651148319244,-0.012220766395330429,0.1848457008600235,-0.2857828736305237,0.18797534704208374,0.047365427017211914,0.10100040584802628,-0.27606824040412903,-0.072162926197052,0.07923193275928497,-0.01076509989798069,-0.04245923087000847,-0.09252849966287613,-0.038135722279548645,0.02009323053061962,0.22321094572544098,-0.09005197882652283,0.04529907926917076,0.061819158494472504,0.1548050343990326,0.01875998079776764,0.11640726029872894,0.05224437639117241,-0.05656590312719345,0.00009131337719736621,0.023913316428661346,-0.1914379745721817,-0.024578627198934555,0.05551941692829132,-0.11666902154684067,-0.33141669631004333,-0.10055959224700928,0.2713129222393036,0.01562462281435728,0.020984729751944542,0.06308714300394058,-0.03725510463118553,-0.21430251002311707,-0.004806876182556152,0.28668445348739624,0.07440383732318878,-0.21732045710086823,0.0868767574429512,0.09351500123739243,-0.05130573734641075,-0.024036632850766182,-0.14211569726467133,0.13780300319194794,0.14602218568325043,-0.03037414886057377,