[[0.04900972172617912],[0.14929383993148804],[0.18955859541893005],[0.027624735608696938],[-0.058700140565633774],[-0.1882871687412262],[-0.17875953018665314],[-0.17277933657169342],[0.06549286842346191],[-0.1013459712266922],[0.10537003725767136],[-0.006698909681290388],[-0.0010850366670638323],[-0.17916454374790192],[0.07632546126842499],[0.04899081960320473],[-0.048492252826690674],[-0.19795843958854675],[-0.14684456586837769],[-0.1012783795595169],[-0.06223884969949722],[0.11646980792284012],[0.4536607265472412],[-0.03712383657693863],[0.052394285798072815],[0.0038800581824034452],[-0.22081299126148224],[-0.048954010009765625],[-0.09446841478347778],[-0.15007568895816803],[-0.10201530903577805],[0.03376340866088867],[0.1772938221693039],[-0.18016670644283295],[-0.05444773659110069],[0.08710452169179916],[-0.09677080065011978],[0.005501070525497198],[0.17515666782855988],[0.06237172335386276],[0.14482206106185913],[-0.06839042901992798],[0.11543843150138855],[-0.08479640632867813],[-0.06730474531650543],[-0.010980167426168919],[-0.1400556117296219],[0.28206586837768555],[-0.11885713785886765],[0.17938357591629028],[0.09903740882873535],[0.017865216359496117],[-0.20850344002246857],[0.15301792323589325],[0.05669255927205086],[-0.09568902850151062],[-0.11092894524335861],[0.05536390841007233],[-0.015093648806214333],[-0.05435577407479286],[-0.26498767733573914],[0.07264493405818939],[-0.035119857639074326],[0.007626795209944248],[0.1530972123146057],[-0.05231336131691933],[-0.115193672478199],[-0.19760702550411224],[0.07405517250299454],[0.039252761751413345],[-0.09027810394763947],[-0.05328518897294998],[-0.017115814611315727],[-0.07509086281061172],[0.14246945083141327],[-0.06954079866409302],[-0.06706490367650986],[0.1308068335056305],[-0.13417059183120728],[0.12796136736869812],[0.042762547731399536],[0.016474375501275063],[-0.019307535141706467],[0.1070382222533226],[-0.013631366193294525],[0.07402318716049194],[0.07693779468536377],[0.23556779325008392],[0.029125183820724487],[0.08104735612869263],[0.08647606521844864],[-0.16872596740722656],[-0.08966562896966934],[-0.1621268093585968],[0.03265911340713501],[-0.06882616132497787],[0.19059543311595917],[-0.11218666285276413],[-0.026134967803955078],[0.17504188418388367],[0.012843044474720955],[-0.26811808347702026],[-0.1572793871164322],[0.362527459859848],[0.027454271912574768],[-0.15341541171073914],[-0.07017071545124054],[-0.07442466914653778],[0.1332225501537323],[0.20964190363883972],[0.24556414783000946],[0.09828174114227295],[-0.020221808925271034],[0.14789366722106934],[0.09454429149627686],[-0.054684340953826904],[0.0789898931980133],[0.05994860827922821],[0.027456508949398994],[-0.0689842477440834],[0.07573980838060379],[-0.07264961302280426],[-0.20208869874477386],[0.012174087576568127],[0.11803712695837021],[-0.22072605788707733],[0.021271394565701485],[-0.251571923494339]]