[[-0.030315976589918137],[-0.18607522547245026],[-0.4106047451496124],[-0.3187541961669922],[0.08372717350721359],[0.17223715782165527],[0.37567031383514404],[-0.2598856985569],[-0.013358025811612606],[0.3323495388031006],[-0.31479915976524353],[-0.02550753578543663],[0.2006039023399353],[-0.2184203714132309],[-0.3175542950630188],[-0.28875064849853516],[-0.09077651053667068],[-0.21470771729946136],[0.18098901212215424],[-0.0546470545232296],[-0.31049010157585144],[0.40247687697410583],[-0.12789130210876465],[-0.23879685997962952],[-0.006812526844441891],[-0.24590367078781128],[-0.27110543847084045],[0.07894144207239151],[0.06442428380250931],[-0.1526595801115036],[-0.3535044491291046],[0.02179085835814476],[0.10772465914487839],[-0.34784775972366333],[-0.040877554565668106],[0.12203505635261536],[-0.09508897364139557],[-0.1689578890800476],[-0.08339227735996246],[-0.21071431040763855],[0.18420565128326416],[-0.1341470181941986],[-0.2716735601425171],[-0.10303578525781631],[0.18389707803726196],[-0.06549913436174393],[-0.09182990342378616],[0.09069608896970749],[0.17502610385417938],[-0.11384768038988113],[-0.15521620213985443],[-0.3448126018047333],[-0.056390706449747086],[-0.1360054463148117],[0.021906528621912003],[0.11557597666978836],[-0.0657690092921257],[-0.131490558385849],[-0.13416250050067902],[-0.07144681364297867],[-0.05265170708298683],[0.03131948783993721],[-0.013497656211256981],[-0.3674691915512085]]