[[0.10834524780511856],[-0.08346910029649734],[-0.2658337652683258],[0.41454169154167175],[0.014328951947391033],[0.07662518322467804],[-0.027825290337204933],[-0.24698017537593842],[-0.00438440078869462],[0.2312038093805313],[-0.16550162434577942],[-0.11666913330554962],[-0.003216880839318037],[-0.38594162464141846],[0.07226546108722687],[-0.0842914953827858],[-0.04878011718392372],[-0.1745350956916809],[-0.22553633153438568],[-0.22044852375984192],[-0.20114614069461823],[0.10233467817306519],[0.3393665552139282],[-0.1754135638475418],[-0.03375794366002083],[0.07620605826377869],[0.05218245089054108],[-0.038234081119298935],[0.12261757254600525],[0.12143106758594513],[-0.04494345560669899],[0.19708889722824097],[0.042684104293584824],[-0.13815639913082123],[0.002322296379134059],[-0.12590840458869934],[-0.151182159781456],[0.13707298040390015],[-0.07775631546974182],[-0.13206374645233154],[0.19681516289710999],[0.15623857080936432],[-0.30883631110191345],[0.13583457469940186],[-0.1147078424692154],[-0.1216406524181366],[0.25416475534439087],[0.3594834506511688],[-0.08473893254995346],[-0.15807302296161652],[-0.0531303733587265],[-0.026355747133493423],[-0.20787255465984344],[0.05724214017391205],[-0.26465874910354614],[0.11013782769441605],[-0.30015650391578674],[0.040520451962947845],[0.10622214525938034],[0.2222815304994583],[0.021608855575323105],[-0.027071500197052956],[-0.313259094953537],[0.19088555872440338]]