[[0.03375035896897316],[-0.2013566642999649],[-0.009066659957170486],[0.04094868525862694],[-0.06556427478790283],[0.186250701546669],[-0.15119583904743195],[0.24416868388652802],[0.0165806096047163],[0.07196205854415894],[-0.05350497364997864],[-0.13565689325332642],[-0.25110572576522827],[0.1558706909418106],[0.08371001482009888],[-0.17417475581169128],[0.041272394359111786],[-0.08742346614599228],[0.07689095288515091],[-0.42062705755233765],[-0.05529003217816353],[0.05736992508172989],[-0.27063271403312683],[0.08674393594264984],[-0.05310588330030441],[-0.04935272037982941],[0.10446172207593918],[0.15797525644302368],[0.052961792796850204],[0.07676857709884644],[-0.011093070730566978],[0.09924344718456268],[0.19459286332130432],[-0.14068272709846497],[-0.10416588187217712],[-0.16567718982696533],[0.027745913714170456],[-0.1782858669757843],[-0.023191863670945168],[-0.027907967567443848],[-0.16476024687290192],[0.27381107211112976],[-0.3307328522205353],[-0.08950735628604889],[0.012613167986273766],[0.03241441398859024],[-0.018098779022693634],[-0.0990246906876564],[0.20993927121162415],[-0.09135826677083969],[0.17166432738304138],[-0.002874322235584259],[0.0893976017832756],[-0.18392114341259003],[0.09321069717407227],[0.14598383009433746],[-0.16220566630363464],[-0.07675822824239731],[0.15325187146663666],[0.1376008689403534],[-0.11802094429731369],[0.13419099152088165],[0.025668559595942497],[-0.021471865475177765],[0.016089782118797302],[0.04783252254128456],[-0.005057662259787321],[0.025579243898391724],[-0.07240679860115051],[-0.24448543787002563],[-0.13942623138427734],[-0.12206124514341354],[-0.030783457681536674],[-0.030207723379135132],[0.11963801831007004],[-0.1605372130870819],[-0.06474766135215759],[-0.11799753457307816],[0.18272939324378967],[0.05834256857633591],[-0.09538789093494415],[0.06023218482732773],[0.2541252672672272],[-0.21398146450519562],[-0.04996360093355179],[-0.03222006559371948],[0.06363601982593536],[0.12192925810813904],[-0.0637793093919754],[-0.1067071408033371],[-0.1914145052433014],[-0.10199981182813644],[-0.06514453887939453],[-0.06825456023216248],[0.17435751855373383],[-0.23125635087490082],[-0.27869027853012085],[0.11296351253986359],[0.06402604281902313],[-0.27726778388023376],[-0.14998702704906464],[-0.13707023859024048],[0.160402312874794],[-0.07801679521799088],[-0.07943601906299591],[0.03175979480147362],[-0.036443401128053665],[0.11362884193658829],[0.047140683978796005],[-0.029686911031603813],[-0.1129360944032669],[0.0055818380787968636],[-0.18150493502616882],[0.029866918921470642],[0.1893620491027832],[0.18055753409862518],[0.09988855570554733],[-0.25216251611709595],[0.13998286426067352],[0.010292470455169678],[-0.01038239523768425],[-0.22462137043476105],[-0.22715817391872406],[0.10795251280069351],[-0.06693902611732483],[0.011736549437046051],[-0.08591482788324356],[0.17395909130573273]]