[[0.08240748196840286],[0.03823595121502876],[-0.1709001213312149],[0.011717075482010841],[-0.18031157553195953],[0.0980052500963211],[-0.032279595732688904],[0.1360633224248886],[0.15892940759658813],[-0.10978920012712479],[-0.02329825796186924],[-0.11009065806865692],[-0.01826331578195095],[0.009741120971739292],[-0.2860472798347473],[-0.038892265409231186],[0.007374127395451069],[-0.0713062435388565],[-0.08549457043409348],[0.03505401685833931],[-0.11568336188793182],[-0.10597697645425797],[-0.24239006638526917],[-0.14302818477153778],[-0.005219572223722935],[-0.12065242975950241],[0.018064385280013084],[0.0164528526365757],[0.03822978585958481],[-0.15289564430713654],[-0.04925458878278732],[-0.04879801720380783],[0.006562075577676296],[-0.215680330991745],[-0.20458604395389557],[-0.1697937250137329],[-0.11204447597265244],[0.16310155391693115],[-0.07468041032552719],[0.22016777098178864],[0.12435265630483627],[0.1252184957265854],[-0.15176916122436523],[-0.012216012924909592],[-0.08022844046354294],[0.21116337180137634],[-0.08484616875648499],[0.016214365139603615],[0.08091697841882706],[-0.014097493141889572],[-0.027399148792028427],[-0.030283519998192787],[-0.15136225521564484],[-0.0018549822270870209],[0.018899332731962204],[0.04748132452368736],[-0.20373563468456268],[-0.1533575803041458],[-0.07727222889661789],[-0.11364946514368057],[0.11819471418857574],[-0.042770594358444214],[0.003656454151496291],[0.27241092920303345],[-0.07697682082653046],[0.10104642808437347],[-0.0004509454593062401],[-0.10695218294858932],[-0.023092765361070633],[-0.03987831622362137],[-0.21596616506576538],[0.25192561745643616],[0.02625022828578949],[0.10311882197856903],[-0.2195073515176773],[-0.16496102511882782],[0.07668381184339523],[-0.044472143054008484],[-0.0026137821841984987],[-0.09549295902252197],[0.15070325136184692],[-0.031154442578554153],[-0.13042064011096954],[-0.010661831125617027],[-0.1261661946773529],[0.022210480645298958],[0.07339180260896683],[-0.13782623410224915],[-0.13798119127750397],[0.19156092405319214],[-0.0953524261713028],[0.08803723752498627],[-0.1948344111442566],[0.08873150497674942],[0.07584317028522491],[-0.09418751299381256],[-0.07039134204387665],[-0.09247550368309021],[-0.43296143412590027],[-0.058664124459028244],[-0.09327142685651779],[-0.13847149908542633],[-0.13646866381168365],[0.09979436546564102],[-0.130588099360466],[-0.048699378967285156],[-0.07255187630653381],[-0.08679671585559845],[-0.08713745325803757],[0.04881196469068527],[-0.20381399989128113],[0.15548907220363617],[-0.0151841314509511],[-0.23383449018001556],[-0.10403174161911011],[-0.03615256026387215],[-0.09458818286657333],[0.15395359694957733],[-0.1704995185136795],[-0.16914032399654388],[-0.17193594574928284],[-0.2710722088813782],[-0.07332589477300644],[-0.10057277977466583],[0.15894192457199097],[-0.09084651619195938],[-0.13913556933403015],[-0.0052832914516329765],[-0.018737278878688812],[-0.05856400728225708],[-0.37789827585220337],[0.18504248559474945],[-0.04409762844443321],[-0.05526336282491684],[-0.13428419828414917],[-0.17046864330768585],[0.15147371590137482],[0.06994828581809998],[-0.1986415535211563],[0.11175928264856339],[-0.14848507940769196],[0.06303264200687408],[-0.013326933607459068],[-0.06102769821882248],[-0.018631555140018463],[0.08271393179893494],[-0.08580023050308228],[-0.1548568606376648],[0.03742959722876549],[0.015800466760993004],[-0.15490446984767914],[-0.028621293604373932],[-0.10293333232402802],[-0.0768183097243309],[0.05449923500418663],[0.15748384594917297],[-0.3710833489894867],[-0.0642673596739769],[0.02294279634952545],[0.02390255033969879],[-0.02062917873263359],[0.154035747051239],[-0.06366964429616928],[0.032452426850795746],[0.045614417642354965],[0.1582489013671875],[-0.04874801263213158],[0.15266236662864685],[0.06231461837887764],[0.06892700493335724],[0.010465141385793686],[-0.07043901085853577],[-0.10585436969995499],[-0.006324770860373974],[0.08709883689880371],[-0.34148648381233215],[0.021431894972920418],[0.0003266527783125639],[0.03486494719982147],[-0.06320498138666153],[-0.13587194681167603],[-0.08709799498319626],[-0.19073337316513062],[0.1603558212518692],[-0.015080668963491917],[-0.1676071286201477],[-0.07173186540603638],[0.010445247404277325],[-0.22950588166713715],[0.2114679366350174],[0.08175503462553024],[0.27637043595314026],[-0.19679372012615204],[-0.16851958632469177],[-0.032588958740234375],[-0.12319249659776688],[-0.0912143737077713],[0.16260240972042084],[-0.24142539501190186],[0.16407158970832825],[-0.05178309231996536],[-0.19177387654781342],[0.06772325187921524],[0.034806929528713226],[-0.03557660058140755],[-0.04852118715643883],[-0.151982381939888],[0.15731114149093628],[0.015401575714349747],[-0.0645928829908371],[-0.01630590669810772],[-0.04329761862754822],[-0.10181458294391632],[0.18435038626194],[-0.012179574929177761],[-0.08527718484401703],[0.06730303913354874],[-0.15888351202011108],[-0.07707677036523819],[-0.16615545749664307],[0.024527838453650475],[-0.04555806145071983],[0.07687301933765411],[0.19044451415538788],[-0.023401284590363503],[-0.048729244619607925],[-0.00626355828717351],[-0.09354845434427261],[0.023069357499480247],[0.07981382310390472],[0.1148332729935646],[-0.007822311483323574],[0.10704969614744186],[0.18879812955856323],[-0.033190980553627014],[-0.004988373257219791],[-0.06124451383948326],[-0.007476999424397945],[-0.10224293172359467],[-0.18488216400146484],[-0.028437018394470215],[-0.012946337461471558],[-0.11159297823905945],[0.03804880380630493],[-0.21593713760375977],[0.0444943904876709],[0.07738401740789413],[-0.016420720145106316],[-0.017508918419480324],[0.025671686977148056],[-0.11596605181694031],[-0.1439584344625473],[-0.041496533900499344],[0.08399753272533417],[-0.05365782976150513],[-0.08741921186447144]]