[[0.05017310380935669],[-0.014956236816942692],[-0.07346571981906891],[-0.017621714621782303],[-0.1560162901878357],[-0.07414871454238892],[-0.10578305274248123],[-0.21367008984088898],[0.012235208414494991],[-0.11896335333585739],[0.22132959961891174],[-0.077666275203228],[-0.20592081546783447],[-0.014781194739043713],[-0.1635579615831375],[-0.23207512497901917],[0.2922096252441406],[0.026086032390594482],[-0.2371656447649002],[-0.248813658952713],[0.06340715289115906],[-0.4378510117530823],[-0.2717040479183197],[0.26030492782592773],[-0.2574121057987213],[0.019781561568379402],[-0.09029781818389893],[-0.3182257413864136],[-0.12031243741512299],[0.1458112746477127],[0.20467272400856018],[0.09139349311590195],[0.0023935087956488132],[0.23980624973773956],[0.09757782518863678],[0.04132288694381714],[0.00014105164154898375],[0.1841057986021042],[-0.3766482472419739],[-0.2740005552768707],[-0.16634589433670044],[-0.0064802407287061214],[-0.2228258103132248],[-0.1266402006149292],[-0.03897406533360481],[0.022672127932310104],[0.3220852017402649],[0.024770013988018036],[0.20848658680915833],[0.09720762819051743],[-0.0555218830704689],[-0.09647589176893234],[-0.03850476071238518],[-0.017168551683425903],[-0.10183650255203247],[0.07293382287025452],[0.2218153029680252],[-0.03823307901620865],[0.10542242974042892],[0.11654076725244522],[0.4712671637535095],[0.006464509293437004],[0.257222443819046],[-0.28029730916023254]]