[[-0.033782489597797394],[-0.030712703242897987],[0.09087425470352173],[-0.12056173384189606],[0.09266307950019836],[0.07136116176843643],[-0.10289696604013443],[-0.09164971113204956],[-0.04622509703040123],[0.10785655677318573],[-0.11111006140708923],[0.12386168539524078],[0.14015604555606842],[-0.014336763881146908],[-0.04629725217819214],[-0.08316870033740997],[-0.048726893961429596],[-0.06941086798906326],[-0.03467538207769394],[-0.00595827354118228],[0.05079648643732071],[-0.1831185668706894],[-0.1159498542547226],[0.11614903807640076],[-0.016273703426122665],[0.007069097366183996],[-0.031397972255945206],[0.09591283649206161],[0.060057882219552994],[0.015450828708708286],[-0.02615704946219921],[0.11667247116565704],[0.19818565249443054],[-0.005823227111250162],[0.07881852984428406],[0.048982687294483185],[0.07318021357059479],[0.01121332123875618],[-0.059654053300619125],[-0.04355406016111374],[0.09822668135166168],[0.029186785221099854],[-0.11505239456892014],[0.05724920704960823],[-0.12191688269376755],[-0.021070023998618126],[-0.0691256895661354],[-0.051216695457696915],[-0.041600603610277176],[-0.047211308032274246],[-0.0398763045668602],[-0.06776368618011475],[0.018231885507702827],[0.05304984748363495],[-0.10035121440887451],[0.057602375745773315],[-0.19442778825759888],[-0.08466927707195282],[-0.017839761450886726],[0.08264540880918503],[0.011378343217074871],[-0.008377998135983944],[-0.04692249000072479],[0.13318084180355072],[-0.01918923109769821],[0.19556297361850739],[0.12049651145935059],[-0.0618370920419693],[0.04481447488069534],[0.021602598950266838],[-0.1094241738319397],[-0.07359721511602402],[0.08735062927007675],[-0.1294381320476532],[-0.1257551908493042],[0.035858940333127975],[0.06011892855167389],[0.1106560081243515],[0.2017347663640976],[0.204154372215271],[-0.0019100307254120708],[-0.011355751194059849],[0.03326287120580673],[-0.0009838544065132737],[0.06382410228252411],[0.021287506446242332],[-0.06694699823856354],[0.029418092221021652],[0.10488639026880264],[0.039450179785490036],[0.07686235755681992],[0.14661669731140137],[-0.035531237721443176],[0.06529530137777328],[0.0018725836416706443],[-0.05559435859322548],[-0.026083379983901978],[0.06607118993997574],[0.03869369253516197],[0.03813689202070236],[-0.13580204546451569],[-0.10662536323070526],[-0.03468974679708481],[0.03066672384738922],[-0.005419938359409571],[0.14003615081310272],[-0.1100144013762474],[0.09324974566698074],[-0.07974685728549957],[-0.07875727862119675],[-0.14106473326683044],[0.09859199076890945],[0.08001648634672165],[0.11903050541877747],[-0.05708206817507744],[0.10127918422222137],[0.12432167679071426],[0.023693164810538292],[0.0012747839791700244],[0.00448059756308794],[-0.039085447788238525],[-0.01676393859088421],[0.0031721703708171844],[-0.04179240018129349],[-0.06852839142084122],[0.036900509148836136],[-0.11709895730018616],[-0.08882872015237808],[0.16222363710403442],[0.00591067411005497],[0.018269527703523636],[-0.05576258897781372],[0.020551983267068863],[-0.1202530711889267],[-0.17177541553974152],[0.22060245275497437],[0.09892579913139343],[-0.06601031124591827],[0.09742022305727005],[-0.010524111799895763],[-0.0799521878361702],[-0.05167221277952194],[-0.06625979393720627],[0.20100009441375732],[0.010287247598171234],[-0.08129250258207321],[-0.07348480820655823],[-0.06314608454704285],[-0.10971390455961227],[-0.10220444202423096],[-0.1441270112991333],[-0.031401824206113815],[-0.070227712392807],[0.08729476481676102],[-0.22353693842887878],[-0.01703525334596634],[-0.017952073365449905],[-0.018625320866703987],[-0.01816614344716072],[-0.05719764530658722],[-0.036954689770936966],[-0.1740860641002655],[-0.015064605511724949],[-0.17264828085899353],[0.2697221338748932],[-0.09532680362462997],[0.05534243956208229],[-0.014279842376708984],[-0.0035027526319026947],[0.01763196289539337],[0.15097208321094513],[-0.09070700407028198],[0.049365364015102386],[0.08881045877933502],[-0.06328139454126358],[-0.12577752768993378],[-0.05971083417534828],[-0.038189325481653214],[0.08966344594955444],[-0.007020789198577404],[-0.04780052229762077],[0.026648158207535744],[-0.041205231100320816],[0.10760714113712311],[0.07007919996976852],[-0.10632193833589554],[-0.0929277315735817],[-0.04124664515256882],[-0.11053439974784851],[0.06400147825479507],[-0.13935521245002747],[-0.08057450503110886],[-0.062620609998703],[0.05965757369995117],[0.01991078071296215],[0.10502008348703384],[0.002780510578304529],[0.09473706036806107],[0.04579796642065048],[0.08487511426210403],[0.03184906393289566],[-0.05646000802516937],[-0.09959052503108978],[-0.09587462991476059],[-0.041751302778720856],[-0.10858924686908722],[-0.02384382113814354],[0.101107157766819],[-0.091401107609272],[0.1123892143368721],[0.06522317230701447],[0.004744805861264467],[-0.17977415025234222],[0.03493977710604668],[-0.12377355247735977],[-0.21350058913230896],[-0.025568470358848572],[-0.06434394419193268],[-0.029906101524829865],[0.0849621593952179],[0.07832647860050201],[0.06544356793165207],[-0.06561124324798584],[-0.1022789254784584],[-0.1329735815525055],[-0.16738209128379822],[-0.07181107252836227],[0.14309655129909515],[-0.09800831228494644],[-0.03677697479724884],[0.10881061106920242],[-0.01809854991734028],[0.015822555869817734],[-0.026821840554475784],[-0.03406216576695442],[0.03865707293152809],[0.1233455091714859],[0.010622351430356503],[-0.024417288601398468],[-0.00944799929857254],[0.013768087141215801],[-0.0920863226056099],[0.0820029005408287],[-0.12000226229429245],[0.04790779575705528],[0.0879647359251976],[0.22279135882854462],[0.1497306227684021],[-0.03952343761920929],[-0.050022002309560776],[0.11426881700754166],[0.0003300442185718566],[-0.09864269196987152],[-0.009879808872938156],[-0.005033653229475021],[0.21226739883422852]]