[[0.09680265188217163],[0.029663756489753723],[-0.1736229658126831],[0.016855450347065926],[-0.18964600563049316],[0.1025678887963295],[-0.021989261731505394],[0.13100115954875946],[0.15202555060386658],[-0.08924522995948792],[-0.04005037993192673],[-0.10841530561447144],[-0.01476164162158966],[0.02018999308347702],[-0.29980525374412537],[-0.05355113372206688],[-0.0010194224305450916],[-0.06319686025381088],[-0.0873691514134407],[0.014381121844053268],[-0.11048584431409836],[-0.10623311251401901],[-0.24613171815872192],[-0.14938335120677948],[0.0013122714590281248],[-0.1337113231420517],[0.04025227203965187],[0.013579354621469975],[0.013148440048098564],[-0.15366551280021667],[-0.05270412936806679],[-0.04028068110346794],[-0.012109501287341118],[-0.19229474663734436],[-0.22868052124977112],[-0.1722084879875183],[-0.11685097217559814],[0.1513487696647644],[-0.08093740046024323],[0.19347135722637177],[0.1257060021162033],[0.14375589787960052],[-0.1615438014268875],[-0.001170310191810131],[-0.07025588303804398],[0.1944608986377716],[-0.07061627507209778],[0.0213753841817379],[0.06002421677112579],[-0.018636856228113174],[-0.04974298179149628],[-0.027112659066915512],[-0.1590586155653],[0.0014746026135981083],[-0.003201770596206188],[0.028167111799120903],[-0.17810197174549103],[-0.16419443488121033],[-0.0674511268734932],[-0.11442824453115463],[0.11006630957126617],[-0.0472915880382061],[0.031649187207221985],[0.26058515906333923],[-0.06438564509153366],[0.11056774109601974],[0.0029791321139782667],[-0.099943608045578],[-0.02674366720020771],[-0.06033959984779358],[-0.2070574015378952],[0.24719223380088806],[0.0348326712846756],[0.09052255749702454],[-0.2379322499036789],[-0.19003693759441376],[0.09573438763618469],[-0.043629489839076996],[0.005159672815352678],[-0.1025349423289299],[0.1732732355594635],[-0.00922192633152008],[-0.14074186980724335],[-0.006509721279144287],[-0.11876345425844193],[0.030218150466680527],[0.06712411344051361],[-0.13280564546585083],[-0.14513340592384338],[0.18524929881095886],[-0.10728905349969864],[0.08898679912090302],[-0.2046453207731247],[0.09066661447286606],[0.06849177926778793],[-0.08495474606752396],[-0.051699019968509674],[-0.0921817421913147],[-0.44789668917655945],[-0.04295053705573082],[-0.11467981338500977],[-0.14915792644023895],[-0.13480739295482635],[0.10689178854227066],[-0.12997828423976898],[-0.06641269475221634],[-0.08671272546052933],[-0.07784964144229889],[-0.09599307179450989],[0.04917154461145401],[-0.20419371128082275],[0.15609139204025269],[-0.029078615829348564],[-0.24409301578998566],[-0.0967511311173439],[-0.03161071985960007],[-0.11580179631710052],[0.15783850848674774],[-0.1443222165107727],[-0.14261487126350403],[-0.17266570031642914],[-0.28691038489341736],[-0.0926978662610054],[-0.10690268874168396],[0.16443900763988495],[-0.08054062724113464],[-0.14521227777004242],[-0.008990270085632801],[-0.025083286687731743],[-0.06261003762483597],[-0.35964077711105347],[0.17310045659542084],[-0.05417618155479431],[-0.052607715129852295],[-0.13512255251407623],[-0.1839556246995926],[0.16692063212394714],[0.06428094208240509],[-0.19558663666248322],[0.1148504987359047],[-0.15055495500564575],[0.07791440188884735],[0.014152854681015015],[-0.08234620094299316],[0.000855468912050128],[0.08811639994382858],[-0.08286949247121811],[-0.16548392176628113],[0.02965591661632061],[0.028310028836131096],[-0.14384056627750397],[-0.039959609508514404],[-0.1027708500623703],[-0.09300535917282104],[0.06413684040307999],[0.139426589012146],[-0.36629652976989746],[-0.04354358837008476],[0.013255132362246513],[0.02416294999420643],[-0.011531614698469639],[0.1425352394580841],[-0.04532477632164955],[0.041005268692970276],[0.0439969077706337],[0.165440171957016],[-0.057149194180965424],[0.14626993238925934],[0.05736389011144638],[0.06588876992464066],[0.02041003480553627],[-0.06984668970108032],[-0.09447678923606873],[-0.026231784373521805],[0.07948928326368332],[-0.32881367206573486],[0.03016156516969204],[0.004088358487933874],[0.04310467466711998],[-0.05782262980937958],[-0.1131775751709938],[-0.09001181274652481],[-0.2016034573316574],[0.15672053396701813],[-0.017504584044218063],[-0.15043175220489502],[-0.06186258792877197],[0.0078092170879244804],[-0.2266002893447876],[0.23281440138816833],[0.0947311669588089],[0.2784874439239502],[-0.20476026833057404],[-0.16561421751976013],[-0.018025603145360947],[-0.1297835409641266],[-0.11161567270755768],[0.1588040143251419],[-0.23852002620697021],[0.160800501704216],[-0.03105473332107067],[-0.16522665321826935],[0.07813297212123871],[0.021342536434531212],[-0.02545466646552086],[-0.05030681937932968],[-0.1603326052427292],[0.17315179109573364],[0.016412079334259033],[-0.054604995995759964],[-0.0028259586542844772],[-0.024717815220355988],[-0.08529066294431686],[0.2047630399465561],[-0.0061381603591144085],[-0.09308874607086182],[0.056277476251125336],[-0.17289504408836365],[-0.1022537499666214],[-0.1422971785068512],[0.02605196088552475],[-0.05826498568058014],[0.06673237681388855],[0.17171138525009155],[-0.021859988570213318],[-0.052179787307977676],[0.016925035044550896],[-0.09185893833637238],[0.03930069878697395],[0.08389677852392197],[0.10768961906433105],[-0.019352752715349197],[0.12531983852386475],[0.20358073711395264],[-0.009615718387067318],[-0.02082911878824234],[-0.05447079986333847],[-0.019494621083140373],[-0.10357091575860977],[-0.17657488584518433],[-0.025847552344202995],[-0.005039520561695099],[-0.1260339319705963],[0.048720844089984894],[-0.21931596100330353],[0.03967643901705742],[0.06985893845558167],[-0.02777642011642456],[-0.024996671825647354],[0.021477386355400085],[-0.12489248812198639],[-0.13827018439769745],[-0.027336152270436287],[0.07718449085950851],[-0.06257115304470062],[-0.08274786174297333]]