[[-0.24248695373535156],[-0.1191677674651146],[-0.18597105145454407],[-0.11233799904584885],[-0.15082117915153503],[0.017481902614235878],[0.1363387107849121],[-0.1781419813632965],[-0.03764171153306961],[0.0007072407752275467],[0.6101470589637756],[-0.04092348366975784],[-0.07439141720533371],[-0.1763617843389511],[-0.30518361926078796],[-0.14401887357234955],[0.12685559689998627],[0.2644898295402527],[-0.08798954635858536],[-0.2562001347541809],[-0.2199682593345642],[0.055507488548755646],[-0.03222626820206642],[-0.47709235548973083],[-0.10173556953668594],[0.20928740501403809],[-0.174018993973732],[0.22322991490364075],[-0.23582760989665985],[-0.08415146172046661],[0.15465998649597168],[-0.11907070130109787],[-0.1324158012866974],[-0.07570090889930725],[0.08240281045436859],[-0.12419045716524124],[0.08950164169073105],[-0.041916899383068085],[0.1173095777630806],[-0.03900281712412834],[-0.27690550684928894],[0.03248971700668335],[-0.18842370808124542],[0.040563683956861496],[-0.23431137204170227],[-0.11256671696901321],[0.13569778203964233],[-0.2369629293680191],[0.24052760004997253],[-0.2643090486526489],[-0.30984386801719666],[0.11397365480661392],[0.1752786487340927],[0.18268834054470062],[-0.22324039041996002],[0.08677621930837631],[-0.16952656209468842],[-0.450961172580719],[-0.09746764600276947],[0.06434554606676102],[-0.09325186908245087],[-0.17338252067565918],[-0.3047882914543152],[-0.44734084606170654]]