[[-0.24248695373535156],[-0.10754863917827606],[-0.18597105145454407],[-0.10340613126754761],[-0.13817574083805084],[0.021026287227869034],[0.13554076850414276],[-0.1781419813632965],[-0.031939659267663956],[0.0007072407752275467],[0.606723964214325],[-0.04092348366975784],[-0.08084941655397415],[-0.1763617843389511],[-0.30518361926078796],[-0.1254417449235916],[0.10962099581956863],[0.25553756952285767],[-0.08798954635858536],[-0.2479991763830185],[-0.21415789425373077],[0.055507488548755646],[-0.03222626820206642],[-0.47709235548973083],[-0.10173556953668594],[0.19643867015838623],[-0.18399275839328766],[0.22834663093090057],[-0.23582760989665985],[-0.08415146172046661],[0.17274118959903717],[-0.11907070130109787],[-0.12406561523675919],[-0.07288683950901031],[0.08240281045436859],[-0.11584062874317169],[0.08951544016599655],[-0.03906404227018356],[0.12021512538194656],[-0.03900281712412834],[-0.27690550684928894],[0.03248971700668335],[-0.18842370808124542],[0.02750343643128872],[-0.23431137204170227],[-0.11256671696901321],[0.14041423797607422],[-0.2398684024810791],[0.2186884880065918],[-0.26058846712112427],[-0.30984386801719666],[0.09971223026514053],[0.1752786487340927],[0.18061625957489014],[-0.21198534965515137],[0.08759156614542007],[-0.17946186661720276],[-0.450961172580719],[-0.09746764600276947],[0.06703556329011917],[-0.09325186908245087],[-0.17338252067565918],[-0.31141436100006104],[-0.4711371064186096]]