[[[0.11987839639186859,0.08073630928993225,-0.14487622678279877,0.06357169896364212,-0.025905253365635872,0.0496300645172596,-0.05498115345835686,0.12143507599830627,-0.08569573611021042,-0.03680684417486191,-0.04554808884859085,-0.014113244600594044,-0.02535104751586914,-0.12857107818126678,0.09336892515420914,-0.07205310463905334,-0.009497076272964478,0.03345869109034538,0.1280212104320526,-0.14175564050674438,-0.032414790242910385,0.02991722710430622,-0.024985911324620247,0.03181961551308632,-0.27763980627059937,0.14865486323833466,-0.16654689610004425,-0.07117430865764618,-0.1720833033323288,-0.13184036314487457,-0.06284230202436447,0.10332325845956802,-0.01709076762199402,-0.14313937723636627,-0.17869432270526886,0.2804199159145355,-0.21542978286743164,0.05004684999585152,0.02886306494474411,0.053436849266290665,-0.008880501613020897,-0.015346731059253216,-0.24984778463840485,-0.1334628462791443,0.17717529833316803,0.003212512703612447,0.13075271248817444,-0.01954907923936844,0.030417606234550476,0.09089206904172897,0.16102610528469086,0.021872734650969505,-0.06213350594043732,-0.07281552255153656,0.026220491155982018,-0.13268226385116577,-0.0215684175491333,-0.016110889613628387,0.23693881928920746,0.029650263488292694,-0.11232658475637436,0.20720717310905457,-0.1470748335123062,-0.06973300874233246,-0.04468430206179619,0.10227436572313309,-0.21941600739955902,-0.16817423701286316,-0.11407387256622314,0.05416932329535484,0.03531945124268532,-0.02203812263906002,0.04133659228682518,-0.15734536945819855,-0.2167496234178543,-0.18742918968200684,0.055612713098526,-0.15277470648288727,0.042202726006507874,0.14726480841636658,0.15349195897579193,0.06761978566646576,-0.15525370836257935,0.09989721328020096,-0.15945212543010712,0.16062809526920319,-0.022073568776249886,0.031006766483187675,0.16569724678993225,-0.08516669273376465,-0.0625164583325386,0.12236432731151581,0.1581556797027588,-0.03880257532000542,-0.009575411677360535,0.11238578706979752,0.22179698944091797,0.020193496719002724,-0.13194866478443146,-0.011207867413759232,-0.19246220588684082,0.1587599217891693,-0.025561094284057617,-0.0009731510654091835,-0.10283202677965164,-0.03597387671470642,0.029955295845866203,-0.023494789376854897,-0.1352272927761078,-0.03902074694633484,-0.16354039311408997,0.1715976595878601,0.018601568415760994,-0.0619201697409153,0.12187758088111877,-0.02853936143219471,0.08423586189746857,0.04222724959254265,-0.032304465770721436,-0.11260567605495453,-0.046315912157297134,0.08771806210279465,0.06194903701543808,0.030079470947384834,-0.13125017285346985,0.20337316393852234,0.07005380094051361,-0.10664519667625427,-0.09423025697469711,-0.05757974460721016,-0.001996163045987487,-0.019565977156162262,0.181620255112648,0.1684981733560562,0.18069469928741455,-0.11717391014099121,-0.08244919776916504,-0.18760445713996887],[0.04683622717857361,0.13037855923175812,0.22001205384731293,-0.04606248065829277,0.007665407843887806,-0.06611856818199158,0.13178272545337677,-0.0021264804527163506,0.04843192547559738,-0.009320472367107868,-0.055575743317604065,0.004575281869620085,0.05519188195466995,-0.04579874128103256,0.10498201847076416,0.12597700953483582,0.07136476039886475,0.006193823646754026,-0.11041643470525742,0.059006206691265106,0.04688062518835068,-0.11465960741043091,-0.07118726521730423,0.1907677799463272,0.021747495979070663,-0.032042644917964935,-0.030028337612748146,-0.06775513291358948,0.020685715600848198,0.07207952439785004,0.08459014445543289,0.08103922754526138,0.15514257550239563,0.11654848605394363,0.015675725415349007,-0.038033269345760345,-0.03283943235874176,-0.11129853129386902,0.061123885214328766,-0.10031943023204803,-0.043260250240564346,-0.19745633006095886,-0.037181057035923004,-0.05922728404402733,0.18947593867778778,-0.08346202224493027,-0.04953892156481743,0.13194139301776886,0.26674750447273254,-0.022373422980308533,0.09662896394729614,-0.0916719138622284,0.0833650603890419,0.18714454770088196,0.2202497124671936,0.07582760602235794,0.15233884751796722,0.04133869335055351,0.0612734816968441,0.23421825468540192,-0.07168199121952057,-0.039031948894262314,0.13385172188282013,-0.027442678809165955,0.08857151120901108,-0.019818035885691643,-0.1718534678220749,-0.13278231024742126,-0.0050688087940216064,-0.09287188202142715,0.02048664726316929,-0.14129993319511414,-0.1162935197353363,0.15275785326957703,0.2129305601119995,-0.19813062250614166,0.006773708388209343,-0.20546667277812958,0.008301655761897564,0.1168617531657219,0.03224314749240875,0.00000755330802348908,-0.02671184577047825,0.024622129276394844,-0.02574104815721512,-0.05933060124516487,0.11660445481538773,0.0185555350035429,0.08946473896503448,-0.03816412389278412,-0.0630171075463295,-0.043011706322431564,-0.24874025583267212,-0.06478477269411087,-0.003509896108880639,-0.05137058347463608,-0.20081034302711487,-0.07656863331794739,-0.3004341125488281,0.10040370374917984,-0.05790908634662628,0.050215136259794235,0.08577290177345276,-0.29134711623191833,-0.02928943932056427,0.38466817140579224,-0.0044074165634810925,0.10893309116363525,0.0740220919251442,-0.06414824724197388,0.08405487984418869,-0.03862062096595764,0.1910771131515503,-0.08126015216112137,0.17805474996566772,0.022657815366983414,0.1710454374551773,0.04327632486820221,-0.14314116537570953,-0.07519546151161194,0.017533142119646072,0.0476142056286335,0.1227857917547226,0.07617317885160446,0.026879506185650826,0.0466090627014637,0.11928359419107437,-0.08707349747419357,-0.09769841283559799,-0.03570063039660454,0.1893915981054306,0.04689376428723335,0.19406622648239136,0.0726354569196701,-0.03862309083342552,0.06483547389507294,-0.088863305747509,0.09196162968873978],[0.09167126566171646,-0.06613172590732574,0.043473564088344574,0.049869053065776825,-0.08717930316925049,-0.4102928936481476,0.11170811206102371,0.008953887969255447,0.18504850566387177,-0.10271885991096497,0.176813006401062,-0.007353005465120077,-0.11478373408317566,0.21882905066013336,0.04152028635144234,0.01486162655055523,-0.06395196169614792,0.05971844121813774,0.08981496840715408,0.05270306393504143,-0.13170649111270905,0.04007044807076454,0.2071819007396698,-0.1903904229402542,0.07903265208005905,-0.13767701387405396,0.042837370187044144,-0.21546490490436554,-0.03453708440065384,0.07752837240695953,-0.051644496619701385,-0.011519853956997395,-0.1552247703075409,-0.10814503580331802,-0.06862864643335342,-0.2843012809753418,0.02162341959774494,0.014949810691177845,-0.005441155284643173,0.06855915486812592,0.07764601707458496,0.05120684579014778,0.20038838684558868,-0.12047316879034042,-0.010905062779784203,-0.06990332901477814,-0.044756561517715454,-0.020976796746253967,0.04111442714929581,-0.016948683187365532,0.019744062796235085,-0.038347404450178146,0.023303300142288208,0.041140079498291016,-0.10853224992752075,-0.14632548391819,-0.15425902605056763,0.1578034907579422,-0.044344790279865265,0.18535161018371582,0.0705910176038742,0.041081782430410385,-0.09157456457614899,0.1859636902809143,-0.15203627943992615,0.08259434252977371,-0.03515978530049324,-0.19490942358970642,0.07428842782974243,-0.007370929233729839,0.1445150226354599,-0.19493618607521057,-0.143851175904274,-0.12221450358629227,-0.0504542775452137,-0.22843168675899506,-0.12825672328472137,0.14940820634365082,-0.06540454179048538,0.07353007793426514,0.1668664813041687,0.09027509391307831,0.0006871084333397448,0.03949885070323944,0.1319565325975418,-0.14483320713043213,-0.16281230747699738,-0.04525834321975708,-0.01633916236460209,0.060756389051675797,0.1596800982952118,-0.04576578736305237,-0.02581106871366501,-0.017727043479681015,-0.24684929847717285,-0.031152009963989258,0.050805509090423584,0.0004711669171229005,0.36023929715156555,0.047752950340509415,0.052735812962055206,0.017881494015455246,0.1396275758743286,-0.19313083589076996,-0.20002451539039612,-0.07125237584114075,-0.01765783317387104,0.21707311272621155,0.1656186282634735,-0.019787946715950966,-0.08307215571403503,-0.0011966611491516232,0.10043953359127045,-0.05384983494877815,0.10147968679666519,0.04719901084899902,0.14350526034832,-0.17522265017032623,0.0914759710431099,0.029810547828674316,0.08073161542415619,-0.11707916110754013,0.22877243161201477,-0.1900816112756729,0.006835082545876503,0.14372074604034424,-0.10607048124074936,-0.10654281824827194,-0.1834680140018463,-0.0694437101483345,0.15556521713733673,-0.24361546337604523,-0.1910129338502884,-0.1039266437292099,0.28725725412368774,0.1580001711845398,0.02942287176847458,-0.1261162906885147],[0.07878727465867996,0.14949597418308258,-0.14527596533298492,0.009727589786052704,0.09874698519706726,0.06501273810863495,0.045288581401109695,0.001877733739092946,-0.024636685848236084,-0.17103907465934753,0.034864772111177444,-0.008806210942566395,0.03607615828514099,-0.05482012405991554,-0.256001740694046,0.00427829148247838,-0.22641712427139282,-0.13600799441337585,0.12790733575820923,-0.028740406036376953,-0.01280206348747015,0.027268804609775543,0.19260087609291077,0.16866736114025116,0.1121954545378685,0.1481296867132187,0.09801708161830902,-0.0484432727098465,0.0812777504324913,0.06784050911664963,0.012385580688714981,-0.013488858938217163,0.14646248519420624,0.02486417070031166,0.005904707591980696,-0.18478940427303314,-0.05098298564553261,-0.07686397433280945,0.11375629156827927,0.03752945736050606,-0.11165165901184082,-0.050801828503608704,-0.4028564691543579,0.028968656435608864,-0.016721565276384354,-0.04728191718459129,-0.013355630449950695,0.021893931552767754,-0.11062055081129074,0.10374252498149872,0.023467257618904114,-0.0440920814871788,-0.061468418687582016,-0.025013331323862076,-0.03395051881670952,-0.011030921712517738,0.03198089450597763,-0.019454732537269592,-0.08061908185482025,-0.018598970025777817,0.02902747318148613,-0.010565012693405151,0.04831373691558838,0.07322817295789719,-0.08136823028326035,-0.10545887798070908,0.21721862256526947,0.2022670954465866,-0.062013737857341766,0.016260823234915733,-0.03995285928249359,-0.13802467286586761,-0.04006538912653923,0.02594016119837761,-0.1369280219078064,-0.1318594068288803,0.1529477834701538,0.13054175674915314,-0.04574800655245781,0.061485689133405685,0.31414443254470825,-0.0688992515206337,-0.10277121514081955,0.06814873963594437,0.18598270416259766,0.10918495059013367,0.0748751237988472,0.08140424638986588,-0.23931008577346802,-0.09613040089607239,0.06259553134441376,0.1190088763833046,-0.022083256393671036,-0.12644073367118835,0.15089643001556396,-0.032145582139492035,-0.05887488275766373,-0.20770137012004852,-0.022653959691524506,-0.17444834113121033,0.1814872920513153,0.13202427327632904,-0.13054466247558594,-0.07750904560089111,-0.012011928483843803,-0.021073369309306145,0.09911045432090759,0.12716898322105408,-0.20268306136131287,-0.023422911763191223,0.049390759319067,0.05313515290617943,-0.09714669734239578,0.02696401998400688,0.01876193657517433,0.05639391019940376,-0.09736069291830063,-0.011776446364820004,0.018776344135403633,-0.14663589000701904,-0.176150381565094,-0.1681959331035614,-0.03425348177552223,-0.04885810613632202,0.10168879479169846,-0.10715936124324799,0.09648492187261581,0.013576432131230831,0.08180461078882217,0.012762844562530518,0.02702784538269043,0.0008731273701414466,0.08373735100030899,0.29179254174232483,0.16257375478744507,0.000947288004681468,-0.03757278621196747,0.09131749719381332],[-0.026476843282580376,-0.25931379199028015,-0.006968039553612471,0.003735820995643735,0.202785924077034,0.05386224761605263,-0.05042771250009537,0.08809375017881393,-0.18237686157226562,0.1260368674993515,-0.010845127515494823,0.29408323764801025,-0.04155261442065239,-0.08562429249286652,0.054674603044986725,0.2685107886791229,-0.09177672117948532,0.161464661359787,-0.07268127799034119,0.01730530522763729,-0.06006560102105141,0.0033200697507709265,0.07560594379901886,0.11470654606819153,0.11485487222671509,0.08437700569629669,0.017387788742780685,0.11678806692361832,-0.07532259821891785,0.21848279237747192,-0.020806677639484406,-0.03389774635434151,-0.018445856869220734,-0.14169615507125854,0.2302233725786209,0.05280013382434845,-0.29495081305503845,0.003578274277970195,0.011095687747001648,-0.04097996652126312,0.10281763970851898,-0.10739675164222717,0.06406527757644653,-0.01930282823741436,0.1051478236913681,0.027654090896248817,0.08130096644163132,0.17398449778556824,-0.18898706138134003,0.13371510803699493,0.062384068965911865,0.09676457196474075,0.19506573677062988,0.10676982998847961,-0.13490961492061615,-0.04945437237620354,-0.007240721490234137,0.06114579737186432,-0.09902128577232361,-0.16788677871227264,-0.1149497702717781,-0.05865323916077614,-0.1303791105747223,0.021044380962848663,-0.24395346641540527,0.033773619681596756,-0.09050092846155167,-0.005954893305897713,-0.03128538653254509,-0.008138172328472137,0.027878720313310623,0.16753311455249786,0.11580599099397659,-0.0355391800403595,0.036260705441236496,-0.11626659333705902,-0.10904036462306976,0.0008526514284312725,0.1792561113834381,0.05827685073018074,0.04664308950304985,-0.11491373181343079,-0.1774742305278778,0.020821822807192802,-0.022736145183444023,0.09930497407913208,0.16795675456523895,-0.005807934794574976,-0.1529315561056137,0.11754681169986725,0.04260361194610596,-0.02597721479833126,0.09941478073596954,-0.08087281137704849,-0.017487170174717903,0.13957715034484863,-0.43013256788253784,-0.10977999866008759,0.1062670648097992,-0.15995319187641144,0.0608954057097435,0.024054957553744316,-0.051612939685583115,-0.08659996837377548,-0.052738625556230545,0.08935806900262833,-0.02335258014500141,-0.08495724946260452,-0.17987041175365448,-0.04439367726445198,-0.17568305134773254,-0.0024707673583179712,-0.008972270414233208,-0.037366122007369995,0.05168190598487854,0.05067351460456848,-0.06528718024492264,-0.14689268171787262,0.11114748567342758,-0.05074556544423103,-0.054580289870500565,0.1415848582983017,0.034796372056007385,-0.1684882938861847,-0.007175209000706673,-0.13676726818084717,0.018618572503328323,0.05074195936322212,-0.05334772914648056,0.08291898667812347,0.22441966831684113,0.17962010204792023,-0.02750665321946144,-0.218319371342659,-0.11034104973077774,0.09780994057655334,-0.06838735193014145,0.05700697749853134],[0.12331288307905197,0.029977615922689438,0.252094030380249,0.18221960961818695,0.0353696383535862,-0.11867641657590866,-0.019600752741098404,-0.15260247886180878,-0.13684391975402832,0.05078641325235367,0.06506755203008652,0.1818857043981552,0.06478974968194962,-0.10338804870843887,-0.07332620024681091,-0.1705528050661087,-0.004223586991429329,0.0027193657588213682,-0.19044937193393707,0.03893611952662468,0.056576017290353775,0.016802825033664703,-0.0968940481543541,0.048133231699466705,0.006612572353333235,0.023785023018717766,0.04706140235066414,-0.1411651223897934,-0.08062367141246796,0.1465652734041214,0.11361197382211685,0.09520120918750763,-0.06736886501312256,-0.16648580133914948,0.07707313448190689,-0.11509352922439575,-0.03801516070961952,0.00885109230875969,0.09798099845647812,-0.13927870988845825,0.030771734192967415,0.05658956989645958,0.11702895909547806,0.09385685622692108,-0.23927369713783264,-0.1194867417216301,-0.0980253517627716,-0.24988268315792084,-0.07304181903600693,-0.1341967135667801,0.08526191115379333,0.18798185884952545,0.15907563269138336,-0.1602199822664261,-0.1428493857383728,-0.15725041925907135,0.01695697382092476,0.14477404952049255,-0.19556094706058502,-0.08856142312288284,-0.15472744405269623,-0.12321826070547104,-0.1328233778476715,0.12376955896615982,0.18668921291828156,-0.0532766692340374,-0.1781945824623108,0.18332546949386597,0.0017674611881375313,0.08524684607982635,-0.026340778917074203,-0.03389774262905121,-0.1135944351553917,0.15627677738666534,-0.11206059902906418,-0.0030557464342564344,0.09002526104450226,0.05020575225353241,-0.15138272941112518,-0.14290495216846466,0.05581478029489517,0.02930459752678871,-0.1699810028076172,-0.10227757692337036,0.14423725008964539,-0.037409380078315735,0.08941198885440826,0.2318890541791916,0.06235116347670555,-0.05329951271414757,-0.027270132675766945,-0.07555827498435974,-0.0009721268434077501,-0.012648973613977432,0.0584716759622097,-0.2750996947288513,0.2011866271495819,0.2197541445493698,0.18448226153850555,-0.03248074650764465,0.10050399601459503,-0.17101575434207916,-0.002706306055188179,0.05963674560189247,-0.006037374492734671,-0.03706806153059006,0.1655949205160141,0.025425512343645096,-0.17400415241718292,-0.08825188130140305,0.07968645542860031,-0.04173240810632706,0.13056188821792603,-0.14313018321990967,0.11674664914608002,-0.060847003012895584,0.19763924181461334,0.052657049149274826,0.21954014897346497,0.10784875601530075,0.054586973041296005,-0.013949849642813206,-0.12092689424753189,-0.07590936869382858,0.005837170407176018,0.050919417291879654,0.12021259218454361,0.13073480129241943,-0.04638756439089775,0.08430438488721848,0.06102021038532257,0.02831270359456539,-0.08125733584165573,0.09150948375463486,-0.06529323011636734,-0.0383988656103611,0.050297413021326065,0.10399898886680603],[0.16450180113315582,-0.023569069802761078,0.19030681252479553,0.00749299256131053,-0.001553414505906403,0.15299230813980103,-0.08085624128580093,0.08514545112848282,0.06815216690301895,0.21179643273353577,0.10495579242706299,0.021639792248606682,0.05874955281615257,0.23871685564517975,-0.07433419674634933,-0.08522821962833405,0.11574447900056839,-0.3360765278339386,-0.13157407939434052,-0.1502576768398285,0.0732937604188919,-0.037542060017585754,-0.06737785041332245,0.034835636615753174,-0.2643721103668213,-0.02172926813364029,0.05188751220703125,0.003578675677999854,0.0672655925154686,-0.055378858000040054,-0.05113780125975609,0.07313087582588196,0.00031486587249673903,0.23965460062026978,0.14189448952674866,0.1317543387413025,-0.15418097376823425,-0.1493651568889618,-0.15177622437477112,-0.09838318824768066,-0.13781492412090302,0.09252417087554932,-0.02466786652803421,-0.23502781987190247,0.13058048486709595,-0.12064510583877563,0.004623929504305124,-0.18138828873634338,0.05956511199474335,0.051720183342695236,0.14519570767879486,0.15108658373355865,0.07360467314720154,0.04274439811706543,0.023729128763079643,0.01454660203307867,-0.08525776118040085,0.03733913600444794,-0.23111778497695923,-0.10866710543632507,-0.02491770312190056,0.2414570301771164,-0.07160524278879166,-0.008773963898420334,-0.16029207408428192,0.05382159724831581,-0.11060470342636108,-0.1314471960067749,-0.06498634070158005,-0.023844750598073006,-0.05601736903190613,-0.2592904269695282,0.052071139216423035,0.19534222781658173,0.047055959701538086,0.0011165791656821966,-0.07824885845184326,-0.09694748371839523,0.028849856927990913,-0.09400872141122818,0.09164026379585266,-0.027458282187581062,-0.013492260128259659,-0.11487060785293579,0.1598258763551712,-0.020065676420927048,0.05300528183579445,-0.22731398046016693,-0.07509075850248337,0.19140081107616425,-0.11405722051858902,0.06825125962495804,-0.18611262738704681,0.05429518595337868,-0.054828327149152756,-0.1675170361995697,-0.28177690505981445,-0.036270346492528915,0.02421952597796917,-0.058757517486810684,-0.09548317641019821,-0.05872708186507225,-0.23264798521995544,-0.03835716098546982,-0.010662807151675224,-0.08853687345981598,-0.033731620758771896,0.07636526972055435,-0.12945705652236938,-0.24913114309310913,-0.03463082015514374,-0.0676720067858696,-0.020958729088306427,0.025551095604896545,0.06264530122280121,0.13736750185489655,-0.27432161569595337,-0.12288451194763184,0.055463291704654694,-0.23746465146541595,0.14058658480644226,0.07406850159168243,-0.025070615112781525,-0.05383447930216789,-0.13317620754241943,-0.030130425468087196,0.06789708137512207,0.037091679871082306,0.2567996382713318,-0.17573058605194092,0.09466556459665298,-0.14811815321445465,0.11633659154176712,0.043252166360616684,0.08736112713813782,0.19493073225021362,0.02934028021991253,-0.021719595417380333],[-0.18506170809268951,-0.07954349368810654,-0.27995720505714417,-0.039367806166410446,0.08694252371788025,0.20468661189079285,0.08985751867294312,-0.003694347571581602,0.1785542219877243,0.0007368095102719963,-0.10829714685678482,0.013815773651003838,-0.028296418488025665,-0.16731737554073334,-0.15450340509414673,-0.06412947177886963,0.1648237407207489,0.04801620915532112,0.17718905210494995,-0.09903852641582489,-0.17543360590934753,-0.026217343285679817,0.0028348113410174847,-0.3101746439933777,-0.1438477635383606,0.20936959981918335,0.1695765107870102,0.05661149322986603,-0.10568713396787643,-0.10428358614444733,0.03487434610724449,0.08528031408786774,0.04913380742073059,0.040649525821208954,-0.24392835795879364,-0.2774702310562134,-0.02796505019068718,-0.05276064574718475,-0.0901523008942604,0.019630512222647667,0.19251404702663422,-0.05498397722840309,0.10557868331670761,-0.026974238455295563,0.03418586403131485,-0.08716336637735367,0.23266658186912537,0.22842979431152344,-0.13310737907886505,0.009802737273275852,0.027374548837542534,0.0034596871118992567,0.14113689959049225,-0.14595352113246918,-0.0857783630490303,-0.05351525545120239,-0.022335682064294815,0.09963127225637436,0.12316127121448517,0.03413502871990204,-0.1256621927022934,-0.00026098007219843566,0.16637566685676575,-0.10259328782558441,-0.2587406635284424,0.15712925791740417,-0.11778552085161209,0.19790731370449066,-0.10202300548553467,-0.007728578057140112,-0.046237003058195114,0.016242215409874916,0.008188340812921524,0.10238748788833618,0.07477308809757233,-0.048233866691589355,0.08242959529161453,0.20884014666080475,0.1521681696176529,-0.09473130851984024,-0.08549214899539948,0.056484103202819824,0.039262805134058,-0.06458548456430435,-0.059994664043188095,0.02795635722577572,0.12628711760044098,-0.08254784345626831,0.07516738027334213,0.06797315925359726,-0.055919770151376724,0.05105751380324364,-0.04614065960049629,0.12549099326133728,0.18217481672763824,-0.09227221459150314,-0.03876486048102379,-0.10971898585557938,0.03913705796003342,0.03678570315241814,-0.19768115878105164,-0.11898436397314072,-0.049449481070041656,0.21426381170749664,-0.03683144226670265,0.06898912787437439,-0.0024546957574784756,0.0194461140781641,0.27195635437965393,-0.02013489417731762,0.20755629241466522,0.025247899815440178,-0.08039135485887527,0.05669818073511124,0.16485430300235748,-0.10305429250001907,-0.17919209599494934,0.216445192694664,0.4047880470752716,-0.00952584482729435,-0.24724966287612915,0.05360918492078781,0.030316172167658806,0.07359076291322708,-0.15537579357624054,0.03790455684065819,0.1232745349407196,-0.04842980206012726,-0.061481326818466187,0.2155066728591919,0.02622942440211773,0.006913625169545412,0.012585601769387722,0.058177053928375244,0.10296723246574402,-0.042773935943841934,0.15069395303726196,-0.09167832881212234],[-0.0328669510781765,0.03195129334926605,0.24453221261501312,0.062402911484241486,0.11330622434616089,-0.03360433131456375,-0.1975671499967575,0.0021160785108804703,0.052555207163095474,0.11680437624454498,0.10222961753606796,0.1705087423324585,0.04822871834039688,-0.12348678708076477,-0.09001787006855011,-0.047181371599435806,-0.20777489244937897,-0.04950800538063049,0.0812121257185936,0.07551015913486481,0.06844697147607803,0.05237828940153122,-0.03109164908528328,0.11803845316171646,-0.1363595873117447,0.18352188169956207,0.014010326936841011,-0.187300443649292,-0.169136181473732,0.07177677750587463,-0.25095289945602417,0.06399024277925491,-0.06190549582242966,-0.19885730743408203,0.013358931988477707,0.17030882835388184,-0.04181447997689247,0.17865368723869324,0.10627895593643188,0.15462848544120789,0.032705847173929214,0.35598012804985046,0.06586583703756332,0.13152629137039185,0.03729671984910965,-0.14645887911319733,0.002736645983532071,-0.06242556497454643,-0.16051986813545227,-0.06644228100776672,-0.04284663125872612,0.021718237549066544,-0.019785001873970032,-0.1941644251346588,0.1550305336713791,-0.10508633404970169,-0.028916921466588974,-0.06324592977762222,0.07981852442026138,0.010034991428256035,0.26030880212783813,-0.140742689371109,-0.013135518878698349,0.129142165184021,-0.03525448963046074,0.13679763674736023,0.029084982350468636,0.07622271776199341,0.04848821833729744,0.040892865508794785,0.008109793066978455,-0.07097254693508148,0.07453391700983047,0.1009579449892044,-0.11125773936510086,0.004868845455348492,0.04004022479057312,0.18955078721046448,0.0047267889603972435,-0.16262272000312805,0.03479352965950966,-0.15810070931911469,0.20221754908561707,-0.129984050989151,0.13001108169555664,0.19021685421466827,-0.07439479231834412,-0.1434149146080017,0.04347279667854309,-0.0365021787583828,-0.11714848130941391,-0.059510424733161926,0.11399422585964203,0.1273299753665924,0.010968896560370922,0.07556729763746262,0.05374237149953842,0.1179385557770729,0.18810954689979553,0.08091520518064499,0.0741710439324379,-0.036936212331056595,0.1687479019165039,0.24064093828201294,0.22369514405727386,-0.4297725558280945,-0.20353764295578003,0.07551855593919754,-0.03089585341513157,0.07732982933521271,-0.06291282176971436,-0.028912048786878586,0.051839809864759445,0.1993080973625183,0.030173521488904953,0.13390779495239258,0.13018004596233368,-0.15298350155353546,0.01199136022478342,-0.1484004557132721,-0.1874360889196396,-0.06478991359472275,-0.12808625400066376,-0.0206565223634243,0.060186535120010376,-0.050718050450086594,0.1077284961938858,0.0018318196525797248,0.06150016933679581,-0.00979969184845686,-0.10023859143257141,0.07846463471651077,0.12045229971408844,-0.11728409677743912,0.06765369325876236,0.10836043208837509,0.08863989263772964,0.26218241453170776],[0.036660343408584595,-0.03972331061959267,0.1891891211271286,-0.03934274986386299,-0.13420787453651428,-0.025526398792862892,-0.16163422167301178,-0.11582192033529282,0.3160977065563202,-0.0024805853608995676,-0.20099203288555145,0.12773124873638153,0.07170039415359497,-0.0021223684307187796,0.24115175008773804,-0.13605961203575134,-0.03284677118062973,-0.11464504897594452,-0.07545798271894455,0.08700811117887497,0.11282109469175339,-0.1586529165506363,0.14099091291427612,-0.11777783930301666,0.07791956514120102,0.04448820278048515,0.1135430634021759,-0.07648254930973053,-0.1436542123556137,0.08764319866895676,-0.018545839935541153,-0.13711385428905487,-0.07368746399879456,-0.027059633284807205,0.12040150165557861,-0.14556054770946503,-0.10623259842395782,-0.0537630170583725,-0.03426676243543625,-0.015277636237442493,0.07229311019182205,-0.2436082661151886,0.12463517487049103,0.07187099754810333,-0.24078011512756348,0.10563189536333084,-0.11486820876598358,-0.053388770669698715,-0.017858708277344704,0.20928893983364105,-0.01653008908033371,-0.08706425875425339,0.23712974786758423,-0.006245071068406105,-0.14445382356643677,-0.199641153216362,0.04272773116827011,-0.031621962785720825,-0.0026019876822829247,-0.0579211451113224,-0.09059014916419983,0.08343608677387238,0.023575304076075554,-0.14083094894886017,0.14630654454231262,0.07493600249290466,-0.2026994228363037,0.05820005014538765,-0.10750102251768112,0.07461553066968918,-0.031281549483537674,0.05164147540926933,0.028345976024866104,0.003071525599807501,-0.13515432178974152,-0.08617405593395233,0.00044288564822636545,0.051238153129816055,0.0730191245675087,0.018896808847784996,-0.051513656973838806,-0.19040343165397644,0.06481099128723145,-0.29927685856819153,0.04504496604204178,0.11292991787195206,-0.005681012757122517,0.03604855015873909,-0.062493354082107544,0.056913163512945175,0.008344861678779125,-0.17173819243907928,-0.041680555790662766,0.19405706226825714,0.09605763107538223,0.23175320029258728,0.032239578664302826,0.06156831607222557,0.02341657131910324,0.08074421435594559,-0.0681292861700058,0.20438432693481445,0.026421237736940384,-0.03912442922592163,0.21788790822029114,0.08101295679807663,-0.1742793172597885,0.08117050677537918,0.06040513142943382,-0.035419195890426636,-0.19303596019744873,-0.0950080007314682,-0.061601731926202774,0.09371665865182877,0.06091584265232086,0.12711505591869354,0.1236136332154274,-0.00035997171653434634,0.2410346269607544,-0.01674826070666313,0.06399166584014893,-0.1282159984111786,0.12230905145406723,0.023481586948037148,0.08407627791166306,-0.22458331286907196,-0.0007170552271418273,0.02773638814687729,-0.06851720064878464,0.0497359000146389,0.07781723886728287,-0.014029141515493393,-0.07687986642122269,-0.06399210542440414,0.06249262019991875,0.08868573606014252,-0.04168558865785599,-0.12450135499238968],[-0.09483813494443893,0.00536486878991127,-0.046587154269218445,-0.00873606838285923,-0.047551121562719345,0.19298142194747925,0.007345070596784353,0.04018431156873703,0.05937352776527405,0.1180076152086258,0.08588644862174988,0.11729318648576736,0.13821890950202942,-0.04801630228757858,0.08613122999668121,-0.14861038327217102,-0.005217472556978464,0.014220738783478737,-0.10964318364858627,-0.026850325986742973,0.1041879653930664,-0.0838567391037941,0.24913141131401062,-0.051155030727386475,0.0990716964006424,-0.09963437914848328,-0.0516248494386673,-0.08364536613225937,0.06570325791835785,-0.286482572555542,-0.061314962804317474,0.02420645020902157,0.06735824793577194,0.03450809046626091,0.02296481281518936,0.22070255875587463,-0.229673832654953,-0.07706204801797867,0.13466306030750275,0.24102848768234253,0.10728555172681808,-0.07510828226804733,-0.19159772992134094,0.0610925629734993,0.015318971127271652,0.012269517406821251,0.16936275362968445,-0.1569170206785202,0.17384296655654907,-0.1505669504404068,-0.17348578572273254,0.3111453950405121,-0.0741373747587204,-0.11739137023687363,0.020221317186951637,-0.0819825828075409,-0.0835101306438446,-0.21077649295330048,-0.06923112273216248,0.2012215256690979,0.0014160273130983114,-0.09004391729831696,0.2821198105812073,0.22499139606952667,-0.05031086131930351,-0.05082506686449051,-0.08684484660625458,0.08639930188655853,-0.1281919777393341,-0.03309861198067665,-0.3334071636199951,0.07990946620702744,0.06482698768377304,0.05455150455236435,-0.0049856361001729965,-0.007407315541058779,0.10841056704521179,0.08675279468297958,0.07959643751382828,-0.1039397120475769,-0.14097043871879578,-0.15072645246982574,-0.18838346004486084,-0.1344209760427475,-0.07284316420555115,0.06359486281871796,0.05864885821938515,-0.20517250895500183,0.0021257237531244755,-0.08341026306152344,-0.09858350455760956,0.041247863322496414,-0.13670703768730164,-0.04274822399020195,-0.18114419281482697,-0.08805690705776215,-0.07561838626861572,-0.06432601064443588,0.07438377290964127,-0.1717531830072403,-0.048465095460414886,-0.14255885779857635,0.10418804734945297,0.11176848411560059,0.1263386309146881,0.28614363074302673,0.12018102407455444,-0.41542771458625793,-0.022409602999687195,0.014136473648250103,0.12258931249380112,0.12360338866710663,0.13573339581489563,-0.04187546297907829,-0.04029655456542969,0.010571198537945747,0.0013351693050935864,-0.11956394463777542,0.1453612893819809,-0.022560404613614082,-0.03321881219744682,-0.018617702648043633,0.11969336867332458,-0.01955682970583439,-0.008083061315119267,0.06791867315769196,-0.07104212790727615,0.09793476015329361,-0.15307101607322693,0.1555924266576767,0.035255465656518936,-0.02331659197807312,-0.21025875210762024,0.05351864546537399,0.13981691002845764,-0.0030552842654287815,-0.00577919464558363,-0.00004320425068726763],[-0.19886213541030884,0.17228184640407562,0.11469219624996185,-0.045233409851789474,0.19117987155914307,0.03333204984664917,0.03803252428770065,0.04003004729747772,0.16223107278347015,-0.2473158985376358,0.19996333122253418,0.02162482589483261,0.12009960412979126,0.10662423819303513,0.2344600260257721,-0.049361810088157654,0.1026853621006012,-0.03507763147354126,0.1715192198753357,0.06807635724544525,0.25426194071769714,-0.16487282514572144,0.3377459943294525,0.034613050520420074,-0.06506308168172836,0.01765916682779789,0.09854243695735931,0.00812546256929636,0.019771432504057884,0.06032909080386162,0.03139312192797661,-0.06643565744161606,-0.07700809091329575,0.14022232592105865,-0.07852339744567871,0.09728669375181198,-0.2165938764810562,0.0640643909573555,0.009868827648460865,-0.0018956742715090513,-0.17521928250789642,-0.06828983128070831,0.2272314727306366,-0.0472048856317997,-0.06573573499917984,0.04789689555764198,-0.11395217478275299,-0.09203429520130157,-0.1712060421705246,-0.008291792124509811,-0.06251149624586105,-0.04155155271291733,-0.007811476476490498,-0.09142732620239258,0.10404476523399353,0.1190890371799469,0.20014715194702148,0.07793828099966049,-0.004662829451262951,0.358699232339859,-0.04645764082670212,0.08993245661258698,0.26085901260375977,-0.09099078178405762,-0.23395060002803802,0.11920864135026932,0.06478612124919891,0.024267904460430145,0.24168027937412262,-0.2474752813577652,-0.15837447345256805,0.1173236221075058,-0.06489879637956619,0.08149529248476028,0.02208910882472992,-0.13882902264595032,-0.057344451546669006,0.02412104606628418,-0.011851412244141102,-0.11826924234628677,-0.12934298813343048,0.03011379949748516,0.10397589951753616,-0.09647295624017715,-0.03440707549452782,0.0678287148475647,0.11481674760580063,0.056531038135290146,-0.04449153691530228,-0.2115328460931778,-0.00004073697346029803,0.21809427440166473,0.14877264201641083,0.003080743597820401,-0.13113099336624146,-0.004681610967963934,-0.2612948417663574,0.07227040082216263,0.06857829540967941,-0.17285963892936707,0.0376218818128109,0.13776740431785583,-0.10638342052698135,-0.17224083840847015,-0.01966458186507225,-0.017207518219947815,0.09648966044187546,0.04605947807431221,0.02557934634387493,-0.049703679978847504,-0.1249319314956665,0.044290680438280106,0.14808940887451172,0.2897047698497772,0.19156238436698914,-0.10308442264795303,-0.22220288217067719,0.08350992947816849,-0.06521662324666977,-0.21963027119636536,-0.18837885558605194,0.05330812186002731,-0.22625665366649628,-0.17014937102794647,0.2818032205104828,0.05836782976984978,0.12015997618436813,0.1336962878704071,-0.03462807461619377,0.23540174961090088,-0.14278481900691986,0.06029024347662926,-0.13636012375354767,0.014052113518118858,0.07238226383924484,0.12117943167686462,-0.1294347196817398,0.2689911425113678],[-0.072272889316082,-0.30365362763404846,0.018767161294817924,0.10690812021493912,0.1272052675485611,-0.1261226385831833,-0.1658690869808197,-0.07664419710636139,0.017887912690639496,-0.18498755991458893,0.046672970056533813,0.019571859389543533,-0.15115123987197876,0.016767239198088646,-0.012866606935858727,-0.1802319437265396,-0.18743038177490234,0.1444433480501175,-0.09543905407190323,-0.07224933058023453,0.09690064191818237,0.05429544672369957,-0.2119203805923462,-0.03845396265387535,0.024769797921180725,0.004655541852116585,-0.045503757894039154,-0.16438612341880798,0.3155934512615204,0.11350563168525696,0.02043887972831726,-0.09022535383701324,0.11605329066514969,-0.19636793434619904,-0.14081226289272308,-0.18895217776298523,-0.06417962163686752,0.18445728719234467,-0.1517636924982071,-0.02324647828936577,-0.10958942770957947,-0.10543293505907059,-0.0690842941403389,-0.20629891753196716,0.02763976901769638,0.08998719602823257,-0.022052278742194176,-0.2036714404821396,0.08430945873260498,0.04428644850850105,0.006202492862939835,-0.020511290058493614,-0.09693305194377899,-0.14215727150440216,0.14559748768806458,-0.07235116511583328,-0.13050639629364014,0.000043057163566118106,0.1962757706642151,-0.011264145374298096,0.09214494377374649,0.12164348363876343,-0.02847016230225563,0.07553643733263016,0.22262024879455566,0.019435996189713478,0.2871641218662262,0.146807461977005,0.15189124643802643,-0.046025969088077545,0.25921982526779175,0.061845436692237854,0.025101492181420326,-0.0012481770245358348,0.07257480919361115,-0.07086971402168274,-0.07085836678743362,-0.186394602060318,0.20873329043388367,0.09322842955589294,0.14574411511421204,-0.1001657098531723,-0.032222434878349304,0.2667332887649536,-0.09896668046712875,0.0799345076084137,-0.04623861983418465,-0.10947047173976898,0.0029774249996989965,-0.11453797668218613,-0.07114943861961365,-0.060312435030937195,-0.08382061868906021,0.1050863116979599,0.020525945350527763,-0.12046442925930023,-0.012587403878569603,0.019858820363879204,0.04222626984119415,-0.04871125519275665,-0.04648022726178169,-0.05497875064611435,0.08516568690538406,-0.01792316325008869,0.049490418285131454,-0.04274050146341324,0.13644815981388092,-0.035855479538440704,0.04715058207511902,0.03300092741847038,0.0378824807703495,-0.1014091968536377,0.09633131325244904,0.05860825255513191,-0.02264663390815258,-0.07552593946456909,0.08162208646535873,0.03259420394897461,-0.14360284805297852,0.08964715898036957,0.03978683799505234,0.05654392018914223,0.2369338721036911,-0.12163655459880829,-0.1415315419435501,-0.18366780877113342,0.11447811126708984,0.015039069578051567,-0.013049770146608353,0.007902230136096478,0.03333592414855957,-0.004319558385759592,0.11733333766460419,-0.008605251088738441,-0.17945536971092224,0.10675004869699478,0.01899702288210392,0.07058103382587433],[0.1005091667175293,-0.04042242094874382,-0.20956718921661377,-0.0846620425581932,-0.09634891152381897,0.07046277821063995,-0.1197873055934906,0.12057715654373169,-0.00805372092872858,0.05561253800988197,0.04115673527121544,-0.04762710630893707,-0.18501774966716766,-0.04513318091630936,0.016343632712960243,0.05352723225951195,-0.04220318794250488,-0.09977486729621887,-0.0003946565557271242,-0.09424611926078796,-0.09994328022003174,-0.1852971762418747,0.1413358747959137,-0.2209671139717102,-0.10144880414009094,-0.1649419069290161,-0.005278919357806444,-0.018345333635807037,0.1210532933473587,0.002757381647825241,-0.047577857971191406,-0.0008746027015149593,-0.12616023421287537,-0.13881513476371765,-0.1854299008846283,0.08012265712022781,-0.09725812822580338,0.05499880760908127,0.14188402891159058,0.1052507758140564,0.13655535876750946,-0.12899447977542877,0.06749433279037476,-0.012797905132174492,-0.04837261140346527,0.07102217525243759,0.20172418653964996,-0.012161191552877426,0.09560755640268326,0.05292877182364464,0.17285534739494324,-0.23142109811306,0.09933138638734818,0.25733816623687744,-0.13220757246017456,-0.17555773258209229,-0.0421048067510128,-0.1285601109266281,-0.021812578663229942,-0.0011705018114298582,-0.18892709910869598,0.05405213683843613,-0.19931766390800476,0.08320514112710953,-0.014444959349930286,-0.024668555706739426,-0.03197438642382622,0.032196272164583206,0.12119539827108383,0.04884616658091545,-0.045460063964128494,0.15192081034183502,-0.05660247802734375,-0.08087652176618576,-0.015349095687270164,-0.2032943069934845,0.04156474396586418,-0.12543195486068726,-0.03211585804820061,-0.08371876180171967,0.168916255235672,-0.08331619203090668,-0.025283852592110634,-0.20524942874908447,0.04316115751862526,0.06783687323331833,-0.13913090527057648,-0.11487556993961334,0.0833592340350151,0.04251454770565033,0.1204679012298584,-0.012776309624314308,0.21219336986541748,0.03856874257326126,-0.05677734687924385,0.05249973386526108,0.07540559023618698,-0.08819111436605453,0.10648483783006668,-0.15704745054244995,0.0035346108488738537,-0.028435124084353447,-0.040505100041627884,-0.014340007677674294,0.13979744911193848,0.14940914511680603,-0.024930734187364578,0.12380780279636383,-0.1088339239358902,0.19163301587104797,0.0915837287902832,-0.07254809141159058,-0.015315651893615723,0.08840440958738327,0.03573980554938316,-0.1980203092098236,0.02941637486219406,-0.047812290489673615,-0.17642901837825775,-0.21608777344226837,-0.039237942546606064,0.07788460701704025,-0.019973887130618095,0.035226307809352875,0.00023967845481820405,-0.08467801660299301,-0.08512444794178009,-0.15673157572746277,0.0949297696352005,-0.11370065808296204,-0.0637674555182457,-0.0686369240283966,-0.05400749668478966,0.06711851805448532,0.0344003327190876,-0.040301721543073654,-0.044891078025102615,-0.08018259704113007],[-0.03493561968207359,-0.013459532521665096,-0.05059364438056946,-0.005482528358697891,-0.07041382044553757,-0.05695270374417305,0.017701130360364914,0.22836221754550934,-0.22244112193584442,-0.020047664642333984,-0.08026362210512161,-0.09742852300405502,0.01896687038242817,0.044147226959466934,0.144002303481102,-0.03816412016749382,0.004844202660024166,-0.17287711799144745,0.06525503098964691,0.12531748414039612,0.02247440069913864,0.028746264055371284,0.06447029113769531,-0.17702262103557587,0.044971223920583725,0.1139986589550972,-0.1478034257888794,-0.15912668406963348,0.050774168223142624,0.0035445350222289562,0.06888734549283981,0.03115694969892502,0.20673757791519165,0.05987035110592842,0.0910719558596611,0.07736861705780029,-0.059475503861904144,0.048334475606679916,0.2174122929573059,0.21089783310890198,0.04238627851009369,0.11390305310487747,0.07472573220729828,-0.03175245597958565,-0.12036583572626114,0.12082715332508087,0.2761683166027069,0.20987893640995026,-0.06096532568335533,0.04035206139087677,0.0542600080370903,0.08430219441652298,-0.1266680359840393,-0.040724530816078186,-0.042875874787569046,-0.09912450611591339,-0.14007127285003662,0.04104383662343025,0.07830310612916946,0.2828209102153778,0.17024341225624084,0.08776141703128815,0.019356729462742805,-0.10384861379861832,-0.1795935034751892,0.05807041749358177,0.0496961735188961,-0.28143465518951416,-0.03658151626586914,0.0970470979809761,0.09030096977949142,0.14775969088077545,0.014479609206318855,-0.10594317317008972,-0.07017075270414352,0.20029288530349731,0.04566386342048645,-0.027901653200387955,-0.24819806218147278,0.01929926872253418,-0.09460942447185516,-0.1270793229341507,-0.1493200659751892,-0.013555483892560005,0.15338222682476044,0.07497694343328476,-0.10483291000127792,-0.048028647899627686,-0.12211381644010544,0.13468056917190552,0.13960132002830505,-0.028508033603429794,-0.02510690502822399,-0.14667849242687225,-0.0751383975148201,0.15634287893772125,-0.02021396905183792,-0.00783353392034769,-0.08353247493505478,0.18963685631752014,-0.04658951237797737,-0.005837205331772566,0.15154126286506653,-0.15631461143493652,0.16370026767253876,0.05794557183980942,0.1934148520231247,0.25154584646224976,-0.1884068250656128,-0.2225378006696701,0.09956416487693787,0.18595704436302185,-0.2198910117149353,0.27859774231910706,0.13690033555030823,-0.0904104933142662,0.006302526220679283,0.2421504259109497,0.0728258490562439,0.0266155693680048,-0.02162991836667061,-0.060307931154966354,-0.25321221351623535,-0.01133009698241949,0.10347464680671692,-0.21467773616313934,0.13114427030086517,-0.229427307844162,0.09340906143188477,0.01842612959444523,0.005928859580308199,0.07418284565210342,0.1285199373960495,0.061085984110832214,0.1042090356349945,-0.12161746621131897,0.039761245250701904,-0.020211756229400635],[0.0014187432825565338,0.082353875041008,0.026387982070446014,-0.12154445052146912,0.07916298508644104,-0.029337452724575996,0.013188016600906849,0.1805850714445114,0.10400639474391937,0.05431191250681877,-0.12089361250400543,0.08485641330480576,0.08721256256103516,-0.10013069957494736,-0.006692603696137667,0.17603394389152527,-0.029519256204366684,-0.14921459555625916,0.013099824078381062,0.03787998855113983,0.021172428503632545,-0.1562964767217636,-0.08392243832349777,-0.055376142263412476,-0.15115219354629517,-0.07598202675580978,0.11800654232501984,-0.19950167834758759,0.074202761054039,0.09943874180316925,-0.0909629613161087,-0.09239867329597473,-0.07373164594173431,-0.05089450255036354,-0.04345325008034706,-0.05844367295503616,0.07064150273799896,0.0899849459528923,-0.2186475545167923,0.02235356904566288,-0.16792188584804535,0.1374245285987854,0.04671504721045494,0.003057735273614526,0.10799680650234222,0.031883276998996735,-0.17151756584644318,0.07092542201280594,-0.06681931763887405,0.09596604108810425,-0.2903077304363251,0.039949990808963776,-0.08763658255338669,-0.12728559970855713,-0.011293640360236168,-0.06725522130727768,0.2095361351966858,0.14131899178028107,-0.11474069207906723,-0.09054967015981674,0.09214622527360916,0.03355887532234192,0.0012609789846464992,0.11476561427116394,-0.08499107509851456,0.03151111304759979,-0.015570471063256264,-0.015972133725881577,0.06620053201913834,-0.02587117627263069,-0.040095191448926926,-0.08058501034975052,-0.1927035003900528,-0.11779030412435532,-0.08546668291091919,-0.0362173356115818,-0.1784164309501648,-0.00962049514055252,0.25649112462997437,-0.001794119249098003,-0.08907753974199295,0.045500438660383224,0.06663928925991058,-0.05161721631884575,-0.03612148016691208,0.1589551419019699,0.17648263275623322,-0.1794893741607666,0.11488405615091324,-0.09901190549135208,-0.010840589180588722,-0.02062043733894825,0.014439466409385204,-0.07788149267435074,0.24688488245010376,0.12080118805170059,0.13286921381950378,0.16295599937438965,-0.009276208467781544,0.10124964267015457,0.06640718132257462,0.1568683683872223,-0.13944579660892487,-0.028501953929662704,-0.0018962541362270713,0.04809500277042389,-0.048714254051446915,0.1479720026254654,-0.05548620596528053,0.15401220321655273,-0.0356425978243351,0.06466823816299438,-0.11171568185091019,0.05536709725856781,-0.01977713219821453,0.01629069074988365,-0.04915058612823486,-0.09511058032512665,-0.12275681644678116,-0.2354731559753418,-0.25414198637008667,-0.0023515091743320227,0.20905286073684692,0.19748975336551666,-0.060133133083581924,-0.031484205275774,0.15740352869033813,0.06530403345823288,-0.02356448583304882,-0.06812261790037155,-0.08236070722341537,0.039505988359451294,0.04430616647005081,-0.0020329917315393686,-0.10028541833162308,-0.21893994510173798,0.06488584727048874,-0.059107206761837006],[-0.175272598862648,0.07900230586528778,0.04169598966836929,-0.06985105574131012,-0.12992998957633972,-0.22632884979248047,-0.0008318836917169392,-0.21894781291484833,0.26726678013801575,0.17323048412799835,0.011976098641753197,0.05040773004293442,0.0975472703576088,-0.04460375756025314,-0.16871236264705658,-0.11334187537431717,-0.06330703943967819,-0.05698288977146149,-0.122736856341362,0.00862146820873022,0.11328445374965668,0.07259733974933624,0.09286881238222122,0.06198405474424362,-0.1988084763288498,0.24084633588790894,-0.050835251808166504,-0.1532781720161438,-0.06328073143959045,0.12664078176021576,-0.07073209434747696,-0.139546737074852,0.16401050984859467,-0.10962633043527603,-0.07137881964445114,0.14413049817085266,0.11127188801765442,0.04788503795862198,0.022828152403235435,-0.060318563133478165,0.21182507276535034,-0.004438876640051603,0.07036791741847992,-0.021050607785582542,0.015004574321210384,0.1763269156217575,0.07564874738454819,-0.03857287019491196,0.16804662346839905,0.09754739701747894,0.22344371676445007,-0.050088051706552505,0.2450672835111618,0.11409152299165726,0.03357231616973877,0.04533151164650917,-0.02062630094587803,0.0470525324344635,-0.12575404345989227,-0.09242186695337296,0.10206907987594604,-0.09001170843839645,-0.09689317643642426,-0.11389704048633575,-0.12840785086154938,-0.11055504530668259,0.1655917465686798,0.13243570923805237,-0.07181243598461151,-0.02181411162018776,0.05213812366127968,0.05293167009949684,-0.11102752387523651,-0.09284494072198868,0.008962269872426987,-0.04803558066487312,0.07188807427883148,0.12023478746414185,-0.07848747819662094,-0.00874260999262333,0.20823423564434052,-0.1875576376914978,-0.0710400864481926,-0.06040293350815773,0.15431401133537292,-0.08310436457395554,-0.13050827383995056,0.012323289178311825,0.0683695524930954,0.05084150657057762,0.09907152503728867,0.11816713213920593,-0.034744251519441605,0.13139846920967102,-0.08217652142047882,0.1037692278623581,-0.17192783951759338,-0.07830517739057541,-0.07850047200918198,-0.04647272825241089,-0.09137915819883347,0.05662353336811066,0.0820528045296669,-0.036441028118133545,0.022357264533638954,0.07122468203306198,0.07801951467990875,-0.11220724135637283,0.19457517564296722,-0.045732997357845306,-0.006775421090424061,0.05189282447099686,-0.16563451290130615,0.2078961580991745,0.11831628531217575,0.09966438263654709,0.0012727082939818501,0.06188144534826279,0.2571442425251007,0.1296585500240326,-0.19066396355628967,-0.057912811636924744,-0.07206644117832184,0.21345683932304382,0.06336105614900589,0.05012898147106171,0.052527595311403275,0.08402656763792038,0.1487402468919754,-0.1665966808795929,-0.1596778780221939,-0.2682425379753113,0.12953054904937744,0.082159124314785,0.09214022755622864,0.3221546411514282,-0.09173338115215302,0.031390994787216187],[-0.09338259696960449,0.0841921716928482,0.21099568903446198,-0.0873245894908905,-0.18038159608840942,0.050092943012714386,-0.205362930893898,0.018253009766340256,-0.13442523777484894,-0.05622095242142677,-0.06680126488208771,-0.18352532386779785,-0.19486521184444427,-0.03568684309720993,0.004668451379984617,0.16473321616649628,0.04746996611356735,0.05653864145278931,0.0036948153283447027,-0.168127179145813,-0.10505650192499161,0.14618940651416779,-0.005805237218737602,-0.2412310093641281,0.03954566642642021,-0.11773217469453812,0.03234022483229637,0.010400147177278996,0.009023094549775124,-0.09728828072547913,0.24132589995861053,-0.004250796977430582,0.07262792438268661,-0.05966833233833313,0.08114011585712433,-0.0015970401000231504,0.2323896884918213,0.16327209770679474,-0.0444776676595211,0.15434405207633972,0.16389289498329163,0.02801981195807457,0.1382087916135788,-0.2488129884004593,0.04832775518298149,0.020136428996920586,-0.035438504070043564,0.13607019186019897,-0.1455017775297165,-0.007865989580750465,0.031949471682310104,-0.13241329789161682,-0.02113921009004116,-0.09765765815973282,0.18757955729961395,0.1335495412349701,-0.13255110383033752,0.05092719942331314,0.1150612086057663,-0.05953650921583176,0.14792418479919434,-0.11050927639007568,0.0849841982126236,0.004147638566792011,-0.044655703008174896,0.05115131288766861,-0.16607733070850372,0.06481041014194489,0.04829711094498634,-0.07523463666439056,-0.11224794387817383,-0.08951086550951004,-0.1629035919904709,-0.13067930936813354,-0.0019158485811203718,-0.027036655694246292,0.08357363194227219,0.08215519040822983,0.17967985570430756,-0.13446307182312012,-0.03889070823788643,-0.08880108594894409,-0.018056955188512802,-0.15700753033161163,-0.09665501117706299,0.08371329307556152,0.20247581601142883,0.12100821733474731,-0.07281068712472916,0.037638016045093536,0.06707882136106491,0.1620214283466339,0.08798956871032715,0.1069946214556694,0.04065214842557907,0.010352764278650284,-0.12030722945928574,0.030716823413968086,0.2902430593967438,0.031258512288331985,0.1605120599269867,0.017430029809474945,-0.03343837335705757,0.08135252445936203,0.05761285498738289,-0.14069390296936035,0.11051201075315475,-0.09917718172073364,-0.01242728903889656,0.027648957446217537,0.06007107347249985,0.00863280612975359,0.060099516063928604,0.00929296389222145,-0.0729561373591423,-0.06477078795433044,0.0023435652256011963,0.05445566400885582,0.21950052678585052,0.14339980483055115,-0.030899832025170326,0.07099521905183792,-0.07435379922389984,-0.18209214508533478,-0.06888413429260254,-0.05935313552618027,0.13535216450691223,0.1194804236292839,0.04455892741680145,0.22378969192504883,0.061842966824769974,0.2572339177131653,0.11784837394952774,0.03064533695578575,-0.08467663824558258,0.15719276666641235,0.006251383572816849,-0.054581694304943085],[-0.15261206030845642,0.13690249621868134,0.017936455085873604,0.08357089757919312,0.19279523193836212,-0.02033999003469944,0.032233115285634995,-0.2180006057024002,-0.02907683327794075,-0.11353526264429092,0.030435064807534218,-0.11110720038414001,0.0135264303535223,-0.011713375337421894,-0.08130496740341187,-0.127480611205101,-0.05433099344372749,-0.07763955742120743,0.13315264880657196,0.16141128540039062,0.11354658007621765,-0.04984704405069351,-0.051474492996931076,-0.18705599009990692,0.024273980408906937,-0.047156836837530136,0.0018663763767108321,-0.04102228581905365,-0.10902033746242523,0.09263460338115692,0.048589251935482025,0.21522094309329987,-0.07889598608016968,-0.0502074770629406,-0.09013845026493073,0.13580188155174255,-0.31052061915397644,-0.0932723879814148,-0.000027002019123756327,0.026381615549325943,-0.030443944036960602,0.1274740993976593,0.2636496126651764,-0.1388549655675888,0.1287342756986618,0.1710588037967682,-0.019005117937922478,0.2832964062690735,-0.08754832297563553,-0.0893341526389122,-0.24768246710300446,-0.03812968358397484,0.11449848860502243,-0.16126789152622223,0.09529174864292145,-0.0651509016752243,0.2123321294784546,-0.10034562647342682,0.0480608269572258,-0.26865771412849426,-0.017984524369239807,-0.003907773643732071,-0.11885354667901993,0.13961881399154663,0.11670766025781631,0.33359575271606445,0.06984969973564148,-0.02994415909051895,0.02430327609181404,0.15193182229995728,0.06565333157777786,0.11697874963283539,-0.0085484329611063,0.07385656237602234,-0.029569411650300026,-0.0004637849924620241,-0.06367120146751404,0.16691958904266357,-0.06002262979745865,0.18638698756694794,-0.04692710191011429,-0.03047780878841877,0.07059641927480698,0.0326232947409153,-0.03841833397746086,0.041583672165870667,-0.06917425245046616,-0.07591418921947479,0.25772330164909363,0.06742052733898163,-0.14074265956878662,0.0976407453417778,0.046489983797073364,-0.18074601888656616,-0.01945309340953827,0.0011567323235794902,0.22062866389751434,0.05704917386174202,0.13378138840198517,-0.061064764857292175,0.0021754910703748465,0.059832848608493805,-0.04187033697962761,-0.02975359931588173,-0.12555217742919922,-0.10418009012937546,0.04220854863524437,-0.20327754318714142,-0.014308813959360123,-0.1837136447429657,0.13894978165626526,-0.03600144386291504,-0.18208053708076477,0.050600841641426086,-0.09971541166305542,-0.03849798068404198,0.13210506737232208,-0.1796184480190277,0.04006282240152359,-0.10342998802661896,-0.022420333698391914,-0.07214345037937164,-0.08382755517959595,0.08592408150434494,-0.19551153481006622,0.106284961104393,0.11345890909433365,0.09577213227748871,-0.21168150007724762,0.06732562929391861,0.015401788055896759,0.003916705027222633,0.03966975957155228,-0.11633274704217911,-0.19603799283504486,-0.056952103972435,-0.02411913499236107,0.02880198322236538],[-0.10565675795078278,0.059772953391075134,-0.13914398849010468,-0.16009214520454407,0.3199312090873718,0.08588925749063492,0.09141570329666138,-0.020175384357571602,0.05936654284596443,-0.03138872608542442,0.2130153775215149,-0.1897234469652176,-0.09144922345876694,0.097831591963768,-0.036520153284072876,0.031019411981105804,-0.11108221858739853,0.25382015109062195,-0.02985605224967003,-0.027555136010050774,-0.10749505460262299,0.2349073588848114,-0.16447117924690247,0.08288097381591797,-0.13223958015441895,-0.11798950284719467,-0.07319149374961853,-0.090768001973629,0.08954361826181412,0.19890929758548737,-0.3816855549812317,-0.1816238909959793,0.13089412450790405,0.07282979041337967,0.036284636706113815,-0.07366811484098434,0.028774991631507874,0.006341856904327869,0.01821773126721382,-0.057148631662130356,-0.03874281793832779,-0.09567044675350189,0.013975808396935463,0.08784492313861847,0.04085415229201317,-0.22636480629444122,-0.17854709923267365,-0.15895970165729523,0.18102867901325226,-0.1482774168252945,-0.1708100289106369,-0.20484264194965363,0.06623301655054092,-0.16006223857402802,0.12009436637163162,0.010244864970445633,0.12881208956241608,0.26491376757621765,0.051556721329689026,0.09475372731685638,-0.20287209749221802,0.10434436053037643,0.14915060997009277,0.0018536776769906282,0.12477033585309982,0.17397558689117432,0.14170785248279572,-0.12216499447822571,0.02894705906510353,0.13860999047756195,0.009012388996779919,0.16650338470935822,0.1459764540195465,0.10023036599159241,0.05516396462917328,0.1777258962392807,-0.1368703693151474,0.002502047922462225,0.2242017686367035,-0.174345463514328,0.031126655638217926,0.23193924129009247,-0.06514974683523178,0.015099811367690563,0.018103187903761864,0.3086949288845062,-0.10163260251283646,-0.013604308478534222,0.05313601717352867,-0.028216741979122162,0.10606151819229126,-0.1410972625017166,-0.014966371469199657,-0.05394440144300461,0.17027774453163147,0.006360318046063185,-0.14809879660606384,-0.0012131843250244856,-0.03717856481671333,-0.10365764051675797,-0.18211287260055542,0.33221176266670227,0.040452990680933,0.28395938873291016,-0.05402713641524315,-0.007639944553375244,0.013309171423316002,-0.12163347005844116,-0.07622130960226059,0.10199610888957977,-0.028116775676608086,0.17991815507411957,-0.046174321323633194,0.13706324994564056,-0.03518633544445038,-0.0639396458864212,0.11162620782852173,-0.13098250329494476,0.006877773907035589,-0.07716459035873413,0.13364675641059875,0.013133271597325802,0.09670624881982803,0.0025208673905581236,0.04698416218161583,-0.0039039680268615484,-0.05289605259895325,-0.058970868587493896,-0.05847511813044548,0.058412253856658936,0.10720781981945038,-0.041899677366018295,0.15349344909191132,0.09812776744365692,-0.0972767248749733,0.07607071101665497,-0.14999037981033325,-0.12827907502651215],[0.10899216681718826,0.29386579990386963,-0.24227266013622284,-0.0008342707296833396,0.19371479749679565,0.14791198074817657,0.13679735362529755,0.10456305742263794,0.12917616963386536,-0.06596910208463669,-0.024034714326262474,-0.16399045288562775,-0.19121889770030975,-0.0993238091468811,0.07927226275205612,0.037728846073150635,-0.09737270325422287,-0.02289767749607563,-0.0603303387761116,0.06268994510173798,0.07111936807632446,-0.08150965720415115,0.06675363332033157,0.0004943179665133357,0.09727969020605087,-0.00008100277045741677,0.1814967840909958,0.10946974903345108,0.15123344957828522,-0.024979224428534508,-0.19083428382873535,0.06578494608402252,-0.049856897443532944,-0.06350107491016388,-0.08147700130939484,0.09064372628927231,0.28136327862739563,-0.074583999812603,-0.15066072344779968,0.16193218529224396,0.0376678965985775,0.06540238112211227,-0.09328483045101166,-0.0789121761918068,0.12418670207262039,0.1357705295085907,-0.14609088003635406,0.03140685707330704,0.03764594718813896,0.07978486269712448,0.00041124661220237613,-0.07385784387588501,0.11391544342041016,0.047679297626018524,-0.18250885605812073,0.06853067874908447,-0.1727081537246704,-0.058926038444042206,0.08874520659446716,0.1328308880329132,-0.00916922278702259,0.03855806589126587,-0.14116966724395752,0.07319409400224686,-0.16624999046325684,0.12473629415035248,0.22110486030578613,-0.06982681155204773,0.03986145555973053,0.1428086906671524,-0.000027972897441941313,-0.21279823780059814,-0.024330690503120422,0.0025739469565451145,0.1609218865633011,-0.2921992838382721,0.042480409145355225,-0.0952015370130539,-0.06788752228021622,-0.17537009716033936,-0.11678490042686462,-0.04327654093503952,0.015343335457146168,0.055702969431877136,0.19131536781787872,0.07327072322368622,0.17292553186416626,0.15435808897018433,0.12445606291294098,0.19869841635227203,-0.09911990910768509,-0.06065995618700981,-0.02281099371612072,0.008893431164324284,-0.05924862623214722,-0.08585856109857559,-0.11740554124116898,-0.11555036157369614,-0.1003585010766983,-0.06293750554323196,0.05828298255801201,-0.213749498128891,0.07138825207948685,0.1653447300195694,0.15174613893032074,0.26790958642959595,0.054149650037288666,-0.03058529458940029,0.09002867341041565,-0.15387381613254547,0.025756092742085457,-0.08211703598499298,0.07215575128793716,-0.10433828830718994,-0.036996256560087204,-0.08298715949058533,0.1020207405090332,-0.0559614896774292,-0.06571067124605179,-0.04438009113073349,-0.020604470744729042,0.0457862950861454,-0.0340215265750885,-0.26431986689567566,-0.021634072065353394,-0.209011971950531,-0.28826484084129333,-0.30931687355041504,-0.041407108306884766,0.2159544974565506,0.06894796341657639,-0.09306883811950684,-0.03495911881327629,0.10911208391189575,0.2211943119764328,0.18400177359580994,0.3151174485683441,-0.018914086744189262],[-0.0018261219374835491,-0.18340079486370087,-0.00372405257076025,0.03557777404785156,-0.18029990792274475,0.15056484937667847,-0.012897049076855183,-0.005035885609686375,-0.29347899556159973,-0.08854499459266663,0.3399375081062317,-0.08470655977725983,-0.006300727371126413,-0.18796811997890472,-0.2922074496746063,0.07992876321077347,0.01931678131222725,-0.30784279108047485,0.18603496253490448,-0.19093376398086548,-0.10379395633935928,-0.21081823110580444,0.05721390247344971,0.041428688913583755,-0.0043405937030911446,0.10115067660808563,-0.19993484020233154,-0.06558997184038162,0.1316312998533249,0.033484917134046555,-0.09409411251544952,-0.060890987515449524,-0.040698155760765076,-0.09062717854976654,-0.03094058856368065,0.05383222922682762,0.03441205248236656,0.05971638858318329,-0.05084550753235817,0.025754200294613838,0.2575437128543854,-0.17963624000549316,-0.20367349684238434,-0.09193377196788788,-0.02387140691280365,0.2917036712169647,0.10616103559732437,0.016773635521531105,0.0233522467315197,-0.1596079170703888,-0.05949537083506584,-0.1599976122379303,-0.07131824642419815,0.016519159078598022,-0.02579508163034916,-0.0558362677693367,0.07059293985366821,-0.023203643038868904,-0.07212205231189728,0.10993393510580063,0.1389763057231903,-0.0692751333117485,-0.03861689567565918,-0.1501498967409134,-0.05023302882909775,0.06911438703536987,-0.04279281571507454,0.09735926985740662,-0.05255047604441643,-0.10581503063440323,0.08207949995994568,-0.24145959317684174,-0.06938804686069489,0.1473974734544754,-0.060062479227781296,0.3199993371963501,0.08654700964689255,0.16176220774650574,0.1964329183101654,-0.11926611512899399,-0.021033266559243202,-0.145401731133461,0.023559167981147766,0.11314428597688675,-0.047609224915504456,0.1010051965713501,0.01923386938869953,-0.16291585564613342,0.08395379036664963,0.1331806480884552,-0.0838732197880745,0.17425718903541565,-0.008668187074363232,-0.11875419318675995,-0.0897427424788475,0.04032105579972267,0.18853749334812164,-0.019603552296757698,0.09996061027050018,-0.03518656641244888,0.043867118656635284,-0.12667854130268097,-0.25969797372817993,0.009697241708636284,-0.1689624935388565,0.12362467497587204,0.08248866349458694,-0.05552948638796806,0.17857979238033295,-0.12430587410926819,-0.04603269323706627,0.013973824679851532,-0.057402316480875015,-0.07888157665729523,0.0530143566429615,-0.15214921534061432,-0.10718519240617752,-0.12197521328926086,0.13795293867588043,-0.2583921253681183,0.04360372945666313,0.01766284555196762,0.01979747600853443,0.14222365617752075,-0.16900627315044403,0.005781964398920536,-0.0771126002073288,-0.020530737936496735,-0.022959981113672256,0.00020503191626630723,0.05334872379899025,-0.08428224921226501,0.017293034121394157,0.03434448316693306,-0.027022933587431908,-0.03074418380856514,0.05098525434732437,-0.10159195214509964],[0.04051126539707184,-0.2457195371389389,-0.07554814964532852,-0.08995646983385086,0.1257447898387909,-0.04585271328687668,0.1507672220468521,0.0843806117773056,-0.2844351828098297,0.20391206443309784,-0.1087561547756195,0.06082748994231224,-0.0767897292971611,-0.12842388451099396,-0.09295818209648132,-0.19997169077396393,0.020561113953590393,0.2108304649591446,-0.034308694303035736,0.02376370318233967,-0.04610070213675499,-0.010953232645988464,0.13782238960266113,0.04900982230901718,-0.12549148499965668,-0.1878318190574646,-0.003936189226806164,0.018380044028162956,0.015852129086852074,0.14535574615001678,0.11142514646053314,0.05429474636912346,0.0660211369395256,-0.028208574280142784,-0.11295635998249054,0.03223681449890137,0.05059513822197914,0.0557338148355484,0.15410545468330383,0.08966589719057083,-0.143965944647789,0.08638188987970352,-0.02602294459939003,0.13610023260116577,-0.05495964363217354,-0.175429105758667,-0.033927660435438156,-0.08866249024868011,-0.12444745004177094,0.01664561778306961,0.04745680093765259,0.17216195166110992,-0.009641217067837715,0.06327985227108002,-0.16224977374076843,0.055879827588796616,0.07239912450313568,-0.06635936349630356,0.11898697912693024,-0.06857630610466003,0.11119401454925537,0.037050969898700714,-0.0811019241809845,0.03941548615694046,0.18495284020900726,0.03140245005488396,-0.055806562304496765,-0.1544957458972931,-0.09586738049983978,0.029426030814647675,-0.10231371223926544,-0.007055957801640034,-0.12283765524625778,0.2452448308467865,-0.09999919682741165,0.02427571825683117,-0.06995142996311188,0.3015993535518646,-0.03861159831285477,0.13367465138435364,0.15220044553279877,0.0595736987888813,-0.01469983346760273,-0.06881117075681686,-0.21651442348957062,0.057487282902002335,0.11086888611316681,-0.1187732070684433,-0.06617918610572815,-0.09282612800598145,0.08064509928226471,0.02609693817794323,-0.07118790596723557,0.13402877748012543,-0.06397774815559387,0.11367631703615189,0.025217946618795395,0.058267753571271896,-0.012671378441154957,-0.18389864265918732,0.14913681149482727,-0.2826750874519348,-0.15096230804920197,-0.06017882376909256,-0.07179194688796997,-0.17218169569969177,-0.10705923289060593,-0.07113983482122421,-0.10282060503959656,-0.1310902088880539,0.1678001582622528,0.04571175575256348,0.1468687504529953,0.04062141850590706,0.07677264511585236,0.007859251461923122,0.08972188830375671,0.03361291438341141,-0.06515522301197052,0.07237788289785385,0.024440307170152664,0.029568413272500038,-0.05820438265800476,0.047151364386081696,-0.0935722291469574,-0.11721553653478622,0.18477502465248108,-0.11351792514324188,-0.1307363659143448,-0.24278612434864044,0.1980445832014084,0.016714027151465416,-0.19449853897094727,-0.008858521468937397,0.15162913501262665,0.13185273110866547,-0.10043945908546448,0.0016504231607541442],[0.14495299756526947,0.05693286284804344,-0.25531792640686035,0.0330926775932312,-0.21153461933135986,-0.12740154564380646,-0.04086436331272125,-0.17796550691127777,0.06521791219711304,-0.014393636025488377,-0.053970109671354294,-0.19577237963676453,-0.10986217856407166,0.0646493062376976,0.10901223123073578,-0.04027167335152626,0.07129998505115509,-0.03586212545633316,-0.00930460263043642,-0.21216262876987457,0.016826074570417404,0.04702463746070862,-0.10371636599302292,0.17187514901161194,0.10937391966581345,0.07311705499887466,-0.09998240321874619,-0.12746675312519073,-0.014593234285712242,-0.04257495328783989,0.037356406450271606,0.053912561386823654,-0.14186513423919678,-0.05926189199090004,-0.12194022536277771,0.08009672909975052,0.07121749222278595,0.15676112473011017,-0.2570756673812866,0.01842556893825531,0.03742742910981178,0.16255465149879456,-0.09403121471405029,0.0007816351717337966,0.05704043060541153,-0.023763496428728104,0.017341086640954018,0.02531018666923046,0.03882742300629616,0.15411917865276337,-0.060301169753074646,0.023007966578006744,-0.08461065590381622,-0.1827104091644287,-0.2813190817832947,0.3652722239494324,0.03382711485028267,-0.1455693393945694,0.2424400895833969,-0.12054729461669922,0.0870150476694107,-0.1117464080452919,-0.10137823224067688,-0.0911698192358017,0.1345261186361313,-0.06096336618065834,-0.03827594593167305,0.1298479288816452,0.029323771595954895,0.056794870644807816,-0.1428322046995163,0.2055220901966095,-0.006467938423156738,-0.057135920971632004,-0.12143690139055252,0.0933949276804924,-0.14762336015701294,0.08465535938739777,0.0698203518986702,-0.058430157601833344,0.09750444442033768,0.14688515663146973,0.1558506339788437,-0.1378505825996399,-0.12355104833841324,-0.0892343670129776,-0.20161238312721252,-0.0696885958313942,0.05979394167661667,-0.10854097455739975,-0.17743797600269318,0.12044765055179596,0.026717236265540123,-0.25094088912010193,-0.0751887634396553,-0.09465471655130386,-0.12068112939596176,-0.18719995021820068,0.09350794553756714,0.06717514246702194,-0.1517362743616104,0.015669390559196472,-0.0030121421441435814,0.060000620782375336,0.16039884090423584,-0.017389221116900444,-0.02186788246035576,0.005034023430198431,0.21318455040454865,0.09229660779237747,-0.13507293164730072,-0.012934578582644463,0.14500677585601807,0.07856625318527222,-0.11589515209197998,-0.003258561948314309,-0.0353911854326725,0.08006227016448975,0.04909990727901459,0.25719624757766724,0.08562466502189636,-0.10775776952505112,-0.004448875319212675,-0.0667889267206192,-0.24911309778690338,-0.14910495281219482,0.053739845752716064,-0.13062652945518494,-0.22666598856449127,0.059258077293634415,0.10107911378145218,-0.14737387001514435,-0.15687765181064606,-0.10589354485273361,0.0022144163958728313,0.053337227553129196,-0.08805269002914429,0.038366615772247314],[-0.06771086156368256,-0.14432893693447113,0.013373776338994503,0.034810759127140045,0.10023538768291473,0.11697839200496674,0.06794755905866623,0.04025103151798248,0.011909467168152332,-0.10069583356380463,0.09383311122655869,-0.03951054811477661,0.07867802679538727,-0.0344429537653923,0.14318059384822845,-0.055321019142866135,0.02285165898501873,-0.04986834153532982,0.28305894136428833,-0.121371328830719,-0.005750991869717836,0.15692868828773499,-0.06076052784919739,-0.04883594810962677,0.10372035950422287,-0.10539977997541428,-0.01641678996384144,-0.054386988282203674,0.04484245553612709,0.06990418583154678,0.08159077167510986,0.07602894306182861,-0.017352255061268806,-0.1558925211429596,0.12071716785430908,-0.1263817697763443,-0.19002848863601685,0.1751285344362259,-0.020705929026007652,0.12902016937732697,0.02427816204726696,-0.15155573189258575,-0.10119231790304184,0.03525876626372337,-0.01946520246565342,-0.006702205166220665,-0.26040932536125183,-0.21182219684123993,-0.17608529329299927,-0.006441422272473574,-0.03372705355286598,-0.013690869323909283,0.021346360445022583,-0.2861109673976898,-0.02206781692802906,0.2338193655014038,0.05113161355257034,0.037543367594480515,-0.23770678043365479,0.02078523486852646,-0.02145674079656601,0.25661617517471313,0.026093900203704834,-0.15964558720588684,-0.013810773380100727,-0.4968089163303375,-0.2857157588005066,-0.17941483855247498,-0.19591322541236877,-0.29375365376472473,-0.011886573396623135,-0.0676923394203186,-0.2006867229938507,0.1572207361459732,0.017117228358983994,-0.12383750081062317,-0.06784447282552719,-0.15005211532115936,0.0012871775543317199,-0.10403403639793396,-0.0866839662194252,-0.06424112617969513,-0.15216179192066193,-0.16838642954826355,-0.023092146962881088,-0.1319352239370346,-0.04702961444854736,0.0593310222029686,0.16073119640350342,0.010549473576247692,0.14730829000473022,-0.05288515239953995,-0.001043497584760189,-0.06674481183290482,-0.11658604443073273,0.3236701786518097,0.03257305175065994,0.20525629818439484,0.061812229454517365,0.0365915484726429,0.2990017235279083,-0.07154005020856857,0.013674921356141567,-0.09137341380119324,-0.050936151295900345,-0.013990869745612144,-0.22108426690101624,-0.1151837632060051,-0.09109365195035934,-0.24675683677196503,0.03202144429087639,0.1113521158695221,-0.20355044305324554,0.09422100335359573,-0.15826740860939026,-0.18440376222133636,-0.05276454985141754,0.18981213867664337,0.25903594493865967,0.07937063276767731,0.14408206939697266,-0.1662510484457016,0.0058830175548791885,-0.12415298074483871,-0.12005859613418579,-0.03646893799304962,-0.1268479973077774,0.19226959347724915,-0.126239612698555,-0.15809747576713562,0.09333888441324234,0.039804551750421524,-0.024780068546533585,0.1593201458454132,0.14445993304252625,0.15348143875598907,0.016364647075533867,-0.16695499420166016],[-0.11171305924654007,-0.09205254167318344,0.07148625701665878,0.013814067468047142,-0.02260826714336872,0.2500270903110504,-0.03839540481567383,-0.2515522241592407,0.14836357533931732,-0.08544822782278061,-0.21011675894260406,-0.04493885859847069,-0.06367310881614685,-0.07925266772508621,0.2364475578069687,-0.006416976917535067,-0.02622310258448124,0.11482010036706924,-0.24872951209545135,-0.01892748475074768,-0.12505944073200226,0.13072139024734497,-0.09133657813072205,0.084830142557621,-0.05539822205901146,0.11926385760307312,-0.047778163105249405,0.06303083896636963,-0.2895340323448181,-0.1679435670375824,0.22422055900096893,0.11487241089344025,-0.048265568912029266,-0.12248951196670532,0.07278606295585632,0.11114088445901871,-0.06342636048793793,0.13688990473747253,-0.1450762301683426,0.046418797224760056,0.012586139142513275,-0.12427908182144165,-0.27584272623062134,0.009462207555770874,0.19249176979064941,0.01566643826663494,-0.09858012199401855,0.019501319155097008,-0.14738069474697113,-0.041309162974357605,0.09682400524616241,-0.049190811812877655,0.16813232004642487,-0.026549315080046654,-0.020313650369644165,-0.1426929235458374,-0.13449472188949585,-0.001322091673500836,0.052417416125535965,0.2052549123764038,-0.16083942353725433,0.07137651741504669,-0.11684893816709518,-0.0365748293697834,0.03092149831354618,0.005651653744280338,0.12362709641456604,0.16136431694030762,0.08844412863254547,0.16864445805549622,-0.13500769436359406,-0.06622162461280823,0.026037881150841713,0.026812110096216202,-0.012006080709397793,-0.06498343497514725,0.056655049324035645,-0.13005903363227844,0.1303955465555191,-0.19977252185344696,-0.11645648628473282,-0.06806387007236481,-0.0005825455882586539,0.04404889792203903,0.019713204354047775,-0.08689357340335846,-0.06191104277968407,-0.03525954484939575,0.1444585919380188,-0.016519468277692795,-0.000801662215963006,-0.05349088832736015,-0.2232358455657959,0.10688499361276627,-0.20314772427082062,0.0436662882566452,-0.04314858093857765,0.10064630955457687,0.14375023543834686,0.024788497015833855,0.06576031446456909,-0.14154735207557678,-0.010759275406599045,0.20196424424648285,-0.15805061161518097,0.057640064507722855,-0.09444910287857056,-0.031011393293738365,0.018064435571432114,-0.002756566507741809,0.08867749571800232,-0.1603478342294693,0.08716163784265518,-0.013358306139707565,-0.03570425510406494,0.126314178109169,0.14359912276268005,0.030213946476578712,-0.14393994212150574,0.2821495831012726,0.043667908757925034,0.10958446562290192,0.18452878296375275,0.129975825548172,-0.13471506536006927,-0.004208882339298725,0.2602878510951996,-0.0635666772723198,0.08579997718334198,0.022992262616753578,0.02692362852394581,0.03081240877509117,0.2671128213405609,0.24497219920158386,-0.032648082822561264,0.027718560770154,0.08940437436103821,-0.06403873860836029],[0.11140022426843643,0.08904170989990234,-0.1804639846086502,-0.1516573280096054,-0.025547459721565247,0.10173092782497406,-0.24231643974781036,-0.24327930808067322,-0.08633805066347122,0.008425270207226276,0.14547288417816162,-0.020214471966028214,0.27206066250801086,-0.12289512157440186,-0.04905537888407707,0.032267168164253235,0.12093066424131393,0.13096831738948822,-0.08996828645467758,-0.09924507886171341,-0.18179787695407867,0.005179010331630707,0.17174848914146423,0.02567817084491253,0.05367583408951759,0.19903866946697235,-0.22181271016597748,-0.0850963220000267,-0.23334255814552307,-0.17275774478912354,-0.1674964278936386,0.04045821726322174,0.08061269670724869,-0.0850670114159584,0.03324366733431816,-0.045422300696372986,0.10685864835977554,0.03515755757689476,-0.17987360060214996,0.16267317533493042,0.014519349671900272,0.21295902132987976,-0.009705510921776295,-0.030644923448562622,-0.016091711819171906,0.008524104952812195,0.0006507093785330653,-0.07210347056388855,0.06159907951951027,0.02451881393790245,0.20117194950580597,0.19521267712116241,0.22048011422157288,-0.03575450927019119,-0.08209709823131561,0.08190195262432098,-0.1456187516450882,-0.24530038237571716,-0.22275128960609436,0.13479425013065338,-0.07837820053100586,-0.03632092475891113,-0.04970165714621544,-0.031365979462862015,-0.016379252076148987,-0.06137715280056,-0.09024257212877274,0.054544609040021896,-0.13882289826869965,0.11695379763841629,0.0005717490566894412,0.08912736177444458,-0.07788852602243423,-0.1064438670873642,-0.10178159922361374,-0.014332709833979607,-0.16069287061691284,0.07312421500682831,0.19468553364276886,-0.0016380615998059511,0.2427196502685547,0.19640390574932098,0.09193924814462662,0.13106669485569,-0.1271384060382843,-0.19906996190547943,-0.023776620626449585,-0.01645801030099392,-0.08942459523677826,-0.17246794700622559,0.0006499789888039231,0.22556695342063904,-0.1640055924654007,-0.12314648181200027,0.052789513021707535,-0.06625683605670929,0.0844159796833992,0.07946088910102844,0.07200529426336288,-0.05431552603840828,0.08698632568120956,-0.03333558142185211,0.16222773492336273,-0.15702775120735168,-0.011446790769696236,-0.128200963139534,-0.22832553088665009,-0.10122620314359665,0.014240613207221031,-0.10102514177560806,-0.000742099538911134,0.019357694312930107,-0.08717436343431473,0.16416755318641663,-0.003043689299374819,0.10087956488132477,0.07561555504798889,0.011568065732717514,-0.03674155846238136,-0.1078413724899292,0.04320329800248146,0.08641301840543747,0.17065870761871338,-0.1385781466960907,-0.05394454672932625,0.1799461394548416,0.023644372820854187,-0.05239582434296608,0.04370729997754097,0.1170121505856514,-0.0543062724173069,0.10500776022672653,0.01140050683170557,-0.2592106759548187,-0.17355993390083313,0.10273315757513046,0.06503290683031082,-0.09236354380846024],[-0.0627615824341774,0.014346130192279816,-0.008386361412703991,0.0557517446577549,-0.03483856841921806,-0.031144754961133003,0.1684582680463791,0.14482448995113373,0.03703029453754425,-0.05185023695230484,-0.2699522376060486,-0.0005742955836467445,-0.23577405512332916,-0.06623086333274841,0.05837474763393402,0.2011370211839676,-0.044971443712711334,0.11441874504089355,0.18467092514038086,0.02778245508670807,0.23186136782169342,-0.06930897384881973,-0.22547248005867004,-0.02610863372683525,0.10117810219526291,-0.11316084861755371,-0.09279777854681015,-0.039402566850185394,-0.0844031497836113,-0.009436833672225475,-0.12610994279384613,-0.1497933715581894,0.11440077424049377,0.045982662588357925,0.08888063579797745,-0.0015645389212295413,0.16333366930484772,0.15796364843845367,-0.08303610980510712,0.19479511678218842,-0.18543018400669098,0.05685047060251236,-0.05353543534874916,-0.050105467438697815,0.19557680189609528,-0.31470149755477905,-0.14626890420913696,-0.04552774876356125,0.12161485850811005,0.10910999774932861,0.13496071100234985,0.03346824645996094,-0.06347256898880005,-0.03409558907151222,-0.09045826643705368,-0.09047449380159378,0.07707472145557404,0.10125431418418884,0.14266356825828552,-0.10773946344852448,-0.018152087926864624,-0.005188720766454935,-0.14832048118114471,0.1329265534877777,-0.029523344710469246,-0.017338527366518974,0.09706906974315643,0.10339752584695816,-0.23017923533916473,0.03398210555315018,0.0011097308015450835,0.09697721153497696,0.05747458338737488,-0.007569504901766777,-0.10016245394945145,-0.02300608716905117,0.10913186520338058,0.20877110958099365,-0.04324493184685707,0.13093020021915436,-0.08046508580446243,0.02918381057679653,0.059970296919345856,0.21200528740882874,0.05436086282134056,-0.16844047605991364,0.08481094241142273,0.07645925134420395,-0.08219628036022186,-0.03929038718342781,-0.062399785965681076,-0.08360685408115387,0.009715134277939796,-0.17041757702827454,-0.02125481702387333,-0.1945921778678894,0.047906115651130676,-0.045487843453884125,-0.08540155738592148,-0.1546620875597,-0.09851321578025818,0.019748535007238388,0.08019489794969559,0.070029616355896,0.15992368757724762,0.08844798058271408,0.2972787916660309,-0.12271587550640106,0.11925193667411804,-0.145197331905365,0.045198213309049606,-0.010507412254810333,-0.020937271416187286,0.1596749871969223,-0.05542507395148277,0.10519827157258987,-0.06820151209831238,-0.020922711119055748,-0.05615036562085152,0.10233548283576965,-0.04965028911828995,0.03751218691468239,0.056051138788461685,0.017630012705922127,-0.03296317532658577,0.12219234555959702,-0.17242589592933655,0.013748104684054852,0.14132016897201538,0.17988274991512299,-0.10150313377380371,-0.06950048357248306,-0.036302343010902405,-0.06193956732749939,0.1783750206232071,-0.037122175097465515,0.09046097099781036,-0.08812206983566284],[0.03221932053565979,-0.18128140270709991,-0.13152635097503662,0.07340136915445328,0.021283971145749092,-0.023416737094521523,-0.00013041842612437904,0.12985475361347198,0.06474290043115616,-0.1741843968629837,0.08376245200634003,-0.05375531315803528,0.1569710075855255,-0.028959965333342552,-0.07972708344459534,0.18761904537677765,-0.12714391946792603,-0.08838840574026108,-0.10624121129512787,0.05814513564109802,0.14994806051254272,0.12616799771785736,0.19204269349575043,-0.01170587632805109,-0.006650932133197784,-0.03624855354428291,0.07749511301517487,-0.23956070840358734,-0.02808091789484024,0.2153351604938507,0.050299253314733505,-0.02402881160378456,0.12329824268817902,-0.212472066283226,0.0727534070611,0.07059774547815323,-0.05190099775791168,0.23021943867206573,-0.07133219391107559,-0.10345109552145004,-0.016625653952360153,0.04716993495821953,-0.3593195676803589,-0.020039090886712074,0.10158593952655792,-0.09619530290365219,-0.14471760392189026,-0.03449798375368118,-0.11532456427812576,-0.042889852076768875,-0.13873827457427979,-0.11995232850313187,0.09797297418117523,-0.18343417346477509,-0.07488202303647995,-0.0006192463333718479,-0.2037264108657837,0.2272445410490036,0.08556647598743439,-0.15579760074615479,-0.02594185061752796,-0.040173761546611786,-0.023784665390849113,0.1275295615196228,0.03762323036789894,-0.05563946068286896,-0.015224253758788109,0.0408988893032074,-0.20995724201202393,0.08891788125038147,-0.08552945405244827,0.10632234811782837,-0.060454197227954865,0.17920178174972534,-0.04350392520427704,-0.05498579517006874,-0.06276398152112961,-0.21958354115486145,-0.21969352662563324,-0.21646082401275635,-0.10273783653974533,0.02787863090634346,-0.05385080352425575,0.06948325783014297,0.061656754463911057,0.11422610282897949,-0.19943192601203918,0.0596226342022419,-0.034874435514211655,0.002633476397022605,-0.12934595346450806,0.07466720044612885,0.07458606362342834,-0.12258698791265488,-0.07925918698310852,-0.2901195287704468,0.019063618034124374,-0.10270997881889343,-0.07019921392202377,0.13797064125537872,0.17929194867610931,0.09106023609638214,-0.05865621194243431,0.01854625530540943,0.008799556642770767,0.127851665019989,-0.09806913882493973,-0.1461372971534729,0.00033526160405017436,-0.006101157050579786,0.19511014223098755,0.07104507833719254,0.1149941012263298,0.008131289854645729,-0.22480010986328125,0.07532749325037003,-0.11669661849737167,0.01805054023861885,-0.06375941634178162,-0.035063378512859344,0.10349580645561218,0.0025809367652982473,-0.11228299140930176,-0.15254953503608704,0.0035350038670003414,0.014751944690942764,0.04060720279812813,0.052626777440309525,-0.2062467336654663,0.20482762157917023,-0.03202551230788231,-0.11314799636602402,0.009987017139792442,-0.05508911609649658,0.11045710742473602,-0.1953989714384079,-0.2178489714860916,-0.1341998130083084],[0.05436573922634125,0.07214570790529251,0.1533941626548767,-0.2327612191438675,0.0015804206486791372,-0.14598402380943298,-0.05442023277282715,0.10904007405042648,-0.04942012205719948,-0.07850205153226852,0.15273112058639526,-0.14665630459785461,0.044645894318819046,-0.04127035290002823,-0.0389210507273674,-0.03085329756140709,-0.029837539419531822,-0.016649853438138962,-0.06473836302757263,-0.13038919866085052,0.21708492934703827,0.09908086806535721,0.1620183289051056,0.15890534222126007,0.15124991536140442,-0.05776027590036392,0.24086396396160126,0.03956477344036102,-0.08525322377681732,-0.1033499613404274,-0.11308610439300537,-0.13944661617279053,-0.06960821896791458,-0.1373869925737381,0.0014601422008126974,0.06201911345124245,0.038485217839479446,0.17715226113796234,0.052486274391412735,-0.0559091679751873,-0.07999595254659653,-0.1717754304409027,-0.12409625202417374,0.13910125195980072,-0.09265049546957016,0.15984977781772614,-0.2553936243057251,-0.07142055779695511,-0.19930288195610046,-0.09490776062011719,-0.1981877088546753,-0.20685726404190063,0.007425415795296431,-0.05246158316731453,0.1727263331413269,-0.0022023948840796947,-0.22439377009868622,0.02465570904314518,-0.23403635621070862,-0.014682013541460037,0.05953989923000336,-0.04677693173289299,-0.03782346844673157,-0.05104070156812668,-0.16195645928382874,-0.08380349725484848,-0.06943021714687347,-0.11777239292860031,0.03519410267472267,0.18457163870334625,0.0630030706524849,0.11778654903173447,0.234273761510849,0.12831446528434753,-0.0028474333230406046,0.041191957890987396,-0.15594761073589325,-0.009399096481502056,-0.043551839888095856,-0.29005664587020874,-0.137119323015213,-0.005079023074358702,0.1077694296836853,0.08105425536632538,-0.10615185648202896,0.023880932480096817,0.1078248992562294,0.03202207013964653,-0.06636761128902435,-0.01350611262023449,-0.011301480233669281,0.10986879467964172,0.14613665640354156,0.09108661115169525,0.12960940599441528,0.11320894211530685,-0.18556970357894897,0.3354395627975464,-0.10728904604911804,-0.11966315656900406,-0.030496468767523766,-0.0667247548699379,0.04591125622391701,0.060387033969163895,-0.1150946244597435,0.16851826012134552,-0.20095019042491913,0.10354139655828476,0.01419179979711771,-0.01802614890038967,-0.055083610117435455,-0.137745663523674,0.16963349282741547,0.07337015122175217,0.09568945318460464,-0.06814230233430862,0.08715014904737473,-0.03031819872558117,-0.15629790723323822,-0.02159940078854561,-0.08637984842061996,-0.14397159218788147,0.045870937407016754,-0.03722044825553894,0.12663452327251434,-0.06281039863824844,-0.05456412211060524,0.173794224858284,0.026842886582016945,0.15422038733959198,-0.21088433265686035,0.24298502504825592,-0.0877465084195137,0.14148250222206116,-0.10429752618074417,-0.07642305642366409,0.00861152820289135,-0.13181503117084503],[-0.07453634589910507,0.06953566521406174,-0.03764277324080467,-0.0999695360660553,-0.11319643259048462,-0.0340411476790905,0.17827260494232178,-0.0477946437895298,0.18923230469226837,-0.1361960619688034,0.12914840877056122,-0.029592135921120644,-0.06646855175495148,-0.14191469550132751,-0.08775542676448822,0.17587058246135712,0.22333528101444244,-0.06766631454229355,0.02433040179312229,-0.11037410795688629,-0.1347792148590088,0.10916759818792343,0.12513473629951477,0.16876423358917236,-0.0694349929690361,0.0053620729595422745,0.1415511816740036,0.10664145648479462,0.05496673658490181,0.036986637860536575,-0.15220044553279877,0.0903845801949501,0.04090648889541626,-0.08674875646829605,0.2231280505657196,-0.03549095243215561,0.051100559532642365,-0.03271148353815079,0.04819828271865845,0.14778193831443787,-0.03810616955161095,0.06989958137273788,0.20559902489185333,-0.14065489172935486,0.1975651979446411,-0.06820330023765564,0.2518007159233093,-0.06997043639421463,0.0158748347312212,-0.02192448079586029,0.04345051571726799,-0.19190336763858795,-0.07644711434841156,0.10729509592056274,0.1650446355342865,0.10927656292915344,-0.19164161384105682,-0.009994253516197205,-0.006550306919962168,-0.046019431203603745,-0.13666021823883057,0.16057856380939484,-0.018403641879558563,-0.022593233734369278,-0.0033769342117011547,0.060385096818208694,0.0913381353020668,0.05072794482111931,-0.06415809690952301,0.24208782613277435,-0.05412721633911133,-0.05033338442444801,0.000926333712413907,0.06282462179660797,0.05934705212712288,-0.14955073595046997,0.21981440484523773,-0.07473370432853699,-0.052411578595638275,-0.030030403286218643,-0.26494917273521423,-0.04814719781279564,-0.03960341587662697,0.10990679264068604,-0.02989998459815979,-0.12955468893051147,0.279082715511322,-0.12046726793050766,-0.07156499475240707,-0.14181314408779144,-0.08790481835603714,0.06538521498441696,-0.10826611518859863,-0.06315863877534866,0.025586312636733055,-0.04856005311012268,-0.019376086071133614,-0.04007270187139511,-0.09353794157505035,0.10927538573741913,0.07428836077451706,0.08851606398820877,0.016335902735590935,-0.041813310235738754,-0.025452621281147003,-0.1836673468351364,-0.08330116420984268,-0.24874496459960938,-0.25247231125831604,0.012385189533233643,0.029375070706009865,0.20077160000801086,0.11473295092582703,0.0005454626516439021,-0.0465940423309803,-0.22101302444934845,-0.01715255156159401,-0.1435939073562622,-0.014689580537378788,0.06444704532623291,-0.04122815653681755,-0.10957475006580353,-0.049460697919130325,-0.1905854493379593,0.04157138988375664,0.1817290335893631,0.022225789725780487,-0.047365132719278336,0.0473637692630291,0.13257306814193726,0.0864274650812149,-0.054797541350126266,0.12320245057344437,0.04707282409071922,0.07976724952459335,0.08922727406024933,0.19485311210155487,0.08757460117340088],[-0.06460294872522354,-0.007410508114844561,0.11626172065734863,-0.0449209026992321,-0.007119790185242891,-0.0862250104546547,-0.010757424868643284,0.050866108387708664,0.16813255846500397,0.07865916192531586,0.08066581189632416,-0.24082662165164948,0.19463253021240234,0.012973735108971596,-0.06911994516849518,-0.10202772915363312,-0.14832967519760132,-0.17875821888446808,-0.058671168982982635,0.05763188377022743,0.09733983874320984,0.1885642260313034,0.023947689682245255,0.03809969872236252,-0.12034393846988678,0.0017325556837022305,-0.07405435293912888,-0.05319557711482048,0.24215731024742126,0.1341722011566162,0.28581032156944275,-0.05582010746002197,-0.23768089711666107,-0.04625004529953003,0.04356405511498451,-0.019014282152056694,0.035303886979818344,0.03074696473777294,0.018273593857884407,0.04922992363572121,-0.08515766263008118,-0.15686015784740448,0.09009668976068497,-0.008696752600371838,-0.15408074855804443,-0.03263591229915619,-0.12270377576351166,0.11800438910722733,0.05846080556511879,-0.06357339769601822,-0.19720207154750824,0.09244091063737869,0.02186858467757702,0.07790485769510269,-0.18178054690361023,-0.0019593248143792152,-0.2652905285358429,0.021799053996801376,0.18728436529636383,-0.26185357570648193,0.014240546151995659,0.09795763343572617,-0.07356350868940353,0.03157079219818115,0.19939637184143066,0.007039164192974567,-0.02114062011241913,0.0662955492734909,-0.12713786959648132,0.028671687468886375,0.26828137040138245,-0.029297128319740295,-0.058208540081977844,0.08950245380401611,-0.05841362103819847,-0.10563477128744125,0.1532210409641266,-0.08017872273921967,-0.009848283603787422,0.02157357893884182,-0.03065594471991062,0.17466765642166138,-0.007637028582394123,-0.10439851135015488,-0.0077703846618533134,0.006526539102196693,-0.18825066089630127,-0.09800852835178375,-0.048987362533807755,-0.01793733239173889,-0.08164718747138977,0.006696619559079409,0.03374161943793297,-0.04213658720254898,0.1799607276916504,-0.07277968525886536,-0.011954082176089287,0.044322382658720016,0.1938665360212326,-0.34589651226997375,-0.168723464012146,0.09744880348443985,-0.0816660225391388,-0.014540139585733414,-0.11585375666618347,0.030938902869820595,0.19545041024684906,0.22012978792190552,-0.09414669871330261,0.032683324068784714,-0.08396755158901215,0.02277844026684761,0.030711447820067406,-0.2927149832248688,-0.1077738106250763,0.07139222323894501,0.1555389016866684,-0.3153015971183777,-0.021684957668185234,0.0188765786588192,-0.02623988687992096,0.015416167676448822,0.08916711807250977,-0.30595317482948303,-0.16348251700401306,0.21185088157653809,-0.06305251270532608,-0.055765580385923386,0.035537950694561005,0.017896249890327454,-0.08564504235982895,-0.06343889236450195,0.13744059205055237,0.014218016527593136,-0.10895119607448578,-0.044936127960681915,-0.055646032094955444,-0.1182698905467987],[-0.07295244187116623,0.05874478816986084,-0.2236681580543518,-0.18726110458374023,-0.02736245095729828,0.15015794336795807,0.056193601340055466,0.13931307196617126,0.015094168484210968,-0.0010703589068725705,0.15092267096042633,0.1679825335741043,0.2964942157268524,-0.15664055943489075,-0.06927762925624847,-0.09389916062355042,0.05286932364106178,0.12052667140960693,-0.02800789847970009,-0.09050791710615158,0.300995409488678,0.07652849704027176,0.016123386099934578,-0.1957504153251648,0.0419757179915905,-0.1287931352853775,-0.19804878532886505,0.0996105819940567,-0.08719367533922195,-0.005923079792410135,0.046776846051216125,0.12114390730857849,0.15503543615341187,-0.15699172019958496,0.1784142553806305,0.26611223816871643,0.06704182177782059,0.22631974518299103,0.15849781036376953,0.019411781802773476,0.05332953855395317,-0.21797914803028107,0.1732943207025528,0.07867272943258286,0.11541523784399033,-0.1127762421965599,0.022688696160912514,-0.06975144892930984,0.02243078500032425,-0.23521067202091217,0.015505969524383545,0.03812115266919136,0.011880594305694103,-0.008520898409187794,0.17466270923614502,-0.22236713767051697,-0.029495973140001297,-0.05262792482972145,0.022607112303376198,-0.14797808229923248,0.013337156735360622,-0.17048467695713043,-0.1418370008468628,0.09216201305389404,0.15464769303798676,0.09075907617807388,-0.0008833528845570982,-0.12060029059648514,-0.10040165483951569,-0.13094539940357208,0.07142292708158493,0.0014411377487704158,0.20259793102741241,-0.0566854365170002,-0.17353609204292297,0.1765742152929306,-0.032771576195955276,0.004566600546240807,0.1566605418920517,0.06870199739933014,0.12201060354709625,0.1023610457777977,-0.06242751702666283,-0.28104662895202637,0.018588444218039513,0.06830994039773941,-0.1318562924861908,0.18883666396141052,0.1874965876340866,-0.07435674220323563,0.05495729297399521,-0.16279710829257965,-0.04296378046274185,0.12210222333669662,-0.05346103385090828,-0.05125078931450844,-0.2022322118282318,-0.1313062608242035,-0.02005961909890175,0.022818470373749733,-0.00732635660097003,-0.04322041943669319,0.2321091890335083,-0.14675691723823547,-0.03557569533586502,0.01772785559296608,0.10335750877857208,-0.21329091489315033,0.001997525803744793,-0.28105849027633667,0.03170387074351311,-0.06039762496948242,-0.2564774453639984,-0.09857688844203949,-0.06597333401441574,0.11936292797327042,0.01986706629395485,-0.21122483909130096,0.09255899488925934,-0.026978885754942894,0.07711008936166763,0.08373599499464035,-0.09886081516742706,0.10792531073093414,-0.143987238407135,0.1294691562652588,-0.10463187843561172,-0.014167390763759613,-0.07858060300350189,0.022698506712913513,0.12360701709985733,0.05895915627479553,0.24507658183574677,-0.13877281546592712,0.13287468254566193,0.18474428355693817,0.13066306710243225,0.007931758649647236],[0.037089746445417404,0.21279974281787872,0.30053722858428955,0.12748050689697266,-0.31690576672554016,0.09420718997716904,0.11557911336421967,-0.06400658935308456,0.033382710069417953,-0.09476469457149506,0.10568152368068695,-0.3210306763648987,-0.05518746003508568,-0.12409967929124832,-0.0033666547387838364,-0.06548276543617249,-0.04464569315314293,-0.017064403742551804,-0.13074296712875366,-0.14047956466674805,-0.19409964978694916,0.07799411565065384,0.14796209335327148,-0.09910975396633148,-0.21484442055225372,-0.11878164857625961,-0.08186405897140503,-0.1343425214290619,0.1196461170911789,0.061116039752960205,-0.025261159986257553,-0.10363408923149109,0.10320644080638885,-0.08533427864313126,0.03468552231788635,0.20830105245113373,0.09396354109048843,-0.03270088508725166,0.039994388818740845,0.021789520978927612,-0.18671275675296783,0.02507493644952774,-0.02595035545527935,0.311629056930542,-0.06508874148130417,-0.12817515432834625,-0.1621246635913849,0.21396887302398682,0.2198086529970169,0.08196192234754562,-0.08335094153881073,-0.14692048728466034,0.011203788220882416,-0.01885237917304039,0.04995105043053627,0.1646781861782074,0.012705073691904545,0.1195513978600502,0.027162836864590645,-0.1250707358121872,0.08288455009460449,-0.04189543426036835,0.02055651880800724,0.04172287508845329,-0.10239153355360031,-0.05248333141207695,0.10218220204114914,-0.10553903877735138,-0.029493087902665138,-0.20247121155261993,0.2799864411354065,0.1811690777540207,-0.042441267520189285,-0.14263007044792175,0.07525812089443207,0.15598158538341522,0.17485038936138153,0.05814351141452789,0.1169498860836029,-0.004710686858743429,0.02401062473654747,0.012208526954054832,-0.17592976987361908,0.1497025042772293,0.07324124127626419,-0.043161533772945404,-0.003581900615245104,-0.1936909258365631,0.0032638683915138245,-0.1860867589712143,0.013230130076408386,0.13449722528457642,0.08074530214071274,0.07583779841661453,-0.15835332870483398,-0.016763467341661453,-0.06463108956813812,-0.029610514640808105,0.12543806433677673,-0.13158123195171356,-0.13053826987743378,-0.022036412730813026,-0.06460845470428467,-0.06623712182044983,-0.18973106145858765,0.1543867439031601,0.11271516233682632,0.17803843319416046,0.1605529636144638,-0.033888526260852814,0.1977795958518982,-0.0756186991930008,0.13029246032238007,-0.07573439180850983,0.04062383621931076,0.05183548480272293,0.20256178081035614,0.14930158853530884,0.03616507351398468,0.2881956994533539,-0.07407624274492264,-0.15806400775909424,-0.10352872312068939,0.12223853915929794,0.0627574771642685,-0.032771579921245575,-0.1848929077386856,0.047175753861665726,-0.060945190489292145,-0.123105488717556,-0.10727003216743469,-0.15446022152900696,-0.16734014451503754,0.051445651799440384,-0.055697694420814514,0.04184284433722496,-0.13859803974628448,-0.024370422586798668],[-0.30778586864471436,0.0013371299719437957,0.0434124581515789,0.0004806588403880596,0.011628293432295322,-0.05365787819027901,-0.09479287266731262,0.12676024436950684,0.12475918233394623,-0.029302550479769707,-0.2649858295917511,0.04917706176638603,-0.0885983258485794,0.10134944319725037,0.10088290274143219,-0.08796610683202744,0.054686497896909714,-0.1429145187139511,0.08864179998636246,0.010305138304829597,0.168669655919075,-0.11965125054121017,-0.07269305735826492,-0.016777051612734795,0.027217091992497444,-0.10079217702150345,0.10839369893074036,-0.0035333067644387484,0.0851968377828598,0.0794239416718483,0.15883833169937134,-0.03751898929476738,-0.11400531232357025,-0.000890615803655237,0.21497927606105804,-0.06161864474415779,-0.135265052318573,-0.020509513095021248,-0.1856805831193924,0.2366829365491867,-0.06819209456443787,-0.19814454019069672,-0.007037854753434658,-0.09186745434999466,0.02082023397088051,0.003695323597639799,0.016782034188508987,0.13917317986488342,-0.05677280202507973,0.15647010505199432,-0.07000555843114853,0.003143144305795431,0.06276669353246689,0.04149052873253822,0.06768373399972916,-0.1182357519865036,-0.09922866523265839,-0.2043251395225525,-0.14788269996643066,-0.1202438548207283,0.06700797379016876,-0.13146665692329407,-0.058978572487831116,0.06361977010965347,0.04059300199151039,0.21443375945091248,-0.10608994960784912,-0.04950442165136337,-0.13743075728416443,-0.04274851456284523,0.2563721537590027,-0.14143775403499603,0.0921797826886177,-0.13304001092910767,-0.1918691247701645,-0.05703943222761154,0.17194396257400513,0.0541955903172493,0.04602432996034622,0.026303216814994812,0.002169864485040307,0.14580778777599335,-0.3060972988605499,-0.06500841677188873,0.0825393944978714,0.03047054633498192,0.2302187830209732,0.1871594786643982,-0.28792789578437805,0.10335654765367508,-0.04400310292840004,-0.043826885521411896,0.020628787577152252,-0.11819509416818619,0.010591937229037285,0.10987973213195801,0.09090974181890488,0.08216246217489243,-0.09746266156435013,-0.27092668414115906,0.0900193452835083,0.11388866603374481,-0.05606335401535034,-0.21197469532489777,-0.007262069266289473,0.18003803491592407,-0.21544118225574493,-0.01530001126229763,-0.04780147224664688,0.2511339783668518,-0.10153559595346451,-0.03606933355331421,-0.004679009784013033,0.008424229919910431,-0.2571142315864563,0.12013683468103409,-0.15039052069187164,-0.05019082501530647,0.0675278827548027,-0.1516028791666031,-0.14160624146461487,0.21405532956123352,-0.045802198350429535,0.08883916586637497,0.11191072314977646,-0.10654990375041962,0.16915418207645416,-0.1322627067565918,-0.3007604479789734,-0.19756652414798737,0.041442763060331345,-0.307529479265213,0.06369095295667648,-0.14197568595409393,0.11816349625587463,0.15636184811592102,0.01837829127907753,-0.3619599938392639],[-0.04162116348743439,-0.02308986335992813,-0.23676639795303345,-0.07813219726085663,0.044317618012428284,-0.12681560218334198,-0.21748191118240356,0.021620742976665497,-0.09910794347524643,0.20925676822662354,0.2929178774356842,0.1698414534330368,0.024590834975242615,-0.08778342604637146,0.16716459393501282,0.10864748060703278,0.08518485724925995,-0.14384642243385315,0.039229024201631546,0.05817967653274536,0.033427733927965164,-0.1944158673286438,0.03285340964794159,0.20496292412281036,-0.16689729690551758,0.07297015935182571,-0.03619368374347687,